-1.18843
-1.40891
-1.37066
-0.65935
-0.941251
-1.27428
0.202127
-0.720499
-0.0780313
-0.796515
-2.93454
0.825737
1.64871
12.1585
-3.46729
-2.96745
1.56255
-1.53593
-0.721338
10.155
-0.546263
0.272181
-9.44435
0.334331
0.0946042
-0.257202
0.127529
0.0466176
0.322784
1.47598
-0.00634557
-0.766414
-0.760948
-0.24876
-0.17572
-0.170372
-0.220058
0.639639
1.24093
-0.973545
-0.369249
0.634219
-0.0615111
-0.0195517
0.444337
1.55464
3.12287
-0.541903
-4.19921
-11.6297
3.13588
4.16581
-2.04987
1.74
-0.564016
2.43691
0.324016
2.73991
-13.5293
-0.486182
-0.341007
2.46468
0.496994
-1.60523
-5.75466
0.80262
3.48974
13.4986
-2.57401
-4.93538
2.83144
-2.71657
-1.09843
-0.75779
-1.06911
-1.33935
-1.19827
-1.19549
-1.2163
-1.2034
-1.35661
-0.0706412
-0.925647
-0.262459
-2.66434
-2.17878
0.205876
-0.119267
0.589884
-0.898753
0.00691855
-2.55727
-0.351535
2.31566
10.8142
0.656706
-0.377796
-2.44558
-0.351589
0.120363
-0.327657
0.948183
0.574122
1.91712
-0.647912
1.2069
1.01728
-0.80642
12.7909
14.3705
-2.86782
-15.6951
-8.23073
1.83486
2.30223
-4.52189
1.04908
-1.01668
0.534826
0.335901
-12.1738
12.6322
-0.306754
0.158545
0.129389
-0.359626
-5.05268
4.38962
0.331526
5.02403
-4.07418
-0.259182
-0.270205
-0.11993
0.0723606
-1.36478
0.131588
-1.2325
-1.14357
-0.931587
-0.466105
-1.3818
-0.898698
-0.189957
-0.484396
-0.521485
0.318352
-0.674262
-0.517533
-0.223567
-0.558151
-0.890888
-0.0708562
1.76571
4.9756
0.673524
3.80666
6.82442
0.371348
3.01287
4.1753
-1.54884
-3.19297
-25.7482
-2.41872
-1.62267
0.942201
-0.971322
5.2685
24.011
3.88521
-0.441382
4.01037
-3.36613
-30.6072
22.1645
7.2852
-9.22395
13.8185
-3.96239
-0.809744
-0.613494
-1.29616
-0.994844
0.200394
-0.815435
-0.914411
-0.401488
-0.731375
0.0194943
-1.02649
-0.507675
0.346961
0.993553
-0.216637
0.155002
1.04276
0.477928
-1.27086
0.0257665
0.489826
2.45472
7.87688
-1.74417
-2.26891
1.38232
-0.911066
0.131894
-0.0411307
0.0507806
9.18507
-9.62213
0.0744015
-0.327744
0.117973
0.191047
-0.347586
0.559171
0.145314
-0.441444
-0.742354
-0.3258
-1.14904
-0.892474
-1.11591
0.720356
-1.1081
0.0319338
1.29344
7.15267
-0.706733
-2.26504
-4.96175
0.293101
0.532323
0.0917779
0.0303559
-0.870743
-7.2805
1.74669
1.00688
0.396584
-0.0266361
0.621978
1.80179
0.377703
5.95532
-13.0059
-0.342163
-0.1851
1.94823
-0.0306368
-0.390509
-1.99535
0.11406
-2.30653
11.3189
-1.57164
-0.0958687
-3.89889
-0.731587
0.289134
0.867843
-0.978354
-1.29519
-7.36871
2.71742
0.924869
0.431994
-0.444893
-0.397648
-0.260383
0.0468
-1.80154
4.6091
-0.728088
-0.350375
-0.444068
-0.425199
-1.61901
-0.98727
-1.05773
-0.994689
-0.859945
-1.43063
-0.466484
-0.293284
0.799867