-0.48195136
0.024482539
-0.98349696
-1.0550407
0.1832502
-0.12676108
0.20039281
-0.91389215
-1.1940612
-1.5195633
-1.1994202
-1.2979188
-0.3762718
-0.3491998
-0.3554353
-0.4003763
-0.9073658
-1.2446922
-0.6601116
-1.1940684
-0.18596469
0.046665017
-0.5823289
0.063968405
-0.43175676
-0.23317263
0.30059963
0.07779266
0.091990575
-0.7810049
0.026146038
-0.33321622
0.17514086
-0.7620171
-0.2861328
-0.9621175
-0.13218318
-0.87062246
-0.066553615
-0.06520781
0.20705359
0.4561859
0.22729796
-0.86210364
0.6698259
0.25733703
0.5068042
-0.29208997
-0.9359301
-0.03713893
0.5257988
-1.5187951
1.3988465
0.780142
0.9619976
0.15526935
0.64909834
-0.16674332
1.3223741
1.4021324
1.0471585
0.8461877
0.37527937
0.049790356
0.7950978
0.4186211
0.030708076
0.37211064
0.3535253
-0.7074965
-1.0099099
-0.10748188
-0.6392655
-0.038669396
-0.47471282
-0.18198702
0.21341679
0.4443792
0.35684428
0.288219
-1.559533
-0.63707554
-0.16460024
-2.3243022
-1.3842927
-0.5893866
-0.8159051
-0.64003277
-0.6199844
-0.07573134
-0.9050376
-0.66159755
-0.39060536
-0.70160705
-0.78045136
-1.1284245
-0.66332376
-1.6788679
-1.9615796
-1.0777905
-1.5361909
-1.2300222
-0.3318051
0.415106
0.22582904
-0.6465371
-0.3748113
0.046061322
-0.1573364
-0.87370175
-0.42891508
1.352106
0.76237017
-0.3353177
0.47575578
-0.7760695
-0.015002657
-0.9309583
0.5878888
0.6414712
-0.41156077
-0.14764017
0.029571382
-1.1204747
0.7284981
-0.51171553
-0.64636445
-0.5097967
-1.2000219
-0.5589326
-1.2893491
-0.8699404
-0.78563124
-0.09812988
-1.1922234
-0.75399625
-1.0888742
-1.2820897
-0.8475189
-0.9884642
-1.6133687
-1.3160933
-1.342031
-1.0419853
-0.9647033
-1.4415014
-0.549903
-0.49928507
-1.2747475
-0.77773845
-0.07282978
0.24788368
-1.1779958
0.12490874
-0.6362223
0.045698386
-0.69251966
-1.295537
-0.36503047
-0.34353027
-0.6939425
0.23015662
0.56606394
-0.12855215
0.033511925
0.053316474
-0.5538391
-1.4107565
0.39439774
-0.90616256
0.123190895
0.5035437
0.12291503
-0.17825802
0.2067209
-0.5594523
-1.0960652
0.3544801
0.9972022
0.017418364
-0.40541148
-0.22916748
0.13164817
-0.53451675
0.8077704
0.8552345
-0.005489652
0.13120884
-0.20151995
0.2220598
-0.5552617
0.1664851
0.44803673
-0.63749254
-0.10623887
-0.4086165
-0.12202866
-0.2638991
-0.5131098
0.35480767
-0.36009434
-0.1090613
0.57742906
0.30440253
0.6509537
-0.22888273
-0.54716283
-0.033707004
0.39485642
0.87297684
-0.50925237
0.6539688
-0.03498117
-0.1394363
0.0007067101
-0.08224966
-1.033111
0.6228118
-0.36747736
0.36871907
-0.43819532
-0.8400883
-0.57034147
1.1265954
-0.5452616
0.09819817
-0.36611074
0.27574778
-0.95490724
-0.08082684
-0.42815349
-0.45071802
0.0789302
0.11211713
0.41552418
-0.61944467
-0.031088468
0.54828376
0.07420135
0.6497755
-0.19130799
-0.53143203
-0.23076668
-0.8086291
-0.74064946
0.25503096
-0.6316328
-0.90349907
-0.6111486
-0.21345054
0.33243853
-0.34254828
-0.12971275
-0.7218825
-0.31093988
-0.84198236
0.16270898
0.08528871
-0.67772585
-0.2785234
-0.76850843
-0.5124748
-0.51543695
0.39731488
0.26708204
0.11930274
-0.19692767
-0.5184251
-0.867736
-0.24768649
0.09264635
-0.47086236
0.08269713
0.31992784
-0.51765513
-0.44268432
-0.31814465
-0.32783818
-0.6269306
-0.08156225
-0.36423925
0.59794027
-0.6048388
-0.663984
-0.24037269
0.3897997
-0.32367933
-0.1110133
-0.5855116
-0.39381072
-0.67162323
-0.92374396
-0.37152466
-0.87453794
-0.20823109
-0.3566306
-0.70751363
-0.3385856
0.051846996
0.253255
-1.4529467
-0.3309796
-1.2853919
-0.6951494
-0.9590207
0.4516035
-0.18157692
-0.4980358
-1.2595785
-0.5596115
1.2840761
-0.51188517
-0.06910236
1.4902303
0.5742827
0.23796523
-0.645742
-0.4606936
-0.3534652
-0.56685036
-0.5705049
-2.1614482
-1.9934303
-1.6345104
-1.1091111
-1.6761796
-1.3225862
0.43922654
-0.114042
-0.00660996
0.41785544
-0.181083
-0.9964074
0.005429377
-0.7830882
-0.5976806
0.510527
-0.5576853
-0.8084161
-0.78975743
-0.9490366
-0.06247746
-0.84917647
-0.60936487
-0.5679097
-0.5867571
-0.22538485
-0.50923264
-0.7375058
-0.43252316
-0.49915022
-1.4949611
-1.4015269
-1.0897168
-0.69174397
-1.6356982
0.35469633
-0.23105942
0.12831022
-0.19055356
-0.10778085
0.20221978
-0.22235058
0.19181998
0.3937429
0.087174356
-0.31953323
0.07798619
-0.5427289
0.23205462
-0.81045717
-0.9032959
-0.24262856
0.34960058
-0.1900795
-0.49850056
-0.64482725
0.0944851
-0.27996123
0.18035747
-0.4839116
0.05840483
-0.035547983
-0.12473619
-1.1040399
-0.65218335
-0.5698248
-1.255996
-0.88541985
-0.88980085
0.31350067
0.61841387
-1.9029869
-1.244498
-1.2546184
-0.59190685
-1.432469
-1.0409333
0.30499837
0.7192801
-0.15857856
0.24851125
0.11732613
-0.797441
-1.3433139
-0.13957448
-0.057543974
-0.13780877
-1.6610805
0.22122803
0.19316818
-0.08540755
0.7205241
0.041881364
0.85491353
0.90974236
0.6986949
-0.2963095
1.2602161
1.7707244
-0.4447244
1.2311966
-0.30209956
0.37951797
1.5474126
-0.1472186
-0.62928694
0.1858404
0.41931617
0.124590635
0.015424568
-0.1613359
0.17507052
0.31385285
0.79072833
0.6090358
0.4369195
-0.8162797
0.25907612
-0.6459666
0.8218895
0.55333257
0.054267943
0.26465663
-0.39054155
0.8404742
1.4149181
0.29239988
0.34673405
-0.32388294
-0.31743366
0.0879187
-0.3097782
0.6095428
0.56399775
1.3082888
0.16795939
1.3376429
0.20523949
0.7410888
0.34629098
0.55332613
0.060960427
1.1957735
1.7426201
0.021493785
-1.1137782
-0.17531422
0.8416178
-0.70777524
0.5939406
-0.23511173
-0.7294611
0.60751593
-0.3800187
-0.024028463
-1.9821459
0.41466412
1.3498927
0.33030954
1.229239
0.61888254
0.23268422
-0.8591404
-1.1388967
0.26886126
-0.7677899
1.2733411
0.6588518
1.5176506
-0.66209227
-0.27065638
0.5444045
-0.1826163
0.011877502
0.1317818
-0.040222656
-0.8706852
0.08034831
0.47875524
0.14068161
0.27578008
0.5119912
-0.37670827
0.7460688
-0.07700567
1.4047699
-0.18082304
0.36921102
0.5272593
-0.66852194
0.12443457
-0.021828031
0.70142907
0.26686427
0.9300236
0.020702722
-0.39841992
-0.58233917
0.89806026
-0.51816785
-0.24055019
0.49557403
1.6437275
-0.8836715
-0.6284299
0.30122027
-0.44012508
-0.7134173
1.2615026
1.2945802
0.11529922
-0.011342711
0.28425142
0.86803347
-0.37533075
-0.5210356
-1.0897937
-0.12096605
1.3379271
-1.2629536
0.260939
1.2477347
0.56483924
0.061457228
0.21324936
-0.7901439
-2.3272734
-0.5428847
1.0354991
-0.2662216
1.2489085
0.17288184
0.5520906
-0.53717345
-0.12827744
0.020250937
0.81569207
0.44632336
0.29749054
-0.7934985
-0.6716144
-0.35412374
0.4537214
-1.5149777
-0.60092145
-0.61317015
0.42170408
-0.3748968
-0.20640989
-0.23728786
-0.014313879
0.24622229
-0.7397468
0.49445647
-0.47536987
-0.9902743
-0.1464551
-0.4658368
0.34784383
0.60685194
-0.32530117
0.95326436
0.12139468
1.413801
0.7296693
-0.9538402
0.9774543
0.17527513
0.49302125
-0.15648393
0.8955065
0.3332731
0.91901755
-0.520622
-1.6390854
0.61531067
0.6580454
-0.89018226
1.0900912
1.2669265
-0.56648403
-0.0922605
-0.8527781
-0.11637147
0.21377249
0.85393447
-0.47879678
1.6382079
-0.3566576
1.1641521
0.070032306
-1.1389248
-0.21663882
-0.071900174
0.47742912
1.2182163
0.75455564
0.39385357
0.17447029
1.0177687
0.06404927
0.056215912
0.88745254
0.57768655
-1.0120898
1.112819
-0.20012704
-0.8308472
1.3395338
0.78319114
0.91670966
1.193224
1.1444446
0.10250644
0.32233733
0.17427756
0.20429952
0.17085372
-0.82934934
-0.29634494
-0.17576446
0.07840218
0.44533065
1.2768965
-0.6787712
1.5555283
-0.48273957
0.59821403
0.6839889
0.57334864
0.2610802
0.3844875
0.58714885
0.09844562
0.5473982
-0.00900696
-0.07916516
0.3077403
0.6430512
0.2420027
-1.2993772
0.6925246
-0.054530226
0.7156932
-0.3219406
0.64674413
-0.020704418
-1.1185163
-0.2728653
-0.7039873
0.121876076
-0.015333701
0.8062307
0.3201279
-0.52282363
-0.41681823
1.6021954
1.0063337
0.4112981
1.0001343
1.0223117
0.2871554
0.9881908
0.13512222
-0.86440545
0.5617397
-0.19851606
-0.52279085
-1.0831635
-1.939101
-0.029045464
1.145689
-0.9135454
-0.49536702
0.5585643
1.4462937
0.11488654
0.18500867
-0.10089278
1.253387
-0.409378
-0.10138804
1.0481867
0.17425866
-0.6685021
0.6929139
-0.2672569
0.26231235
0.20476711
0.03249451
0.94718325
0.83916783
0.5552766
1.0453429
-1.4014199
1.173766
-0.6222814
0.4647316
0.169658
0.8398941
0.951796
1.3945255
-0.1566925
-1.4325086
-0.082176454
-0.007574387
-1.2060715
0.83982503
0.5993152
-0.812206
1.2694014
-0.26302582
0.84717894
-0.81810576
0.022070458
-0.33838862
0.60963315
1.1296045
-0.056495253
0.31527346
0.8899107
0.110630065
1.6502485
0.057505038
0.3704627
0.55485064
-0.43667617
0.53639305
0.6179311
0.3657904
-0.0521076
0.17364728
0.092781976
0.41938308
-0.67551327
0.33163586
-0.8393644
0.19803709
-0.091404624
1.2578192
0.89789915
0.48405665
-0.0026143545
0.83238846
0.19956876
-0.30521417
1.0412196
0.013691364
1.3502766
0.37830725
0.44671425
0.77640927
0.6169577
0.7227256
0.13730486
0.19489664
0.8528025
-0.072849534
-0.8515667
-1.4033499
-0.25044265
0.5074402
0.9145068
0.61377287
0.7996496
-0.08983513
-0.4203982
0.6460324
0.7970783
-1.1873547
0.6211603
0.6631792
0.46442655
1.169457
-0.016628876
-0.38116497
0.76005435
0.17007115
1.50387
-0.67157704
-0.24110314
-1.0883611
-1.2449152
0.24099547
0.6050382
0.33361012
-0.23099408
0.40918446
0.32792145
-0.8154888
-0.21825089
-0.07586199
0.6303764
-1.2466192
1.0253834
-0.22433424
-0.931544
0.467126
0.22776371
-1.9601551
-0.82033545
0.23479426
1.2382503
1.1394314
1.1981293
-0.070076786
0.38471895
1.4211932
-1.1250696
0.26514295
-0.34345487
-1.2301645
-0.84191734
1.2718579
-0.70818055
1.2565396
1.6605223
1.307931
-0.3566783
0.32225972
0.9624422
0.21234469
0.21483713
0.5974664
1.8457605
-0.3596483
-0.8870728
0.5560608
-0.3912376
0.30597672
-0.010977768
0.97220963
-0.051031493
-0.22241285
0.9006955
-1.3385252
-0.6175479
1.3031446
0.44117525
0.48013502
0.44972542
-0.31658354
0.44293308
-0.7405237
0.15455192
-0.71138144
-0.5838486
1.3937328
0.14866912
0.039668906
-1.3252194
0.8894718
-0.162939
-2.073613
-0.3376504
0.71564597
-0.1475896
-0.5477576
1.1594427
0.9422455
0.4629648
0.49530977
0.596623
0.3018892
2.242322
-0.8244292
-0.7179613
-0.4527634
-0.17639767
-0.14760752
-0.52353656
0.5929275
1.1426412
0.68514454
0.24874687
0.7416509
0.6457478
0.8785188
0.46945807
-0.543264
-0.116500616
1.0982039
1.4772835
2.0910938
1.3713046
1.37025
0.7621636
-0.2362637
0.012990278
0.800481
1.8425908
0.5181167
0.020652516
-1.3357698
-0.47764736
0.17713979
0.3036182
-0.07522278
1.1090931
0.38746205
0.6028643
0.90815735
0.30583164
-0.14363585
0.09047252
-0.76270235
-0.4141408
0.1701981
1.3885225
0.634226
0.4184964
0.8800233
-1.1138567
0.26259732
-0.29108
0.6310667
0.4683557
0.59228694
0.124040015
0.23850481
-0.17954534
0.17775734
0.533914
-0.48495486
0.3820423
-0.49736243
-0.10527212
0.646213
0.8472102
0.6247544
0.566065
0.36629236
0.10514645
0.8554787
-0.2089243
-0.13164775
0.42958996
-0.20660055
-0.55780584
0.5495788
0.86581117
-0.13753274
0.00044627322
-0.30459934
0.48641303
1.0532511
0.5268491
0.30943543
0.2593642
0.8441225
1.2654456
0.7948862
0.78156143
0.1634288
1.7710805
1.0181912
1.7482574
0.7991319
1.2992698
0.90579873
0.52204853
0.5619917
-0.22437322
0.97638685
0.48183346
-0.6914618
1.0390108
0.35226944
0.003062644
1.0903907
0.229792
-0.9977569
-1.1170173
-0.52837205
-0.53829736
0.27707663
-0.46992832
0.6840271
1.3013142
