0.8264333
0.42032942
-0.6238235
-0.34823903
-1.6804181
-0.8202545
-0.66805077
-0.31023467
0.86219645
-0.6200563
-1.4320745
-0.84619343
1.0092148
1.364643
-1.5775293
0.2922178
0.57487035
-0.66922516
0.5445722
1.1129626
0.5572292
0.12570114
2.0935926
-0.057206754
-0.1686476
-0.86428297
-0.06881918
-0.1436994
0.49047536
1.4588901
-0.22475228
-0.8274417
1.1057038
0.36579496
1.6916151
0.7072547
-0.29724774
-0.22880684
-0.33579275
-0.511844
3.6209092
-0.5647498
-0.26553762
-0.47483537
-0.21665281
0.2363183
0.5945605
0.21078119
0.1512418
3.0811508
-0.0010886039
0.24431685
0.10193186
0.19373074
0.018972078
0.2895167
0.048924886
0.75774527
2.7008092
0.31195602
0.13014074
-0.031873256
0.14791575
-1.1384509
-1.2485471
-1.0756276
0.0012440663
0.59990615
0.04061783
-0.15461926
-0.07485858
-0.030895885
-0.2564833
-1.1707054
-0.20260397
-0.47668642
2.648229
-0.63643473
0.00087787246
-0.63301176
0.0050080665
-0.028241666
-0.597938
-0.0589508
-0.47214574
3.087424
-0.5703137
-0.10657657
-0.68912184
-0.08471916
0.13750121
-0.39746535
0.08682323
-0.12363542
-2.4500587
-0.14556952
-0.107635945
-0.075315095
-0.06717637
0.13899267
0.2086688
0.11183673
-0.010789118
2.7943203
-0.10149255
-0.75541455
-0.9701456
-0.72589225
0.41813746
1.0749494
0.31654876
0.46597442
1.5010396
0.37461063
0.17878719
0.022854736
0.06466764
0.49111944
1.6858826
0.25629437
0.17026645
-1.6395513
1.0892851
-0.52385795
-1.1484789
-0.09842809
-0.55551285
0.2742137
1.1214093
-1.2840443
-1.746262
1.8480209
-0.3358258
0.5833818
0.8672694
0.41658863
-0.032687776
0.4260493
0.6924271
1.8650128
0.45463428
0.20861724
-1.5127412
0.5660977
-0.67024314
-1.2200825
-0.6299555
-1.0476605
1.1175267
0.6217086
-0.6843263
1.0820173
0.30099204
0.030402338
-0.38883615
-0.26884645
-0.22560285
2.050995
0.13224378
0.25214595
0.8422632
0.065396786
0.2084223
0.24083321
0.19179493
0.1544788
2.290911
0.1340063
0.32416007
0.7313975
0.32618928
0.36943606
0.35691968
0.25669077
0.30326828
2.0980613
0.10276394
0.12543388
-0.07442231
0.16074431
-0.7613845
-0.4516704
-0.46070483
-0.24818863
-1.0577228
-0.63340455
-1.0102099
-0.6202804
-0.24703343
0.32325613
0.38858768
0.22825141
0.5778117
1.8186328
0.45764202
0.3871195
0.63932824
0.24844864
0.616565
2.6965032
0.0008053757
-0.57430667
0.01423573
-0.614573
-0.23544794
-0.8496867
0.036668576
-0.24527597
-1.102188
-0.3402544
-0.4819282
-0.92269987
-0.44502643
0.17894636
1.7660222
0.2002539
0.36334306
0.14933586
0.33427432
0.3633644
2.1406198
0.29554275
0.22206022
0.40965736
0.26865935
0.7847414
0.7284394
0.22882949
0.58457863
1.8804016
0.40603572
-0.16709816
0.43016207
0.67080873
0.1596634
0.10556554
0.1961299
-0.14861844
3.7746565
-0.34759748
0.0020002413
-0.5254285
0.050310012
0.44736314
0.7715646
0.9280999
-0.28514463
0.6703751
1.0207909
0.24700391
-0.24791485
0.38631025
-0.1272214
-0.8793186
-0.16537866
-0.75920784
-1.96583
-0.65858775
-0.25621867
-0.32929796
-0.26831165
-0.36659014
-1.5420219
-0.3096164
0.14094031
2.2871878
0.10474563
0.21183531
-0.9126886
0.17958422
-0.19607714
0.22102834
0.15686226
0.904419
2.5900688
-0.022874666
0.3519193
-0.034530215
-8.999544e-08
0.3157482
0.09510648
0.28045166
0.68459284
1.6133063
0.6589746
0.19112317
0.5047598
0.1955504
-0.8032028
-0.86347854
-0.79403853
-0.36136064
-1.1486467
-0.30075264
0.008533619
0.39877516
-0.010189092
-0.4763396
-0.32367447
-0.53291446
-0.41778436
-0.7587157
-0.05137907
-0.513935
-0.15613322
-0.54437816
-0.28574324
-0.28677076
-0.23497096
-0.6582513
-0.6120359
-0.6550099
-0.40092355
-0.51745325
-0.3665814
0.5792197
1.0260646
0.255858
0.7017981
2.0078096
0.19043347
0.091806605
0.2495492
0.03232899
1.1292763
0.6344615
0.22727995
2.0482225
-0.8088456
-0.49937028
0.64431965
0.35952288
0.09324577
0.0870671
-0.35602367
0.38250232
1.7473245
1.8201219
1.821977
0.43095043
-0.14685231
0.2474313
0.054744795
0.20042926
-0.0005729297
0.18010582
2.8816743
0.41731733
-0.015491176
0.08162998
0.24780652
0.2421138
0.09939616
-0.0947717
-0.92125547
1.3919017
0.6233568
0.4218823
0.66549295
1.1863161
0.50497365
0.27068037
0.45062527
0.33694082
1.6999177
0.4665632
0.35704175
0.42563495
0.27008316
0.46798062
1.8008755
0.63161075
-0.95724523
-0.49253508
-0.8790471
-0.7822318
-1.0819604
-0.95416963
0.1282258
0.04282353
0.12118786
0.01619287
-3.075457
0.20183642
0.040077344
-0.06823509
0.09718655
-0.2118914
0.48968
1.7175498
-0.74565095
-0.9075258
1.0524987
-0.24389865
0.10851631
1.464513
-0.5786458
-0.59082
0.5186316
-1.3270595
0.2960381
1.6462184
-0.48639423
-0.6272052
0.27946028
0.8244354
0.056535102
-0.060988516
0.8546734
-0.34100866
-0.14923829
1.299905
0.22908713
0.12983209
-1.3221173
-0.97056985
-1.0398974
-0.37424058
-1.1800106
-0.21582763
0.8504266
2.1535864
0.49943206
-0.09320041
0.08406492
-0.03374656
0.40857142
-0.93455416
0.3099162
0.63262594
2.2042055
0.49782205
0.5232284
0.059825025
0.107339
0.33104858
2.655118
0.29078048
0.095057376
0.32670984
0.1712338
0.27087876
-0.30004644
0.41836077
0.20004563
0.93155426
0.43249032
0.7561434
1.3692689
0.6948725
-0.033311356
0.030840022
0.79089224
-0.4155006
1.4337231
1.0666608
0.43228036
0.7307266
0.22876276
-0.49238414
0.07538972
-0.42903188
-0.70666856
-0.72445315
-0.4176514
-0.47658038
-1.0084057
-0.49834225
-0.42054877
-0.4146461
-0.4671557
-1.0654292
2.2069678
-1.0813366
-0.36984327
-0.42363387
-0.4307892
-0.7129884
-0.66806257
1.1461726
-0.9349722
-1.6261408
1.5363368
0.4469898
0.7081469
0.51725024
0.42397025
0.45372885
0.34486514
0.028589424
2.2988958
0.028620724
0.44436482
0.19042154
0.32491222
0.4051611
-0.5058525
0.42338642
0.37686044
3.190764
0.25585496
0.040378023
-0.5569329
0.093655095
0.048341062
0.11084343
0.08434551
0.1870892
-0.80454785
0.14726558
0.5907746
1.818318
0.44293314
0.10535026
0.013098315
0.09391
0.04707385
3.655551
-0.06077125
0.17808276
0.15096436
0.21445264
-0.6338538
-0.3468258
-0.6686953
-0.14930709
-2.4195683
-0.051491797
-0.6472964
-0.14964923
-0.69610244
-0.71554554
-0.5381212
-0.7030733
-1.0569729
-0.97051
-0.8406352
-0.54766905
-0.84253645
-0.46340793
-0.020062756
0.72610563
0.74314195
0.6064354
1.4086334
0.39638567
0.9283292
0.2593941
-0.056053717
-0.24352664
0.08457019
-0.1928461
0.55247664
2.0046976
0.33219784
0.7009148
1.038173
0.5848916
-0.18905422
-0.6310808
-0.14842902
-0.31776285
-1.5216743
-0.28043485
-0.18019645
-0.35383826
-0.19106744
0.30764922
-0.08424483
0.20139803
0.13669638
2.415409
0.05280589
0.64912766
0.18171406
0.55021334
-0.29541013
-0.28405532
0.92946905
-1.102169
-0.5805851
2.4421914
-0.32533878
-0.116923
0.20429793
-0.65733737
-0.58306193
-0.59438545
-0.62171656
-0.8565369
-0.50573343
-0.32255164
-0.6169812
-0.2943354
-0.10886015
-0.524108
0.059569597
0.24934886
2.9968014
0.14278045
-0.017771244
-0.5866405
0.0077384855
0.0690436
-0.86484313
0.031432174
0.18730764
2.8890586
0.2617215
0.31003436
-1.6040533
0.22919895
0.5780979
-0.4536124
-0.6816847
1.614254
-2.0132203
-0.512222
0.119160466
1.2484812
0.92468786
-0.246625
0.3416363
-0.28856787
-1.1750808
0.778009
0.26568124
-2.54295
-0.21028069
0.6066589
-0.1558008
0.6844053
0.6318492
-0.29327756
2.0928397
0.4734581
0.12915178
0.030378252
0.115511775
0.3607464
0.7941199
0.34649554
0.33987987
1.9685329
0.30097312
0.12831357
-0.33229163
0.18400967
0.18258171
-0.092405304
0.13298003
-0.20873399
4.0996466
-0.36509866
0.05192825
-0.73954487
0.02932254
-0.028837577
-0.8000946
0.18364352
-0.24641433
1.0815575
1.1373125
0.7791944
1.3524482
-1.2448632
-0.3341544
-0.93726385
-0.63221604
0.29675898
-1.9268959
-1.1727611
-0.32860652
-0.95602804
-0.58515644
0.006146244
0.17740005
-0.014737099
-0.2694643
3.4639034
-0.41242805
-0.024129828
-0.4406184
-0.07567035
0.45496836
0.29062137
0.42793277
0.3263221
1.73992
0.2707728
0.28955466
0.23766471
0.19466189
-0.5154258
-0.24975659
-0.54003155
-0.4090819
3.511497
-0.7216544
-0.24410956
-0.80467814
-0.27748305
-0.22490674
0.22450395
-0.32750693
-1.347304
-0.5935101
-1.3160241
-0.43635675
0.19538495
-0.52309984
-0.50634515
-0.53696585
-0.42129263
-0.37575147
-0.6814346
-0.252695
-0.48354968
-0.5549064
-0.43898413
0.16703482
0.5462518
0.1985615
0.90256494
1.7576642
0.3952315
0.15418361
-0.15385897
0.26701024
-0.24565232
-0.5462466
-0.26004234
-0.631326
-0.850967
-0.50982296
-0.38494787
-0.68790096
-0.3424559
0.07121101
-0.6091692
0.12556733
-0.5723883
4.5864363
-0.7491095
-0.033394814
-0.9305104
-0.030487098
0.6645098
0.93730205
0.5293892
0.20246758
1.3862288
0.166958
-0.00073095376
-0.8375526
-0.019735342
0.29404053
0.27819544
-0.2636413
-0.43973497
2.1489832
-1.2414349
0.16178527
0.82099664
-0.10034891
0.44135532
1.1715009
0.37445748
0.15655328
1.488253
0.15872881
0.14845213
0.507431
0.066326
-0.46002358
-0.64213455
-0.40608716
-0.42146435
-0.9711817
-0.35695937
-0.48476624
-0.14031339
-0.3778959
0.5501272
2.1178036
1.014937
-0.31388408
-0.53362066
0.11800871
0.23966002
-0.22817507
0.3259926
-0.61171895
-1.157271
0.2774189
-0.433432
-1.4636332
1.06554
0.5716423
0.9016562
0.88376004
0.5067564
0.8571044
-0.6202629
-0.30128384
1.669899
1.2364556
-0.4744838
0.019605437
0.7159505
0.47676873
-0.0014329475
0.39783776
0.1391773
2.091903
0.22664988
-0.9327548
1.3040184
-1.0916928
0.2946295
1.9558996
0.19135848
-0.4103406
-1.2877231
-0.34388107
-0.5106698
-0.727355
-0.47906214
0.91432554
0.42264488
-0.15636164
0.4061263
2.3559692
-0.5082292
-0.26780036
0.7099676
-0.077473104
0.16188096
0.22299245
2.543379
-0.112916484
-0.5425196
-0.051980674
-0.21821086
-0.16581893
-0.0043334253
0.6188274
1.2803007
0.6277876
-0.07059815
1.0374916
-0.119840555
0.58912396
1.4712224
0.6622129
0.3760704
0.4946824
-0.17633112
0.12033933
2.9265127
0.5059489
0.14188045
0.041577198
0.26505852
2.7620122
0.30135167
-0.20645039
0.013299822
-0.6403064
0.18003783
0.092608854
0.15402874
0.24125962
0.38520086
0.31591564
0.3397681
0.26911643
2.4409683
0.08657608
0.32396775
0.09941819
0.27170718
0.027250756
-0.7183036
-0.0482413
0.73635316
-1.3289783
0.8346399
0.87654245
1.2750412
0.823922
-0.3516037
-1.6182493
-0.37904578
-1.3301538
2.3504534
-1.3942704
-0.48519033
-1.2957002
-0.5103111
-0.5002392
-0.39480948
0.07388842
-1.1364694
0.09748816
1.9098438
-0.107791826
-0.22862971
1.6302645
-0.23977755
0.3278925
0.053634632
-0.3311118
0.5728518
-0.15149005
-2.4341462
-0.545389
-0.7089136
0.502008
0.2020389
0.38024628
0.35171443
2.0597868
0.43211582
0.3792998
0.027593616
0.19145423
-0.10207651
0.4761773
0.20447381
0.6647323
3.3654883
0.4967257
0.035789054
0.7775442
0.23353174
-0.39812693
-0.7832108
-0.3112046
-0.8256981
-0.9138675
-0.6972454
-0.23066913
-0.5674018
-0.22037598
1.094317
-1.3289591
-0.3329086
0.7957351
-0.97857857
0.37926427
1.0097966
-1.3456805
-0.41914284
-0.003978758
0.13148396
-1.5787495
-0.5434502
0.86167455
1.4550575
-0.06264427
-0.01207599
0.94808894
-0.4134404
1.2533236
-0.38733158
1.1981244
-0.7934601
0.92800426
-0.08124155
-2.1686645
0.12788795
-0.53689516
-1.7706223
-0.4758423
-0.32287285
2.175425
-0.45445052
0.010233156
0.037035584
0.037437998
-0.8333404
-0.52124566
-0.31745183
-0.6073174
-0.46382943
-0.3006979
-0.87706405
-0.6192866
-0.13287714
0.69516677
1.3911949
0.55911005
0.30914095
-0.7432265
0.37115017
0.66596854
-0.19354987
0.6170618
-0.9275686
-1.071642
-0.77435875
-0.36928886
-1.2237704
-0.29396302
-0.1895797
-0.23494354
-0.16589803
-0.2142461
-0.054130193
-0.22370026
0.20858763
2.9625764
-0.059514284
0.27798742
0.31678453
0.14861697
0.07974383
0.8170906
-0.032759156
0.28156176
3.094688
-0.061342344
0.11361152
-0.014299749
0.06277969
0.20141692
0.79796314
0.10819693
0.19403006
2.2780435
0.20292796
0.12707652
-0.22072013
0.03326581
0.33614367
0.34803414
0.18339092
0.15427637
2.4124691
0.13404246
0.17899175
0.027543645
0.07025755
0.92099184
0.24911968
0.2163395
1.2779518
1.2000645
0.38350886
0.81751114
0.39791957
0.7326147
-0.27283663
-0.76600885
0.41621634
-1.6463892
-0.007865611
2.600747
-0.3959283
-0.31515372
1.5571066
-0.40723643
-0.03794764
-0.46065181
0.6565882
-1.7917327
0.73497236
1.4036151
0.27409515
1.4168029
1.2231297
0.5410975
-1.1240823
1.6976894
-0.12656413
-2.2936065
0.110001504
-0.14852905
-0.40252137
0.13884303
0.63631195
0.14247543
0.106413804
2.6208613
0.15729229
-0.21859261
-0.29496932
-0.114576265
0.07080398
-0.9850592
0.07726846
-0.23808008
-1.6973422
-0.22819544
1.3841239
1.6315665
1.2858348
1.3158289
0.20878753
-1.0714284
0.91453195
-0.7455504
-0.8231484
0.8940241
-0.3142532
-1.0370816
-0.17536019
0.18465382
0.847491
-0.8519073
-0.26234254
1.0954311
-0.09931717
0.62520826
1.1688485
0.4391585
0.5566517
0.5089384
0.41757646
2.197027
0.3442481
0.21492022
0.11363455
0.19898795
0.44688225
-0.17712879
0.39464527
0.38590086
2.507589
0.2906879
0.4751901
-0.059072036
0.44564804
-0.09502584
0.10732539
0.19403242
-0.56017333
-0.9846042
1.7640762
-0.1738042
-0.56859446
0.136012
-0.1522296
0.3378095
-0.22347215
0.16098422
3.1653366
-0.05583097
-0.13191667
0.1640342
-0.22420953
0.13886943
-0.59556085
-0.25492778
1.2591268
-2.3453438
1.1979245
0.06257988
-0.9135314
-0.091917835
0.27704147
0.14372148
0.25953
0.4041449
2.7990158
0.21295542
0.1079535
0.20167318
-0.020506926
-0.41545364
-0.77652377
-0.3544198
-0.32522017
-1.4561012
-0.12634513
-0.07085599
0.0960171
-0.06129156
-0.07996255
0.00017292131
-0.1404719
0.10551636
2.9540882
-0.07571714
0.10698384
-0.07137431
0.06253336
0.052348338
0.20869723
0.07010614
-0.28793418
4.9795823
-0.36999717
-0.105497494
-0.5638214
-0.1426429
1.2229636
1.952197
0.8168202
-0.25868237
-0.94113535
-0.17736372
-0.2997152
-0.7232605
-0.38077697
0.48885766
2.6796012
0.3140683
-0.23038329
-0.16922355
-0.16530167
0.13814874
-0.08060711
0.08220942
0.2694717
0.40710172
0.13553442
0.27083552
2.7731125
0.18629639
0.389607
0.060853187
0.38696766
0.25969434
-0.18937413
0.5797922
-0.3129571
-0.61424226
0.56253785
-0.06247431
0.046050265
2.5136056
0.62912685
0.07589804
0.6199124
1.2438523
-1.0611334
1.2944194
0.49367437
0.0455124
0.4318659
2.0024552
0.6498
-0.23459287
0.5584881
0.085066214
-0.5335767
0.18706289
-0.9883761
0.2774772
-0.23092802
0.4074064
1.2103606
0.0064195823
1.4250243
-0.0099639995
0.9089359
0.58673656
-0.25954884
0.61324716
-0.49331436
0.66511935
1.1064085
0.75852317
1.0496473
0.6076375
0.4291952
0.5570635
-0.09772574
-0.9481174
-0.28025514
2.2412913
-1.1664728
0.2707382
-0.3642677
-0.75595355
-0.2361704
1.291262
1.9108174
1.2002885
-0.29106027
0.2586563
-0.12836803
-0.62439656
-1.3920321
-0.55689716
0.0767697
-0.9235459
-0.44600347
-1.4431671
-1.2825683
1.2973835
-0.37270468
0.61811614
0.05278897
-0.21222505
-0.5617642
-0.20550779
-0.24716823
-1.5321008
-0.26347733
0.47050387
1.6550671
0.4560702
-0.5413218
-0.79392624
-0.54765975
-0.5511517
-0.4378358
-0.5691696
-0.20768718
-0.19680029
-0.24094546
-0.40398043
-0.62250525
-0.33446178
-0.61452556
-1.1762124
-0.57065046
-0.38036487
-0.5470625
-0.3035496
0.13258076
1.075787
0.3157343
0.5674837
1.8786917
-0.16757521
0.6760487
-0.065148845
-0.25252652
0.48740444
0.53278303
0.41852537
0.34011284
1.488386
0.3817979
0.2053554
0.70645136
0.16330342
-0.016743783
-0.06772074
-0.044184662
-0.7876463
-1.5270818
-0.7567044
-0.09645778
-0.085614696
-0.053135563
0.646682
-0.03428764
0.16510752
0.87597734
-2.7098567
-0.49896425
0.6746399
0.62450397
0.3621078
-0.3423177
-0.27143028
0.14475618
1.6026993
-0.20843352
-0.48762274
1.8669049
-0.49659556
-1.4239014
0.3298462
0.6049489
0.21380001
0.09188226
2.0082045
-0.072007895
0.23449506
0.18387379
0.23434815
-0.22500423
1.8944999
-0.30643746
-0.33994052
0.6561095
-0.020183431
-0.108960435
1.5594283
-0.18491933
0.120534
0.5986935
0.07962678
0.7399478
1.4921775
0.62951416
0.0007245385
0.74292064
-0.13894257
0.1643132
0.5580015
0.67829555
-0.34561828
-3.193364
1.3047885
0.0022710261
0.4560506
0.3232857
0.6577915
1.1883721
0.6206634
1.0576693
-2.1551855
0.2280141
0.69771755
-0.011541992
-0.24525248
0.24797407
0.6689369
0.15541147
0.7481853
1.511159
0.5947218
0.21793799
0.46184254
0.20232202
0.7067132
-0.856041
0.64622957
0.60605067
-2.0269878
0.708009
1.5485485
1.389299
1.6467714
0.2672907
-0.107561894
0.19529888
-0.1990802
4.7749863
-0.26982749
0.089325294
-0.38963366
0.039348662
0.7440089
1.6060011
0.64956784
0.24868426
-1.3398361
0.37390855
-0.29368117
-1.4928907
-0.27654085
-0.9760175
-2.0700166
-0.9922689
-0.32567623
0.6475789
-0.35236698
-0.4553151
0.4790966
-0.36461407
0.39757112
-0.4426826
0.24846648
1.9099232
1.6436744
1.5117124
0.2774551
-0.31987503
0.5010204
0.08656004
0.08086857
-0.028576398
-0.30070955
4.217695
-0.38705564
-0.06303979
-0.34559977
-0.18742852
0.06210774
-0.07620319
0.06269333
-0.23566937
4.134548
-0.12414356
0.2720554
-0.45716757
0.25331026
-0.5014432
-0.26818976
-0.37045786
-0.019110765
2.6081774
0.21144229
0.087740906
0.101107724
0.07669533
0.15681766
0.10728851
0.05076025
-0.1376131
3.8650272
-0.3422963
0.047093365
-0.59613717
-0.016261643
0.7839647
0.9143171
1.849241
0.05611489
-0.45015392
0.27281982
-0.37936568
-0.9232742
-0.3110924
-0.7882222
-2.2296512
-0.6338599
0.4491296
-0.34824827
0.4386161
0.66762894
1.5144051
0.58846915
0.13624847
-0.1907314
0.8459514
0.9447446
1.8240839
1.1693231
0.5264769
-0.31172872
0.102723494
0.2700969
0.6075881
0.27774772
0.35225984
2.572226
0.20499517
0.07547584
-0.3212973
-0.015773933
-0.0004064252
-0.89225304
0.66923946
-0.27807334
0.0761681
2.7227352
0.19795814
-0.8310709
-0.24611686
-0.13376236
1.9996828
-0.5228851
-0.61910343
-0.24941595
-0.566683
0.02525606
-0.3040018
0.12232987
0.12105204
0.5676227
0.114466794
0.012775643
3.0150106
-0.07064921
0.1263295
0.33864504
0.036046706
-0.14344452
0.51415116
0.49265
0.6342196
2.5003965
0.11761728
0.44939366
-0.06860643
0.13119005
0.33571345
0.31993356
0.29620287
0.4126192
2.0354855
0.25406164
0.28956118
0.31431285
0.24163435
-0.35676318
-0.32819384
0.53627294
-1.947947
-0.2712426
2.2204657
-0.5645949
-0.17912513
0.6789465
-0.94266325
-0.57865894
-0.5325144
-0.61552423
-0.38771
-0.6314197
-0.8873228
-0.6348358
-0.73333585
0.65710753
0.4843081
0.6226886
0.6622438
2.9143393
0.5705271
0.7033323
-0.034831442
0.6638945
-0.002219581
0.08610813
-0.3709744
-0.74124193
1.6374722
1.6213261
0.19760478
-0.4159827
1.0190096
-0.4516801
-0.8805193
-0.36369747
-0.23485546
-1.3762482
-0.030887902
0.7671412
1.5116925
0.6164098
-0.10677308
-0.25364763
1.03053
-1.0627562
-0.23238018
2.0735013
-0.33428225
-0.20075284
0.759277
1.0743806
-0.025975311
-0.2602171
1.2554619
-1.1262372
-0.97538173
0.7004159
0.25891986
-0.7869804
0.27703667
-0.45742238
-0.28194115
0.98543966
0.65112865
-0.21311903
1.4096295
1.7046611
0.11991604
0.4299628
0.3115337
0.40909562
0.48701417
2.5611272
0.30282426
0.24781692
0.3777499
0.25902474
0.4178265
0.53326976
0.23497364
0.9163922
1.7024469
0.6314901
0.4429114
-0.1150039
0.13693142
-0.56828487
-0.2918061
-0.54479337
-0.228482
-0.34784752
-0.20727794
-0.64049876
-0.54150593
-0.6003907
0.29826322
-0.38371205
0.28871903
0.37550712
2.3629754
0.2911264
0.3645128
0.5250366
0.22141458
0.7825627
0.93577194
1.807854
-0.19889309
-0.69350034
0.24563259
0.3261395
-0.13396324
0.38286582
0.5141217
-0.12492187
-0.33080134
1.3757337
-1.5811167
-0.5898312
1.3171126
0.6895833
0.23094888
-0.72891575
0.16998696
1.6378201
-1.5121596
-1.4504358
1.7894968
-0.4169859
0.4115825
1.1422511
0.51687217
0.3700176
0.44225097
1.2063253
1.5291771
0.2469854
0.18025976
-0.02831323
0.69963104
0.0026957379
-0.27502516
0.042135347
-0.28482336
3.3529308
-0.35025436
-0.18487167
-0.62683386
-0.20491362
-0.6885643
-0.17808387
-0.024907378
-0.98530036
1.8781841
0.06410562
-1.3142337
-0.88811815
-0.354645
-0.17961833
-0.56656605
-0.070767626
-0.37019324
-1.5820088
-0.4047876
-0.12913924
-0.25624692
-0.064200856
0.693966
1.6347258
0.6162924
0.5823771
-0.5409079
0.5784092
-0.116061755
-0.4788305
-0.111158006
0.5495012
0.47260237
0.49280685
0.370408
1.6565771
0.3654139
0.38263825
0.17788586
0.2984762
0.5079552
-0.21970285
0.43963686
0.036723707
2.7254176
0.04250902
0.34158146
0.22030875
0.3322179
0.031261157
0.00139116
0.048974417
0.24620338
2.9277513
0.17310423
0.119417556
0.22926503
0.047129426
0.14278877
-0.20715947
0.15766981
-0.25645494
-1.0023732
-0.18171813
-0.23361339
2.9276562
-0.30076772
1.3780491
-0.49114886
-0.090313375
1.272465
1.2377928
0.040519036
-0.3130764
-0.55307215
0.6910501
0.20550624
0.7554418
-0.20417167
0.3787623
2.331451
0.9136316
0.14649875
0.34376064
0.5280294
-0.1525637
-0.6478095
-0.18204233
-0.55562526
-0.46464458
-0.514618
0.5114796
2.6536052
0.33091605
0.472182
1.1367888
0.2057403
-0.9497728
2.098958
-0.96381843
0.19683315
0.5984959
0.21882546
0.52630484
0.6621583
0.43749234
0.44122908
1.7166194
0.34858048
0.19799714
0.06632717
0.2227035
-0.274823
-0.61100227
-0.20981446
-0.6212344
-1.7724164
-0.8570462
0.2496091
1.8028535
0.35449246
1.5586141
1.3019301
1.2584647
-0.10617475
-1.0166941
0.029689517
0.12499032
-0.794944
0.14975218
0.47317302
0.36465436
0.3291611
0.8687129
1.9809698
0.5216765
0.12335071
0.10785145
0.35856077
-0.7190433
-0.044936683
0.9370285
-1.0292958
-0.7872253
1.8799815
-0.7857434
0.15982269
0.75063974
0.5231065
0.1852169
0.337939
-0.19131579
-0.21226025
0.0017891754
1.3247766
1.4822478
1.0767643
0.114396565
-0.2573002
0.0019389745
-0.39551386
4.1164737
-0.5815829
-0.016296752
-0.3625432
-0.11174398
0.23779702
0.5229643
0.33596632
0.59885496
2.131656
0.36196116
0.44605333
0.28279117
0.4496726
0.3001586
-0.7226038
0.41791382
0.42323473
2.4561238
0.26556507
0.053379226
-0.67424124
0.07486423
-0.30953225
-0.25630093
-0.31441265
0.24606915
-1.8854789
0.11756176
0.92971075
1.5337881
0.78758687
0.68551356
1.8754699
0.63284725
-0.30823147
0.6409141
-0.3251614
0.77036834
1.0175185
0.66268593
-0.98842716
-0.47399113
1.0697308
-0.8888694
-0.6537537
1.742284
-0.21964458
0.094945
-0.16937722
0.1450878
0.79141223
0.015016236
-1.0184412
-2.0325627
-0.79447025
0.24561454
1.3474702
0.14396802
-0.4345979
-0.34523147
-0.37304217
-0.63117415
0.06150985
-0.6076749
-0.608685
-0.573656
-0.61412895
0.5455507
-0.33328518
0.5850584
1.368202
0.98983604
1.4942807
0.7393924
-0.36391675
0.39265284
0.47871017
-1.8368243
0.505276
0.6718637
1.212753
0.5662983
0.5583093
0.72940034
0.48696765
0.12683797
0.15119861
0.21273868
0.92341465
2.3696074
0.773972
0.8071849
0.18728003
0.028461462
0.084056765
0.28775898
0.8010782
-0.86763567
0.42355573
0.9283828
0.6644042
1.2403406
0.61838007
-0.44254765
-0.6117537
-0.58613133
-0.711673
-0.51243055
-0.6049148
-0.37406254
-0.5452227
-0.36815926
-0.11430939
-0.23169304
-0.19604978
0.21163449
-3.423034
0.2344218
-0.09252506
-0.21328093
-0.02944596
0.17845874
0.41514704
0.06378382
-0.3098495
1.7882988
-0.2511959
0.8217871
1.056999
0.6591655
0.017209142
-1.3696064
-0.075237155
-0.48571685
0.6763362
-0.43758076
0.7051475
2.1700482
0.55253005
-0.39034563
-0.7473473
-0.2990875
-0.17830285
3.3662355
-0.30214855
0.086923346
0.26912943
0.07700519
-0.18167539
-0.8380213
-0.17325789
0.2492863
-0.6252433
0.21571657
0.48509505
2.1024027
0.57412624
0.6596221
1.6916076
0.6694156
-0.010530954
0.032797504
-0.032012906
0.7118461
0.37568262
0.62151724
0.081279874
0.044637594
0.0386348
-0.018979283
3.7170625
-0.24244411
0.12601383
-0.43810746
0.101185985
0.7582541
-0.457027
0.8978491
1.4713374
0.8903846
1.3982286
0.73051435
-0.3190737
0.7754193
-0.32872427
-0.6563961
-0.30996716
-0.25614718
-1.0792094
-0.25912938
-0.33335477
-0.43705672
-0.32359472
0.112274796
0.32988212
2.5128248
0.06400844
-0.8238842
-0.11532681
0.18584652
-0.49532914
0.28918523
-0.5571326
-0.021543942
0.56532145
-1.9118583
-0.310718
2.2683897
-0.36799514
-0.02764998
0.45912036
0.75536907
-0.7015595
0.737878
0.57711005
1.613215
0.54558045
0.2492254
0.6184161
0.20137227
-0.51165533
-0.5513452
-0.43032914
-0.5770861
-0.64999956
-0.4714402
-0.51483375
-0.63875294
-0.5638596
0.1551546
0.9793879
0.09424397
0.41562667
-3.9714093
0.50875866
0.008333866
0.5946092
0.03463792
-0.83630896
-0.055909112
1.3085939
-0.98424697
-0.81994486
1.4817811
-0.1918501
-0.090178445
0.76416695
-0.030351188
-1.1496487
-0.032993697
0.25415257
2.7340121
0.110712536
-0.2157334
-1.1756876
0.062092613
-0.5171406
-0.81581295
-0.42077753
0.4823858
-1.5327744
0.50785273
0.5175397
1.3544474
0.5061862
0.103907295
0.3782449
0.048781093
0.087699704
3.1300585
-0.060683772
-0.009408274
-0.34166223
-0.10151928
0.3804991
-0.7232186
0.11223337
1.1866617
1.9200736
-0.88762933
-1.7773535
0.9137887
0.1816142
-0.11337337
-0.1846556
-0.080264054
-0.38465565
-3.8422987
-0.08333205
0.14441188
0.2510493
0.16735907
0.50978357
0.19918948
0.4298054
0.99837136
1.3810712
0.7823731
0.657003
0.9889652
0.6359564
-0.04284702
-0.4726873
-0.023938017
-0.2166506
-1.8699323
-0.25725088
-0.058357306
-0.077618346
-0.017090296
-0.43085065
0.31986234
-0.44992116
-0.030202689
-2.2804487
0.075205095
-0.19737267
0.05926492
-0.27592042
-0.22377332
1.8220786
1.4069048
0.09554558
-1.1618884
-1.4678186
-0.04360742
0.17709315
-0.08597227
-0.23330773
-0.2839233
-0.9905067
-0.573782
-0.44002447
-0.4819707
-0.37322673
-0.52935964
-1.1184436
0.31222218
0.32491094
-0.17811957
-2.4430313
0.5039158
0.6970641
-1.1169723
-0.084428266
0.69941646
-0.07651217
-0.9228358
-0.008716128
-0.21122324
-0.31683674
-0.069550075
-0.8175018
-0.69992
-0.97070634
-0.8996862
0.60449255
1.0775872
-0.82444084
-1.587239
0.19437952
0.9580916
-0.47450042
-0.9198912
0.059397854
0.60104376
0.013218762
-1.0712664
-1.8858489
-1.0212663
-0.091094956
1.1709046
-0.09527442
-0.34990388
-0.24616532
-0.30849218
-0.5977201
-0.7623197
-0.56681705
-0.44706503
-0.3769945
-0.42237666
0.45592716
0.3593327
0.34232706
0.63161
1.9144478
0.62208706
0.38440385
0.39755207
0.3492689
1.1729972
0.6622637
0.97401255
0.31377894
-1.7422953
0.00375536
-0.019311115
-1.6488061
-1.1788821
-0.40718055
0.4132181
-1.0311656
1.0790343
-1.154256
-1.7891552
0.17338279
0.374688
-1.3583237
0.42281753
1.7699361
0.31836095
-0.017944932
-0.314497
0.018916361
-0.8044652
-1.5630404
-0.67977315
0.08367644
-0.021112235
0.0766919
0.36089903
-0.75056654
0.009024071
2.9583836
-0.010984848
-0.20248613
-0.25007924
0.061345212
-0.5745346
-0.2982276
-1.9719096
0.13747643
0.007856196
-0.83608127
-0.019938665
-0.5999262
0.22817218
-0.56949806
-0.08436724
-0.51373565
-0.090188004
-0.64247453
-1.368685
-0.50392735
0.6234112
1.0251786
0.3682645
0.6535739
1.4647281
0.4180283
0.326718
-0.23114581
0.37993848
-0.49619827
-0.04694216
0.8024605
-0.2234066
0.24041602
0.5092189
0.5972681
0.4117396
1.4027746
0.33029604
0.44558665
0.25099126
0.42669377
2.9178052
0.1691221
0.22066303
0.07238235
0.3077015
-0.817339
-2.00809
-0.7637751
0.22388807
0.4548852
0.120097496
0.14299051
1.434064
0.06417188
-1.0436862
-0.81389636
0.96674573
-0.72984225
-0.9898365
1.1152327
-0.95118016
-0.93391633
0.6919792
1.0225533
0.104384914
-0.19455898
0.9511352
-1.1287662
-0.16715354
0.55890673
1.2123375
-0.1056517
-0.9066995
-1.3377837
-0.7243196
0.02600462
-0.7958446
0.09364782
0.0727192
-0.24542987
0.041668132
0.49587426
0.28103173
0.4039932
0.05655203
2.3047228
-0.0377271
0.49754578
0.094476
0.4513744
0.28635842
0.19602343
0.22279468
0.08931086
2.911563
-0.024575548
0.3187689
0.16555922
0.12717924
0.11741222
0.4158913
0.0926515
-0.13030507
3.226044
-0.087409705
-0.08022427
-0.5269013
-0.15125799
-0.6894276
-1.2473601
-1.6043773
0.03587498
0.13495061
-0.28760374
1.4475603
1.4903086
1.0013449
-0.23286675
0.068772785
0.13523084
2.1026492
-0.20751494
-1.9579934
0.8438388
-0.19408076
-0.57456607
0.010334676
-0.8728183
0.3292043
2.3700671
0.25751096
-0.23222823
0.6789818
-0.8032783
0.4037908
0.42886537
-0.25047988
0.31994534
0.014179967
3.2593932
-0.13898365
-0.17149523
-0.33074734
-0.06575321
0.3155213
0.38705277
0.17237996
0.37093362
2.418586
0.13036379
0.33577737
0.21959825
0.30244347
0.8101007
-0.83998996
-0.23579285
2.0411165
-0.032676585
-0.9327424
0.7937281
-0.6797431
-0.7156315
0.34321615
0.06896616
0.3065893
0.13172801
2.7837322
0.05070884
0.38308287
0.09741023
0.41674575
0.6437985
1.8982687
0.55394584
0.37890863
-0.5965028
0.21986327
0.08315297
-0.46806318
0.23799828
-0.57370764
-0.6941636
-0.5488341
-0.5761761
-0.76243836
-0.439257
-0.47279185
-0.3927444
-0.4580536
1.1039729
0.44184932
-0.5694952
2.0621781
-1.8287965
-1.3347499
0.7274756
0.50422657
-0.093970925
1.4832263
0.02887525
-0.76030934
1.1244949
-0.8955534
-0.8771729
1.1033727
0.10381365
-0.4243912
0.3343168
-0.055764396
0.29349223
0.57440585
2.0817475
0.3892398
0.32634076
0.4160793
0.33414668
-0.17193481
-1.0542078
-0.8976226
1.0555575
-0.0011172683
-1.2847598
0.75586903
2.1050384
0.6873733
0.08339162
0.28034946
-0.18030712
0.5885001
2.084664
0.004114502
0.30237257
0.7215808
-0.039349508
0.12678243
-0.34028465
0.14596836
-0.33570662
2.945135
-0.41586152
-0.064189225
0.8213968
-0.014852663
-0.15250246
-0.731538
-0.20577677
-0.63119906
-1.6495986
-0.6715473
-0.20228349
-0.56250334
-0.16131887
0.09052662
-1.3150307
0.15196553
-1.2570705
3.5478332
-1.1946568
0.022584975
-1.2298334
0.04890057
0.59200245
0.6793704
0.65113395
0.50580746
2.1000428
0.28418356
0.16498324
0.5932671
0.19319054
0.4684301
0.47311398
0.5041646
0.34075877
2.1497178
0.2833029
0.3054045
0.027441157
0.2768189
-0.4840328
-0.11576548
0.6294332
-0.5428043
-1.8738568
1.169217
0.4170757
0.89644426
1.2275306
0.102837004
0.69260794
0.120971076
0.73592895
2.2888782
0.8664649
0.3779294
0.41540647
0.39567196
-0.5726831
-0.9634791
0.6376847
-0.24168403
-0.6512787
0.69754887
0.706176
0.94202304
0.55880094
0.18571365
0.5769085
-0.07816785
1.0279968
1.9817436
-0.31861603
0.899346
0.22862352
-0.12774792
1.1214424
1.1915443
0.96637994
0.051221173
-1.5234165
0.36960948
-0.14192241
-0.41357675
0.0009879813
0.25690874
1.4831626
-0.2931657
1.230213
-0.6290882
-0.84614855
-0.055602595
-1.577709
0.046947565
0.34623516
-0.018803284
0.2440099
1.291692
-0.26561093
-0.85832447
0.9024969
1.6766186
-0.0005236233
0.42626625
0.075353645
0.4823385
0.26798192
3.0471122
0.09445635
0.40008667
0.46848482
0.44994482
0.52016425
0.049422998
0.45939937
0.4081521
2.3242733
0.41966736
0.56539905
-0.1433354
0.43869004
-0.70682114
-0.585636
0.26498714
-1.6002288
-0.8248494
1.9048725
-0.3276185
-0.037193123
0.29805988
-0.8185638
-0.63787276
-0.7492756
-0.47766417
-0.5322853
-0.87902164
-0.35981044
-0.51947266
-0.50952035
0.41308475
0.05012059
0.267897
0.11035154
3.8796291
0.18604666
0.5649092
0.0007529244
0.43780625
0.103332855
0.24354404
0.20942348
-0.31818682
0.478061
-0.25697023
0.65800476
1.9803257
0.87451047
0.008053319
-0.17360255
-0.033418737
-0.20684601
3.702633
-0.115938984
-0.13867344
-0.06757608
-0.1482273
-0.25353497
0.571409
-0.29553175
-0.36962178
3.0789518
-0.45147455
0.3500123
-1.1026179
0.4101953
-0.9744649
-0.6869361
0.5398975
-0.7353652
-2.0532694
1.2026389
0.88378614
1.4446276
-0.19310288
-0.3988627
-0.40411782
-0.46283543
-0.6213961
-0.79446524
-0.5357923
-0.33807468
-0.46317866
-0.3093406
0.27882174
0.24350335
0.26144844
0.19838575
2.2672727
0.2676595
0.1332505
0.20448941
0.14859797
0.014026174
-0.45667288
-0.08537387
0.13563225
3.0291913
0.035336338
0.35014912
0.47850648
0.26084778
0.046255082
0.90385073
0.9655512
0.31080255
1.5389887
-1.2757092
0.18082741
1.044587
1.0836349
-0.33139956
-0.6661119
0.24874908
0.76980627
-2.0984082
-0.639961
0.44932953
0.25626528
-0.735685
0.25160545
0.89750105
0.13765176
0.7515831
1.558736
0.48541358
0.23476543
0.62078696
0.15008134
-0.104142174
-0.5855573
-0.1047993
-0.13673115
3.4537868
-0.16687308
-0.19253412
-0.20807643
-0.20274512
-0.2085279
-1.0945076
-0.20819804
-0.36294198
-1.678668
-0.31652436
0.85035694
2.3493981
0.8156652
1.7080251
0.23908477
-0.35057932
1.1004599
0.51061565
-0.7855097
0.0686717
-0.52302694
0.1162952
0.48441583
1.9154857
0.45500252
0.36685026
-1.0377009
0.33765972
0.14578293
1.5476934
0.121293895
-0.06760785
0.68175787
-0.19435875
0.24802606
1.9672927
0.118304506
0.26318952
0.32755384
0.22891444
1.5903828
0.4174667
-0.76628864
1.8371027
-1.2759335
-1.7714766
1.2299961
0.35212368
-0.497285
0.69729954
2.053211
0.73896664
0.12762745
0.56876266
0.022386178
0.56958246
0.24841149
0.56861055
0.06166796
-0.016620759
0.74765474
0.6119409
1.7309726
0.7349864
0.38905105
0.25123963
0.5408898
0.20995416
0.5375836
0.26102236
0.3011489
2.323867
0.26026246
0.14610094
0.034438293
0.06967403
0.0627386
-0.06864856
0.03361324
0.7338528
1.9625789
0.643333
0.41821775
0.16522998
0.19844483
-0.20411676
-1.0930867
-0.15207279
-0.044601806
-2.160931
0.039287526
0.23012193
0.8115057
0.17277475
0.36785886
-0.22489636
-0.051080376
0.9921396
-1.2800893
0.89324266
0.5957478
0.9183953
0.5699003
-0.05278621
-0.70418364
0.41892704
1.7599694
-0.009086886
-0.8765081
1.7027005
0.63816047
0.50283504
0.5003844
0.25684983
0.188228
0.8105119
2.8001187
0.7056023
0.30108756
0.34984523
0.061187163
-0.8841057
-0.26340264
1.3299009
-1.7235551
-0.23677276
1.9127818
-0.0676298
-0.0071436446
0.11703117
-0.75997126
-0.58884495
-0.56515557
-0.26372272
-0.47906473
-0.18569326
-0.34883985
-0.44853172
-0.26613447
0.63612014
1.4776884
0.600569
0.11253222
1.4987218
0.17469412
0.4053248
-0.15569855
0.3004806
0.18546721
0.1367085
0.28265518
0.5254418
3.1739206
0.24221702
0.24801208
-0.3220823
0.24382617
-0.01797833
-0.45718038
0.009124424
0.474901
2.9452276
0.27081525
0.4902985
0.81124324
0.31686363
0.061738115
-0.25765568
-0.036641747
1.3432229
-1.5465124
-0.093978964
0.60717654
-0.90624595
-0.21398547
1.6850276
1.8498508
-0.22182226
-1.8938977
-0.4182487
-0.17929141
0.08693415
-0.42558756
0.22816448
0.45408908
-0.15629318
0.2798989
-0.4415014
1.0094349
-0.35890636
0.37359154
1.8134042
0.20325656
0.2865285
0.2825893
0.29491082
0.31862447
1.9296943
0.2777633
0.20862871
0.20295186
0.21496443
0.2791156
-0.16292845
0.2384364
-0.1443175
-1.5304991
-0.11775327
-0.8679826
-0.45671874
-0.94458663
-0.8485883
-0.111771226
-0.7398546
0.104693696
-0.33526656
0.054240603
-0.8217317
0.23060712
-0.7371972
0.20627822
0.23886473
0.22418837
0.18763375
2.90883
0.16903505
0.14092186
0.17506322
0.13254473
-0.7378205
-0.853542
-0.7840823
-0.5184383
-0.64362264
-0.5064625
-0.21764782
-0.68259156
-0.17227685
0.13368255
-0.46514532
0.095749356
-0.44901142
-2.7310445
-0.39480382
-0.21053869
-0.12269025
-0.26793456
0.6114711
-0.38286346
-0.33117372
2.5346184
-0.17068252
-1.6817361
-0.05255122
0.26264
0.22719173
0.21259403
-0.59408814
0.17684841
1.0297443
-1.8814423
1.0342772
-0.023952864
-0.6203905
-0.068746135
-0.25030866
-0.51920813
-0.24128576
-0.41379577
-1.4114712
-0.30293572
-0.11279858
-0.37210917
-0.07842635
-0.5990725
-0.62951857
-0.49367252
-0.6686123
-0.3905035
-0.6237104
-0.370257
-0.4470883
-0.39768136
0.27248642
0.22176345
0.153508
0.17694227
2.5493581
0.19729261
0.014769146
0.29186007
-0.053337455
0.084574334
0.49375117
0.1780002
0.92393476
2.1748276
0.8909606
0.08259951
0.16118602
0.037484188
-0.29793712
-0.6333812
-0.24549162
-0.44448084
-1.0023335
-0.40143186
-0.22463395
-0.7623829
-0.1528959
0.16474058
-0.6139208
0.20416489
-0.7028743
-1.6243104
-0.63681084
0.16236955
-0.35452706
0.106774345
0.01541102
-0.67905384
-0.00057295454
-0.61307216
-1.580248
-0.45271742
0.022190494
-0.14183535
-0.010882934
0.7480189
0.6562239
-0.6598902
0.8548232
-2.6187396
0.48063856
-0.9633228
0.48718178
0.78641385
0.33892205
0.73658264
0.1716108
0.23650779
1.6610707
0.26797265
0.3935716
0.6165081
0.26282695
-0.14605989
-1.1091242
-0.05904754
-0.6022838
-1.3609005
-0.4285315
-0.17059222
-0.3164326
-0.15337373
0.38030383
0.3000971
0.63425684
1.0600098
1.2309726
0.21354692
0.8451816
-0.07876615
0.659037
0.040787116
-0.06346131
-0.7386693
0.56975186
1.7979275
-2.0022452
0.003401879
-0.2759813
-0.8955474
-0.46770093
1.1142726
0.27178508
-1.2227138
-1.7328324
0.8062974
1.6155185
-0.18955453
-0.45875165
0.3070752
-0.2125206
-1.6790323
1.7873507
0.12713572
-2.5325134
1.0048032
0.39741138
-0.2114248
0.36775136
0.25130975
0.5691241
0.1792788
3.0916216
-0.024740672
0.21484503
0.10923624
0.21756639
0.6944626
1.4346541
-0.22612242
-0.55247617
-0.28270727
-0.12356321
-0.0127004525
-1.3208746
-1.4769192
-0.21109335
-0.39505783
-0.23136725
0.31271565
2.6965184
0.11220758
0.314201
0.715826
0.20425501
0.53181326
1.7150223
0.58525884
-0.19035447
0.8683547
-0.46312413
0.2790939
1.029351
0.3399858
-0.44805634
0.33259764
1.2082642
-0.5387471
-1.7752537
1.2996111
0.097401224
0.6837091
0.5328019
0.46795186
1.5001166
0.4388995
0.43855336
1.2206252
0.46981257
-0.0497357
-1.4458141
-0.02329862
0.07812482
-0.00017490805
-0.039731864
0.36324078
2.058661
0.30081272
0.4114174
0.6801173
0.35956803
-1.3218898
-0.96050555
-0.10350156
-0.17667878
1.7363094
0.5516684
0.5121369
1.0338283
0.49542403
-1.4216796
0.5897875
0.5823039
1.564106
1.34451
-0.4910578
1.0959325
-0.084587075
-0.27372095
-1.4681939
0.20668548
0.03814137
-0.55204535
0.62956303
0.24092567
-1.4920901
-0.23094934
0.017169865
0.4387061
2.7636511
-0.17169134
-0.17416579
-0.7497102
-0.26182994
0.17966624
0.114867054
0.1449131
0.40367764
-1.4872254
0.418834
0.3733489
-1.5295173
0.33511657
0.32049248
-1.2134198
0.23395006
0.026795482
0.8199351
0.057648495
-0.3235349
-2.1987407
-0.4178444
-0.11416401
-0.266956
-0.16585024
0.29878047
0.67113984
0.22244607
0.4690927
1.9345332
0.19889994
0.16712615
-0.06490909
0.1324617
-0.0044019236
0.45125458
-0.17271002
1.8744564
-0.2812911
-1.9180493
0.44226047
-0.031414617
-1.128902
-0.9538313
-1.2887272
-0.85795814
0.52936614
-0.43770617
0.62781733
1.1985656
0.5466583
1.1085247
1.1275234
0.59744877
1.056749
0.55748683
0.93958205
0.6214133
0.61305857
0.914699
0.5916799
-0.26165822
-0.014662614
-0.18020123
-0.22469714
0.34600744
-0.33768296
-1.2322924
-0.6381611
-1.1219392
0.20466076
0.42959204
0.29531428
-1.4616994
1.7884363
0.48874807
0.91965276
0.43669474
-0.07835913
1.9027433
1.5963025
-0.060744192
0.28102642
-0.82322073
-0.4767017
-1.0423288
-0.88599366
-0.056930494
-0.24922155
1.3219093
0.13163896
-1.5094053
-0.81527734
1.4297552
0.8180204
-1.2179729
-0.07914253
0.40026593
0.99966776
-0.61040175
0.8137583
1.2432681
-1.2249506
-0.3574351
-0.55894816
-0.4617666
1.8304327
0.26660985
-0.45450014
0.80618984
-0.97433853
-0.35489136
1.3765458
0.084789015
-0.22640519
0.07454033
-0.41126555
-1.0016245
1.9112464
-0.10764281
-0.42903855
1.0756105
0.52696425
-0.091933675
0.38258338
-0.7535747
-0.035400994
-0.3588443
-0.44030124
-0.0058561414
0.5780367
0.45754817
2.125958
0.4720968
0.50529253
0.46508062
0.3958867
1.62351
0.30945444
0.20765026
0.48977807
0.17351569
-0.17537147
0.8891425
-0.26424277
-0.61155665
-2.4211123
-0.50246173
-0.23185918
0.32185715
-0.18827473
0.3115497
0.37420437
0.28675106
-0.009706163
4.0113893
-0.12989973
0.0056225494
-0.636707
-0.0070710354
0.6256893
-0.037073873
0.55074805
0.58534783
1.540158
0.5895503
0.3563985
-0.17362982
0.34379935
0.4398232
-1.1098912
0.23970856
1.6616787
-0.99285007
1.496813
0.021778166
0.14870489
0.07596728
-0.26466465
0.76700073
0.27400824
1.0143292
2.3190799
0.19136542
0.4535832
0.2621405
0.33440998
-0.3311354
-0.44969094
0.05626286
1.0320259
0.63303185
-0.4331621
1.2119577
1.1039902
-0.2742387
0.5452004
0.78958756
0.575222
0.5569911
1.8653432
0.4239499
0.25569046
0.034822248
0.2889663
0.24297366
0.461763
0.22081998
0.3492282
0.18758151
0.15679076
0.31916875
1.1370099
0.38430274
0.027166951
-0.38351783
0.03885736
-0.2555412
4.005617
-0.37114093
-0.11419214
-0.76686823
-0.10125157
0.57662266
0.03080856
0.39356244
-0.028115304
1.0101861
0.02099131
0.44614798
1.4199252
0.27708906
0.48238355
-0.33003688
-1.6353554
0.47837976
-0.3893075
-0.5497233
0.28108945
-0.54830897
-1.6085895
-1.2465435
-0.98088765
-1.212986
-0.515
-1.2814122
-0.3228251
0.44389436
0.66869444
0.34922153
0.43755886
0.86304504
0.34752652
0.42784718
1.8054416
0.31736714
0.003861718
-0.11475805
-0.066967845
1.4799668
-0.3973059
-1.1334993
-0.07144723
-2.211669
-0.10102765
-0.7604099
0.082713544
0.18879193
1.0332553
0.7671308
-0.02726952
-0.9037903
1.3943604
0.254805
1.0782285
1.1321964
-0.036939226
0.7125578
0.29047298
-0.11070023
1.2037197
-1.4705523
-1.0428313
0.540554
-0.19755396
-0.43351516
-0.4668908
-0.54071975
-0.34402457
-0.7548938
-0.71160096
-0.5572094
-0.6350475
-0.5157639
-0.528222
-0.34339833
0.3306441
0.82938766
-0.85265046
-1.5617803
1.3470268
0.034169715
0.28611475
0.6675194
0.98996025
-0.23545343
0.19454058
1.4676458
0.57619214
-0.74458313
-0.74170417
0.9644182
0.5614787
0.42299503
1.1661825
0.22073671
-0.034424745
2.237044
-0.10418103
0.19473521
-0.099305324
0.14284806
-0.16460711
-0.5414865
-0.1117782
0.6342267
1.8024092
0.545999
0.44920328
1.496803
0.33100408
0.5401957
1.9999985
0.4799337
0.13862608
-0.7714064
0.23338707
-0.18015674
-0.090312496
-0.021861646
-0.09515548
-0.095476784
-0.047568347
-0.06242746
-3.0540955
-0.089703426
-0.036322672
0.11486585
0.00094463484
0.10767778
0.10665844
0.3867661
0.21743064
2.234177
0.187658
0.37321165
0.07854352
0.086785994
-0.12569168
-1.4878095
-0.99945515
1.2319169
-1.7619753
0.3887638
0.6192981
1.3337879
0.560581
-0.08748286
-0.25991237
-0.11144065
1.0680525
2.5543282
0.8770255
0.11903853
0.46833548
0.070125245
0.2345434
0.18229325
0.19551401
0.021707898
2.2751327
-0.008908328
0.29897287
-0.06434104
0.19448207
-0.12006148
-0.75300485
-0.041865442
0.3495359
-2.740873
0.31136733
0.6646321
1.1120368
0.62626094
1.2340527
0.14964508
-0.07975064
0.060442045
1.4004668
0.14093083
-0.46754736
0.64792705
0.7989741
-0.020697623
-1.1311971
-0.4091374
0.56229204
1.7610072
-0.05187682
0.324821
1.0347455
0.78935957
0.28814796
0.5013553
0.38082883
0.33847818
2.6543343
0.20420437
0.26167494
0.19672184
0.2771165
-0.3838001
-0.8185432
-0.35201746
-0.6448262
-0.7770503
-0.57348657
-0.33216372
-0.40232798
-0.2367235
0.34512803
0.30170035
0.39177305
-0.052415073
-2.1547139
0.1514342
-0.51748335
-1.2012715
-0.2828368
0.5687141
0.38615012
0.56201184
0.45188802
1.6642989
0.4483573
0.3314713
0.29311618
0.4238912
-0.45131114
0.9138917
1.9066874
-0.35659644
-1.4414498
0.18976775
0.17435043
-0.07592156
-1.2531004
0.35830325
-0.1221524
-0.18050061
-1.9742011
0.40834254
1.3385442
1.5728053
-0.4518139
-1.1136117
-0.4114427
-0.8187849
-0.14205116
-0.5723432
-0.5723308
-0.22956072
-0.5393569
-0.477669
-0.4126868
0.2534791
0.6922244
0.21382958
0.46228644
2.0506232
0.25504386
0.1550031
-0.11802591
0.1506631
-0.7391194
-1.6188055
-0.7521124
-0.049657628
-0.644878
-0.19298607
-0.28081393
-0.90562123
-0.08491195
0.32890195
1.2198335
0.28094628
-0.2984206
-0.31155947
-0.42104608
0.64689916
2.2003467
0.5100502
-0.7510669
-1.3565661
-0.67229396
-0.8027461
2.3513877
-0.68965983
-0.2816153
-0.5091818
-0.31908986
0.6458623
2.174175
0.56290054
0.096371695
-0.16636465
0.15778194
0.28999996
0.11728229
0.26932493
0.13552888
0.38136017
0.17809881
0.051040787
3.1265028
0.0019463901
0.16436157
-0.2820016
0.09388634
0.24724247
0.97285324
0.07307113
1.0197599
0.9842624
0.87479395
0.41091955
0.9303547
0.333402
0.27935487
0.6707827
0.3156696
0.31952626
1.4826092
0.22642455
0.71064156
0.36171743
0.649692
0.122782074
-0.21787551
0.060670547
-0.070175625
4.4048634
-0.056653593
0.12891811
-0.2682865
0.03506314
0.51467407
1.0207858
0.4407647
0.44353786
1.5260868
0.29437417
-0.0018648638
-1.1253799
-0.0072776177
1.0220927
-0.2329469
-1.18978
-0.17616566
-1.3291065
0.32137233
-1.2501909
0.22877546
0.49598354
-0.89310014
0.96913975
0.98390234
1.2623459
0.75206333
0.46138832
0.8187189
0.11129868
0.31890854
0.004964463
0.4881382
-0.44982508
0.45492458
0.89444035
-0.14507945
-0.4374767
-0.46085355
-2.4838734
-1.057252
-0.70206004
-0.2129255
-0.6955268
0.06324943
1.5012026
-0.48928085
0.4098089
1.5197302
-0.8632134
-0.9386522
-0.7313005
-0.22338976
-0.4189189
-0.2288183
-0.5588186
0.2337643
-0.47098523
0.38862237
0.5639894
0.1991316
0.4139224
2.021514
0.3971912
0.087012395
0.3105089
0.008540405
-0.6397966
-0.60464895
-0.61096066
-0.45748687
-0.4176465
-0.502622
-0.4608125
-0.5797678
-0.43924356
-0.28689837
-0.636376
-0.19077322
-0.58556145
-1.209388
-0.5745133
-0.2765306
-0.4371088
-0.33314314
0.58239335
0.022235543
0.16342302
1.0142559
2.175831
-0.52349985
-0.3646596
-0.24616216
0.15531386
-0.629062
1.3637875
0.34905806
1.4526601
-0.07699315
-0.9616321
0.7963114
-0.35229504
-0.022493802
1.0430002
0.1040414
-0.21594101
1.8467789
-1.72392
-0.92939156
0.5694043
0.55520153
0.062434193
-0.39468816
0.4412799
1.3433036
-0.5682948
-0.8427795
1.1263771
-0.6043571
-0.3872461
0.7338502
0.15561955
-0.89474887
0.69195914
-0.25581652
0.38084215
2.3793852
0.0018001534
0.12542942
-0.43576264
0.12656708
-0.56044364
0.11933057
-0.51795304
-1.5804745
-0.5456578
0.17978407
-0.5660653
0.18943512
0.30309543
0.84344524
0.3643839
0.21043408
1.8669347
0.1468434
0.16368458
-0.15291838
0.15468745
-0.644005
-0.97096217
-1.193614
0.48373714
-0.67705375
-1.0984839
-0.10878477
-0.10798831
-0.24197929
2.5068276
1.614603
0.9756954
0.3815282
-0.67582834
-0.39755175
-0.082199134
-0.8048584
-0.8001656
-0.37645355
-1.1407579
-0.27339244
-0.57569915
-1.1857879
-0.6163943
-0.52932584
-0.32585952
-0.54746825
0.27899703
0.11276139
0.21797727
0.2480149
2.3421738
0.34445125
0.6064323
0.40287325
0.47150707
-0.97198343
0.4856582
0.31906486
-2.3726559
0.21798761
1.5354866
-0.5845079
0.37120908
0.21214294
0.7515013
2.0126626
0.7521706
0.04570806
-0.8854584
0.10331815
0.030532263
0.2052216
-0.03924773
-0.572919
-1.2653854
-0.5400541
0.47971892
-1.2307435
0.45992577
0.30247065
0.79795545
0.24491878
0.391452
-0.36376545
-0.3815889
1.7308328
-2.024015
0.42122284
0.05938713
-0.3539111
-0.060289156
-0.37106952
-0.91200626
-0.40324572
-0.6174554
3.4544477
-0.6478619
0.12739685
-0.22014397
0.14121553
-0.21571381
0.25715217
-0.24106044
-0.35873833
3.4944186
-0.32980514
-0.069644
-0.14722775
-0.1282995
0.21841647
0.19328973
0.21261735
0.5406053
2.0309565
0.30462065
0.22522391
0.41893798
0.2306792
0.2890646
-0.010140124
0.21123034
1.4928082
1.430721
1.4909961
0.35272446
-0.08571041
0.25827256
-1.224585
-0.48587677
-1.1656609
0.14875375
-1.1360339
0.12409281
0.7923182
0.8902956
0.78611845
0.62594825
0.2796364
0.058184642
2.1231613
-0.38903764
-0.54398054
0.2392721
0.2440872
0.02646385
0.20826091
0.6356453
0.26766652
0.33943477
1.9842865
0.41984695
0.42092657
0.41038638
0.48579583
-0.6057183
-0.73947966
-0.6449321
-0.52810115
-0.55123025
-0.5384603
-0.3107887
-1.2230626
-0.17797653
0.33768106
0.60022837
0.3294046
0.41688082
2.571453
0.28673947
0.11239614
0.15164351
-0.0068372036
0.09415232
-0.094651945
0.041988835
-0.014082329
-3.325097
-0.07953952
-0.026813481
-0.1605569
0.10158671
0.25205532
-0.3416837
0.44742522
-0.1943909
0.8497842
1.1681108
-0.3667498
0.79479545
0.8889785
0.4360438
-0.85111386
0.43022594
1.604913
-2.9073737
1.3368322
-0.2206102
0.31314567
-0.085235715
0.36682728
-0.19894281
0.31509385
-0.31180906
-0.23192129
-0.37145847
0.42447957
1.6495463
1.2319762
-0.44536036
-0.55230725
-0.4462214
-0.42634362
-1.282212
-0.3825601
-0.30820984
-0.44959736
-0.2859582
0.6498194
1.2767268
0.65373206
0.051337536
-1.5586009
-0.011458074
-0.63990754
-0.9795599
-0.61438286
0.19919913
1.5646293
0.33723027
0.19513956
0.98907405
0.07801372
0.45950082
-0.53123677
0.62183505
0.6796886
1.8280405
0.6348685
-0.73753744
-1.9256567
-0.70046186
-0.22799739
-0.10315998
-0.23160534
0.40557778
0.15750858
0.20463341
0.86257297
2.0429633
1.5247601
0.22942793
0.0818679
0.72719103
0.28430912
0.279294
0.20869334
-1.3156991
-1.6133417
-1.1740073
-0.41732574
-0.27939716
-0.3034213
1.650285
-0.15141901
-0.54235333
1.0286099
-1.2964971
-0.6803179
-0.09861388
1.0731044
0.53460306
0.47834218
1.0709273
0.4045442
0.6146206
1.3046128
0.50388587
0.049221817
0.04780721
-0.04154956
-0.23817644
-0.115109585
-0.002495874
1.4211547
1.1094913
-0.49509963
0.85416716
-0.30157372
-0.0021791798
-0.029701268
-0.8234244
-0.29848084
1.6333632
-1.2887098
-1.2265049
-0.24463584
-0.65526485
-0.095568046
0.36963204
1.8351122
0.4156595
-0.155806
0.13061628
-0.15430355
1.148286
0.70704573
1.029631
-0.406945
-0.6408028
-0.33888197
-1.0034784
-0.84388876
-0.79828537
-0.60851806
-0.65561116
-0.69280845
0.29280454
0.37759346
0.3538337
0.84180254
1.689246
0.8090492
0.484508
0.18568236
0.38933584
0.25698826
1.1803004
0.4568353
-0.25006825
1.6140069
1.6115296
0.053634606
0.07414835
-0.2963667
1.1929562
1.452063
1.2150971
0.5864928
-1.2629281
0.43653876
0.46772644
-1.1871114
0.4872747
0.25442007
0.1742951
-0.013794585
1.1155853
0.9196167
-0.8075789
1.2995121
-0.8245886
0.13762794
-0.4173119
-0.7693671
-0.31045702
-0.6618905
-0.6717513
-0.5441016
-0.3351123
-0.7439778
-0.29520836
1.0496947
1.76282
0.9933184
0.27786922
-1.5366111
0.32426175
-0.62608165
-1.2553833
-0.65370435
-0.25714448
-0.62014574
-0.24269435
0.116061546
1.8668631
0.24761336
0.3816118
1.4701004
0.38045365
1.3332666
1.0321641
0.4058457
1.3978995
-1.5702312
-0.3399504
0.6951648
-0.5163555
-0.71775115
0.48833346
1.2344766
0.49318182
0.3647568
-0.11389888
0.45088422
-0.39730734
-2.9788346
-0.71022695
0.5827288
1.1946223
0.4232245
0.23255228
-1.9608022
0.16306499
-0.2602833
-0.7042927
-0.26736796
0.10797321
1.0140138
0.1160952
0.022264004
2.6947958
-0.013831718
-0.18462266
-0.82834685
-0.2030953
0.1701295
-0.5273056
0.1648333
0.37862408
1.5984107
0.29117712
0.45069295
1.3754841
0.36758244
-0.025647838
-0.5471557
-0.1492143
-0.6283205
-1.5080513
-0.6631806
0.012893456
0.72949266
0.13574022
0.024507206
-0.6692406
0.16402851
0.15614487
3.4046772
0.03935651
0.44538704
0.73540145
0.5071088
-1.0549886
-1.8822592
-1.0639004
-0.6502342
2.8090365
-0.71531355
-0.3302988
0.58306706
-0.31493482
-0.064287744
-0.7363402
0.05172319
-0.557963
-2.0628133
-0.50192416
0.03493615
-0.4021493
0.059671182
0.81602085
1.0959382
0.8029701
0.28868544
-1.8517069
0.36066183
0.44383714
-0.56078887
0.3069311
1.2402182
1.1026098
-0.16113962
1.0308418
1.7239124
-0.03112554
-0.935791
-0.36860225
0.05789763
0.027019214
-0.07497802
0.037278775
0.5287682
-3.7710967
0.7198625
0.19763187
1.0934098
0.31052953
0.28910226
-0.223427
0.21521856
0.2962849
-0.17102253
0.33333373
0.83900666
1.8981367
0.73582
0.52520764
1.3703868
0.10538701
-0.32970923
-2.319493
0.9855073
-0.5037423
-0.12215486
0.7390075
-0.6766008
0.33248428
-0.55764574
-1.0513918
-0.9772508
-1.0051792
0.13266605
-0.18077466
0.15699382
2.544653
-0.3483165
-0.42088193
1.7970027
-0.5954884
-0.41331595
-0.31125757
-0.4470217
-0.2843215
-0.22809887
-0.59174186
-0.16779725
0.23471715
-2.2836251
0.44984108
-0.29842973
-0.54226404
-0.20813514
0.48689446
1.5485803
0.45997065
0.95967114
-0.43810028
0.975559
0.17288025
-0.21487606
0.10669478
-0.35721892
0.68055403
-0.44357702
-0.64528763
1.3169291
-0.617042
-0.90333194
-1.9142413
-0.870538
-0.22435397
-0.2384613
-0.1278621
-0.26514307
4.064767
-0.38456944
-0.13841507
-0.55411536
-0.097907364
-0.19375612
-1.242686
0.27881643
0.2418904
-1.434182
0.6677696
0.022841167
-1.2346804
0.44425035
0.2838197
0.40550077
0.20379135
0.20576835
2.6158612
0.08319937
0.008249495
0.05312578
-0.042626448
0.17290306
-0.13259837
-0.38912797
0.80916023
0.8000142
0.8669019
0.7694787
1.2463318
0.7569359
0.46884164
-0.94018203
0.6216204
0.7741028
0.5270205
0.73699546
0.56291586
0.91827214
0.545284
-0.8914616
-0.44254667
-0.61681664
-0.30874395
-0.4471989
-0.35671476
-0.51065445
-0.63764036
-0.53722584
0.26831645
-0.36363584
0.22164477
0.33303276
2.4338067
0.17431912
-0.38406864
-1.5362223
-0.3054168
0.71683407
-0.012340546
0.4679883
-0.6291139
0.6935247
-0.2829961
1.1077012
1.8157821
0.7776099
-0.13391428
0.21382134
0.5871961
-1.7051078
-0.07690749
2.4433675
0.23969355
0.20431398
0.025561279
0.12990765
0.4991012
0.052575726
0.009280687
3.899197
-0.110825956
-0.037121985
-0.49370337
-0.027581342
