-0.335763
-2.65655
1.65461
-2.23238
-4.69047
-1.76087
0.687265
2.72484
-0.718643
0.196275
-1.26495
-1.48562
6.73539
-0.0406192
-0.901508
-0.446527
-0.915829
-1.55923
-0.736367
1.21149
-1.70968
-1.88402
5.50175
0.466199
-2.15821
-0.298182
-0.209699
-0.116908
-0.656359
0.214002
0.442015
-3.67944
0.0885403
-0.364997
-0.0359775
0.0766416
2.65696
-1.73988
-3.00441
1.3651
0.561233
0.946725
-3.19695
-1.48379
2.53819
0.349825
0.0112708
-0.773639
0.967732
1.75861
-0.108683
-1.20776
0.73977
0.220709
-1.40692
0.0556004
-0.534551
2.28828
3.4332
-1.53843
-0.0887197
0.297774
-0.527965
0.0509612
0.552521
-0.240098
-0.129995
4.25823
-1.01325
-0.0607656
0.245376
-0.085984
-1.8822
0.6852
0.285358
0.603952
4.38229
-0.984797
1.10235
-2.05489
0.0120678
1.05649
-2.0054
0.555762
4.13854
-7.35579
2.94661
0.13497
-0.630463
0.356523
1.64188
-6.13842
2.82761
-3.68232
10.1579
-4.52592
2.72942
-6.22173
1.99075
-0.665377
5.71823
4.53292
-3.21054
1.81042
1.24449
-2.03476
-4.06504
-3.26445
-1.88412
0.333257
1.15378
-0.661973
1.36751
1.2385
0.49329
0.654729
-1.07713
1.66903
-5.07882
1.01213
-1.22638
4.32453
-0.54282
-0.33899
0.758485
-0.310597
-2.66868
0.574443
1.94303
0.883349
-6.20123
0.112327
3.16329
3.33381
-1.91022
-1.80601
1.72361
0.490752
1.76539
1.83892
-5.04199
0.4981
-2.76301
2.12853
0.330987
-1.86703
0.221707
-0.225828
4.19044
-0.352401
-0.0847427
-0.867697
0.0775227
-0.0965614
-0.424294
-0.230187
-0.534891
3.56048
-0.117131
-0.240674
0.2441
-0.18879
-0.102559
1.66863
-0.0816511
0.0738716
4.15219
0.0550184
-0.0939499
0.308911
-0.391619
-1.00162
1.22261
-0.966784
0.21292
9.97638
-1.17549
-0.89527
-0.521837
-0.891069
0.0321842
-0.521036
0.472196
3.54914
-5.14757
1.08109
0.24162
0.497442
-0.31232
0.52829
-1.46181
0.802652
1.54617
-4.48311
3.23993
0.269537
-1.27115
0.531136
-0.476238
0.077035
0.319953
0.452193
-0.300714
0.994404
0.276672
0.00543258
0.931846
-0.458599
-1.95531
-0.0810268
-1.22007
1.53596
-0.551435
-0.0312266
-0.902341
0.140462
0.114528
1.24703
-0.513427
-0.187433
3.91448
-1.01404
-0.661099
-2.01731
-1.21961
1.79463
1.57458
0.801173
-1.19352
-7.80771
-0.672672
0.539268
0.253831
1.93202
-0.123083
-0.665294
0.692974
1.84046
-6.40306
4.87743
-0.0611885
-0.758249
0.63083
-1.4754
-0.56116
1.28901
-1.49896
-1.90597
5.49297
-0.443212
-1.0877
0.473188
-0.629436
-0.285613
0.0994606
-1.03698
4.62093
-0.637856
0.472949
-0.074401
-1.05442
4.49842
0.540055
-0.341853
-0.988912
-1.88815
-0.497381
-0.652146
-0.238924
-0.16704
-0.297389
0.221088
-0.349071
0.216934
5.44313
-1.12887
-0.157479
-0.255072
-0.269613
-1.10598
0.924839
-0.926291
1.21264
4.69119
0.200246
-0.958458
0.468182
-0.736712
-0.736933
-0.855704
-0.793973
-0.995709
-2.18937
-1.29068
-0.832534
-0.854134
-0.2243
1.93854
4.23013
0.678858
-2.50201
-8.82432
-0.576652
1.63722
3.77797
1.01857
-0.255172
-2.30377
0.419166
-0.00472883
4.48828
-0.0235832
0.00106868
-0.873795
-0.487669
0.0980418
0.885988
0.227241
1.92566
-7.33552
1.9918
0.185619
1.76374
0.121836
0.498499
1.71066
-1.19773
-2.09788
3.03212
0.945094
-0.412416
-0.326892
0.506701
-1.61564
-1.61061
-1.38771
3.75418
4.68303
-2.55862
0.111593
0.803636
-1.27394
2.91371
2.2808
-1.34576
0.496691
-2.91879
-0.543493
1.7374
-1.31732
-1.22373
2.32938
-1.49529
-0.738875
12.7196
-7.70783
-5.32515
-0.141061
1.1771
-0.751349
1.65797
-2.42811
-0.57735
8.20757
-2.74757
-3.55893
1.95032
-1.16859
-0.936309
-0.519459
0.555031
-0.392227
-0.867511
-3.09981
-0.491494
-0.14211
-0.341067
-0.411306
3.48855
-1.76656
-0.652424
8.85651
-7.86444
-1.357
-0.262306
-0.202311
1.01669
-3.58264
3.70445
0.150454
4.31781
-4.6715
0.114764
-0.480268
0.791608
-0.35095
-0.527485
-0.305062
-0.379936
3.3795
4.25889
-6.12137
-0.476667
0.286827
-1.14182
-0.0661922
-0.135135
-0.339411
1.12725
0.68254
-0.00844522
0.0509872
0.592885
-0.265894
-3.59031
-8.74867
-1.59905
-0.94481
1.14869
0.882291
3.98067
7.66199
1.19318
-1.16334
-3.40701
1.55607
2.81833
-0.430831
2.63077
1.09695
-2.86184
-1.01447
0.217477
0.106661
-0.532737
0.430343
4.75087
0.492648
-0.670786
-0.287705
-0.0453547
-0.265825
0.123649
-0.066792
-1.31011
-3.44913
0.117298
0.0140634
0.629655
-0.088097
-0.526364
3.92562
-0.798887
0.833258
3.33084
-0.653817
-1.00119
-2.19144
-1.88899
-0.316885
-2.06825
1.88748
-0.11132
-3.63346
-0.433632
1.54189
0.5507
1.071
-1.49645
1.44858
0.472258
-4.55991
1.42725
0.906707
-0.0294522
0.737715
-0.0184641
-0.109186
-2.99232
0.351468
0.112095
6.03507
-0.26381
-0.183033
-0.430211
-0.257983
3.35508
-2.71236
0.222298
-0.864985
-0.190991
0.93681
-0.405264
1.27926
0.0376182
-1.06754
-5.98326
-0.648647
1.08456
-1.99005
4.16453
0.841278
3.27956
-0.237271
0.29397
2.32477
-2.31766
1.54201
-3.41893
1.77989
0.239388
-0.442154
0.28311
-0.0110594
1.4937
0.629932
0.0574557
-5.93106
0.183013
0.959601
2.2382
0.305915
-0.406446
-2.55105
-0.0127212
-1.26571
-3.0029
0.508772
1.83471
4.35728
1.00214
3.79581
3.85141
-3.27461
2.21018
3.90116
-1.20091
-3.32117
-1.96812
-0.350624
0.240564
-0.578514
0.0335916
-0.677528
7.79121
-0.558386
0.14978
-2.22165
0.240033
-1.76325
-1.60002
4.08167
-1.54816
-1.53394
3.91235
0.00953302
-1.40522
0.506526
-1.77661
2.82869
1.6838
0.538261
1.48523
0.737853
0.0968371
0.234177
-1.668
-0.12529
-1.47866
0.25264
-1.18989
6.02251
-1.78077
0.0469804
-0.959908
-0.388128
-0.129847
-3.2382
-0.61469
-2.88465
-1.11846
2.66779
0.451274
2.95356
1.94168
0.413212
2.39206
0.46053
-1.30103
-4.44964
-0.844259
0.716815
2.30777
0.276484
-0.837789
1.24136
-0.443644
-1.78886
3.71609
-0.996869
-0.388181
0.683471
-0.334345
0.924234
-1.34097
0.250775
5.70436
-5.50343
-0.0789289
0.545976
-1.1729
0.541362
-3.42828
-8.48328
-1.72998
-1.38727
3.35823
-0.00366536
4.31535
6.31075
1.15927
0.542475
3.95264
0.655271
-0.680175
-4.43051
-0.79791
-0.104713
0.800212
-0.0567352
-0.107181
0.535982
-0.0272411
0.812392
4.33748
0.111539
-0.0591138
0.0560012
-0.364795
-2.535
1.64813
-0.0297422
1.12402
4.84031
-1.48613
0.635307
-1.75535
-0.0485027
0.353078
1.35352
0.141613
0.327311
-4.20021
0.682852
0.376759
0.637309
0.30543
-0.343873
-1.26245
-0.120567
1.29611
4.02659
0.347001
-0.734344
-2.47281
-0.486285
1.21986
-2.89216
0.241041
-1.79663
4.52685
-0.258483
0.389718
-0.77934
-0.524659
2.28562
-1.69913
0.29511
-1.45105
0.112646
0.306412
-0.686631
1.06791
-0.114699
0.711599
1.41731
-0.0198969
1.78913
-8.55761
1.69106
-0.220009
1.6886
0.853889
-1.31176
1.12031
0.465899
-3.67185
3.51654
0.113363
-0.824899
0.291037
0.23428
0.492944
-0.710899
0.23807
5.38944
-3.22935
0.121818
-1.17978
-0.191107
0.33133
-0.437551
-0.522919
-0.204228
0.0777983
5.35473
0.247976
-0.455386
-0.36968
-0.674127
1.72808
-0.190642
0.0372729
1.8275
-4.97417
1.68643
0.0541587
-0.0143907
0.979941
-0.471508
0.535122
-0.837692
0.288184
11.9643
-1.27262
-1.27453
-1.35064
-0.780297
0.944067
1.34474
0.671749
0.690106
0.518603
0.930574
0.604353
0.357254
0.279315
-1.22974
-1.626
-0.751903
-1.21541
-1.41941
-1.04932
1.15458
5.26944
0.983864
-0.537218
7.05467
6.37389
-3.71658
0.201176
0.615647
-2.39798
-5.10483
-2.51184
0.177582
-0.774002
0.00349275
-2.69313
6.02898
-1.13395
0.310742
-1.03024
-0.180087
-0.791623
0.966702
0.107485
0.775463
-3.637
0.689049
0.407961
0.240668
-0.116532
-0.0265611
-3.21655
-0.129961
0.532211
4.22089
-0.0236873
-0.69441
-0.372214
0.0197154
0.359842
-4.88358
0.565876
0.283974
4.39838
-0.642887
-0.522216
0.543635
-0.33196
1.47235
-3.78994
0.257165
0.804781
1.23476
-0.735029
-2.07523
2.679
-0.789964
-1.43813
-2.46911
-0.0633443
2.37978
4.32574
0.596439
-0.688711
-1.75458
-0.218571
0.730884
0.586519
0.122688
0.347376
0.527203
0.141528
0.803068
0.96809
0.817491
0.179513
-0.473743
-0.00623314
-0.338396
-3.05674
-0.0512627
-0.231138
-0.412327
-0.324874
2.98157
-0.0757963
0.0108452
-1.94922
-1.93706
-0.167264
-1.07069
1.931
0.541292
-0.351961
-1.04989
-0.283961
-1.45616
9.17547
-2.19673
0.0289684
-2.39992
0.294626
1.40097
-1.82576
-0.375284
0.0846601
4.09997
-0.689538
-1.73766
0.48716
0.0990594
0.578614
-0.176128
0.276528
-2.98657
-4.21535
1.79136
1.90398
0.0018007
0.661636
0.861936
3.9923
0.611048
-1.2177
-3.49698
-0.917768
-0.334302
0.885839
-0.245358
-0.118766
0.530842
0.52746
0.434482
-5.76804
0.942977
0.911056
0.643804
0.0301156
-0.639337
0.0355014
0.269371
0.151411
4.56528
-0.239132
0.100971
-0.374047
-0.633832
2.43579
-2.90306
0.497154
-3.88304
0.840817
0.156093
0.408868
1.55437
-0.665885
-0.0610958
-1.72556
0.0266612
0.0646919
-1.75108
0.215851
-0.287997
-0.219594
0.0678947
-0.159221
0.380968
-0.0102374
4.2872
-5.29182
0.778197
-0.873719
2.05017
-0.397179
-0.0921666
1.07556
0.65369
4.48395
-10.7648
5.15705
0.361604
2.07195
-0.430682
0.682808
0.57359
0.401284
0.125881
-6.33468
0.723977
0.884617
0.898883
0.930755
0.578183
0.106734
-0.0271973
0.0278725
4.43406
-0.473083
-0.189903
-0.266029
0.225835
-0.206545
0.331516
-0.3851
-0.310056
6.4728
-1.03028
-0.445968
-0.343041
-0.402649
0.0131053
-0.918818
0.186858
-0.988991
4.23651
-1.0781
-0.00247893
-0.782269
-0.132171
-0.634273
-0.120505
-0.25374
-0.090197
5.11736
0.000323237
-0.284549
-0.12083
-0.823783
0.478828
2.07332
0.165413
-1.8722
-4.83766
-1.18677
0.67026
2.41542
0.213295
0.0252082
-0.470956
-0.193614
-0.121015
-3.4442
0.437368
-0.067132
0.0157302
-0.0158225
-0.0549202
3.11219
-1.58024
-4.13823
-0.0903834
3.83263
1.80465
-2.55828
-0.422613
-0.758228
-0.183762
-0.752348
-1.81783
6.72992
-0.878709
0.0596776
-1.0343
-0.503595
0.79801
-0.365507
-0.686247
-5.36092
2.96166
1.31279
0.794554
-0.516583
-0.372413
-2.19055
-9.20033
-0.118711
1.88651
6.25795
0.112382
-0.154951
2.38201
0.125845
0.339668
0.52738
-0.165413
0.0634453
2.53264
-0.141087
-0.284173
-0.312338
-0.427581
1.39553
-1.57501
-0.543403
-3.1355
5.33924
-1.20608
0.640555
-3.16846
1.19487
-0.234452
0.986627
0.0143631
-0.00648536
3.94846
0.435555
0.0321837
0.312921
-0.342851
0.17672
0.381824
0.391516
0.18425
-5.21202
0.804583
0.358262
1.15374
0.353147
0.127907
0.583351
-1.35774
0.426104
4.06619
0.670799
-1.16169
0.0232286
-0.223568
-0.641112
0.189217
-1.05879
-1.71195
-2.29582
-1.05727
-0.899529
0.415223
-0.195072
1.07673
-6.66977
-3.69313
2.77595
-2.5181
-0.556973
1.80667
3.92886
3.74413
0.894577
1.21711
0.512741
0.0185004
-4.94936
0.152194
0.742825
1.2774
0.637711
-0.60374
3.31135
-0.217447
0.520643
-4.49635
0.258107
0.0922269
1.0003
-0.100359
0.178947
-0.279712
0.245717
-1.75143
-3.07713
0.405321
0.237658
0.322252
0.213681
-1.24071
-2.46865
-0.85417
0.530033
3.42408
0.262315
-0.735676
-0.106942
-0.490811
-0.13651
-1.64574
0.122664
-0.950629
4.89542
-1.52401
0.122087
-0.785063
-0.0261886
1.61541
-1.81948
0.287968
4.74134
-5.86426
1.0198
1.02581
-1.10987
0.154934
