0.005842791
0.033314988
0.0034890287
-0.009027104
-0.029150741
-0.01725616
0.0075055086
-0.014598935
-0.024668798
-0.00096384506
0.05288151
-0.007528893
0.019962337
-0.058648005
0.0039677722
0.0165031
-0.049813364
0.017485604
0.0007991552
0.043653253
0.00905518
-0.0026234218
0.01552994
0.0308542
0.03065673
-0.02622814
-0.022061013
-0.018298915
-0.0111553725
-0.010023209
-0.027979644
0.00017686425
-0.0742904
0.026321368
-0.008523018
-0.008841363
0.024044162
0.038311206
0.047080655
-0.027989278
0.010750158
-0.03805395
-0.012733368
-0.04528933
-0.02002203
0.0284391
-0.0029729628
0.0030873553
-0.008708126
0.0077639925
0.014573101
-0.01999097
-0.022473222
0.093908474
0.04655147
-0.016767016
-0.038259108
-0.079893604
0.032484505
-6.589489e-05
0.010066905
0.002286192
-0.017532721
0.09843424
-0.0009041684
-0.045572337
0.038267165
0.038877703
-0.00789602
0.035423305
0.047069184
-0.006120334
-0.0014992497
0.0021164
0.0002702123
0.044256587
0.009737432
0.021031197
0.027425667
0.0016909218
-0.020673964
-0.01877357
0.03958678
0.07608922
-0.008830395
-0.021705212
-0.017533328
0.00091321615
-0.00978734
0.025567519
0.05072739
-0.0400628
-0.0068179374
-0.001003422
-0.020044778
-0.024587426
0.002215658
0.012829357
0.0068154577
-0.029761361
0.020689161
0.016041545
0.0024603591
0.02900892
0.024775652
0.05281956
-0.011051071
0.0076429117
0.013888953
0.013019208
-0.029764585
0.03944897
-0.020753626
-0.02067018
0.02712206
-0.020129342
0.050667703
0.0041347956
-0.014714566
-0.023594968
-0.012017427
0.0030803042
0.050712805
0.009570653
0.0019302856
-0.010297904
0.00025093034
-0.04816534
0.018591635
0.022291599
-0.033330284
-0.040603388
-0.0024896672
-0.034077764
-0.007632247
0.029082283
-0.020910887
0.01011371
0.011625572
0.04385077
-0.010671664
-0.029523887
0.007913421
-0.010884391
0.00096119556
0.029737137
0.032173887
0.020770315
-0.007932055
0.011608762
-0.053526927
0.004417964
-0.0104143405
-0.0036775712
0.04080896
0.035727356
-0.008858996
-0.044964317
0.039287638
0.026838882
0.032555517
0.03325524
0.0042979796
0.023667745
-0.04747371
-0.01782107
-0.009347394
-0.0074277245
-3.3539105e-05
0.015141196
-0.047639534
-0.039969947
0.019219264
0.023014074
-0.0004631399
-0.03355643
-0.01816753
0.013687852
-0.0192807
0.0101325475
-0.007338581
0.0040215086
0.00025482773
-0.043730885
-0.038008
0.010125557
-0.009730759
-0.023552202
-0.00062391104
-0.008837467
0.008313181
0.027183285
-0.0033672075
-0.021716338
-0.018084954
0.08703072
-0.026789423
0.032163016
-0.045175556
-0.009457644
0.052874956
0.0028437262
-0.007945437
0.010796823
-0.039948042
0.022650942
0.013227467
0.0914612
-0.02903692
0.053940665
0.0013508896
0.003407782
-0.031809226
0.025215328
0.048244715
0.014655197
0.024644276
-0.0464242
-0.0154409325
0.034883678
-0.003928161
0.0028344311
-0.016298763
-0.011737639
0.02928313
0.012415967
0.023934426
0.0059640636
-0.020538041
-0.035854056
-0.01821661
0.0053029377
0.0017194703
-0.019639743
-0.060511667
0.03211675
0.017756026
-0.005617741
-0.058817357
-0.027961375
0.020414244
-0.06588718
-0.03611325
-0.0021739525
0.017541116
0.02057873
-0.031419095
-0.051805835
-0.026044676
0.015713366
0.036705274
0.034066346
-0.0692937
-0.0026991372
0.015495188
-0.01324764
-0.01855763
0.030517736
0.01292841
0.007942294
-0.045801327
0.028436445
0.0011526403
0.054093853
0.038247395
0.016443616
-0.02707914
-0.016462449
0.039520264
0.015286274
-0.00016469618
0.028722636
-0.024469223
0.018026894
-0.013743732
0.026845258
-0.060504556
0.019124825
-0.08208008
-0.04577145
-0.038210206
0.0047371928
-0.00033752443
-0.03034554
-0.001064344
-0.025216574
0.033257153
-0.0058822893
-0.019289311
0.004844604
0.009285594
0.00017352504
0.031618554
-0.0012775469
-0.06344229
-0.029444477
0.028101478
-0.02940631
0.013816708
0.0017438149
0.027039925
-0.01179238
-0.04473855
-0.02393243
-0.0006167786
0.027558733
0.058599584
0.008372176
-0.01700092
0.03584205
-0.029307708
-0.048875343
-0.02788943
-0.00045767534
-0.019936873
0.0053424374
-0.0060816226
-0.059604786
0.017955283
0.0066994517
-0.019200468
0.004404043
0.0071197916
-0.051507372
-0.031030653
0.01553067
-0.026639191
-0.011919012
-0.00011244528
-0.025436234
0.03527398
-0.035910577
0.0016178084
-0.002001815
0.012028476
-0.017630903
-0.04722291
-0.0040201265
-0.01792836
-0.03450195
0.011193791
-0.017534833
-0.006022735
-0.021194734
-0.0034686264
-0.012585674
0.029217236
0.19358316
-0.0044403565
0.013783865
-0.0273139
-0.03888959
0.035321504
-0.006670985
-0.0076178173
0.008739114
0.03226434
-0.023531917
0.018231776
-0.024462782
-0.008266011
-0.014102501
0.036633205
-0.020368207
-0.012749176
0.017356075
0.010565034
-0.008553734
0.06433843
0.060965825
0.0019116225
0.07578613
0.01982115
-0.021849394
0.022118391
0.020218002
-0.011877365
-0.032199387
0.031553954
-0.0017495407
0.02537505
-0.042498868
-0.018773258
-0.011120005
0.011545735
0.003179281
-0.0037636084
-0.046771068
0.011550608
-0.022532621
-0.013848706
0.05776295
-0.03922454
0.006862186
-0.046198025
-0.014605322
0.010930393
-0.008497123
0.06868175
0.06565569
-0.021808788
-0.0018540925
-0.03859894
-0.000527509
-0.019708097
0.025894783
-0.03806059
-0.043518104
0.013567279
0.012847955
-0.008043607
0.014053163
-0.044029295
-0.06565515
-0.0013619974
0.03402712
0.016643642
-0.01638114
0.031649552
0.11584883
-0.046415146
0.06410333
-0.0415084
0.017853849
-0.0017925751
0.037499256
0.004429367
-0.045066442
-0.06193626
0.015848843
-0.053467218
-0.027468208
-0.090825014
-0.042162977
0.06092098
0.032791786
-0.032870084
-0.013820506
0.03606098
-0.0011670019
0.023884619
0.0067838947
0.033002194
0.009824589
-0.001704411
-0.009066203
0.04326904
-0.012649253
-0.018402303
0.023779811
0.034845732
-0.02368207
0.03472554
-0.011193988
-3.601628e-05
0.030307673
0.010863067
-0.03092954
-0.05758537
-0.011918388
-0.0018867506
-0.010648638
0.036342025
-0.03994129
-0.004959067
0.01741133
-0.017880442
-0.029380688
0.020968614
0.014547569
-0.020602822
-0.009828822
0.0040640086
0.029456738
0.085540056
-0.03130576
0.01240502
-0.007618332
0.005899066
0.0034091214
-0.069585435
0.05182315
-0.039250135
0.03807491
-0.012749815
0.008498643
-0.0573234
-0.020546736
-0.004553119
0.0101060085
0.024184674
0.026448322
0.01163253
0.015004844
-0.061931133
0.008857646
-0.043886162
0.011580119
0.012048075
0.0006762907
0.0011919446
-0.0074158655
0.0055026803
0.007395639
0.010661291
-0.0038396625
-0.056995854
0.010892361
0.04076119
0.0021575391
-0.015297308
0.022143645
-0.0061628204
0.021634243
-0.009538028
-0.030575266
0.01078091
-0.012962099
-0.007967078
-0.00893631
0.03340322
0.05910098
0.03451621
0.00533413
0.027175501
-0.0062609403
-0.0557969
-0.022680791
-0.025524156
0.040642127
-0.0523058
0.00900424
0.0024618988
-0.028950008
0.0369749
0.028861158
0.03322807
0.033035517
0.017181681
-0.032849323
0.039937057
-0.04662432
0.01455779
-0.009361202
0.023250649
-0.022902027
-0.015409624
0.025089068
-0.050608926
0.034351718
-0.018479357
-0.041533597
-0.028372845
0.004853299
0.06863613
-0.030600373
0.038347594
-0.00870538
-0.124199145
-0.02441773
0.021331698
0.00016480367
0.014090248
-0.08284813
-0.0064281155
-0.006270969
0.055340927
-0.034118727
-0.0029214763
-0.041987263
0.01526142
-0.062521234
0.0056158975
0.0051287934
-0.025722131
-0.059036326
0.0054451376
-0.04394563
-0.031271398
0.057653405
0.07176864
-0.15279496
0.013206628
-0.0057777297
-0.0001592057
-0.031892776
0.020158248
-0.019045297
0.03638978
0.03343436
0.0105602145
0.025974153
0.017973695
0.015464946
-0.036628198
0.048421156
-0.00019117015
0.005591154
-0.008937008
-0.01473304
0.0022801312
-0.031636905
-0.0010723507
-0.027202101
0.0294789
0.009256782
0.021646341
0.030219363
-0.015769439
0.024419084
-0.024300408
-0.019277925
0.026689531
0.03722912
0.036842152
0.022633515
-0.040966447
-0.06091566
-0.010447572
0.014042689
0.03300328
0.00067968713
-0.021553405
0.018812796
0.027412461
0.020280993
-0.009993628
-0.039563067
0.0535678
-0.020329282
-0.02277067
0.0201986
0.006554544
-0.018523706
0.0053790817
0.0001936493
0.032090608
0.021423303
0.022912024
-0.0076500666
-0.021613196
-0.023328632
-0.03161419
0.03366667
-0.057267163
-0.010625663
-0.0050805956
0.0025379926
0.04924704
-0.030618489
-0.028524315
0.016870573
0.0073530236
0.023899477
-0.03953656
-0.021503638
0.017680377
-0.01666434
-0.025092268
-0.014828197
0.0011117746
0.010362023
0.032093704
-0.0025696827
0.028411103
0.025173638
-0.047910478
-0.020462792
-0.046966087
0.009171055
0.07440226
0.043383718
-0.015772127
0.041266974
0.08937033
-0.015972728
0.0022593422
-0.052522928
-0.018577406
0.0010761429
-0.019927114
-0.01285451
-0.031157423
-0.0074898447
0.023159565
-0.08454335
0.012541834
-0.046999697
0.013845861
0.015867313
-0.0037626377
0.018690709
-0.0044646277
0.022766499
0.031893767
-0.02367739
-0.016299557
0.0694703
0.0484091
0.034357686
0.0010358887
0.013585783
-0.025311472
0.018494397
0.04042974
-0.0054932367
-0.004256929
-0.06715208
0.032373182
-0.003226948
0.016423348
-0.027834075
-0.044421252
-0.12678643
0.027786843
-0.02587631
-0.021189617
-0.0041443664
-0.0155422455
-0.00639215
-0.03577356
0.07169944
0.011991193
0.037042852
-0.0028078468
0.015363781
-0.002913486
-0.03198026
-0.00011405164
-0.03319512
-0.0041202065
-0.024111105
0.03571385
-0.005328101
-0.06115769
-0.02734738
0.018552834
-0.018737767
0.033596896
-0.010356871
0.016271038
-0.0044157607
-0.03597816
-0.034458082
-0.005384894
0.029572124
-0.08508122
-0.09324024
-0.03270568
-0.026761286
0.033182435
-0.011537073
0.009194755
0.0026109791
-0.03596014
-0.01492895
0.0085001
-0.02478374
-0.022561876
-0.022558881
-0.013482501
0.011925933
-0.05282154
0.031803437
-0.018188003
-0.013080773
0.009523098
0.0060656043
0.003133806
0.023297554
0.011190895
0.026758099
0.014949394
-0.022734225
0.054853007
-0.038926866
0.026597511
-0.016379723
0.0075854613
-0.00061697094
-0.007123074
-0.06392666
-0.018919008
-0.079837285
-0.07197581
-0.033794384
-0.01627965
0.027622396
0.019065278
-0.027090367
0.04370397
0.026922137
0.003067245
-0.026236221
0.015932368
0.00044569868
0.0135077005
-0.017828515
-0.03615443
0.078929275
-0.010130798
0.007310367
-0.022911105
-0.04446349
-0.030827567
-0.023187585
0.10609604
0.0018797576
0.041271385
0.041321542
-0.00955481
0.033193983
-0.006928773
0.015042912
-0.052523542
-0.046794947
0.016890295
-0.018533858
0.016282042
0.015159861
-0.071998104
0.0016855029
0.016044475
-0.05117847
-0.015988337
0.047427017
0.033172272
0.12322383
0.00021595134
0.0017529769
0.010315571
0.017236682
-0.008157262
-0.00028946289
0.024905743
-0.080681555
-0.077528775
0.042296
0.011528177
0.00692069
0.00075578276
0.009489907
0.0052000103
0.025160426
0.013823915
0.033827934
0.018105697
0.034002867
-0.08713882
0.047575105
0.0042699818
0.024924701
-0.016042192
-0.0067682196
-0.053659067
-0.0051381136
-0.008930045
-0.056545965
-0.008221716
-0.08947583
0.0021840287
-0.0009343695
0.022367371
-0.006133069
-0.030805087
0.0519678
-0.038054064
-0.020624204
-0.00029752767
0.0029670002
0.014109731
-0.05650174
-0.019372512
-0.014251851
-0.039745484
0.059861545
-0.005012223
-0.06766777
-0.014702786
-0.05276994
0.002007275
-0.0049017025
0.011279738
0.015605181
0.007729749
0.0011100534
-0.016147664
-0.041675936
0.026712582
-0.037914567
-0.06115442
-0.014216328
-0.013813069
0.022367114
-0.067876056
0.029431356
0.011278065
-0.019284151
0.022737907
0.007125278
0.020621791
-0.001716165
0.013754586
0.01323474
-0.009288382
0.01193246
0.022690712
0.019990377
-0.022296745
-0.00090123614
0.10248499
0.017926745
-0.056870516
-0.017962355
-0.017711377
0.023844488
-0.0073274733
0.01375689
-0.13773483
-0.015682464
0.16002358
0.010133323
-0.008363049
-0.008840008
-0.01934456
0.015927987
0.005909356
-0.007962868
-0.03532888
-0.0558408
0.0056555937
0.08839854
-0.037277207
-0.14448343
-0.006391224
-0.03410056
0.02015656
0.0127014965
-0.010870406
-0.023905654
0.024690844
-0.017322527
-0.014293659
0.0392173
-0.05610569
-0.06707798
0.05582553
-0.002352039
0.017893428
0.023551533
0.0964752
-0.035206106
-0.03954612
-0.019526092
0.01640628
0.018475344
-0.029518394
-0.013196238
0.0007318048
0.013635344
0.034044698
0.004379068
0.015311347
0.05313824
0.028771276
0.0074027386
-0.00194827
0.05613877
-0.0032678097
0.02746915
-0.03494851
0.0148254
-0.026591662
0.021192977
-0.014267242
0.025658265
0.026664369
0.017716438
-0.01494667
-0.027881498
-0.0125041045
-0.034292717
-0.05720458
0.015565331
0.04452331
0.06534223
-0.0853607
0.00075902324
-0.005510217
0.022398947
4.8605423e-05
0.021560268
0.0068064234
0.027280372
0.0033230782
0.011062469
-0.047421534
0.028442413
0.047621347
0.008384857
-0.03272422
0.018870035
-0.012057591
0.008402894
0.0006139202
-0.003811993
-0.0055673514
0.010114504
-0.0815353
0.051313307
0.009000085
-0.025361875
0.026793107
-0.034657575
0.016928576
0.008173375
-0.046321582
-0.046324663
-0.023230705
0.031702593
0.02092768
0.0024232457
-0.045815147
0.026315575
-0.0022358461
-0.0052133934
0.019265864
-0.038285352
0.014941343
-0.026811877
0.03948228
0.03200127
0.0022349127
-0.03560061
-0.032604255
-0.007284906
-0.010617199
-0.038323738
-0.0045685316
0.021461718
0.060134966
-0.02066035
-0.033068348
0.03593064
0.035160474
0.033487026
-0.023422657
-0.020590626
-0.048916858
-0.023440892
0.008969581
0.03194601
0.0033119263
0.001426133
0.044411696
-0.025839766
0.049285498
-0.011705729
0.031508304
-0.080009624
0.001008056
0.02781559
0.10107638
0.013248611
0.05587326
0.020661647
0.039116256
-0.0075596776
-0.06128437
-0.060240015
-0.0027770132
-0.031448133
-0.04151875
0.09558602
-0.029100241
0.017319253
0.0776618
-0.09823273
-0.022115633
-0.009863762
0.015611839
0.032506097
0.002515135
0.021390326
0.02652901
-0.05940548
-0.020306183
0.011938388
-0.027896523
-0.06649544
0.021089908
-0.005050122
0.05243005
-0.018880561
0.035297174
-0.019348087
0.05661167
-0.019707862
0.023003154
-0.019031003
-0.010327971
0.0138607975
-0.022747641
-0.01894526
-0.004557202
0.019590247
-0.0057159774
0.018425234
0.10566749
-0.042531487
0.025893984
-0.0080178855
-0.025390862
0.020081863
-0.016526815
-0.018236145
0.0206158
-0.023029312
-0.055976484
0.03654885
-0.017523825
0.034619827
-0.03237916
-0.014004885
-0.13494821
0.02747409
0.071936965
0.026569411
0.030675165
-0.052631848
0.0017938802
-0.024749257
0.032925718
-0.0027443804
-0.026445117
-0.018148057
-0.077065006
0.017767511
0.014160241
-0.019528786
0.18213882
0.06809695
-0.055469092
-0.0146320285
-0.025358664
-0.001104067
0.06452195
0.05301929
-0.011730915
-0.0016386596
0.020494055
0.030964661
-0.07347758
0.020595271
-0.0099590765
-0.017554052
-0.033343863
-0.011916815
-0.023913274
0.03261954
-0.024019232
-0.025379496
-0.0077297105
-0.009996777
0.0005149565
0.006702172
0.029172655
-0.0036751572
-0.080035955
-0.0067805555
0.019635972
-0.01150909
-0.0072471765
-0.033512685
0.09225482
0.010058728
-0.044172764
-0.005971279
0.061861057
-0.056217432
-0.023475373
-0.0014384357
-0.04559849
-0.035703965
-0.0015967403
0.0015676792
0.01005582
0.026630562
-0.037717722
-0.021918105
0.0011907425
0.07119205
-0.033328876
0.0045401347
-0.0061326344
0.05663859
-0.034393046
0.09686415
0.010458037
0.018338261
-0.0041564945
-0.054520458
-0.008358981
0.039840933
-0.014030597
-0.0213659
0.0058996817
-0.012703541
0.011308853
0.012355767
7.429048e-05
0.037173405
-0.0306729
0.04934652
-0.008770138
0.028665066
-0.005890173
-0.010589147
0.017498245
-0.06333644
-0.107468285
0.09739505
-0.028353369
-0.00963186
-0.07754475
-0.008104975
0.03631652
-0.0036604307
-0.0148397265
0.02108018
0.006915101
-0.019425312
-0.062079456
-0.05216095
-0.045368932
0.024470747
-0.050036468
-0.055637438
0.06488373
0.033759467
0.037067574
0.020594683
0.018155554
-0.0009857477
0.030013673
-0.02188603
-0.001667381
-0.006846094
-0.014743021
-0.08045267
0.07370089
-0.034893155
-0.02741863
-0.05956338
0.03666037
-0.00060818694
-0.07288827
-0.0016166696
3.246673e-05
-0.077151515
-0.018374939
0.011510906
-0.0060265716
0.004780688
-0.02922533
0.02301199
0.029358774
-0.0006986031
-0.04887733
-0.046156462
-0.13070102
0.00023408495
0.042908676
0.03669513
-0.004009498
0.07176986
-0.01078435
0.030779183
-0.03342225
-0.024206074
-0.0053093587
-0.01781588
-0.015415257
-0.021820446
-0.02504447
0.054324597
0.037684657
0.018308936
-0.06833615
-0.029787421
0.04351044
0.034961157
-0.048769675
0.0010547824
0.03709579
0.009141341
0.014706594
-0.0002844521
-0.06282851
-0.01777975
0.0093443785
0.0069084535
-0.0127418265
-0.016496629
0.0077989465
-0.008540041
0.011786283
-0.04660752
-0.025630644
0.026123093
-0.013003015
0.007758423
0.030042566
-0.0026318813
-0.012997566
0.0065606567
-0.06522256
0.019057067
-0.041573383
-0.033306014
0.015046073
-0.00028106113
-0.003927743
0.037228335
0.016416382
0.006326935
-0.034898065
0.011562201
0.027007315
-0.0089108115
-0.012077791
0.013179613
-0.0073557743
0.031690676
-0.030729787
0.04721027
0.007256667
-0.08443205
-0.043255612
-0.010488473
0.0289119
-0.052378193
-0.00010194206
-0.015803581
0.0014500695
0.0037521732
-0.026263403
-0.033340402
-0.027021917
-0.01642483
-0.04090422
0.030978903
-0.0131532485
0.014921242
0.024435662
0.015324892
-0.05730637
-0.012591701
0.04360385
-0.025155758
-0.0050213775
0.043663185
-0.03382905
0.025870431
0.013065152
0.0022475622
-0.009507497
0.006006341
0.037982255
0.0037991093
0.06511213
-0.010587814
-0.059217736
-0.0098645305
0.028879227
0.02049709
-0.0065918295
0.060905393
0.010067636
0.021603221
-0.013259414
0.02315424
-0.009526837
0.067500815
0.05911484
-0.00014853521
-0.01982192
-0.039910816
-0.029809598
-0.07233643
-0.014517694
0.02079069
-0.017006489
-0.014106755
0.04681111
-0.027113102
-0.0053523616
0.012959026
0.016854582
0.00093814544
-0.010160493
0.047420494
-0.023631759
0.024644936
-0.016757557
0.060645036
0.016992785
0.02624265
0.010221282
-0.019498525
-0.019080982
-0.024980009
-0.01127593
0.040967193
0.008223738
-0.04375468
0.012375575
0.021844901
0.015910478
-0.0016336191
-0.03158415
0.027042262
-0.009262543
-0.04697846
-0.060817394
0.001118421
-0.045822237
-0.021549972
0.013048247
-0.011663667
-0.034880526
-0.082827546
0.0081377495
-0.07562978
-0.0029671167
-0.030317748
-0.006340288
-0.045950916
0.040185787
-0.024969086
0.05796225
0.010597994
0.029478846
-0.05774797
-0.007879675
-0.020278202
0.03316624
-0.030759055
0.0022465314
0.008756094
-0.031598996
-0.025491768
0.09805515
-0.01226523
-0.035710357
-0.028571425
-0.061541725
0.02774021
-0.0047314186
0.013802753
0.039372403
-0.027117103
-0.03158078
0.056441355
0.020447826
0.023941537
-0.036127202
-0.0012792544
0.022186683
0.011663069
0.014167853
-0.0008905379
0.0049397475
0.003002803
-0.02931888
0.043801688
-0.03811075
-0.022814471
-0.0060269022
0.027113082
-0.017367316
0.010750914
-0.0004614989
-0.00054761895
0.03329893
-0.056061767
-0.023205826
-0.0953172
0.019697258
-0.041462235
-0.15650345
0.021447383
-0.02411291
0.0143896025
0.0007417961
-0.0012994106
-0.0042994237
-0.016553901
0.006002304
0.006880199
0.0032364472
-0.05519792
0.06887481
-0.03342487
-0.085047066
0.0031886667
-0.027405376
-0.044980053
0.0039521554
0.0064500454
0.013921681
-0.017694825
0.045633227
-0.019641088
-0.00827277
0.041159224
0.01976356
0.024771616
-0.014948495
0.07749673
-0.005631153
0.0075714802
-0.005825696
0.045921672
-0.0052451454
0.0016335426
0.067932345
0.012336691
-0.024303103
-0.043601938
0.03703751
-0.021447683
-0.031062422
-0.042781364
0.006316992
0.020594504
-0.0031778726
0.024014698
-0.011500094
0.17967713
-0.0152351335
0.0039261067
-0.018725941
0.01827879
0.009894272
-0.09495708
0.0022131307
-0.061861828
0.00091844815
0.03631236
0.09740209
-0.008694244
-0.02728222
0.021639278
0.0049982825
0.021760702
-0.020280337
-0.03515861
0.011417254
0.07586557
0.05221265
-0.008940596
0.0065132855
-0.012298089
-0.005137846
-0.014382492
0.003796124
-0.052798666
0.0057645584
-0.035975922
0.016755026
-0.024916543
-0.026291454
-0.0074471086
-0.020771021
0.033136405
-0.00012841058
-0.03525382
0.050136596
0.021231685
-0.0015134304
0.0121492315
-0.019366896
-0.0073181456
-0.00069842004
0.010254072
0.017929228
0.047867108
0.009744507
-0.021334153
0.022261146
-0.017297097
-0.013661708
0.014406885
0.010047505
-0.02310413
-0.030873476
-0.0019285578
0.06716289
0.0043590977
0.010526484
-0.0021412983
0.0068036853
0.0167313
0.0026576957
-0.07774607
0.02191136
0.013000535
0.01204596
0.08484531
0.03225151
-0.012797233
-0.0041396064
-0.0066892197
0.03951697
0.0046905973
-0.004247332
-0.014239899
-0.008883555
0.014495711
0.0016161418
-0.002385006
-0.031518802
0.023312295
0.014383553
0.025490519
-0.011028942
0.025192
-0.028670482
0.007647934
-0.023775194
-0.0133629935
-0.041845
-0.010510854
0.024282183
0.0042859456
0.0013704201
0.054659195
-0.015094541
-0.0355845
-0.007243186
-0.037183285
-0.0028806555
0.009131703
0.008623459
0.0066974163
-0.018277282
-0.03902714
0.029715488
-0.027824616
-0.020862877
0.040435158
-0.01946106
0.022948708
-0.012859088
-0.02320979
-0.0009156879
-0.0014918165
0.03719916
-0.041472074
0.030747807
-0.02280077
-0.019172713
-0.012631419
-0.013102905
-0.00048477817
0.24510568
0.05052502
-0.006836326
-0.028992653
-0.009214954
-0.05263993
-0.027474796
0.0058936537
-0.23273775
0.0043982505
-0.00990213
-0.04551416
-0.032248367
-0.029961085
0.0047432045
-0.05227139
0.0023282396
-0.009909519
0.031630334
-0.035791464
-0.030710597
0.019656388
0.021027574
-0.03312412
-0.034692712
-0.029164666
-0.008819912
-0.003938288
0.009092665
-0.0052267276
0.026893802
-0.016848026
0.0132654635
0.017346634
-0.016465316
0.0012819864
-0.022938238
0.0003100113
-0.030545188
-0.068735965
0.038140707
-0.00083117146
-0.0069362037
0.008122514
0.01095942
-0.029729752
-0.035517994
0.010345998
-0.020861438
0.016286124
-0.003906311
0.009418034
-0.0039999895
-0.038453553
-0.025837831
0.023757858
-0.014814032
-0.0036905776
-0.0020985445
-0.07558244
-0.0062745325
0.054709855
-0.025621053
-0.047389794
0.01666297
-0.013802835
0.0037063777
0.0039075026
-0.0077883964
0.0029878425
0.010335425
-0.03709838
0.017721616
0.012170053
0.04804732
-0.018910669
-0.047634922
0.01190938
0.03830104
0.027582347
0.02094163
0.083618015
0.029444637
0.008556653
0.005111236
-0.018870356
-0.017266601
-0.01894638
-0.0072826934
0.037458085
0.051629256
-0.017561259
-0.010033285
-0.0071062213
-0.009838053
0.028050195
-0.11973118
-0.052611075
-0.012636095
-2.1475245e-05
0.016438955
-0.058574315
-0.015082634
-0.0050719385
-0.0034144756
-0.009281648
-0.014304508
0.016339425
-0.0069541647
-0.0062022973
-0.0035379876
0.0598079
0.033912323
-0.007045768
-0.0022682776
0.00023856599
-0.02650465
-0.015082962
0.00482842
0.03833092
0.03237409
0.0004031446
0.0030440998
-0.010804528
-0.01770635
-0.03763421
0.01409281
0.023856804
-0.024702178
0.04243282
-0.013428421
0.03299173
-0.02659283
-0.035924368
-0.0028966346
0.013421297
-0.00832086
-0.11598714
0.013743884
0.0031059908
-0.029772496
-0.014619564
0.0033760695
-0.06567305
-0.015532304
-0.017103236
0.015647756
-0.0019274805
-0.002098853
-0.019354377
0.014927024
0.010661586
-0.06223908
0.004365632
-0.015205191
0.003988398
-0.015125583
0.04672623
-0.021193847
-0.02954457
0.03924328
-0.020193072
-0.010084953
0.07195216
9.1273374e-05
-0.006829904
0.00867102
0.014858102
-0.045130167
0.015155562
0.005061459
-0.034503013
-0.008010105
0.004984627
0.006882157
-0.036298655
0.0050493237
-0.07166198
-0.06118085
-0.0054229302
-0.015548307
-0.0027862412
-0.053901196
0.007307747
0.0423802
-0.021092875
0.0015305267
0.009388079
0.011654263
-0.026001722
-0.259442
-0.007101614
0.03265034
-0.004189024
-0.002747239
-0.02700229
-0.009358978
-0.030740961
-0.011680383
-0.013957791
0.032021288
0.0066033704
-0.003594526
-0.0037094357
0.010824884
-0.015361118
0.006364877
0.027054928
-0.017784206
-0.00878329
0.002241811
0.016895892
-0.24376349
0.010103912
-0.01729477
-0.04753768
0.03355752
0.0056593083
-0.018670246
0.015225205
-0.005397401
-0.058762327
-0.03036807
-0.05631266
0.03066416
0.018206619
-0.021283409
0.056845035
-0.0054373937
0.0006893662
0.015696296
0.0069325576
-0.034214873
0.0090657445
0.056617815
0.006300069
0.01172229
-0.046072688
-0.018861866
0.021309536
-0.018104348
0.03357539
0.008868225
-0.0106878895
0.11919658
-0.013240489
-0.026828744
0.035849463
-0.017709821
-0.01052938
0.022513354
0.017764058
-0.052048963
0.005969058
-0.004337103
-0.015608738
0.023564491
0.03046425
-0.10122493
-0.0034674567
-0.009163706
-0.04471382
-0.10997336
-0.011993379
-0.0106123015
0.0013248565
0.03211524
0.19418813
-0.009164329
-0.04397737
0.015975302
-0.037673846
0.0029763374
-0.02125346
-0.01503685
-0.015291119
-0.0030836114
-0.019578
0.0161102
-0.0014886741
-0.030983707
-0.01783572
0.004466784
-0.015014161
0.018668594
0.03097762
-0.062561356
0.05071916
0.044649344
0.0016004988
0.027112182
-0.00043939674
0.03928103
-0.019206075
-0.01075697
-0.026526932
0.0112081645
0.008814855
0.02728176
-0.044496804
0.003749452
-0.008531233
0.014179398
0.005803045
0.016687576
0.09482427
0.0017131268
0.14384665
-0.013053811
0.01976791
-0.010273935
-0.023351643
0.016136462
0.0011642693
0.0038358425
0.007824448
0.029389797
0.11811669
-0.010357186
-0.0046154447
0.03332509
-0.007713886
-0.032802023
-0.047391504
-0.024669385
-0.018375156
0.01597939
0.03334918
0.017378222
0.01548531
0.047975793
-0.007728729
-0.035510566
-0.047330905
-0.0114558665
0.024088565
-0.036319546
-0.02272712
-0.02015932
-0.0010192454
-0.034105916
0.0040153125
0.010996253
0.03330616
0.003139915
0.07077488
0.0065719006
-0.012413983
0.0208603
-0.005156146
0.008171112
0.012772213
-0.030772423
0.027746819
0.044229653
-0.026540434
0.021995904
-0.009480016
-0.043139845
-0.053857047
0.010356928
-0.012448496
-0.0103189405
-0.014660367
0.0042617274
0.023526836
-0.06912776
0.042805783
-0.009650683
0.021308906
-0.04619504
0.0044480413
-0.021210834
-0.01881264
-0.02932908
0.007840612
0.035538536
0.024033252
-0.027791675
-0.031449523
0.0005452847
0.005314054
-0.02561488
-0.01149924
-0.059266508
0.03507711
0.008153571
-0.03306038
0.015242025
-0.011293409
-0.00023699076
-0.07790743
-0.008720627
-0.00052662863
-0.0043105027
-0.044567153
0.027053865
-0.034037657
0.055385847
-0.06272452
0.02735477
-0.017761292
0.028828388
0.030317124
0.011949175
-0.047502987
-0.071336284
-0.021464456
0.098773874
-0.05190957
-0.021915397
0.009651532
-0.0077102357
-0.027750695
-0.032749712
0.041381437
0.05103186
-0.034074385
0.016792873
-0.033994004
-0.02673679
0.019973647
-0.022220485
-0.024128253
0.11339754
-0.03234555
0.004610461
-0.057360638
0.03961336
0.0017757167
-0.0021874346
-0.040114373
0.030710995
-0.0031613053
-0.0038703862
-0.013271916
-0.026784964
-0.09538118
-0.041704293
0.007088369
0.027381368
0.023637516
0.007843276
0.014273455
-0.006154663
-0.026143294
-0.01955423
-0.0025535442
0.032151885
-0.02684237
-0.029592816
-0.040435698
0.00778329
0.077937946
0.015115853
-0.03429625
-0.0041038096
-0.006105602
-0.03453367
0.046843283
-0.02303078
-0.030080449
0.06839902
0.04849855
-0.039295655
0.029750561
0.045538068
0.013666352
0.036390588
-0.0048238095
0.00041083846
-0.018117305
-0.05379873
0.038491853
0.015797412
0.036325127
-0.06281488
-0.036717165
-0.011517741
0.01552017
-0.022162205
-0.041620515
-0.0261642
0.029794402
-0.03330027
0.052889194
0.005306749
-0.010223847
-0.012116373
0.017880995
-0.04418913
-0.0037234237
0.048798893
-0.0125573
0.080144666
0.0134958085
-0.06361745
0.0017873753
0.02391941
-0.06456178
-0.012099901
0.11856011
-0.0135764675
0.008526962
-0.02393222
-0.06640284
-0.0026408904
-0.011656162
0.009301429
0.030678296
0.016239477
-0.03636973
-0.002360793
-0.03589238
0.039529216
-0.020193536
-0.0026269136
-0.008707838
0.07288299
-0.061465524
-0.012857519
-0.0077609625
-0.02240986
-0.026980618
0.023095444
-0.005903358
0.01740391
0.009404295
0.033343866
0.05260778
0.006505907
0.02261926
0.07376944
-0.021332145
-0.05150808
-0.057039447
-0.0029055614
-0.03431161
-0.023616048
-0.017455675
0.0017851538
0.0033414145
-0.013833907
0.0026235979
0.041732896
-0.05743972
0.0037621744
-0.03605378
-0.029741103
0.036062058
0.020832121
0.0190629
-0.051568385
0.024246002
0.017423157
-0.0021913925
-0.020370284
0.014436835
-0.027621197
0.07572503
0.039202344
0.0076988502
-0.0030956047
-0.027998012
0.0015119882
0.026624912
0.035786763
-0.03864683
0.0074311723
0.053079735
5.9421065e-05
0.054365847
-0.030855145
-0.009397993
0.0028762
-0.048699524
-0.053291705
-0.0027804123
-0.04287242
0.017698826
0.0074769747
-0.054182548
-0.0145216165
0.005756975
-0.034956418
0.04607249
-0.06331027
-0.032661803
-0.05322779
0.011480605
-0.03604198
0.017157385
0.00906361
-0.01070101
-0.05182577
0.038011204
-0.07103363
0.09309776
-0.06011666
0.017836088
0.014723643
-0.102949426
-0.008688086
-0.018129267
0.022961171
-0.012905507
0.0030043453
-0.034937177
-0.010839577
0.06262259
-0.08652351
0.03935829
-0.074723534
-0.011971644
-0.011316204
-0.08554905
-0.054904412
0.00030154534
-0.012909979
0.00680216
0.0054918
0.030181382
-0.0031205406
-0.0063871387
-0.045728225
0.03207604
0.023281893
0.018495947
0.011315394
-0.009073636
0.0418031
0.01986316
0.023155553
0.030389735
0.014639236
-0.0036761062
0.025618384
0.00011854195
0.038395923
-0.004794172
-0.02967772
-0.030119676
-0.026749391
-0.070671454
-0.031127656
-0.0036361143
-0.05247092
-0.012700763
-0.056594145
-3.8889313e-05
-0.019685494
0.07914801
0.054610096
-0.0991924
0.054117568
-0.023685455
-0.017962977
-0.026783388
0.018608272
-0.025801193
0.02491648
0.08399374
0.09336285
-0.0161262
-0.011951237
-0.041107398
-0.05290965
0.052753214
-0.00828824
-0.05905141
-0.030362347
-0.056317694
-0.028214626
-0.0012721514
0.017309628
-0.012715183
-0.004341291
0.04656749
-0.03594607
-0.055517145
-0.0026710224
0.050880637
-0.0051025474
0.027344676
0.08363007
0.0102933
0.0031545197
0.016775494
0.011191113
-0.05535182
0.036953278
-0.06656586
0.059382465
-0.061752968
0.036195196
-0.00077289756
-0.040699974
0.02293222
0.0064260466
-0.022177028
-0.038714588
0.007014181
-0.0077302367
-0.0029612714
0.01540978
0.051035102
0.030937618
-0.006106743
0.013264558
-0.043661457
-0.01452474
0.01901691
0.05315998
0.0017291724
0.029392857
-0.03574802
0.035858724
0.0028934155
-0.0064820247
-0.015181945
-0.015893811
0.022930965
0.002544751
-0.048713416
-0.00039576416
-0.0031040206
-0.045161966
0.08282302
-0.048850227
-0.04195521
0.028313672
-0.042043086
0.025863975
-0.02699449
0.074129246
-0.008285184
-0.08208727
0.030203408
-0.047976214
0.007411305
0.003012026
0.046564236
0.019082913
-0.029509122
-0.048224498
0.03982525
0.012365166
-0.005015434
0.018591283
-0.043207657
0.004854326
-0.0076902495
-0.007871384
0.026431061
-0.075817846
0.002646447
0.015748579
-0.014830264
0.03818164
-0.05907722
0.031069592
0.016141638
0.006010588
0.061245203
0.011212145
-0.06597856
-0.030106334
0.020789567
0.013433846
-0.07172041
0.00608907
0.007023929
-0.03554253
0.0092931
-0.023565536
-0.03580161
0.0058004563
-0.059443742
0.0074787294
0.06277324
-0.006958652
0.019120855
0.021266505
-0.05647558
0.047427144
0.036166728
-0.051806055
-0.014586643
-0.0008544604
-0.041986078
-0.015938878
-0.028681397
-0.035141483
-0.06257584
-0.02221798
0.020986704
0.0062138536
0.019957116
0.0063171224
0.02379853
0.03632529
0.0132106105
0.004591371
-0.015392351
0.044753816
-0.12527144
0.01587881
-0.01532121
0.04126521
-0.03134746
-0.027103983
0.03570889
0.058654066
0.024329226
-0.017405182
-0.017940057
-0.025370251
0.0019883013
0.032543465
-0.03346461
0.0037530093
-0.05841648
-0.041735683
0.025341079
0.021099787
-0.01254857
-0.028634736
-0.011748783
0.007443727
-0.032010082
-0.013295647
-0.009740179
0.039252717
-0.022106443
0.031101625
-0.0457225
-0.010772141
0.057844073
0.02185039
0.00041084902
-0.018756228
0.012452076
-0.009327741
-0.06868106
0.0007951172
-0.017182717
-0.004140002
-0.00079027656
-0.03061452
-0.02202808
0.041905556
0.0017810031
-0.023085726
-0.000271985
-0.008202334
0.02042248
-0.0015167223
-0.018413225
-0.0067190384
-0.0077084675
0.060195267
0.015922893
-0.009033558
0.027069397
-0.0055903574
-0.011553495
0.0044015152
-0.010175354
-0.030176694
-0.13323824
0.082578555
0.02650949
-0.045001894
0.035973497
-0.010704216
0.06103363
-0.048187733
-0.020281475
-0.01312051
0.022590294
-0.08089042
0.0065137935
-0.056329064
-0.057069194
0.019638166
-0.00834527
0.015574029
0.0077965115
0.016444728
3.9965118e-05
-0.008085136
-0.069969684
0.05778525
-0.031382453
-0.02777555
0.0028144256
0.072421506
0.094282195
-0.011673101
0.020284057
0.004985661
0.21228166
-0.042658255
0.041219775
-0.00030157596
-0.008006511
-0.004833918
0.015056705
-0.04432338
0.03112581
0.0059720627
-0.018446874
-0.012183415
-0.0025003443
0.032483496
0.035784293
-0.027223501
-0.0025692855
-0.049813926
-0.09723292
0.13615875
-0.0055134934
-0.07681733
0.0058480627
0.020060087
0.11966726
0.023761312
-0.0045308676
-0.0134953605
0.018068457
0.020822506
-0.00573406
-0.051175363
-0.0016372605
0.061410993
-0.010664268
-0.019868637
-0.050224926
-0.020791538
-0.022604551
0.2955721
0.036175568
-0.02228031
0.0020802675
-0.002101461
0.024957212
-0.015015126
-0.072570205
0.02049166
-0.007829206
0.023858871
0.050219726
0.07131349
0.014969686
0.09637676
-0.009208198
-0.017754126
-0.018907886
-0.0037215846
0.14108741
-0.024147792
0.08053447
0.033922847
0.017504798
0.0043533803
0.09633448
-0.006158134
-0.0022114587
-0.0210321
-0.010373781
0.01970946
-0.0025663476
-0.02047794
0.05141104
0.034140613
0.0026684224
-0.02785467
0.04950467
0.050613347
-0.008899245
0.055445045
-0.009894719
0.015648976
-0.01955588
-0.015281615
0.06589197
-0.0044725505
0.0059655164
0.0051563764
-0.012146262
0.009819683
0.007887462
0.036256954
0.027533209
0.054378614
-0.004268136
-0.004033476
-0.013784206
0.03598551
-0.008924795
0.020948322
-0.003958268
0.07018389
0.006940704
0.0069026966
-0.057397738
-0.021107769
-0.06329852
0.043666728
-0.011769982
-0.05117205
-0.0006642879
0.07540685
-0.006547601
0.01702044
-0.016664775
-0.04139079
-0.018561628
-0.0060593747
0.006191433
-0.021465054
-0.026895849
-0.02932327
0.09472851
-0.011219817
0.01479087
0.021532113
0.023704669
0.018902019
0.01542858
-0.010739689
-0.044564668
0.03532492
0.026741767
0.003781964
-0.024832366
0.093229905
0.08052701
0.0017267365
0.10556951
-0.014653331
0.025428938
-0.02217166
0.014267688
-0.009496652
-0.039191738
-0.042557187
-0.03698047
-0.021346206
0.041618504
0.042479493
-0.019266263
0.027387243
0.032292094
-0.0032329373
-0.010125557
-0.02665117
-0.01088805
-0.004341984
0.0305184
0.04797122
0.013748172
-0.011698589
0.06730673
-0.008539308
-0.017953565
-0.0046261405
-0.016272733
0.0009218181
0.013997308
-0.015493258
0.013952659
-0.0637166
0.01677504
-0.06366055
0.012073485
0.011420837
0.08565561
0.047501005
-0.050135765
0.00855504
-0.020520132
-0.042619362
0.02022684
0.035607316
0.05541086
-0.012273004
0.0077352324
0.012369735
-0.07099253
0.0059036193
-0.006879354
0.051349837
0.024781499
0.05530023
0.052922063
0.01548933
-0.016137378
-0.010294774
-0.0044199605
0.015482734
-0.009835747
-0.021171778
0.007808854
-0.054341402
0.034248017
0.027406972
-0.020980211
-0.013909555
-0.004522588
-0.0136426315
0.021567756
-0.011196741
0.0046290755
0.09184338
0.019096032
0.027347362
0.057088103
0.00051501486
-0.018647194
0.045049183
-0.042787515
0.037317935
0.0009563182
0.026137583
0.18483125
-0.054194942
0.037674274
0.028361918
0.08544752
0.010749145
0.0003482636
0.018196056
0.0015256718
-0.019367928
-0.025320668
0.009890441
0.009661408
0.019209562
0.10237782
0.033898704
-0.014056522
-0.0008676146
-0.019395696
-0.13132145
-0.00080766156
0.033417545
-0.0013374002
-0.032194413
-0.014066881
0.022880837
0.0011918655
-0.023461536
0.0094498275
0.0085425135
-0.01082882
-0.020030476
0.039346617
0.0061916257
-0.020589292
0.079926655
0.13129641
0.0062053353
0.01849596
-0.085254215
-0.030293386
0.006365799
0.11029774
0.009155044
-0.003879019
0.045580834
0.019621557
0.058644943
-0.01362511
0.030398922
-0.032528896
0.0024659305
-0.009277529
-0.022482257
0.009349413
-0.036613937
-0.0087210145
0.007998249
-0.07593252
0.04697187
-0.013041352
0.03722628
0.10177127
0.23184443
0.006858822
-0.021420386
-0.004688702
0.08867654
0.014462629
0.00061287184
0.056324895
0.030337367
-0.011175672
-0.026630627
-0.011944906
-0.040970147
-0.017843649
-0.019363988
-0.032712
0.034875296
0.0028966812
-0.034068283
-0.025588956
0.012934582
-0.015876649
-0.082120016
0.0017430534
-0.021483488
-0.006300983
0.04264692
0.0075306376
-0.003691071
-0.029077783
0.025604594
0.02823229
0.021652889
-0.012937047
0.005478641
0.007970167
0.006540091
0.01598345
-0.026717907
0.005212723
0.00504586
-0.011354538
-0.010357501
-0.078223534
-0.00865808
0.008712969
-0.018996738
-0.0046656746
0.008423157
0.009897107
0.056146827
-0.01751303
0.034779157
0.0033878817
0.01604404
-0.007971835
0.05198195
-0.0033455903
0.009677767
-0.023985073
-0.019875957
-0.008947672
-0.016849386
0.12111593
0.11248166
-0.029656706
0.026037963
-0.022512663
-0.040878985
0.07132743
0.005043643
-0.014561584
-0.012670609
-0.079805344
0.0012716172
0.00910797
-0.016927361
-0.0076747118
0.0447324
0.05104349
0.04559264
-0.040449917
-0.043705784
0.036475897
-0.031176774
0.045938946
0.008458125
0.055386953
0.018865056
-0.021546584
-0.019286362
-0.013979233
-0.01917914
0.013677576
-0.01357504
0.047827873
-0.007047435
0.00024046683
0.0022238276
-0.046472173
-0.027054915
-0.030677622
-0.0064003924
0.10212036
0.01844755
0.043083925
-0.0071332995
-0.0135875875
-0.029828928
0.00228718
0.03697217
0.21894345
0.14051925
0.026640436
0.0018113272
0.03370734
0.033401232
-0.009484099
-0.005387043
-0.002432685
-0.010389259
-0.03162863
0.0040484634
0.07118707
0.0031001428
0.0098306015
-0.25206056
-0.010058346
0.022027502
0.026237877
0.0024653182
0.028828481
0.08512752
0.04076612
-0.016052479
0.03096145
0.020620529
0.20929325
0.023423787
0.04774485
-0.06427676
-0.01853019
-0.04777339
-0.036315423
-0.041846402
0.03556312
-0.047228407
0.09502588
-0.022183457
0.040386602
0.07081042
0.073401414
0.012468549
-0.0056856726
-0.04700197
-0.025351716
0.012355715
0.049658787
-0.012630116
0.003724577
-0.040626768
0.03976941
0.0050023305
0.12900011
-0.016177861
0.020585354
0.05046403
-0.004043169
-0.010113413
0.017069113
-0.03364341
-0.02560193
0.08468157
0.046199262
-0.0033769142
-0.052624907
0.21825142
-0.023161775
-0.015162167
-0.083196364
0.035989635
0.0065768436
-0.016011138
-0.009393724
0.041393027
-0.013410475
-0.087219976
0.00034619332
0.044907194
-0.022915365
-0.010941519
-0.046612233
-0.019860175
-0.0005177279
0.03130102
0.034911606
0.03106327
-0.041811053
-0.025821554
-0.05535518
0.017571943
0.040414248
-0.0036557496
-0.011764225
-0.0030728693
0.027907066
0.005649394
-0.04065202
0.01991505
-0.0068081454
0.15104213
0.009717798
0.019904679
-0.04108474
0.0200233
-0.02190528
-0.00036277357
-0.10009503
0.0053970846
-0.052215863
0.0032615028
0.035066403
-0.031053592
-0.010456924
0.041511856
0.015199129
-0.0027256273
-0.03929145
-0.012404399
-0.020492053
-0.005006365
-0.00616678
-0.0061860024
-0.010289162
-0.023627006
-0.03553891
-0.017949432
-0.002216606
0.024044665
0.035670597
0.01452246
-0.0024888788
-0.08068685
0.026032448
-0.0125207435
-0.015596203
0.018391093
-0.07430084
-0.0052675228
-0.035712745
-0.061853245
-0.002186749
-0.02564081
-0.02265001
0.018750304
0.0005705443
0.0020975752
-0.025867851
0.017842526
0.000803629
0.049174163
0.051285125
-0.09996224
0.22953229
-0.06941438
-0.013375068
0.023017667
-0.0087407455
-0.010479298
-0.023770733
0.023114886
0.01267854
0.027055135
-0.041941915
-0.0273055
-0.14342779
-0.054753367
0.033791408
-0.009284612
-0.032643154
0.0025653767
-0.03775872
0.001382018
-0.031574506
0.036322363
-0.06546878
-0.033224516
-0.017150939
-0.030830607
-0.0028161127
0.010467688
0.05041157
-0.0040477
0.024830518
-0.013098759
-0.0033568335
0.045291822
-0.015787974
0.024156932
0.007870305
0.05055554
-0.087340035
0.052483104
-0.046913963
0.017984545
0.029966574
0.023153225
0.011190934
-0.014809845
-0.02283017
-0.011184298
-0.008434196
0.03619713
-0.012637418
0.003918756
-0.0299428
-0.036164425
0.0741481
-0.060484536
0.04591364
0.04021428
0.0025335266
-0.04750132
-0.043121833
0.054699115
-0.005062133
0.026021942
-0.024651203
-0.0760352
0.050988607
0.023368826
-0.054261796
-0.011632271
-0.01721635
-0.050746683
0.024789223
-0.056398872
0.004847837
0.02469486
-0.016526433
0.001448865
0.00846726
-0.020015867
-0.01078394
-0.007466541
0.02042715
-0.0005445597
-0.01921536
0.035391476
-0.021890346
-0.0016108451
0.023820175
0.0023371559
0.004215414
-0.03593956
0.0011966368
0.027982485
-0.008224586
-0.0076062772
-0.021743143
-0.05664446
0.017463269
-0.014473864
0.02634932
-0.011630191
-0.019129485
0.001286909
-0.0076860962
0.05426451
0.05452072
-0.027913013
-0.046622876
0.03714069
-0.026173962
-0.038717955
0.0050334325
0.048553683
-0.050426822
0.010545605
0.0048732567
-0.020654412
0.011792581
-0.1830878
-0.01563665
0.03396684
-0.011963536
-0.010270636
-0.019293515
-0.017943457
-0.05768953
-0.053256407
0.060246833
-0.031291872
-0.051885065
-0.05916199
-0.011564125
0.06848587
0.00347539
0.042530667
-0.0064635826
0.056492496
-0.006682642
-0.03462938
0.015924752
0.06284989
0.006514841
0.006481718
0.0069691567
0.031087944
0.0022789822
-0.0186613
0.0105763385
0.013684868
0.1511256
0.045904223
0.0017339991
0.0002660758
0.0052680825
0.080366045
0.022369875
0.024638135
0.013882077
0.04280502
-0.026621724
0.08698247
-0.018445572
0.023930058
0.028472962
0.02140424
-0.041643165
0.034272563
-0.035462562
-0.021434229
-0.027075158
0.012611511
-0.08725812
0.008544102
-0.008940705
-0.007893616
0.0026338159
0.03616183
-0.019146709
-0.005989289
-0.0019596207
-0.07203813
0.00550338
0.010375314
-0.035786588
-0.04147898
-0.014699428
0.03309413
0.038847286
0.086316414
-0.05456356
0.013296698
-0.11134521
-0.013165161
-0.01825902
-0.045015726
-0.037118666
0.07460802
-0.03780732
-0.020092407
0.0026026077
0.053529438
0.032246407
-0.0070676696
0.0058432976
0.13132927
-0.017988998
-0.06519871
0.012306372
-0.010309703
0.015458315
0.0007222416
0.009830391
0.016918423
-0.0016092432
0.01434554
-0.05958805
-0.020599099
0.03810221
0.0019067385
0.010605232
0.0062877717
0.00510458
-0.033665545
-0.023215493
-0.019246517
0.04350162
-0.008382146
-0.07569402
-0.040751137
0.012218866
0.11277115
0.034839686
-0.006964497
0.014599942
0.009005627
-0.043835104
-0.030684367
0.09632582
0.008208433
0.0048487913
0.019254427
-0.044306185
-0.008896878
-0.011349987
-0.008363474
-0.13552053
-0.031163018
-0.015563149
-0.06726277
0.00037376757
0.03177606
-0.24929146
0.015631555
0.0054213414
-0.041755695
0.0549354
-0.061205573
-0.0349945
-0.0032536935
0.0023502687
-0.048096787
0.011519063
0.012166314
-0.017397603
-0.014244585
0.09434536
0.010464676
-0.0092554465
0.016830975
-0.059560243
-0.027581092
0.057678834
-0.029485585
-0.0066069113
0.026457474
0.029084748
-0.023006756
0.017986106
0.0849658
0.020075746
0.02830942
-0.02830003
0.012243826
0.017327929
-0.006242519
-0.0105438065
0.03276437
-0.0025598656
0.034555905
0.0012417473
0.053757966
-0.024577517
0.020780565
0.0146786235
0.0015958468
-0.0017281895
0.047892183
-0.07166063
-0.04278354
0.00044623777
0.04378392
0.033807535
-0.066905506
0.010216927
-0.015632031
-0.033059303
-0.018647524
-0.03694924
-0.10617353
0.029852774
-0.05154375
0.045218863
-0.027226843
-0.00892714
0.0062564365
0.013381919
-0.010887144
-0.06698152
0.024534475
-0.0017271972
0.012879637
0.0055782637
0.010145339
-0.0026507708
0.005877214
-0.0072181933
0.00019474022
-0.040708605
0.024595756
0.009450093
0.08716357
0.10130221
0.04137789
-0.0044465167
0.0039718444
-0.008218249
-0.005155694
-0.0060209255
0.013662846
0.056392495
-0.11172776
-0.021585062
-0.018687762
-0.009185421
0.054476824
0.014238998
-0.00083927665
-0.0011054632
-0.12618892
-0.02573325
0.017016588
-0.027204014
-0.014061208
-0.004915
0.033995178
0.034380443
0.06083077
-0.0020770733
-0.010284413
-0.02608385
0.033115737
-0.005286625
-0.029709332
0.022567391
0.016872471
0.011686866
0.012044736
7.854499e-05
0.041162618
-0.06867097
0.006589253
0.02004712
-0.0053236303
-0.13103591
-0.04825843
0.07943607
-0.035729993
-0.01538939
0.015115778
-0.03261989
0.044933792
-0.002802094
0.048988614
-0.026288208
-0.014385112
-0.016583381
-0.113591366
0.029461231
0.048538223
-0.060950525
0.013797591
-0.018218841
0.0003776601
0.03302348
0.012839565
0.019696746
-0.028324679
0.046684276
0.002060697
0.037477374
-0.013631688
-0.027337125
-0.015637951
0.0470034
0.034234274
0.008713514
0.0021303562
0.0025848618
-0.029465575
-0.0011951032
-0.01788477
-0.025153153
-0.009741247
-0.0105700875
-0.0359928
-0.018698744
0.04004188
-0.01020289
-0.020755334
-0.012841709
0.045578808
-0.022396917
-0.025183665
-0.01564261
-0.0075312313
-0.032785885
-0.015352317
0.13245508
-0.02544058
-0.012770415
-0.026577676
-0.04223491
0.006162882
-0.00830167
-0.0032378652
0.007273892
0.04236897
-0.0324562
0.014298346
0.031237701
-0.0018822479
-0.031126788
-0.050334286
-0.09890729
-0.017723732
-0.006199717
-0.019554589
0.00439369
-0.0027083333
-0.13316658
-0.0008985546
0.008051376
-0.013982383
-0.026929606
-0.0027896976
0.080649406
0.05381686
0.040918056
-0.045270752
-0.044979397
0.081170805
0.023070484
0.0046072705
0.013765176
-0.023513298
-0.05062819
-0.067477725
-0.01678991
-0.0134643875
0.00049544265
0.037627093
0.0067028105
0.020570582
-0.0023901663
-0.021643441
0.008635306
0.035471383
0.022350885
-0.036974885
0.018877959
-0.0051729926
-0.012996768
0.06163922
-0.0052135875
0.019666187
0.004900427
-0.012081655
0.0054481295
0.015899103
0.03775082
-0.045841783
0.003679763
-0.008924552
-0.022180542
0.023269236
0.01063241
-0.038527936
0.059367623
0.026351744
0.037489597
0.01865644
-0.01046779
0.0035651498
-0.05273435
0.025164442
0.019861815
-0.015676353
-0.064583905
0.008993655
-0.022880701
0.008536296
0.047850285
0.018431915
-0.021085441
-0.028628698
-0.025400687
0.013693064
-0.06714598
-0.0502802
0.040486697
-0.035350475
-0.042254314
-0.0036062093
0.0035802168
0.0482121
-0.055213995
0.018278603
-0.01755197
0.008845444
0.029959379
0.003515172
0.020981768
-0.029001858
-0.04609973
-0.016450701
-0.029858375
0.0049745734
-0.022886148
0.011279971
0.17505233
-0.08722566
0.05703518
0.06544433
-0.002064649
-0.026254127
-0.024624243
0.04638102
0.015643857
0.0069428505
-0.015597567
-0.0117346505
-0.03468399
0.054970212
0.018288642
-0.018084072
0.061015517
0.008040341
-0.005817903
0.02301283
-0.013178646
-0.05218963
-0.0070768483
-0.0077520786
-0.07499231
-0.007862848
-0.01490481
0.005705716
0.07089223
0.01911395
0.004824469
-0.011888645
-0.04412608
-0.053502046
-0.024071934
0.031069487
0.018310413
0.035216242
0.007620452
-0.030137757
-0.08600778
0.033590436
-0.0662584
-0.004236684
0.009511391
-0.024068559
-0.038677815
-0.03136127
-0.0017038205
-0.020353576
-0.046137184
-0.02313645
-0.00081290014
0.030453987
-0.021770846
0.05584941
0.01976269
0.007623361
-0.0052422136
0.0017925632
-0.0021720154
-0.022767512
0.014260939
-0.056438606
-0.010042767
0.045660615
0.013235394
-0.047687586
-0.085389726
-0.012977323
0.022177534
-0.023490883
0.011168301
-0.046853054
0.041417338
0.0021842094
0.028764138
0.04241703
-0.07601121
-0.05777701
-0.08668405
0.008202921
-0.030768868
0.047389224
-0.013457814
0.020196876
-0.023501726
-0.025687458
0.039397273
-0.019408911
0.04753856
0.078600205
-0.021954473
0.040082358
-0.05676406
-0.013108108
0.005110049
0.052683916
0.016542893
0.016645597
0.005081083
0.022619728
0.04713032
0.035837375
-0.006719757
0.00016064248
0.020319449
0.057729088
-0.047558468
-0.05696131
-0.039505538
-0.019368505
-0.028004633
0.021286277
0.042433646
0.09059888
-0.018106056
-0.034588277
0.10928519
0.002446336
-0.052078985
0.021940056
0.013866204
0.024001595
-0.04534437
-0.0059846854
-0.03227703
0.035811614
0.00970174
0.016995346
0.0030413452
-0.069262035
0.06851908
-0.07050507
0.03841282
0.05635555
0.024099395
0.005940603
0.04369451
0.022154488
0.008692301
0.05382643
0.022252506
0.011630113
-0.056030944
-0.0437031
-0.0032073131
-0.011825789
0.011332022
0.06079825
-0.045242198
0.009739529
-0.0019378773
0.025894323
-0.045422815
-0.06640298
-0.012562591
-0.01037529
0.059906065
0.08516769
-0.011363161
-0.016285704
0.012178062
-0.035167277
0.070169
0.010717582
0.0098327035
-0.008931328
0.13073705
0.030926954
0.012305996
-0.00999187
-0.01658492
-0.03638225
-0.005818245
-0.0425644
0.0023516342
0.0021316789
0.0076577887
-0.058968674
-0.08553958
0.0035980125
-0.0066441735
0.012277022
-0.019927407
-0.012262463
0.025433682
0.063767806
0.07677041
0.044615872
0.018276138
0.051413696
-0.0019734632
0.010848641
0.047376342
0.0059553576
-0.026176069
0.025000034
-0.015779939
0.15639666
0.010866071
-0.057839375
-0.03379535
0.040247157
0.038713
0.01870688
-0.042221576
-0.018938763
-0.0056161326
-0.036751103
0.02652821
0.03290116
0.014690851
-0.03495737
0.028290536
0.02105698
0.016552791
0.003907002
-0.00071373105
-0.015019781
0.0065187435
-0.016380426
0.0066893157
-0.022328785
0.07165478
0.078967124
-0.03408031
-0.01473724
-0.012483076
-0.008912599
-0.035865523
0.064873986
-0.019776955
-0.12612496
0.0075770365
0.11902135
0.03831758
-0.094086915
0.0055287494
-0.058656927
-0.013797451
-0.014406593
-0.00799505
0.014889979
-0.01673934
-0.012967796
-0.013849169
-0.037585445
-0.0017801508
0.022471653
0.021996569
-0.018839255
-0.013570511
-0.035912067
-0.034711905
-0.0108957905
-0.04154316
0.045304254
0.00924267
-0.018537095
-0.0470267
0.01667091
-0.062289484
0.025410807
0.03984647
0.020949386
-0.039324984
-0.062210396
-0.04636867
-0.0042188233
0.018699026
0.03682807
-0.018753162
0.09714317
-0.038211584
0.027687298
-0.02498093
0.07241892
0.013659141
-0.084080316
-0.030672116
0.0966997
-0.034877125
-0.014074497
-0.022328835
-0.007741267
0.08868984
-0.008559939
0.033474475
0.036418326
0.09153386
-0.008332363
-0.005364689
0.018445266
-0.020877646
0.020776862
-0.011770684
0.00362905
-0.07170776
0.06868843
-0.027262991
0.0046857228
-0.05843825
-0.019967968
0.07838621
0.022593105
-0.044234563
-0.030264268
0.017109685
-0.06335083
0.0016236636
0.02681081
0.052175093
0.057599466
0.008496714
-0.0055986703
0.039460212
-0.010136983
0.026475871
0.017111069
0.019288585
0.15702544
0.024328243
0.035895243
0.052778907
-0.026574498
0.0002698126
-0.043857515
-0.038235545
0.008123422
0.0024599927
-0.04494254
0.049408067
-0.03419524
-0.03668241
0.08737627
-0.001333478
-0.022376085
-0.04426216
0.093569614
0.02701607
-0.024418967
0.001359103
-0.027438188
0.008882684
-0.053823944
-0.020349862
0.08919893
-0.019672314
0.051158477
0.02550566
0.012279281
-0.0687484
0.03151648
0.057652175
0.036088523
-0.033930857
-0.015120512
-0.03511492
-0.018040495
-0.024923885
-0.022706192
-0.045481537
0.007502479
0.01463564
0.0039290134
-0.031617533
0.01738967
0.014332157
-0.0067235352
-0.020028748
0.033412974
0.01872623
-0.024935937
-0.055408023
0.024697602
-0.016195022
0.034605578
0.057717327
0.026719669
-0.026670221
0.052500226
0.015105147
-0.0031870431
-0.005291038
0.012251397
-0.026558707
-0.010623156
-0.022511546
0.071614794
0.023336178
-0.0008880051
0.0042171525
-0.05307077
0.0033553846
0.017293625
-0.020863652
0.018201945
0.00053076947
-0.06320487
-0.007499211
-0.032408997
-0.027467677
-0.008791377
-0.007928964
-0.031947583
0.036244933
-0.026295692
-0.0016977674
0.051329516
0.023983248
0.11248449
-0.068122365
0.05159101
0.01236455
0.036376674
0.012106054
-0.024368852
0.042818867
0.031491525
0.010315182
-0.05955532
0.011294248
0.020108188
-0.0054804506
-0.0028271603
-0.056299496
0.020824082
-0.086551644
0.018070566
0.014701276
0.029373255
0.07125017
0.0621363
-0.008481755
0.040046703
0.092055894
-0.023429897
-0.02152322
-0.030837923
0.016855996
0.062485777
-0.027605563
0.0030278182
-0.004389197
0.036528632
0.060926147
0.039642837
-0.006130567
-0.025441198
0.02878013
-0.011758305
-0.013381839
-0.038411345
-0.0064486074
0.048898157
0.016072487
0.018135067
-0.032911304
0.012119853
0.03469151
0.05913377
0.004462978
-0.0215044
0.001662601
-0.05676076
0.044722263
-0.004941028
0.025816627
-0.013805887
-0.036904536
-0.01750497
-0.027659575
-0.030300971
-0.025385397
0.030729057
-0.025983034
-0.00082918425
0.010416711
-0.026730854
0.04014039
0.08026538
-0.00093318766
-0.009343413
-0.0066780234
0.014333501
-0.0040991246
-0.01458468
-0.028248493
0.0018216725
0.0021608118
-0.010596708
0.027487911
-0.036802024
-0.0013367977
0.055203684
-0.024460085
-0.03702357
-0.0024196892
0.022387112
0.016912486
0.03385155
0.04586152
-0.00039863097
0.010124086
0.0071716625
-0.01651707
0.20207272
-0.020967327
-0.038955547
0.0012338014
0.09254191
-0.00038141705
0.05522775
0.014493531
0.02874879
0.022785902
-0.0031376965
-0.031597182
-0.070154525
0.022228086
0.050736394
-0.0119571155
-0.013559723
0.04836932
0.01370401
-0.024349237
0.0076418263
-0.09408364
-0.055994257
0.024661241
0.023901243
0.06734321
0.013436758
0.085467294
-0.0043701697
0.022988388
0.04715202
-0.011957663
-0.0388362
0.013333296
0.0076222653
-0.01763226
-0.002644635
-0.105535336
0.0044995337
0.07156308
-0.014361274
-0.056981903
0.03298322
-0.009787133
-0.032894887
-0.032508656
0.024751956
-0.026257813
0.081163995
0.04049062
-0.018526942
0.0050155576
-0.060340878
-0.00922621
0.062332086
0.015752465
0.0012307751
0.0073120953
-0.010607409
-0.12961741
0.17982256
0.005263911
0.003424763
-0.042669594
0.013709716
-0.05586791
-0.0078653
-0.036004387
-0.036369365
0.036645494
0.012814458
0.064039625
-0.034480453
0.0983934
-0.008413748
-0.0114202015
0.03277478
-0.05059144
0.024317896
-0.016398491
-0.10622654
0.016373698
0.017402334
-0.015457521
-0.006845992
0.004210901
0.076543294
-0.05019134
-0.11081535
-0.040866673
-0.0077813887
0.03790713
-0.0011188653
0.058304675
-0.022123432
0.02947417
0.007441331
0.010897811
0.03203439
0.08608115
-0.043083485
-0.015087977
-0.0110787945
-0.005110785
-0.09176445
-0.01075937
-0.013073964
0.04842982
0.028849652
0.015828116
0.012061883
-0.020159468
0.03398047
0.05912187
-0.09711333
-0.009085486
0.002524573
-0.03860133
-0.0039401487
-0.05008194
0.009401468
-0.027215477
0.0183814
0.021778775
0.02560088
0.037868463
-0.084629424
0.045714356
0.09460585
-0.023219235
0.071978465
-0.04738891
-0.038156085
-0.004070928
-0.060842298
-0.031659737
-0.009283404
-0.03406192
-0.011374841
-0.028771367
-0.002642802
0.01803583
-0.012147913
-0.03182919
0.011361678
-0.037761897
-0.053526297
0.030356571
-0.020007895
-0.031207604
0.0022732273
-0.052249223
0.0028211565
0.007332502
0.019146541
-0.0052715903
-0.0537594
-0.021257043
0.021240793
0.12683995
0.05242035
-0.008303296
0.0025494446
-0.00126985
-0.016202666
0.11725941
-0.01811818
0.037555907
0.016448088
-0.011206977
-0.06585234
0.041981656
-0.0023351235
-0.024510847
0.0048317406
-0.009549376
-0.10681383
-0.020364527
-0.0006867124
0.057242457
0.06633706
-0.08278927
-0.0018458269
0.031849932
-0.0024172533
0.08662146
0.027494425
-0.01606947
-0.00045168915
0.016075846
-0.055742744
0.020268679
0.054181833
-0.033589967
0.020155292
0.043167856
0.039661635
-0.0640014
0.07837171
0.034961727
-0.0056787212
-0.004910173
0.0031392311
-0.008553779
-0.028343976
-0.02892946
0.024380313
-0.11115271
-0.01167824
-0.010831323
0.03467937
0.0064346474
-0.034844693
0.010836245
0.01738478
0.0015889576
0.0024304595
0.044964734
-0.039610807
0.0013027118
-0.03235475
-0.019941183
0.008696551
0.0615729
-0.03203326
-0.009733008
-0.033520967
-0.061250463
-0.021888163
0.019681612
-0.004947186
0.056181986
0.011331328
-0.0016495498
-0.04954093
-0.03097086
0.03817248
0.033839878
-0.060428333
-0.028282264
-0.039921004
-0.059710346
-0.039483644
-0.026588507
0.06681486
0.04795644
-0.09344188
-0.011996878
-0.007732004
-0.0257093
-0.039233755
0.0019854738
-0.013047326
0.020877853
-0.023543144
0.019291759
-0.027400564
-0.071519695
0.08248001
0.004905635
0.005400089
-0.0026559855
-0.0052395933
0.038827475
0.001097395
-0.007805091
0.04706601
0.005123807
-0.099111564
0.031213453
0.011546297
0.053328067
0.060417764
-0.0060752304
0.014658717
-0.0133608775
0.008171674
0.017976603
-0.0136172
0.009721309
0.02238061
-0.03982304
-0.036647584
0.05984051
0.0013113479
0.124781474
-0.032889836
0.019055685
0.03638903
0.011818545
0.024724621
-0.043730907
0.06229159
-0.03289278
0.022958348
-0.008225286
0.12244528
0.02862061
-0.016690638
-0.04770898
0.0070592766
0.04336598
-0.055673044
-0.022015423
-0.022981513
-0.030469945
-0.013686083
-0.0077967593
-0.022499684
0.012175588
-0.022241037
-0.03121132
0.027587313
0.05951119
0.009711544
-0.022604993
-0.020228872
0.00021074059
0.025860203
-0.102566555
-0.014612556
0.021907423
-0.008212439
-0.0258621
0.04211622
0.10155925
-0.040414184
-0.014369603
0.010014471
0.01137359
0.045306735
-4.380172e-05
-0.029051328
-0.0082749585
-0.00025468087
0.028590655
-3.457551e-05
0.023688028
-0.03307136
0.03127481
0.023886565
-0.057994526
-0.006055027
0.022052167
0.015615279
-0.054619994
-0.0139343105
-0.092985414
0.018982211
-0.035705086
0.034950208
-0.097877085
0.034850683
0.0021438675
0.0587684
-0.040331457
0.048617512
-0.0038123964
-0.011783709
0.15535451
0.042096857
0.0097484235
0.09473588
0.022191038
0.0005203958
0.2310138
0.011755574
0.0073525254
0.0074695307
-0.015665548
-0.039051417
0.1004181
-0.054325577
0.025881682
0.018009663
-0.025184562
-0.006420956
-0.018781474
0.005859538
0.057024922
-0.0036373115
0.010698704
0.026907953
-0.06790707
0.0080941105
0.08153196
0.01948843
-0.048235103
-0.003924992
0.04367858
-0.0014497353
-0.11194293
0.030595275
0.0164816
-0.021626646
0.025124429
-0.0111440625
0.0578351
0.0031854438
-0.085678004
-0.08488075
0.03995827
0.029569808
0.00521601
-0.026713436
-0.017018711
-0.047792833
0.024518061
0.019678302
-0.0571093
0.017771792
-0.0010056732
-0.108193964
0.00016797894
0.0600765
0.050800405
-0.0138583835
-0.014339977
-0.032987878
0.042686936
-0.020735992
0.02004917
-0.031070147
0.063370004
0.0012288444
-0.00886925
0.09276393
0.014587143
-0.025710996
-0.038126256
0.001135285
0.013035567
0.026610754
-0.026725568
0.017704781
0.0044955024
0.04864894
0.018476767
0.053777315
-0.032032277
0.00831096
0.099736914
0.00956901
-0.0419602
-0.024743147
0.078055136
0.009958965
-0.0048729973
0.0011707875
-0.015113007
-0.03860238
-0.009321821
0.0358597
-0.07440476
0.027048983
0.03482642
-0.009784102
-0.06447632
-0.03841764
-0.07813678
0.022981074
-0.105818614
0.004745
-0.022871582
0.0129730115
0.0534281
0.01657822
-0.016572742
-0.0065346253
-0.052137893
-0.0526759
-0.042207148
0.031290535
0.0126617225
0.05462316
-0.022954969
-0.03046796
0.039287854
-0.0878449
0.046516556
-0.034023527
-0.046091307
0.0040788134
0.042915512
0.023419129
-0.06183841
0.05019796
-0.009148501
0.001278011
-0.012233804
-0.026670907
-0.014165648
-0.0015078409
-0.038227163
0.011145809
0.0014978669
-0.01077478
-0.0631268
0.039623488
-0.05569954
0.019855976
0.014958818
-0.018326303
0.0155852
-0.0056974716
-0.04915738
0.024060437
0.03481037
-0.0467307
0.0016400897
-0.008267121
0.020780405
-0.05177301
-0.08746092
0.02652672
-0.032985013
-0.057264842
-0.015084837
-0.0795798
0.08488205
-0.04908873
-0.015567054
-0.07588039
-0.021805469
-0.0064875097
0.0056721396
0.053289153
0.021288661
0.02275543
-0.04100485
0.0011575359
0.0347676
-0.014615245
0.03903195
-0.024513718
-0.0058549372
0.016504498
-0.012899817
-0.061943147
0.11042116
0.029075297
0.0064699026
0.014162435
-0.02980721
-0.018941235
-0.005890822
-0.06793981
-0.035671793
-0.022208374
0.07488526
0.07077706
-0.06481006
0.056105122
-0.02734045
0.051032368
-0.0009744626
0.01546139
-0.0038822398
-0.010970562
-0.059439294
-0.012925518
-0.009950726
0.03834414
-0.005805406
0.08702646
0.022101922
-0.0039059594
0.014229462
-0.029740142
-0.004686479
-0.038141564
-0.0031688593
-0.06663824
-0.008508964
-0.040860508
0.006401626
-0.024666965
0.008029575
-0.05294107
-0.048217535
-0.030017747
0.0004386061
0.025528977
0.07135193
0.04009892
0.010441074
-0.0011549554
0.01914821
0.07261964
-0.007266356
0.007846774
-0.011318829
0.008458123
-0.04391865
0.042146433
0.01589427
0.062478922
0.04527352
0.044500794
-0.0075356266
-0.09495126
-0.032288764
0.030776039
-0.03326661
0.051728234
0.023436703
-0.0070159566
0.08535123
0.048738517
0.035416722
0.0157863
-0.062897995
-0.0075908992
-0.0054565542
-0.020969167
-0.03441299
0.05801089
0.041598327
0.004359354
-0.011150211
-0.002434937
-0.016302906
-0.038903322
0.01807221
0.010918782
-0.053869497
-0.018770304
-0.033259075
-0.010378605
-0.015017426
-0.015530016
-0.035352957
-0.038521677
0.057094138
0.006323878
0.020913243
-0.054075573
-0.045219015
0.03791357
0.0013434979
0.05681517
-0.041277815
-0.06364611
0.035099626
0.0031343715
0.0063825506
-0.03583182
-0.016084848
-0.026213909
0.026868856
-0.018986566
-0.028550636
-0.03540119
0.030667972
-0.00472466
0.048476554
-0.06301868
0.08208297
-0.06794707
-0.04188983
-0.024623523
0.034689832
0.021661205
-0.019391792
0.023714662
-0.0066669895
0.009672088
0.029106405
0.016915424
0.040388223
-0.018751692
0.038157538
-0.09655351
-0.03257146
-0.04162893
-0.023174014
-0.044327877
0.009133761
-0.014336501
0.019667465
-0.07295451
-0.018509982
-0.10134692
0.040049642
-0.038663905
0.0480747
-0.059451737
-0.015096612
0.048559107
-0.05281363
0.018997028
-0.078460045
-0.12557381
0.15931144
0.0149796605
0.01653135
0.041188985
0.0025998806
0.051659748
0.0040180082
0.018549487
0.064393185
-0.037768323
0.01349969
0.06061617
0.058885235
-0.027291846
-0.0041053374
0.0045263763
-0.06485821
-0.13905644
0.006210265
-0.0047285147
0.04097763
0.032696813
0.0430249
0.016725108
0.02927588
0.006030393
0.038222946
0.022851028
-0.09172226
-0.11337367
-0.016206535
0.016170964
0.007644343
0.040281687
0.06396524
0.040742036
-0.01932504
-0.013523241
0.06165428
-0.03768574
-0.008412824
-0.013633016
-0.0412692
6.569671e-05
-0.011012293
-0.040994298
0.028419465
0.028364874
0.005692531
0.009935067
-0.04293625
0.025721027
0.024299987
0.0014116014
-0.021402622
0.048821755
-0.043634217
0.026498543
0.025548078
0.038663894
0.05599907
-0.013217184
-0.121430986
-0.046759717
-0.050179694
-0.073929004
-0.010584518
-0.035307597
0.018675432
0.06682155
0.020527892
0.010890568
0.046277612
0.003232161
-0.030537287
0.0075578266
-0.044457585
-0.018052869
-0.007257431
-0.030638682
0.008750544
0.03354088
0.014231058
-0.0460287
0.0052395226
0.017483128
-0.027221797
-0.07472133
-0.06549231
0.033140562
-0.022711495
0.04915628
0.02149733
0.02253412
0.06794765
0.021053009
0.00849325
0.013981802
-0.021745557
0.0047896914
-0.059678856
-0.021065379
0.011246776
-0.010199013
-0.09947782
-0.0137412315
-0.018298909
-0.025677381
-0.005606019
-0.017712083
-0.0016986274
0.024211835
0.033590633
-0.03492287
0.004053426
-0.15775338
-0.04160164
0.024698982
0.032743942
0.029642606
0.03155315
-0.0637029
0.010948312
0.008804698
-0.030289492
0.0325723
0.023834037
0.046128884
-0.024656186
-0.013377121
-0.03262314
-0.104372
0.031021366
0.007932906
-0.008359516
-0.04707295
-0.019317145
0.0032428373
-0.06322849
0.08650353
-0.022390455
0.020435616
-0.032999095
-0.05861673
-0.15076654
-0.043940965
-0.072804496
-0.026407052
0.036021363
0.079653166
0.0297656
0.015429288
0.05398968
0.00080406544
-0.019839572
0.034721065
0.05275897
-0.00782437
-0.069187865
-0.04787925
-0.01619845
0.024621712
-0.02055641
-0.02098187
0.007149206
0.0067419694
-0.051885344
-0.008514789
0.013148894
0.003988521
-0.049544107
0.013009386
-0.004502291
0.0080640465
-0.07282172
0.021936866
-0.01013574
0.02722585
-0.06648335
-0.0137534635
-0.01312226
-0.107596375
0.053201456
-0.08912996
-0.040532906
0.048381057
0.025496555
-0.008272798
-0.0066948147
0.0071514407
-0.07501898
-0.07646612
0.009606866
0.004511431
0.015074941
0.007825137
0.00011034346
-0.019274266
-0.065575026
-0.008743392
0.059387334
-0.031625133
0.004665744
0.039364196
-0.011447574
0.04941518
0.0115145575
0.099595256
0.02049303
0.0074619115
-0.07013783
-0.0059069656
-0.015120341
0.059810795
0.0036153945
-0.022797769
0.012421355
0.022400817
-0.019717058
-0.09118357
-0.038334608
0.004720473
-0.026411107
0.0017685916
0.028152646
0.041882217
0.02074279
0.0042650714
0.035275545
-0.0013073131
0.015250831
-0.11504969
-0.028510325
0.033935778
-0.065866984
0.0032102766
0.05678788
0.019351216
0.017403604
0.0437294
0.0021559198
0.0047383267
0.051030915
0.0029920547
0.015823513
-0.09103734
0.013921047
-0.01475921
-0.025019873
0.034583353
0.059923667
-0.059326082
-0.018135149
0.123883344
-0.06991751
-0.0035687578
0.019990468
0.0024820985
0.103494816
0.048294924
-0.06614535
-0.04119846
-0.03298907
0.02807169
0.019321334
0.014580056
0.023014497
0.06688641
-0.0066203577
0.026062716
-0.00019945657
-0.0063192197
-0.059760027
-0.010772723
0.031894736
0.029940816
-0.08171554
-0.020714661
0.0074767307
-0.018646903
-0.02907931
-0.053174965
0.0029576903
0.019944541
-0.0015960755
-0.017627716
-0.015408371
0.039172146
-0.012059631
-0.091711715
0.010297162
0.008453061
-0.021066427
-0.029227955
-0.05327052
-0.009217629
-0.0033834935
-0.03094369
-0.01811319
0.01687207
-0.028881053
0.045432996
-0.00546842
0.033317942
0.01067237
0.010343603
-0.02050134
0.08222418
-0.18020129
0.03892582
0.034522418
-0.046338502
0.036699224
-0.013998373
0.0036816318
0.021259574
0.0045129834
0.011213224
-0.034021795
-0.0071151387
0.12214864
0.0056757084
0.001121434
0.015933536
-0.07098654
0.0014013759
-0.0027997238
-0.0034268438
0.0068092267
0.1276022
0.019651895
-0.022794759
0.029622993
-0.023564314
0.019376617
-0.016885629
-0.02857523
0.0025832385
0.013586216
-0.009772054
0.044284448
-0.004961702
-0.0153983785
-0.021627186
0.018359937
0.023684101
0.066170454
-0.095894724
-0.018050343
0.0049558915
-0.010923258
0.021101037
-0.027508272
-0.024734676
-0.04582856
-0.03418056
0.020179655
-0.015334754
-0.04647592
-0.0026157917
-0.0027458863
-0.042466
0.02533701
-0.21167769
0.014520888
0.01297276
-0.021174664
0.0116706025
0.052234165
-0.03256204
-0.03546343
0.00044024436
0.0030204295
0.017320937
0.02606819
0.029266275
0.0760039
-0.010123499
-0.011678435
-0.14070465
0.02797764
-0.022959426
-0.01827177
-0.03778246
-0.08550139
0.019113474
0.013604229
0.0103112245
-0.00056858896
0.053089265
-0.019999953
0.023686115
-0.0040965537
0.031620447
0.0327848
-0.008224633
0.07749593
0.01471492
-0.019870313
0.006360172
0.010021494
0.0049555968
-0.008050306
-0.03460002
-0.029474856
-0.005952045
-0.014368182
-0.11604045
0.052730028
-0.0066840537
0.048801478
0.013201056
-0.021593729
0.025870616
-0.022202848
-0.0041725314
0.008217791
0.051960934
-0.0041146236
0.027097339
0.033930324
-0.047730207
-0.026556795
0.009895484
0.013654143
-0.08542953
0.017590549
0.1026961
-0.010237528
0.006125892
-0.011196425
-0.016117603
-0.021195592
0.004629621
-0.06279832
0.014514566
0.021237532
0.016745392
0.045752518
-0.0029089062
-0.02773567
-0.27646866
-0.011298729
0.01916146
-0.0064607905
-0.006774851
0.054795086
-0.05144169
0.010847726
0.059721746
-0.00021456707
0.037065648
-0.01921942
-0.00872031
-0.019244071
0.0033498409
-0.0043183663
-0.029107828
-0.0585052
0.024383951
0.028270837
0.020234725
-0.022609912
-0.2112662
0.11592121
-0.029128041
8.707993e-05
0.011761543
-0.009727076
-0.021153731
0.010094642
0.039745864
0.01957154
-0.13669874
-0.07280738
0.056495816
0.038120817
0.011428147
-0.027915383
0.010143775
-0.027484745
0.0043948307
-0.02783031
-0.049822163
0.0040506497
-0.009783019
-0.025906751
-0.023163395
-0.04188988
-0.002434255
0.013342623
-0.02959605
-0.04736531
-0.08683832
0.0027849246
-0.04140367
-0.003227217
-0.063398026
-0.002580188
0.021028228
0.04749835
-0.0131552145
-0.00048176886
-0.027609061
0.0053388216
0.025588274
0.008723778
0.009726867
0.06942457
-0.0283458
0.0077101663
-0.009094291
-0.040858988
0.09336221
-0.059597638
0.035072234
0.010761064
0.031821012
0.010360426
0.032223452
-0.00866643
0.027442582
0.02365199
-0.016190756
0.0017403737
-0.0033147845
0.018458871
0.071431026
-0.027922645
0.030166492
0.051009092
0.042651415
-0.013226911
0.014696301
-0.017279575
-0.015963491
-0.029438548
-0.04125201
-0.018223654
0.17182636
-0.04777959
-0.012680026
-0.03218018
-0.014257281
-0.0020813632
-0.010807146
-0.011878613
0.023605669
-0.01870822
-0.03815818
0.0041267946
0.009579726
0.006751987
-0.012004801
-0.030352786
0.006237299
-0.0054506734
-0.042247426
-0.03519339
0.028222244
-0.08288689
0.020075887
-0.008814684
0.06859744
0.06362306
-0.04751758
0.017994381
-0.00850207
0.001443329
-0.012645726
0.012730071
-0.014257874
-0.0013063619
-0.02419022
-0.025930818
-0.039893385
-0.017238114
0.06976115
-0.089923166
-0.0020950248
0.0997775
-0.0138833225
-0.002395622
0.0011847853
0.024903541
-0.017337386
-0.037150912
0.046929765
-0.028362678
-0.0035945023
-0.0030069319
-0.0003963016
-0.03683459
0.0074677384
0.027422043
-0.010683662
-0.010934973
-0.007248914
0.014973523
-0.032314744
-0.040952645
-0.003163652
0.03847306
0.01766735
0.003244439
-0.0062479638
-0.035306748
0.018408401
-0.011817945
0.0013592681
-0.00042297944
0.14329381
-0.019752048
-0.069006994
-0.022667646
-0.031575132
-0.037712555
0.028664015
0.020702625
0.0143666705
-0.014198999
-0.03476158
-0.046133835
-0.008726832
-0.025165075
-0.03063825
0.10566857
0.045788307
0.08216182
-0.0069465037
0.039022915
0.015281281
0.017724134
0.008422895
0.006099978
0.0004910351
-0.029804386
0.0018749303
-0.0075481078
0.044931676
-0.13437924
0.020936819
0.007554627
0.005981239
0.11849943
0.003527917
0.0052176923
-0.025863152
0.053402305
-0.049151283
0.040854886
-0.022778032
0.027618121
0.0013626621
-0.007021798
0.026309777
0.002023365
0.023699624
-0.027170923
0.02801909
0.023062732
-0.010715327
0.039902728
0.019298937
0.028501252
-0.056897987
-0.012144025
-0.0032982356
0.008019906
0.025823973
0.014837234
-0.0021612889
-0.002924852
-0.0074739656
0.014286948
0.010750833
0.014697339
-0.06389464
0.022207206
0.036285706
-0.008905461
-0.0072936835
-0.05682437
-0.03894792
0.12592845
-0.011632856
0.0058531323
-0.006602726
0.023657775
0.032096166
0.031506494
-0.02039826
-0.038236476
-0.030843727
-0.071892194
0.034865025
0.08371619
-0.0035202976
0.021175615
-0.018885115
-0.011289049
-0.115923405
0.014021923
0.0018756058
0.006814833
-0.010168278
0.080862105
-0.0045684706
-0.019368785
-0.021299979
-0.04551299
-0.0012377726
-0.0054268045
0.0023757734
0.024499893
0.0057213637
0.017295258
-0.05865874
-0.06669473
0.01644128
-0.004994589
-0.01817757
-0.018753996
-0.016302368
-0.024759732
-0.05294499
0.050147466
-0.023179347
0.0013183344
0.0118921185
0.010332858
-0.009062958
0.02330401
-0.00077673007
0.008050178
0.0009415874
-0.14878367
0.10014139
0.0085049905
0.0036823945
-0.027639244
-0.008559961
0.01646923
-0.060524553
-0.009832399
0.007930351
-0.011893856
-0.048347455
-0.024634972
-0.030507825
-0.0066693737
0.021508142
0.007774727
-0.018485136
0.016273528
0.012506878
0.01561845
-0.030049693
0.06084186
-0.007396702
0.031042822
-0.015661703
0.0070814975
-0.03450672
0.03367864
-0.020862682
0.013830523
-0.0032394354
-0.042629354
0.0039140247
0.13872327
0.018423965
0.005457669
0.05027053
-0.036305625
0.014616052
-0.0010891414
0.013370867
-0.0045253886
-0.013738407
-0.01720863
0.042420093
-0.0025367092
0.08941474
-0.05716436
0.031542547
-0.016998077
0.004699794
-0.028765129
-0.014554642
0.05381817
-0.0042740656
-0.03209418
-0.0061436654
-0.045416743
-0.107377976
-0.032252405
0.054293636
-0.012213466
-0.006467417
-0.040922996
0.04587779
0.011595821
-0.0065917633
0.013317189
-0.0065309815
0.012836927
0.00406144
-0.02396562
0.0012762928
-0.068031065
-0.057812914
0.036231335
0.017313557
-0.009374619
0.02578451
0.011271471
0.014384597
0.04549791
0.034931973
-0.014849514
0.02785508
-0.029306425
-0.023192026
-2.3938066e-05
0.122348696
-0.0060521793
-0.0027729422
-0.040739935
0.018389536
-0.055726707
-0.049047735
0.07463185
-0.03372906
-0.04143554
-0.075352386
0.005242337
0.014797479
0.021548644
0.012645698
-0.0025763528
0.017335624
-0.024239654
0.034970656
0.03268553
0.0031423643
-0.020198796
0.026680648
0.019703493
-0.018068086
0.02767584
0.04786276
-0.011019667
0.024724508
-0.010129321
-0.0005038718
-0.026629183
-0.007590187
-0.0025543692
-0.026267808
-0.024068963
-0.0111444015
0.04312145
0.055028472
-0.02946521
-0.004423262
0.014067675
-0.03881771
0.0029056277
-0.07506387
-0.04441022
-0.023791632
-0.011890968
0.039428104
0.01579106
0.03948399
0.0062901853
0.006361205
0.019665342
-0.0825862
-0.0060945237
0.021452341
-0.008433859
0.05143045
0.005245232
-0.015355707
0.049108837
-0.0548722
0.03090767
0.050452873
-0.005413484
-0.03837189
-0.033676997
0.10730871
-0.035722975
0.054601613
-0.023598518
-0.044730943
-0.03711211
0.025186192
-0.00010801071
0.043275055
-0.08007523
0.026709475
-0.0054813526
0.011466822
-0.03396891
-0.03429791
-0.005484617
-0.09691291
-0.015777966
0.016331578
-0.0021711476
0.0075983815
-0.040341206
0.055265926
-0.04192447
-0.0023368024
0.008514525
-0.013139598
-0.009484855
0.034292903
0.010891156
0.006496117
-0.030055324
0.03191155
0.003566782
0.058756918
-0.009111422
0.007341487
-0.01875399
-0.066575654
0.024831656
-0.09416762
0.01326916
0.031146418
0.042001348
0.029506989
-0.027760588
0.03364713
0.025968483
0.007367871
-0.034162123
0.01864972
-0.0030938967
-0.06876148
-0.020079546
0.0020414519
0.0199316
-0.000794379
0.001301829
0.018584609
0.025286237
0.0017345903
0.047234803
-0.011429941
0.038083963
0.03230547
0.020348575
-0.00500574
-0.014437132
-0.014156052
-0.035203107
-0.0059639085
0.025441183
-0.0024918523
-0.010693445
0.055016566
0.008160176
-0.053141862
0.015386475
0.097192675
-0.06995862
0.1001186
0.0040867357
-0.0051931026
0.03912044
-0.047076773
0.037234418
0.029910972
-0.05302082
0.06585062
-0.12974529
0.020077737
0.010506495
-0.05165497
-1.5782946e-06
-0.00052245223
-0.07412243
0.0033933222
-0.020197082
0.046147406
0.057827722
0.021910856
0.102210924
-0.043267254
0.011285122
0.0020263982
0.0019010336
-0.07208411
0.00044715957
0.008276973
0.03205198
-0.062001046
-0.0074557993
0.038786978
-0.017901056
-0.036783524
-0.04094428
0.03541621
-0.0007599807
0.040205903
-0.015076017
-0.0072390214
-0.017551666
0.03265817
-0.036441706
-0.021915058
0.029763125
0.0026133303
0.019546896
-0.0094811395
-0.039943416
-0.011109643
0.0165692
-0.021958731
-0.055068567
0.05316766
-0.0027287693
-0.00929301
-0.0027509243
0.007816526
-0.0037812125
-0.0054204296
-0.048471604
-0.07788146
-0.025440332
0.031188868
-0.051243443
0.02957805
-0.003231495
-0.0037903646
-0.014365443
-0.009673477
0.020144297
0.03795956
0.04093382
0.040685274
-0.03249294
-0.0043033264
0.036231942
0.008130194
0.011701767
-0.09678957
0.009397416
-0.013631072
-0.044699166
0.005200961
0.03983512
0.06613652
-0.0048607327
-0.034278493
-0.029539611
0.0014534341
-0.0007072539
-0.024060082
0.008856807
0.047128234
0.030876514
0.011999889
-0.066978216
-0.046292115
-0.0064947866
-0.001678383
0.03767721
-0.05382954
0.0039871
-0.040955007
0.033217676
-0.044396866
-0.030371401
0.029702157
0.03127181
-0.032753877
0.040761765
0.07566813
-0.07060498
-0.02617181
0.032317203
-0.025637712
0.036595516
-0.00089436665
0.045329172
0.019369237
0.0016807311
0.043042675
-0.0005065618
-0.036429223
-0.039075702
0.026336199
0.02801857
-0.037063245
-0.05938095
0.0015403228
-0.039733063
0.096276656
0.04755233
0.018964183
0.054677702
-0.025331058
-0.027952354
-0.009308977
-0.019105902
0.0053490507
-0.023265442
0.013824803
-0.013985239
-0.025379615
-0.0019641663
0.019707913
-0.013617752
0.0018630683
-0.0679301
0.047154006
0.04978334
0.017010763
-0.020779995
0.00046968946
-0.024261646
0.012521017
-0.025974443
-0.03343763
0.011060862
-0.005723735
-0.05906757
-0.02186203
0.028187944
0.02279721
-0.016585087
-0.0071872077
0.0074046524
0.0066434755
-0.05124882
-0.026473837
0.04785027
0.07154687
0.012217842
0.0015319219
0.05178864
-0.02339988
-0.034680765
0.008600824
0.011581081
-0.0025976696
0.0016759083
-0.07984862
-0.007280755
-0.003982992
0.022648165
-0.0077066105
-0.00426228
0.02695149
0.08321495
-0.01881879
0.013094791
0.020846596
-0.022051554
-0.07007349
-0.047883336
-0.0030148763
-0.04431096
-0.023794912
0.011591795
-0.02525618
-0.058717787
-0.034755744
0.004681296
0.024529444
0.01302405
-0.03752302
0.034229152
0.03208988
0.008558622
-0.014720853
0.04113901
-0.012353122
-0.010459955
0.014005012
0.02315438
-0.03694373
-0.040623743
-0.065823525
0.012007219
0.021031354
0.0013204166
-0.019474825
0.02504657
0.056954205
-0.019896809
-0.008249843
0.013527472
-0.0014751207
-0.0075198463
-0.001762107
-0.08615317
-0.034163967
0.017912313
0.053205267
0.023158954
-0.021120097
-0.01262366
-0.010300661
-0.024823857
-0.04365416
-0.038282286
0.004972943
0.011584121
-0.018397111
-0.019834291
0.004961403
-0.0287951
-0.013530281
-0.017271662
0.007815127
0.02304389
0.040995985
0.022213168
0.00094593194
-0.029506993
0.07417196
-0.018163348
-0.0020783108
-0.025177874
-0.04021935
-0.00031547926
0.07016572
0.07336098
0.03423167
0.017786324
-0.000444677
-0.02000743
-0.032620803
-0.031030646
0.01938043
-0.021628898
-0.0042992327
0.0075491606
-0.005604577
0.019911299
0.0053527765
0.0011877099
0.0022027818
0.022932842
0.01704485
0.015144495
-0.0009262032
0.007993387
-0.042517647
-0.070182696
-0.05065275
0.011471734
-0.019037686
-0.013956141
-0.005869389
0.01441726
-0.015770465
0.02560758
0.006121268
0.01739028
-0.027449505
0.037134968
0.04132399
0.06537418
-0.041881923
-0.024171373
-0.017870912
0.022393193
0.07748622
0.034277618
-0.026428971
0.013457407
-0.02210912
0.01817078
-0.039227556
0.05745734
0.012178488
0.0021960498
0.0046254527
-0.034791462
-0.013655542
-0.016379574
-0.01658925
0.013030405
-0.03288802
-0.024996264
0.040810175
0.023183007
-0.017346378
0.012544852
0.0014846986
-0.037318844
-0.009286787
-0.039040573
-0.049209874
-0.01511017
0.036038674
0.097119406
-0.04546649
-0.029112719
-0.0049423547
-0.010143651
0.041740462
-0.005057673
0.012058639
-0.009274752
-0.10474881
0.10281361
0.034185447
-0.015412073
-0.016341737
-0.010902295
0.036645435
-0.004357651
0.023469307
-0.0058546043
0.095743716
-0.001754356
0.16070127
-0.07402258
0.04841582
0.068734944
-0.06126936
-0.06116314
-0.0063821874
0.035965335
-0.015486073
0.06481837
0.050983813
-0.017305808
-0.0540151
-0.2719422
-0.019451873
-0.0047934107
-0.0043834476
-0.00039972604
-0.018620161
-0.008958705
-0.0012986717
-0.097954944
0.0037405593
0.026341828
0.01931814
-0.0023184717
-0.0008351747
0.028596628
0.015273893
0.013487099
0.005872348
0.018985117
0.0061027217
-0.033688188
-0.037392743
0.0044710543
-0.028241396
0.039182533
0.033125713
0.016474778
0.038682844
-0.008555633
-0.100969285
-0.028363947
0.028203864
0.020745728
0.035145726
-0.0132369455
-0.013443827
0.012623505
-0.0031761108
0.016343191
-0.005303713
-0.03577152
0.009686884
0.037245154
-0.0039138757
0.021855699
-0.04500144
-0.020104371
-0.2735958
0.0040407493
-0.047068894
-0.03737297
0.029698648
-0.00948328
0.004961616
0.00701308
-0.03289319
-0.0032656651
-0.02077859
-0.0043555177
0.041181877
-0.026068972
-0.028641872
0.029061243
0.2900304
0.06371108
0.020312365
-0.07031065
-0.04291896
0.0187658
-0.026554512
-0.003014081
-0.013269382
0.006950555
0.033656016
-0.03004484
-0.006664698
-0.003133768
0.018325744
-0.029404672
0.013272988
-0.055681814
-0.030792769
-0.0073168273
-0.002202009
-0.013644705
-0.0075163664
-0.017427059
0.06649049
-0.015793845
0.0009421396
0.010934684
0.0034428784
-0.014790544
-0.023533832
0.018803738
0.004068293
-0.016827784
0.005603856
0.00302133
-0.0016874955
-0.033322033
0.028378787
-0.042787686
-0.025396347
0.044145178
-0.021717444
-0.064418785
-0.0185996
-0.006133587
0.028626107
0.00404304
-0.0370856
-0.017258449
-0.014553247
-0.0075501837
0.01632974
0.0016793419
-0.02712515
0.0035626704
0.029892903
0.09442677
-0.013968331
0.027772162
0.03352806
0.015872767
0.08659855
-0.029527359
0.025391582
0.0077912426
-0.0034009588
-0.0045790686
-0.015199627
0.017600514
-0.0142205125
0.01068641
0.008582805
-0.005367788
-0.046703584
0.023093948
-0.02028327
-0.00067792076
-0.009262563
0.061765365
0.022999346
0.006488214
0.023840856
0.028770799
0.091520414
-0.016963221
0.016172493
-0.021975424
0.028705798
0.01401326
-0.024079958
-0.028270992
-0.024209153
0.00019748407
-0.06080872
-0.019780178
0.00550188
-0.042857036
-0.010120147
-0.005117815
0.024610588
-0.037654195
0.0042225
0.0034940431
0.025605287
-0.04261136
-0.023526026
0.010429057
0.015351296
0.08461332
-0.036177866
0.0030790612
0.019198293
0.05163116
0.04255535
-0.0046739494
0.045406453
0.021348665
-0.032137215
0.089693755
0.0026255825
0.05091239
-0.055933166
0.011656736
-0.06215528
-0.05250152
0.06108767
-0.0051751113
-0.04126221
0.03285004
-0.10217829
-0.0037162644
0.006435068
-0.009997933
0.060732566
-0.076271884
0.011196818
-0.0071312943
0.007046124
-0.0005010917
0.0052333134
0.0213457
-0.018307805
-0.0017838817
-0.009194315
0.017942851
-0.004935996
0.059579927
-0.012761529
0.023989286
-0.013464736
-0.031229192
0.0147212325
-0.018999383
0.00031116678
0.049306743
0.06032667
0.02540401
-0.018009922
0.016842144
-0.038590018
0.0031003722
-0.04812952
-0.0031639007
0.015643883
0.0017008346
0.0024806885
0.01789789
0.025779752
0.003424483
0.022669107
-0.011078813
-0.024046924
0.021018272
-0.007620962
0.054122712
-0.04433921
0.077901274
-0.063131325
-0.0012953241
-0.08070969
0.0030284177
0.018172199
-0.016903326
-0.005680139
-0.02566213
0.015548244
-0.05971998
0.050988443
0.01416128
0.046721313
-0.002117644
0.010952928
0.024831625
-0.047088932
0.020699525
0.014697207
0.04804438
-0.12302893
0.054532554
-0.05218908
-0.11414311
-0.017872505
0.040850632
-0.012953578
0.017949577
0.013084709
0.044145063
-0.022789987
0.03932353
-0.00094132224
0.01785699
-0.0061131204
-0.014208415
-0.01531494
0.00014774744
0.023234235
-0.046360902
0.023196453
-0.02087359
0.13287292
0.038339693
0.019532807
-0.0031002732
-0.0020537002
0.025625035
-0.0017192104
0.06211612
-0.016871318
-0.03983277
-0.028025454
0.03127679
0.07775908
0.012876233
0.014659533
0.026826838
0.01341844
0.008385013
-0.17581455
-0.011267443
0.030483138
-0.009036022
-0.015841138
0.032896575
0.07536193
0.015717579
-0.00024072181
0.041569874
0.01155918
-0.03508625
-0.0077936477
-0.0013210125
-0.013986346
0.0017836263
0.011209328
-0.0104528405
0.028866986
0.015255031
-0.006227026
-0.0026717451
0.036561165
0.09510792
-0.015494331
0.014143458
0.017407706
-0.0936955
0.023387365
0.027610652
0.012102842
-0.0059458865
0.012651331
-0.0013568446
0.044732444
0.017872278
0.009003416
0.013424961
0.044224918
-0.009968901
0.011284282
0.016252434
-0.057642415
-0.013676868
0.06666315
-0.01201885
0.018387346
-0.015978377
0.044211768
0.007809872
-0.04008516
0.0052608117
0.054296233
-0.0059989914
-0.05953102
0.0103520015
-0.020888763
0.013047817
0.022428138
-0.0120445285
0.13783172
0.0039710314
-0.018502565
-0.004326424
-0.0090977745
-0.026355192
0.005947223
-0.02113181
-0.00055242726
-0.05208931
-0.018927861
0.04453838
-0.02251105
-0.03794601
-0.020697022
0.013590491
-0.04308116
0.040062197
-0.071032345
-0.050990622
-0.016402865
0.021468822
-0.028665617
0.0182437
-0.06742108
-0.03402467
0.014379306
0.009213364
0.032250926
0.043438952
-0.0085712485
-0.004111226
0.02175166
-0.026587397
0.016906977
-0.029161913
0.01633032
-0.021491697
-0.0036374945
0.017478837
0.0023395224
0.058579404
-0.2315362
0.02769036
-0.02345358
-0.027835662
-0.009479991
0.0116524035
-0.05116145
0.011702149
0.013808244
-0.003896318
-0.099122934
0.026067408
0.04037141
0.054074805
0.022153156
0.04521596
-0.019364953
-0.071301654
0.004594289
-0.017410861
-0.024435105
-0.016599981
-0.002389113
-0.0073293187
-0.023045229
-0.0048659896
-0.0030795617
0.021055525
-0.070933565
-0.03783276
0.01324232
0.025463492
-0.011930465
0.022467269
-0.02796311
0.010962054
0.021932581
0.03421288
-0.030197011
0.06322816
-0.005170786
0.043464947
0.0033917422
-0.034765765
0.0036957676
-0.023322497
-0.007697011
0.02099913
-0.0037992233
0.007014386
-0.008987614
0.00924408
-0.030077351
-0.00535856
0.014252186
0.0077381767
-0.023365803
-0.0070237666
-0.012394328
0.04338446
0.0056863315
0.029111668
0.011879808
0.07617224
0.007850916
0.04892912
-0.053576764
-0.039981402
0.01453469
-0.048696782
-0.04166564
0.017641611
0.030958671
-0.13125603
-0.011196661
-0.02022723
0.009029099
-0.045667443
-0.017035754
0.039363556
0.055119563
-0.03077246
-0.018966634
-0.031535093
-0.024034565
-0.0080388505
-0.021778379
-0.030222315
-0.11448297
-0.03617934
0.09187066
-0.041298967
-0.16144541
-0.0009964814
-0.09904756
0.016772069
-0.038424008
-0.012692979
-0.012706964
0.020549186
0.013763827
-0.014517974
0.007554145
-0.028345844
0.12031195
-0.04862748
0.10001376
0.025150869
-0.028478662
-0.011591722
-0.07063204
-0.050336424
0.0025838516
-0.006894294
-0.009871551
0.013587487
-0.021779187
-0.0006964323
0.012874159
-0.013644961
0.015095694
0.024984004
0.012487022
-0.0030401207
-0.012738932
0.06694658
-0.014990927
0.018342052
0.17546338
-0.046541333
0.0008609914
-0.05137569
-0.019112406
0.022791306
-0.036432914
-0.010397136
0.0018188114
-0.010278343
0.0009340748
-0.03092237
-0.007925466
0.038892806
0.049496297
-0.027910145
-0.02304194
-0.024869764
0.049726825
0.022435836
0.01242172
0.050120432
-0.106582075
0.03376055
-0.0649069
-0.047064625
0.031358644
0.03708704
-0.046670582
-0.046944555
-0.09474028
0.014437948
-0.0023404565
-0.005790054
-0.022995953
-0.011450631
-0.0159813
-0.09250378
-0.04779119
-0.029333994
0.11206234
0.075094275
0.027571429
0.026227934
-0.0009794171
0.044056695
0.0036241978
0.0035316579
0.005809285
0.017989665
-0.048282582
0.014745121
-0.030417819
0.0077721584
0.029372182
0.07822796
-0.052785054
0.040172126
0.018873211
-0.0026253168
-0.1598695
-0.01915639
0.11335541
-0.0085469065
-0.043766942
0.007166371
0.026593545
-0.006635318
0.0891362
0.025658442
0.030151432
0.0011626479
0.056643367
-0.040014528
0.027555456
-0.09492782
-0.007646461
0.032568295
0.054142438
-0.0011554655
0.05355078
0.04449188
0.050014183
-0.0034682842
-0.08957656
0.14580937
-0.020282306
-0.050749436
-0.07167769
0.004062136
-0.015754912
-0.007612852
0.0040060095
-0.0024020926
0.015111111
-0.04138504
-0.011615116
-0.012391422
-0.03443656
-0.068589814
0.012400752
-0.032935828
-0.012986533
0.05348233
0.017464947
-0.019117648
-0.022320542
-0.006072897
-0.014328532
0.026549699
0.055552203
-0.027878799
0.008913441
0.004415065
0.00052975555
-0.048985187
-0.04274045
0.035632405
-0.044875067
-0.041923493
0.010271195
-0.0067386655
-2.2511747e-05
-0.02409808
-0.050982386
0.009358322
0.050153755
-0.022454888
-0.022997025
0.017462676
-0.031999007
0.009379816
0.16807808
-0.028406538
-0.008389383
-0.11706675
-0.050330672
-0.0027312068
0.014561844
0.026011705
0.002452375
-0.09829177
-0.05320285
-0.02233933
-9.093354e-05
-0.0039025357
0.037063543
0.014159005
-0.0041586403
0.022198325
0.00011325131
0.014816929
-0.09120068
-0.1433824
0.010563524
0.055215307
-0.030798914
0.05127042
-0.05265947
-0.04063311
0.026905546
0.009496296
-0.018037433
-0.0042042974
-0.05202361
-0.06325142
-0.013292488
-0.0071389284
-0.018469224
-0.0114980955
0.0070139016
0.009890451
-0.0016573138
0.0064134784
0.04649296
0.048706573
-0.040062938
-0.04746965
-0.011212966
0.015547387
0.022805458
-0.013099128
0.060410302
-0.016165802
-0.026851576
0.026533207
-0.04049068
0.057293385
0.0017974167
-0.06684426
-0.025148869
-0.0051724715
-0.047175277
0.06470775
0.0014050441
0.0019709242
0.004700522
-0.007997868
-0.0066301282
0.023152543
-0.042735834
0.037730098
0.09871881
0.006958369
0.022939432
0.004101169
-0.033621214
-0.052794848
-0.038687114
0.0061542597
0.028012816
0.0050010583
0.00835889
-0.033701938
-0.0578667
-0.010235981
0.0033141784
-0.0148135945
-0.041967437
-0.0035048078
-0.0542234
-0.012149143
-0.07600365
-0.10885922
-0.02983359
0.00914868
-0.043399926
-0.07526466
0.015459042
-0.015378517
0.033109955
0.06728937
0.07732339
0.007940597
0.045394283
0.03603853
-0.024706127
-0.045250013
-0.015586426
-0.037908625
-0.038520455
0.02871707
-0.10742988
0.02768377
0.0021590968
-0.023270085
0.029592283
0.045902364
-0.041285485
0.073337406
-0.014793214
-0.013198275
-0.059566475
-0.020222329
0.031959765
-0.018157689
0.026115986
-0.013025716
-0.11620856
-0.016543912
-0.11446747
-0.023113713
-0.04737898
0.00028212
-0.11692903
0.015551982
-0.006396615
-0.0019228033
-0.03852897
-0.010824689
0.043505974
-0.03528063
0.0011266492
0.03926326
0.02316393
0.097291976
0.0037688313
-0.0141748935
0.011157334
-0.0033244293
0.0074685956
-0.025923494
0.023478072
-0.04898691
-0.00044358498
0.0008400757
-0.08413945
-0.019313158
0.042731777
-0.0834042
-0.005481283
-0.00037654664
0.029916393
-0.015502905
0.02684599
-0.006356238
-0.075717375
-0.025731573
0.20438372
0.05500328
-0.06148157
-0.054406688
-0.047920868
0.009987746
-0.026021186
0.011912143
0.023638453
0.057247557
-0.027157167
-0.004118063
0.014540196
-0.07503501
-0.016141266
-0.059140887
0.035647046
-0.07321574
0.018131878
-0.024996923
0.06671534
-0.0049905838
0.012364825
-0.049255896
-0.002511585
-0.061378706
-0.022246756
0.04966472
-0.037975024
-0.07299851
-0.042388406
-0.022866935
0.034747787
0.013904496
0.057606284
0.0027971328
-0.057582192
-0.017556552
-0.11623441
-0.002976089
0.0020699357
0.015072881
-0.02383685
0.02165903
-0.024573827
0.00084002945
0.035242792
-0.029482625
0.011171403
-0.13238394
0.03311718
-0.019772805
0.0061603454
0.036334768
0.0011964438
-0.0026188847
0.009907179
-0.029722836
-0.051999673
-0.020343484
-0.009785758
0.014504995
0.0073407986
-0.027955353
-0.012624797
-0.019856192
-0.018914543
-0.0051199575
-0.032188386
-0.039544635
-0.043569837
-0.05745085
0.03376833
-0.008384443
0.0013941472
0.0031146493
0.033446997
-0.007394913
-0.008553135
-0.015130341
-0.051775586
-0.007957877
-0.04729549
0.03835053
0.058987547
-0.023504512
-0.005527284
0.068876155
-0.031359266
0.06445298
0.060599107
0.00268586
-0.0057742195
-0.10452469
-0.012891452
-0.010647989
0.014800228
-0.066411875
0.010989525
-0.021470875
-0.02069162
0.026860371
-0.009528129
0.053643133
0.06593301
0.033850703
0.04526089
0.0026167955
-0.017503299
-0.0061916756
-0.101532646
-0.00029630525
-0.053120848
0.029656133
0.0095691085
0.062054355
0.050866377
0.021138014
0.01755302
-0.010038021
0.01892676
-0.024193024
-0.025219997
-0.011130072
0.03232664
-0.028523844
0.004274011
0.01322707
-0.0063691093
0.060682792
-0.10076708
-0.05107312
0.009750008
-0.004477016
0.012969173
-0.05094535
-0.013627758
-0.027781408
-0.010603289
-0.059643514
-0.027729638
0.016636278
-0.051116314
-0.013587004
0.042760637
-0.010594909
-0.014748144
0.020372864
0.009728493
0.0032248576
0.030057814
-0.026758816
-0.004074836
-0.0217869
-0.05103386
-0.040703494
-0.010100019
-0.076392345
-0.012786741
-0.015417084
-0.007688619
-0.00849203
0.022868915
-0.07225364
0.004315531
-0.04269974
-0.023798987
-0.012206833
0.027158156
0.05568845
0.021330733
0.023743572
-0.0076249004
0.011022502
-0.081727214
0.00037847468
-0.094174184
-0.016886372
0.14699128
-0.006404023
0.018281467
0.0052668173
-0.024362221
-0.024962716
-0.014927895
-0.0027525409
-0.009365208
-0.01680984
0.0389107
-0.010079664
-0.032632444
5.9359772e-05
0.08458414
-0.0073097083
0.009364555
-0.020812066
-0.00473617
-0.038476232
0.021560485
0.00079441356
0.0055281804
0.01129918
-0.02087828
0.0036527298
0.0137028275
0.051764
-0.020979771
0.0006798356
0.0032940302
-0.014652705
-0.05074581
-0.024334071
-0.032496504
-0.026866632
0.08870214
-0.01875223
-0.0074086324
-0.0007974518
-0.0065430924
0.0047380403
-0.02420095
0.020068256
0.016039297
-0.015434583
0.027531505
-0.011785665
0.008180502
-0.076322705
-0.01170487
-0.01043753
0.12065585
-0.0058964877
-0.010105716
0.031923845
0.040277593
-0.01294838
0.004290197
0.058459368
-0.023435432
-0.03146521
-0.033989493
-0.032209285
0.0031944173
-0.020018112
0.002367873
0.03644097
0.047508284
-0.03937089
-0.027662527
-0.0028001464
0.018812723
0.07587483
-0.026704218
0.0399629
-0.009757997
0.03465674
-0.063587785
-0.036288675
-0.03262203
0.026878327
-0.021839045
-0.014383118
0.029031903
0.02200553
0.009263198
-0.06572979
0.011656398
0.034604494
-0.020570789
-0.14136828
0.01271857
-0.023286024
-0.043080416
0.026672907
-0.013966532
0.044829223
-0.00018351704
-0.04797312
0.016721599
-0.0077296486
-0.04111878
0.08847385
0.27032092
-0.06763774
0.023388803
-0.014011708
-0.008220332
0.00020995282
-0.028931415
-0.004223302
0.008488655
0.06890852
0.11280573
0.0136176
0.06070202
0.0005341534
-0.012492276
-0.039284095
-0.033319574
-0.2529897
0.049071547
0.026827743
0.0059413793
0.009143809
-0.01791939
-0.026903816
-0.01663653
-0.01649064
-0.006605266
0.023706319
0.0042294124
-0.06877006
0.008525727
-0.049655028
0.023914132
0.0069092843
-0.008589048
-0.005833639
-0.0010671923
-0.05298688
-0.0003876233
-0.005592184
0.030543843
-0.05555735
-0.020473674
-0.018159412
-0.010527692
-0.017192228
0.0052138064
-0.028646057
0.024423692
0.012757987
-0.033887856
-0.020245977
-0.006839186
-0.026368981
0.0969963
0.018796582
-0.013474643
-0.015016729
-0.13382915
-0.016151516
0.016500445
-0.0150613235
0.03748754
0.042204615
-0.008468631
-0.054600477
-0.018615486
-0.00412128
0.022889402
0.0055448087
0.0019728024
0.014780486
0.091310404
0.01948013
-0.08702812
-0.010779429
-0.019564971
0.020185012
0.01151035
0.016858434
0.01149203
-0.00546929
-0.034296382
0.008507358
-0.0056600356
0.03923223
-0.012146863
-0.03994702
-0.06468057
0.05273333
-0.01664704
-0.061197113
-0.031828232
0.00791504
0.016222853
0.0007824208
0.0234471
0.023374889
0.011577428
0.013059608
0.03657013
-0.022216614
0.03585908
0.004083204
0.013267092
-0.010898945
0.0024784503
-0.07755647
0.0010488848
-0.0483491
0.016458973
0.037338722
2.9285278e-05
-0.06804693
-0.003729574
-0.07763483
0.0007201965
0.0362723
0.055720136
-0.0070674676
-0.003228024
-0.015741922
0.04804517
0.02554042
-0.011470876
0.026944818
0.019010562
-0.017026264
-0.014841088
0.0132567715
0.021876846
-0.010999618
-0.036564134
0.025283545
0.014109129
0.01639609
-0.043556854
0.020273589
0.07755813
-0.00852142
-0.03091328
-0.025367023
-0.001999465
-0.025188835
-0.036060136
0.009797202
-0.021640437
-0.063769884
0.013553007
-0.040134676
0.018137721
0.007243707
-0.009614686
0.009340158
-0.018027505
0.049196497
0.038789183
0.0035171495
-0.013302103
0.045507003
-0.021587135
0.013710379
0.003875051
-0.029925024
0.0056090597
0.008811068
0.010912002
0.042749032
0.00071622955
0.0024581335
-0.002339349
0.04205573
0.0066293166
-0.0034754293
-0.03860424
0.008048844
0.027836608
0.06273504
-0.06388242
-0.0053266254
-0.01690058
0.00071803934
0.025370706
-0.021445172
-0.035762634
0.0027975547
-0.11123184
-0.064535014
-0.021654999
-0.0043904623
-0.00398512
0.013964102
-0.053163543
0.00038850945
0.040296383
-0.070992485
-0.020694792
-0.024244647
-0.06780672
-0.048278928
-0.026243152
0.011825706
0.029997133
-0.022219772
0.009493975
-0.016360708
-0.0056938305
0.0052591404
-0.009865622
-0.038433805
-0.019919401
0.006054581
-0.00628676
-0.087660566
-0.012825436
0.012583553
-0.0008672942
0.0082901865
-0.023489647
-0.047785636
0.023389243
0.06522561
-0.0085445335
0.010869248
0.040041015
0.031169977
0.03413744
0.02446871
-0.007799646
-0.084727995
0.080045834
0.0121771945
0.03373225
-0.016812887
-0.012437895
0.005915968
0.033125047
0.030376969
0.0010623618
0.05310266
-0.052872725
0.0065248674
-0.0043328176
-0.03559267
0.008764062
-0.08453529
-0.04725284
0.02925893
-0.01277494
0.002786687
-0.012244131
0.03216566
-0.15935816
0.12031953
0.027785728
-0.03935198
-0.038868394
-0.043160602
0.0061952393
-0.037939902
-0.010214901
0.02283771
-0.0055185463
0.025864672
-0.04405075
0.08548897
-0.040747613
0.012807411
-0.017899286
0.009784403
-0.027214285
-0.010215174
-0.0045196135
-0.0004601633
-0.031047152
0.0036805426
0.031156797
0.0034186807
0.0097246235
0.07488765
-0.044379026
0.03390868
0.04423986
-0.055927604
-0.013968854
-0.021924943
0.048484348
-0.00051974243
0.022069184
-0.007051149
-0.0068775425
-0.0060521616
0.05206285
-0.049599435
-0.016050918
-0.02275044
-0.026333915
-0.04196591
-0.066935636
-0.014016524
0.041610647
0.011492906
-0.0008254377
0.040006895
0.022839738
-0.031018125
0.0040689944
-0.06611601
-0.008746983
0.09313872
-0.02545187
-0.004538925
-0.051209766
-0.015390192
-0.044288754
-0.021894094
-0.0021935056
0.0013855962
-0.025151912
-0.14046413
0.015793845
0.061347276
-0.006235393
-0.113700144
-0.012083922
-0.02145952
0.03074549
-0.0034349523
-0.10755622
-0.047893334
0.017616
-0.020296682
0.022953277
0.0030047959
-0.0049637104
-0.008504052
0.027716015
0.0054023354
0.010808692
-0.02500121
-0.013274187
-0.06294918
0.0343045
0.07696915
0.004363361
0.00232923
-0.0060397075
0.0026804004
-0.00658234
0.07770943
-0.011200547
0.014369457
0.010958625
0.029387213
-0.0122978715
-0.0036680158
0.0057079536
0.027620438
0.03686796
0.07650638
-0.057203833
-0.010649331
0.0153666865
-0.010513055
0.055068433
-0.029600494
0.034656063
0.024337968
0.015598355
-0.05066855
-0.0413588
0.036593292
0.0106851
0.008678263
-0.021551404
-0.027727785
-0.008817768
-0.017816946
0.061851174
0.028913716
0.015275777
-0.0077616964
-0.037564322
0.015141755
0.020122835
-0.05844785
0.05275904
0.00346236
0.030825885
-0.008441055
0.008367973
-0.03161473
-0.009919529
-0.05054657
0.057495564
0.022178067
-0.0066886516
-0.022763064
-0.0634281
-0.019862756
0.053946115
0.0031209667
-0.03065523
0.0088459
-0.008888932
-0.015500428
-0.0034458325
-0.059195105
-0.059193384
-0.04911445
-0.16341834
-0.0012837657
0.062424455
0.008475302
0.07664348
0.008438304
-0.039754294
0.03313389
-0.046146695
0.0081877895
0.008483655
0.03045235
0.10151055
0.039668437
0.021516204
0.11437703
-0.0170769
0.010225498
0.042711485
0.0145536475
0.0076051196
0.02312722
0.00092950294
0.069540486
-0.007931868
0.08263925
-0.024534993
0.024220033
-0.05843027
-0.038311575
-0.005925015
0.012206044
-0.0277153
0.0040142816
-0.0070028612
0.037271924
0.047804773
0.028148897
-0.03847867
0.0033936822
-0.016880447
-0.008935131
-0.013610802
0.015060919
-0.006957273
0.037768446
0.026754053
0.01447281
-0.0004828865
0.039039373
-0.030907622
-0.0010789541
0.0031559302
0.0022099386
0.011594
-0.016082192
-0.018864922
-0.00764058
0.027335292
-0.0016806766
0.08441946
0.07931606
0.054372277
-0.012923284
-0.03312163
-0.07504286
0.0407569
0.019199876
-0.036046226
-0.0013134942
0.00017860123
0.029339263
-0.13071163
0.030089937
-0.029205361
-0.058061115
-0.020523822
-0.054341733
0.0678301
0.17996512
0.0043708663
-0.0028750526
0.031640984
-0.029745458
0.06997808
0.0012259245
-0.005541149
-0.017115286
0.0018130444
-0.0035276178
0.024596713
0.020068007
0.016564868
0.0038605228
0.07577646
0.022903899
0.102497764
-0.035214197
0.018367445
0.04717319
-0.011518332
0.033016104
0.032750584
-0.018322874
0.00218129
0.022585448
0.012951882
-0.015905814
-0.024475882
-0.08416845
0.017883798
-0.0113616595
0.026762253
0.044599358
0.023242468
-0.011325004
-0.01122457
0.02650702
0.014107158
0.007824631
0.0036659122
-0.032982785
0.010960697
0.013939115
-0.08123415
-0.00965265
-0.008458063
0.025547666
-0.01837816
0.036987007
0.019251766
0.010741915
0.039051384
-0.042582575
0.0012435659
0.018285254
0.022758111
-0.06717827
0.004006604
0.039422885
0.012679263
0.0036870593
-0.05637597
0.044128105
-0.033689693
0.0009018144
-0.023853928
-0.0012434536
-0.026554273
0.030606376
0.05341699
-0.03669633
0.0010001675
-0.014884304
-0.020733586
-0.0043555456
-0.0024129583
0.019230649
0.025464067
0.0014455467
0.055157658
-0.05829678
-0.013077321
-0.05054893
-0.014655167
-0.056540567
-0.027485613
0.03649896
-0.03755482
-0.031534217
-0.023113701
0.0049069813
-0.023871653
0.0028622365
-0.02833652
-0.0070954473
0.002330124
-0.06769798
0.067808434
-0.018541222
0.020069038
-0.026770277
0.00457747
-0.031322334
0.0005160999
-0.023633271
-0.019023336
-0.043946087
0.07276662
0.0013501025
-0.02800665
-0.0355914
0.046208695
0.017826844
-0.029850956
-0.021550944
-0.0083206585
-0.0078979395
-0.013656907
-0.03858784
-0.08473341
-0.013156098
-0.012913447
0.017503986
0.029860789
-0.027606824
0.018346613
-0.034613166
0.03684167
-0.052164473
0.031808693
0.0042236387
0.010380215
0.03645247
0.058526278
-0.0013617023
-0.009570369
-0.01088488
0.0014723053
0.059582517
-0.0119664455
0.028884504
-0.050629277
-0.020856308
0.0063311695
-0.047231108
0.02715646
-0.024262669
0.01606843
0.0052429377
-0.024983777
-0.015834993
0.029964954
-0.04623886
0.037517782
0.0037475247
-0.0046683135
0.028774492
-0.014388189
-0.0074991807
0.06674076
-0.046727996
0.02015649
-0.009820443
-0.03202184
-0.050506096
-0.013942089
-0.058202136
0.026771385
-0.013197714
-0.0039202804
0.0034494393
-0.02138805
0.0051549654
0.02091101
0.04898969
0.021766106
0.04494889
0.023570491
-0.013499601
0.011854739
0.01600447
-0.040405545
-0.010232556
-0.008430317
0.0824577
0.008557503
-0.0023839674
0.040767454
-0.02813711
0.023385024
0.004280368
0.065565415
0.0032359124
-0.0056448304
-0.03654613
-0.027418986
-0.07816684
-0.068461515
0.0010961284
0.019142574
-0.025393993
-0.017128287
0.024859333
-0.0036459407
0.010007446
-0.074061595
0.004146418
-0.00023809072
0.03440936
0.0051079555
-0.04267473
0.018756486
0.023191165
-0.043098766
-0.035608143
-0.030016119
0.0068148365
-0.048254743
-0.081202276
0.015575052
0.04449068
-0.06256287
-0.0065703546
0.002120329
-0.03863295
-0.017972413
-0.009996429
-0.036207758
-0.0135091655
0.0424568
0.020546878
0.012965632
0.014898353
-0.0033884
0.05423052
-0.028942753
0.0005498178
-0.03682751
-0.0032819363
-0.014468599
0.02043092
0.07222452
0.018645592
-0.004077569
-0.032207865
-0.031847652
0.051414106
0.029614983
0.023072146
0.054142717
0.026184298
-0.024596766
