8.8708405e-14
7.6082356e-14
-1.5498602e-14
1.03668105e-13
8.622014e-14
2.1999031e-14
1.1898243e-13
9.492695e-14
1.0366809e-13
1.0532149e-13
1.02022754e-13
2.5259973e-14
1.2103557e-13
9.281509e-14
2.3131235e-14
9.3816034e-14
9.448344e-14
1.1442229e-13
7.766309e-14
8.043608e-14
-1.6161958e-14
9.732016e-14
4.8670466e-14
-3.5289632e-14
1.1893847e-13
6.924464e-14
1.1730134e-13
0.31112927
0.4216216
0.16679373
0.42680973
0.5274055
0.20868027
0.1641906
0.14359209
0.032861054
-0.34860334
-0.44752517
-0.10723174
-0.4843751
-0.67955214
-0.2840715
-0.09607768
-0.19299151
-0.019027634
0.028463194
0.08175299
-0.057745837
0.06143881
0.22112717
0.087097146
-0.09393488
0.04915147
-0.034734577
0.011977226
0.004522875
0.029875593
-0.41612834
-0.2457719
0.04885351
0.28753167
0.22833996
-0.020166598
0.039952237
0.055260953
0.0041616675
-0.5448947
-0.26627198
0.06641609
0.3395807
0.23425739
-0.04559527
-0.06562997
0.0002253057
0.00044839745
-0.24986364
-0.07314628
-0.00092757953
0.21845984
0.15481873
-0.04019733
1.6561485e-13
1.2105699e-13
2.5917026e-14
2.0039065e-13
2.0733618e-13
9.096225e-14
-9.564068e-15
1.0068163e-13
1.2932034e-13
1.4425275e-13
7.996027e-14
-1.7484402e-14
1.8229298e-13
1.5608421e-13
4.0869868e-14
1.0117338e-14
7.853455e-14
7.67784e-14
1.0557229e-13
2.6155236e-14
-4.2821744e-14
4.279134e-14
2.8826584e-14
5.3499194e-15
-1.3044523e-13
-8.5169325e-14
-3.386352e-14
1.6750715e-14
9.7354104e-14
9.6355934e-14
2.4356024e-14
7.264431e-14
6.872081e-14
-3.27279e-14
4.4016237e-14
4.2298877e-14
5.9176087e-14
9.1601124e-14
1.0534284e-13
6.5444e-14
1.0140817e-13
7.0206766e-14
1.9292766e-14
7.514018e-14
7.585307e-14
5.2242448e-14
7.8509756e-14
1.1956517e-13
3.9355912e-14
6.445548e-14
7.139286e-14
8.40329e-15
4.3058e-14
7.151738e-14
0.23118435
0.4192009
0.18715677
0.11025055
0.43452018
0.22988918
0.0086776065
0.14835735
0.09569323
0.1675458
0.2724972
-0.008162439
0.27176508
0.44235304
0.07144202
0.09475448
0.11863062
-0.09518712
-0.36254972
-0.5083107
-0.13092962
-0.41613197
-0.69947547
-0.3074207
-0.12760077
-0.2681072
-0.070352316
-0.23273763
0.012924709
0.12134656
-0.50894195
-0.096213885
0.08728304
-0.15471728
-0.057214104
-0.048353147
-0.11397432
-0.012352122
0.04593294
-0.46317697
-0.1161323
0.066544496
-0.12890776
0.0038947603
0.027964976
-0.2632119
-0.051863953
-0.015698267
-0.36160442
-0.11018083
0.031711716
-0.19887432
-0.05379419
0.08134947
-0.29691148
-0.38010815
0.10469067
-0.020072302
-0.36248034
-0.1075744
0.2248935
-0.11224531
-0.19259785
0.096464515
0.29317364
0.0761692
-0.3155312
0.010233225
-0.03697424
-0.19127446
0.018197065
0.107249066
0.2310605
0.3197952
-0.15450098
0.25419658
0.4848633
0.036100443
-0.11477169
0.10478745
0.098397784
-4.329539e-15
1.0367306e-13
9.3453755e-14
9.966783e-14
1.0569442e-13
7.004891e-14
1.201793e-13
9.351244e-14
1.2971401e-14
8.523405e-15
1.5958708e-13
1.0332769e-13
1.18549e-13
1.5660846e-13
1.0039001e-13
1.3445264e-13
1.310534e-13
5.940113e-14
8.397246e-15
1.22129e-13
7.1929747e-14
7.2070374e-14
1.2506436e-13
6.9358866e-14
1.237863e-13
8.283245e-14
2.2349185e-15
0.08210836
0.11829779
0.09808158
0.14186685
0.2885
0.24244176
0.09457628
0.22168761
0.18777838
-0.18784899
-0.43332383
-0.29982528
-0.40445998
-0.62314254
-0.47800505
-0.2930373
-0.4820133
-0.2503695
0.16170728
0.28828117
0.16834691
0.2681034
0.35891175
0.22909194
0.11148864
0.19956787
0.1804652
0.37905893
-0.49567616
0.122555874
0.490789
-0.8717699
0.18276337
0.26506123
-0.42829108
0.18494572
0.37525654
-0.42222556
0.09177608
0.3871486
-0.8764748
0.27799913
0.124789216
-0.3486867
0.24020754
0.28164673
-0.2952675
-0.012335313
0.2642101
-0.4559722
0.06820609
0.09026071
-0.2706845
0.17369524
9.350787e-14
6.722631e-14
7.809234e-14
8.3355855e-14
6.812658e-14
1.2043105e-13
1.1783493e-13
9.7448024e-14
1.19919e-13
1.1994138e-13
7.922168e-14
8.8613036e-14
8.786966e-14
7.411574e-14
9.6422057e-14
1.0214303e-13
1.0579088e-13
1.0352686e-13
6.950972e-14
3.927938e-14
7.151739e-14
8.5296414e-14
5.2925546e-14
7.8891293e-14
9.744804e-14
8.105015e-14
9.1470885e-14
0.14588153
0.18962495
0.03510786
-0.08925681
-0.46973687
-0.330398
-0.05472614
-0.09375229
0.13225801
0.14551947
0.17619802
0.06656504
-0.049875338
-0.41062725
-0.27927706
-0.010398862
-0.07462645
0.1247874
0.057670653
0.0076198294
0.018993208
-0.109896705
-0.21818632
-0.049084052
-0.00849645
0.01853987
0.031450815
0.15807691
-0.25099158
-0.04343867
0.4748492
0.25028354
0.07688907
0.04763683
-0.29452968
-0.07630406
0.18671179
-0.31091666
-0.05914604
0.4645295
0.31530368
0.042078763
7.7113145e-05
-0.2786921
-0.03979685
0.0017267038
-0.119960584
-0.14288051
0.29262635
0.20027266
0.10355145
0.044819
-0.09869715
-0.042690147
-0.0016675398
0.054506723
0.051834542
-0.031299833
-0.12132583
0.109141976
0.038455535
-0.4990933
0.20087722
0.015366992
0.09392922
-0.024754966
-0.027440552
-0.08430378
0.101733424
0.12102131
-0.44141784
0.22974394
-0.00059603807
-0.02384684
-0.027188374
-0.0033308999
-0.09563795
0.023473391
0.046497047
-0.27352136
0.124633275
4.563194e-05
4.5278422e-05
4.6240526e-05
4.4559856e-05
4.4764733e-05
4.6175963e-05
4.5579694e-05
4.5016233e-05
4.6306293e-05
4.6036937e-05
4.4752076e-05
4.6157784e-05
4.4106826e-05
4.383029e-05
4.5841898e-05
4.617322e-05
4.5276352e-05
4.6457008e-05
3.5929857e-05
3.47489e-05
3.6647492e-05
3.403654e-05
3.415507e-05
3.596791e-05
3.598125e-05
3.454786e-05
3.636731e-05
-5.144347e-13
-3.7155858e-13
4.9365605e-15
-4.6070174e-13
-6.2622715e-13
9.704022e-14
8.8701934e-14
-1.4522637e-13
5.294401e-13
-5.778726e-13
-4.810878e-13
-2.4044623e-13
-5.4766543e-13
-7.795842e-13
-1.7344309e-13
-1.2003117e-13
-3.9068618e-13
1.9198164e-13
-3.4949842e-13
-1.5576197e-13
5.333086e-14
-3.3384293e-13
-4.613069e-13
1.2292793e-13
5.109936e-14
-1.4211939e-13
4.264731e-13
-0.18562786
-0.40618202
-0.27259582
-0.4344831
-0.60323805
-0.40063968
-0.17504883
-0.26548246
-0.104874864
0.07300555
0.05830505
0.0056408565
0.11634904
0.08891407
0.027692929
0.10446959
0.055044636
0.0050588744
0.13640098
0.37267143
0.27367947
0.32378757
0.5145168
0.3612483
0.10322854
0.2356213
0.12792741
0.4043025
0.32569864
-0.055623833
0.26149872
0.13117628
-0.09663078
0.021852428
-0.021586368
0.022578329
0.39007178
0.2678936
-0.06030425
0.29502085
0.1537765
-0.0924354
0.0021230117
-0.01694053
-0.0010023615
0.26656458
0.17109638
-0.018173356
0.155881
0.072035976
-0.0137886265
0.019517967
0.0038564422
-0.03065268
-0.2567814
-0.52381563
-0.10475587
0.011670377
-0.26078495
0.015499557
0.10563504
-0.07619641
0.029474331
-0.18416332
-0.50747746
-0.062384292
-0.017545395
-0.20869394
0.00135604
0.07318279
-0.013837951
0.025784196
-0.16946122
-0.24842289
-0.1274153
0.040523063
-0.086506024
0.02752245
0.052429784
-0.048934657
0.03353913
1.2743695e-13
1.1387374e-13
1.2686172e-13
1.1706063e-13
1.2638547e-13
1.208793e-13
1.2771415e-13
1.257803e-13
1.0675049e-13
1.0220435e-13
1.0452763e-13
9.3708366e-14
1.0544094e-13
1.2638547e-13
1.1797274e-13
1.03410004e-13
1.3390901e-13
1.3445262e-13
6.71956e-14
9.120018e-14
7.512949e-14
8.847561e-14
1.0414195e-13
1.1949088e-13
7.21066e-14
1.2453211e-13
1.06410486e-13
8.860996e-15
8.610503e-14
2.5723642e-14
2.6175642e-14
7.0291503e-14
6.1137876e-14
1.2615831e-14
6.800067e-14
2.5514008e-14
-7.120297e-15
7.8208226e-14
5.1698758e-14
3.6535208e-14
7.932503e-14
6.8940845e-14
9.035398e-15
7.225468e-14
3.5925507e-14
-3.9686495e-14
3.962427e-14
-2.0644817e-15
-3.734605e-15
5.3002575e-14
1.3258253e-14
-3.8943746e-14
2.5412383e-14
-2.640535e-14
-0.060868405
-0.072578706
0.15705307
-0.3410561
-0.40446517
-0.041412096
-0.084941804
-0.054120578
0.1314568
-0.29543576
-0.26731062
-0.27640066
-0.21846066
-0.2068451
-0.19991063
-0.18215132
-0.16259535
-0.24545775
0.35267183
0.3416822
0.12242348
0.539072
0.58027375
0.25689858
0.30984572
0.22562665
0.06285707
0.28022775
0.06561112
0.063211046
0.16323224
-0.54598755
-0.14860642
0.15604228
0.16039479
0.033506986
0.27715078
0.09226493
0.09526374
0.17512664
-0.63159275
-0.14619431
0.11354316
0.24357718
0.00091700425
0.22040349
0.07503427
0.12765849
0.018629203
-0.25392592
-0.17169927
0.074580744
0.11655269
-0.02446158
0.0011305095
0.001360171
0.0017048357
0.0020122195
-0.0012767708
-0.0035697697
0.0013409605
0.0011689482
-0.002130112
0.0020202347
0.0029409444
0.0035211705
0.0045924196
0.0019631358
0.0013046851
0.0069077895
0.0073544434
0.0048518744
0.0073936004
0.0074607288
0.0071482076
0.008425258
0.005214169
0.0039509106
0.010131011
0.009809653
0.00709982
0.0020098998
-0.51085156
-0.2716472
0.10346505
0.15817116
0.12040053
0.03859406
0.008905344
-0.013953545
0.10006173
-0.5111418
-0.30776522
0.04434882
0.24698943
0.11992824
-0.018451218
0.018257434
-0.01616338
0.039094124
-0.27238557
-0.22841623
0.038916916
0.13082995
0.06565755
-0.019463403
0.017176066
0.0056444397
0.30109543
0.33301663
0.259861
0.7044758
0.6486376
0.38991153
0.45914668
0.42973113
0.20270927
-0.15469462
-0.13372186
-0.08784556
-0.3317022
-0.2989868
-0.16168828
-0.23604283
-0.05778153
0.021819107
-0.103344165
-0.22551328
-0.1543834
-0.31940842
-0.5057221
-0.30967692
-0.25401473
-0.3373911
-0.15793434
-0.17106622
0.3462777
-0.27252558
-0.08517307
0.3834082
-0.50852084
-0.02508209
0.2357745
-0.087815866
-0.09923872
0.37851056
-0.25740007
-0.05060444
0.4054827
-0.5655991
0.027316935
0.14317866
-0.019299813
-0.0504917
0.24810292
-0.1670924
-0.041875117
0.16654521
-0.28201428
0.00523197
0.11189105
-0.010550354
-0.5654585
0.037734926
0.1503898
0.29821008
0.07061961
-0.031695027
0.31076565
-0.16184992
-0.115230165
-0.6011984
0.1336871
0.13818878
0.38349533
0.022195058
-0.054692153
0.23107466
-0.17853785
-0.069216214
-0.23229085
0.016764749
0.0010008826
0.1892028
-0.004176348
0.025576552
0.09665862
-0.026206855
-0.07006454
0.26268846
0.2767041
0.03429748
0.607998
0.6757205
0.28876045
0.32374373
0.31062287
-0.03222318
-0.3685733
-0.2998898
-0.19434738
-0.49120352
-0.41285992
-0.26206222
-0.3381186
-0.24168745
-0.15804432
0.09490609
0.03594954
0.15393814
-0.1259513
-0.24718845
-0.05082559
0.015289448
-0.06585914
0.17283396
-0.40154222
-0.090008914
0.06746028
0.57089746
-0.027020847
-0.16395609
-0.19707158
0.10603707
0.09828125
-0.26007628
0.07720902
0.16597724
0.3700227
-0.22643085
-0.26763386
-0.1543283
0.16791075
0.10533265
-0.030726876
-0.008445124
-0.021744383
0.21480976
-0.020125626
0.018899336
-0.15893048
0.040401965
0.0030072625
-0.0025017948
-0.00050041126
-0.002890327
-0.00027937556
0.0005201676
-0.002659253
0.004182123
0.0060769375
0.0013636954
0.00056919415
0.0029589143
0.0010266524
0.0016561727
0.0026638072
-0.000247744
0.00571316
0.0074328575
0.003847219
0.000871661
0.0020734433
0.00066028035
-0.0001065227
7.774005e-05
-0.0025421253
0.002259345
0.003264441
9.387617e-05
