8.87084e-14
7.60824e-14
-1.54986e-14
1.03668e-13
8.62201e-14
2.1999e-14
1.18982e-13
9.49269e-14
1.03668e-13
1.05321e-13
1.02023e-13
2.526e-14
1.21036e-13
9.28151e-14
2.31312e-14
9.3816e-14
9.44834e-14
1.14422e-13
7.76631e-14
8.04361e-14
-1.6162e-14
9.73202e-14
4.86705e-14
-3.52896e-14
1.18938e-13
6.92446e-14
1.17301e-13
0.311129
0.421622
0.166794
0.42681
0.527406
0.20868
0.164191
0.143592
0.0328611
-0.348603
-0.447525
-0.107232
-0.484375
-0.679552
-0.284072
-0.0960777
-0.192992
-0.0190276
0.0284632
0.081753
-0.0577458
0.0614388
0.221127
0.0870971
-0.0939349
0.0491515
-0.0347346
0.0119772
0.00452287
0.0298756
-0.416128
-0.245772
0.0488535
0.287532
0.22834
-0.0201666
0.0399522
0.055261
0.00416167
-0.544895
-0.266272
0.0664161
0.339581
0.234257
-0.0455953
-0.06563
0.000225306
0.000448397
-0.249864
-0.0731463
-0.00092758
0.21846
0.154819
-0.0401973
1.65615e-13
1.21057e-13
2.5917e-14
2.00391e-13
2.07336e-13
9.09623e-14
-9.56407e-15
1.00682e-13
1.2932e-13
1.44253e-13
7.99603e-14
-1.74844e-14
1.82293e-13
1.56084e-13
4.08699e-14
1.01173e-14
7.85346e-14
7.67784e-14
1.05572e-13
2.61552e-14
-4.28217e-14
4.27913e-14
2.88266e-14
5.34992e-15
-1.30445e-13
-8.51693e-14
-3.38635e-14
1.67507e-14
9.73541e-14
9.63559e-14
2.4356e-14
7.26443e-14
6.87208e-14
-3.27279e-14
4.40162e-14
4.22989e-14
5.91761e-14
9.16011e-14
1.05343e-13
6.5444e-14
1.01408e-13
7.02068e-14
1.92928e-14
7.51402e-14
7.58531e-14
5.22424e-14
7.85098e-14
1.19565e-13
3.93559e-14
6.44555e-14
7.13929e-14
8.40329e-15
4.3058e-14
7.15174e-14
0.231184
0.419201
0.187157
0.110251
0.43452
0.229889
0.00867761
0.148357
0.0956932
0.167546
0.272497
-0.00816244
0.271765
0.442353
0.071442
0.0947545
0.118631
-0.0951871
-0.36255
-0.508311
-0.13093
-0.416132
-0.699475
-0.307421
-0.127601
-0.268107
-0.0703523
-0.232738
0.0129247
0.121347
-0.508942
-0.0962139
0.087283
-0.154717
-0.0572141
-0.0483531
-0.113974
-0.0123521
0.0459329
-0.463177
-0.116132
0.0665445
-0.128908
0.00389476
0.027965
-0.263212
-0.051864
-0.0156983
-0.361604
-0.110181
0.0317117
-0.198874
-0.0537942
0.0813495
-0.296911
-0.380108
0.104691
-0.0200723
-0.36248
-0.107574
0.224893
-0.112245
-0.192598
0.0964645
0.293174
0.0761692
-0.315531
0.0102332
-0.0369742
-0.191274
0.0181971
0.107249
0.231061
0.319795
-0.154501
0.254197
0.484863
0.0361004
-0.114772
0.104787
0.0983978
-4.32954e-15
1.03673e-13
9.34538e-14
9.96678e-14
1.05694e-13
7.00489e-14
1.20179e-13
9.35124e-14
1.29714e-14
8.52341e-15
1.59587e-13
1.03328e-13
1.18549e-13
1.56608e-13
1.0039e-13
1.34453e-13
1.31053e-13
5.94011e-14
8.39725e-15
1.22129e-13
7.19297e-14
7.20704e-14
1.25064e-13
6.93589e-14
1.23786e-13
8.28324e-14
2.23492e-15
0.0821084
0.118298
0.0980816
0.141867
0.2885
0.242442
0.0945763
0.221688
0.187778
-0.187849
-0.433324
-0.299825
-0.40446
-0.623143
-0.478005
-0.293037
-0.482013
-0.250369
0.161707
0.288281
0.168347
0.268103
0.358912
0.229092
0.111489
0.199568
0.180465
0.379059
-0.495676
0.122556
0.490789
-0.87177
0.182763
0.265061
-0.428291
0.184946
0.375257
-0.422226
0.0917761
0.387149
-0.876475
0.277999
0.124789
-0.348687
0.240208
0.281647
-0.295267
-0.0123353
0.26421
-0.455972
0.0682061
0.0902607
-0.270685
0.173695
9.35079e-14
6.72263e-14
7.80923e-14
8.33559e-14
6.81266e-14
1.20431e-13
1.17835e-13
9.7448e-14
1.19919e-13
1.19941e-13
7.92217e-14
8.8613e-14
8.78697e-14
7.41157e-14
9.64221e-14
1.02143e-13
1.05791e-13
1.03527e-13
6.95097e-14
3.92794e-14
7.15174e-14
8.52964e-14
5.29255e-14
7.88913e-14
9.7448e-14
8.10502e-14
9.14709e-14
0.145882
0.189625
0.0351079
-0.0892568
-0.469737
-0.330398
-0.0547261
-0.0937523
0.132258
0.145519
0.176198
0.066565
-0.0498753
-0.410627
-0.279277
-0.0103989
-0.0746265
0.124787
0.0576707
0.00761983
0.0189932
-0.109897
-0.218186
-0.0490841
-0.00849645
0.0185399
0.0314508
0.158077
-0.250992
-0.0434387
0.474849
0.250284
0.0768891
0.0476368
-0.29453
-0.0763041
0.186712
-0.310917
-0.059146
0.46453
0.315304
0.0420788
7.71131e-05
-0.278692
-0.0397969
0.0017267
-0.119961
-0.142881
0.292626
0.200273
0.103551
0.044819
-0.0986971
-0.0426901
-0.00166754
0.0545067
0.0518345
-0.0312998
-0.121326
0.109142
0.0384555
-0.499093
0.200877
0.015367
0.0939292
-0.024755
-0.0274406
-0.0843038
0.101733
0.121021
-0.441418
0.229744
-0.000596038
-0.0238468
-0.0271884
-0.0033309
-0.0956379
0.0234734
0.046497
-0.273521
0.124633
4.56319e-05
4.52784e-05
4.62405e-05
4.45599e-05
4.47647e-05
4.6176e-05
4.55797e-05
4.50162e-05
4.63063e-05
4.60369e-05
4.47521e-05
4.61578e-05
4.41068e-05
4.38303e-05
4.58419e-05
4.61732e-05
4.52764e-05
4.6457e-05
3.59299e-05
3.47489e-05
3.66475e-05
3.40365e-05
3.41551e-05
3.59679e-05
3.59813e-05
3.45479e-05
3.63673e-05
-5.14435e-13
-3.71559e-13
4.93656e-15
-4.60702e-13
-6.26227e-13
9.70402e-14
8.87019e-14
-1.45226e-13
5.2944e-13
-5.77873e-13
-4.81088e-13
-2.40446e-13
-5.47665e-13
-7.79584e-13
-1.73443e-13
-1.20031e-13
-3.90686e-13
1.91982e-13
-3.49498e-13
-1.55762e-13
5.33309e-14
-3.33843e-13
-4.61307e-13
1.22928e-13
5.10994e-14
-1.42119e-13
4.26473e-13
-0.185628
-0.406182
-0.272596
-0.434483
-0.603238
-0.40064
-0.175049
-0.265482
-0.104875
0.0730055
0.0583051
0.00564086
0.116349
0.0889141
0.0276929
0.10447
0.0550446
0.00505887
0.136401
0.372671
0.273679
0.323788
0.514517
0.361248
0.103229
0.235621
0.127927
0.404303
0.325699
-0.0556238
0.261499
0.131176
-0.0966308
0.0218524
-0.0215864
0.0225783
0.390072
0.267894
-0.0603043
0.295021
0.153776
-0.0924354
0.00212301
-0.0169405
-0.00100236
0.266565
0.171096
-0.0181734
0.155881
0.072036
-0.0137886
0.019518
0.00385644
-0.0306527
-0.256781
-0.523816
-0.104756
0.0116704
-0.260785
0.0154996
0.105635
-0.0761964
0.0294743
-0.184163
-0.507477
-0.0623843
-0.0175454
-0.208694
0.00135604
0.0731828
-0.013838
0.0257842
-0.169461
-0.248423
-0.127415
0.0405231
-0.086506
0.0275225
0.0524298
-0.0489347
0.0335391
1.27437e-13
1.13874e-13
1.26862e-13
1.17061e-13
1.26385e-13
1.20879e-13
1.27714e-13
1.2578e-13
1.0675e-13
1.02204e-13
1.04528e-13
9.37084e-14
1.05441e-13
1.26385e-13
1.17973e-13
1.0341e-13
1.33909e-13
1.34453e-13
6.71956e-14
9.12002e-14
7.51295e-14
8.84756e-14
1.04142e-13
1.19491e-13
7.21066e-14
1.24532e-13
1.0641e-13
8.861e-15
8.6105e-14
2.57236e-14
2.61756e-14
7.02915e-14
6.11379e-14
1.26158e-14
6.80007e-14
2.5514e-14
-7.1203e-15
7.82082e-14
5.16988e-14
3.65352e-14
7.9325e-14
6.89408e-14
9.0354e-15
7.22547e-14
3.59255e-14
-3.96865e-14
3.96243e-14
-2.06448e-15
-3.73461e-15
5.30026e-14
1.32583e-14
-3.89437e-14
2.54124e-14
-2.64053e-14
-0.0608684
-0.0725787
0.157053
-0.341056
-0.404465
-0.0414121
-0.0849418
-0.0541206
0.131457
-0.295436
-0.267311
-0.276401
-0.218461
-0.206845
-0.199911
-0.182151
-0.162595
-0.245458
0.352672
0.341682
0.122423
0.539072
0.580274
0.256899
0.309846
0.225627
0.0628571
0.280228
0.0656111
0.063211
0.163232
-0.545988
-0.148606
0.156042
0.160395
0.033507
0.277151
0.0922649
0.0952637
0.175127
-0.631593
-0.146194
0.113543
0.243577
0.000917004
0.220403
0.0750343
0.127658
0.0186292
-0.253926
-0.171699
0.0745807
0.116553
-0.0244616
0.00113051
0.00136017
0.00170484
0.00201222
-0.00127677
-0.00356977
0.00134096
0.00116895
-0.00213011
0.00202023
0.00294094
0.00352117
0.00459242
0.00196314
0.00130469
0.00690779
0.00735444
0.00485187
0.0073936
0.00746073
0.00714821
0.00842526
0.00521417
0.00395091
0.010131
0.00980965
0.00709982
0.0020099
-0.510852
-0.271647
0.103465
0.158171
0.120401
0.0385941
0.00890534
-0.0139535
0.100062
-0.511142
-0.307765
0.0443488
0.246989
0.119928
-0.0184512
0.0182574
-0.0161634
0.0390941
-0.272386
-0.228416
0.0389169
0.13083
0.0656575
-0.0194634
0.0171761
0.00564444
0.301095
0.333017
0.259861
0.704476
0.648638
0.389912
0.459147
0.429731
0.202709
-0.154695
-0.133722
-0.0878456
-0.331702
-0.298987
-0.161688
-0.236043
-0.0577815
0.0218191
-0.103344
-0.225513
-0.154383
-0.319408
-0.505722
-0.309677
-0.254015
-0.337391
-0.157934
-0.171066
0.346278
-0.272526
-0.0851731
0.383408
-0.508521
-0.0250821
0.235775
-0.0878159
-0.0992387
0.378511
-0.2574
-0.0506044
0.405483
-0.565599
0.0273169
0.143179
-0.0192998
-0.0504917
0.248103
-0.167092
-0.0418751
0.166545
-0.282014
0.00523197
0.111891
-0.0105504
-0.565458
0.0377349
0.15039
0.29821
0.0706196
-0.031695
0.310766
-0.16185
-0.11523
-0.601198
0.133687
0.138189
0.383495
0.0221951
-0.0546922
0.231075
-0.178538
-0.0692162
-0.232291
0.0167647
0.00100088
0.189203
-0.00417635
0.0255766
0.0966586
-0.0262069
-0.0700645
0.262688
0.276704
0.0342975
0.607998
0.675721
0.28876
0.323744
0.310623
-0.0322232
-0.368573
-0.29989
-0.194347
-0.491204
-0.41286
-0.262062
-0.338119
-0.241687
-0.158044
0.0949061
0.0359495
0.153938
-0.125951
-0.247188
-0.0508256
0.0152894
-0.0658591
0.172834
-0.401542
-0.0900089
0.0674603
0.570897
-0.0270208
-0.163956
-0.197072
0.106037
0.0982812
-0.260076
0.077209
0.165977
0.370023
-0.226431
-0.267634
-0.154328
0.167911
0.105333
-0.0307269
-0.00844512
-0.0217444
0.21481
-0.0201256
0.0188993
-0.15893
0.040402
0.00300726
-0.00250179
-0.000500411
-0.00289033
-0.000279376
0.000520168
-0.00265925
0.00418212
0.00607694
0.0013637
0.000569194
0.00295891
0.00102665
0.00165617
0.00266381
-0.000247744
0.00571316
0.00743286
0.00384722
0.000871661
0.00207344
0.00066028
-0.000106523
7.774e-05
-0.00254213
0.00225935
0.00326444
9.38762e-05
