0.010889404
-0.009235406
0.026011288
-0.013853546
0.0066761523
0.027963495
-0.061370827
-0.057381116
-0.0064739296
0.029827347
-0.041905653
-0.033577997
0.011737256
-0.010197019
0.009763183
0.038222324
-0.036574174
-0.011948789
0.040572286
-0.02445179
-0.04664277
0.08033614
0.017907968
0.014826005
3.2881188e-05
0.01564389
-0.026345106
-0.055070054
-0.018752154
-0.018588807
0.008690253
0.0010325537
0.010201531
0.008157016
-0.015228527
-0.025415836
0.029420745
-0.0067927954
0.016714996
-0.030881952
-0.029828668
-0.042060763
-0.00783546
0.0009083099
-0.017783469
-0.036842804
-0.032152727
0.026247436
0.003386609
0.087647565
0.012175243
0.0109003335
-0.024626665
0.014582935
-0.010268867
-0.057845686
0.008267801
0.0003982405
-0.0043878956
-0.009699046
-0.018903859
-0.030248893
-0.04509405
0.0316377
-0.023992196
0.047095433
-0.011508642
-0.008002675
-0.014094329
-0.015125052
0.0020341768
-0.023246478
0.030934326
-0.031445168
0.0022973528
-0.033605166
0.07186859
0.01521606
0.01908051
0.030354055
-0.020836871
0.0025823102
0.036348447
0.018932115
0.019381063
-0.029243425
0.017295858
0.020805715
-0.03473645
0.0005486175
-0.0097712455
0.030670542
-0.04952773
0.01128395
-0.0076657683
0.004454242
0.05506182
0.009589311
-0.030957231
0.010027395
0.039523277
-0.01897886
0.02472836
0.002224109
0.017417653
-0.03610904
0.008477305
0.01486273
0.0015043418
-0.017241834
-0.035273407
0.05899517
-0.015074049
0.0040221876
0.04677089
-0.04739526
-0.00016395285
0.008063569
-0.026885983
-0.0023174987
0.039277498
-0.039568953
0.015238948
0.042191453
0.0022580586
0.01865703
-0.019815791
0.0016068673
0.032488465
-0.037604246
-0.010849245
0.033609003
-0.03031618
0.031780526
0.03240936
0.018661125
0.006612154
0.017875385
0.014146572
0.030724062
0.01013319
-0.007834649
-0.031083219
-0.011408291
0.026603594
0.02065225
-0.036457513
-0.11496717
-0.050196506
0.12703201
-0.039801747
-0.0016881103
-0.016905393
-0.07657434
0.046577167
0.001521775
-0.033476494
0.008166228
-0.025218707
-0.010725755
0.0007056554
-0.026766343
0.049151484
0.03849737
0.06337945
-0.002641695
0.010869469
-0.015269588
-0.01909489
0.034997363
0.026679035
0.009849161
0.026359398
-0.024374424
0.010674917
0.025986725
-0.031651624
0.010140671
-0.0047990624
0.009644045
-0.010652166
0.050130315
-0.0137964375
0.012323379
0.004037768
0.046640705
-0.07621964
0.00896896
0.0021726175
0.04462614
-0.047084514
-0.023857705
0.027609138
-0.0027637198
0.010377528
0.07184144
0.00033119973
-0.018477477
0.022768533
0.073597476
0.013945561
-0.0034688145
0.00932342
0.004369242
-0.024005838
-0.017452143
0.018209755
0.013413653
-0.017263414
0.04004436
0.06459205
0.057524778
0.0009818268
0.001288765
0.029065115
-0.02660017
-0.0067009786
0.00560285
-0.007238091
-0.0057985815
-0.020803053
-0.030178452
0.012661841
0.015152282
-0.031381298
-0.041325174
0.015198139
-0.037654046
0.016378641
0.006184478
0.0060905996
0.0037059244
0.0025474003
-0.024050534
-0.03453815
-0.0054152315
0.07384411
0.011358034
0.06083994
-0.04022461
-0.043374762
-0.010236161
-0.037272964
-0.0032490944
-0.01481007
-0.011239491
-0.048146743
0.030467035
-0.021564493
-0.012678844
-0.0065370593
-0.040386
0.024657356
-0.030383956
-0.018448956
0.032154486
0.0053677657
0.0036152278
-0.0077043166
0.009118101
0.04723877
0.014855017
-0.011493183
-0.01930737
-0.009363244
0.016661914
-0.005068139
-0.0017313665
0.0133810155
0.027601073
0.01375256
0.021558639
-0.02340804
-0.0058880975
-0.0045840563
-0.005693214
0.035324182
0.010598827
-0.005337372
0.016871786
-9.07124e-05
-0.003955928
0.020402538
-0.0023491504
-0.017312707
0.026506472
0.014409215
0.008774963
0.0033541948
0.023347251
0.044356074
-0.027136868
0.012427596
0.044863757
-0.01371367
0.0044555645
-0.009363259
-0.006109905
-0.036763307
-0.016036097
-0.00082231406
-0.007827806
-0.0044487664
-0.017942756
0.025657753
0.0059731468
0.03020125
-0.024470855
-0.009099597
-0.03655535
0.08526126
-0.014532423
-0.03140711
0.0047449456
0.023167359
0.030481394
0.04296999
0.009279636
9.881391e-05
0.008792855
-0.017972775
-0.011282482
-0.028005842
-0.0045368797
-0.010443879
-4.484103e-05
0.007423425
0.023525387
-0.02892422
0.026274608
0.05083662
0.002270147
-0.034582436
-0.009220247
0.010540157
0.011559374
0.031141408
-0.009003855
0.044609025
0.015555192
-0.011290231
-0.034293026
-0.02566487
-0.011377394
0.03982598
-0.030655567
0.008200588
-0.021455994
0.008090526
0.022262309
0.011617243
0.05584619
-0.00046030918
-0.06523366
-0.005854389
-0.016550086
-0.0013638395
0.035310026
-0.0013861241
-0.024290934
0.08728076
-0.034518
-0.006414474
0.109380506
-0.008661747
-0.08583607
-0.011805925
0.01147596
-0.052986976
0.015766112
0.019050363
0.032827917
-0.01893603
0.029598497
-0.028790098
0.01618239
-0.010663983
0.014142386
-0.004467524
0.03227641
0.0038504857
9.0924244e-05
0.06652405
-0.0027722546
0.033924706
-0.04887997
-0.06141839
-0.010016231
0.015100762
-0.017527157
0.006273928
0.005437685
0.0016688848
-0.0043188706
0.000119313365
0.025965083
-0.016538853
0.0042416514
-0.0120990435
-0.017564131
0.10903563
-0.022342473
-0.018882299
-0.013558468
-0.018558076
0.011510674
-0.042740356
-0.0027841288
-0.020626828
0.019339206
0.0023431904
-0.0070420085
0.0035111106
-0.009860653
0.028486898
0.024492605
-0.0035417944
0.02939885
0.022188865
0.048152145
0.010500966
-0.005887889
-0.05253445
0.013339901
-0.053104002
0.037294567
0.0078342855
0.049459957
-0.012486373
0.001835936
0.0059040347
-0.029817553
-0.025533695
0.052546035
-0.018075755
-0.0362365
-0.019289715
-0.0049295565
0.03306053
0.01601409
0.0040804325
0.05627765
0.043334316
0.0029697604
-0.00014921502
-0.002122238
0.05340822
0.0075920196
0.0065968777
-0.053593278
0.007997272
-0.024452157
-0.014037001
0.0057879253
0.044483326
-0.03789186
-0.0045973705
-0.034816414
-0.013698051
-0.01711845
-0.005449349
0.01685219
0.029385136
0.041679505
0.023830708
-0.02192478
-0.009334117
-0.018135935
-0.043898743
0.111031845
-0.025564946
-0.009104873
0.0108705945
0.026524609
-0.0050360756
-0.0028359687
-0.01840444
-0.013040076
-0.0036101055
0.028816668
0.0074551045
-0.03420821
0.002572005
0.001376847
0.0073353755
-0.07348351
0.024610328
0.008398835
-0.0285631
0.0181658
0.04010547
0.0058401893
-0.0035007345
-0.04130751
-0.024679758
0.017250188
-0.0098397555
0.026940554
-0.0075782645
-0.012871751
-0.055945657
-0.011267187
0.0224033
-0.009401975
0.049389407
0.031484712
-0.012801627
-0.058042306
-0.06661688
-0.009401163
-0.05148773
-0.008115507
0.017402632
0.011261764
-0.0023524498
-0.03054234
0.022081258
-0.046291657
0.009813379
0.0047120587
-0.00085673324
-0.0006608746
-0.046455584
0.027151117
-0.010127704
0.0439894
-0.043505386
-0.012994705
-0.0202493
0.033344075
-0.03704796
0.03421248
-0.0033360145
0.0044540996
0.07440594
0.033952747
0.005968453
0.018982299
-0.018515121
0.0045265798
0.019121535
-0.041310146
-0.013262931
-0.017144438
0.022954237
0.00623122
-0.0013441517
-0.028150855
-0.03757672
0.024024647
0.006601973
0.02277138
0.016219987
0.012118126
0.017548334
0.031385146
-0.0092715295
-0.0071599567
0.0008473307
0.015991706
0.010148795
0.016157078
-0.011996707
0.004641499
0.0062964214
0.049833916
0.03552223
0.031374224
-0.034726113
-0.011180019
-0.017854681
-0.037108026
0.018459791
0.010083086
-0.0194653
0.06969475
0.009372244
-0.02271784
-0.044338144
0.008768708
0.03258089
-0.01759443
-0.06880397
-0.017476737
0.0072359894
-0.007265459
0.04540464
-0.028996743
-0.035681076
0.008238831
-0.00027404522
-0.0009790125
-0.04745476
0.023969505
0.005193873
-0.021088732
0.0017819285
-0.02453099
0.0100951865
-0.01719465
0.039265048
-0.0029373243
-0.0013637164
-0.0355532
-0.019818997
0.010388787
-0.009865225
0.0019697223
-0.04663417
-0.018173873
-0.012480464
-0.05743795
-0.0074343435
-0.00615511
0.002882084
0.010464118
-0.02869999
-0.008562623
0.061844748
0.019063123
-0.012079894
-0.0057213646
0.015895681
-0.016381053
0.054690074
0.0121199535
-0.0046378574
-0.05148751
-0.002920972
-0.0020392016
-0.0129986005
0.03911985
0.07106642
-0.019334216
0.023749268
-0.00844838
0.0042542885
0.06026005
0.0089804875
0.026108162
-0.0033305236
0.04322566
-0.0058976193
-0.0074201687
0.09654717
-0.0029944545
0.028148731
0.015614325
0.011459853
-0.0013594674
0.00949316
0.12178422
-0.0140713
-0.019193752
0.036122095
-0.025256375
-0.03501883
0.0052258573
0.004923417
0.035674736
-0.010952811
-0.07172522
0.04474909
0.01449854
-0.012096968
0.03611417
0.04753511
0.0036021653
-0.0428842
0.0050287712
0.041352972
-0.012607881
-0.02934753
-0.03463335
-0.10714038
0.045869272
-0.012393254
0.037360307
0.019162755
0.034712803
0.0007168935
0.051789716
-0.038439617
-0.01708289
-0.04136666
-0.023945846
-0.02102193
-0.0010307215
0.054298095
-0.017791806
0.006762603
0.024514357
-0.020515269
0.04455142
0.0045725377
0.013025649
0.05367152
-0.013034472
-0.0085002575
-0.03616615
-0.020362694
-0.07143557
-0.0073055523
0.0092992345
0.019712545
-0.0052065076
-0.024676202
0.012173914
0.005161527
-0.008215361
0.041835226
-0.05614273
-0.037852056
-0.033265203
0.025709318
0.029304767
-0.0040554767
-0.017714048
-0.060603723
0.00053417764
0.006109832
-0.04133087
-0.0032464953
-0.015470699
-0.019328834
0.027068717
0.024533192
0.028556792
-0.028863003
-0.014741844
-0.02778559
0.016026968
-0.0014802126
0.01348825
-0.016399678
-0.0070700524
0.059655193
-9.631039e-05
0.02108682
0.05198449
0.021367418
0.019302756
0.040456567
0.01341107
-0.050963033
0.011534908
-0.021666024
-0.0061730486
-0.057197645
0.0018788445
0.01547078
0.011653681
0.0212794
0.038763806
-0.0056250463
0.018523239
-0.0103397
-0.007951401
-0.021345029
-0.00834283
-0.021773206
-0.051269278
0.0039724135
0.035880372
-0.013281352
0.031877697
-0.034645256
-0.022484684
-0.045184825
0.0019913386
-0.036376607
0.02272059
-0.012333941
-0.027979163
0.026629234
-0.0047613056
-0.019631036
-0.01744507
-0.008220414
0.017286843
-0.0058865
0.025725165
-0.01448607
-0.011526986
-0.031944744
-0.02592294
-0.017817553
-0.0080504455
-0.005370965
-0.013885003
-0.00088308135
-0.007070605
0.034745384
0.02223019
0.03520942
0.014777831
0.0103716515
-0.013302662
0.0091344
-0.03162901
-0.0098079
0.030853305
0.042281542
-0.016832761
-0.032946017
-0.03555856
-0.06091695
0.019637832
0.04582878
0.011151593
-0.009231113
0.020888126
-0.022073796
-0.031226104
0.00713672
-0.031345565
-0.034426115
0.009291909
0.009252744
0.0037152027
-0.023046067
-0.017560376
0.013834213
0.06069008
-0.015046423
0.009132449
-0.0026524393
0.0167363
-0.03833075
0.007796154
-0.04353977
-0.009946694
0.014315287
-0.039708152
-0.056268226
0.060655832
0.04714773
0.023608584
-0.0040321057
-0.015483196
-0.013436324
-0.011567904
-0.02340959
0.00079926546
0.023141902
0.0022467265
-0.037127268
0.0075385305
-0.0068252375
0.000966138
-0.0116212545
-0.042647526
-0.0056155035
0.03875963
-0.012030381
0.019160707
0.0023530715
0.012477004
-0.010437771
0.0020994598
0.016796261
-0.00083708816
0.026964001
0.013576049
-0.04666911
0.0145177925
-0.026084278
-0.03045164
-0.034914926
0.01021892
0.0038173003
-0.025703881
-0.0034081093
0.0047401884
-0.008009613
-0.07765619
-0.1524134
-0.012497716
-0.008503283
0.008267218
-0.031416465
-0.025076402
0.012669075
0.0108044455
0.0043128603
-0.00725069
-0.017381715
0.02623374
0.011024327
-0.007872455
0.02674183
0.059114695
-0.013423717
0.028176771
-0.05225752
-0.070426516
-0.03985255
-0.011574697
0.076731026
0.026670203
-0.023243332
-0.009172075
-0.029957635
-0.017704932
-0.0059993216
-0.020192867
0.09131296
-0.027977027
0.00928082
-0.011664644
-0.017686049
0.023708394
-0.04022538
-0.0034840086
-0.027546331
0.020785931
-0.0056744786
-0.0525338
-0.037601095
0.023055395
-0.023494517
0.044639356
-0.0030004408
0.008599177
0.0072331126
0.001003032
-0.013339962
0.015092367
0.0011351663
-0.0105710775
-0.09162504
-0.07673233
-0.007920558
-0.015897864
0.010883932
-0.028361453
-0.041525025
0.0008406638
-0.058246076
-0.05767844
-0.036756482
0.043397225
0.011907022
0.029275592
0.028744306
-0.04448695
0.10356521
-0.011666429
0.021786133
-0.0010532541
-0.057268422
0.0033192954
0.003761714
0.031430136
-0.045987736
-0.02916704
-0.014220178
-0.001187417
-0.022725541
-0.0041020536
-0.013599026
0.0075278166
0.028369488
-0.02900444
0.015889255
-0.026269397
-0.014169359
-0.015419342
0.040417764
-0.05875636
0.031126326
0.008637738
0.0058840266
-0.03119498
-0.014796419
-0.01334723
0.0244222
0.013410286
0.060276378
-0.04688237
-0.031105477
-0.024111906
0.015260678
0.030919254
-0.014920185
0.023868358
-0.008986144
-0.026962666
-0.027846768
-0.014332623
-0.016164487
-0.0033300975
-0.06991607
0.03077252
0.03133136
0.041076016
-0.014194489
-0.05970605
0.0046813395
-0.0011545013
0.019282678
0.021382077
-0.0374804
0.008060125
-0.008713634
-0.031768434
-0.02142316
0.024734732
-0.0038471567
-0.04345914
-0.027512994
-0.016195813
0.0024124575
0.045716234
-0.02184289
-0.040899698
-0.016878678
0.017501093
-0.038529895
0.04898861
-0.01601499
-0.04414681
-0.020394247
-0.002841185
0.008757013
0.027029922
0.020464126
0.009012617
-0.017303409
-0.002120599
-0.029112162
0.020501107
-0.027482135
0.0011094975
-0.033617944
-0.111264825
-0.061306622
-0.021198126
-0.050504204
-0.044213448
-0.03329655
-0.023783661
-0.025105877
-0.014872677
-0.023668697
-0.050437283
0.015774358
-0.041693594
0.0138800405
0.07485247
-0.035593785
-0.00659169
0.030814078
-0.024819547
0.023510339
0.009763717
0.024462223
0.051341314
0.0013386309
0.066182956
-0.0729974
-0.035024527
-0.022154089
-0.03693696
-0.009477336
0.021154312
-0.036528226
0.03005157
-0.06586247
-0.014862545
-0.009912695
0.028006695
-0.008391634
0.015170667
0.008389266
-0.0020709322
-0.043259893
0.010128006
-0.05146425
0.011888391
0.007263589
0.019610593
-0.07038555
-0.042537022
0.030952677
-0.045809273
0.025116839
-0.018538408
0.022521393
-0.009773184
-0.011825923
0.06828644
0.049946524
0.03839502
-0.022378732
-0.05938705
-0.030783636
-0.032039482
-0.034241796
0.057178084
0.01648722
0.04118362
-0.020551391
-0.036062676
0.07875484
-0.04076719
0.028483748
-0.07133283
-0.086863145
0.028238779
-0.007256885
-0.029783444
-0.019103989
-0.019372405
-0.05018398
-0.050229117
-0.021687886
-0.045398712
0.00041121928
0.017725157
-0.0021911154
-0.053831093
0.018365445
-0.00895324
-0.009219172
-0.043526497
0.047831666
-0.04478574
0.02533204
0.0004191082
-0.009593057
0.009444395
0.044572085
0.05174667
-0.02163655
-0.04681689
-0.043001425
0.04629743
0.0040662494
-0.035909075
-0.039000068
0.041642003
0.020714946
0.0029771603
0.021237735
-0.0037892458
0.024692848
0.025109313
-0.034603413
-0.0089947665
0.036891367
-0.048159752
0.022957174
-0.00047667098
0.07208511
0.001644668
-0.02559212
0.06808923
-0.010928183
-0.051897787
-0.004872958
0.00080081436
-0.010855721
0.0022422345
-0.03772267
0.045547258
0.0047481763
-0.0901131
0.0034506249
-0.032784805
0.02818356
0.017428774
-0.06235577
0.013720698
0.042944178
-0.015137639
0.06559825
0.0021386486
-0.067888975
-0.02799194
0.0072121713
0.015109867
-0.025320508
0.029907497
-0.016134974
0.033710826
-0.0051736454
0.09602569
-0.001459052
-0.00045577862
-0.028321382
0.016069032
0.100609824
-0.012757472
-0.004969078
0.03876119
-0.006280793
0.058631554
-0.018970938
-0.012066378
0.011180761
-0.043892775
-0.014437404
-0.018023003
0.0024918946
0.003902711
-0.0110779265
-0.050367936
0.023030695
-0.07130906
-0.04421947
-0.036175642
0.02312291
0.026843036
0.043989226
-0.033621483
-0.1006726
-0.05888156
0.0090429
-0.0024470435
0.04746143
0.004514894
0.03189901
-0.012435224
-0.038705308
-0.084559835
-0.082066685
-0.0012269869
-0.013214004
0.012825419
-0.053844348
0.021252813
-0.00018993745
-0.014296213
-0.0059327343
-0.024756806
-0.0035301687
-0.03265114
-0.041740794
-0.016749952
-0.053887025
0.008992951
-0.03734867
-0.003060881
-0.015891986
0.022952506
-0.041301712
-0.07319043
0.0029620482
0.014551188
-0.015811205
0.041680552
0.07545464
0.030386554
0.0430205
0.010608828
0.02294424
0.05887668
0.09108717
0.035109207
0.011895557
0.0014077794
0.04778895
-0.017445236
-0.054839645
-0.01820872
-0.0068833027
0.031898342
0.020402962
0.091136545
0.13617723
-0.0017894456
-0.016348492
-0.027291324
-0.017347744
-0.06030346
-0.030140916
-0.00087531685
-0.04816479
-0.037958995
-0.009444905
-0.020581715
0.060401026
0.10314366
-0.0050976514
-0.079102665
0.045439005
0.06789549
0.0393904
-0.0052914945
-0.017922055
0.014632656
-0.0554839
0.034276515
-0.024715962
-0.08615084
0.013645061
0.0004207319
-0.0077210963
0.00028249025
-0.034510866
0.008084027
0.02080101
-0.0289229
0.029711278
-0.060711756
-0.0012556001
0.031491593
-0.06453271
0.02942822
-0.02394313
-0.023238733
-0.03812835
0.006112274
-0.008083643
0.015256668
-0.06553204
0.014596236
-0.036678113
-0.013551838
0.1127107
0.011677177
0.01953535
0.012353841
0.02536137
0.030268164
-0.027935792
0.04202491
-0.0009564121
0.05874208
-0.021280844
-0.027500287
-0.025641084
-0.040435817
-0.030754438
0.013335516
-0.012860777
-0.023870016
-0.002008251
-0.019822508
0.009343623
0.017482378
0.06674804
-0.0065957727
0.0116979405
-0.046436
-0.007826714
-0.033638693
0.024606662
0.04920499
-0.08019168
-0.017285576
-0.002485936
-0.019408539
-0.035843775
-0.023811854
0.05794564
-0.0076606628
-0.040730692
0.051421385
-0.0013222516
-0.02696484
0.016233347
0.0134175485
0.04856431
0.03156543
-0.1078823
-0.009941739
0.018347766
0.03005955
0.010357428
-0.040384136
0.020983197
0.0082970625
-0.058406707
-0.0029973753
0.01844593
-0.014885865
0.0032813717
-0.021507327
-0.028452158
-0.004076018
0.03212357
-0.07022885
0.02023318
0.049332805
-0.013823622
0.01411846
-0.009422746
0.10828936
-0.107018106
-0.058286846
-0.03256743
-0.019014373
0.028457077
0.005608978
-0.048040427
0.0378338
-0.009701145
-0.033208784
0.09010997
-0.016221873
0.026780643
-0.028584208
0.052438647
-0.108429
-0.009572556
0.014994326
-0.042170424
-0.123862624
0.013222173
0.03774058
0.06325187
0.025194058
-0.010457876
0.026738811
0.009344943
-0.03822781
-0.02717079
-0.0015002544
-0.016153561
-0.0010001402
-0.044601068
-0.0060810805
-0.06381725
-0.00860246
-0.026583811
0.083709665
-0.03175189
-0.009292033
0.00541916
-0.00011717916
0.008349242
0.082964994
-0.07788753
-0.026051734
-0.018943073
0.02909137
0.032271106
0.045055535
0.046901837
0.031805143
-0.04093337
0.00014398854
0.0003292485
-0.027275061
0.011773956
0.007363235
-0.051682312
0.029002946
-0.0039008386
0.017193403
-0.009300767
-0.004687624
-0.08520333
0.0078384
-0.088541344
-0.0042513297
-0.0083797835
-0.033922806
-0.027597284
0.028396985
0.022437993
-0.017763093
0.017338593
-0.0074632806
-0.014687269
-0.019929929
0.0041491543
0.0198148
-0.07719459
-0.0005763917
-0.019704212
0.00198444
0.0061506475
-0.037544113
-0.043965325
0.0802475
0.02495022
-0.00015156984
-0.0065906374
0.024082497
-0.08292768
0.008326138
0.0016888548
-0.006331201
0.04992855
-0.018715158
-0.018846285
0.011121158
-0.037255403
0.042912517
-0.0065074307
-0.02150688
-0.06025194
0.010496826
-0.035211813
0.020289434
-0.0014228554
-0.032538667
-0.020694952
-0.04789253
-0.040251378
0.00017550834
-0.05469436
-0.047178324
-0.083244994
0.068043716
-0.0006630278
0.0360469
-0.04540378
0.07024532
-0.065268435
-0.0521789
-0.046371933
-0.0015301481
0.01498922
0.07305361
0.0031159904
-0.020656852
0.016595205
0.020063225
-9.179766e-05
-0.023737988
-0.032647148
-0.011038553
-0.019635268
-0.011473195
-0.0198189
0.029982934
0.0669508
-0.023538927
0.0076892753
-0.09058373
0.07044734
0.03354401
-0.01961651
-0.042805303
-0.08356319
-0.013512126
0.078191414
-0.015840614
0.012814672
0.02615403
0.013225457
0.02151379
0.035061114
0.00089173805
-0.020404156
0.0039717876
-0.0009061414
0.0030994513
-0.01695056
0.010452795
-0.0006393845
0.0056738867
0.0078728385
0.0022750446
0.020399801
-0.07407125
0.034261428
-0.0038621526
-0.0094055375
0.0062534856
-0.009635004
0.012884219
-0.009061849
0.0028151951
-0.04560032
0.02758165
-0.05941976
-0.081105605
-0.08046379
-0.07331358
-0.09397642
0.05297334
0.037391506
-0.008464598
-0.024749804
0.053481232
0.055019137
0.0010365088
0.015388591
0.013380905
0.06116283
0.12411939
0.00034659932
0.002675276
0.054127995
-0.014167734
0.05023602
0.066553555
-0.04419504
-0.053485926
0.021801258
0.044063404
0.008564945
-0.007707547
0.012619481
-0.07446725
-0.027730834
0.056682605
-0.025018113
-0.03125363
0.025209084
-0.006843799
-0.097538166
-0.012803567
-0.0047404105
0.018911282
-0.06636067
0.004479018
-0.09032214
-0.021559825
0.029114505
-0.008607629
0.028354274
-0.013855702
0.0030088124
-0.01402964
-0.041146953
-0.055737488
0.0015181772
-0.02367879
-0.005143136
-0.06263433
0.07225706
-0.012910457
-0.02252876
0.002396199
-0.012834017
-0.04899309
0.027650664
0.059088383
-0.01115786
-0.04439657
0.03039523
-0.033170268
-0.010737634
-0.012399274
-0.008347162
0.000417843
0.0050400696
0.013575039
-0.018602405
-0.07793132
-0.014513464
-0.008846283
0.06642985
-0.0405163
-0.039078534
0.019611388
-0.009378998
-0.0010109453
-0.063764766
-0.022247974
0.00028767125
0.04303854
-0.04786162
-0.009265984
-0.001162203
0.04602872
-0.012111689
0.02063614
0.030764095
-0.025928656
-0.00797992
-0.0639923
-0.06407056
-0.0345623
0.028362732
0.0483062
0.006974924
-0.0036287415
-0.062452428
0.045532838
0.026515583
-0.056978077
0.023754729
0.017142525
-0.042448256
-0.01305391
0.05021534
-0.008205696
0.008351948
-0.021312391
0.04916581
-0.0065694605
0.062916584
-0.006852516
-0.0020176184
0.08051327
0.01875726
-0.0011313483
0.007498482
0.0029023716
-0.01085757
-0.008926832
0.00054737466
-0.013066383
0.06304072
-0.05363438
0.0091345655
0.022374956
-0.022178499
-0.040065188
-0.0023790165
0.009470942
-0.01727473
-0.0089663565
-0.0005216798
-0.009753577
-0.08962837
-0.026142964
-0.034779042
0.0073907734
-0.06026313
0.026550118
-0.029305322
0.017941477
0.07887516
-0.035624273
-0.02472041
0.027804673
-0.010420804
-0.05008545
0.0369007
0.009536022
-0.01579622
0.057018463
-0.063278
0.040973682
0.0154815875
-0.03507438
-0.0049265954
-0.06065639
-0.0070269834
0.015774181
0.0006168939
0.02121015
0.00018958947
0.017101392
-0.009079408
0.012697605
-0.019229343
-0.030781003
-0.07323555
-0.029636223
-0.043158654
0.026863383
0.0036725148
-0.011503244
0.016381273
-0.030345116
-0.039523542
0.0072646746
-0.015677404
0.0033995127
-0.035153862
0.0034882496
-0.0013328985
-0.07092048
-0.01329189
0.0026852512
0.0014786299
-0.003001744
-0.03509956
0.059480455
-0.03551215
-0.010026715
0.00089789106
0.009188193
0.019391697
0.014937767
-0.04008321
0.017334653
0.10814095
0.015857056
-0.006855548
0.010577651
-0.054399073
-0.032811835
0.018885393
0.052142788
-0.027050512
-0.020600732
0.002590872
-0.010312386
-0.00031533005
0.03805253
-0.0005107258
-0.0048311343
-0.0844281
0.0072347913
0.0041573048
-0.025953505
-0.026228262
-0.070781
-0.0044971975
0.014824533
-0.000941838
0.006764961
-0.012510434
-0.060583636
0.046828784
-0.0024482796
0.07474258
0.0073382645
0.030470103
0.01571572
-0.01453388
0.014152703
0.1767984
-0.10810389
0.031122334
0.0012378684
0.029648883
0.028894406
0.0022334987
-0.0046049566
-0.044347446
-0.06841051
-0.021702481
-0.019875774
-0.11570265
0.028955914
0.022190934
-0.012042841
0.04765086
-0.00815778
-0.021072248
-0.05689055
0.0029079686
0.041256215
-0.068602644
-0.039204802
-0.021317583
-0.055442672
-0.04126316
0.02506988
-0.03320037
-0.0842355
0.0055677895
-0.017048966
0.02475748
0.048343323
0.12673129
0.01745298
-0.04372253
0.044492774
-0.058652725
0.015346896
-0.037864707
-0.053545833
-0.008643085
-0.03146699
-0.016935982
-0.014624324
0.010389112
-0.039783828
0.025856994
-0.02350181
-0.029269004
-0.014084679
0.047901083
-0.018737666
-0.011227119
-0.014001906
-0.026321739
-0.059365503
-1.5500375e-05
0.053652983
-0.017881226
-0.0019880834
-0.030076215
-0.019528512
0.027547179
-0.039519418
-0.0082030315
-0.019762833
-0.03530823
0.044916388
0.046153314
0.028588276
0.035528313
-0.022972705
0.04304034
-0.029513204
0.015775153
0.008003611
-0.074237436
-0.04212012
0.021814099
-0.008193756
0.0072542336
0.0073464913
0.09089597
0.022398513
0.051324975
0.02459142
-0.008448721
-0.05410942
-0.015535773
0.018272422
0.0028361853
-0.05560922
0.035358112
-0.05991039
-0.023449859
0.022147465
0.058866404
0.01999265
-0.028728232
-0.016443154
0.06795163
-0.0006817378
-0.019860832
0.0017685492
0.008170151
-0.0018624801
0.03417182
-0.036291726
-0.006819693
0.031248393
-0.01267529
0.019340865
0.01376718
-0.017878786
0.054690987
0.049259666
0.012348469
-0.020651456
0.010918517
-0.032662727
0.03126536
-0.024429144
0.05250561
-0.027658798
-0.04620299
-0.05672127
-0.05619828
-0.013087392
0.0065828892
0.045660935
0.010503544
0.009286225
-0.030011062
0.090765074
0.039706614
0.033759914
0.05009518
-0.03679506
-0.046975285
0.0021527878
-0.00017261309
-0.041883696
-6.9644804e-05
-0.019674832
0.044812307
-0.041546036
-0.010487621
-0.0077080876
0.0037856908
-0.05518266
0.079204045
0.0017822894
0.019385817
0.007845145
-0.04836044
-0.025135988
-0.013718542
0.03416053
0.0020067506
-0.026927162
-0.08307832
-0.015189281
0.0059250835
0.08993971
0.018429887
-0.05531751
-0.0012278641
-0.015098354
-0.04271996
0.012519175
0.13097079
-0.034429405
0.04335134
-0.043079536
0.021710964
-0.0014823728
-0.023015004
-0.042288706
-0.011286582
-0.03982491
0.016389452
-0.006551513
-0.048682824
-0.09721058
-0.005171982
-0.004102
0.0066102315
-0.015891874
0.017399274
0.014000119
-0.04124647
-0.0012734885
-0.044510994
0.056025323
0.01348274
-0.03523783
0.00022821661
-0.023331797
-0.036166064
0.018373035
-0.00512033
0.004901363
0.022749634
0.06747993
-0.016990637
0.0014600833
0.022403114
0.058131896
-0.03607831
0.015764259
-0.0020382504
-0.020786999
-0.00044821264
0.011195438
0.06518446
-0.0062354594
0.012954966
0.07142753
0.018484281
0.058006983
-0.04814139
0.0097549185
-0.058528967
0.013365498
-0.033789955
0.010819907
0.025760088
-0.07024861
-0.030946568
-0.012716076
-0.04557319
-0.033369094
0.040004652
0.0061680498
0.022722611
-0.06711077
-0.015896508
-0.0151055455
-0.03790236
-0.03237354
-0.022795957
0.046472143
0.010882507
0.00042072713
-0.057053436
-0.11942489
-0.04636016
-0.03743973
-0.02636853
-0.02423011
0.019695532
-0.1105934
-0.024242787
0.04300343
0.014638688
-0.09720205
-0.024897542
-0.1036048
-0.07325383
0.0424671
-0.017525861
0.0051677045
-0.045856066
-0.048608672
0.05647254
-0.027937794
0.01696247
0.050490394
0.018952815
0.026277512
0.015232971
-0.023576373
-0.022269737
0.0048057814
-0.008598635
0.022923041
-0.019252928
-0.018598778
-0.034054868
0.02234159
-0.007296868
0.012502634
0.051673036
-0.015543731
-0.050915185
-0.01023714
-0.04744649
-0.013459096
-0.0038709154
0.0071689985
0.019021744
-0.055189338
0.07049701
0.019209879
0.025343928
-0.020107256
0.010079374
-0.004183384
-0.0044393893
0.009333663
0.025045058
0.009877284
0.012848943
-0.0034756274
0.04856073
-0.060663965
-0.0016238745
-0.024725696
0.002217726
-0.0066739977
-0.029871486
0.06622412
-0.051354613
0.07267976
0.071101785
0.008315912
-6.895192e-05
0.02087728
0.031705793
-0.005047836
0.026078394
0.0015060405
-0.014128925
-0.0087633915
-0.06170522
0.028094906
0.04345373
-0.031440306
-0.03254062
0.0031855407
0.05568887
-0.044443093
0.022731517
-0.031176958
-0.028151074
-0.03989312
-0.03540846
0.00088110834
0.0035217397
0.038292997
0.044554878
-0.016874403
-0.037633963
0.083767764
-0.009967644
0.073358856
0.015927905
0.039392825
0.010291544
0.032697756
0.057379484
-0.040817503
0.01410086
0.033550587
-0.009973744
0.009239826
0.013187304
-0.017370408
-0.014634039
0.032912903
0.013554456
0.004645771
-0.006857983
-0.041060805
0.045102965
0.013280332
-0.026139967
0.06381245
-0.09392345
0.028918503
0.0922511
-0.0012246069
-0.056434557
-0.034827773
0.007188263
0.12401642
0.092864774
0.014436001
-0.0207815
-0.04429619
-0.011330601
-0.008380991
0.012303301
-0.033030972
-0.035325523
-0.07108936
0.023579003
-0.027300386
-0.15885355
-0.03225984
-0.10413041
0.02916005
0.021190291
-0.009044007
0.00925119
-0.06896332
0.049875755
-0.02389445
0.09203764
-0.012168097
0.008563438
0.060171533
-0.04519031
-0.0048496677
0.0004609788
0.05823614
-0.053070016
-0.054738563
-0.04981761
0.008087535
0.00935326
-0.047031533
0.010104545
0.012598762
-0.07941253
0.032714
-0.018083256
-0.0010634454
0.061880823
-0.04686384
-0.022976726
-0.10451186
-0.037712492
0.027727649
0.02393911
0.025355995
0.04300396
0.06252451
-0.0343896
0.0076319575
-0.002224911
0.0005064451
-0.07843641
-0.05364177
0.036501132
-0.008719448
0.011337936
0.011494721
-0.0077717593
0.048496556
0.081530556
0.03704926
-0.0034416432
-0.03842608
-0.01976291
-0.018206185
-0.02215139
0.015097815
-0.034689248
-0.07555133
0.0397021
-0.029999666
-0.052450906
-0.008446509
0.0970142
-0.003296441
-0.013038918
-0.01226583
-0.024018439
0.0029219391
0.009088797
0.032114025
-0.04006649
0.09810259
0.023840757
-0.0077274074
-0.0185449
-0.02278261
-0.015837884
0.0530409
-0.018072395
0.010188582
-0.025648
0.0015357198
-0.018985555
-0.032324478
0.053928375
0.023344694
-0.05809122
-0.084985055
0.051326945
-0.01070741
0.021776585
-0.037520647
0.02591896
-0.034175437
0.05821618
0.033162314
-0.0075650895
0.01450492
-0.034258366
-0.010136686
-0.04751293
0.009400719
0.01065906
-0.031018913
-0.0017908927
-0.05535947
0.085399434
-0.03826294
-0.015101816
-0.004086961
0.03293958
0.026375474
-0.014661703
0.018765535
0.030443437
0.01550919
-0.027439257
-0.015565668
-0.02832276
-0.013088025
-0.0024245083
0.012458439
-0.0045096017
-0.03316125
-0.023596685
0.05202763
-0.038900625
0.025864735
-0.03879928
-0.009947568
-0.0014321954
0.05951222
0.019179067
-0.0054893713
-0.03655326
-0.028151773
-0.0035302
-0.102969125
-0.016466552
-0.07422255
0.018345619
-0.00052910106
-0.0162673
0.06575243
-0.026743282
-0.021637851
-0.092711784
0.02002032
-0.02291178
-0.014438826
-0.028162345
-0.019489095
0.008557052
0.016931906
-0.02504014
-0.012883713
-0.08998119
0.032156434
-0.0008201105
-0.0438204
-0.04512837
0.0055866055
-0.029634213
-0.05629338
-0.046872362
0.0060267523
-0.008652393
0.097752154
-0.0019831276
-0.1002424
-0.025067385
-0.04703652
-0.0018915758
-0.027730532
0.040110942
-0.015241337
0.018702563
0.011983009
0.015843458
0.050234172
-0.0059720213
-0.022262536
-0.041103628
0.03799886
-0.00835802
0.009245382
0.02017447
0.08239475
-0.008139227
0.022510627
0.03440219
-0.0018909426
-0.026203427
-0.049685966
-0.001864649
0.018325001
0.0124240825
-0.03103127
-0.021222161
0.034042154
-0.02234252
-0.04346617
0.002407863
-0.042843364
-0.038768966
0.028640069
0.03876347
-0.014347459
-0.09340904
-0.016118646
-0.042140417
0.035868388
0.029002296
-0.08924583
0.085574485
-0.06729035
-0.030641725
-0.092600696
-0.023188485
-0.03254824
0.0638588
0.042054817
0.0879474
-0.048926298
0.0040684594
-0.026423268
0.059215408
0.025270356
0.004049283
-0.08124625
0.009902166
-0.00048507706
-0.054375574
-0.005613474
-0.03432245
-0.026880706
0.021363216
-0.025964435
-0.012304142
-0.02869498
0.05348122
0.041241612
0.011816554
0.013708641
0.010319825
-0.003109231
-0.06080794
0.027714044
-0.0012107323
0.07133341
-0.039302956
0.038251214
-0.11758324
0.02905085
-0.0939002
0.0027573425
0.101747796
0.040939823
0.101368025
-0.020725293
-0.019220622
0.00059527927
-0.00814381
-0.123922214
0.053249232
-0.013219862
0.0070819007
-0.03376148
-0.047194365
-0.01783288
-0.03324155
0.063936554
0.045880467
0.0035249104
0.02141949
-0.035850614
0.013672348
0.047694683
-0.02951007
0.07911127
-0.018887984
0.049896456
0.004217024
-0.029009005
-0.051761
-0.014802492
0.0078115715
-0.00031763586
-0.12622593
-0.016553324
-0.054292396
-0.08130737
-0.025638405
0.03229181
-0.009247254
0.023594094
-0.004317218
-0.05780688
-0.023713907
-0.030638065
-0.07613695
0.0034879546
-0.0029457107
0.04311916
0.0441496
0.017774403
-0.004292917
0.016761094
0.009772054
-0.0143671725
-0.009123435
0.0009853563
-0.07729277
-0.084729746
-0.013071979
-0.024906134
0.056237325
-0.0105375685
0.021654088
0.019499633
-0.0398428
0.06288918
-0.015616651
0.024129882
-0.050436858
0.022556243
-0.016434485
0.048036538
0.07514754
0.054683823
0.041755002
-0.040725358
-0.0006961502
-0.042069513
0.016715264
-0.020953674
0.012490718
-0.028139353
0.018614793
-0.018991588
0.009137835
-0.059280522
-0.012473942
-0.038996503
0.025604654
-0.038953397
-0.048229497
0.016550792
-0.0049302876
-0.011010205
0.01181601
0.013873344
-0.0100409575
-0.009428557
-0.039858133
-0.005498043
0.01529186
0.019809134
-0.016267898
-0.020063216
-0.043265507
-0.0009626609
0.15371552
-0.038072735
0.027871674
-0.013601512
0.010831132
0.0020329067
-0.03223765
0.05469998
0.02295345
-0.0069613406
-0.026208475
-0.04315349
0.002268084
-0.005716809
0.02215864
-0.0910405
-0.020291641
-0.026729884
-0.025827289
0.08340573
-0.12238075
0.012441023
0.0011141908
-0.00038337856
-0.04235675
-0.030264767
0.009994985
0.002703355
-0.039570697
0.0031323496
0.02508022
0.046453778
-0.026192171
-0.09136466
-0.029565923
-0.0034588112
-0.029653102
-0.008295403
0.0011453483
0.010567689
0.056278553
0.013150878
0.007205073
0.0024297428
0.023864066
-0.017417347
-0.00045208985
-0.0052516498
0.032645065
-0.035331756
0.007170442
-0.033590864
-0.033515897
-0.22570324
0.04551867
0.0013250378
0.20495364
-0.0029013096
-0.019833283
0.038490266
-0.007650433
-0.04615108
0.072608694
0.0052962685
-0.015403589
-0.004204636
0.018626545
-0.04918094
0.0492084
0.0051372303
-0.013151537
-0.003873233
-0.02845463
0.12631126
0.044916086
-0.029909393
-0.051362474
-0.046831485
0.04380291
0.00888289
-0.04204115
-0.030572698
0.035785496
0.04010391
0.022902967
-0.019949112
-0.022233073
-0.014428088
0.01605009
0.005445668
0.038851105
-0.07184652
-0.03958113
-0.032116834
0.006805826
-0.011541011
-0.020797556
0.030622303
-0.0006961001
-0.04228758
-0.006337703
-0.026645688
-0.09671516
-0.020813273
-0.034368068
-0.042041574
0.012450706
0.03522566
-0.010062666
0.01653599
-0.093303956
-0.01446126
0.000362882
0.002705908
0.013369105
-0.007670768
-0.023051916
-0.023853717
0.03530277
0.039241783
-0.08460939
0.009325258
-0.025650641
0.0057164133
-0.009807425
0.03395093
0.02798604
0.02200152
-0.09924955
0.041396186
0.10433527
0.032248102
-0.040564828
0.016077803
-0.021684222
0.09764534
0.030747162
-0.02815094
-0.02620642
0.024259716
0.05997154
0.009711287
0.018608607
0.015846217
0.03611923
-0.026552174
-0.008544924
0.027531428
-0.03799708
0.022843372
0.06680199
-0.024704853
0.0234785
0.0233485
-0.02302209
-0.025381792
-0.045932133
-0.028923724
0.06930511
-0.022043714
-0.032688912
0.013469176
-0.032821484
-0.01415823
0.058851473
-0.009080202
0.0137812495
0.049711518
-0.012465074
0.00018264554
-0.020994969
-0.020582438
-0.037248995
0.022830795
0.06772736
-0.0090343505
-0.037637018
0.03398016
-0.008925208
-0.00801617
0.030537039
0.08516829
-0.075996906
0.008812575
-0.035476025
0.0008668667
0.018603513
0.01922305
-0.11714649
-0.0026554284
-0.12504065
-0.021078238
-0.03924261
0.10844184
-0.051712703
0.018239154
-0.003004302
-0.10599048
0.027056934
0.046643414
-0.077775225
0.023411328
0.027763903
-0.004558691
-0.016332556
-0.031753287
0.004063522
0.01330968
-0.04017813
-0.021597484
-0.0155201685
0.14154263
-0.073108844
0.06309549
-0.03570414
-0.011603881
-0.0063424767
0.0054598013
-0.024910007
0.0072891316
0.0005978761
-0.07605911
-0.01715034
0.036394954
0.04632904
-0.047529083
-0.042036287
-0.013887072
0.015095441
0.007733983
-0.032007504
-0.015136184
0.03051413
0.0010172557
-0.051201172
-0.009176543
0.023490164
-0.031719543
0.0056976415
0.015832286
0.025410533
0.040734325
0.032579284
0.013224165
0.013180973
-0.0225963
-0.025622794
-0.01260092
0.041764416
0.0068778805
-0.028278405
-0.0017395136
-0.009403048
0.045201298
0.025927078
-0.022338614
0.003911596
0.018691447
-0.0020516785
0.009896657
-0.009249991
-0.0014419544
-0.005565636
-0.027450752
0.0031837155
0.06590954
-0.0074719307
-0.020560298
0.0063426713
0.027352517
-0.024406394
-0.023899456
0.04112314
-0.002224331
-0.004802982
0.06792566
0.022103986
-0.00935205
-0.0492596
0.02254214
0.01949132
0.13956186
0.035336394
0.0012945844
0.025622442
-0.0040175156
-0.046818677
-0.0050677666
-0.08525151
-0.0649762
0.062038522
-0.032308355
0.047720235
0.022373036
-0.020487253
-0.042576447
-0.006278764
0.0057436875
-0.010163043
-0.08552998
0.02999737
0.16356161
-0.022821737
0.10424294
0.025992066
-0.12208222
0.025046341
0.1169271
-0.025512895
-0.013793935
0.035391003
-0.044486742
0.0046710605
-0.038116883
0.035467874
-0.004280861
-0.042582184
0.043946095
-0.030442793
-0.20409761
-0.004574853
0.0003918025
0.03706514
-0.05882079
0.020797167
0.012294479
-0.012913538
-0.008154454
-0.004722984
0.013691923
0.041195985
-0.022673838
-0.07830895
0.001973154
-0.027259814
0.027636308
-0.020320252
-0.0645252
-0.09788448
0.17056914
-0.086384684
0.026770651
-0.00085355714
0.07810878
-0.019171203
0.019727731
-0.012199751
0.05028759
-0.030496497
-0.004519901
-0.049494945
0.016717264
0.021741915
-0.030776214
0.050263148
-0.042188603
-0.041316956
0.12872888
0.05412795
-0.018200679
0.017193252
-0.0007907831
0.009157639
-0.01676891
-0.029727522
0.116824254
0.043985263
-0.04577935
-0.019817594
-0.00748148
0.02828387
-0.032925837
0.00480728
0.06315529
0.012427943
-0.020834288
-0.0130447345
-0.013422179
0.014363839
0.099879496
-0.022160674
-0.09260816
-0.01915332
-0.052921176
0.0012201655
-0.040157802
0.023001088
0.13954657
0.04895407
0.034028437
0.004119445
-0.08343526
0.014711349
-0.026820548
-0.034725126
-0.052209776
-0.028211314
0.0015399161
0.05425611
-0.052651245
0.0039673927
-0.014823416
-0.09063419
0.0051018302
-0.017309597
0.068444334
-0.035195727
-0.100461446
0.012410453
0.016833793
-0.011994341
0.0063410625
0.00055572676
0.043066386
0.0058222557
-0.050011735
0.014951257
-0.02755447
0.0045264857
-0.014712383
0.09934188
-0.029806565
-0.020864073
-0.0020015426
-0.041617874
0.025853086
-0.008134393
0.023503302
0.022309352
0.03354623
0.06028706
-0.11878609
-0.058274407
-0.018965326
0.009856792
-0.016806062
-0.055032205
-0.0002830391
0.033172656
0.009059114
-0.03445564
-0.012105924
-0.024966007
0.026524037
0.052714992
-0.022786815
-0.027368067
0.004371351
-0.008862173
0.010600461
-0.010109456
-0.008217061
-0.027226884
-0.057036202
0.01764996
-0.010765984
-0.011929259
0.00053105963
-0.01234953
-0.07603031
0.045036096
0.0034125794
-0.027232299
-0.042554498
0.017936297
-0.10694304
0.021381438
-0.047123764
0.033912405
0.010763274
-0.01159529
-0.042129327
-0.012945238
0.009935497
-0.07990385
0.016982486
0.013077336
-0.011471831
-0.03937708
-0.027067596
0.033641513
-0.006428253
0.016864834
-0.024459226
0.022614798
-0.058664795
0.0018614774
0.06580001
-0.027475424
0.007494202
0.037016314
-0.0045082713
0.106029704
0.0020228336
0.045789808
0.08591971
0.011331633
0.010632766
-0.006739043
5.662874e-05
0.027591413
0.02981596
-0.0027139625
-0.003062634
-0.022114001
-0.012685462
-0.021118859
0.026146391
0.0062819533
0.025318706
0.029670456
-0.034659203
-0.090011515
-0.02914871
0.01891517
0.001989159
-0.0026739421
0.10432786
0.037199378
-0.04128583
0.0010287493
0.09479776
-0.011819891
-0.0096352175
-0.023803484
0.016407542
0.042633075
0.028789962
-0.068347946
-0.00882554
0.033188283
0.07381419
-0.054710466
-0.010775752
0.05453908
-0.0048579494
-0.101194225
-0.008271983
0.08246218
-0.044578463
-0.09130181
-0.02670584
0.022131726
-0.088695176
-0.1052382
0.04351857
0.00060481875
-0.04255672
-0.06189017
-0.048442483
-0.007391781
-0.00013744793
-0.026419235
0.06687475
0.02159034
0.014618798
-0.06684662
-0.06476785
-0.015826946
-0.062261697
-0.042283297
-0.042517796
-0.017297905
-0.03091262
0.031570233
0.074563116
0.048274435
-0.006888227
0.059890397
0.058575302
0.043910794
-0.0048732474
0.021907793
0.012789043
-0.009713871
-0.00096101314
-0.06452861
-0.012700395
0.0065524
0.022771934
0.015389928
0.040435538
-0.0016723706
-0.045537796
0.027114384
-0.0094858995
-0.041009545
0.013149898
0.003559296
-0.022979273
0.022366725
0.058044016
-0.04347347
0.027438497
-0.022745391
0.026736809
0.0140612
0.018955285
-0.024549562
-0.006600314
-0.02736914
0.009821955
-0.0076259812
-0.024837455
0.021240689
0.042018715
-0.02713543
0.09839917
-0.03449289
0.02567556
-0.04307393
-0.016894424
0.03360041
-0.0057976334
0.024839895
0.009612854
0.015272196
0.010717924
0.042696074
0.07033826
0.0604995
0.14189543
-0.029696358
0.0434796
0.025535561
0.021476543
0.013494917
-0.006584993
-0.02288457
-0.042443216
0.010510225
-0.024669373
0.019416738
0.010245176
-0.037397858
-0.036328588
0.007354195
-0.008127078
0.0194813
-0.00511684
-0.0074185105
-0.015431653
-0.025265524
-0.044099946
-0.013328439
0.038107287
-0.022409005
-0.14505093
-0.052688286
-0.03248894
0.0677803
-0.01743246
0.047869325
-0.0413481
0.012402045
-0.00734709
-0.030541185
-0.010946952
0.009667194
-0.055939298
-0.07656932
0.014632278
-0.0044323835
-0.012514252
0.010352043
0.059321348
0.026160907
0.026415149
0.020378895
0.011177601
0.043970536
-0.042246427
-0.01422681
-0.018095998
0.09911209
0.016161323
0.011507845
0.008049464
-0.021679686
-0.03862755
0.0027987445
-0.002319209
0.025000192
0.01735288
-0.018162128
0.016822502
-0.0018216342
-0.011596185
-0.01836742
-0.0036219005
-0.016744936
0.010990501
-0.0068463725
0.06941673
0.01512563
0.04925763
-0.06755421
0.13558169
0.0003263838
-0.038018074
0.0076413266
-0.043793857
-0.052510493
-0.046822384
0.071119785
0.053893734
0.015115816
0.018705677
0.0067636794
-0.029987594
0.013588247
0.09567786
0.038677763
-0.07060042
-0.0145152835
-0.045397215
-0.0022948666
-0.026502015
-0.062190015
0.021163048
0.06389237
0.00903361
-0.026511291
0.051013246
0.061369155
0.0043825707
-0.056259498
0.012956923
-0.021136733
-0.028084613
-0.13003196
-0.022887047
0.0012733733
-0.014544663
-0.016297523
-0.027545277
0.015841058
-0.08915087
0.06899721
0.009180924
0.00068932725
0.032431725
-0.012299113
-0.010923854
-0.009075811
-0.019209022
0.12909463
0.040896054
-0.063302465
-0.06262434
0.06741329
-0.04145408
0.0584812
0.00958801
-0.05694674
-0.06740966
-0.007886228
0.05675146
-0.0070717176
-0.013803006
-0.017549867
-0.011888002
0.0004721068
-0.06221113
-0.027408343
0.0016652417
-0.05708443
0.039491937
0.050403487
0.07942769
0.018939726
0.03297015
0.00493144
0.01814252
0.026534868
-0.05905287
-0.01556804
-0.006020433
0.02100002
0.0020348108
-0.05613133
-0.07011953
-0.022901095
-0.019360619
-0.077185884
-7.764666e-05
-1.945407e-05
0.0012996708
0.019841645
-0.012899801
-0.044747014
-0.06713659
-0.089286454
0.016885184
-0.07802449
0.03274274
-0.013056106
0.049679544
-0.00891327
0.035918627
-0.05499549
0.024761032
-0.050074607
-0.008261037
-0.02552466
-0.012599262
-0.021917684
0.027279401
-0.10552469
0.009218651
0.07686687
0.017149292
0.0034908282
-0.09142809
0.009847661
-0.0626591
-0.01155634
-0.051020734
-0.00574129
0.04074763
0.034142077
-0.0018090429
0.02764671
0.029168151
0.01851219
-0.09065483
0.0072274725
-0.013865159
-0.070674546
-0.1725685
0.08498687
0.13422821
-0.019213637
-0.019553043
0.0016090097
0.012699597
-0.037174683
0.056275513
-0.028424686
0.043585796
-0.02872181
-0.045109797
0.055517696
-0.028368477
-0.06439699
0.006848524
0.041480523
-0.008551784
-0.03311391
0.021823384
-0.016551904
-0.012668916
0.0048545576
0.0074161515
0.0077798385
0.007700318
-0.016868418
0.023847342
0.01262676
-0.06466421
-0.02828046
0.017073143
-0.016131587
0.0041128383
-0.055993605
-0.021580022
-0.025476372
-0.004881027
0.05798437
0.044122376
0.040697478
0.016271321
-0.08055089
0.013004954
0.0984315
-0.020303577
0.036586218
-0.0013360706
-0.03842423
-0.009732452
0.010821478
-0.043739
-0.008914453
-0.015092139
-0.105847925
0.014717044
0.05771079
0.039744813
0.04337082
-0.00033657334
-0.0084313415
-0.057138633
0.06852308
-0.05710446
0.0020495756
-0.006812017
0.045173373
0.100178026
-0.03940767
0.02502575
0.0080008805
-0.0059147053
-0.01623972
-0.030659625
0.052109964
-0.057566687
-0.01064894
-0.022335237
0.030028442
-0.015723769
0.053759754
0.008759417
-0.021622032
0.005691336
0.0001949389
0.03765631
0.030311204
-0.06749483
-0.053681575
-0.10711652
-0.050486624
0.019205777
0.04037465
-0.047056817
0.0024400894
0.01949109
0.031135406
-0.024824977
0.05198096
-0.04506737
-0.07117144
-0.044280667
-0.020279609
0.09536855
0.008487164
0.024693161
-0.04914547
0.039569035
0.001018518
0.020083806
-0.036424607
0.002154418
-0.002170733
-0.021614099
0.008196356
-0.047538307
0.0006772693
-0.03710776
-0.0005051799
-0.048095196
-0.036231317
-0.027113214
-0.031054027
0.018358843
-0.05218819
-0.018875232
0.051962238
0.031907864
0.06871475
-0.030183785
-0.050549194
-0.048121706
-0.038704395
0.050756935
-0.024835084
-0.06385218
-0.04558438
-0.021730384
-0.01822876
0.087756634
0.053266898
-0.008158373
0.023042724
0.01609745
-0.012395439
0.054901972
-0.09074004
0.10628594
0.04084325
0.019312888
-0.024058487
0.02158148
0.024118142
-0.028735647
-0.022614513
-0.049540486
-0.0839301
0.011417185
-0.040990997
0.07298026
0.041653007
-0.047756996
-0.027181858
0.10367476
0.0108712325
0.03064029
0.05708814
-0.01147646
0.013065675
-0.077809334
-0.016799137
-0.021577805
0.009859696
0.04309897
0.0067358846
-0.045177408
-0.03698751
-0.007385571
-0.026765564
-0.030820947
0.012480978
-0.014790995
0.05515886
-0.022421258
0.035425995
-0.009498749
0.009186068
0.0012187371
-0.061341036
-0.047814317
0.0120122675
-0.0016025497
-0.047393426
-0.028261019
0.026965851
0.0108422525
-0.07480936
-0.01614045
0.0050655133
0.05968109
-0.025077077
-0.04222672
0.036131825
-0.029770799
-0.0046781246
-0.004562515
-0.040246274
-0.014019377
-0.037759826
-0.052424747
-0.027429057
-0.021002559
-0.0021717956
-0.010093144
0.09583768
0.011036116
0.0024285216
0.00013722431
0.020902416
-0.022179896
-0.014421443
0.13149351
-0.0361543
-0.013062946
0.033595808
-0.027272457
-0.002682286
0.020209616
0.05385006
-0.007930636
0.043469146
-0.00790345
-0.01891343
0.04207694
0.056887582
-0.012648951
-0.09399837
0.012906541
0.022261115
-0.012821051
0.02735725
0.064473554
0.033065934
-0.004664396
0.07787369
0.042572506
-0.026323184
-0.055947673
-0.028579805
-0.004580325
-0.21015367
-0.0073471633
-0.0019346752
-0.032284375
-0.025983505
0.096648335
0.03380309
0.002202942
-0.042216938
-0.04517132
-0.008899572
-0.037305802
-0.031522404
0.005839154
-0.0033053935
-0.011804596
0.011389944
0.020815853
0.05391985
-0.0281538
0.01706691
0.07863114
-0.018715007
-0.013830268
-0.015642695
0.061956067
0.026003776
-0.04209068
0.018119132
0.003735061
-0.026245633
0.022279162
0.0224873
-0.10749717
-0.00018179814
0.017517278
-0.012283144
0.014657335
0.00049220346
-0.0274422
0.029297456
-0.04118407
-0.0021126335
-0.027575074
9.115856e-05
-0.007520788
0.0067841853
0.02363272
0.05247552
0.047447383
-0.06564719
-0.026299654
-0.054977503
-0.07210099
0.057017032
-0.00909689
-0.041794527
-0.041086018
0.03028731
0.010157813
0.039932184
-0.034423593
-0.052829623
0.014758492
0.03530192
0.0508513
-0.020121172
0.018353708
-0.0009258172
0.02809625
-0.027383918
-0.0358806
-0.029305741
0.027624005
0.037225083
0.010428826
-0.05987858
0.04826629
0.003302225
0.007329936
0.012630335
-0.01866669
-0.09646915
-0.057754323
-0.014179479
-0.008518231
0.03565367
-0.0615673
-0.0183043
-0.017653022
0.038549293
0.011944443
0.01349159
0.019609297
0.054984998
0.007878726
0.030107962
0.023266876
0.07181857
-0.00061165495
-0.046877194
-0.029237576
-0.025936307
-0.063245654
-0.0022364194
-0.08412522
-0.034282975
-0.007588735
-0.016145801
-0.0024784028
-0.05915592
0.0021157432
-0.042386837
0.055055358
-0.03707505
0.0071128462
0.06614602
-0.0075863237
0.01787925
0.0076038353
0.08237866
-0.032225344
0.042185873
0.05226176
-0.07330475
0.04892842
-0.028703155
0.016277114
0.027023569
0.05948141
-0.044165988
-0.00573164
0.036655072
0.020783482
0.05809847
-0.006585646
-0.013437697
0.030300649
0.06948716
0.06514189
0.053536806
0.053540953
-0.014564239
-0.009998406
-0.06835059
0.02287173
-0.031864427
-0.028849352
-0.01621516
0.021424081
-0.011780524
0.031114228
0.0026479692
0.034709513
0.03539231
0.027770454
0.038001366
0.02406033
0.004901823
0.006411346
-0.0017749275
-0.026926918
-0.010975046
-0.03577526
0.0132570155
0.05140799
0.08397324
0.056072723
-0.027427567
-0.00989874
0.049934916
-0.0058316677
-0.03245576
0.035341315
-0.039726958
0.024398288
0.03851324
-0.008587218
-0.03281333
0.016427947
0.0037181377
0.0065989876
-0.04162955
0.056160357
0.011333858
-0.0032177735
0.0043459716
-0.030580238
0.00482183
-0.08449647
-0.005931012
0.051017128
0.02869081
-0.004051958
-0.022577912
0.04029874
-0.02038591
-0.08960287
0.04662306
-0.003581869
-0.025622733
-0.03522144
0.025232613
-0.07642021
0.0041437084
-0.12635146
0.002710232
0.16962141
0.0018617145
0.0077925506
-0.03608882
0.0011065088
-0.0004711574
0.01691612
-0.0050320327
-0.015825542
-0.017677026
0.010911526
-0.022349752
0.045751754
0.024426436
-0.035728384
-0.03846303
-0.025150314
0.026507108
-0.011857421
0.075967476
-0.05206244
0.033329833
-0.21319188
0.055540435
-0.024400283
0.042747173
-0.019630048
0.039817855
0.04309759
0.013829552
0.056026977
-0.010612426
-0.030426623
-0.0106157
0.000518152
0.011729155
0.04564945
-0.010790258
0.026609702
-0.010280619
0.044754863
0.023595924
-0.0037846898
0.0075008
-0.030484447
0.030281877
-0.06302749
0.019489523
0.05460663
-0.032741506
-0.029036382
0.04061021
0.005278196
0.012937002
0.16024831
-0.101357326
-0.03846724
0.059033025
0.044901315
0.028802363
-0.06261728
-0.028848082
-0.027712539
-0.04463004
-0.032837197
-0.036591124
0.035105556
-0.015574735
-0.03760248
-0.07307579
-0.046439897
0.068041936
-0.07515794
-0.011299423
-0.16720489
-0.057180367
0.0023208999
0.07520475
0.008305113
0.025876869
0.06447933
-0.016162863
-0.08186248
0.024971051
0.007927075
-0.049016476
-0.05854019
-0.009540053
-0.010789609
0.010471758
0.034636296
-0.010104166
-0.0357871
-0.012699443
-0.034412675
0.032764655
-0.012169274
-0.005258329
0.033521127
-0.019150347
-0.028562397
0.02974447
0.043650564
0.08867868
-0.03830478
-0.023713859
0.059576806
0.066415906
-0.023545792
-0.018691372
-0.014935941
-0.028831668
0.06464534
-0.050519463
-0.07680684
-8.31968e-05
0.015644843
0.084702276
-0.031062184
-0.037094284
0.03795504
0.026270028
0.08438726
-0.015523241
-0.043713838
-0.021175005
0.070659325
-0.021072406
-0.008241547
-0.06264299
0.017818917
0.031243967
-0.017112672
-0.03957144
0.018569872
0.011504835
-0.10079427
0.008639141
0.02076752
-0.018875508
0.003961268
-0.011818858
0.055567574
-0.05642462
-0.039975304
0.047831364
0.0546813
0.04424147
0.015637951
-0.0487087
-0.0066283527
-0.0027132027
0.012340735
-0.0011210225
-0.0023203231
0.0016069562
0.0037153838
0.019890895
0.0020462908
-0.021693142
0.017220456
-0.001942945
0.047684874
-0.022088481
0.0078043467
-0.11077127
-0.005491958
0.047454875
-0.04375966
0.048667457
0.027332867
-0.035777424
-0.045017567
0.024413336
-0.019112855
-0.017229479
0.0018277861
-0.017097607
0.006102675
0.023575163
0.022514459
-0.055401642
-0.010075774
0.0037291565
0.000550241
-0.02143327
0.024870861
-0.0009005227
0.027931597
-0.00023913766
0.03693366
0.0057044644
-0.087333016
0.03745686
-0.024011165
-0.0014775563
0.087109074
-0.0011468936
-0.023217868
-0.056419462
0.040316936
0.072287716
0.03667448
0.0065968237
-0.03839813
0.0316508
0.04550836
0.016142385
0.0012463719
-0.018091798
0.03176305
0.061728526
-0.03206532
-0.022597495
0.019468365
-0.010137772
-0.06453719
-0.01742554
0.024656387
-0.020668363
-0.024231147
-0.026607377
0.039483905
0.017786033
0.013163441
0.021753713
-0.022914946
-0.05041094
-0.019435726
-0.026496187
0.035352685
-0.044432692
0.085313044
-0.0045579025
-0.05626139
0.02404305
0.01792014
0.014982188
0.036938697
-0.019728217
0.011881497
-0.004350209
0.032792065
-0.026114086
0.020026917
0.022005979
0.0065323072
-0.017401835
0.007471085
-0.026206205
-0.012035094
0.016145933
0.05006099
-0.022235712
-0.05611789
0.01587036
-0.014368035
-0.017947437
-0.029331498
0.003309581
-0.016594289
0.017907752
0.00095144875
0.018075671
0.018789213
-0.031556882
0.031187646
-0.0017290951
-0.043604773
-0.008419615
0.049138512
-0.040868096
-0.023582777
0.05452205
0.026142772
-0.02094219
-0.011195034
0.051995613
0.03985243
-0.019391708
-0.07366621
-0.013939109
0.007417754
0.033681713
-0.034850035
0.028968878
0.0013808312
-0.029784655
-0.011571346
0.0034597598
-0.024133394
-0.0003588162
-0.0008376027
0.023125602
-0.014095169
-0.060489096
0.0065219966
0.0014771656
-0.04749364
0.008506449
0.017556416
-0.031070026
-0.045448758
-0.03145324
-0.031725824
-0.019409198
-0.01576681
0.010023045
0.027189068
-0.0002801199
0.05597979
0.075669475
-0.004715534
0.019399665
0.0038829574
0.041137513
0.022993874
-0.008373511
-0.030887062
-0.00834598
-0.018838879
0.019006243
0.018382693
-0.048240315
-0.031241987
0.022174722
-0.0016537618
0.006811533
-0.0045360844
-0.0109903
-0.04813799
-0.064474255
-0.011556258
-0.016417764
0.0051210504
0.020669725
0.008378481
0.046726145
0.004571573
0.006551676
-0.01782973
-0.031749614
-0.005551203
0.012758987
0.02086441
0.06726226
0.05865234
-0.02478951
-0.0035147013
0.005570558
-0.045549665
0.021845976
-0.041215677
-0.0011502682
-0.060648903
0.002960242
-0.017598134
-0.011020859
-0.001339875
-0.017050035
-0.04152754
0.027244344
-0.022067904
0.020498043
0.024501342
0.039206292
-0.03510601
0.041687634
-0.021494325
-0.011352697
-0.026034592
0.035573334
0.026135735
-0.013965461
-0.045289718
-0.028226165
0.040946923
0.024757184
-0.022507453
0.04047403
0.0031384
0.041117236
0.08760694
-0.028304238
0.020164425
-0.009563366
0.030759057
0.01204257
0.020984964
0.009958264
-0.021255393
0.01729562
-0.057441436
-0.036118187
0.008325935
0.045676112
-0.0344347
-0.01185012
0.04913466
0.029293021
-0.011879788
0.032836676
-0.013977709
0.007507871
0.08423092
-0.047319844
0.0065565924
7.999526e-05
0.0609071
0.040514767
-0.014806051
-0.028674265
0.031213505
-0.0062503107
-0.016564835
-0.0023672953
-0.038851127
0.0462846
0.12570949
0.027286334
-0.014983242
-0.037178807
-0.044603083
-0.059806906
-0.047487937
-0.004905714
0.039381176
-0.06326351
-0.02419835
-0.027757222
-0.031109758
-0.038441133
-0.0031152847
-0.031154271
0.017695708
0.014198954
0.017217351
0.023495438
-0.0030856724
-0.022018459
-0.023088831
0.017271914
0.053162526
-0.013774223
-0.03819222
0.020221533
-0.021635521
-0.034476057
-0.015205824
-0.026273984
-0.06149914
-0.057677064
-0.028832542
0.000626288
-0.016328592
0.017749695
0.02160386
0.024111709
0.045376603
-0.011902217
-0.007869639
-0.01422514
-0.034981336
-0.029194705
0.03448348
0.0006592368
0.029004773
0.038620554
0.06286182
0.040716384
0.00051683706
-0.006378703
-0.024040988
-0.040075168
0.021063535
-0.00021738942
-0.035156526
-0.043571416
-0.013106106
0.036752027
-0.02292672
-0.038848776
-0.05620494
0.027941037
-0.026574226
-0.0119305225
0.026086979
-0.045013443
0.020776987
0.028845131
-0.010159326
-0.016664471
-0.040112454
-0.053710803
-0.009214102
-0.056187198
-0.032547954
-0.0105285365
-0.0022853303
-0.02330691
0.0008386019
0.033081565
0.00078050897
-0.039009944
-0.05157983
0.12359443
-0.0051207864
-0.022796396
-0.0060786963
-0.007023874
0.04213618
0.0010886508
-0.014737681
0.03377367
-0.009361935
0.012796781
-0.008355337
0.0050681853
0.025768487
-0.012482176
0.044049542
-0.016052473
-0.059759792
-0.039257243
-0.00059933186
0.032149244
0.0051215603
-0.012311634
-0.017927134
0.013370702
0.032206938
-0.042650133
0.026725562
-0.02857942
-0.04025575
-0.034139913
-0.017281251
-0.06754079
-0.07008567
0.016102776
-0.031197537
0.056416433
-0.013060758
-0.112714015
0.020684838
-0.00029911246
-0.030114796
0.0007808443
-0.0760295
-0.03872303
-0.00604752
-0.016233636
0.012006849
0.059595365
-0.009130993
-0.06101528
-0.01960509
-0.08695783
0.04938604
-0.038555797
-0.0329709
-0.050554667
-0.05272342
0.018659463
-0.04271742
-0.1343638
-0.04251211
0.03694319
-0.009583285
-0.01921242
-0.013157682
0.037719846
0.08865795
-0.009533021
0.016438771
-0.0008451027
0.046425056
-0.021172665
0.03885553
-0.098410256
-0.025394164
-0.047561835
-0.016259562
0.015796123
0.00504322
-0.012060174
-0.012601768
-0.00018045446
-0.016765352
-0.01970034
-0.0113714235
7.328382e-05
-0.018701136
-0.003234568
-0.009580341
0.0013917671
-0.019333921
-0.06611617
0.00779671
-0.0072161336
-0.035933364
-0.07342662
-0.047135495
-0.03400424
0.01042386
0.015129134
-0.020183925
-0.0108771995
0.02469201
-0.035786454
0.0051184674
0.018677203
0.04873962
-0.0030376487
-0.000614483
-0.060981415
-0.0061086337
0.036580205
-0.03059588
-0.034370314
-0.026386246
0.033157382
-0.005893041
-0.04330855
-0.058190897
0.055293083
0.01997397
-0.0056658513
-0.006302165
-0.0061175623
-0.018507877
0.020767411
0.034020774
-0.0790199
-0.0626164
0.028283589
0.010919594
-0.02097729
0.0685816
-0.022330327
-0.007699022
-0.05988987
0.017164998
-0.032483686
0.016396534
0.005360699
0.07001813
0.09163153
0.07071954
-0.0461188
0.019652106
-0.02517722
-0.06522257
-0.0438849
0.008772932
-0.02524548
-0.0051819864
-0.038226318
-0.06947536
0.0409973
-0.045339268
-0.006501508
-0.060222775
-0.0069900095
0.008345785
-0.02831896
-0.007810723
0.02264445
0.0012231799
-0.02605387
-0.021190839
-0.017004427
0.07831033
-0.016413765
0.040164582
-0.029028114
0.021832757
-0.00045608295
0.013050228
0.07519697
0.018511748
-0.0069352994
0.009174161
-0.0035366945
-0.024549128
0.006389569
0.042657293
0.15716198
0.009542973
-0.04415112
-0.015590098
-0.04683166
0.03321885
0.014718801
-0.08725928
0.024510259
-0.051300738
-0.0042240196
-0.0048990836
0.034928344
0.001443122
0.027852505
0.050863933
0.0048935595
0.003239701
-0.05831579
0.012076367
0.0031262594
0.029558063
-0.019574115
-0.010940397
-0.038767993
0.0073322486
-0.0591466
-0.0001343177
0.028498266
-0.08581566
-0.04911399
0.033999868
-0.024901913
-0.025790196
-0.017453616
0.022590037
-0.033279963
0.02301439
0.007395765
-0.021376593
-0.062665395
-0.03195103
-0.0061878264
-0.044350054
-0.042994518
-0.028603539
0.019947255
-0.009901787
-0.036207803
-0.020216547
-0.028185219
0.021840863
0.010854577
-0.043281622
-0.03680075
-0.07279733
0.04905341
0.059603136
-0.060872942
0.027159004
3.2996588e-05
0.0023563772
-0.025551366
0.0596951
-0.003260562
0.03164067
0.011777256
0.0023298545
-0.0033025404
0.037551872
0.0026845336
-0.0007834473
0.0054755504
-0.0017187382
0.005623639
0.0036495058
0.11677187
0.0055182693
0.008324402
-0.04327152
-0.01409158
-0.028898958
0.043989256
0.005758462
-0.025976093
-0.04420377
-0.009385528
0.0021215626
0.00063046435
-0.13988599
-0.034951348
0.016375566
-0.017958421
-0.05026502
-0.005088955
0.034211855
0.05332344
0.025946036
-0.049238365
-0.01388166
-0.014313945
0.017879618
0.0017831469
-0.0008780288
-0.015184683
-0.016053902
-0.015522163
0.021264438
-0.015831998
-0.005011233
0.094005466
-0.00804192
0.0036887673
-0.011055172
0.005408863
0.020809807
-0.032515366
0.012855404
-0.052966975
-0.02501923
-0.032079406
-0.041817192
0.026891086
0.0137839625
0.03822507
-0.03068291
-0.0098348865
0.019533062
-0.04109636
-0.015529411
-0.005729893
-0.00199243
0.012262213
-0.002316471
-0.013925391
-0.045213036
0.016525518
0.001441001
0.012100125
0.00072889123
0.014972574
0.020350141
-0.029364038
0.013581694
-0.0057292683
-0.026591461
0.023220995
0.066749856
-0.03860938
0.08066837
-0.026886499
-0.052744143
-0.0034814116
0.0006297486
0.12887785
0.032005504
-0.061116718
-0.04927057
-0.06962704
-0.009563511
-0.03726065
-0.014704855
0.019911304
0.015945546
0.0096630575
-0.027895471
0.0052222186
0.016437465
0.028924242
0.04401404
-0.0018564786
-0.0056364313
-0.017563513
-0.01771707
-0.0009893943
0.0063093198
-0.0019271403
0.0028537859
0.005400858
0.0074288696
0.060619846
-0.015684795
-0.046549726
0.0073439768
0.005685645
-0.01573369
-0.028952055
0.05510367
0.01800736
-0.018124437
-0.023273034
0.014227284
-0.07839817
0.008640852
-0.0077335997
0.034869764
0.006199957
0.01665831
-0.012461634
-0.053780995
-0.001175965
0.007764118
-0.03585323
0.056664832
-0.050929096
-0.02939261
-0.0021020742
-0.015513201
0.0112066725
-0.03866567
-0.033645794
-0.033759665
-0.038302246
-0.009148926
-0.01360716
0.028561085
-0.041397285
-0.02715826
-0.011764249
-0.0450992
-0.016803382
0.0569349
-0.021472074
0.038102314
-0.044203438
0.024293246
0.010059932
-0.027614636
-0.013014158
-0.014958657
-0.012351154
0.0041185585
-0.009859504
-0.0060308445
0.024236219
0.047109116
-0.016067894
0.020436676
-0.005741639
-0.025509251
-0.005010204
0.012452885
-0.015348497
-0.005782845
-0.012175907
-0.014227189
-0.070304334
-0.06419718
0.0025360344
0.022173708
-0.007856223
0.05376073
-0.00018502581
-0.053324975
-0.047821127
-0.07530422
0.0051156874
0.0050731967
-0.016304513
-0.047753733
0.052138794
0.02007446
-0.06816924
0.018975923
-0.021155734
0.016163088
0.044796053
0.01689064
-0.013661765
0.02591811
-0.04375928
0.004981691
0.025901457
-0.04557942
-0.010751452
0.0043274895
0.015389972
0.007063916
-0.014189735
0.065476045
-0.0053298706
-0.034837365
0.025188774
-0.00992538
-0.031991757
-0.0029898784
-0.008720291
-0.0003440492
-0.010068437
-0.046440188
-0.03141653
0.022480637
-0.021320831
-0.09049968
0.009410206
0.011611358
-0.00085156295
-0.02287936
0.016409473
0.0042094504
0.038276892
-0.021293657
0.014574036
0.009063361
0.00755647
-0.010245798
0.027817309
0.03730839
-0.017899072
-0.06849841
-0.014434112
-0.023275256
0.011578751
0.016088916
0.010628792
0.06565956
0.011243717
0.019650998
0.06985623
-0.00024086623
-0.056090757
-0.00459428
-0.039436378
-0.047936246
0.04912445
-0.04418027
0.06728921
0.02848294
-0.03472481
0.007972662
-0.022262432
0.009836154
-0.017430024
-0.034559213
0.02500628
0.016257867
-0.015955469
0.04163453
-0.027213892
-0.032363374
-0.057697143
0.0033536197
0.013320389
0.023633037
-0.06053486
-0.0036252209
-0.02723458
0.06883659
0.039848547
0.100824155
0.012351379
-0.0020186163
-0.07655007
0.055701364
0.0141386865
0.012332202
-0.01897562
-0.0018933009
0.054427847
0.06689926
0.018978305
-0.03126286
-0.027608948
0.008615987
-0.047540475
0.059741016
0.014009617
0.016895883
-0.037403114
0.020588404
-0.022637416
-0.015671827
-0.05175716
-0.043418176
0.016943606
0.010044588
0.017096419
-0.016733639
-0.010966744
-0.005638404
-0.08816918
0.05998846
-0.013794449
-0.10296123
-0.025868831
-0.006866938
-0.008292467
0.041328534
-0.017028138
0.026315419
0.016517023
0.055477154
-0.030764988
0.049073335
0.00028134917
0.009510757
0.09160495
0.025754903
-0.031197488
-0.017148672
0.021739814
0.0022050287
-0.010442606
-0.013072498
0.028781349
0.0072086975
-0.013309884
0.017604457
-0.0150015745
0.01795956
0.019705536
-0.012190439
0.037631083
-0.013799202
-0.044605684
0.025547836
-0.022189558
-0.047684144
-3.6827583e-05
-0.010365685
-0.013655192
0.0778989
-0.050355412
0.012426987
-0.01548718
0.015887678
0.01196746
0.027547548
0.057420675
0.015714336
0.002800819
-0.022461666
0.05215928
0.01883682
0.041618824
0.00050442555
-0.034273967
-0.017080508
0.026170189
0.0024910793
0.007680954
0.00076683133
-0.04051174
-0.03938937
0.027194371
0.025526099
-0.044758298
0.009183916
-0.08066244
0.07715004
-0.0493868
-0.0271911
-0.00026816322
0.008944717
-0.06849578
0.015209619
-0.016371196
-0.020765381
0.073929965
0.06439436
-0.038221817
-0.024273684
-0.063846186
-0.056806315
0.01446803
-0.10270527
0.0126068825
-0.03841637
0.012211357
-0.06407094
0.14717643
0.032729607
0.0634958
0.015257361
-0.031194683
-0.024066411
-0.0076364935
-0.025933718
-0.004924775
-0.011274113
0.010005678
0.02818405
0.04429032
0.010814717
0.0065716165
0.029594826
0.0028881186
0.026794499
0.010972522
-0.054630984
0.0010972896
0.0053674867
-0.0070773824
-0.05017639
0.007665885
-0.04417051
-0.042087197
-0.03502388
0.05599425
0.009958392
0.0040323795
-0.036635324
0.01067981
-0.02284059
-0.020246454
0.050274372
0.03331357
-0.05430536
-0.014849968
0.021714635
0.025113327
0.072509244
0.0077980314
0.047118925
-0.012733534
-0.047653437
-0.00089142035
0.03135961
-0.01827621
0.0024861593
0.037303165
-0.03443423
-0.0020556115
-0.0068397727
-0.010258863
0.026081609
-0.021854814
-0.01879812
-0.023885366
0.035897452
0.039446305
-0.0008329154
0.016086284
0.023367524
0.020373333
-0.009089904
-0.00048043492
-0.03032516
-0.0546839
-0.057961285
0.006578579
-0.051973302
0.017740404
-0.024961375
0.026827307
-0.025284449
0.019416654
0.010856449
-0.0030089617
0.008990525
-0.03545129
0.015449771
0.069770634
-0.026185276
0.033068746
0.037022986
-0.060504418
0.009951446
0.017862506
0.03505778
0.014975226
0.076074734
0.036997847
0.05103446
0.041168932
0.02249069
-0.071677536
-0.0893774
-0.08874305
0.021902954
-0.06159361
-0.028869612
0.049590975
-0.013024963
0.01991037
0.069686234
-0.0236733
0.0083331
-0.012167724
-0.016112875
-0.007904105
-0.019391855
-0.040599898
-0.043927714
0.015138838
-0.014487262
0.0014284078
-0.043994036
-0.015656149
0.021797745
0.046452552
-0.08429459
0.0042200866
-0.012552468
0.019653255
0.012502883
-0.0066752373
0.0020684937
-0.015837654
-0.022810783
0.018282127
0.05998587
0.005373319
-0.059045445
-0.062864184
0.015309833
0.030481678
0.029015535
0.0017501948
-0.03681144
-0.004694968
-0.029476482
-0.049991522
0.007842707
-0.020381067
0.007326722
0.023927271
-0.01118971
-0.045146093
0.115334935
-0.037920978
-0.001665555
-0.03548306
-0.02432856
-0.02036513
0.0070904302
-0.045235578
-0.029355979
-0.038411748
-0.0033893178
-0.03574819
-0.01726109
0.04504797
-0.01527363
0.0022098436
0.0067479727
-0.041607045
0.108584605
-0.032261454
0.12009803
0.00824996
-0.011300297
-0.009578622
-0.007011239
0.0068174927
-0.023049392
0.044315923
-0.06544392
0.044398744
0.018638328
-0.03478512
0.06681065
0.026524357
-0.034241185
-0.003274062
-0.07910367
-0.009660449
-0.04872987
0.045972377
0.07522717
-0.080681905
0.032054596
0.02179328
0.029891485
0.019676114
-0.020324579
0.030475693
0.033467274
0.0073855184
0.12127738
-0.020638127
-0.0017775737
0.020066734
-0.06355452
0.0068215197
-0.03302515
0.0051743984
0.04172192
-0.034910012
0.053568397
0.017544331
-0.008779213
0.051097177
-0.040171906
0.04039547
0.023264617
0.11360792
-0.0054677427
0.018426294
-0.032337252
0.020781811
0.03610924
0.019136485
-0.008803591
-0.009037918
-0.009427064
0.013953956
-0.06476622
0.015994692
0.025294662
0.012771048
0.015165988
0.00621103
-0.024142886
0.0039599664
0.02207665
0.021650003
-0.010862366
-0.006072662
-0.0011876527
0.009550052
-0.040667597
0.07777179
-0.05299184
0.04881132
0.01981284
-0.08295578
0.011235867
0.0025578395
-0.04375984
-0.026225643
-0.039739847
-0.0066011827
-0.03373708
0.010536721
0.007358312
-0.10578939
0.048130263
0.011419536
0.05871967
0.013162623
0.008500785
-0.030528367
-0.009938393
-0.010335866
-0.08109227
-0.0745293
0.016428381
0.022710724
0.04196501
0.009090791
0.07333734
-0.021078384
0.08558648
0.0059790453
-0.042738874
0.029261218
-0.027316226
0.013309114
0.028377617
0.15195677
0.035694998
-0.045843683
0.024066992
-0.023846976
-0.023169955
0.002063291
-0.06300739
-0.025906263
-0.008117877
0.009454798
-0.038710013
-0.03937515
-0.018680846
-0.011216258
0.07131925
-0.061018102
-0.004920688
0.01627876
-0.018412566
0.07427243
0.004926979
-0.04390229
-0.03141169
0.009328528
0.040170863
-0.025548967
0.04060853
-0.01828694
0.10308847
0.025701635
-0.026387876
-0.017482994
0.06212031
-0.007772669
-0.003932692
0.07928954
-0.012768852
0.024491142
-0.002251069
0.020479148
-0.002065693
0.04231789
0.04625543
-0.018457357
-0.022743274
0.059276447
0.12931511
0.13138519
-0.01390988
0.06363393
0.0026027563
0.028993394
0.04010154
-0.045174576
-0.08126314
-0.014189805
0.04966703
-0.017495885
0.003590139
-0.01917739
0.12183196
0.1723106
0.053047303
0.006476291
0.05256579
0.017490566
-0.009584582
-0.051304754
0.04295367
0.04782946
-0.078940324
-0.021741858
-0.009477667
0.029183041
0.016411513
0.018139372
0.051599655
-0.008472444
-0.0012492272
0.003580587
-0.14210331
0.0042826
-0.018355658
-0.0145445615
-0.018001758
0.048948597
-0.035381988
0.017007293
-0.030999588
0.012617546
0.057394505
0.041258115
-0.053909346
0.025577605
0.050670482
0.033754967
-0.069234245
0.008354477
-0.0035320113
0.03219287
0.020457814
0.019499438
-0.04405064
-0.05035761
0.04200044
-0.017495023
0.007322817
-0.02070057
-0.009670112
0.023690157
-0.03160415
0.01674726
-0.017335812
0.021782551
0.035143
-0.050193653
-0.0905754
-0.018766947
0.017308407
0.044651486
0.0505424
0.11140392
-0.015343301
-0.0030718672
0.005832835
0.031682413
0.012714377
-0.14257397
0.024363458
-0.032794997
0.010831966
0.014525596
-0.03365823
0.029945198
0.049212463
0.03152297
0.068647
0.038950298
0.00617561
-0.06659879
0.008880995
-0.018656382
0.025547747
-0.043024022
0.08175484
-0.06473816
-0.029033152
0.07135361
0.081187725
0.011910807
-0.004923965
-0.024045728
-0.029692097
-0.054309227
0.055171847
0.010930376
0.031601455
0.013503803
0.05140263
-0.027883194
-0.009301269
-0.049791403
-0.018608807
0.009537415
0.04567731
-0.04865966
0.018387144
0.008284624
-0.02451672
0.010664898
0.006100684
0.011747767
-0.0056306156
-0.009410127
-0.0110578975
0.030690573
0.005650085
0.016988264
-0.009853014
-0.021753283
-0.0140991025
0.000668916
0.06082982
-0.054496128
-0.06948899
0.025720257
0.14674118
-0.03651088
0.07406151
0.04973369
-0.054113843
-0.037155565
-0.114628136
-0.026675258
0.0034576105
0.022143643
-0.013960448
-0.00018299704
-0.02664055
-0.018237662
-0.023971885
-0.04969216
0.051969975
-0.02556649
0.0058947816
0.008699498
-0.0089301495
0.0105805565
-0.0057441406
-0.038397785
0.004016646
0.042084206
0.055772346
0.030335257
0.02768724
0.013752683
0.09506803
-0.013381221
0.033904817
0.032319844
0.003806624
-0.0010027648
-3.1495874e-05
0.05918427
0.04933881
0.043530878
-0.042708233
-0.022862822
-0.007313235
0.010028982
-0.033668637
0.012515825
-0.044533506
-0.0073555005
0.063024536
0.0015213365
-0.025599863
-0.078035966
-0.042849284
-0.03918895
0.026161326
-0.0011530034
0.07041689
-0.006812668
-0.021187246
0.046407614
-0.029766902
-0.005697151
0.029686004
0.0040719374
-0.05058322
0.0059596393
0.038521357
0.047675412
-0.009059686
-0.04328007
0.0189616
0.004381443
-0.11027874
0.0029949376
-0.009476341
0.023969905
-0.034689225
-0.011152356
-0.041234557
0.07782065
0.13954613
-0.03925402
0.023175685
-0.0013132691
0.013869194
-0.090013176
-0.0122458
0.09254674
-0.019224072
0.020161858
0.016765404
-0.01127608
0.017900081
0.0435447
0.08191215
0.012159971
0.012418952
0.014375811
0.03187005
0.03355305
-0.008180336
-0.020555241
0.04390203
0.05700607
0.0115076015
-0.028300792
-0.008069654
0.03933526
0.003250429
0.0029727789
0.024360918
-0.04170514
0.051616397
-0.015337178
0.026536247
0.03124993
-0.062187668
-0.0024437886
0.059480146
0.028026363
-0.031150399
0.042862095
-0.058868162
-0.08592456
-0.01201431
0.01722982
-0.101095095
-0.030981796
-0.033646144
0.072237894
0.063547745
0.03397272
-0.048875976
-0.0071046534
0.003838265
0.08528342
-0.022187509
-0.017965531
-0.016425002
-0.011329528
-0.022099202
-0.050405238
0.016336711
-0.044065416
0.033366323
0.088039465
0.053671286
0.11573949
-0.023259282
0.022432346
-0.04296416
-0.030184802
-0.09849281
0.02637975
0.02513289
-0.04429573
0.01197061
0.0032492338
-0.020487266
-0.0075365272
0.0024064814
0.019181922
-0.011399002
-0.019009182
0.16429207
-0.01765294
-0.0026708057
0.0055778036
-0.027420817
-0.01592711
-0.007463243
-0.009618029
-0.03631527
-0.0977408
0.025993913
0.0024305098
-0.039144635
0.01511586
0.009049398
0.010336116
-0.007892508
0.011087798
-0.024037411
-0.0087723015
0.069088526
0.005997407
-0.013216239
0.0067836307
0.009390166
-0.021784335
4.1046624e-05
0.025696117
0.053107392
0.006648269
-0.020505583
0.05635087
-0.020769164
-0.029345768
0.0077674375
-0.032199778
-0.07908877
0.0025479693
0.018233722
0.018886494
0.018068518
-0.0005295828
-0.016862674
0.066664085
0.04144761
0.030499075
0.028721644
-0.052890774
0.028997928
0.03327978
-0.01866012
-0.006628934
0.043416295
-0.029680762
-0.0058138804
0.034819525
0.008616398
-0.068309866
0.018431652
-0.011775776
0.018354628
-0.05602576
-0.01811072
0.016878987
0.008688122
0.028645575
-0.022243617
-0.034297556
0.019842593
-0.025737854
0.04414752
0.0432352
-0.0068824254
-0.049346652
-0.018235482
0.016362732
0.0040308237
-0.011269559
-0.014400162
-0.04508807
-0.01512017
-0.029643511
-0.074469715
0.028350128
0.035116594
0.03521269
-0.013080912
-0.009117291
0.0074347714
1.3941572e-05
-0.026126426
0.00295346
-0.026353976
-0.05005544
-0.019049369
0.058813393
0.0034499825
0.0019152886
-0.027777685
0.02034347
-0.0043170806
-0.030361384
-0.042781197
-0.01888198
0.008695305
-0.014731466
0.017415911
-0.04381645
0.028692223
0.022157548
-0.03549035
-0.0202302
-0.054415893
-0.009421389
-0.0050127055
-0.06458426
-0.045823794
-0.017147796
0.008997836
-0.0040776343
0.049488116
0.041880973
-0.026761172
0.024307907
0.045873135
-0.0104830535
-0.020757997
0.13065054
0.033313904
0.011155411
-0.03584859
-0.030469803
-0.045189362
-0.015505485
0.00671262
0.008207299
-0.078373246
-0.012541862
-0.009265049
-0.04587898
0.008126885
0.0066540856
0.016036682
-0.007378475
-0.00026382902
-0.007146048
0.041622784
-0.013873626
0.008870994
0.016893994
-0.004840026
-0.04900201
-0.05167636
0.06382463
-0.027872643
-0.0033821112
-0.013580295
-0.0014656255
0.05274393
-0.007905944
0.007305724
-0.01977383
-0.01741051
-0.020249652
0.012979822
-0.011959459
-0.055514034
-0.029096326
-0.016135495
0.016721554
-0.005727888
0.039333604
0.0024900641
-0.011546494
0.07095332
-0.015941733
-0.01760094
0.04506786
0.003533528
-0.02897695
-0.0077776047
-0.029195959
0.03308881
0.080559574
-0.037957158
0.0019638732
-0.014391253
-0.01197002
0.0027806954
0.008610847
0.005367347
0.010673619
0.0071408977
-0.006624917
-0.019628651
0.045075677
-0.0033408771
-0.015171308
-0.006139167
-0.011129559
-0.020079477
-0.026901808
0.019123167
0.03773335
0.0032352216
0.0059685097
0.013200663
-0.013295018
0.037206393
-0.021791393
0.011340917
-0.0033432266
0.046852514
0.037939396
0.01751226
-0.07001049
0.07339681
0.020448873
-0.010325588
-0.052158765
0.020251604
-0.011916104
0.00969748
-0.06220097
-0.04587412
-0.018882401
-0.074386545
-0.01222734
-0.03205866
-0.018443763
-0.026156832
-0.009131461
0.027064411
-0.072329946
0.0037702406
0.038575087
-0.0047439532
0.011116548
-0.011123004
0.008986655
-0.018954094
-0.0074867043
-0.026313169
0.011570547
0.032525547
0.042610656
0.0036847652
-0.027593436
-0.024283051
-0.017638285
-0.005094572
-0.011543254
-0.07333382
-0.023824908
-0.0028873535
0.003003419
0.035041157
0.003936955
0.004821818
-0.03167879
0.05954378
-0.047137603
0.0046118414
0.01965942
0.03092356
-0.007983515
0.032057356
-0.019929923
-0.035746586
-0.022422886
-0.025854684
-0.025295183
-0.04064729
-0.026117971
0.0023982187
0.018925732
-0.01775374
0.0106928665
-0.020010218
0.019035771
-0.00052955595
-0.008764451
0.0003029095
0.015885808
0.03429782
0.11259319
-0.013873663
-0.021349642
0.0002832879
-0.01550699
0.028239027
-0.005138633
0.025758866
0.0006067197
0.01890425
0.0144839985
-0.033267513
-0.010970135
-0.028708406
0.0014636571
0.005348306
0.050631747
-0.05382766
-0.018639995
0.02909129
-0.03512832
-0.014974242
-0.020904759
-0.02325755
0.01925218
0.04744093
-0.025170276
0.03716165
-0.020274283
0.012025938
0.09298721
0.02639278
0.014641931
0.0002231035
0.012413946
-0.018992653
-0.08079214
0.0032818494
0.0022141796
0.028851293
0.048483174
0.017179621
-0.02716556
0.013610979
-0.038887266
0.014961751
0.01630324
-0.027534386
0.0005019514
-0.012342355
-0.08192306
-0.030957723
0.0011218606
-0.010586145
-0.033727795
0.050956618
0.044703554
-0.046969764
-0.009619707
0.01777768
0.011596632
0.015340443
-0.004756825
0.03862055
-0.04360562
-0.02726537
0.0018751877
-0.037597016
-0.06429051
0.26430658
-0.091800556
-0.065360144
0.0102348
-0.01621066
-0.007568578
0.0013556456
0.016248204
-0.0079611335
-0.008193172
0.031112242
-0.010388307
0.03002294
0.02410569
-0.020376306
-0.008794955
0.03277913
0.012704517
0.019441843
0.03054271
0.018293912
0.0009863459
0.0032881922
-0.01115796
0.050736375
0.028803835
-0.010870154
-0.0017220007
-0.010637495
-0.019865735
-0.06278187
-0.018905213
0.030056432
0.008960797
-0.04021694
0.00061747135
-0.022930432
-0.011819721
0.07629588
-0.02603574
-0.048640545
0.030103862
0.010658532
0.04694377
-0.06001016
-0.028160399
-0.016422674
0.010325563
0.0030888822
-0.0018107597
0.006812147
0.070872314
-0.0052425284
0.02476368
-0.013659974
0.029775977
-0.02161446
0.023727529
0.011502652
0.016019292
-0.016686866
0.031169655
0.010417778
-0.03393164
0.044040333
-0.07164565
0.029149322
-0.07081047
0.013654334
0.012116073
-0.0107419025
-0.008148932
0.012350522
-0.012730999
0.005118278
-0.011888757
0.023780102
-0.06649844
-0.0322649
-0.014226334
0.009300634
0.0952499
0.002701551
0.03600326
0.03689303
-0.005425009
-0.012316385
-0.016736219
0.008806242
0.059314854
-0.0144290915
0.020586478
0.008955642
-0.09364035
-0.035685737
0.01473083
-0.033999305
-0.05624335
0.05635787
-0.0015209499
-0.027397007
0.021870602
0.04902525
0.029374272
-0.04106596
-0.008934133
0.022757402
0.0022180185
-0.028940706
-0.021550795
-0.0032614232
-0.03894277
0.04189592
-0.032645002
-0.040090688
0.045551963
0.020042079
0.08421219
0.0044736625
0.025385717
-0.009247696
-0.0013271625
-0.035427418
0.055145647
0.07325325
0.0065744505
0.00014265096
0.026520042
-0.019534336
0.007927795
-0.052944995
-0.015431014
0.022874333
0.024452915
-0.008592853
0.017236825
-0.09274778
-0.06691525
0.014190431
0.019183502
0.011083973
-0.014551208
0.042992603
-0.05817938
0.025576955
0.0043529607
0.002604903
-0.016018504
0.014451401
0.006987077
-0.0096179135
-0.009443794
0.050503816
-0.017752906
0.016560376
-0.03549961
-0.045869056
0.03989747
-0.037044868
0.03252183
0.062188964
0.06598654
-0.048418045
0.11070175
0.01994873
0.008921694
0.00959178
0.058180943
0.019909548
0.00041461817
-0.060764246
-0.12454621
0.0059685945
-0.048319545
0.004349356
-0.038484097
0.020101268
0.07177659
0.000610406
-0.06713871
0.038962375
-0.07990402
0.030241676
0.09110967
-0.012003975
0.033242952
-0.086999156
-0.038993813
0.074195206
0.040218413
0.0048717833
-0.04508112
-0.07249278
-0.023063567
0.0033786455
-0.08011452
0.025706125
0.03200032
0.0053197737
-0.021002287
-0.004921974
-0.032987263
0.01976032
0.004772863
-0.010297726
0.011968884
-0.006328884
0.023942621
0.012596769
-0.002080749
0.04569185
0.03002011
-0.071715854
0.084124394
-0.044941124
0.016023647
-0.032196008
-0.024474591
0.0178021
-0.023427583
0.024443246
0.016956825
-0.0009014175
-0.050825994
0.056856547
-0.022084257
-0.014047605
-0.0061416076
-0.0066552283
-0.00896692
0.04394345
-0.01895592
0.008441359
-0.054537702
-0.0009827147
0.17950438
-0.02390502
-0.0010719843
-0.027975827
-0.03739604
0.018408086
-0.030188624
0.06936351
0.0045024958
0.053679425
0.04249716
0.010746751
0.042814143
-0.06478158
0.024625653
-0.006410823
0.0005808535
0.005839118
-0.025072644
-0.006861529
-0.055334017
0.006542931
0.00027959477
0.063538656
0.004989835
-0.0036069853
-0.04080524
0.020979727
0.020638093
-0.015187793
-0.013519582
-0.012729118
-0.042112
0.09588205
0.032197226
-0.06312252
0.013138408
0.0027762086
-0.034890767
-0.06264489
-0.012711133
-0.032244496
0.009702893
0.0077359034
0.053179964
0.039733212
-0.0031413033
0.012116996
-0.044542495
0.038403593
-0.04155075
-0.005545261
0.016999863
-0.014612791
0.0044059916
0.04099925
-0.08526314
-0.034395933
0.0060722115
0.026036816
-0.04965725
-0.016424742
-0.02483925
-0.0024020583
-0.002417705
0.036172666
-0.0060083633
-0.0065432847
-0.012987823
-0.021251323
0.009427606
0.07059227
-0.022489225
-0.038099304
0.011564955
-0.010013337
-0.032344174
-0.09891631
0.07530635
-0.02061737
0.0062652337
0.035826974
-0.06985934
-0.027551316
0.034311786
0.03540287
-0.023514392
-0.022308236
-0.004557933
-0.030107489
0.0017119042
0.041883465
-0.012068313
0.0016435875
-0.035236444
0.008813116
0.052653573
-0.013765313
0.0328682
0.026088692
-0.011620426
-0.019453762
0.029508967
0.07572517
-0.011892555
0.025827257
-0.019632438
-0.03329994
0.00884646
0.009086928
0.016245984
-0.044128418
-0.0059483657
0.014825513
-0.011687097
-0.0009752696
-0.054716457
0.024999749
-0.038833264
0.0051235585
0.018131778
-0.0071253334
-0.009565001
0.005384185
-0.051696036
-0.030404124
0.058086056
0.0030257131
0.006849629
0.024366746
-0.012324065
-0.043673407
-0.04238384
-0.022625802
-0.03818763
0.031437457
-0.02232
-0.032284066
-0.036776397
0.007455634
0.0019722404
-0.023348687
-0.071755305
-0.040862426
-0.02446631
-0.0735888
-0.003597773
-0.032052025
0.014679753
-0.0016827541
0.04815313
-0.040564884
0.10109872
-0.051166233
0.051553175
0.010836868
0.046892185
-0.06974507
0.025768101
-0.027590241
-0.007498429
-0.010348068
0.020658022
-0.0037349008
0.00667935
-0.01624384
-0.054565296
0.002677576
1.3242343e-05
-0.014523492
-0.02661231
-0.05901566
-0.024972975
0.0429632
-0.0565467
-0.013827151
-0.040488504
-0.07306112
0.014049963
-0.004111215
-0.008996922
-0.004102345
0.017019495
0.0025427125
-0.018642882
0.053397343
-0.060345285
-0.025530012
0.041963514
-0.016878787
-0.16955857
0.06850928
0.03250238
-0.010006721
-0.12541157
0.0139885
0.026039788
-0.013941741
-0.028847069
-0.04225498
-0.055602938
0.018506495
-0.030812448
-0.032817088
-0.06471543
0.040973205
-0.020692063
-0.023444045
-0.10924444
-0.06376795
-0.0012905438
0.008562747
-0.063619055
-0.05509143
0.018888136
0.036151126
-0.02892953
7.495983e-05
-0.016389662
0.013116944
0.06399938
0.04325016
0.03368971
-0.0075857784
0.036117826
-0.0321514
0.03853439
-0.05556942
0.038915083
0.0030682874
0.058895163
0.00032103359
-0.03425709
-0.10524786
-0.058912188
-0.006398015
-0.03141196
-0.07633198
0.11903085
0.040360942
0.031740837
0.026668696
-0.0040685176
-0.03937412
-0.030720485
0.016492411
0.08495621
0.07915056
0.015023589
-0.02167602
0.048326977
-0.034227915
-0.053963024
0.010849636
-0.044431593
-0.00895204
-0.058002677
0.004336545
0.048036262
-0.0007121479
0.07260532
0.04087953
0.006862655
-0.029068066
0.01256977
0.0012399353
-0.018936923
0.010221798
0.050641302
0.006245352
-0.019773789
0.05154521
0.043707225
-0.006961469
-0.07940131
0.005156431
0.007510267
0.3592617
-0.0060780453
0.020753345
-0.045695316
-0.033216733
-0.0056267977
0.022628628
-0.022243964
0.006047226
-0.018511308
-0.073901646
-0.009363461
-0.049491104
-0.034062076
0.028424812
-0.02484573
-0.034970555
0.0034112334
-0.07294223
0.03020785
-0.016135508
-0.0008335209
-0.014311619
-0.005537541
0.01333849
0.013644992
0.03133386
-0.042262882
-0.05970095
-0.04413941
0.016457638
-0.062866576
0.01144346
0.016562713
-0.03720023
0.013016763
-0.017883098
0.018193217
0.036346063
0.1640605
-0.00387016
0.0038436933
-0.08012025
0.01402984
0.013893549
0.011509543
0.030817134
-0.06183752
-0.0026098539
0.008315903
-0.049562212
0.06410395
0.010275401
-0.004344236
0.025345182
0.00560174
-0.11632892
-0.0075703994
-0.010952713
0.0014127275
-0.030931335
-0.03996147
-0.042630855
-0.001250521
-0.055205505
-0.044980496
-0.06671402
0.026510654
0.009969691
-0.0481156
0.0120066665
0.032979123
0.0970742
-0.052604403
0.052020606
0.022058435
0.017642649
-0.0077354023
0.02986016
0.008289658
-0.003202249
-0.016409077
-0.07132931
-0.0056409924
-0.010812037
0.027952427
-0.031277653
0.009785055
0.05849076
-0.09500038
0.01826838
-0.057100948
0.030467456
-0.011727154
0.013679561
-0.04830643
-0.012182075
0.036890503
0.08429011
-0.07518979
0.03152693
0.01893517
-0.0065281554
0.002394922
0.041185424
-0.022360647
0.040726934
0.026252469
0.0269073
-0.034137152
-0.0182801
-0.005263906
-0.002431561
0.06222921
0.02669028
0.0031334814
-0.054053877
-0.027595697
0.011905576
-0.003098948
0.034800693
0.03929965
0.0074491417
-0.009449614
0.028390517
-0.008846419
-0.032764506
-0.016129699
0.02383105
0.024317477
-0.10824686
0.078293145
0.06416067
-0.039717548
-0.08496663
0.04271497
-0.025932502
0.029980434
0.021200243
-0.0674524
-0.022304682
-0.08301658
0.0018743181
0.03071013
0.00445819
0.03586728
-0.03626787
0.030153485
-0.03125395
-0.0080375
-0.009321669
-0.01073597
-0.02589847
-0.019780573
-0.05278975
0.020259002
0.0023694634
-0.0030700925
-0.05881468
-0.009013276
0.05185386
-0.034514133
0.004463817
-0.0066834018
-0.014074581
0.0043626768
-0.113291755
0.013514899
-0.055539742
-0.0027129697
-0.00929992
-0.029188445
-0.054272447
-0.05574883
-0.020950628
0.021297222
-0.022450792
0.021519054
-0.01765635
-0.05627335
0.056710277
-0.004902364
0.025422666
0.0044022035
0.009479985
-0.020190835
0.022522941
0.060469206
0.01741486
-0.0038601265
0.009200316
-0.06051392
-0.06653693
0.0808538
0.0143306255
0.017734047
-0.006592359
-0.015463526
0.0019552517
0.014758164
0.0056901877
0.07194455
-0.041887395
0.09216719
-0.013817248
0.029628059
-0.025819251
-0.012662604
-0.06924227
-0.020259665
-0.023229681
-0.02517894
-0.024112388
-0.03011789
-0.024365656
0.039151613
0.036093123
-0.06381252
0.032741953
0.02713544
-0.039640807
0.0067088334
-0.07366244
-0.14127487
0.009169787
-0.035897713
-0.052578103
-0.047340956
0.03736368
-0.06075825
-0.024325289
-0.008782782
-0.091125295
-0.0018984108
-0.011224717
-0.036112815
0.039983373
-0.036240857
0.006603764
0.025372202
0.056117527
0.01363279
-0.04624371
-0.024348017
0.0073206546
-0.017820893
0.004463896
-0.007825037
-0.027062021
0.02413517
0.017918343
0.03858957
-0.012668254
0.038264267
-0.010679699
-0.04161081
-0.037329607
0.04932523
-0.049962163
0.063428745
-0.02079031
0.041547704
0.0075285635
0.009075182
-0.068303786
-0.012025803
-0.0041896203
-0.005341088
-0.0034104818
-0.0070803403
0.04788815
-0.03526363
-0.0025729681
0.008263589
-0.028732067
0.027885132
-0.004138976
0.063321404
0.1225804
-0.01289201
0.036512274
-0.055564262
-0.030319802
-0.028870966
-0.015518844
0.016578795
0.041212816
0.013626883
0.056145124
-0.016521575
0.02498159
0.013013726
-0.06589268
-0.032911435
0.0036838742
0.016155824
0.029578883
-0.02314002
0.020634865
-0.032850046
0.0084140515
-0.13585885
-0.022517128
-0.012273102
0.0087011065
0.03509113
-0.01805142
-0.0068885
-0.023380209
0.028151175
0.03480048
0.00040341346
-0.03980236
0.009116394
-0.055649552
-0.04880496
-0.029571379
0.02840183
-0.008058819
-0.049255226
-0.045700368
-0.0256191
-0.00271329
-0.04538023
0.034074035
-0.062282838
0.0032076533
0.050165217
-0.0013261707
0.0075892443
-0.022566196
-0.013722191
-0.016248066
-0.022010885
-0.0072577996
0.028606554
-0.0073340447
-0.016014656
-0.008821062
-0.005399527
-0.07772877
0.028352812
-0.004636879
0.002430864
-0.04077038
-0.09694465
-0.038744867
-0.006669804
-0.0006079403
-0.00060712715
-0.06372044
0.046321094
-0.025874477
0.017039083
0.020819996
-0.05010479
-0.0071676336
-0.010606202
-0.034017075
0.065850876
0.017608805
-0.04972462
-0.029098967
0.027506744
-0.016058894
0.006843252
-0.05735158
-0.02856737
-0.01667899
-0.046728224
-0.042649057
0.014391498
-0.09584694
-0.033680934
-0.022506975
-0.027121216
0.025755793
0.00154236
0.02023998
-0.0046966984
-0.03976092
-0.037715875
-0.007144477
-0.005193291
-0.027731009
-0.00036505243
-0.0072679548
-0.008364814
-0.01640493
0.015418681
0.087125346
-0.014685876
0.037315533
0.03204609
0.0041665956
-0.03865465
0.029075969
-0.0112617295
0.11879395
-0.011684633
-0.07810754
0.02814926
0.023294538
0.010541537
0.015862804
-0.020493936
-0.010772366
0.00873819
0.030386703
0.009594955
0.039901227
-0.0073943865
0.021208521
-0.008463481
0.0473779
-0.014900826
0.06572043
-0.030477993
0.015777893
-0.03249816
-0.034506567
-0.0043951813
0.034027506
-0.012553277
-0.021176254
-0.0062079066
-0.09293755
-0.022425096
0.02526316
0.010667824
-0.021536356
0.0032673052
0.0031363931
-0.0009165586
-0.030914279
0.009388294
-0.023992524
-0.008327089
-0.065740876
-0.03232495
-0.040394537
0.0056009246
0.0066399784
-0.04415724
0.028060917
-0.004515222
0.014202174
0.032763615
-0.025451377
-0.027388405
0.0014560049
-0.017359778
-0.025821833
0.04081022
-0.027391799
-0.017904615
-0.053328607
0.01710604
0.06216377
-0.00025951315
-0.09298141
-0.019253585
-0.03606813
0.019976743
-0.15634438
0.06829793
-0.002433341
-0.026629653
0.019932697
-0.048573144
-0.016835593
-0.089849964
-0.033564143
0.012801624
-0.009662956
0.01764321
-0.011813314
-0.046188552
-0.05429285
-0.0375972
-0.03152755
-0.053156666
0.066692635
-0.011321392
-0.044368017
-0.027350796
-0.030048475
0.04014497
-0.012529767
-0.057717666
-0.017446134
0.019987969
-0.053139597
-0.0020003833
-0.031099997
0.014229213
0.0008847332
-0.026484778
-0.0078099784
-0.009257289
-0.08065001
-0.021418823
-0.018977452
-0.029668747
-0.01804743
0.022540202
0.036536504
0.0060465164
-0.039328527
-0.040486705
0.0131203225
-0.028337201
-0.0465766
-0.025839278
0.032830793
-0.0052055013
0.016183212
0.009755774
-0.035241056
0.018984674
-0.028704848
0.019200664
-0.019404458
0.012644635
0.018782187
-0.041406542
0.032754123
-0.015339678
0.07813034
-0.029209033
0.013536859
-0.009805387
-0.056708768
0.026024336
0.027796151
0.033624012
-0.04867376
0.0061974693
-0.051985353
0.008122281
-0.029941348
0.026165409
0.014106142
0.059840944
0.030793874
-0.07096506
0.01666843
-0.020172944
-0.0047677997
0.0089286445
-0.0047181034
0.011247584
0.021860743
-0.02245872
-0.06485363
-0.024108576
-0.019540425
0.055381507
-0.012314736
-0.018526113
-0.02460711
-0.01689407
0.02786885
0.017236602
0.025714101
-0.0047657546
-0.052351404
-0.00030800063
0.002654177
0.02632421
-0.0049149347
-0.016119756
-0.010516659
-0.031515323
-0.016292429
0.06385851
-0.0074237073
-0.02025494
0.049682785
-0.018688712
0.016182652
-0.0077189156
-0.03961968
0.0029479985
-0.033377636
-0.027933547
0.034595996
0.011460077
-0.01577068
0.0012146919
0.029634217
0.05643256
0.017097369
0.014802277
0.049994186
-0.0025016426
0.00782042
-0.0029644482
0.028146977
-0.020396505
-0.02766824
-0.01421944
-0.011711684
0.03715733
-0.034689195
-0.018104544
-0.03343063
-0.009844942
-0.0373996
0.0902448
-0.0060066455
0.04595725
-0.021602876
0.013941582
0.047160104
-0.026426734
-0.049648512
-0.035745062
-0.047121923
-0.0033346938
0.010684462
-0.031051127
0.060303353
-0.022642948
-0.00016112086
0.031876553
-0.030906167
-0.013154043
0.028409634
-0.0074589746
0.0033499703
0.006810066
0.009414968
-0.0063774628
-0.018446084
-0.032873254
-0.032152526
-0.009122277
0.0029095397
-0.094433196
0.04947182
-0.05069478
-0.048494298
-0.0062937834
0.038614385
0.011189439
0.03459658
-0.012935638
0.0072299526
-0.01725335
0.009762924
-0.0031248147
-0.0804027
-0.022188189
0.016885038
-0.0016471032
-0.012326055
-0.019997738
-0.022640668
0.0075321943
-0.0026550111
0.008280088
0.010044059
0.0021771628
-0.05461693
-0.017734043
-0.042861935
-0.010661229
-0.019929247
-0.03259573
-0.03587849
-0.029054105
0.009565362
-0.019196836
-0.009757779
0.010240734
-0.00930338
-0.0029052217
0.015673669
0.13196664
-0.022608338
0.0080426745
-0.015181639
0.02793091
-0.023334311
0.0010234219
-0.0144314505
-0.024530614
0.042637434
-0.005662137
-0.0040507936
0.031624954
0.0062149647
0.041266553
0.033081084
-0.020896474
0.068901524
-0.015109667
0.052371196
-0.004076177
-0.058846418
-0.0017405159
-0.005979395
0.0074939267
0.019091114
-0.004648234
-0.026293777
0.008381801
-0.08989474
0.0059816535
-0.006728217
-0.008503062
-0.018508108
-0.06150315
-0.010694169
0.004455767
-0.014898908
-0.033767667
-0.02440097
-0.028972061
-0.015109702
0.0071051563
-0.03510523
0.018703282
-0.0024437825
0.01199797
-3.9284118e-05
-0.004528844
0.0033025672
0.059690416
-0.013887766
-0.009757196
-0.02754527
0.06119382
0.027472807
0.1311127
0.019417912
0.07519422
0.012055239
-0.03332542
-0.03151276
-0.0027630383
-0.046725404
-0.0021351264
0.0061331405
-0.01188109
-0.12522234
0.011208657
-0.006151644
0.031809036
0.0059496923
-0.00215326
0.020411871
0.012608456
-0.03783652
0.049944993
-0.019024312
0.006452961
-0.050516807
-0.032492045
-0.041930787
-0.024310242
0.010190121
0.054086693
0.02792742
-0.0022249524
0.037129566
0.009114157
0.030843625
-0.001062755
-0.009394648
-0.0064438786
-0.021472035
-0.030579051
-0.026654774
-0.027074138
-0.04020028
-0.005485456
0.008328222
-0.043302663
-0.048453707
-0.0013731341
0.05568
-2.3446455e-05
0.0504948
0.018416528
-0.009468191
0.014958711
0.034556717
0.02198754
-0.14095321
0.06877123
-0.034431323
-0.01976976
-0.018636042
0.016568251
-0.007103956
0.16111054
-0.006166972
-0.014379629
-0.054772824
-0.08233657
0.0014101613
-0.00082634913
0.0063012037
-0.08286558
-0.11972624
0.04164895
0.022477383
-0.022619039
-0.029253917
0.04667997
-0.011469274
-0.018963626
-0.017199991
-0.035528682
0.033804
-0.03081655
-0.029924715
-0.03943342
0.012492296
0.0158228
-0.029228808
0.013063074
0.0017183932
0.015930755
0.111672886
0.046654064
-0.047093023
0.03018694
0.04034545
0.011352242
0.049054675
0.0013009885
0.023160024
-0.045831736
0.010029614
0.021681953
-0.016168553
0.007504934
0.009560986
0.04853828
-0.004774769
-0.051903166
0.0061081005
-0.006816584
0.013841201
-0.029586196
-0.036411647
-0.03770816
-0.019271476
-0.041444786
-0.0319967
-0.059016757
-0.11486123
-0.018636385
0.012389121
0.038563464
-0.108325526
0.017853878
-0.02602512
-0.0041757077
0.0002790787
-0.036227398
0.019896599
-0.04658732
-0.025577202
0.019187031
-0.0055819573
-0.011350568
-0.031288512
0.011624984
0.018272627
-0.04220084
-0.02011212
-0.019679299
0.053736623
0.031146146
-0.013199535
0.008349559
0.0189883
-0.002875852
0.0016085963
-0.03100968
-0.031066176
0.021934444
0.030017551
0.025272071
0.028067503
-0.037423674
0.010792203
0.0019209861
-0.05164463
-0.043190755
0.002684057
-0.044703297
0.033083607
0.01418521
0.00048248272
-0.0064139487
-0.008656188
-0.029254626
0.011693122
-0.017290719
0.082782574
-0.0051163817
-0.025502225
0.1628145
7.468367e-06
0.0060840235
-0.019118467
0.009612327
-0.011936455
-0.0015709372
-0.013178626
-0.013238005
-0.033738606
0.000289617
0.01176188
-0.02742078
-0.0033725833
-0.012923869
-0.0187499
-0.011264403
-0.016306903
0.011834414
0.054782536
0.035432346
-0.015521637
0.009848769
0.012039183
-0.09897948
0.002974356
-0.00015175523
-0.0367301
0.017120784
-0.024734031
0.0068313414
-0.036592685
0.035871923
0.015447477
0.0050454624
0.02143804
-0.022989823
0.01993497
-0.004802213
-0.0243041
0.017009024
0.008815048
-0.02494967
0.006653092
0.021236071
-0.03553384
-0.018416096
0.023448598
0.036668792
-0.034204923
-0.011010191
-0.003909653
0.004547283
-0.009477246
-0.022352
-0.047865186
-0.040418968
0.044443276
-0.003037492
0.0035764393
-0.022548055
0.050238226
-0.07241373
-0.01641842
0.040027022
-0.025810115
0.026334744
-0.026319489
-0.0036547193
0.052253895
0.0015542432
-0.01991167
-0.03136614
0.032575913
0.029488234
-0.018041411
-0.08209293
-0.017722676
0.02814564
0.006361534
-0.047603764
-0.013574103
-0.00460056
0.0050393343
-0.050012678
-0.08169085
-0.010905322
-0.0147624025
0.030279422
0.0047815396
0.028637778
-0.0005523314
-0.007827786
0.011208561
0.021417115
0.001807778
-0.023611441
-0.013742759
0.027603868
-0.010074047
0.020268971
-0.0063003884
-0.0055634603
0.025166623
-0.06954798
0.0071410593
-0.009714789
-0.011346183
0.016881146
-0.04029489
0.012512524
0.04019013
-0.054937694
-0.05652891
0.020328471
0.009811156
-0.070568085
-0.027663795
0.014410307
0.053809024
-0.026477123
0.0100327
-0.009268104
0.010916442
0.054657202
0.009835827
0.013308831
-0.02046535
-0.034812607
-0.017850135
0.036321796
0.015375511
-0.020014087
-0.020393562
-0.16999325
-0.02679195
-0.041591365
-0.0073528616
0.028442537
-0.03976825
0.028532278
-0.017213767
-0.08677293
-0.01283007
-0.0031116945
-0.0060701803
0.03202809
0.0067816186
0.010182793
-0.038790237
-0.0048782406
-0.12565768
-0.027243517
-0.002535964
-0.0019884303
0.014627053
0.017180167
0.008577789
0.0068865353
-2.2843247e-05
-0.053107135
-0.025548998
0.03271657
0.02215057
-0.0019365065
-0.013181654
-0.005547248
-0.04286581
-0.015300829
-0.0132981585
0.02418883
-0.04086355
0.068339854
-0.005293669
-0.00061700493
-0.012081494
-0.03393581
-0.011858699
-0.019248366
-0.047253497
-0.01434692
0.012984688
-0.05213654
0.042599425
-0.046207547
-0.04694035
0.037017416
-0.022859221
-0.013823464
-0.010473669
0.053259928
-0.0013831933
0.029908143
0.034467638
-0.19296338
-0.0078471275
-0.09696388
-0.012926494
-0.02644366
-0.008744968
0.026730198
-0.03366708
-0.0078858165
0.024570353
-0.0013117088
0.0063503324
0.004720959
-0.02640539
-0.05976087
-0.010908095
-0.045809876
-0.0155168725
-0.034383755
0.0038641712
-0.009486209
0.031795103
-0.014766415
-0.0028688938
0.017879628
-0.025874767
0.0007274321
0.01826084
-0.006771865
0.0051898244
-0.027642032
0.02936488
-0.13214412
0.0015220275
-0.000694775
0.009768375
0.008791637
-0.006293111
-0.08114909
-0.012200747
0.019539919
-0.03584157
-0.02900587
-0.07356879
-0.061101273
0.018033711
0.0056244833
-0.010085719
-0.046889454
-0.040709082
-0.16685815
0.059468396
-0.058642767
-0.031653263
-0.018872622
0.027898882
-0.002156738
-0.022451684
-0.083491944
0.015823897
0.079118945
-0.03844371
-0.051303066
0.052587703
0.014114152
0.043205213
-0.04255468
-0.012112809
0.010071595
0.001846677
0.02602879
-0.0020578129
-0.038919106
-0.07051114
-0.058097426
-0.025370955
-0.00910853
-0.006540902
0.010122916
0.017984072
-0.036861602
0.051078763
0.039948992
-0.010416994
0.017473351
-0.007070986
0.00869532
0.026665809
0.030556163
-0.038625263
0.019690048
-0.04023416
0.0034103817
-0.06930335
0.0063368157
0.0029033883
-0.06452448
0.02541331
-0.08105909
-0.02371826
-0.010706637
0.029964104
0.06217523
0.008217345
-0.007067533
0.0534459
0.070933335
0.028652778
0.08624024
-0.084270366
-0.009342877
0.012999462
-0.011294523
-0.004665712
-0.00689035
-0.040647224
-0.039550688
0.046693426
0.011907471
-0.014935691
-0.07569868
-0.021783255
0.035506986
0.022870246
0.04351592
-0.034552816
0.07187681
-0.005991383
0.019272171
-0.051695634
-0.029140033
-0.044608273
-0.06795896
-0.04118311
0.031690832
0.0840235
-0.041896205
0.0046600774
0.028076181
0.06583711
-0.015819615
-0.04670133
0.004418344
-0.026819233
-0.049188122
-0.005095366
0.02980405
-0.02716457
-0.021091448
0.035874307
-0.015632067
0.0016895857
0.0025967709
0.017729722
-0.07131978
0.010282056
0.027171265
-0.016619915
0.0042468524
-0.0028780887
-0.07420795
-0.032033525
-0.060518518
0.0043607904
0.024663273
-0.08083086
0.011603827
-0.017138511
0.007669153
-0.024547111
-0.02722644
-0.04261392
0.0056211036
0.11540114
0.01119583
-0.037968926
-0.09782874
0.06950138
0.005119363
0.030282348
-0.04217483
0.0019659898
-0.039932046
-0.007909534
-0.018618718
0.016577777
0.07148799
-0.009385883
-0.023494177
0.010277096
0.03997163
-0.0133793
0.07998713
-0.0123649305
-0.012124116
-0.046151377
-0.016388834
-0.021700636
0.03223804
0.05443015
-0.019136926
0.0051309373
-0.0124553135
-0.052566443
0.034742124
0.079556905
-0.024623351
-0.036912967
-0.058446907
0.00065763673
0.037723757
0.014491037
0.02080252
-0.056425095
0.042136762
-5.582179e-05
-0.06380443
0.023330348
-0.008420395
0.008418201
0.010666465
-0.08261432
0.028895492
-0.0778643
-0.039409176
-0.04688767
-0.011752197
0.03537631
0.023483431
0.03426075
0.011267576
0.061637085
-0.007456218
0.05968396
0.0036931783
0.038325444
0.10653284
0.015666079
0.066810735
-0.055284362
-0.021753863
-0.008471968
-0.05201779
0.021107929
-0.013696891
-0.048208296
0.023907807
-0.013057012
-0.038475774
0.009627494
0.02252983
-0.084495015
0.020121882
-0.010398628
0.025128039
0.012353913
-0.025281666
-0.04894476
0.026167389
0.046134718
0.010640665
0.027747814
0.050173122
0.011497973
0.038130257
0.03759669
0.020394724
-0.010551168
-0.016498247
-0.005418505
0.017674576
-0.0018546883
-0.021470135
0.020658169
-0.0038453422
-0.05067906
0.00056147017
0.07249076
-0.028263718
-0.02209901
-0.0790432
-0.0025929527
-0.009864154
-0.012985957
0.08827964
-0.007496963
0.030581037
-0.0050441255
-0.06287438
0.026313473
-0.003613572
-0.029668368
-0.028570674
0.0039576497
-0.058868323
-0.06724638
0.06279709
0.037689433
-0.015403028
-0.065628074
0.016799495
0.040344995
0.007948554
-0.024396688
0.010986676
-0.064457156
-0.10447159
0.009912493
-0.046678133
-0.023164231
-0.06261306
-0.005223388
0.026453277
-0.011582214
0.03615953
0.056070693
-0.046635803
-0.0013077861
-0.008317454
-0.0064318394
0.00976087
0.00251078
0.0016724499
-0.0049887197
-0.06546386
-0.030838305
-0.03563874
0.008649296
-0.006522999
-0.026438508
0.06987235
-0.00084226765
-0.04860115
-0.026231213
0.066199504
0.00094648433
-0.021643285
0.00131237
-0.0016832635
0.007629641
-0.017498324
-0.027806748
-0.008403444
-0.035218358
-0.005245874
0.06857655
-0.013463776
-0.0076520173
0.005276807
0.02029352
-0.0884378
0.03449205
-0.0032737777
0.004527735
-0.040371034
-0.023146614
0.008018612
-0.044486336
-0.02495498
0.049335808
0.012117052
-0.051569533
0.028507795
-0.03885703
-0.063153766
-0.053872667
-0.031455792
-0.052090187
0.055975247
0.008067167
-0.053185705
-0.04555998
0.017722646
-0.0503183
-0.06047279
-0.0076877396
0.092729405
-0.070203654
-0.053265467
-0.044811282
0.0014776443
0.022570446
-0.006381737
0.0024029813
-0.04027061
-0.05024189
0.010394333
-0.03627262
-0.043260653
-0.039996635
-0.00029742118
-0.053243443
-0.04779451
-0.01053144
-0.043496735
0.049713004
0.022745777
0.04224669
-0.066114746
-0.01786548
0.0160159
0.06462159
0.056929436
0.0043187574
-0.035514787
-0.0025229566
0.0059191156
0.049495563
-0.000903533
-0.011362233
-0.041395742
-0.015481662
0.047022905
0.0035478252
0.011066571
0.064914495
-0.003598347
-0.040034167
0.02901088
0.012772637
-0.021534491
0.016597014
-0.018570686
0.013502363
0.0061698444
-0.05733893
-0.05834173
0.05596242
-0.0056594466
-0.047408573
-0.010868096
-0.008165187
-0.053070884
0.07877843
0.0026535299
0.19327901
-0.008260251
0.033592187
-0.0030755035
-0.026446206
0.045138747
-0.014167399
0.056204416
0.015695436
-0.07346818
0.05593252
0.008332604
0.03655726
