-0.017267248
-0.021487638
0.06413928
-0.024580255
0.05254579
-0.050177336
-0.0119837755
0.03764909
-0.001811532
-0.07757245
-0.0014052661
0.05189577
0.01607166
-0.02362627
-0.030079883
0.0005124639
0.020759428
-0.060384814
-0.011030375
-0.072165646
-0.021165196
0.1273622
-0.040472034
0.025139203
0.016304193
0.003381863
0.0102467565
-0.014447014
0.03212419
0.03456593
0.04359496
0.03448573
0.054502282
0.08213135
0.036252346
-0.021106627
-0.010549763
-0.026227236
0.048102606
0.0028412745
0.08032689
-0.02689826
-0.12985136
0.0039679073
-0.010677327
0.03562736
-0.026167462
-0.0034653323
0.012243337
0.03045846
-0.0069636004
-0.00016886352
0.00056995545
-0.020153832
0.05248764
0.045928758
0.025930474
-0.03254866
-0.020722985
-0.060985275
-0.016639056
0.06631235
-0.0444993
-0.035858557
0.009320319
-0.027182383
-0.042374536
0.11792692
-0.035688315
0.044508476
0.010777446
0.04969803
0.09128195
-0.029298767
0.010222927
-0.011636262
-0.0023440782
0.08810479
-0.014909315
0.017982416
-0.044806205
-0.099004775
0.055239495
-0.067877725
0.065500475
-0.05715597
-0.0626842
-0.002676733
0.04093238
-0.06995046
-0.037743226
0.02261283
0.01037117
-0.019891754
-0.08628821
0.023514453
0.026035875
-0.030852694
-0.014745761
0.03014036
-0.006606305
0.038687255
0.047305517
0.02239057
0.0038440158
-0.012919443
0.03301751
0.017988529
0.004725932
-0.045500543
-0.05535024
-0.044909496
0.0851967
-0.1144234
-0.0017975034
0.03436709
-0.041819833
-0.055070788
-0.05084711
-0.030099105
-0.015522567
-0.0860761
-0.0067810128
0.0075517627
-0.1342832
-0.12734374
0.023848042
-0.029771546
0.0972018
0.050355732
0.053418964
-0.031315904
-0.10908147
-0.005600794
0.068297446
-0.0009066505
-0.059509367
-0.07409182
0.02913584
-0.025257645
0.01757504
0.02022703
-0.0033035534
-0.07145051
-0.020753779
0.029134933
0.02551782
0.0138038695
0.016333425
-0.06633817
-0.018205758
-0.018127179
0.005281443
0.006770877
0.010046709
0.05343049
-0.02012056
-0.08167428
-0.0088663
-0.016322864
-0.023829378
0.0026850954
-0.02316079
0.069649965
-0.0141851455
0.012749308
-0.038760692
0.040582143
0.045683697
-0.026553344
-0.026442042
0.015029762
0.03581852
-0.015146241
0.010153032
0.07353229
0.0016363105
-0.015879173
-0.12417537
0.04398301
-0.02686643
-0.0029089039
0.00998747
0.011312256
-0.09238088
-0.013857685
0.0130282
-0.04689336
0.04072834
-0.059294656
-0.013324526
0.042676475
0.0074054436
-0.0356985
0.05412303
-0.032530442
-0.02381662
0.027837662
0.04439914
-0.016995007
-0.030032678
-0.030330228
0.029267903
-0.04658312
0.0063317255
-0.027620248
-0.012516283
0.0626346
-0.062909216
0.021232259
-0.06263592
0.046606157
-0.022807518
-0.016335625
-0.0015373867
-0.014266483
0.077333674
-0.0055414448
0.035050664
-0.0044623837
0.0317297
-0.030402634
-0.015429713
-0.10027634
-0.044438638
0.065629765
0.0884799
0.00023673521
-0.020426692
-0.014421463
0.025687778
0.07498186
0.014150405
0.05944845
-0.0470765
-0.033701275
0.0032148457
-0.00740416
0.00690847
0.024525443
0.026847567
0.015603158
-0.06296742
0.025752613
0.020786244
0.0046323375
-0.0040585687
-0.049739655
0.015397844
-0.00785989
-0.00637739
-0.0013582986
0.074243404
-0.037008215
-0.019737512
-0.040990323
-0.032129783
-0.044439457
-0.0019018516
-0.021067198
0.076658934
-0.028119188
0.009493136
-0.020485999
-0.012773727
-0.011313039
0.06467412
-0.01955585
-0.047861606
0.055540737
-0.01399913
0.0119731715
0.005696522
0.04903471
0.0043638037
0.044120003
-0.032029264
0.013960536
-0.058263265
-0.046730008
0.06361182
-0.015748352
0.016518168
0.025310688
0.0008658909
0.039585672
0.07174963
-0.12564579
0.021397354
-0.0585121
-0.060983945
1.087393e-07
-0.07013586
-0.016391812
-0.060892526
-0.0066291443
0.068791315
-0.07894796
0.0036537345
-0.0020268564
0.005668434
-0.0077530723
0.04990588
0.08272531
-0.045103867
-0.055201817
0.022709532
0.018699793
0.011916421
-0.056019757
0.016718488
0.008794773
-0.0497587
0.004802436
-0.024262996
-0.02543415
0.009288717
-0.035809897
0.025927095
0.0039606136
0.00042387162
0.0026717687
0.0036602868
0.00035551214
-0.02397205
-0.03065299
0.05971265
0.02794653
-0.16199818
-0.014581978
0.027012724
-0.0077378377
0.019228432
0.032709435
-0.07448136
-0.041135218
0.07278443
0.05534837
0.010771394
-0.0018417207
-0.064664505
0.014046969
-0.09547037
-0.020921756
-0.02887707
-0.15819372
-0.0031604336
-0.012133212
0.019639902
-0.08285684
-0.032420635
-0.03037133
0.041609548
0.02458319
0.019597322
-0.0136647895
0.027789392
-0.02281809
0.033227596
-0.035126295
-0.012288599
-0.018705375
-0.0060381247
-0.0061445953
0.05105577
0.034003634
0.0348872
-0.045812562
-0.0042470433
0.03214601
-0.031599768
-0.004783552
-0.005038321
-0.04637261
-0.0009074836
0.008491344
0.034379374
-0.019338075
0.02213212
-0.0039878576
0.021933945
0.019271553
0.0014380765
0.010181089
0.036045972
-0.025660466
-0.0058334353
-0.006678571
0.12148378
0.018088426
-0.080809124
0.012355315
-0.024391469
-0.014851362
-0.014596117
-0.00035825686
0.0311436
0.077315986
0.0152215315
0.000825112
-0.018653348
-0.04599972
0.05332035
-0.009792916
0.011867385
-0.017962845
-0.030697756
0.09289865
-0.01799107
0.000679996
-0.06742049
-0.054759283
0.019380422
-0.021061435
0.012489014
0.007535807
0.023149302
0.0023931467
0.0121279955
-0.082499765
-0.036132306
0.03234111
-0.022060504
-0.047597654
0.039232325
-0.0584685
-0.11959827
0.07537913
-0.008784561
-0.07735449
-0.019417329
-0.008478873
0.09334002
-0.021390632
0.020390987
-0.009502744
-0.0007780191
-0.0069463006
0.0055949087
0.029834844
0.021233048
-0.031316318
-0.03289671
-0.020009337
-0.007005146
-0.050676733
-0.0349248
0.0007972899
0.050249
0.0017709662
0.014971334
-0.01862267
-0.008389387
-0.018151978
0.006841589
-0.0222412
-0.042254265
-0.09204692
-0.03231972
-0.045829345
0.04428454
-0.0020612876
-0.032504566
0.039012425
0.13277687
0.10761488
0.073461525
-0.020804385
0.066564426
-0.0451067
-0.021885084
-0.02178865
0.036290918
0.024934292
-0.038795624
0.05086632
-0.04022776
-0.037003722
-0.02817997
0.01960763
-0.020333756
0.015983196
0.06694405
-0.009946244
-0.0140513955
-0.08870958
0.02570485
-0.02367948
-0.015220505
-0.025081046
0.053728856
-0.01707358
-0.049813513
0.041779354
-0.027462777
0.029431982
-0.011724235
-0.01291367
-0.04102802
0.01802554
0.009370524
0.01139513
-0.021487081
0.017312475
-0.064264685
-0.012218194
0.07193723
0.0048405104
0.04411591
0.022608114
-0.06511715
0.00056951353
-0.009923125
0.026085753
0.00022911647
0.015391813
-0.0012479963
-0.015167696
0.029325431
0.00024297742
-0.013433112
-0.010667826
-0.022709826
-0.01694833
-0.019373467
0.010350774
-0.04497606
-0.03616035
-0.0059047397
-0.010612029
0.0017641535
-0.014943391
-0.08203188
-0.055743057
-0.026946435
-0.005384352
0.019859059
0.03246536
0.0033238353
0.058608387
0.0050641065
0.00015704957
-0.0044432567
0.010230782
0.023659343
0.023520468
0.0132252285
0.06500379
0.043610215
0.075109094
0.034367085
0.086382344
-0.046919532
-0.020570513
0.00497707
0.013243815
-0.08897411
0.024489608
-0.029170414
-0.04352852
0.0074112443
0.072554685
0.029839234
0.009060607
0.027941026
0.0009391346
-0.027660934
-0.041081563
0.020966392
-0.011956215
0.04068663
0.018922336
-0.042842973
0.01846425
0.037738644
-0.049260892
0.13361266
-0.03972272
0.025728505
0.051593658
-0.101326205
-0.04929197
0.048738748
-0.03363611
0.009448722
-0.02835771
-0.00908849
0.034640305
0.022058668
-0.010574302
0.026398689
0.045287296
-0.0036473116
0.030553754
0.029198421
0.0017291041
-0.018114971
-0.018485975
0.014568089
0.06916288
-0.020164205
0.016139401
0.010311288
0.016682522
-0.020746922
0.11777757
-0.043974467
0.05835075
-0.0666708
-0.01868865
-0.03729111
0.022203416
-0.051450394
0.009916569
-0.02320361
0.013180656
0.0018571415
-0.020893667
0.070109524
0.017435834
0.034150004
0.014480832
-0.04783449
-0.021497045
-0.005685128
-0.022656566
-0.022732226
-0.0118074175
-0.035859536
0.04091333
-0.0097114835
-0.02189588
0.030896097
0.026948899
-0.020113297
-0.0043235812
0.008356663
-0.031534873
0.023026573
0.027371282
-0.027401228
-0.041979726
0.0044082217
-0.048358757
-0.010049965
0.004724775
-0.014606982
-0.03425808
0.08996003
-0.036962107
0.007653985
-0.016186094
0.020330567
-0.0042751306
-0.010112234
-0.0042301905
-0.026391061
0.0046864846
-0.018455783
0.007192975
-0.038748264
-0.03603863
-0.010635329
0.00045722857
-0.002330169
-0.011343106
-0.032419074
-0.014564221
-0.03702897
-0.008137693
0.0039643603
0.011897848
0.021781176
0.009351194
-0.02678813
0.011324143
0.014417235
0.009195032
-0.0019965998
-0.02340682
-0.03472504
0.06279795
-0.048373446
0.08126746
-0.00885588
-0.016361479
-0.004805274
0.008065483
0.012226341
-0.027965892
-0.0036303818
-0.055384677
0.018101579
0.097031735
0.030976422
0.0072145583
-0.050033767
0.013138319
0.005901903
0.0063917264
0.0022816756
0.04668472
-0.035590395
0.012791164
0.018647704
0.07395941
0.03520657
-0.0053248447
0.038860705
0.023216678
0.00013001246
-0.010337743
-0.06799909
-0.03128527
-0.010411276
-0.06631963
0.026524533
0.03416318
0.043429777
-0.011279067
0.059560325
-0.07190129
0.033155184
-0.036489025
-0.013115618
-0.0022095956
-0.026064012
-0.014319845
-0.010035584
0.049908236
-0.055789996
-0.06761862
-0.03098016
-0.07724146
0.020994376
-0.020525917
0.0071871383
-0.08510031
0.022660695
-0.003720714
-0.0042103813
0.020643242
0.046800733
-0.05051122
0.15882559
-0.00147707
-0.044253323
0.012415809
0.019473827
0.1407351
-0.028444234
0.0378073
-0.014449294
0.06122444
0.0745722
0.027451703
-0.015069542
-0.046309434
-0.04923673
0.1208605
0.04931183
-0.019527426
-0.0012659539
0.0038953375
0.025617769
0.029378217
-0.025682935
-0.02208781
-0.02161426
-0.07886285
-0.012329348
-0.023343893
-0.050215025
0.0009311888
0.023324568
-0.03548096
0.02472763
-0.064850844
0.02037843
-0.030525284
-0.023468956
-0.006939078
0.04670996
0.023354039
0.0235293
0.040675364
-0.010005957
-0.007743621
0.017547952
0.014673557
-0.0018101785
0.0666824
-0.024140013
0.023409974
0.0059201703
-0.006012517
0.01049499
-0.017761217
0.04886275
-0.037820313
0.016157907
-0.07813531
-0.013668116
-1.084472e-07
0.029242193
0.014538976
-0.014016226
-0.0149513045
0.013658969
0.005903125
-0.016786171
-0.0069009224
-0.0030799282
-0.0021149935
-0.006237443
0.008001117
0.051345058
0.022241723
-0.0013786068
0.014399476
0.0012363176
-0.02385672
-0.03867212
0.011803919
-0.0011290984
0.050933614
-0.053339873
0.008244104
0.042261872
0.052835926
0.031615388
0.011776972
0.0388389
-0.026411923
-0.043388285
-0.02308482
-0.022510761
0.016839745
-0.01790982
-0.010744846
0.017458085
-0.025399595
0.030123448
0.05164543
-0.020590937
-0.021541005
-0.020907491
-0.020278513
0.04378682
0.020967878
0.044653717
-0.02342386
-0.0126358
-0.054941166
0.0254803
0.015252547
0.0024584613
0.047855776
0.009346874
0.009722772
-0.014582716
0.05103962
-0.023182835
0.09023076
-0.004511819
0.058026515
-0.05180032
-0.022579394
0.008141802
0.0016029014
0.032799665
-0.005872288
-0.032527644
-0.048830733
0.06507116
-0.094510034
0.048699886
-0.041606933
-0.018877055
-0.018059002
-0.0006162363
-0.031768844
0.019740036
0.038700614
0.08327703
0.06389735
-0.0205099
0.03689871
0.0030669712
-0.04055143
0.021871453
0.060362916
0.0012344201
0.021449015
0.020376101
0.041568384
0.007992808
0.040309723
0.012724258
0.015345785
0.015993671
-0.027421145
-0.021540081
-0.13378704
-0.0069738845
0.028668044
-0.021109141
0.02403845
0.0436128
0.011539322
-0.027203172
-0.05077155
0.033829875
0.017930645
0.008702092
0.026022961
0.006083266
-0.06724666
-0.002862156
0.009419694
0.028982436
-0.056339845
-0.065384574
0.004846897
-0.036133252
-0.0126336785
-0.0009453046
-0.042772282
0.028755715
-0.043522168
-0.006952226
0.03425446
-0.011787234
0.044719256
-0.026760794
0.023979962
0.045506258
-0.01780298
0.034354784
0.0014637185
0.027532468
0.01900068
0.039896756
0.040775284
0.019330908
-6.8109905e-05
0.039136566
-0.028836012
-0.036638923
-0.042865768
0.07023741
-0.069795325
-0.05621983
-0.01705821
0.03402656
0.030364316
-0.0065310416
0.027791515
0.007270262
0.047133684
-0.006132218
-0.055874664
-0.049374867
0.026670357
-0.009452815
-0.014416843
-0.007897767
0.001151772
0.1402075
-0.035936475
-0.0065128338
0.02056901
-0.018330486
-0.040987894
-0.01605204
-0.032489836
0.087301485
-0.0062777176
0.038961664
0.019865293
0.05801996
0.035635073
-0.114642374
0.007861778
0.05702921
-0.036659278
0.022585474
-0.032185175
0.007967088
0.009873205
-0.029305808
-0.01371308
0.06379759
-0.00387035
-0.020074544
0.03244235
-0.025378719
0.021023128
0.032829963
-0.055616595
0.004480958
0.008070316
0.017830698
-0.01929055
-0.04340953
0.0100816265
-0.018923987
-0.020565985
0.02798327
-0.060698777
-0.04357532
0.030700307
-0.0090915095
0.047810603
0.0075064222
-0.047570568
0.008629688
0.0065776296
0.011987035
0.0069869105
0.016914263
-0.0037892526
-0.06411535
0.010203642
0.011043247
0.017474854
0.03022881
-0.040382214
-0.017963741
0.060380775
0.028778898
0.0209215
0.03463132
-0.019195974
0.09594985
0.04300666
-0.080099985
-0.0273721
-0.032407615
0.05128265
-0.012824774
0.03314159
-0.03376841
0.079414524
-0.01824047
-0.011969704
0.0035918592
-0.005478108
-0.022888083
0.037520904
0.0784047
-0.041912004
-0.008976
-0.012746897
-0.05194353
-0.08146774
-0.1119204
-0.049207866
-0.06693835
-0.009526974
0.0012119678
-0.020358186
-0.06076166
-0.008090365
-0.0026470367
0.042379137
0.025701476
0.03258308
0.004733759
0.011582827
0.074196175
0.03712066
-0.056946665
0.00713831
0.0021140005
-0.0033634182
-0.0061411085
-0.02497442
0.042069316
-0.004892666
0.069824494
0.10491477
0.015203896
0.034074716
0.012748667
0.047442608
0.0660457
-0.115283735
-0.017235247
-0.06230087
-0.019435935
-0.059631977
-0.047285054
0.023077065
-0.0665599
-0.031237304
-0.030317703
0.030085305
0.012904129
0.08443571
-0.028030729
-0.0037336
0.002073022
0.035436768
0.001035685
-0.07096139
0.1367154
0.027963478
0.0007122906
0.072877444
-0.0070114187
-0.018123135
-0.050818175
-0.007173526
0.039902188
-0.003199432
-0.05788227
-0.034910854
0.009937731
-0.046647746
-0.032662634
-0.0026794572
0.0632277
-0.020456493
0.009387138
-0.016513443
-0.016477106
-0.08225188
0.12243349
0.019669566
0.0006431663
-0.07190946
0.1140132
-0.0565857
-0.05913082
-0.025002684
0.049933422
0.026136884
0.06922684
-0.104081474
-0.0019907877
0.009100049
-0.091920085
0.044842754
0.004719681
0.07757818
-0.013205998
0.04114715
-0.06095197
0.02515147
-0.0030147335
0.11942218
0.004720939
0.037889153
0.07847195
0.05846864
0.14775893
-0.017971175
0.090767965
-0.047270205
-0.041552547
-0.07293878
-0.0044189156
-0.022628793
-0.055811554
-0.005236666
0.03606023
0.031642724
-0.013301369
0.00014390315
-0.05079878
-0.007804335
-0.01490592
-0.04100209
0.004309464
-0.012457124
0.03530379
-0.02601437
-0.03662083
-0.0070239273
-0.00936699
0.058227267
0.009411273
0.0776328
0.013126892
-0.09159509
-0.0019594496
0.06078873
-0.0018722075
-0.092556275
-0.047846492
0.020610752
-0.0457977
0.024870705
0.022001144
0.0053722407
0.040233985
0.088264756
-0.038917482
0.120172486
-0.07811479
-0.007542275
0.014421505
0.06903784
0.024360621
0.024473157
0.008514898
0.052370954
-0.07988591
-0.021118456
-0.0039046027
-0.050443668
0.01462315
-0.05117055
-0.014338206
-0.073526554
0.097752765
-0.021823931
-0.025555894
-0.0124513935
0.002795349
0.08590586
-0.083348766
-0.03755538
-0.0007060131
0.005909247
0.004918162
-0.02756395
0.058060326
0.04230229
0.033482466
-0.07703532
-0.009195257
0.010664542
0.083025254
-0.045495447
-0.0385203
0.0839167
-0.108955085
-0.023071876
-0.029140957
0.03304472
0.04914121
-0.040056914
0.03379053
0.020448307
-0.013633669
0.046109762
0.008602639
0.03430575
0.026203163
0.015207423
0.04181874
0.046054352
0.049632665
0.016513284
0.007907351
-0.0063412394
-0.01879084
0.02433686
0.16281942
0.020365853
-0.013339783
0.00033578658
-0.0830809
-0.039304163
0.017323064
0.0691002
0.11253102
0.0318288
-0.013003906
-0.03152395
0.038492624
0.014447642
-0.007715959
-0.010393962
-0.006417811
0.117688335
-0.015671378
0.035969276
-0.03777932
0.0050733653
-0.05276019
0.035070375
0.029464744
0.052216265
-0.023905769
0.011628449
-0.02151846
-0.04469464
0.0173015
-0.11823062
0.0102159
0.06338886
-0.00074951275
-0.002530358
0.017208809
-0.012504733
0.07349914
-0.029831741
0.018356234
-0.016065054
0.021065928
-0.03741437
0.00090085046
0.04473127
0.024271138
0.032471247
0.04920769
0.0070574037
-0.0002667718
-0.001669944
0.011707863
-0.07442919
0.067833185
2.3388708e-07
0.05991718
0.050893597
-0.028164726
-0.003713768
0.028542425
-0.049376655
0.01740921
-0.004432685
-0.071494095
0.031194545
0.049824957
0.011456043
-0.033328086
0.060043905
0.011087773
0.010932856
-0.014072553
0.011582721
-0.026468903
0.083150744
0.08722385
0.10297765
-0.025517238
0.00014319844
-0.020933403
-0.046625048
0.035605177
-0.10252883
-0.044368885
0.005329243
0.0016977068
-0.00742168
0.034332726
0.010323773
-0.0017054303
-0.002817949
-0.10966253
0.030322487
-0.013733917
-0.0008883364
0.017370366
-0.093942255
0.04267197
-0.040359747
0.051799927
0.002303764
-0.07126556
0.050193515
0.067108445
0.09195189
0.026589245
-0.104107395
-0.016095268
0.09176289
-0.049343117
0.013482632
0.027094908
-0.09463555
0.021773301
-0.019545626
0.03570963
-0.009354393
0.022105966
-0.012351592
-0.011672241
0.028720636
-0.011251324
-0.056189805
-0.07839875
0.015471475
0.015346005
-0.013919487
0.051159315
-0.012089891
-0.089203596
0.044328533
0.0023561446
-0.051526506
0.013850968
0.036641054
0.062267665
-0.048642732
0.016387599
0.020651316
-0.0698706
0.014664311
0.0022921497
0.008126108
-0.028231913
0.053995706
-0.022177942
-0.05683893
-0.04665729
-0.004108105
-0.064161845
0.00083548523
0.034967527
0.05147163
-0.039934598
0.021691838
0.03747066
0.052619893
-0.023536561
0.0059073
-0.045165084
-0.036338322
-0.031025274
-0.04254353
-0.0015303055
0.02055539
0.050956458
-0.062420983
-0.0229287
-0.006639541
0.06371194
-0.022746164
0.029978279
-0.032937355
0.020568201
0.00773388
0.040032823
0.026945425
0.038852092
0.014948857
0.024942717
-0.026160564
0.018574338
-0.015855
-0.06809822
0.12990898
0.06734623
-0.07307918
0.05310467
-0.013483856
-0.16141187
-0.07263615
-0.007845401
-0.014110918
-0.004418269
-0.00636429
-0.09881264
-0.01039599
0.11229022
0.014771539
-0.019466136
-0.0037056692
-0.041221995
-0.014768942
0.076859154
0.015947616
0.13290726
-0.008197457
-0.023725867
-0.035984993
-0.056575574
-0.013714333
-0.031349566
-0.010495493
0.00020950299
0.03285196
0.06982944
0.022088742
0.09735248
0.024620121
0.002565003
0.016759584
-0.01212655
-0.048595946
0.020206328
-0.03131917
-0.019011777
-0.021916207
0.08453935
-0.029057367
0.0051457123
0.11675466
0.036944043
-0.059460398
-0.034153655
-0.018433597
0.042361483
0.059276853
0.07816701
0.024792433
0.035099167
0.081016555
0.032276113
0.0129763335
-0.06807968
-0.08199959
-0.026580345
0.050764926
-0.038280945
-0.029903678
-0.07773434
-0.017247695
0.03263843
0.03315264
-0.026775753
-0.04675814
-0.029706888
0.06286037
0.011307276
0.018504068
-0.013161707
0.033432428
-0.05071237
-0.029615216
-0.05293346
-0.04820083
-0.031981356
-0.022109104
0.07993018
-0.07206692
-0.04446531
-0.015657332
0.016152373
-0.03703361
-0.007895506
0.03334958
0.010398423
0.026351944
0.033859678
0.018363569
-0.04252088
-0.08407054
0.028001694
0.008333239
0.054290246
-0.009687471
-0.01721751
0.0032608372
0.0087668225
-0.008570592
0.019715201
-0.024451049
0.007223375
0.05962296
-0.10565127
0.0071119587
-0.03675858
-0.10063948
-0.025132269
-0.015401692
-0.057279866
-0.053070296
0.15091345
-0.060843077
0.017057432
-0.0033230714
-0.05316291
0.03455119
-0.035136234
0.03269331
0.0038537108
-0.004766874
-0.022852594
0.020358212
-0.037969958
-0.04022188
-0.05351014
0.081749655
-0.012234864
-0.017366378
-0.044579428
0.012157923
0.020747067
-0.047171485
-0.062025014
-0.05530814
0.014005508
-0.005613787
0.06064851
-0.016041206
0.017013114
-0.035417315
-0.09421748
0.06120557
0.076098815
0.018615928
-0.029397944
-0.021724759
-0.06633442
-0.04792588
-0.010367382
0.0059432425
0.0571788
0.014159994
0.026938386
-0.02637138
-0.027579438
0.0053927777
0.14974487
-0.05684505
-0.008777988
0.041048013
-0.075779945
-0.039220423
-0.019036233
-0.009856858
-0.033750605
-0.04666858
0.024073705
-0.049464285
0.04325936
-0.04157398
0.050290182
0.03656732
-0.036182757
-0.03272478
0.03372303
-0.08975731
-0.032218684
-0.006481595
0.019463489
-0.0463697
-0.008244935
-0.01270176
0.009536201
0.06986486
-0.01695646
0.07874927
0.011776487
-0.10634643
-0.021645902
-0.0362653
-0.0016674815
-0.008824468
0.037981402
-0.005766622
0.024994863
0.006992889
0.0007509839
0.16375718
0.008559315
-0.05122859
-0.0442585
-0.019115245
0.065451145
-0.023122173
0.019233432
-0.09344424
0.028991986
0.035230026
-0.030683791
-0.030439947
0.0044693854
-0.085227914
0.05513322
-0.008781203
0.0063822935
-0.05715644
0.0003608136
0.034365278
-0.06128408
-0.0072635002
0.0036891457
-0.053813964
0.024898345
-0.035353858
-0.04109437
0.056788128
0.020197932
0.012445154
-0.04217485
-0.004403487
-0.013211982
0.051709827
0.030064693
-0.07699271
0.003088868
-0.035639852
-0.064464934
-0.012055413
0.07263733
0.039158773
-0.031490605
-0.09336511
-0.037081204
-0.010802425
-0.041722614
0.0100786835
0.002959449
0.047046416
-0.068853326
0.0074823233
0.1544939
-0.033388685
0.0030779608
-0.029359082
-0.021457614
-0.016591191
-0.04434167
-0.10551972
-0.0006529992
-0.10311533
0.03765617
-0.024248589
0.04367309
-0.0016480951
0.0061726286
-0.012735884
-0.04562536
0.04719361
-0.0150027005
-0.018607719
0.05126847
0.023111379
0.037072174
-0.024486262
-0.0087365005
0.031983297
-0.012535242
0.024793627
0.032089997
-0.015094193
-0.0561092
0.016668977
0.015560109
0.06400505
-0.023144763
0.08793365
-0.04664067
0.03063911
-0.049753383
-0.026153665
-0.009757793
0.029783161
-0.017372226
0.02493931
-0.026181173
-0.00581164
-0.006944509
-0.0019694832
0.038299687
-0.0365011
0.022325952
0.008129152
-0.0053639943
0.031304374
0.01584311
-0.011539379
0.108259924
-0.0035038628
-0.06435718
0.025376372
0.034870513
-0.043000028
-0.026659323
-0.089525856
-5.447482e-05
-0.031825602
0.022107735
-0.005224673
0.015168886
-0.029562736
0.077143654
-0.06254831
-0.018317796
-0.07594265
0.14734207
-0.081743926
-0.031908885
-0.0018742242
-0.031422433
0.06763689
0.028264469
-0.0029273357
0.03173357
0.0010494086
0.016748793
-0.035483416
0.027137648
-0.09106088
-0.0051524458
-0.013119111
-0.009499237
-0.004654182
-0.012093518
0.018919634
0.07415342
0.03285075
0.058354605
-0.011349068
0.016346691
-0.017136244
0.06449929
0.00062369765
0.005683837
0.0124423355
0.0010441883
-0.0065774126
0.012703373
0.030473297
-0.00076448254
0.020211231
-0.02507832
-0.015967818
0.010126815
0.010252578
0.00928203
-0.036670152
-0.005515932
-0.013123829
0.02338112
0.021463845
-0.048467677
-0.046830952
0.000167866
-0.024620738
0.036189724
-2.1251994e-07
-0.06067325
-0.035863522
-0.013619064
0.0026725456
0.0841374
-0.03584654
-0.0213492
-0.034487393
-0.019293958
0.019481614
0.05321624
0.009354453
0.020102173
-0.02130448
0.039357025
0.02322587
-0.0015607408
-0.0077151465
0.031167516
-0.046511114
-0.0040097204
0.022360593
0.024585247
-0.051157463
0.0015434107
0.01662295
-0.07941698
-0.054912813
-0.013655183
0.09034318
0.007666461
0.023076085
-0.023531951
-0.009953462
-0.012572011
-0.008514045
-0.056173548
-0.026883008
-0.006879913
0.03281508
0.0128567675
-0.08431756
0.005716042
0.018573895
0.0171796
0.009312216
0.02368307
-0.046336077
-0.05459821
0.041665327
-0.056665543
0.09931077
-0.0008543032
-0.010065953
-0.022275154
-0.006291072
-0.00046165983
-0.034745432
0.033081196
-0.04428481
0.025045779
-0.005889675
0.035672527
-0.022680048
0.034818094
0.036825515
0.006191273
-0.0483071
0.020667223
-0.0013156394
0.0021759353
-0.0008982846
0.018866213
-0.10017203
-0.037805576
-0.025701385
0.035243504
0.042389855
-0.03998941
-0.09868316
-0.09762097
-0.020975424
-0.04775311
-0.033586364
-0.053085458
-0.032021213
0.026718358
-0.033849802
-0.00042038958
0.0684185
0.00699786
0.026516823
-0.062110063
0.09276266
-0.041100226
0.020406676
0.09629196
-0.044337567
0.037761685
-0.030097023
0.036288098
-0.05391832
0.021169635
0.009254391
0.023725193
0.010027726
-0.021770334
0.010652817
0.0025318097
-0.0120437415
0.045033317
-0.07674752
-0.039846547
-0.015470801
0.035238914
0.010293962
-0.022012597
-0.02872272
0.013265773
0.0009475955
-0.028782682
-0.02271155
-0.02577351
-0.051426068
0.009283685
-0.103140056
-0.035822187
0.026721036
-0.07631675
-0.019208685
0.075144015
0.07681074
-0.0706688
-0.007340947
-0.07290271
0.10887572
0.026044084
-0.006594124
-0.039437655
-0.0029641164
0.040218364
0.100236826
-0.05238906
-0.03106509
-0.0211514
0.0010772358
-0.04686298
0.028432429
0.026177416
0.028475529
-0.047861565
0.0034983587
-0.04203406
0.046220228
0.09425859
0.032571405
0.087927364
0.028675599
-0.0097856205
-0.045230974
-0.0264136
-0.05655757
-0.035266675
0.037387114
-0.0076285177
0.08845436
-0.04515594
-0.08109952
0.08961619
-0.06269596
-0.011817588
-0.017687954
0.00104198
0.029575013
0.039542448
-0.03803714
-0.0020505942
-0.002853899
-0.020320067
-0.004720887
0.011914891
-0.0039234194
-0.042211257
-0.0022397758
-0.050154097
-0.043585196
0.057380296
-0.0058339806
-0.010586545
0.00054012745
0.06793991
-0.031794008
-0.0035387445
-0.00281788
0.08192988
0.034017015
-0.05080568
0.028275765
0.022495553
-0.06356702
0.048631925
-0.005393846
0.019747622
0.017760126
-0.017098546
-0.10265109
-0.013376225
-9.626566e-05
-0.015173052
0.06686561
-0.0803196
0.044254046
-0.025364064
0.024575565
-0.017608156
0.013065993
-0.01135355
-0.022859514
0.0011064631
-0.014002267
-0.05848232
-0.016782165
-0.0024237754
-0.060215294
0.0036971099
0.026525572
-0.047023624
0.0046793837
0.025825672
0.046334267
0.008217729
-0.007683682
-0.050971366
0.0044246153
-0.030461922
0.07878153
-0.008241711
-0.016844071
-0.017821297
0.02596871
-0.10462735
-0.037721384
0.024285795
0.0059159743
0.0049088895
0.016819082
0.009566337
0.03030281
0.019049358
-0.0034340515
-0.0054265363
0.0066236625
0.013315375
0.010859105
-0.0068987515
-0.002118733
0.05356367
0.05692319
-0.008781593
0.075065665
-0.04958653
0.060794618
0.01700226
0.06168446
0.033085667
-0.032288555
-0.08531938
-0.0067604305
-0.081079185
-0.05913689
-0.021875044
-0.11803179
0.0493725
-0.015776183
0.008874279
-0.017877454
0.06468645
-0.03704569
-0.0044348324
-0.010836712
-0.08515394
0.0023492244
-0.012626398
-0.025942879
0.056734826
-0.04160321
0.048307434
0.008954547
-0.06497691
0.0023134402
-0.012493441
0.03589463
0.014927455
-0.07784433
0.010249869
0.015492826
-0.0104552815
-0.009805314
-0.03746558
0.0028475951
0.021978656
-0.037076063
-0.019885125
-0.027404485
-0.054971166
-0.004855752
-0.024829462
-0.040166155
-0.0051026503
-0.06862824
0.04166527
-0.0146150915
0.045588516
0.047541786
0.015699092
0.036469117
-0.011794451
-0.035924647
0.005452019
0.023866357
0.052808598
-0.069068536
-0.012116689
0.03000466
-0.04471601
-0.019304752
-0.009260162
0.06487201
-0.024562063
-0.06570307
-0.0010801754
0.01752461
-0.00044403164
-0.011145111
-0.031395715
-0.005378718
-0.057341393
-0.030411514
0.008515705
-0.002944923
-0.003442348
-0.05662935
-0.024310423
0.006716427
-0.002066795
-0.01625588
0.03216684
-0.005952518
0.037412144
0.0025099253
0.019529147
-0.02088722
-0.0007838057
-0.027330404
-0.013418441
0.0007665424
0.028307276
0.039349202
-0.07602965
0.041676726
0.00094460434
-0.038301837
-0.03737047
0.006129653
0.048996672
0.001529115
-0.0344607
0.035592
-0.021707328
0.055974267
0.0047966326
-0.03333848
0.03017693
-0.009294886
-0.030215986
-0.044565234
-0.032726225
-0.017949587
0.008700453
-0.017973572
0.025507787
-0.010083078
0.0048231636
-0.020935245
-0.02228267
0.007936486
0.014262987
0.002551484
0.00023006667
-0.060704216
-0.0062980554
-0.022001497
0.055217575
-0.038035292
0.007681551
0.0012667574
-0.019999672
-0.004956539
-0.038547795
-0.012978488
0.036916275
0.028391842
0.067072
0.026974902
-0.053746536
-0.071852684
-0.0106635345
-0.0057623833
-0.02572342
0.16419214
-0.013640849
0.045263443
-0.00039690052
0.056394104
0.0062288437
-0.012083628
-0.0080386875
-0.003132813
-0.047844537
0.0028179933
-0.00314158
-0.012925356
0.0034224335
0.036413766
-0.02554144
0.00528462
0.03217849
-0.026555542
0.019473806
-0.05327236
0.032403365
0.011548478
-0.01450551
0.025346117
0.01217417
0.04537171
0.0025726205
0.012659055
-0.001484794
-0.010390853
-0.058878005
-0.024892593
-0.00815849
0.01132883
0.018634839
-0.010852319
0.04195495
0.0009857236
0.057089176
-0.023878606
-0.03507494
0.002000049
-0.00013601028
0.0019505561
-0.029946025
-0.051707413
-0.006663033
0.042760402
-0.024582949
0.025332207
0.0006501452
0.08802508
0.033484165
0.0065292693
-0.0002552461
0.0021697057
-0.045776974
0.005912173
0.054177467
0.037503425
0.031917695
-0.011892188
-0.018813265
-0.01583581
0.0007996548
-0.058948632
0.002140391
-0.09361332
0.051407848
-0.02115412
-0.02952918
-0.011682004
-0.05829285
-0.013930105
0.031317685
-0.057736635
0.031038446
-0.032894406
-0.04458411
0.009395363
0.030322809
-0.009597705
-0.015586346
-0.013166345
-0.004464212
-0.022004299
-0.031054337
-0.0014982233
0.0018541543
0.014853306
0.0054447325
0.030183865
0.008585385
0.0007368507
0.047697432
0.0020646555
-0.022001896
-0.08304659
0.0050415327
-0.00087151985
0.02728774
4.2820144e-08
0.029553698
-0.026831994
-0.024342934
0.06892811
-0.005878651
0.01321694
0.06731263
-0.017127492
-0.030647686
0.046796717
0.0032065085
0.0047834823
0.0014466493
-0.007054157
-0.003049885
-0.05083955
-0.0034778903
-0.0043897578
-0.010933152
0.030502988
-0.011127214
-0.016443005
0.039220486
-0.061966598
-0.00027764248
-0.04259091
-0.04661845
-0.02540932
0.027485533
0.013854592
-0.03403148
-0.07384806
-0.022830803
0.01637146
-0.011601148
-0.009138649
-0.0171834
-0.019160207
0.00038005278
0.0375003
0.03404819
-0.026425581
-0.015728697
-0.004913101
0.009316161
0.02405827
-0.011848885
0.03698473
0.018112022
-0.0009620002
-0.029549044
-0.025235714
-0.0077555906
0.016047953
-0.022354627
0.024484798
0.012639352
0.015445791
-0.027441418
-0.022338156
-0.019672882
0.03903077
0.0063679274
0.0039199907
-0.09751349
0.019765837
-0.024099225
-0.008968385
-0.04491257
-0.043576024
0.06998436
-0.029572222
0.09877205
-0.0013927189
-0.030703794
0.0063973432
-0.0053261304
0.009533988
-0.012343454
-0.08519266
0.025581064
-0.036559615
0.061887555
-0.0030651535
0.011494966
0.010294555
-0.00497123
-0.10626234
-0.003563726
0.0023745515
0.012607103
-0.0012668737
-0.032068968
-0.022177208
0.047119338
-0.022240773
-0.018688511
0.014733209
0.035185214
-0.1125565
-0.00016787408
0.024047587
0.015700407
0.064499944
0.011118885
-0.06868484
-0.019846812
-0.08222286
-0.011798345
0.028687304
0.026036482
0.021278637
0.06370031
0.024682475
0.029370816
-0.046887036
0.068986505
0.011973312
-0.11984343
-0.057457697
0.02403174
-0.022100892
-0.036767416
0.040815078
0.012536021
-0.058367852
0.005847857
0.037227917
-0.07063025
0.03264483
-0.032257576
0.0066628745
-0.067979276
-0.014431266
0.025554912
-0.049096692
-0.00338831
-0.006589811
-0.004410983
0.04964915
0.007584891
-0.010905961
0.024831861
-0.009125704
0.011659618
-0.08113102
0.021582251
0.024535064
-0.036401875
0.025578389
-0.0036048982
-0.019066246
-0.0453389
-0.07654245
0.008923128
-0.011067034
0.0094272345
-0.0029504746
-0.028148256
0.01701503
-0.0077128215
-0.07802106
-0.027793976
-0.049591333
0.113801874
-0.047441095
-0.055238254
-0.015013659
-0.0032989038
0.0070106736
0.01189505
0.010226137
0.06255392
-0.031182403
0.010100381
-0.009526964
-0.010720948
0.04522588
-0.034026653
0.021525554
0.09050089
0.05403787
-0.023898058
-0.03436839
-0.004790851
0.0028429409
-0.012534844
-0.02706107
0.018036028
0.0038179078
-0.009108048
0.04291324
-0.028539184
-0.011968421
0.018922837
0.049810804
0.016488636
-0.013497531
0.0086723305
0.016344886
-0.024912588
0.12558642
0.045599025
-0.0058358135
0.030598238
0.01596392
0.011963192
-0.011789662
-0.03984196
0.05549106
0.014577789
-0.04349384
-0.020065095
0.008330087
-0.020786952
0.0061381226
0.045781184
0.028565016
0.028092528
-0.010262316
-0.05425437
0.012228881
-0.04944919
0.0015034381
0.04109349
-0.02338089
-0.07057932
0.027164504
0.03277501
-0.03775001
-0.055643853
-0.00996122
-0.020355133
-0.040179104
0.021241933
0.06434767
0.11486425
-0.011117894
-0.019691614
-0.04896001
-0.032773703
-0.001901914
0.023094092
0.031942125
-0.0119898515
0.01708112
0.038833372
-0.0006715412
0.011637008
-0.048449278
-0.027873702
-0.033635464
0.044863958
-0.012308007
0.03755701
-0.021254212
0.024987003
-0.033528734
-0.02238558
-0.021257201
-0.0014049149
0.032951407
0.0071623996
0.008106474
9.8558536e-05
-0.023853427
-0.024032945
0.040691916
-0.0043104165
-0.06637336
-0.038152523
-0.012197794
0.071199335
-0.034086198
-0.00022723679
0.100698866
-0.019265164
0.016942931
0.07257568
-0.092831895
0.0003602539
-0.016853297
-0.027956253
-0.03767619
-0.029597666
-0.0027616168
-0.01651128
-0.023583623
-0.027657256
0.05991338
-0.0020357657
-0.032113824
0.043896396
0.0582062
-0.030780366
0.0148101365
0.033242907
0.016738877
0.042589214
0.005272506
0.009180554
-0.11941905
-0.06820494
0.020638404
0.0018347262
0.027577955
0.044458445
0.0050317207
-0.039394986
-0.04944908
0.007141601
0.009550861
0.0035556203
0.00048580946
0.0054668896
-0.015908748
0.025283163
-0.040893305
-0.028417302
0.004867558
-0.048859797
0.0046099247
-0.017389005
-0.03513599
-0.015891885
0.029539665
-0.0031836724
-0.048774537
0.013851634
-0.09827938
-0.008374285
0.015042808
0.002949778
-0.02722808
-0.02513733
0.0036296519
0.09380839
-0.020116195
-0.03750294
-0.01737532
0.0006882001
-0.044836983
0.012922843
-0.02980462
0.009351646
-0.054395642
0.06243886
-0.008820186
-0.0048269406
-0.017488683
0.011592203
0.0094125075
0.008055874
-0.084987074
0.034191217
0.012425308
-0.024982953
-0.044430863
-0.01673476
0.042512733
-0.051602695
0.04243285
-0.13750285
-0.037441935
0.038599696
0.0183412
0.028022015
0.014763044
0.014835102
-0.0015196974
-0.014355967
0.019368308
-0.013574477
0.053331617
-0.014026853
-0.005258693
-0.0029046426
-0.00030587154
-0.004314418
0.05448832
0.050091464
0.038287293
-0.030469958
0.059929468
-4.309889e-05
-0.04444632
0.005832019
0.06368994
-0.024783174
-0.029853245
-0.016772535
-0.028781636
0.043030348
0.007616677
-0.024819786
-0.008421548
0.018067587
-0.01842551
-0.017210733
0.05021078
0.03285382
0.05819696
0.009429031
0.032286778
0.002272262
0.0023912769
-0.03446533
-0.051778216
-0.01408781
0.015650503
-0.020512123
0.0029506271
0.036485873
-0.015378077
-0.0059717963
0.052213956
-0.038797982
-0.07189741
-0.019973317
-0.02498303
-0.011938493
-0.0461102
-0.0001330534
0.0148367565
-0.046221208
0.005525725
0.032579053
0.005651918
-0.03898506
0.012089417
0.016653026
0.0039206636
-0.039647385
0.029693142
-0.0024770717
0.059979867
-0.012315781
0.029361518
-0.03798451
-0.006344452
-0.06225834
-0.02174857
0.052959643
-0.01710822
-0.014250514
0.014705623
0.02645996
-0.055561513
-0.035303842
-0.04215977
-0.045248684
0.018176919
-0.0074176257
0.035061665
0.026809251
-0.087370224
-0.03996629
0.0055918135
0.0034097857
0.03218546
0.011272323
0.09230252
0.012430101
-0.059375703
0.043156557
0.00958993
-0.0404494
-0.002673506
0.0053882333
-0.08156851
-0.032941528
0.0027260731
-0.010224303
-0.0029354638
-0.028223876
-0.09480528
-0.01848954
0.009603757
0.018353056
-0.08697225
-0.02754222
0.0237103
-0.043698475
-0.0802772
-0.044899113
-0.028707078
-0.08509668
0.026743874
-0.023992313
0.011096863
0.010486867
0.047036402
-0.030107928
-0.07719935
0.03205142
0.0027479753
-0.015983285
0.0072741034
0.009294032
0.005501102
-0.007283512
0.010393238
-0.0625682
-0.032619327
0.029950658
0.041876655
-0.005270061
-0.026901484
-0.0033459761
0.00025585506
-0.016057046
4.2376207e-08
-0.024468845
0.0023489664
-0.036256462
-0.0139380945
5.464902e-06
-0.021255873
0.022064751
-0.08698307
-0.047283344
0.108579904
-0.016857147
0.029284365
0.013270638
0.011995782
0.007697852
0.0008889074
-0.0040016035
-0.015169768
0.026416197
0.013041505
0.06463286
0.023476359
0.003693133
-0.021609109
-0.0040721013
-0.008109251
0.035485785
0.026447425
0.035758194
-0.0434629
-0.038301628
0.0048291357
-0.030657213
-0.05899345
-0.043585032
0.03744097
0.032157008
0.012503213
-0.02510075
-0.01897517
0.01908031
0.005632601
-0.036072005
-0.0059206416
0.02961129
-0.019930236
-0.08124727
-0.03783885
-0.037227806
-0.022787817
-0.035477344
0.011735647
-0.021800255
0.025644457
-0.0076822853
-0.0007497256
0.018818378
0.002640442
0.00020606973
0.084342755
-0.0038929915
-0.00092469907
-0.009391155
0.037763223
0.018260788
0.026039522
0.008701148
-0.038294062
-0.044857398
-0.0009990459
-0.04655921
-0.009238592
0.02793858
0.05048506
-0.026483504
-0.06611993
-0.009660442
0.046423532
-0.054173686
-0.0663821
-0.012357117
-0.013434495
-0.0017084441
0.02984051
0.016866721
0.009886773
0.041697152
-0.030093392
0.009254863
-0.009545718
-0.011495177
0.018412504
-0.005467828
-0.032686375
-0.029743928
-0.034342173
0.05223876
0.039803788
0.006034732
0.00065800146
-0.045684364
0.0044020577
-0.008689995
0.004650044
0.011756233
-0.00044247787
0.024219476
-0.016211197
-0.0063374205
0.035847854
-0.023872659
-0.019643096
0.017088076
-0.013398935
0.065327674
-0.0163285
0.026225464
0.056002416
0.006821761
0.047542434
-0.007460725
-0.12757409
0.07609551
0.020394485
-0.027001258
0.008170901
-0.020117907
-0.011809911
-0.02672207
-0.047334034
-0.06461104
-0.048782542
-0.06597454
-0.056562852
-0.007477842
0.031239325
-0.04530014
-0.008601974
-0.0059151566
0.015217629
0.011160475
0.020183425
-0.015175158
0.032621406
-0.040911127
-0.01705831
0.003342967
-0.034443576
0.025869254
-0.04147045
0.0016787598
-0.018496754
0.015469673
-0.042317454
0.02779834
0.04422565
-0.043844268
-0.0097504575
-0.008594978
-0.038516212
-0.03604576
-0.045361686
-0.0032296092
0.03332596
0.020720799
0.03670927
-0.049855158
0.041863043
0.055452272
-0.0070656245
-0.057796404
0.0033151575
0.013195487
-0.03428149
-0.011687867
0.034967747
-0.053063985
0.046700034
-0.026370488
-0.016978323
0.041004293
0.08857969
-0.03944505
-0.015629377
0.018644061
-0.026934678
-0.0031672707
-0.030504882
-0.07036813
-0.024887249
0.08118336
-0.036498316
0.024028352
0.0064239893
0.024958083
-0.005028623
0.002351973
0.0012559769
0.03766625
-0.021215094
0.009081354
0.03453553
-0.005272091
0.03486253
-0.008833415
0.016541665
-0.00024642385
0.036264285
0.0040161475
0.048827194
-0.049223587
0.004874142
0.017328514
-0.054520566
0.03371634
0.024950627
0.078288585
0.0007559555
0.018788803
-0.035493735
0.026441708
-0.008177393
0.06775409
-0.011821424
0.07208041
-0.04361503
0.092114255
0.04321547
0.003167039
-0.057834074
0.04897152
-0.06770479
0.044009037
0.07997552
-0.010624176
-0.04839463
-0.018692588
0.010896285
-0.07677786
-0.043346696
-0.018623712
-0.039634902
0.030334124
0.054199375
0.082961954
-0.061495725
0.14991185
0.020687753
-0.15562148
0.0108294515
0.035792556
0.013627438
0.08104427
0.046949677
0.014084227
-0.11555141
0.011839121
0.015889058
0.027117252
0.028110228
-0.0587992
0.040948987
-0.28946894
-0.0009937705
-0.023179619
0.042929836
0.04362494
-0.035179865
0.0042894757
-0.024576567
0.029771546
0.0644532
-0.04157309
0.014577775
-0.03698006
-0.032101396
0.013000773
-0.13558209
-0.07958321
-0.07773249
-0.046351068
-0.05011519
0.09036218
0.03214081
0.004483052
-0.0846685
-0.07393124
-0.024563903
-0.023371907
0.005002054
-0.0789612
0.0034072571
-0.06603475
0.021379806
-0.022756781
0.030895375
0.0834744
-0.049266305
-0.04989225
-0.069540545
-0.042086177
0.084301285
-0.054163065
-0.026441041
0.030075395
-0.010552885
0.088911116
0.0021116845
-0.0670675
0.0047303094
-0.027078347
0.06864346
-0.082865216
0.0050652376
-0.029288277
-0.09119433
-0.00037484863
-0.07464716
0.024185795
0.04667963
0.0056678466
-0.05910827
-0.0087968735
-0.13096438
0.024677664
-0.0049291686
0.03894061
-0.0390036
-0.070927806
0.008969828
0.030463953
0.081494
0.007429996
-0.079749644
-0.04830867
0.0052234274
-0.03643109
-0.03618181
0.018032134
0.011130658
0.034056213
0.025630701
0.0069573736
0.010130789
0.034691416
0.061966803
0.020990152
-0.07106579
-0.0045568934
0.086821094
0.056125756
0.11905642
-0.057198673
0.025251297
0.015848301
-0.098351695
-0.025369257
0.014694834
0.014063185
-0.050205816
-0.061752845
-0.044234235
0.038337287
0.0032544837
-0.03041519
0.01029798
0.01277131
0.013832604
0.03366801
-0.07562942
0.03343589
-0.01078001
0.033856884
-0.016920295
0.013355552
-0.031553827
-0.006055685
-0.052590422
0.035432853
0.11836245
-0.040982492
0.00028369288
0.034204617
-0.15641873
0.00705206
0.094393164
0.20618984
0.026685482
-0.0058469474
0.004150277
0.036281478
-0.014801433
-0.01400167
-0.07849426
-0.053110383
0.020628924
-0.007156206
-0.03159908
-0.0076034693
-0.0530868
-0.09582345
-0.009893753
-0.04300287
0.0294208
0.05316745
0.035097748
-0.013708892
0.08992355
0.006075584
-0.021539874
-0.02293782
-0.03596143
0.027819222
-0.060695685
0.09444578
0.0051424173
-0.014108039
0.017881386
-0.07944289
0.000582698
-0.0020541793
0.05743235
0.058404848
-0.015404174
-0.03706443
0.031007254
0.053411514
-0.05787477
0.012318094
0.058119114
-0.19287436
-0.014675966
-0.042273432
0.03582083
0.004038353
-0.05928538
0.008462916
-0.04353086
-0.003928506
-0.027437331
-0.010244432
-0.00430653
0.0054206955
-0.018913865
-0.09026856
-0.0041584824
-0.02964322
-0.036375057
-0.04597103
0.3798756
-0.024060156
-0.03616411
0.004959878
-0.05518109
-0.041740954
-0.021677215
0.008071865
0.07063779
-0.026893422
0.0018922696
0.06903677
0.050908744
-0.09038606
0.01555727
-0.054346353
0.057276107
0.011888581
0.015503521
0.04753289
-0.0026340282
0.022536129
0.018943513
0.010754411
0.014680317
0.005079349
-0.0047212183
-0.07276662
0.002909725
-0.05299819
-0.06553494
0.0043040602
0.05007179
0.11668445
-0.04712243
-0.030990204
0.041258994
-0.054474212
0.09456412
-0.010955475
0.023162797
-0.038083795
-0.053980857
0.002844786
-0.00048263307
0.024202954
0.016281068
0.23526928
-0.049240503
-0.026688376
-0.008605533
-0.037216756
-0.052962795
-0.023754321
0.008239308
-0.08630645
-0.035865
-0.07899664
-0.07333859
0.08038052
0.018945957
-0.003155679
-3.6544947e-08
-0.059998997
0.031394523
0.029605094
0.008499792
0.15190488
-0.026122127
-0.015456186
-0.0024296122
0.002519085
-0.018881427
0.032610435
0.04052815
-0.0051316964
-0.07388179
-0.010012861
0.045338694
0.0033855245
-0.0023835367
0.0039883573
0.058192987
0.055810563
-0.04312184
0.027479943
-0.017995361
-0.018245634
-0.03503818
-0.019757845
0.0694347
0.07527651
-0.014683845
0.05584158
0.017179608
-0.049915623
0.046163272
-0.052544948
-0.019953525
-0.019090062
0.10988313
0.007835441
-0.003118546
-0.0005990285
-0.03590071
-0.046158403
-0.06834689
0.12203624
0.044548485
-0.1356781
-0.006163985
0.015006518
-0.066621795
-0.03054048
-0.024799732
0.044803597
0.0034801222
0.036974125
0.090114065
0.07711459
0.017148279
-0.02231542
0.0008857086
-0.067657486
0.020327147
-0.014803892
-0.069387294
-0.0004668902
-0.111686364
-0.04970219
0.023497969
0.047797725
0.013916656
-0.017285956
0.05083092
0.021590255
-0.0054865372
0.008962811
-0.057138853
0.09319307
0.017435608
-0.004995215
-0.044316996
-0.013829332
0.0029724743
0.009846551
0.07796748
-0.026441384
-0.0047403476
0.030720504
0.0003675066
-0.008526817
-0.03906491
5.189076e-05
0.10059483
-0.073726766
0.04972438
0.028989794
0.076494195
0.018291445
-0.012825839
0.019671043
-0.02576426
-0.023413152
-0.07504793
0.025130479
0.019733924
-0.027030522
0.0100624245
-0.038007423
-0.0008685561
0.050674193
-0.119404025
0.03833251
0.044885386
0.046776135
0.016507069
0.008966432
0.10177992
0.12775385
-0.036617544
-0.036814388
-0.06895026
0.013291839
-0.0119281085
-0.009482439
0.012047569
-0.016189178
-0.042526376
-0.058135424
0.031073332
-0.06068957
-0.04081132
0.025172498
0.038117804
-0.024835842
0.009466973
0.12735705
0.0117642535
-0.031592302
-0.007354109
0.012874703
0.006684769
0.0390313
-0.039071262
-0.01243568
-0.02238343
-0.017207837
0.021280356
-0.04547871
-0.02766155
-0.020959167
0.028108897
0.003949252
0.056751866
0.0023935388
0.046832547
-0.06508152
0.022321116
-0.014203041
0.035763558
-0.014217964
-0.05727456
0.10060192
-0.014256317
-0.0058738133
-0.021437181
0.014156894
0.049169328
-0.09704452
-0.017892357
0.00040755465
0.072985455
0.029504761
0.006348872
0.025245165
-0.008470791
0.06060683
0.03886933
-0.0049452228
-0.021119239
0.008662871
-0.008657932
-0.0325219
0.027031915
-0.0058787647
-0.053306863
-0.020062655
-0.06197186
-0.042214297
-0.0090576885
-0.004770055
0.00111547
0.011032752
0.026234465
0.021972068
0.004234681
0.06422717
-0.04807001
0.015463001
-0.028340627
0.015487076
0.04482324
0.024574697
-0.013661171
-0.020684632
-0.003044562
0.011088423
-0.007939683
-0.0011411879
0.15227744
0.017745266
0.002442481
0.13804626
0.029071856
0.029048461
0.0022465
-0.01684963
-0.07078708
-0.00047839741
-0.039137106
0.013620595
0.07649264
0.045195833
-0.004628069
0.08948068
-0.025981802
0.17428948
0.067170896
0.04453877
0.0021429597
0.025871597
0.018731715
-0.051276527
-0.034270495
0.0118205175
0.06894547
-0.035858944
0.0544936
0.024642073
-0.022582538
-0.13849178
0.016706618
0.038220175
0.07093925
0.0018263367
0.034420483
-0.007070406
0.06780247
-0.07979676
0.043755323
0.033321135
0.07664464
-0.05229872
0.011720656
0.014777617
0.043673344
0.110146396
0.026917286
0.008129169
0.053395387
-0.072112866
-0.0021466343
0.07676385
0.021703428
0.017908173
0.03921259
0.0069618183
0.020572953
-0.0807809
0.09492748
-0.005267496
-0.01952373
-0.0033132148
-0.046974316
-0.014093774
0.019165494
-0.096121326
-0.0075523434
0.11657384
0.04714725
-0.0041253925
0.13035452
0.052652247
0.0019350597
-0.06942517
-0.017018756
-0.024266828
0.009413624
0.07027365
0.012539608
0.07000923
-0.0016101736
0.043773524
-0.03301672
-0.0022182902
-0.038234938
-0.012098811
-0.025080793
0.013592685
0.039574992
0.029987108
-0.035189267
-0.14170566
0.043789554
0.105013914
-0.010654909
-0.072751656
-0.04034371
0.042556047
-0.016651172
0.031141099
0.04117791
0.122194834
-0.004864563
0.052857146
-0.027007712
-0.057765648
-0.026364287
0.011543682
0.08979652
-0.032893647
-0.025682999
-0.036624122
-0.033465948
0.014130806
-0.018504474
0.06061555
-0.050867025
-0.06604713
-0.010380928
-0.035189237
-0.018064862
0.0064784857
-0.007773493
0.028502924
0.02934303
-0.034366168
-0.12333727
0.00086364226
0.011316435
0.04262331
0.019599857
0.023353186
0.028232588
0.010910649
0.014285214
0.115891516
0.05435683
-0.088542864
0.059216723
-0.03459177
-0.02977098
0.009302078
0.010617471
0.047596328
-0.027305836
0.084551945
0.07284712
0.018232465
0.024656687
0.002685668
-0.006301039
-0.07718678
0.042071324
0.088676624
-0.05213579
0.0031721154
-0.10194864
-0.0054419334
-0.0438606
0.0037394322
-0.055451963
0.058909737
-0.059106365
-0.034936246
-0.09679075
0.032053698
0.0046223407
0.014749337
0.045975287
-0.04875422
0.046800196
-0.04060682
0.04731206
0.06409484
0.015661648
0.0105229635
0.034162823
-0.047185615
-0.044943985
-0.056659352
-0.048614167
-0.007242026
-0.02127832
0.021897962
-0.0114865685
-0.03539688
0.050353423
0.079481415
-0.024847275
-0.005479851
0.064695776
-0.09006998
-0.004220936
0.023459002
-0.025357049
-0.02113803
-0.051398925
-0.063320495
0.02434911
0.03640681
-0.05996146
-0.043630704
0.05970655
-0.028121753
-0.01361208
0.0012866077
0.01792646
-0.00094751065
-0.008000169
-0.042364247
-0.050638817
-0.00724572
-0.04241947
-0.04927288
-0.097998515
-0.005576792
0.05176158
-0.004582075
0.056902077
0.09706552
0.027428182
0.06587203
0.031586293
-0.0847248
0.0035843262
0.05437926
-0.011773369
-0.007426948
-0.0016345326
0.04106676
0.0057293074
0.030532084
-0.008572093
-0.018276254
-0.040983733
-0.1251117
-0.07478359
0.07883374
-0.048921324
0.065079674
0.09390542
0.013819242
0.012159157
-0.0047598705
-0.06461252
-0.02161504
-0.026834836
0.057170887
0.077889554
0.007433422
0.009615139
-0.024645267
-0.008178093
-0.050245423
-0.038386427
0.00693099
0.0576146
0.03454586
-0.01972032
0.004489262
-0.0073517323
0.030098708
-0.0604349
0.04276242
-0.052497555
0.043323547
-0.021296503
-0.034279197
0.03297013
0.01757381
0.089942716
-0.045368653
0.021451646
0.049851432
0.0915417
0.021361837
0.0148097845
-0.104332745
0.015867528
-0.020892171
-0.01322942
-0.0058068787
-0.054511387
0.02137138
-0.068841666
-0.061627556
-0.0014137884
0.078958355
0.00719346
-0.043842632
-0.00025146225
0.051770106
-0.066744134
-0.02553002
-0.047304414
-0.012206552
-0.059353314
0.018226406
0.009250259
-0.011443341
-0.053339984
-0.00057043973
-1.2367668e-07
-0.030830948
-0.0063133286
-0.0035351962
-0.036957473
-0.001112328
0.051444408
-0.016131
0.016365673
0.05483072
-0.10580055
0.082497194
-0.025438126
0.0695769
-0.020692077
0.041099418
-0.020245956
0.0046875407
0.032685354
0.0036817775
0.061560214
0.06298299
-0.0075695603
0.008989558
-0.030258525
-0.0178653
-0.061211694
-0.0012821286
-0.061675217
-0.036110982
-0.063268766
0.057369363
0.03756474
-0.06447912
-0.0073074675
0.02406251
0.040679764
-0.005633216
0.0124558285
-0.045679826
0.028474435
-0.005990689
-0.07179864
0.0021581356
-0.03573717
-0.05086167
0.043875378
-0.10033023
-0.044403438
-0.021774989
-0.014340866
-0.026845409
0.072636224
-0.07049729
0.045477044
0.06291306
0.058640067
0.004602932
0.009524596
0.036976807
0.016289622
0.024417138
-0.03801274
0.0008568122
0.08197345
0.02587507
-0.07556173
0.024303196
0.029111838
0.059435062
-0.00075234496
-0.062980056
-0.042752605
0.0176882
0.009658898
0.006735848
-0.031347286
0.004062206
0.054460395
-0.0036335075
0.034273665
-0.004858853
0.041458007
-0.019958038
0.022530112
0.029656718
0.03959815
0.049318828
0.018371291
0.019271262
0.05391687
0.07055592
0.009921197
0.023476956
-0.04011074
0.010041241
-0.008143516
-0.12134052
0.061946366
0.0072908783
0.009125596
0.07396539
0.008417267
0.015271488
-0.016145088
-0.048947986
-0.018219598
0.019341115
-0.057127856
-0.02540407
-0.0684392
0.043856345
0.02323799
-0.01221307
-0.028354902
-0.11963349
-0.08513472
-0.014233134
-0.019627493
-0.025393471
-0.06603703
-0.0016970895
-0.11612152
-0.063958615
-0.016445603
0.0030322922
0.00076368335
0.0068613887
0.03138543
0.0034958099
-0.10322638
-0.019458786
0.115999684
-0.015706787
0.01865094
0.049304295
0.033675376
0.0017312524
0.036860112
0.040299863
0.02588897
0.08675806
-0.014978917
0.0013889021
-0.008811849
-0.0141391745
-0.03166496
0.07400539
0.029135877
0.004719756
-0.003746353
-0.010383109
0.003820827
0.021370951
0.020220364
0.023473695
-0.0033895986
0.008308678
-0.043841265
-0.01552098
0.017544745
0.036146715
0.108986616
-0.058307108
0.018191025
-0.039427873
0.026284749
0.084233604
-0.022480275
0.06550886
0.008612586
0.051454626
-0.021535272
-0.0072041857
0.016849032
0.065058134
-0.023202516
0.0020767776
0.035765197
-0.017991971
0.015723309
0.07484758
0.011402755
-0.002030831
-0.062383037
-0.048518274
-0.0151980575
-0.08402242
0.035909593
-0.025910767
-0.017695414
0.016213499
0.032674402
0.07560949
-0.07843699
0.000844689
0.053688765
0.049145523
-0.045038573
0.024618847
-0.02951327
-0.005859136
-0.025697406
-0.032837622
0.031594582
0.037850525
0.07337519
0.0012128348
-0.077097215
-0.039304137
0.09736238
-0.023569683
-0.045218386
0.031078978
-0.050286245
-0.14264351
-0.009227309
-0.040022384
0.0835563
-0.052826714
0.018862784
0.013507297
-0.0282382
0.053812146
-0.031836215
-0.06148028
0.010060132
0.00873447
0.0176125
-0.019239953
0.0028387378
0.0155752115
0.02009345
-0.026766237
0.0067746756
-0.036581486
-0.033001866
0.04316451
-0.009415026
-0.021450173
-0.026494965
-0.036888845
0.019433595
0.009330262
-0.015518242
0.017792083
0.0009382254
-0.018579042
-0.019728035
0.007428398
0.035986856
-0.016830236
0.03466941
0.02452789
-0.010741446
0.04264659
-0.009189632
-0.003207173
0.0011831971
-0.01763174
-0.0055007963
0.028468424
0.012741771
-0.00975352
-0.0654311
-0.08227016
0.030880773
-0.029176103
0.009651434
-0.03723203
-0.026763316
-0.021847056
-0.043970905
-0.013216542
0.04018027
0.0001778715
0.013904916
0.026539322
0.029036313
-0.052401707
-0.050213017
-0.033596262
0.048411947
-0.043972045
0.017526997
0.052271567
0.01838114
0.0029347544
-0.031833842
0.069154374
-0.041736774
-0.002645683
0.009859077
-0.059580244
-0.09657269
-0.16443625
-0.013160263
0.028535593
0.045973092
-0.045772
0.015700404
0.033294864
-0.032437384
0.0043086982
0.035434794
-0.06308121
-0.053108077
0.010442173
-0.036192697
0.008578118
-0.053265903
0.0069486634
0.0088884
-0.04094111
0.061926086
-0.000963022
-0.046023086
0.013632458
0.007549924
-0.007274284
0.03532215
-0.003045457
-0.02312346
-0.01574679
-0.026927518
0.007226034
-0.0071672117
-0.010444558
0.02300159
0.025229748
0.018599221
-0.07023662
-0.04038189
0.0011510093
0.020299807
-0.056029283
0.009001568
-0.0075796526
0.04314491
0.032769196
0.0038390963
0.045107488
0.017951779
-0.046487957
0.009525051
0.01441532
0.011988768
-0.006908843
-0.0002616968
-0.09202947
-0.043045815
-0.008810639
-0.023256557
0.001561755
0.029356394
-0.002664115
-0.032724835
0.013817108
0.048441853
0.07915457
0.0002654116
-0.014807715
0.028812045
0.06420512
0.009255226
0.001703939
-0.018650677
0.046295837
0.0007119309
-0.0014500069
0.055825893
0.006277519
0.017841427
-0.020456752
0.0100621525
-0.030588724
-9.3106035e-05
-0.015104975
0.056762554
-0.020393962
-0.027457412
0.004706161
-0.02429852
-0.0428261
-0.015946249
0.001820941
-0.004886525
-0.0021083455
0.000425877
-0.024710938
-0.010519057
-0.0004950139
-0.0086848205
0.013550274
0.018151859
-0.04059248
0.027455164
-0.015778178
-0.06456724
-0.0021881063
0.0192475
-0.010124227
0.0091815265
0.077779084
0.004759412
0.03136834
-0.041934665
-0.0270983
-0.017824765
-0.0033833692
0.012348163
-0.017652573
0.0033810318
-0.01470893
0.051600315
-0.002233815
0.0016365148
-0.026589619
0.0058317026
-0.014008694
0.013262839
-0.0017968767
0.053231165
-0.0041927123
-0.16450046
-0.007028229
0.014138699
-0.025372399
0.03327572
0.05250507
0.026767764
0.06871964
-0.03931638
0.013728836
0.029557051
-0.026774535
0.016803129
0.024697056
-0.0084140375
0.03131306
0.015731022
-0.05459851
-0.023086384
0.00944154
0.016869267
-0.0026998958
0.009789225
-0.0340684
0.023553729
0.009510622
0.06584133
-0.06694633
-0.01691994
-0.031466622
-0.0020274972
-0.01930942
0.0041825147
-0.008976474
-0.027682075
-0.0028331135
-0.005956227
-0.026569024
-0.030669963
0.012002954
-0.0039591906
-0.0032760804
0.036593996
0.010568428
0.18792336
-0.036278605
-0.025556332
-0.011157448
-0.02364227
-0.025258506
0.026913034
0.008907963
0.033484336
0.03830146
-0.0033665204
-0.009797087
0.004786618
-0.060579024
-0.022020414
-0.0011492884
-0.0005543843
0.0048637926
-0.011058748
0.0073491107
-0.032287627
0.05503785
0.04112913
-0.03807349
0.0033325383
0.047059
0.008597555
-0.04705209
0.016706325
0.05079089
0.019285224
0.036237735
0.04432851
-0.003040502
-0.03433327
0.022877365
0.030794045
-0.01964366
0.0015336236
0.046108328
-0.018917518
0.033096526
-0.054302055
0.047706764
1.9727409e-08
-0.04939364
-0.017173227
-0.024378099
-0.015278913
0.011326505
-0.010237452
-0.05107216
-0.010264462
4.725002e-05
-0.008346511
-0.027528008
0.006924859
-0.08858581
-0.001352094
-0.06666506
0.05488021
-0.049906835
-0.04086534
0.021096485
-0.011793809
-0.0057108044
0.024597013
-0.018365873
0.002983418
-0.0069060926
0.00088470784
0.019080995
0.004407682
-0.007039413
0.031878054
-0.0120429555
0.024146926
-0.037138354
0.010801105
0.02005318
-0.028717069
0.023478141
-0.029521817
-0.043649223
-0.021732656
0.0012549483
0.00318054
0.062986664
-0.007687132
-0.015568834
-0.015298051
-0.009323968
-0.017467821
0.016809693
-0.012299779
-0.03777847
-0.0027164812
-0.026118277
0.00024962908
0.048202652
-0.03418627
0.026981868
-0.011810358
0.041975323
0.019819517
-0.078082666
-0.008217789
-0.08060253
0.00019476925
-0.07592332
-0.03478875
0.03224423
-0.06400043
0.045806292
-0.0011024269
-0.03435457
0.007152127
-0.06538657
0.0026263907
0.01879705
0.0017733265
0.008325469
0.01768667
-0.021065747
-0.009407666
-0.042213853
-0.0031530445
-0.039501924
-0.038073108
0.00051258545
-0.012265957
0.02550883
0.014273751
-0.029935976
0.049355906
0.0255062
0.018847825
-0.017051158
0.03066175
0.03633488
0.053722687
-0.08753409
-0.055300407
-0.02448851
0.0026228349
0.001186706
0.029905709
-0.036737464
-0.0329096
0.053064827
0.015550281
-0.004812168
-0.031267524
0.054308377
-0.02512598
-0.01977512
-0.004009624
-0.019493569
0.015529991
0.04040152
-0.00922594
0.014153636
-0.044128913
-0.061067697
0.00010784078
0.05756931
0.0075550657
0.035869557
0.006460337
0.0002882818
0.0126062315
0.033277385
0.006163598
0.06946361
-0.06657506
-0.01585265
0.007522889
0.054807242
0.04024226
0.031003762
0.014666258
0.005407133
-0.011488568
0.026196063
0.0016387099
0.047396276
0.033470623
-0.021873014
0.0070765964
-0.0024288232
-0.016953751
-0.025892928
-0.0032415604
0.044676166
0.067154944
0.0034690422
0.0366358
-0.06786686
-0.008178979
-0.018082859
-0.031095779
0.014147032
0.039529607
0.028086295
-0.0131448675
0.025310863
0.05757554
0.079122916
-0.0012928626
-0.0033151554
-0.030431187
0.015634315
0.025972225
0.012649364
-0.038836688
0.0038344727
-0.073942855
-0.0139486985
0.0043907035
-0.036636777
0.024609488
0.032530315
0.0020563416
-0.053041376
0.030147055
0.0429549
0.020604163
0.024860067
-0.050007485
0.0014378114
-0.02224901
0.013202302
0.03480035
-0.0065088486
0.015924603
-0.0078558
-0.009692835
0.03815838
0.0012673413
0.00331104
0.010484807
-0.0061587226
-0.0069858492
0.016030574
-0.051194325
-0.030797191
0.020688146
-0.024982305
-0.039593566
-0.05608473
-0.008828631
-0.066778146
-0.03757475
0.08786652
0.031500068
-0.037450377
-0.038446248
0.042241577
0.010277058
0.016837351
-0.09558123
0.0025068764
-0.03453346
-0.017014686
0.012300982
-0.03199324
0.025431862
-0.036177866
0.010097356
-0.021548972
0.02898133
0.0497236
-0.016547427
-0.008284839
0.068431735
-0.051053114
0.009456402
-0.01359393
0.024683993
0.034590058
0.00014176154
-0.010006153
0.051317792
-0.022130305
0.027815487
0.054160167
-0.0008922756
0.015141943
-0.03217569
-0.045019533
0.028066441
0.2774558
0.0053894343
-0.25199464
0.030365517
0.0280233
0.00027598356
0.08772025
-0.035274003
0.0285598
-0.047954947
0.021883203
-0.022132944
0.032016087
-0.02608137
0.11934201
-0.03888734
-0.0075972443
0.010158888
0.015684705
-0.014973194
-0.021170592
0.0038383056
-0.003992529
0.020680761
0.022542857
0.0047979793
0.06429385
0.023714546
0.03746314
-0.017837815
-0.05912832
-0.008129792
-0.03858263
0.051691726
0.035661384
0.025928969
0.08313312
0.05528995
-0.0035642004
0.036785766
-0.042777825
0.007362526
0.008470398
0.016423373
0.008198934
-0.002062726
0.060147695
0.028411368
0.035598516
-0.053944714
0.00018594966
0.13548231
0.026606098
0.01875803
-0.01112092
-0.013299834
-0.10790038
0.0162796
0.011945218
0.032926727
-0.048001092
0.02936598
0.011867999
-0.020743858
-0.022141347
0.010561229
0.013915196
-0.012255201
0.037536282
-0.016493091
-0.03444105
-0.0046697296
-0.02450944
0.027389323
-0.0013896697
0.032871142
-0.033309396
0.00514059
-0.045288496
0.018146066
-0.0010278879
-0.009817746
0.03189013
0.029846186
0.03493451
0.03163181
-0.038537234
-0.061167672
0.021638807
-0.07775495
-0.028382804
-0.039095797
-0.0077601015
-0.009468567
0.0061339946
-0.0044706305
0.0037046452
-0.007811118
0.014597919
0.013784795
-0.046047375
0.12215006
-0.0061916653
0.001528041
0.09938082
-0.031357072
-0.060590073
-0.027447296
-0.03578805
0.039306406
0.0032043147
-0.050847128
0.0035325668
-0.026014596
0.021884186
-0.008573778
0.068786
0.004478355
-0.00080573774
0.019074025
-0.00026574402
-0.0024738396
0.06329501
0.033066258
0.026429484
0.049342237
0.028479043
-0.015262547
-0.04009848
0.08925458
0.0033979036
0.020822939
-0.12209424
-0.108767994
0.0024988463
0.10337751
-0.024527378
0.0031423522
-0.06495651
0.030926608
-0.1242255
0.071516395
0.007752432
-0.025326673
0.0433227
0.022624116
0.06652839
-0.014680884
-0.007854262
-0.022159826
-0.0054463646
-0.035143517
-0.046637945
-0.0024349815
0.0018672252
0.013938158
-0.0038650066
0.065683365
0.040756218
0.021579104
0.06379791
0.007228764
-0.040619098
0.0066495165
-0.18501295
-0.0054100337
0.06569123
-0.011321364
-0.12706609
-0.0023673424
0.0069456385
-0.0018855225
0.057676714
0.04280866
-0.029296834
-0.02272266
0.010530772
-0.00272728
-0.05978498
0.041574735
0.0070986217
-0.0021055976
0.016561344
-0.13269849
-0.057829197
0.004276393
0.00045435355
-0.011768959
-0.028472804
-0.0036880884
-0.050300658
0.031951368
0.0027294466
0.04307412
0.034286715
0.015517531
-0.010944226
0.08095693
-0.0387433
0.015978
0.0019046183
0.009022421
0.03738553
0.0788699
0.0006519591
0.05332251
-0.0032265747
0.035878126
-0.038589597
-0.091545075
0.001535099
0.034258842
-0.042385254
0.027531762
0.001633789
0.031911995
-0.0843085
0.064345
0.041816313
0.25585693
0.030786548
0.019541722
0.037840407
0.0035034257
-0.041968346
0.031215059
-0.028858948
-0.040044844
-0.0066591725
0.00060436415
-0.009697403
-0.020786557
-0.011855795
0.012984498
-0.016735438
0.034191065
0.039519936
0.024224728
0.022609562
0.01816972
0.09920105
-0.036495455
-0.10286358
0.0127607845
-0.037034012
0.0027959826
0.011345117
0.017880479
-0.03237708
0.0011157746
0.17692636
0.03132806
-0.007274147
0.036085278
0.051772043
0.04595952
-0.037131913
0.09387389
0.04003417
-0.03428293
0.0103486255
-0.05922883
-0.09294965
-0.02117994
-0.07703677
-1.17407424e-07
-0.02397591
0.046947706
-0.019995958
0.0076555456
-0.033444665
-0.029216925
-0.024760177
0.044701908
0.10006604
0.019445155
0.055846546
0.012183579
-0.00080797955
-0.002395878
0.0030264566
-0.042645533
0.0006823081
0.05943568
0.02388348
0.050366547
-0.03529853
-0.015149812
-0.0355805
-0.056934662
-0.1628955
-0.041224547
-0.030813286
-0.0197169
0.045797378
-0.043053005
-0.0030869227
0.021936191
-0.02820038
0.02212423
0.012304148
-0.026373396
0.025944706
-0.05642876
0.009264766
0.021275096
-0.028053207
0.013278759
0.010412679
-0.00063003204
-0.04296412
0.0060257567
0.010825631
0.027977059
-0.033960935
0.02225173
0.016574051
-0.05089574
0.050030127
-0.00673904
-0.035115615
0.0023605379
-0.021090355
0.011053332
-0.0037783068
-0.0056370385
-0.026899083
-0.024937168
0.03159183
0.10741418
-0.016403407
0.13227646
-0.008027316
-0.010942561
0.044129662
-0.078065924
-0.019553905
-0.01879843
-0.013465709
0.0079781385
-0.051223617
-0.05925233
0.11595992
-0.025658065
-0.048017513
-0.020597847
0.020353613
0.047146294
-0.003323079
-0.013310694
0.0213165
-0.005541189
0.007177573
0.019869106
0.06767357
0.02130103
0.021178769
-0.051339112
0.028623639
-0.03999416
0.0115718525
0.098598495
0.07461075
0.13582054
0.019353697
0.0052393507
-0.0048024515
-0.020227572
0.008432834
0.0069041317
-0.061354093
0.028072685
0.057805844
0.014217477
-0.025204273
-0.0065973685
-0.019133136
-0.05231657
0.011216045
0.003886414
-0.012192525
0.11177861
0.06686996
-0.021027079
-0.041088134
0.053899176
0.030877894
0.042721454
-0.02731846
-0.016938882
-0.018890752
-0.066052064
-0.03626205
-0.06233331
-0.04757556
0.044979803
-0.029411031
0.026999855
-0.013265429
0.025956765
-0.02604691
0.030534862
0.016756387
0.007954675
0.0062058303
-0.029000372
0.0073077087
-0.030034555
0.033994954
0.014249663
0.0058420696
0.013338879
0.04988179
-0.026106277
0.030291662
0.036342185
0.12945774
0.008973519
0.09096016
0.0037598705
0.07307672
0.01751908
-0.010136296
0.040080756
-0.038485352
-0.14859395
-0.04554409
0.034987077
0.04527977
0.01678359
0.0138574
-0.045521677
0.015974563
-0.022713212
-0.016569406
0.005118361
0.0039111623
0.00440126
0.0886769
-0.024031233
-0.074920416
-0.0052165836
0.039887805
-0.012569172
-0.031965166
-0.033576973
-0.003556777
0.04321317
-0.07984022
0.06387749
0.032633062
-0.028860655
-0.08862064
-0.02131285
0.050672635
0.057832662
-0.03142432
0.014159266
-0.04261905
-0.07169712
-0.0070919273
0.01617795
0.027193
0.19472836
-0.003984106
-0.048635352
0.013035019
0.012429446
0.03819994
-0.02030326
0.022024488
-0.009230348
-0.0055428706
0.020446839
0.010317369
0.009348163
0.14822763
0.041492272
-0.018093035
-0.0724591
0.0075460337
-0.05516313
0.020427555
0.1311886
-0.0007328673
-0.13391982
0.0019193465
-0.032603525
-0.008921945
0.071595594
0.007645172
-0.017514734
0.014732698
0.15359186
0.06094307
0.03548954
-0.094748214
0.014775123
-0.05146327
-0.027137578
0.00016811994
0.050496712
0.005930698
0.06328251
-0.07232807
-0.06920625
-0.0050512175
-0.014134591
0.059907705
0.02125709
0.008495759
0.013869641
-0.06797874
-0.049528353
-0.04662884
-0.021719199
0.02726744
-0.05374783
-0.041294936
-0.020196214
-0.031901915
0.0346764
-0.063331895
0.05923513
0.008605321
-0.053412862
0.0117115695
-0.010347498
0.049810063
0.0150834555
0.0550578
-0.03761227
-0.0262652
-0.008655426
-0.019960005
-0.087920845
0.045542113
0.009811291
-0.0032866502
-0.064220026
0.022045936
-0.064211406
0.053751837
0.016819775
0.00026719735
-0.0066705085
-0.0021379406
0.04915415
-0.02417559
0.052105766
0.024452273
0.021649623
-0.04019539
0.038136125
0.042004768
-0.0024515782
0.08490411
-0.0032125427
-0.0018971913
-0.040203445
-0.012148887
0.031336546
0.009365595
0.07806409
-0.03447793
0.020015113
0.050927524
0.007914585
0.0581837
-0.03766275
0.0027277502
-0.010704448
0.024429958
-0.039473977
-0.0190284
0.004925106
-0.012439641
0.004707499
-0.002453465
-0.083901025
0.051929604
0.002202438
-0.05684725
-0.021011766
-0.014260877
0.03637717
0.008268909
-0.007920423
-0.013787491
-0.044201534
0.0016414121
0.0072661242
-0.021804223
0.016504502
-0.010712787
-0.00067842024
0.07140043
-0.014218961
0.058848567
0.01635581
-0.04118588
0.034055036
0.044017665
-0.057947382
0.031313803
0.0060882797
-0.028451467
-0.0047237105
-0.0061262976
-0.028733134
-0.065430835
0.057290938
0.011999134
0.011521247
-0.0068603917
-0.031181745
-0.01077757
0.015666408
0.02877598
0.067262866
-0.06872451
-0.035022106
-0.0039205207
-0.0074217524
-0.13015813
-0.01437122
0.043100465
0.0023024518
0.13483326
-0.010066621
0.029288389
-0.038915474
0.08016462
-0.0047203884
-0.0133976275
-0.017781446
0.004385523
-0.008888649
-0.028458485
-0.0056549655
-0.03420433
0.03990677
-0.054936137
0.10283718
-0.007712085
-0.018729217
0.0046695415
-0.08556019
0.075724654
0.030288404
0.01885278
0.0138052525
0.07324793
-0.0094663985
-0.0037631653
-0.028335545
0.051595993
-0.0852232
-0.061251916
-0.017005524
-0.0052500204
-0.016098218
-0.009696225
-0.033638984
-0.040812902
0.034516156
0.008375183
-0.0145663945
0.026822511
-0.022393508
-0.024844022
0.015481566
-0.053321037
0.028600847
0.018946342
-0.013243521
0.06384927
-0.056193616
0.009137916
0.06282946
-0.0017095854
-0.06763456
-0.04795039
-0.018914476
-0.010847307
-0.05384253
-0.027419532
0.031509645
0.053164214
0.008846677
-0.05724185
-0.015274787
0.03633669
-0.058959916
0.07008601
-0.016776655
0.070819624
0.04246104
0.05434117
0.014387816
-0.057890292
0.011587437
-0.033628203
0.024642492
-0.032146197
-0.13950284
0.069706045
-0.029431567
-0.06509031
-0.011229898
-0.013465935
0.0063804057
0.06543832
-0.03000309
-0.025125379
-0.015519368
-0.00822385
0.023490444
-0.094407186
-0.08421685
-0.06887658
-0.02937798
0.030317845
-0.026454795
-0.03304969
-0.012068302
-0.021253183
-0.0082987435
-0.05174027
0.0028550166
0.058154713
0.025978222
-0.015486396
-0.0130374255
0.036043927
-0.02050569
-0.009780888
0.018483883
0.0061209654
0.07430483
-0.032915093
-0.021343032
-0.005834398
0.029230723
-0.010985969
-0.040286973
0.0138405785
-0.0033847778
0.030158887
-0.08444674
0.00601708
0.0110013
-0.00031825164
0.04257077
-0.05422944
-0.041360833
-0.005154756
0.0076757646
-0.047127172
-0.028648783
0.09454501
0.027086902
0.04174994
-0.07549673
0.03123207
0.0118539315
-0.010664723
-0.008080879
-0.05243322
0.0033116553
0.038158912
0.017419446
-0.02578464
-0.013560277
0.00084025436
0.0004701837
-0.043456554
-2.6777329e-08
-0.06413146
0.0025144909
0.00014028797
0.015884995
0.018157268
-0.09302889
0.013198599
0.003470944
-0.007194999
0.0060533904
0.022578407
-0.0108005
0.059699986
0.03873929
-0.047350407
-0.021787178
-0.00626422
-0.0023598233
-0.0014263337
0.015929272
-0.012417729
-0.035983328
0.029691365
0.005771742
0.022604518
-0.0056215096
-0.01796927
-0.05504581
0.012635328
-0.038497668
-0.064456485
0.030480802
0.033920687
0.021662787
-0.008761013
-0.0027150796
-0.049859826
0.03594664
-0.0070629045
-0.030146228
0.011663118
0.030457327
-0.013859197
0.05605043
-0.022428235
-0.027721955
-0.011279699
-0.039692994
-0.05099798
-0.047777884
-0.009320382
-0.0039145667
-0.0004154269
0.014388257
-0.0207257
-0.008725641
0.0062974766
-0.039038725
-0.09315549
0.032953534
0.019254994
0.020067234
-0.02054865
0.019411404
0.031914756
-0.019397702
-0.070796505
0.0113696
-0.029408302
0.030012323
-0.046397954
-0.013643864
0.036699098
-0.03902303
-0.00816401
-0.014930873
-0.04979425
0.030269783
0.050588608
0.06969702
-0.021286074
0.016910112
0.048486516
0.0029949553
0.0059510013
0.013968396
0.023656143
0.0101047745
-0.06344817
-0.019770525
-0.022696186
0.008479842
-0.03326528
0.03997971
0.05557358
0.0067121196
-0.073920175
0.009684788
0.05633225
0.043158464
0.09971434
0.0047086384
-0.0391752
-0.01192112
0.035319075
-0.025649019
-0.017076485
0.019892097
-0.007581044
-0.04951671
-0.02853662
0.0010126318
-0.009120472
0.057090018
0.0137781445
0.015984477
0.010759853
-0.0057961284
-0.041670185
-0.022922073
-0.078479476
0.04348011
-0.052709673
0.044309106
0.01713289
0.013447824
-0.008353921
0.030523516
-0.052281056
-0.038461417
0.017178962
-0.039601017
0.06659576
0.011585047
0.012061602
0.07207695
-0.0057512466
-0.04359619
-0.021669038
-0.0003735828
-0.016385686
-0.016084878
-0.029252844
-0.041288212
0.038276233
-0.037875082
0.010360405
0.023267368
-0.026861658
-0.03207477
0.009597429
0.050412714
0.07474523
0.051638078
0.034110792
-0.03435555
0.09086657
-0.039041385
0.01513492
-0.012403788
-0.04476169
0.007884286
0.018736165
-0.015889032
-0.055729307
0.051523484
-0.020061798
0.024111003
-0.032190353
0.031538725
0.019917846
0.024077624
0.001754982
0.006779471
-0.044077963
0.07781252
0.06623519
0.016976148
0.03104738
-0.08636652
0.030009208
-0.058857862
-0.057610247
-0.069082335
-0.035508003
-0.030374859
-0.011941202
-0.0025114506
0.03212459
-0.007741674
-0.077108614
0.04334144
0.026601475
-0.04015679
0.06915461
-0.04048388
0.05198167
0.018660998
0.050263256
0.023181317
0.020639969
-0.047673102
-0.024593122
-0.04637889
-0.0056438497
0.020045843
-0.03971947
0.055937327
0.1254223
0.055427775
0.04787117
-0.04376192
0.0011606554
0.002987259
0.02169587
0.045055192
0.010655615
-0.022720328
-0.06260162
0.04031171
0.020877145
-0.005010952
-0.024486287
0.004925516
0.06520571
0.023186596
0.03633437
-0.052227404
0.031118486
0.11583712
-0.005194448
-0.037778877
7.8370475e-05
0.021728575
0.03570568
-0.040207583
-0.019052947
-0.024192266
0.0016755512
0.059683118
0.026684685
-0.07453716
0.014984386
0.07296255
0.045193925
0.08246797
-0.016316943
-0.017347489
-0.014904156
-0.08703729
-0.06479808
0.010441913
0.07195362
0.024163682
-0.05070255
-0.057166304
0.016011259
-0.008318366
-0.04338537
0.025814062
-0.0071663447
0.019778788
0.05868481
0.035240732
0.010977443
0.0045788963
-0.017736427
-0.034929007
0.008926113
0.040918496
0.05344954
0.030239051
-0.0231997
-0.034299716
0.03236469
-0.032864895
-0.057478946
-0.031482875
-0.0064200475
-0.21062769
0.09690795
0.01713778
0.04380997
0.034334626
-0.038188208
0.044836055
0.04428919
-0.007769845
-0.013009066
-0.023048414
-0.00081732706
0.08326497
-0.013841935
0.043956097
0.0033826923
-0.013419977
0.01862738
-0.02096774
0.06574609
-0.026559776
0.12661503
-0.040038668
0.061991233
-0.033603474
-0.0025846616
-0.0318086
-0.0061721597
0.0029383649
0.010797796
-0.006424638
-0.0016764939
-0.059259307
0.032861408
-0.034456693
0.0555463
-0.022614202
-0.00012994691
0.0028422666
-0.021845194
-0.004974548
0.043203525
0.005854775
0.015140186
-0.033816677
0.019331079
-0.0051661097
-0.013961411
0.0014351933
0.010066069
0.012026004
-0.013651447
0.03699632
-0.132651
-0.013391829
-0.0006789909
-0.025334554
-0.04678679
0.018103696
-0.003173584
0.008739659
-0.028586809
-0.09295499
-0.037216417
-0.008538638
-0.030588606
0.023914637
-0.013840205
-0.038547505
-0.035893057
-0.07602367
0.055375025
0.04574627
0.028846035
0.014943026
-0.02624037
0.032612976
-0.0070031034
-0.0021485633
0.016573654
0.06073384
-0.012250791
-0.011542301
0.059413012
0.040698245
-0.0031117713
-0.008663771
0.013868001
-0.006213576
-0.020399394
0.09016509
0.010056009
-0.041130304
-0.046959087
0.00554679
0.008923378
0.035714354
0.02696004
-0.020509036
-0.001977823
-0.023314044
-0.048226263
0.006585868
0.025307057
0.020184297
0.051622253
-0.0011556145
0.024933862
0.04057358
-0.02620598
0.017392797
-0.03917301
0.019183038
-0.05731178
-0.025444373
0.009848156
0.031117482
-0.04956261
0.003660296
0.011323592
-0.04039116
-0.058295216
-0.007727271
0.027228769
-0.005388298
0.05756349
-0.00967711
0.027688986
0.22515531
0.036772434
-0.04171074
-0.016640881
-0.054767475
0.029842205
0.08816438
-0.029900549
0.00477765
0.01042131
0.20630941
0.10480494
-0.002428138
0.0653748
-0.11455926
0.052892122
-0.06910258
-0.0008253671
-0.07955587
-0.14341937
-0.08823293
0.012721624
-0.021220645
-0.03503383
0.03684012
0.018269766
0.10574882
0.009691363
0.0077902637
-0.055521555
0.025212092
0.037488975
0.051017385
-0.07381699
-0.059972055
0.08755692
0.019470355
-0.027431058
-0.038877957
0.090036556
0.034384407
-0.033196304
-0.08216842
0.050287846
-0.003206188
-0.0319592
-0.08921339
-0.05864109
0.0289456
-0.074934825
0.0044490346
0.0001607825
0.044842385
-0.043923587
0.042431597
0.02024364
0.085264385
-0.001499315
0.047243822
-0.01065018
0.023107814
-0.025501335
7.646783e-05
0.004782563
-0.0820081
-0.01786858
0.050022505
-0.0012790886
-0.017155709
-0.04786458
-0.0056001227
0.08782425
-0.016168011
0.015496376
-0.013900795
0.03978107
-0.028908188
0.028260095
0.023353036
-0.15729533
0.0110524725
-0.02150668
-0.0013653988
0.01291467
-0.07254999
-0.04852205
0.00927682
0.016380565
-0.010107619
-0.005326245
0.032570153
0.03791777
0.043030504
0.041796915
0.0023379754
0.056501567
0.029403042
0.045954164
-0.05899142
0.09117198
0.14723137
-0.026437992
-0.027041843
0.03552639
1.765061e-07
0.010415946
-0.02232233
0.04994539
-0.00039556052
0.24430314
-0.053505767
-0.0399766
0.01243384
-0.021990068
-0.06633614
0.06248641
0.06455515
0.0052596764
0.059348054
0.012772669
0.00038045968
-0.04693726
0.026206197
-0.0047955667
0.0931284
0.03629398
0.040195905
-0.033722743
0.054110426
0.004696497
-0.063124254
-0.03026926
-0.072066955
0.1287195
0.034095082
-0.023906337
0.017074801
-0.013458988
0.03881413
0.068630114
-0.04315801
-0.04245792
0.034567468
0.0041248566
-0.030153189
0.056538854
-0.062863655
-0.017188178
0.018772876
0.016485777
-0.0311526
0.0975785
0.0670406
-0.047016714
0.024690479
-0.022763573
-0.09149937
-0.07705216
0.010090119
0.0054810373
-0.0089768395
0.093982644
0.035323672
-0.0071674404
-0.039026298
-0.009003022
0.016562417
-0.021329025
0.00900534
0.0025185233
0.043512218
0.02628467
0.023939949
-0.08183566
0.0019377058
0.044655032
0.006904333
0.012012396
-0.025045345
0.0056569893
-0.022227554
0.0028913547
-0.009050843
-0.0010712834
-0.11061121
-0.010090564
-0.018240519
0.016155295
0.085689165
-0.037187643
0.033465102
0.025471535
0.031257775
-0.018859053
0.020544762
-0.007891383
-0.027087316
-0.033727136
-0.12399919
0.043115992
0.010625304
-0.005508865
0.018221464
0.11178678
0.033083104
-0.023727749
-0.06443484
0.014005728
-0.0620798
0.009565189
0.01113588
-0.025596034
0.012453222
0.053947207
-0.022874406
-0.05418781
-0.00023349239
0.048020206
0.04720996
-0.11352872
-0.03296586
-0.03731292
0.07943897
-0.010350089
-0.106289625
-0.03298626
0.06204848
0.06297506
0.024699489
-0.04063583
0.022375941
-0.028466402
0.027855515
-0.030270664
-0.042974647
0.049301513
-0.00416592
-0.03755498
0.017467389
0.043322604
-0.019954346
0.04146598
0.0303363
-0.0033400387
0.035651926
-0.05928146
0.03607323
-0.0037897094
-0.013632069
0.048549082
0.03326336
-0.017203499
0.08795064
0.047901493
-0.0185501
0.03493027
0.021699375
-0.028097214
0.032031227
-0.033739373
0.050778903
-0.051888254
-0.045435503
-0.02120496
0.036625177
0.051716644
0.05464487
0.013914962
-0.043906953
0.0056197126
-0.01607887
0.08324397
-0.039983977
0.04473775
0.05472723
0.012012072
0.010568874
-0.070741475
0.075779386
-0.08026796
-0.08658488
-0.078503445
-0.008885398
-0.006218509
-0.032423865
-0.033718105
0.03775685
0.015571605
0.056636833
-0.015315658
-0.006155293
-0.032582875
0.036329776
0.0003422899
-0.06871018
-0.014455545
-0.039979577
-0.010675505
0.06120477
-0.02888779
0.06636371
0.07348373
0.0006767829
0.040580083
0.0194503
-0.005575158
-0.017075973
0.01696525
-0.019597884
-0.013993977
0.003159388
0.026902212
-0.010935869
0.06075197
-0.0044084736
-0.016862143
-0.0498087
0.031600434
0.021701729
0.014541681
-0.018017696
-0.02051536
0.015470121
0.014804276
-0.018285934
-0.018023824
-0.009878894
0.04334336
-0.021459045
-0.016839832
-0.010449295
-0.05744598
-0.019879099
0.048821352
0.0028447579
-0.06926943
0.026078463
0.0061778403
-0.04840399
0.013766378
-0.027529806
-0.03142891
0.06340641
0.032991167
-0.025495255
-0.09917797
-0.027849635
-0.051321708
0.012729537
-0.0025656584
0.041887477
-0.07146826
-0.0026764958
-0.04249086
0.073625535
0.0177716
0.03419538
-0.008409781
0.011215217
0.053822875
0.0075475844
-0.012028255
-0.19905367
0.0012057621
0.012186354
0.017383294
0.01178303
-0.03077893
-0.049946677
0.05486687
-0.022080945
0.02136681
-0.048329413
0.010904605
0.0052644396
-0.00809417
0.06028691
0.058561146
-0.06733827
0.027718063
0.029432466
0.03272901
0.011183647
-0.0580253
0.018165251
0.04251902
0.007258692
0.060786325
-0.058430206
-0.063940346
-0.033727206
0.03369895
-0.047056235
0.032453865
-0.026287137
-0.017167835
0.033632476
0.04054246
-0.057254992
-0.3320389
0.028914927
-0.010465472
0.087386526
-0.056752548
-0.014002556
-0.001924115
0.017730074
0.030460572
-0.010334502
0.024827445
-0.0028191367
0.017532155
-0.025269326
-0.014287536
-0.07413643
-0.08112021
0.047835648
-0.018900368
0.018750839
0.005330128
0.006051627
0.029554604
-0.014217004
-0.019410016
0.038171172
-0.008225213
-0.02249459
0.038066495
0.04143415
0.0066260966
0.01376289
-0.05880867
-0.007188899
0.07126126
-0.057268053
-0.04570413
0.033902615
-0.037930693
-0.052944664
0.029533384
-0.0054866904
-0.01850139
-0.042900022
-0.047355853
-0.058707796
0.014717436
0.029009279
-0.15893751
0.0040556164
-0.006622364
-0.024045123
-0.051061567
0.05359768
0.053445194
-0.04956633
0.036162537
-0.022668757
0.02279294
0.018536733
-0.025080925
0.03734251
0.041174516
0.09218437
-0.0076831323
0.025481295
0.024192067
-0.009397946
0.0018770834
-0.019431189
-0.029263284
-0.010081431
0.032161906
0.0017494463
-0.020272188
0.04141215
-0.011909317
-0.038967684
0.0021856378
-0.0022855902
-0.015325365
-0.03523911
0.047049668
0.011400974
0.034014437
-0.015167841
0.021360844
0.016786939
-0.19314182
0.0521674
0.105362184
0.00027393832
-0.005505486
0.041888054
-0.02005864
-0.030162303
0.045246948
0.041065756
0.1145766
0.005465097
0.004845495
0.017452225
-0.12356012
-0.07962183
0.07919408
0.004775089
0.0028118426
-0.003551029
-0.07004541
-0.04854039
-0.112879544
-0.07525197
0.035334673
0.016202813
-0.0078066387
-0.06321096
-0.008389638
-0.011441877
0.013215971
0.13804615
0.008313235
-0.016406896
0.012756224
-0.062103476
-0.04055614
-0.012715911
-0.028115708
0.0753826
-0.077841386
-0.030703273
0.016816499
-0.009973774
-0.024844585
-0.027237926
0.0443995
0.009543805
-0.028405702
0.052530315
-0.061801795
-0.007111331
0.016234173
-0.010715229
-0.022190562
0.019065132
-0.12979999
-0.049226526
-0.06601151
-0.024727156
0.028757092
0.025706343
-0.03865161
0.011680443
0.025838764
-0.05786543
0.008085354
-0.02351639
-0.12864864
-0.023225155
0.050292477
-0.05594327
-0.033433054
-0.0053508794
0.052997004
-0.047103543
0.012506272
-0.034466933
-0.07743871
-0.038501594
0.033874705
-0.04164908
0.018941507
0.052053902
-0.040862795
0.20541312
-0.13262342
0.03174758
0.00718272
-0.002485534
-0.026390933
-0.0057180542
0.037055757
0.003963558
0.0018997887
0.0666406
-0.06815888
-0.017352954
-0.004674213
-0.021117955
0.059657156
-0.004965111
-0.077316575
0.022776576
-0.025515446
0.0016330245
-0.047950845
0.013665536
0.037182476
-0.04092579
-0.06295107
-0.001615786
0.004929647
0.023131723
-0.018595036
-0.026655963
0.041030418
0.018415373
0.026526822
0.027880091
-0.00031166393
-0.0029065728
-0.020427631
-0.0028340959
0.018023508
0.013317803
-0.03184026
-0.026847092
-0.017833356
-4.802546e-08
0.031798985
-0.06640407
-0.053809177
-0.07696597
0.0049117426
0.015506557
-0.062250618
0.02243248
0.008759241
0.00035167864
0.095415324
-0.0051654465
0.035725202
0.0151488
-0.018276917
0.033485718
0.02211833
-0.09754851
0.05500137
0.037509046
-0.05835943
0.022229344
-0.018574059
0.005461343
0.010999959
0.01967687
-0.02374795
-0.012180151
0.01347743
0.055299662
-0.0067936876
-0.023688007
-0.033685658
-0.101348385
-0.09272359
-0.025518132
-0.055250116
0.055891294
0.0070553883
-0.023108821
0.006644141
-0.020731311
0.008430661
-0.029291378
0.012304827
0.051526256
-0.016717115
0.04959629
0.073014185
-0.01695082
-0.016851058
-0.0023075782
-0.05026498
0.012579757
0.007053972
-0.0013833308
0.036626115
-0.073925786
-0.040559474
-0.0027683275
0.007979483
-0.05036466
-0.07838905
0.048243888
0.020660853
0.028122582
0.056606915
0.047974493
0.060351934
-0.03025634
8.80152e-05
-0.07476056
-0.11816409
0.027018305
0.06550482
-0.012267725
0.019323876
-0.056051094
0.03626844
0.03996039
-0.01823268
-0.04431617
-0.039886482
-0.058122586
0.026859133
-0.06651751
-0.052497335
-0.023623949
-0.020086741
-0.053150672
-0.03619171
-0.03346928
0.039429333
0.056913547
-0.041365925
0.0071266536
-0.0051330766
0.010726036
0.013850412
-0.08298679
-0.018551428
-0.057970002
-0.0436046
0.012152351
-0.07748535
0.015760414
0.012136194
0.014460518
-0.007208096
0.009823668
-0.03649873
0.08949908
-0.006524454
0.0067537245
-0.039940394
0.047640882
0.05779294
0.033169944
-0.0028080656
-0.018101674
-0.0060004136
0.0121691935
-0.04455671
-0.048197854
-0.035686262
0.0036534653
0.054577895
0.039851163
-0.06526796
0.099444084
0.015120764
0.003917774
0.057464648
-0.02185048
-0.034437094
0.011646823
-0.026960919
0.016460227
-0.019986534
-0.04128756
-0.02747431
-0.011691883
0.02676917
0.04952302
-0.013236413
-0.0020226922
-0.003493474
0.012036222
0.018969335
0.049786564
0.049039472
0.03359261
-0.02437085
0.07069908
0.016968705
0.05004818
0.027668826
0.0147397965
0.048755784
-0.019397555
0.06875738
-0.009115646
-0.14865883
0.0014881139
-0.052010942
-0.020203752
0.018882217
0.008079287
-0.05608421
-0.039454915
0.068972476
-0.008726277
-0.028545996
0.03512085
0.066201836
0.053663
-0.0549519
0.01592575
0.06252687
0.042294703
-0.009097079
-0.02676609
0.051706262
0.040267643
-0.008688207
0.015970279
0.033494074
-0.01659275
-0.0064147217
0.040250547
-0.033646073
-0.08424756
0.009178719
0.021122543
0.017060554
0.023557084
-0.059401274
-0.045633364
0.035437442
0.023458064
-0.06488551
-0.041683406
-0.015224545
-0.011862886
0.015317432
0.097197786
0.07030509
0.020248346
0.07486847
0.05015336
-0.02043662
-0.008443359
0.018529952
0.010370796
0.036732607
0.021929933
0.008521518
0.10224134
-0.061050955
0.012572698
-0.051868327
-0.015279004
-0.025995767
-0.0015192649
0.016033294
0.017110914
0.0041953097
0.020048182
-0.025200361
0.004290204
0.01869757
0.019272441
-0.013247654
0.041922096
-0.040554024
0.03142694
0.019741718
-0.0028182499
-0.047372684
-0.00664925
-0.027408864
0.037145782
-0.026910882
-0.011185011
-0.026610984
0.026275354
-0.010888511
0.010502079
-0.031779323
0.019739222
0.03494528
-0.00620806
0.016669102
-0.059096094
-0.051135946
-0.035657465
-0.005081795
0.020478522
0.0033803387
0.04134432
-0.032588538
0.014493553
0.015208763
0.170845
-0.056831487
-0.05499748
-0.029526636
-0.0021110529
0.034667052
-0.0044892
-0.0012953221
-0.053741306
-0.016430065
-0.0055146096
0.022254443
-0.030489217
0.029396376
-0.003230542
-0.009307261
-0.091193855
-0.06068643
-0.025823452
-0.02406977
0.002554889
0.013533259
-0.00886989
0.03488062
0.0174753
-0.04248073
0.009144734
0.03854698
0.0019316734
0.05199872
-0.04615292
0.16031134
0.01764595
0.017357145
-0.0021345858
-0.037145402
-0.038742937
-0.08960752
-0.020282097
0.048657626
0.0076830285
-0.00891837
-0.016816176
-0.032036744
0.039209772
0.016147388
-0.08393243
-0.018045016
-0.001662684
0.017589143
0.07509407
-0.024083445
-0.0072173793
-0.024424646
0.040093977
-0.02012274
-0.012158635
-0.06228351
0.06980399
-0.0039476976
0.02453628
-0.024155352
-0.006805252
-0.032151595
-0.013759879
-0.00028542086
-0.052844357
0.024589436
-0.035059333
-0.006647811
-0.0060874172
-0.04129746
-0.00074158114
-0.09223376
0.03612528
0.015405243
0.04069672
0.010007143
0.01493173
-0.06426087
0.037956383
0.03764723
-0.0009340344
0.039469615
-0.029881822
-0.00065973727
-0.035193108
0.002741542
-0.0057572164
-0.0040886877
-0.0011473392
0.0055187647
0.03845767
-0.0597675
0.0024738426
0.017244656
-0.04796994
0.038648866
0.014172854
0.044837303
-0.018483736
-0.023864768
0.0032384272
0.007930484
-0.00029213537
-0.0050737197
0.010253081
0.026031535
-0.027796403
-0.0069857864
-0.049049377
0.021367248
-0.038751654
-0.054063104
-0.018736215
-0.03357248
0.011970646
-0.0074726557
0.03646793
0.02067026
-0.0046661976
-0.010114056
0.0041311933
0.009057661
0.078404486
-0.004921911
-0.0018439812
0.050921958
-0.030169118
0.08254183
-0.0067495536
-0.009680883
0.009199916
0.03820256
0.014966663
-0.055569217
-0.016220441
-0.035856105
0.08935022
0.11760273
-0.031991296
-0.016040035
-0.00486439
0.012579007
0.008494047
-0.068408705
0.026540551
0.0032310942
0.0014363762
0.0028840513
-0.013339648
0.0154092
-0.022804609
-0.05314455
-0.011986193
0.016870486
-0.051814094
-0.005837225
-0.014853501
0.00040977143
-0.021089083
-0.0077073597
-0.027333003
0.0012662637
-0.022027986
-0.01890391
0.0051148413
-0.050979573
0.025151027
-0.026575873
0.019074734
-0.017520854
0.07855265
-0.050461847
0.025184369
-0.08168301
-0.01703805
-0.07467082
-0.0576787
-0.05916388
0.01645947
0.019437406
-0.044037417
-0.026896663
0.036123592
-0.021803359
-0.024045452
0.05693771
-0.0016407941
-0.07743729
-0.063668266
0.07172462
-0.046155047
-0.0012288584
-0.027850252
0.02355296
-0.008509241
0.028339976
-0.0030356622
0.01593938
-0.0013197794
0.0045699514
0.013905334
0.0023544761
0.080433704
0.04924638
0.0033516474
0.0023900976
0.00031542964
-0.042631272
-0.0047548236
0.0015757368
0.03770506
0.039591357
-0.017364552
-0.02521286
-0.002571298
0.0029802874
0.03265502
-0.013149551
-0.034452748
0.019450165
0.04257952
0.017507467
-0.0064973426
-0.019565465
0.027004033
-0.032346018
-0.10169923
-0.012606704
-0.032322895
-0.016780986
0.042668965
0.015188982
0.018418936
-0.026587589
-0.01005632
0.13171297
0.013717993
-0.014617066
0.013046142
0.059997506
-0.010369807
0.0037904016
-0.070098005
0.020289809
-0.015404065
-0.026946694
-1.4916164e-07
-0.029025368
-0.018610535
0.0065109427
0.01073231
-0.03713544
0.018556258
0.042464286
-0.028667532
-0.029432204
0.0027067447
-0.016848374
-0.013299413
-0.07603683
-0.084124245
0.06835721
0.0033451545
0.038589243
0.010397452
-0.041389722
0.03170041
-0.011316506
-0.031401217
0.009339428
-0.019293662
-0.035420995
0.050936006
-0.034287713
-0.015175444
-0.042872936
-0.01599502
-0.0449242
-0.023962853
-0.046905506
-0.052900188
-0.026195971
-0.010677648
-0.02354759
0.008328735
-0.0015536259
-0.0031799125
-0.007185052
0.02278487
-0.013373176
-0.033806432
-0.01450332
-0.03862718
-0.025946772
-0.032069623
0.016871879
-0.013914649
-0.044645168
-0.015097816
0.0075067133
0.02094868
-0.07760822
-0.00077273505
0.025444642
-0.013379129
-0.036833566
0.12712257
0.010908806
0.0008477055
-0.029435037
-0.04587062
-0.035651244
0.0033242316
0.009594596
0.029455075
-0.024142379
0.0396399
0.02243085
0.0065198606
0.018483259
0.027597198
-0.01582593
-0.01759417
0.003712598
0.014695654
-9.6603e-05
0.028421089
0.026581855
0.037568543
0.021061637
-0.02646123
0.023736054
-0.16645683
-0.002764514
-0.028639225
-0.026005901
-0.057547215
0.019918794
-0.016157806
0.002345529
-0.0052889027
0.07232051
-0.028666517
-0.030315483
-0.028429165
0.012509573
-0.108945444
0.033434898
0.032824975
0.046394303
-0.01847003
0.02856705
-0.024290435
-0.02580271
0.018303184
0.010090613
0.0046373876
0.012790551
-0.051437695
-0.019577421
0.04557212
0.03260887
0.04001664
0.026582507
-0.04171615
-0.013005626
0.01749928
-0.037940517
-0.012381237
-0.033798717
0.034948826
-0.020626543
-0.09483158
-0.04786382
0.07981789
0.0008115182
0.009275325
-0.07154919
-0.0045277546
0.003393136
-0.025523894
0.00959381
0.00023853562
0.015570004
-0.03815435
0.027027413
0.027714105
-0.043700766
-0.014344062
-0.01739303
-0.034609996
0.023143133
0.033886418
0.06553164
-0.08866529
-0.0040262165
-0.011920738
-0.05868433
0.03589055
-0.036973115
-0.026982676
0.007370027
-0.003945682
-0.006839885
0.019527042
-0.009146212
0.024331106
-0.0069428235
-0.008583458
-0.026391858
-0.0014886432
-0.040247172
0.012698597
0.03446852
0.024841174
-0.013801355
0.019913623
0.020698296
-0.0027646709
-0.013927927
0.004128212
0.019131055
-0.02832089
-0.002092236
0.011256878
0.040603716
-0.040330645
0.009690277
-0.015160735
0.0160619
-0.017241353
-0.010578707
0.06619834
-0.02052507
0.054638837
0.0019344863
0.046150733
0.01970149
-0.0108816065
0.016107168
0.03679135
0.03666774
-0.0048974343
0.014773454
-0.04964552
-0.009520423
0.013722234
0.0041896543
0.073909536
0.025463698
-0.03725869
0.024176396
0.018282292
-0.0077437893
-0.024064684
-0.021442097
0.011797069
0.015086071
0.035550438
-0.012905362
-0.0061812275
-0.024955371
-0.03823589
0.012449647
0.010432403
0.081529796
-0.022457315
0.0014895215
0.044217262
-0.082356505
-0.03615468
0.0608916
0.03237269
-0.015594662
0.059246097
0.04480609
-0.034701977
0.011878085
-0.014894409
0.012418716
0.046743654
-0.0017058441
-0.038858283
0.08975362
-0.09196587
0.0043416615
-0.01697931
0.0025105393
0.06451392
0.009969364
-0.106977254
-0.020850232
0.0020214336
0.025979502
-0.003532947
-0.11751726
-0.003702557
0.030135604
0.07922086
0.01915122
0.018694256
-0.008887128
-0.009976692
-0.0059901765
-0.038086116
0.04475922
-0.06230569
-0.039230824
0.010839498
-0.015022435
0.07078769
0.06020159
-0.031712253
-0.07120793
0.04518709
0.06288883
0.032245442
0.034460623
0.0058153556
0.03249257
-0.032627665
-0.039679155
0.003076207
0.00865731
-0.032905817
0.006467712
-0.035988886
0.002810806
-0.05529722
-0.048631344
0.028866889
-0.047915064
-0.039318524
-0.027047517
0.061612375
-0.019427052
0.039075132
-0.014049904
0.05153194
0.013377471
0.0019954278
0.07375915
0.055887863
-0.014900609
0.027056739
0.058684696
0.00070696743
-0.027439296
-0.016904814
0.014467318
0.023795094
0.061255038
0.049793098
-0.018899253
-0.03371978
-0.038796317
-0.06301947
0.055370532
0.007608305
-0.004250722
0.022863297
0.040995423
0.053405706
0.011980738
-0.05152159
0.039174736
-0.037192393
0.0014615337
-0.008489274
-0.03455167
0.013270549
0.0810983
-0.06426667
-0.011371939
0.050225522
0.10413969
-0.032074917
0.012327244
-0.03288198
-0.0073415656
0.04817816
-0.016285894
-0.121132724
-0.014732514
0.0054631634
-0.037617624
-0.029539548
0.052366436
0.04837726
0.016850386
-0.0017845895
0.025839208
0.023799721
0.023631183
-0.024881981
0.095823094
-0.074635275
-0.023164524
0.02092056
0.039807126
-0.04978404
-0.0512523
0.01366354
-0.0102734445
-0.094625235
0.035727944
-0.006647768
0.017030768
0.04009368
-0.04016277
-0.019253088
-0.00053346826
0.0073524863
-0.039461587
-0.028435547
-0.049693808
-0.08070553
-0.020245694
-0.05773925
-0.014419385
-0.044071585
-0.046094663
0.042784683
-0.010947093
0.0045131585
-0.03517449
0.016840002
-0.07191546
0.04497512
-0.04658196
0.05171439
0.050097648
-0.08630835
0.03248283
-0.024974788
-0.030818274
-0.08231291
0.06469589
0.0118718
-0.0154364295
-0.0040977495
0.03465998
-0.037059613
0.07524381
0.048044343
-0.046775214
0.02935579
-0.0038682397
0.030405853
0.019521572
-0.032907374
-0.021529904
0.09050506
0.06307473
0.03330423
-0.044770595
0.021156695
-0.04400772
0.06358017
0.058494635
0.07095127
-0.055935744
0.038523138
-0.038241837
0.007284564
0.04406271
-0.0561262
-0.033066727
-0.069690526
0.002762201
0.043801412
-0.0074070427
-0.0013300463
-0.014563667
0.052426808
-0.026768591
0.04120797
-0.07995217
0.013640842
-0.018841838
-0.03179845
0.0025032351
0.014431532
0.0118674645
0.08546332
7.781235e-05
-0.012827083
-0.026437381
-0.0076507586
-0.035006903
0.01068363
-0.017588664
-0.10102764
-0.035379063
0.039957408
0.033370145
-0.07152301
-0.00019288633
-0.052403048
0.047735415
-0.034079965
0.02608925
-0.02977002
0.04483725
0.025315246
-0.05165935
-0.060038283
0.110694766
0.03110753
0.049581125
-0.034937713
-0.07007955
-0.059463765
-0.019110842
-0.008293575
0.07018603
-0.01672173
-0.023887089
-0.060185626
0.06438167
-0.059218306
-0.043066323
-0.0062006093
0.059029277
0.02092045
0.029529674
-0.006284674
0.0141129475
-0.01054338
-0.073889524
0.027431538
-0.011840694
-0.060352422
0.103342354
0.038847543
0.00013091147
-0.03619175
0.038224142
-0.008029151
0.014422481
-0.010237088
-0.061835747
0.017363809
-0.06745288
0.06937749
0.06904649
-0.006752187
-0.04211267
-0.017917808
-0.029267754
0.042964682
0.16427594
-0.06865264
-0.021418462
-0.10586642
0.029264912
0.015938884
-0.092177846
2.4733051e-08
-0.015589261
-0.05957163
0.004920146
0.054429185
0.011468503
0.040894214
-0.04855402
-0.053653188
-0.09256761
0.043607786
0.038607743
0.004590401
-0.0618194
0.005048222
0.03842074
0.055093117
0.051741414
-0.014225688
-0.06533083
0.048547845
-0.025497649
0.031738225
-0.0805112
0.0019626773
-0.027252952
0.030468859
-0.025625773
-0.010780407
0.009869253
0.020939864
-0.024541305
0.013250786
-0.047500767
-0.013743735
-0.059792165
0.03315207
-0.045538284
-0.0083409315
0.0018825787
-0.03541931
0.098195
-0.04339658
0.008203582
-0.058119476
0.07336235
0.014808442
0.06346396
0.02327896
0.022559857
0.06499458
-0.036233824
0.058362797
0.046769977
-0.00024271922
-0.12390124
-0.015407491
0.047282334
0.08976333
-0.050280083
-0.01594906
0.044355076
0.0054309294
0.03551479
-0.105140746
0.07961035
-0.006031685
0.03509199
-0.088231824
-0.06379134
-0.05151854
-0.029322635
-0.035708964
-0.058932163
-0.026855158
0.008511459
-0.0047140582
0.15836172
0.048442602
-0.005677894
-0.09232098
-0.0018890321
-0.030304432
-0.046944812
0.029575663
-0.08542718
0.07048375
0.059401482
0.0402923
0.03244076
0.003750368
0.14514898
-0.018724356
-0.028317219
-0.046396885
-0.012330884
-0.017882029
0.1405057
-0.019042538
-0.054366734
-0.053446732
0.0043042134
0.022190873
0.011495601
0.06418279
-0.01565639
-0.017184786
0.050687086
-0.014613051
-0.031960223
-0.09190444
0.009585044
-0.026992133
0.046395775
-0.0368972
-0.03238698
0.057154465
-0.005529422
-0.01662573
-0.045660276
0.009033083
0.1031726
-0.003620466
-0.08547936
-0.049814224
0.036021944
0.018838566
-0.03856339
-0.0032340433
-0.10142921
0.10924765
-0.024761159
-0.036125343
-0.07655496
-0.025519272
0.015373131
-0.027487239
-0.009186496
0.0028007575
0.055575065
0.05500549
-0.008915423
-0.030737609
-0.06156808
0.040643003
-0.0024019738
-0.019977797
0.038395386
-0.03365889
0.010611345
0.017083846
-0.069000125
-0.008262987
0.0011046379
0.0017423513
-0.0747088
-0.025381472
-0.03644638
0.012888266
-0.023065818
0.08853014
-0.02894309
-0.05877512
0.039252806
0.002442629
0.024911148
0.012826614
0.00828117
-0.06363177
0.046289835
-0.0217988
-0.021815252
0.018918732
-0.06932766
-0.0205817
0.017533928
0.070474826
-0.04916115
0.014792273
-0.07216358
-0.0048719174
0.021169564
-0.0100730285
-0.0071114805
-0.100664645
-0.016079985
-0.0076495325
-0.023401406
-0.00014991824
0.029556349
0.08167964
0.011388909
-0.04779136
0.0040823645
0.031400975
0.026441183
-0.022519246
-0.03723789
-0.121951714
0.021611562
-0.018117853
-0.053937707
-0.0010957018
0.0419116
-0.06641905
-0.03980041
-0.040748183
-0.057448164
0.112291925
-0.030897278
0.048248656
-0.008663353
0.040297013
-0.0062990044
-0.015985673
0.015511643
0.07528813
0.06486253
-0.06201177
0.019517414
0.012518838
0.034266423
-0.0072777495
-0.0064181597
0.008991788
0.078634985
-0.010971084
-0.018793374
0.11524693
-0.09376503
-0.0056367465
0.0072196387
-0.024941986
-0.029239213
-0.028265089
-0.042908557
-0.078429446
-0.039163716
0.11910606
0.010729552
-0.03976506
-0.019335533
0.033884276
0.017789919
0.020820884
-0.028118134
0.011792938
-0.023396254
-0.016782222
0.0032606344
0.055640213
0.019430665
0.032162208
0.081078514
0.021475324
0.00061227795
0.04922725
0.012744174
0.018733151
0.028477674
0.0143662635
0.0039511975
0.0069180513
0.01316556
-0.04078206
-0.010881846
-0.02232634
0.11020176
0.014257209
-0.015862213
0.0018683459
-0.0148786735
-0.03995733
-0.0056166537
0.058175888
0.0065945233
0.009304906
0.046083406
0.04466436
0.050348554
0.0828589
0.013016229
0.029407753
-0.041889314
-0.03122147
0.04421402
0.03416465
-0.0037975782
-0.072450995
-0.03994701
-0.064620785
0.041536167
0.05613434
0.008152155
-0.030434381
-0.030036848
-0.005096242
0.017559787
0.03941352
0.0409166
0.012605778
0.03474346
-0.05536822
-0.042889282
-0.048887946
-0.0121428305
-0.05040205
-0.04392072
-0.01108775
-0.010024527
0.07597345
-0.0049014757
0.004819395
-0.0023492298
-0.0127083035
-0.05091802
0.05381803
-0.0004587103
0.028098932
-0.061213937
0.03984576
-0.005033085
-0.024852194
-0.049358677
-0.00812855
-0.036140252
-0.0019771738
0.034662705
-0.0037193226
-0.0025334011
-0.010931358
-0.04878105
0.059531555
0.017784309
0.08105773
0.011340742
0.010929096
-0.060166657
0.051484775
-0.02465657
-0.052889228
-0.00070349284
-0.022031907
-0.008438561
0.02615369
-0.010842992
-0.037609912
0.029439004
-0.030339867
-0.014549341
0.010817819
0.06089552
-0.028369002
0.03224003
-0.0371139
0.05525088
0.04227564
-0.0032796902
-0.008969735
-0.004273235
0.05951511
-0.060797576
-0.028285615
-0.06289085
-0.0230271
0.019749062
-0.052239347
-0.0068651196
-0.026481617
0.045606945
-0.032051377
0.0069014095
0.044201896
0.0019717666
0.04258788
-0.04037792
0.0035863759
-0.013232348
-0.024267914
0.01298365
0.0041346084
0.11056821
0.009419946
0.022011561
-0.010830668
0.023240753
0.052924223
-0.026596926
0.031577837
-0.01682047
0.07096123
-0.025568347
0.025838537
-0.02706468
-0.017449865
0.035493758
0.05326075
-0.007789141
-0.067830384
0.08147237
-0.015567899
0.070330136
-0.052257493
-0.0045865206
0.0161716
0.012280882
0.038756967
-0.019105153
0.029170109
-0.04803886
-0.0017891026
-0.0103678405
0.05822444
0.01195592
0.024340754
-0.0041265087
0.07765073
0.03257764
0.043432664
-0.036244478
0.018668152
0.035874337
-0.042783625
0.0029361472
-0.05423863
0.043309964
-0.03882739
-0.0066086217
0.041062392
0.03160848
0.08656424
-0.011664385
0.028485807
0.058150563
0.025566665
0.03816221
-0.001345453
0.01524108
-0.0018003776
-0.0008472331
0.10919074
0.04469888
-0.051072694
0.050816674
0.0032587205
-0.07194656
0.021504555
0.04991582
0.039905116
-0.09053923
-0.013594288
-0.027422274
0.007342075
0.01379887
-0.023749223
0.024723226
-0.04973719
0.00034714685
-0.0031731883
0.053050995
-0.018022964
0.03533613
-0.035380077
-0.014821073
-0.028652813
0.010706669
0.060807556
0.01455994
0.018581856
-0.028243229
0.014143927
-0.008773335
0.094606094
-0.049516343
-0.03908338
-0.06184506
-0.020236606
-0.05982798
-0.0013199856
0.0032304607
-0.01264335
-0.06521954
0.0061709466
-0.076833665
0.082784705
-0.03638214
0.035659857
-0.057107855
0.0066333017
-0.026075471
-0.009757225
0.086905435
0.0117313815
0.0021585857
0.06238091
-0.036565233
0.00089933845
0.0061751716
0.08177155
-0.0378189
-0.016192427
0.018962145
0.03120968
0.027731163
-0.0022252398
0.019844977
0.04404855
-0.012041131
0.03080622
-0.03638184
0.0013433653
0.014210222
-7.4727566e-08
-0.020037116
0.056392256
-0.07432289
0.0025499086
0.031063518
-0.060242534
0.032062884
0.036725305
-0.015884811
-0.026257705
-0.010540145
-0.05421848
-0.050968587
0.01120179
0.0073524015
-0.09390283
0.039433666
-0.048302893
0.0039078356
0.034977213
-0.02068232
0.03164561
0.078777805
0.018042486
-0.019346643
0.03639448
-0.00085443154
-0.055714555
0.0051684487
-0.013136567
-0.026126962
0.006944082
0.03420873
-0.042370502
0.0075135734
0.078403264
-0.02764626
-0.0096850265
-0.034734126
0.007939032
-0.025047544
-0.027641466
0.0012512455
-0.06299758
-0.03349364
0.040662978
0.06383426
-0.056430895
-0.04710528
0.06253039
-0.013362282
0.017739948
0.016438173
0.0015108793
-0.01103238
-0.008702124
-0.003785986
-0.041880704
0.0022348047
-0.0547792
0.046724252
0.049678378
-0.015939133
0.011668993
0.02410528
-0.03504147
-0.010209775
0.028039923
0.0070628324
0.0018279818
0.055819325
0.078767896
-0.020477312
-0.030631097
-0.038551454
0.0016211909
0.03178719
0.04553115
0.0077993786
0.02425566
0.07441279
-0.047115676
-0.020238167
-0.0028044546
-0.052098915
-0.025523944
-0.026363824
0.008570627
-0.007690928
0.049814817
-0.06489032
-0.02200708
0.03366538
-0.05010053
-0.002792806
0.035442293
-0.077660516
-0.10186104
0.0102492655
-0.011729278
-0.009716947
-0.012545837
-0.035047587
0.024563592
0.019575926
-0.076267496
-0.04957267
0.0015027804
-0.014210057
-0.071827486
-0.08288331
0.023807723
-0.022308966
-0.03841791
-0.05113676
0.033719257
-0.026034584
0.051057167
0.0415696
-0.09690539
-0.0076372717
0.050829865
0.07636695
