-0.010037021
0.015660958
-0.038385894
0.031505752
0.020283937
-0.007706969
-0.016083688
-0.0016325642
0.019851672
0.121218316
-0.007593455
0.0036509642
0.002355028
-0.054046474
-0.0264312
0.06698433
0.0017651477
-0.064948395
0.03964311
-0.09639837
0.050912008
-0.0033852784
-0.03768104
0.06428336
-0.018665968
0.03059993
-0.11236144
-0.04112251
-0.021878866
-0.016181424
0.013454757
-0.04154037
-0.05026653
0.013100438
-0.033505805
-0.12562767
-0.0048268354
0.05323224
-0.03385611
0.027863799
0.08787426
-0.034146253
-0.01314607
0.032208774
-0.04027731
-0.014697588
-0.053242125
-0.018122094
-0.032462202
-0.028961645
-0.007218757
-0.0071911127
0.006754485
-0.0021360687
-0.05565697
-0.0449101
-0.035667248
-0.025908597
-0.017214341
0.019592071
-0.020595403
0.012490302
-0.04916144
0.050122626
-0.033077743
0.009976952
-0.035254214
0.013071585
-0.0040987376
0.025265293
0.008103605
0.007629002
0.030540017
0.0006108491
-0.06859771
0.0063775936
0.017074054
-0.061239075
0.04874189
-0.047167163
0.0099798255
0.030782664
0.061155844
0.019442761
0.011882297
0.047308877
-0.012536191
-0.053888433
0.033979032
-0.08363271
0.069430225
0.033641383
-0.0023622008
-0.086712874
-0.005140015
-0.04792798
-0.010961104
0.00057415455
0.00684241
0.0114227645
-0.10826779
0.050058853
0.01688616
-0.021841371
-0.01861789
0.05333406
-0.03871188
-0.017000193
-0.019572906
0.032674745
-0.044374246
0.04968208
-0.055676125
0.016596733
-0.0371052
-0.024228504
-5.598986e-10
-0.041182414
0.0060927137
-0.019845815
-0.009262616
-0.024660572
-0.11310559
-0.06745802
0.02316593
-0.016942844
0.037745263
-0.01710402
0.0109541025
0.018628392
0.034773633
-0.017288733
0.03915772
-0.02430709
-0.041146908
-0.08519618
-0.014541538
-0.017078845
-0.0019639877
-0.0017323733
0.011060679
-0.07808114
0.04785179
-0.02869784
-0.016063813
-0.0012470251
0.0023571998
-0.08712158
0.058494586
-0.003236331
-0.04588578
0.040348317
-0.096073434
0.05006948
-0.011045355
-0.046771243
-0.012216224
0.0006644125
0.03498471
-0.012215797
0.014445252
0.12332802
0.032440875
0.042591657
-0.031398416
-0.033111513
-0.007865554
0.046668187
-0.066290654
0.06971168
-0.083741635
0.0053662057
0.063015245
-0.03378506
-0.07657938
0.103159204
0.030037766
0.001364376
-0.14868687
-0.016507465
0.08992183
0.036931593
-0.08370035
-0.025454834
-0.08240298
0.07378353
-0.060518183
-0.0318838
0.037237816
-0.013680887
0.023684023
-0.0066812774
0.005596442
-0.06201647
0.015256137
-0.04683344
-0.038667116
-0.03156123
-0.06561609
0.023445612
-0.013062789
-0.021189518
0.027947912
0.04728802
0.007426593
-0.013326168
0.025667593
0.03290938
0.031847328
-0.011747376
-0.015366464
-0.04343342
0.018968912
-0.0034155508
-0.08419146
-0.029195016
0.026064334
0.013977692
0.03639154
0.030872418
-0.046174265
0.02701609
-0.046744004
0.024635244
0.045629237
0.0003148783
0.031754617
-0.025163403
0.08575048
-0.009884409
0.029863728
-0.019509602
-0.028663082
-0.056354467
-0.0969877
0.016961839
0.009512237
0.014165658
0.02127961
-0.034325235
0.0056966804
0.05599724
0.008425256
0.15418893
-0.010591867
0.04411209
0.062637135
0.025089202
0.0003495871
-0.0118128965
0.0021452438
0.007535884
-0.06384521
0.040305614
-0.028074123
-0.022260431
0.02281056
0.010305667
-0.022146825
-0.0072183358
0.036940467
0.026085336
-0.044165093
0.06313317
-0.0021257894
-0.0013598239
-0.00040578068
-0.057244036
0.03566718
-0.0023414695
-0.022291131
-0.05809101
0.047157183
0.048087057
-0.029630652
0.0032032034
-0.028092386
-0.023094498
0.033449177
-0.013916316
-0.04129987
0.04220765
-0.021192007
-0.025569972
0.033576705
-0.05040325
-0.06715224
-0.08906198
-0.0320505
0.0070138434
0.0026994369
0.013892922
0.009991369
-0.018677035
0.002795661
0.025317166
-0.06297349
0.005965671
-0.032283988
0.03201681
-0.01565101
-0.13887422
-0.0051635453
0.027486071
-0.020166533
-0.074551314
-0.038310878
0.014312592
0.08948132
0.08107359
0.0060057463
0.018290356
-0.015848782
0.040185627
0.008187428
0.015338753
0.11587525
0.021734016
0.06598308
-0.06591977
0.01639196
-0.047585025
0.004323873
-0.037034016
0.0095712
-0.028123109
-0.02243244
-0.023237586
-0.021416381
-0.0015891521
0.07591022
0.054844223
0.065537326
-0.033546034
-0.01821989
-0.09553455
-0.038565937
0.0295071
0.0034063254
-0.024954226
0.03876024
0.034756362
0.013487983
0.049823534
-0.025333412
-0.014030003
-0.0029542488
0.024745815
-0.060041312
-0.018903919
-0.047139883
0.03518676
0.006555825
0.019102162
0.05076423
0.032908786
0.0021011517
-0.07782408
-0.011898865
0.02627566
0.037520066
-0.009452567
-0.017164033
-0.11302791
0.0078058178
0.036851432
0.035432737
-0.028315645
-0.043519184
0.019262416
0.07370881
-0.042556513
0.03364148
-0.085493766
-0.010879573
-0.00019435273
0.0058976584
-0.0122565925
-0.052885897
0.034827843
-0.02785576
0.016995292
-0.01448161
-0.03319372
0.02128343
0.012709566
0.032873314
-0.06598596
-0.09025061
-0.039667815
-0.021278044
-0.013564674
-0.02174406
-0.015020008
-0.06890095
-0.07656128
0.028868968
-0.0101935975
0.021072702
0.026476525
-0.035043348
0.013612569
0.015532433
-0.0038049624
0.014392233
-0.024856651
-0.027177628
-0.0445197
0.004902982
0.02810696
-0.019310858
0.008638346
0.026843827
-0.025384255
0.033612903
0.0025555936
0.013661617
0.01901945
0.026909355
0.033736944
-0.017709205
-0.011087883
0.09443946
-0.04609803
-0.004481144
-0.01066463
0.037755646
0.037616406
-0.00039793618
0.018430112
0.08947007
0.044041578
0.03960719
0.018813055
-0.019038547
0.03713815
-0.009927763
0.01515846
0.009883828
-0.038874827
0.015130552
-0.0069884527
0.009550757
-0.023847617
-0.041518506
-0.010852698
-0.0050235647
0.014612473
-0.0074172704
0.007956775
0.0071331346
-0.00059214403
0.0038787748
0.020430801
-0.013820768
-0.07223649
-0.04241717
-0.01590878
-0.0070620957
0.0251481
0.06645906
-0.004652377
0.028064331
-0.043146774
0.004025987
-0.01562393
0.034901213
-0.08281914
0.068420984
0.042509016
0.19322917
-0.037435923
-0.027030997
0.03669993
0.009954368
0.02747343
-0.15160595
0.024401262
0.033075403
0.3156285
-0.02297063
-0.040412333
0.015456796
-0.02037586
-0.027731927
-0.04610723
0.035103984
0.041105796
-0.01828557
-0.0036467116
0.02923684
0.00044024058
-0.040688176
-0.01279016
0.05358817
-0.02634294
0.051537983
-0.06268209
0.033169597
-0.057385962
-0.019315796
0.045355894
-0.019115442
0.030037478
0.032546435
0.009105083
0.0052157575
0.03553139
-0.001719293
-0.035053454
0.056974817
-0.11949755
-0.03700491
-0.04885622
-0.02194921
0.041494004
-0.0032494785
-0.0012999857
0.0035005533
0.030980453
0.018547904
-0.00478029
0.065424494
-0.030091358
-0.017462729
-0.04311721
-0.0013556875
-0.0010546785
0.020583317
-0.019663975
-0.019769227
0.03933772
0.015043926
0.03237014
-0.008767591
-0.029781932
-0.023016544
-0.02624023
0.007634772
0.009436603
0.015491698
0.009484808
-0.0051477808
-0.024512725
-0.013158542
-0.013104039
0.027423969
0.019980874
0.044435352
0.011653229
-0.048720468
0.011506055
0.02535286
-0.00044224877
0.008885234
0.02406495
-0.033232436
-0.056894004
-0.039337352
0.017658895
-0.041225556
0.00021797749
0.15343997
0.016025772
0.037319127
0.0017761753
-0.014698487
-0.053833153
0.091279685
0.03528567
-0.00011668945
-0.03436475
-0.020697664
-0.012051563
-0.025191259
0.020216703
-0.011909918
-0.00631549
-0.013464218
0.014425066
0.019506227
-0.067253746
0.004869376
-0.022355115
-0.009601808
0.0069678267
-0.026928872
0.01752483
-0.029436368
-0.0068729427
0.002602173
-0.120169654
0.009817592
-0.009420891
-0.013541398
-0.07699088
-0.027670208
-0.009080816
-0.0051043024
0.032369275
0.01936052
0.005371749
-0.048512425
0.014894882
-0.012222236
-0.0075127366
-0.08079377
-0.080907814
0.027666083
-0.004847948
0.005143398
-0.042472765
-0.0067649637
0.003650544
0.038361013
0.004978964
0.0010949834
0.051697403
0.009885828
-0.014605505
-0.021031661
-0.039450016
0.016738834
-0.0085710585
-0.008017352
0.03291059
-0.0024169502
-0.00034422355
-5.90519e-10
-0.028392462
-0.013845166
-0.019100636
0.04595775
-0.09222083
-0.011340606
-0.024183339
0.010729834
0.022503603
-0.023334965
-0.02484443
-0.0033126024
-0.038301326
-0.00082458614
0.012687934
-0.009633839
0.015774334
-0.058833256
-0.022386739
0.008269204
-0.0017036643
0.016594892
0.022811806
-0.010675951
-0.024490483
0.16084085
-0.0154325
-0.039326265
-0.033993203
-0.026481537
-0.01799178
-0.0031168978
0.015377481
0.023029426
-0.0741676
-0.0020184924
0.003125522
0.030642208
-0.022300985
-0.033188775
-0.02297078
0.0014656621
-0.01746328
0.044071984
0.023507416
-0.0320434
-0.005948305
0.012962217
-0.015772846
-0.032627758
0.0064639775
0.04030372
0.021150026
0.019082643
-0.01969038
-0.008169265
0.01038722
0.025529874
0.007557111
0.01854577
0.0095324665
-0.0011059459
-0.010371859
-0.033008322
-0.054864224
-0.0042909435
-0.0022104597
-0.014302533
-0.14526488
0.023566904
-0.019400088
0.009338966
-0.03354978
0.011689181
0.0075550238
-0.0061058365
0.004068243
-0.035626788
-0.007879036
-0.022297347
-0.008946072
-9.264134e-06
-0.007400671
0.037927177
-0.027784199
-0.040048543
0.054176304
0.07719364
0.0072066616
0.042376164
0.005205334
0.011466835
-0.00063930376
-0.01549737
0.0076541817
-0.009568174
0.03138128
0.023062214
0.049443994
0.01486438
0.077608764
-0.005497265
-0.014374423
-0.037559617
0.02074387
-0.0113056125
-0.012074593
0.026142197
0.0007354418
0.00452315
-0.03878529
-0.013467952
-0.030837506
0.05806185
0.037252933
-0.024790216
0.013449482
-0.018863797
0.009894022
-0.035284147
-0.027531577
0.009089602
0.002662568
-0.008307509
0.020226667
-0.0020461516
0.018242972
-0.017625604
-0.14406355
0.038524985
0.014722361
-0.015565465
-0.0036822578
-0.0005509195
-0.028263776
-0.017556088
0.0044476455
-0.00511348
0.038572155
-0.015812002
-0.038881928
-0.013845075
-0.009103464
0.03306958
0.028011572
-0.004846126
-0.037285376
0.009201361
0.02463343
-0.016280616
-0.015239927
0.027021665
0.02220599
-0.049599394
0.016717779
0.03325527
-0.023408366
0.002893386
-0.024082813
-0.043651626
-0.009406793
0.02934387
0.004450365
-0.027945064
0.013583476
0.028684981
-0.06322292
0.042827092
-0.025997931
0.011236472
-0.018699506
0.010357019
-0.026030278
-0.016793406
0.018750012
0.05754738
-0.0070346463
-0.013542621
0.04233523
-0.016257724
-0.023661993
-0.012778403
-0.0020037838
0.036155596
0.010704557
0.046175882
0.04604068
0.025382133
-0.010637891
0.02634102
0.014726945
0.022208214
0.002555402
-0.030087672
0.025369365
0.02526739
0.4180058
-0.0053840927
0.007864871
-0.020683117
0.0424459
-0.006216372
-0.00906962
0.007055415
-0.043678053
0.036251944
0.033179026
0.03373978
0.07764236
0.025384707
0.035369582
-0.064775236
-0.0151173035
-0.030101618
-0.037087422
-0.010654212
0.010147995
-0.026455132
-0.009668148
-0.016347226
-0.004843483
-0.009919092
0.018070187
0.014434609
0.022088163
-0.022504352
-0.018138671
-0.007520089
0.028507108
0.0021537177
0.023641558
0.0061790673
0.007869386
-0.0015899988
0.002399534
-0.00082772097
-0.061786264
-0.009862361
0.007215039
0.04048572
0.0032193144
0.023069788
0.028277218
0.0022050384
0.026949264
-0.0060206293
-0.016635815
0.013290016
0.053385165
-0.009681246
-0.0306573
-0.044094622
0.008314966
-0.03342352
-0.07061997
-0.017723128
-0.0089679025
0.03329036
0.021348547
0.008844552
0.035244
0.048969008
0.027402338
0.04336067
-0.032557074
-0.019864868
-0.01807702
-0.014103598
0.100830644
0.018135855
0.001054832
0.026463486
-0.040170036
0.00016579317
-0.025330363
-0.0011703741
0.0073898826
-0.024832884
0.012521107
-0.028778452
-0.014642045
0.030874997
0.0070823757
-0.009882333
0.0064049214
0.018949457
-0.006297047
-0.012174527
0.016717875
-0.016815435
0.0015109617
-0.040601652
-0.013420086
0.029953761
0.00902622
-0.02032781
-0.014853738
0.038666468
-0.0041026147
-0.023775589
0.02037634
-0.00021716052
0.0091907615
-0.015954608
0.01296057
0.014442399
0.00861227
0.035010867
0.054869767
-0.010634502
0.0025509426
0.0061772764
0.0017939667
0.03264142
-0.018040733
-0.008913356
0.014423869
0.056990717
0.013819568
0.02609535
0.00874431
-0.0030889192
-0.018729985
-0.024397299
-0.011927629
0.01861516
0.059345644
-0.0063886326
-0.0028359017
-0.028442733
-0.014602549
0.0021218932
-0.018851174
0.018333409
-0.019517405
-0.0037907567
-0.027892815
-0.008400642
-0.019906621
-0.052701026
-0.04201514
-0.015239805
-0.029002713
0.030555742
-0.012297779
0.0006145548
0.036600146
0.0046434696
-0.040885344
-0.026152976
0.015864173
0.036678866
0.015057046
-0.010350069
-0.057891723
0.0060842144
-0.016403088
-0.032676987
-0.039603755
0.023107886
-0.02798483
0.012298764
0.06043075
-0.002635421
0.03377914
-0.018397255
-0.047788646
-0.011626248
-0.01978524
-0.021413447
-0.0261073
0.0004173208
-0.022165
0.008477125
0.0002042396
0.033349983
0.055886857
0.017749028
0.014356656
-0.023009313
0.00583621
-0.021005744
-0.022985805
-0.048550956
0.015170204
0.040570736
-0.005908606
-0.02103303
0.095653765
-0.015342599
1.0393518e-05
-0.017530005
0.010203636
0.0010111824
-0.0026772243
-0.07181587
-0.05539484
-0.055317283
0.019488398
0.042150352
-0.059057873
-0.0077676983
-0.027424624
0.024384914
0.0691394
-0.0046970113
-0.015006525
0.024749946
0.008127341
0.01073799
0.014014256
0.14845806
-0.04096665
-0.045688037
-0.093126945
0.00062400615
0.030647872
0.059786353
0.004489568
-0.010534033
-0.0054241717
-0.07239073
0.08992411
-0.03270589
-0.018171709
-0.0154533675
-0.029941922
-0.021997243
0.011099575
-0.016068745
0.0050672265
0.012912846
0.13478698
-0.042966563
-0.02529041
0.067366965
0.018983541
0.08418554
-0.022091256
-0.022068523
-0.036167156
0.031721696
0.05328723
-0.03516031
-0.010928444
0.026214885
0.067252174
0.012672738
0.040050082
0.008819206
0.034705423
0.014123109
0.027680986
0.019735549
0.011575598
0.02506707
0.019031538
-0.00013609156
0.01279007
0.019408606
0.0016687613
0.068200715
-0.055514768
0.036565762
0.0362224
-0.0142097
0.03256389
-0.0327291
0.041144207
-0.038491976
0.06388556
-0.06536141
0.06356768
-0.0381124
0.03620576
0.019254053
-0.037232716
0.06581314
0.043125935
0.0304108
-0.03201999
0.025196876
0.021858374
0.024260832
-0.05154783
-0.0529863
-0.044683542
0.008099056
0.05989994
0.039678268
0.022689104
-0.033658743
0.08702461
0.060172603
-0.04473096
-0.021629
-0.064103246
-0.019337969
-0.08806368
0.039660763
0.030757075
-0.02583796
0.03394505
-0.06752836
0.02482226
-0.025692914
-0.063063316
-0.058643192
-0.07305607
0.031728722
0.008442001
-7.4841877e-10
0.02495086
0.011916327
0.05107946
-0.04190325
0.046931
-0.029304594
-0.028281186
-0.007355791
-0.0730965
-0.048709095
0.0146624
0.018386258
0.04860344
-0.0026051854
0.008863825
-0.0817027
-0.041442335
-0.021044808
-0.016758328
-0.001463938
-0.015869921
0.11384086
0.023246337
-0.079813205
-0.019104404
0.0851238
0.033855967
-0.032879516
0.0061575994
-0.01946884
-0.029875448
0.033463772
-0.043163285
0.00034446985
-0.00923965
-0.06255105
0.0065948665
-0.02774702
0.021211723
-0.019030878
-0.0905701
-0.015551576
-0.040934987
-0.020062761
0.052984178
0.060504213
0.067654
0.0021990268
-0.06779114
0.022894328
0.021060286
-0.02657434
-0.019035041
-0.012059238
-0.049667098
0.1140388
0.043537512
0.06983957
-0.037059292
0.0011579024
0.10549415
0.08376446
0.025903737
-0.031294387
-0.0025893594
0.016613157
0.058825836
-0.047911745
0.019273302
-0.059210215
-0.030717762
0.05799864
-0.051415335
0.0790221
0.038620107
-0.029532388
-0.04490493
0.028516268
-0.015247398
-0.04459149
-0.1190468
-0.079138145
-0.04306078
0.0076802084
5.674578e-05
-0.013919044
0.06504532
0.010617481
0.035953123
-0.02093012
-0.04392945
0.009522074
-0.037895914
-0.028056577
0.048902344
-0.0014299107
-0.09679064
0.018046422
0.068039246
-0.062300336
-0.008247767
0.008542942
-0.04945563
-0.006264983
0.01764296
-0.07606188
-0.010984791
0.035225473
-0.01256872
-0.014036136
-0.0418221
-0.0029698873
0.0027549157
-0.023628227
-0.11622305
-0.029890515
0.054391585
0.028286606
-0.071846806
-0.020739688
0.049229767
-0.0026736124
-0.03866843
-0.029695189
0.035332847
0.05173297
0.07484253
-0.029244468
6.2418694e-05
-0.051692493
-0.02161993
0.03199733
-0.022409176
-0.04923707
-0.020289145
-0.014007823
0.04616459
0.018238619
-0.016587151
0.013838475
-0.07949064
-0.04716167
-0.018905163
-0.02323239
-0.018020589
0.06047494
0.05424948
-0.02116278
-0.08294677
-0.028503357
-0.014907163
-0.10642597
-0.12482834
-0.08952652
-0.024392836
0.06670841
0.004670156
-0.026742904
-0.014384815
-0.009836205
0.069507666
-0.0005422414
0.052936945
0.0029193845
0.008319247
0.042060956
-0.04866411
0.008410561
0.0018133535
0.03153514
0.02433919
-0.05381897
-0.051317375
0.013168697
0.051261686
-0.18006635
-0.08051935
-0.03880515
-0.08983929
-0.050225124
-0.024638444
-0.102730565
-0.024115846
-0.014879346
0.08225144
0.036545757
0.006703436
-0.020182382
0.021908062
0.01475255
0.020893585
-0.035789393
-0.110873014
0.07711152
0.010360793
-0.07971578
-0.035241857
-0.039655603
-0.061099507
-0.013155653
-0.041691896
0.11684364
-0.06325957
-0.018230127
-0.098457865
-0.02747662
-0.013189668
-0.046253253
-0.08926926
-0.0013655832
0.18268263
0.01980018
-0.031344492
0.0675393
-0.07016929
0.06414375
0.035820343
-0.02311997
-0.0021827715
-0.056457065
-0.07159092
-0.13554987
-0.027859844
0.027453559
0.011593921
0.0016327392
-0.060254604
-0.015860172
-0.041964363
0.04589386
0.080681704
0.019903727
-0.02071546
0.030763568
0.05281126
0.067976125
0.028734326
-0.024717124
-0.07727786
0.011805732
-0.009207484
0.022040652
-0.020084208
-0.007501832
-0.021653766
-0.08207203
-0.0043682745
-0.031658985
0.0079620695
-0.0042312527
-0.0006820006
0.022287939
-0.04463837
-0.08723442
-0.023602368
-0.01516602
0.062079642
-0.08529836
-0.026820077
-0.004100459
-0.074431166
0.0047934284
-0.05569205
0.04882078
-0.070512675
-0.08185831
-0.0004470846
-0.014067664
0.028583977
-0.01940423
-0.0052303863
0.126029
-0.0013462828
-0.044521715
-0.041612856
-0.07182617
-0.023193652
-0.031962942
0.011901512
-0.07027552
0.023274513
-0.04009664
-0.016386943
-0.03926739
0.065863684
-0.039782465
0.051762123
-0.058227446
-0.00015424984
-0.017502159
0.05299241
0.00036940986
-0.021561464
-0.057223942
0.023457546
0.041629434
-0.017014818
0.023920458
-0.021606976
0.062229253
0.002266504
0.03200784
-0.037928343
-0.016770002
0.020803243
0.11723435
0.041786183
0.014615685
0.041993164
-0.05801783
-0.04236208
-0.027109245
-0.04093754
0.039074827
0.021517059
0.08620681
-0.053970292
0.034289647
-0.01108576
-0.0015048367
0.046397313
0.023884142
0.031939507
-0.024358444
-0.06137291
0.03343785
-0.04120573
-0.0016753242
-0.008543523
-0.075830646
-0.01880648
0.03417858
-0.09649455
0.03026375
-0.044972762
-0.020020265
-0.03443654
-0.07405967
-0.036335725
0.0015082641
-0.03075927
0.005657856
0.046553828
-0.014844107
0.0021624486
0.07828542
0.013363424
-0.04571581
0.024276301
-0.025298957
-0.062154967
0.06172806
0.022369402
-0.06617706
0.08331255
-0.048068397
-0.044089016
-0.028420318
0.016970642
-0.0634943
-0.0027583574
0.008632026
0.035015408
0.016080203
0.0036541382
0.07001677
-0.021272633
-0.0019076623
0.025408618
-0.051439792
0.00067464897
-0.1436399
0.0088035
0.03484249
-0.055816267
-0.041639898
-0.037385166
0.05570303
0.03196299
0.0006184065
-0.05657938
-0.03851187
-0.0012814021
-0.042332113
-0.05654167
0.02020495
-0.04899145
-0.008255178
0.00012373824
-0.018915832
0.012830041
-0.012363151
-0.048188385
-0.028586313
-0.029482862
-0.041201543
-0.018371744
-0.05098714
-0.05342103
-0.007947523
-0.03740783
-0.12736654
0.07107138
-0.010441627
-0.037567407
-0.00729065
0.06405077
-0.07042711
-0.026937598
-0.0340493
0.08418648
-0.046052944
-0.030622473
0.012583201
-0.037439637
-0.018257897
0.08575425
0.008474239
-0.028565275
-0.056453582
0.09298101
-0.006783782
-0.025837127
-0.030871078
-0.02000883
0.052699395
0.010471547
-0.0201635
-0.010576977
-0.006468212
-0.020098649
-0.03497646
-0.022821693
0.05895247
-0.037171394
0.002369908
-0.0054024803
-0.13100743
-0.021465542
-0.012268535
-0.027311737
0.008951763
0.08993829
-0.030090278
-0.07580911
-0.023949245
0.027235724
-0.06011489
0.106643535
-0.07731984
0.0575856
-0.011925314
-0.038602754
-0.034140974
0.06413997
-0.023617093
0.019604791
-0.05404873
0.012943343
-0.005974271
0.051553365
-0.04588416
-0.025948828
-0.0061208243
0.0010412401
-0.01799779
-0.05320302
-0.048188552
0.009741575
-0.002571569
-0.043472618
-0.055079777
-0.02447839
-0.040421177
-0.0012855381
-0.018651078
-0.032443635
0.015676714
-0.037559796
0.020220464
0.033089504
0.050754484
0.019151088
9.374724e-05
0.0018572323
-0.0030131324
-0.0031253193
-0.024752809
-0.028951177
-0.02548502
-0.008793323
-0.01377385
-0.014625134
0.007492328
0.044619486
-0.0093720015
-0.035362933
0.02525628
-0.0047238087
-0.083700106
-0.01845011
-0.016974004
-0.094648026
0.027464034
0.00147361
0.017637063
-0.04944328
0.0052423207
0.016825918
0.019786684
0.015541534
-4.927593e-10
-0.014066046
-0.046437223
0.0032033538
-0.119937144
-0.01881145
-0.024783164
0.0063999896
-0.026500482
-0.07654374
-0.055831194
0.0795291
0.030652003
0.0504465
-0.07871343
-0.04244606
0.027438182
0.058991704
0.029694322
0.027044883
-0.025740925
0.012415883
-0.00015330492
-0.044453025
-0.02537347
-0.015842026
-0.030316
-0.018764853
-0.016940748
0.02278549
-0.0023523406
-0.052410442
-0.03492937
-0.036441363
0.020942282
0.024381442
0.042661946
-0.0601684
0.04325493
0.11453301
-0.0064996444
-0.06043647
0.044463567
0.111492634
0.009204759
-0.015078893
-0.027107548
-0.039758954
0.056340117
-0.03687995
-0.0029064494
0.06023903
-0.075428605
-0.013858146
-0.0536576
0.028783355
-0.039069925
0.018562047
-0.012969831
0.00078043836
-0.007042768
0.035672195
-0.0066934684
-0.033367332
0.050291456
0.04196963
0.019055389
-0.08273168
0.030612277
-0.01062506
0.016161323
0.021829618
-0.048903827
0.0061887032
0.062421843
0.036770187
-0.008947619
-0.06305477
-0.007812348
-0.0040627616
-0.0015816559
0.0017759729
-0.06682343
0.0035270415
0.029872652
-0.016587907
0.11264246
0.0698816
-0.002826679
-0.055142336
-0.027950304
-0.036349006
-0.009871875
-0.017301025
0.049699448
0.058065917
-0.01817841
0.004644948
0.0070917117
0.022347368
-0.038259365
-0.019181808
0.037062235
-0.04204947
0.07316592
-0.009436379
0.011791434
0.06282966
-0.030399371
0.018727835
-0.044837836
0.051185757
0.021584196
0.004443803
-0.012307079
-0.052108698
-0.018405754
-0.0031954208
0.007742747
0.00361673
0.009555668
-0.025580784
-0.01533457
-0.037196096
0.014675091
-0.07301355
-0.010069325
0.0010222676
-0.031007681
-0.016335936
-0.014344225
0.0251559
0.069726564
-0.03326335
0.008396821
0.0032081823
-0.06970726
-0.071351774
0.018567732
-0.06195363
-0.0045207515
-0.08527648
0.006775245
-0.022117097
0.111785755
0.041458137
0.06357817
-0.016987186
0.059014622
0.013290603
-0.033855323
0.04568759
-0.026648482
0.009035823
-0.03285646
-0.04279676
0.058081944
-2.2780048e-05
0.050761618
-0.013675554
-0.012871251
0.07721539
0.07300112
0.017244603
-0.053876
0.03987156
-0.056302726
0.007794503
0.048522346
-0.02999416
0.014729087
-0.09498746
0.050312903
-0.040577203
0.0014515519
0.0495295
0.010271314
0.009740949
0.0085515175
-0.094816886
0.023615547
-0.096209
-0.04801979
0.02335281
0.0026059153
-0.00093267683
0.020457186
0.052013896
-0.045978915
-0.0084758885
0.03433606
0.007993159
-0.000848481
0.03357229
-0.003546053
0.016873412
0.031379968
-0.03424294
-0.026814468
0.030676238
0.0594967
0.062167995
-0.03495791
0.01483675
-0.043136794
-0.09050559
-0.0035625675
0.037423752
0.03700326
0.049110778
0.0055810893
0.037702493
0.030364444
-0.04476721
-0.08304117
0.016993677
-0.03211489
-0.007872335
-0.022957023
-0.09847771
0.012092447
-0.0062180804
0.00011817977
-0.09329835
-0.055897675
-0.014470362
0.042373046
-0.09055567
0.015744118
0.063357174
-0.013318482
0.030987842
0.020293172
0.08870566
-0.019999838
0.016208217
0.038740866
-0.034378294
0.010509273
0.10986545
0.039508224
0.104061894
-0.1279772
-0.00035035255
-0.030917006
0.011998589
0.003345627
-0.089918666
0.023177141
0.059869844
-0.0028952246
0.049917575
-0.08652656
-0.011261895
-0.00064944295
-0.03565732
-0.012101647
0.030235669
0.04819089
0.022292586
-0.025221596
-0.058446992
0.009964073
0.07027183
-0.01617845
-0.024113677
-0.056122568
-0.045010116
-0.109731115
0.057832874
0.03916919
-0.004844388
0.021345261
0.0056101964
-0.07983176
-0.02955614
0.0058475332
-0.052686434
-0.016998678
-0.048247207
0.016222527
-0.009690762
0.052575815
-0.061421636
-0.041440107
0.033264533
-0.040599257
-0.053932574
-0.049244847
0.04235958
-0.067611225
-0.079696
0.05360146
-0.0038816582
-0.011939226
-0.03606299
-0.0442396
-0.0047059194
-0.014475759
0.1491894
0.008363281
-0.0920485
-0.034511525
-0.01251361
-0.03325687
0.045318432
0.029335545
-0.026393993
0.0070177666
0.07076737
-0.037250407
-0.023390265
-0.018355373
-0.075091474
0.0038733275
-0.04507473
-0.060991563
0.17798233
-0.024514528
-0.013088571
-0.03181819
-0.041529004
-0.017536122
0.04111024
0.015243381
-0.12134374
-0.14843367
0.06476376
-0.015428632
0.046716012
-0.021387951
-0.012945853
0.0027511145
-0.0021310125
-0.08390803
0.043038238
-0.050832897
0.045743514
-0.010741087
0.0023385105
-0.09475897
-0.0062567433
0.0310912
-0.06350398
0.008066713
0.032886557
0.050244525
0.009096294
0.03575045
0.03005621
0.06583574
0.019146848
0.09173361
-0.042631626
-0.024634862
-0.051601876
-0.08303387
-0.036406513
0.0036891361
-0.028106438
0.028218979
-0.038201373
-0.041586384
-0.04600201
0.024102993
0.014707799
0.0073880744
-0.028013226
0.008502782
0.008986712
-0.018360069
-0.017239867
-0.027141422
0.026124367
0.028980426
0.04412549
0.04064265
0.00527139
0.028801074
-0.010855786
0.005619578
0.10471659
0.006257548
-0.055671122
-0.014124923
0.003067949
0.049341835
0.015930971
0.058727227
-0.009292451
0.0037819992
-0.026601352
0.017291175
0.0019902654
0.025994655
0.050752252
-0.007943527
0.01771726
-0.08794847
0.023640607
-0.0010120599
0.09357569
0.103031136
-0.1176991
0.039236207
-0.04781433
0.03899367
-0.026454313
0.01593621
-0.060801607
0.02368943
0.08132198
0.006795507
0.046452582
0.026101325
-0.017394764
-0.090677924
-0.02871851
0.13107766
-0.08544129
-0.0035876664
-0.04960475
-0.049302336
0.032320116
0.061919253
-0.025075508
0.00647361
-0.05751365
-0.018730188
0.045543514
-0.089795716
0.026853766
0.00843262
0.051109567
-0.121898964
-0.0021838306
0.057567827
-0.10331482
0.013956721
-0.00029447427
0.025738753
0.027855111
0.050350823
0.036799073
0.03264174
0.005403105
0.019407002
-0.08589577
0.018802095
-0.06709112
0.008836626
0.02217766
0.02284911
-0.0070202095
-0.022383142
0.030559879
0.02936759
-0.018468248
0.01794153
0.029784461
0.11261106
0.009855583
-0.023314148
0.035609383
0.022865979
0.013276844
0.0058233505
0.02885645
0.0072917063
0.01627524
0.0094957035
0.06136498
-0.06817528
0.00085548544
0.014681856
0.09725959
0.020962624
-0.025065241
-0.06522227
0.029844029
-0.058096915
0.011156537
0.01872351
0.067346185
-0.024957081
-0.11148105
0.08790305
-0.05986027
-0.053359553
-0.012985298
0.01507974
-0.0451111
0.044482283
0.024739586
-0.055219892
-0.042070795
0.14344065
-0.07425045
0.024039762
-0.019750874
0.067825906
0.05192026
0.019738406
0.025723394
-0.0044514597
0.0129463095
0.031945538
0.038115676
0.014415949
-0.018602148
0.036793962
-0.029358158
1.6576246e-10
-0.04200744
0.023139725
-0.034145698
-0.05470354
-0.007373407
-0.027939659
-0.00064946496
0.011642666
0.07638419
-0.031453654
-0.007342501
-0.017829478
-0.0017499964
0.015168018
-0.020790014
0.07136506
-0.026573235
0.07685775
0.09365657
-0.11025714
-0.054205492
-0.09161634
0.030380545
-0.023294184
-0.031409718
-0.0025722196
-0.04295367
0.044497214
0.06855201
0.0746564
-0.025698964
-0.008199485
0.046212547
0.01740227
0.011646479
0.11540337
0.047044065
-0.020077145
-0.08393809
-0.035486307
-0.07497479
-0.04406905
0.00840951
0.09976131
0.04316518
0.014381444
0.004525298
-0.019476563
0.07652628
-0.027936505
0.032120578
-0.0026979693
0.067959726
0.0052964985
0.024754236
-0.03662772
0.04724736
0.040794786
0.0060142004
0.07634595
0.03549073
-0.03865024
-0.010616749
-0.03629069
0.08487925
0.008313402
-0.036595404
0.0074700373
-0.0053347507
-0.0073831948
-0.01263896
0.05023459
0.047058683
0.0147904465
0.008272971
0.04485247
0.060903743
-0.042571608
-0.050862122
-0.0037504153
-0.024111044
0.00022580789
0.0038248398
0.07196861
0.029081978
0.038655348
-0.113734014
-0.041100252
0.033796262
-0.0675801
-0.08525164
-0.00032494063
-0.044760417
0.0051201
-0.005975071
0.014902374
0.00051525433
-0.0095111225
0.0011161856
0.05685158
0.06925624
-0.060076423
-0.039710812
0.028528288
-0.03003688
0.0150793865
-0.005475828
-0.011126334
0.012098444
0.0141153205
-0.0728114
-0.046000887
-0.015301049
-0.035027977
-0.07599126
-0.00986489
-0.039018374
0.039852507
0.0028322584
-0.016108084
0.010869666
0.07578264
0.110639006
-0.005854225
-0.0009027037
-0.008106628
-0.04778565
-0.009725712
-0.026177727
0.023538869
0.012943413
-0.05236418
0.043109342
-0.016622907
0.03760186
0.022237293
0.009043076
-0.030652424
-0.08435068
-0.012512011
0.035702296
0.11296219
0.0647587
0.029880615
0.0102391075
0.10215602
0.020095626
0.009307686
0.02746132
0.012390838
0.03352347
0.046825834
0.0016957027
0.123482145
-0.06864661
-0.042556584
0.037744716
-0.024952335
0.04223494
-0.034119368
0.0061219484
-0.006671777
-0.038713817
-0.024112502
-0.06855932
0.006700263
0.0018770695
0.0053783455
-0.02965371
-0.05246703
0.02615974
-0.06646293
-0.07103878
0.00032694172
0.035545148
-0.038507823
0.11479925
-0.007611819
0.0064483685
0.012772231
0.040302694
0.0033176215
0.023126557
0.00065539463
0.0042928397
0.004769094
-0.019160192
-0.06799593
0.06288712
0.06933982
0.068932176
-0.02979543
0.0600658
0.023361674
-0.00023894908
0.0010109517
0.014445389
-0.037419587
0.03676758
0.07674821
0.009558945
-0.052190382
-0.025783747
-0.0047292407
-0.019176431
0.031261787
0.011858081
0.1048443
-0.020016884
0.0011346175
-0.060353573
-0.03778783
0.071754865
0.039422177
-0.059467044
0.0055308165
-0.042256627
0.04135011
-0.022262493
-0.02528004
0.011534043
-0.003779989
0.035173643
-0.123243384
-0.055918146
-0.07535058
-0.013708534
-0.022978297
-0.0609265
-0.06025152
0.024205068
-0.023334382
0.0042026914
0.009361115
0.06740103
0.02961381
0.018673163
0.009185011
-0.029579345
-0.064457335
0.02898259
-0.0059343236
-0.03421656
-0.07660291
0.06860208
-0.050163817
-0.0033569199
0.0074528456
-0.034827475
-0.03397756
-0.046464916
-0.074963406
0.009613628
-0.043975916
-0.01718931
-0.056793626
-0.037473794
0.035871897
0.054446667
-0.021460965
0.03628272
0.070521586
0.040196136
0.029855506
-0.07107879
0.027407767
0.004609799
0.022412188
-0.004432429
0.012084594
0.04332095
0.017133627
0.020966846
0.100474395
0.05368322
-0.094492316
0.0045215194
0.0617573
0.009845335
-0.004039281
0.07091011
-0.006731078
0.016278446
-0.0657468
-0.010222504
0.007973825
0.024756983
0.052881673
-0.013185641
0.035888698
-0.052834257
-0.014008221
-0.024354327
-0.0038401957
-0.08292217
-0.041781113
-0.026286881
-0.00918671
-0.0005279464
0.00857173
-0.063217245
0.0457791
-0.015837198
-0.03366524
0.05424532
0.029430348
-0.0039921175
-0.042968303
0.004923883
0.04022682
0.008431927
0.0065424945
0.064622924
-0.074231796
-0.033079803
0.094065435
0.045972332
0.11888926
0.011690366
0.053520378
-0.00093193405
-0.021828828
0.034057703
-0.044817142
-0.04888541
-0.034742054
0.0971423
-0.02554109
-0.062352233
0.016127648
-0.068464115
0.0061910953
-0.057980083
0.039780878
0.006856405
0.020749422
-0.045180794
0.078663014
-0.0206112
0.0011563111
0.03379715
-0.0175559
0.07766239
-0.012308859
0.034454938
0.079315595
-0.020890689
0.035054654
0.15139231
0.011701001
-0.018995613
-0.00035189764
0.038893536
0.011541888
0.047027845
0.035287254
0.018518317
0.029911494
-0.069250956
-0.017986678
0.02262719
0.109888226
0.027764348
-0.08410619
0.0038392607
0.036670197
-0.022257388
0.036031373
-0.04733824
0.06862263
-0.055316124
-0.04418305
0.01595088
0.009249835
-0.05930264
-0.006204516
0.014430376
0.0327709
-0.13500786
0.044721365
0.0064220396
0.10723109
0.09094865
0.053307038
0.007831196
0.0261885
-0.021386622
0.017715573
0.016494134
-0.00017922343
0.020875696
0.012574853
-0.089083456
-0.037477884
0.07011067
-0.015827678
-0.017100072
-0.009402405
0.017192442
0.019656653
-0.04716954
-0.0046728537
0.026834406
-0.027628358
0.014134847
0.0013826917
-0.07313667
-0.01710125
0.012681888
-0.022323592
-0.014416859
-0.050679773
-0.028135221
-0.025563411
-0.0012631152
-0.012636708
0.0048885136
0.02060792
-0.00049259467
0.040563505
0.026074938
-0.03253127
0.04908424
-0.0035647796
0.059005126
-0.0033604677
-0.01565827
0.003175149
0.008962744
0.05789477
0.05313509
-0.011625556
0.05412677
-0.019887649
-0.00085557083
-0.014515468
-0.0050031575
-0.015444821
-0.00707133
-0.009384633
0.04654006
-0.011187057
-0.052121185
-0.008985488
0.028724063
-0.06718258
-0.03853817
-0.0064172866
-0.0242997
0.027858958
-0.028081685
-0.03821751
0.018361988
-0.03831073
0.014546504
-0.020903278
-0.0030343747
-0.00748594
0.11946746
0.004034334
-0.048316047
-0.0043763015
0.013985209
-0.0018478457
-0.08055675
-0.038305957
-0.028063796
0.007899357
0.004766505
-0.003507728
-0.030699534
0.10117718
-0.011077419
-0.021350173
0.046059627
0.02730433
-0.0135974325
-0.05973315
0.0005462386
0.069605894
0.01969958
0.039138764
0.008841422
0.06342356
0.021495938
-0.007851126
0.007162386
0.046906743
-0.037582356
0.007461128
0.020702563
-0.008206128
-0.01803022
-0.004725208
-0.009415276
0.030397704
-0.05176409
0.05101287
-0.038295165
0.032116685
0.018835692
-0.020258363
0.03494261
0.060887117
0.011606504
0.007987314
0.01983011
0.040981308
-0.035520237
0.009925015
-0.007993178
2.6360442e-10
-0.015106733
0.03624423
-0.01100501
-0.01451819
-0.0054239114
0.01198971
-0.024255836
-0.057511512
0.018632045
0.0075757764
0.0006416774
-0.013326155
-0.03260569
-0.018213822
0.010418379
0.0065318244
-0.07061707
0.010526992
0.018086245
-0.008308678
0.032697976
0.008030648
0.03063457
0.009178292
0.004440275
0.010586206
-0.018973919
-0.039888997
0.020844182
-0.0074579814
-0.016072176
-0.010083941
0.044273693
-0.050955027
-0.00979948
0.021601513
0.05103812
0.013362402
-0.0853357
-0.0011308058
-0.02233551
0.050554402
-0.033262063
0.0491406
-0.012324014
0.010576813
0.014396974
-0.031841185
0.09323494
0.017391777
-0.006721687
-0.028474607
0.006105169
-0.006802926
0.042699303
0.020732904
0.03179518
0.012515719
0.026602848
-0.046499144
0.004028334
-0.018012354
-0.02662039
-0.0084952535
0.027082704
-0.015188443
0.030022992
-0.00993553
0.040155567
0.05471714
0.012238119
0.011138501
0.024653058
-0.04021525
0.008231874
-0.009194577
-0.041046027
0.03482467
0.031260755
-0.03667989
0.011272606
-0.018768732
0.011572671
-0.0056758923
-0.08518449
0.009021658
0.008264602
-0.03156273
-0.02355915
-0.001132832
0.017983822
-0.015609014
-0.02903368
-0.016546125
-0.02694458
0.0030294303
-0.009813691
-0.0016715713
-0.022515438
-0.06768056
0.04583471
-0.011341774
0.007276964
0.030896707
0.006820587
-0.0069498355
-0.022745376
-0.06423677
-0.072563164
-0.020501275
-0.02916802
0.02620655
0.017158758
0.05886036
-0.040024016
0.01955509
-0.030412152
0.012597677
-0.03279129
0.03128779
0.008396136
-0.013237017
0.035009813
0.036492478
-0.0060981205
-0.0004886466
-0.012686217
-0.14850892
0.002217407
-0.051354486
0.022445962
0.010100407
0.008468828
0.008982978
-0.03616953
-0.044268426
-0.023727447
0.0014981407
-0.01333995
-0.0506825
-0.039966717
0.022820555
-0.035296775
-0.016749639
0.028371682
0.0076868352
0.017877398
0.054676905
0.0063637965
0.010505047
-0.021228902
0.04284563
-0.026461871
-0.06893062
-0.009251973
0.017191833
-0.06612524
0.1259852
-0.023401631
-0.04432904
-0.042964865
-0.0186698
-0.024033396
-0.04784783
-0.05755512
-0.04387997
0.013942274
0.000588822
0.01454215
0.020429622
0.024553053
-0.027453233
0.15969892
-0.0708651
0.016841093
0.025170496
0.045129064
0.101515286
-0.029991306
-0.049436502
0.0055312063
-0.018465308
-0.0195422
0.01628739
0.008317476
-0.00747354
0.00054943404
-0.0121797165
-0.00799939
0.011639491
0.019682102
-0.016268604
0.02387313
-0.0014132991
-0.031634938
0.013117
0.03856786
-0.04049339
-0.032430872
0.037178718
-0.03479603
0.021142045
-0.061939564
-0.019949907
-0.011920522
0.029268932
-0.007605882
-0.024591248
0.019289704
-0.00021666232
-0.037348878
-0.020889565
0.005499712
0.022518657
-0.009732298
-0.015466594
0.0011487858
0.022631463
-0.004893013
-0.04485278
0.008691857
0.04102514
0.0047359453
0.012132276
-0.026933547
0.011203772
-0.03617347
-0.008441463
0.021349708
0.022793822
-0.0519665
-0.04270579
-0.005565722
0.009950075
0.034068268
-0.0083091585
-0.00047875827
-0.032434255
-0.02269507
-0.050582923
-0.01575618
0.04828197
-0.025637643
-0.044535253
-0.008920374
-0.007600945
0.03979323
-0.078195654
0.0393384
0.0074534696
0.014534705
0.04890807
-0.009310185
-0.01611917
0.07087272
-0.036723092
-0.013549721
0.024590923
-0.005884586
0.022444181
-0.010097866
0.022206066
0.0060662427
-0.029919915
0.027463967
0.050893154
0.039510448
0.012617793
-0.011663514
-0.044601075
-0.008187478
0.013868216
-0.01725277
0.07901456
-0.036362365
-0.0069710137
-0.03752648
-0.002808525
0.032496814
-0.009707037
0.005471083
0.01302217
0.021817328
-0.022543453
-0.00031043487
-0.009704766
0.0008951681
-0.009108761
0.00609068
-0.08353944
0.01574448
-0.037226293
-0.009149657
0.011038381
0.006633281
0.033656593
0.07871113
-0.008058513
0.012646089
-0.023031568
-0.0057773176
-0.050249036
-0.00015132962
0.012488122
0.017571108
-0.01671894
0.020208241
-0.007723595
-0.003960603
-0.024653543
0.039793786
0.00031329918
0.0042879805
-0.014481354
-0.021294584
-0.012589627
0.0023148214
0.0019805718
-0.01254883
0.03139129
-0.016359933
0.0341975
0.04972076
-0.022281554
0.042727955
-0.015552731
0.021212706
-0.032865867
0.04924774
-0.016553339
-0.018688895
-0.049289476
0.019715618
0.025781855
-0.0075931638
-0.013854879
-0.020156827
0.0018164479
0.005192191
-0.04522307
0.01674412
-0.00983025
0.1019694
-0.06825301
0.033191487
0.0052023605
0.08868174
-0.0029015627
-0.019186318
0.04650659
-0.011179824
0.011000645
0.0034183597
0.013977392
-0.039984442
-0.020704828
-0.034440458
-0.008734123
0.023063052
-0.040877234
0.03935066
0.016458951
0.009102502
0.026325207
0.013167317
-0.01923633
0.066450916
0.05482311
-0.014152259
-0.011352507
-0.0605687
-0.0030814384
0.006281303
-0.0003350186
-0.044680584
-0.04767614
0.042918928
0.017558804
-0.025018102
-0.0036873342
0.014333681
0.030457772
0.061927643
-0.012609742
0.009011842
0.026010228
-0.007971821
0.013049611
0.009754848
0.0019533308
-0.01255534
-0.025798678
0.0063480763
-0.119345985
-0.0058614635
0.042144638
0.048820775
-0.007595834
0.059296016
-0.025653481
0.08087069
-0.012201669
-0.0043086205
0.028876
0.011785187
0.06012555
0.09614348
-0.042089406
-0.044802587
0.05519285
0.03557942
-0.0006873963
0.044979993
-0.017761124
0.018608315
0.09056719
-0.042584315
-0.045197316
0.015886525
0.012961169
0.044505525
-0.0103835715
-0.0067763757
-0.03824132
-0.036977228
-0.07732564
-0.08481192
-0.17583969
0.005640239
-0.0067537916
0.03758121
0.008765
-0.078070626
0.057862304
0.043554746
0.021143394
0.04913561
-0.07075991
-0.032937903
0.055088263
-0.020323066
0.018435413
0.07597576
-0.012106922
0.062193915
-0.0003920393
0.05120615
0.05928335
-0.01681743
-0.098063424
-0.012699416
0.027248276
-0.03274813
0.025588464
0.08921654
-0.09967389
-0.02173619
-0.04671445
-0.084185205
0.0422892
-0.01967744
-0.008688319
0.018094802
0.014740559
0.0057670125
-0.1013319
0.03862018
-0.0018757212
0.04632591
0.07505957
0.036532946
-0.06835139
0.00040591086
-0.12208072
0.018124769
0.048865024
-0.01266117
-0.019893076
-0.018218325
0.042284064
-0.029229969
-0.06460675
0.0142921945
-0.06961177
-0.017106041
0.054822244
-0.002702642
-0.029018816
-0.047552265
0.022888746
-0.01670641
-0.036850672
0.06588394
-0.013274728
0.06129795
0.0033986447
0.026201447
0.036897156
-0.02174108
-0.0352528
0.0037042822
-0.008870193
-0.027186742
0.035563137
-0.004953578
0.07138703
0.025084145
-0.0638093
-0.09954494
-0.012256315
-0.042310398
-4.0789558e-10
-0.07289871
-0.015822086
0.010928219
0.043889575
0.12838976
-0.01844689
-0.13291088
0.0018608506
-0.006416467
-0.030260729
0.024900284
0.03180487
0.016274206
-0.011352854
-0.016403422
-0.015496101
0.06266709
0.007112649
0.031203473
-0.019482799
0.037712242
-0.005948806
0.16793045
0.012791669
-0.010580886
-0.014898204
0.100164875
-0.009645586
0.012415979
0.052270982
0.05914042
0.05810124
-0.007408173
0.006132434
-0.0036740687
0.014375185
0.03887179
0.033805974
0.008674937
-0.049712267
0.04374579
0.0055764294
0.10064952
0.0025061686
0.03629096
0.00479127
0.048366114
-0.034460437
0.03995235
0.029024657
-0.0018601374
0.034588803
-0.023426916
-0.022358473
0.03728505
-0.010353402
-0.028124455
0.00982399
-0.027464997
0.030333534
-0.028381221
0.017136272
-0.036740918
-0.02158051
-0.061983895
-0.0019843718
-0.044857524
-0.007329218
0.006575769
0.0069086254
-0.06599799
-0.07365697
0.04353334
0.0024784664
-0.04056173
-0.026405284
0.029610686
0.0020634474
0.03454108
0.029615821
0.020160103
0.045875017
0.0041521806
-0.047949687
0.04733842
-0.042677965
-0.03230846
-0.0138056185
-0.07673735
0.090534754
0.006201177
0.034100115
-0.006167745
0.04808413
0.013303846
0.052909594
0.039531413
0.012837447
-0.023667833
0.10437716
0.037913885
-9.8377604e-05
0.039461978
-0.052821837
-0.026364446
-0.09435932
-0.10781832
-0.023356134
0.016619556
0.010634897
0.056014508
0.033181563
-0.051280342
-0.032960497
-0.05427406
-0.048119523
0.05985561
-0.058781777
0.02049671
-0.0007359217
-0.0046116677
-0.029364621
0.0031955796
-0.04923576
-0.0029789754
-0.023987059
0.006480673
-0.102290206
-0.0009776438
-0.035967607
0.02242059
-0.04184209
-0.072010346
0.0025894723
0.056558374
0.037287798
0.0027218794
-0.06608942
0.07268309
-0.004438994
-0.05025083
0.03852419
-0.017880974
-0.051050324
-0.022816526
0.04692621
0.08776484
-0.10742848
-0.023601037
0.041374665
-0.06274691
0.033222787
0.012055633
0.0072273407
-0.015002999
-0.0063535343
0.02173102
-0.12898079
-0.046220284
0.046202373
0.022112498
-0.023491805
-0.026591748
0.0041617285
0.033515893
0.06462761
0.039982073
-0.04375966
0.04100734
0.0036436857
0.0061085727
-0.036674175
-0.14381555
0.121550374
-0.047210548
0.0065387436
-0.041805696
0.051399812
0.11679163
-0.01835017
-0.01741194
0.0077022947
0.022684133
-0.0028500257
-0.05161375
0.049258325
-0.031154338
0.010690429
0.04462445
-0.06745281
-0.010061201
-0.048052147
0.12444334
-0.024935277
0.024447702
0.028814185
-0.029812148
-0.002946417
-0.02676281
0.013840602
0.018895226
0.0041128313
-0.21439226
-0.01992882
-0.019216567
0.0044780015
-0.06808652
0.053696122
-0.13102421
-0.05392837
0.01041571
-0.013062664
0.018146316
0.02119735
0.058859415
-0.02254715
-0.045742564
-0.06666319
0.11976277
-0.034271535
0.044116292
0.058435105
-0.007913156
-0.012118171
0.02727004
-0.032455307
0.03054833
-0.0052350103
-0.008055164
0.08263453
-0.016753726
-0.0318539
-0.006427413
-0.0054113013
-0.018407281
-0.11838476
0.07230922
-0.09424481
-0.042181168
-0.0337124
0.033860594
-0.013341246
0.0005039359
-0.008649559
0.010835916
0.026779238
-0.043423038
0.027821131
-0.026094232
0.030895026
-0.0034801532
0.0017466597
0.040372003
-0.04790906
0.07580558
0.027562814
0.024613071
-0.0053652176
0.10320623
-0.054544438
-0.008559008
-0.0063233296
0.09036407
0.0028379925
0.05094247
0.009055077
-0.060030706
0.031541377
-0.029235933
0.0076708016
0.0848472
0.07406045
0.072554745
0.015204063
-0.019570744
-0.051089358
0.032624617
-0.0020147087
-0.01800209
0.018350154
-0.034684725
-0.027454356
-0.043703195
-0.04039271
-0.024661621
0.0012739204
0.017988209
-0.07626915
0.14444982
-0.029170105
-0.044007353
-0.018823443
0.016899751
0.05958128
-0.0130889695
0.0099811945
-0.044018447
-0.0030204884
-0.054141365
0.0723675
0.018203052
-0.097913265
-0.0012419567
0.00430771
0.016226154
0.08552466
-0.02650645
0.020103542
-0.010356418
-0.04513332
-0.012631805
0.17920439
-0.034784317
-0.008919161
0.014135959
0.0044241347
-0.05581384
0.024722362
0.013107318
0.025076518
0.06890755
-0.024771864
0.056064434
0.010074377
0.026501743
0.048936617
-0.070273705
-0.011871245
0.017030815
0.002896996
0.031414993
-0.018283369
-0.0020139338
0.04905939
0.022998821
-0.040092863
-0.032715604
0.021932222
-0.045105245
-0.0097597465
0.045569375
-0.0033500942
0.025307462
-0.11054678
0.027150026
-0.049526606
0.07294565
-0.054507554
-0.08531316
0.04341408
0.0463453
-0.01787671
0.0046963496
-0.086946495
-0.017292473
-0.029090604
0.03849784
-0.049608745
-0.022008983
-0.0050243777
-0.03669072
0.013294969
0.059854086
0.028916799
0.07375213
-0.07413937
0.011687936
0.0030733692
0.078850135
-0.033169676
-0.0078924
0.08100585
0.020740652
-0.0015064898
0.040406253
0.014569029
0.021126673
0.04401239
0.057614796
-0.10383308
-0.06209177
-0.043627568
-0.05754375
-0.03810859
0.014545047
0.0619307
0.007644271
-0.016955692
0.054409523
0.029233413
-0.039670166
0.021832475
0.06296874
-0.08095897
-0.037776683
-0.00763996
0.029520866
-0.0031245786
-0.056245003
-0.0044412175
0.035048258
-0.15376726
-0.029610183
-0.012387936
0.013858122
0.06419233
-0.053245325
-0.011376908
0.027855888
0.0004983333
0.0151302265
-0.031395357
-0.0075712167
0.089334
0.05626191
0.019548856
-0.0003486562
-0.07476604
-0.01564204
-0.039569605
0.026411807
0.070374094
0.019401465
0.0025210395
-0.031140879
0.0014499744
0.018190756
0.03402061
-0.089520186
-0.10991481
0.0062503773
-0.03631243
-0.11527567
-0.05431526
-0.018616155
-0.056499705
-0.024342775
0.15664576
-0.008612884
0.020565672
0.08137391
0.0013925323
0.014749401
-0.0176868
0.028395783
0.01555274
-0.07664971
-0.13002688
0.01420484
-0.022128487
-0.013130158
-0.008681924
0.02182715
-0.07576439
0.014949289
-0.004957936
0.004074089
0.014041474
0.041560184
0.022702083
-0.018541576
-0.07178799
-0.03295807
-0.037103612
-0.018382268
-0.028288238
0.0056359805
0.0069556814
-0.020244967
-0.049685366
-0.03773183
-0.013643672
-0.004261488
0.02405104
-0.008425154
-0.0050697387
0.09438168
-0.06623253
-0.006886843
-0.02886519
-0.046638016
0.023159424
-0.09826577
0.032746058
-0.032233533
-0.05790496
-0.0019367689
0.03175982
0.0200527
0.013882854
-0.036281954
-0.01941086
0.015002622
0.030741503
-0.035123706
-0.035195842
-0.029257637
0.016669583
0.06430714
0.026652552
0.04219221
-0.018985072
0.020128017
0.018332707
-0.00068526954
0.07789158
0.0066229533
0.034104727
0.033524804
-0.0042524366
0.0651873
2.5975866e-09
0.032730762
0.0054025226
-0.0066279513
-0.004062172
-0.04681194
-0.023173485
-0.0019174652
0.00026403007
-0.045307342
0.049220778
4.0355353e-05
-0.023906909
-0.020889586
-0.029604051
-0.009027909
-0.008724225
-0.01932418
-0.01088095
-0.021192802
-0.0018604315
-0.064668834
0.044009
0.061411574
0.013607627
-0.009095535
-0.011637019
0.048163828
0.040468756
-0.03942075
0.01207313
0.07119221
-0.015019971
-0.06690142
0.042102955
0.042025685
0.05914832
0.07384602
0.023529736
-0.009947558
-0.022311816
-0.1219077
-0.011337645
0.023554029
-0.040298432
-0.022034826
-0.022373328
-0.06411395
0.17670612
0.028079031
-0.024728402
-0.13188441
0.022668028
-0.041267514
0.0002716476
0.03568929
0.16895828
0.0015776085
0.011533784
-0.034262612
-0.06759694
0.026599182
0.031178309
0.012602122
-0.0093227485
-0.017122492
0.042884573
-0.00195975
0.24316634
-0.018435273
-0.05014786
-0.023349069
-0.05405794
-0.017566113
-0.03632939
0.009465374
-0.0021575687
-0.01850382
0.016236598
0.079286374
0.007416051
-0.010980949
0.03347045
0.007144422
-0.030591913
-0.007984686
-0.026351543
0.011205223
0.015326202
-0.0021295596
0.026987368
-0.075696826
0.044883404
-0.06522577
0.03764654
-0.079600915
-0.032351173
-0.019522969
-0.054437853
0.0075962283
-0.021899866
0.009567987
-0.034528494
0.007792795
-0.0065460643
-0.025928907
-0.06151954
0.013579946
0.05906475
0.0030228836
0.024985416
0.073036365
-0.027388418
0.006142711
0.07455778
-0.039274555
-0.13359784
-0.022146981
-0.0060104
-0.027806949
-0.05143866
-0.007911532
-0.033268433
-0.028299293
-0.04778116
-0.036526997
-0.0027879162
-0.013223625
-0.017040702
-0.013015188
-0.04263045
0.034910724
-0.031755734
-0.0020031154
0.038419444
-0.06998773
-0.03426697
-0.029171769
0.033820823
0.029668987
0.005580137
-0.025355209
0.0062244968
0.014125692
-0.07167649
-0.014645422
0.03159609
0.011954561
-0.016437333
0.036826335
0.20511942
0.10082308
0.039384898
0.005027016
-0.026725912
0.04515216
0.10018816
0.02922847
0.027796634
-0.009743852
0.016696904
0.02430672
-0.0020148123
0.003016776
0.015608793
0.07875613
0.0035509814
-0.091390625
-0.004109357
-0.065814376
0.0083910115
-0.017383013
-0.03590446
-0.0032166012
-0.009573134
0.00033020892
0.0030538184
0.004023528
-0.04164806
0.03607658
-0.0762805
-0.015929062
-0.0056363386
-0.0025158855
0.006034083
-2.2739987e-05
0.053659886
-0.015560263
-0.059439737
-0.046413716
0.014668067
0.05214707
-0.019165028
-0.02772977
-0.048247237
0.016015742
-0.068232566
0.027107392
-0.02589941
-0.06634964
-0.018502789
0.025538955
0.062289327
0.037859894
-0.07616998
0.020799706
0.1152574
-0.04620249
-0.119290344
0.015158671
-0.028624129
0.022143913
-0.0053774286
0.06433658
0.015626157
0.025156476
-0.008442234
0.023628185
0.0022746916
0.061405096
-0.008201466
-0.11313464
-0.20609787
-0.10951146
0.015955081
0.011016005
-0.01466706
0.011062196
0.04652791
-0.054952294
0.046595618
-0.040141806
-0.03462891
0.017850189
-0.027719257
-0.003511663
-0.006532319
-0.00095823914
-0.0009696263
0.047787275
0.0093506025
-0.20955923
-0.01096017
0.063596986
0.0053703845
0.011117601
0.042982385
0.0077276137
0.04382605
-0.054567512
-0.008166651
-0.017322779
0.045926616
-0.03502221
-0.086010106
-0.042227313
0.01713902
0.18895656
-0.009966783
0.047530066
0.0200275
-0.029372286
-0.043299213
-0.016972965
0.061862357
0.051024746
0.051732615
0.004303298
0.018622423
-0.0026231378
0.0086320825
0.077596106
-0.018609788
-0.010381103
0.008552637
0.008484519
-0.05232996
0.0066269534
-0.036619533
0.013653904
-0.013540346
0.061929073
-0.060502473
-0.07720434
-0.04109613
-0.08415222
-0.0049176263
-0.012824623
0.05763101
0.01891209
-0.023739928
-0.010869374
-0.011116562
-0.027374191
0.03574959
-0.037952285
-0.0072016316
0.010924429
0.020890063
-0.100315474
-0.0061964737
-0.025125561
0.040846027
0.0048921476
0.0071855905
0.011007936
0.053314112
0.13138989
-0.023363689
-0.01260588
0.0388917
-0.047571067
0.08467242
0.009585525
0.034884535
-0.11460528
-0.034659047
0.008023871
-0.00645966
-0.07173418
0.014871158
-0.035896044
0.0014626828
-0.006803498
0.022135431
-0.0053307083
-0.008565153
0.05940275
-0.005240505
0.013004859
-0.022659745
0.02465052
0.011146513
0.022999737
-0.017859912
-0.01911493
0.023243353
-0.033618715
0.016385624
-0.0058226627
0.00095853145
0.037105806
-0.006085832
-0.03768496
0.07451159
0.055225626
0.034655813
0.042166352
0.012841067
0.043340355
0.0291537
-0.03832398
0.038264893
-0.042338137
-0.022533033
0.029431177
0.06968573
-0.00744444
-0.005454313
-0.058311444
0.02851745
0.047497313
-0.028121749
-0.017889567
-0.028702378
-0.016374514
-0.0121732205
-0.04282143
-0.029049441
-0.006378316
0.042296845
0.0024171835
0.1610464
-0.03973032
0.022123028
-0.023422392
-0.0006002979
0.042451657
-0.050069924
-0.100078836
-0.029548055
0.035081767
-0.009833334
-0.046631984
0.013230296
0.07731147
-0.077034764
0.0016822357
0.013855844
0.0016036133
0.028438231
0.006952876
-0.023684645
0.02284085
0.014271383
-0.0012496231
0.031963
0.033421773
-0.06825306
0.041755226
-0.0891969
-0.07814096
-0.020625582
0.0040202364
0.040950797
0.023473952
-0.048202287
0.067968175
-0.028370744
-0.044170305
-0.083376184
-0.07140086
0.042468965
-0.018905336
0.0523755
-0.025610507
-0.055197675
-0.05418946
-0.05928878
0.07112258
-0.0428126
0.005952436
0.020279013
0.0076477835
-0.0075691403
-0.12332124
-0.029075379
-0.03380509
0.01991563
-0.015026482
-0.012654199
0.022430697
-0.06597041
0.0044933655
0.09939101
-0.08901026
0.048692092
-0.09467436
0.0015872113
-0.03830436
-0.051527087
0.046458762
0.053371813
0.0048941677
-0.04774706
0.007777516
-0.0065169465
-0.0087919915
-0.0737616
-0.04221991
0.056554668
0.020144997
0.06168787
-0.031979743
0.013134835
0.04186321
0.040358283
0.11774786
-0.031752717
0.04291599
-0.034881853
-0.07088309
0.039392944
0.03873381
-0.05647159
-0.04563431
0.045188945
-0.07585275
-0.05355599
-0.04186063
-0.038191576
-0.029635262
0.02104835
0.0241326
-0.052168597
-0.022402272
0.057686687
-0.01766921
-0.021376766
-0.009215772
0.061212506
0.031340837
0.023270333
0.10229828
-0.016593492
-0.023402475
-0.017905995
-0.003185933
-0.031754013
0.00066816545
0.0184059
-0.01680784
-0.0053269193
-0.06017408
-0.0506357
-0.033578146
-0.038070478
0.012032058
0.09209225
0.016228102
-0.05068335
0.07278321
0.009232177
0.004956468
-0.0058554746
-0.06798285
0.026779084
-0.00024731254
-0.05219955
-0.001731979
-0.05954911
-0.015199873
-6.243605e-10
-0.02926188
-0.0010346136
0.024542304
-0.013187801
-0.030364688
-0.051106773
-0.011299216
-0.010465056
0.014510106
-0.060809407
0.045508336
-0.039126176
-0.034513023
-0.0003831869
-0.009034494
0.004441477
0.0131448405
0.02246297
-0.018236568
-0.060095366
0.055892807
0.035428043
-0.073626444
0.008726212
-0.010476033
0.032417744
0.06618611
0.06282266
0.045992807
0.07181614
0.027283093
0.024425607
0.007944932
-0.052834973
-0.018306807
0.039800625
0.016727952
0.01795388
-0.050759576
-0.10405875
-0.047196507
0.053640015
-0.05656969
-0.0027042641
-0.009854102
0.06386404
-0.018758474
0.023133622
-0.04155625
0.07444551
-0.0039030656
-0.08602541
0.02344374
0.049126465
0.0006346839
0.09803675
-0.022875527
-0.0216769
-0.03090059
-0.18774724
-0.051802654
0.03173883
0.07045331
-0.103535175
-0.008099678
0.015373019
0.07117399
0.009617286
0.07234582
-0.075210586
0.04414184
0.022416405
0.025250876
0.028188331
0.023894439
0.002060362
-0.103599474
0.022860575
-0.043466188
0.097826086
0.0013563508
0.021571353
-0.032618336
-0.10379326
0.0035884983
0.02100575
-0.010018317
-0.05560169
-0.038386777
-0.03555532
0.032463267
0.028717805
-0.052633304
-0.07942115
-0.06898473
0.018648343
0.042284995
0.051871248
-0.009328862
0.009115415
0.05383519
-0.04197903
0.03452223
-0.008150301
-0.09883642
-0.017408371
-0.049691368
-0.0065055448
-0.025933202
-0.011287954
-0.049866732
-0.037174523
-0.00809018
-0.093649015
-0.057369024
-0.013982831
0.023117673
-0.017713737
0.014194352
-0.008027632
-0.08175109
-0.03101139
0.021742493
-0.08108959
0.0325735
-0.058567647
-0.006370934
0.051453132
0.079325736
-0.0024212413
0.0022083519
0.013982075
0.03680381
0.008881853
0.066702105
-0.00026478877
-0.03185179
-0.00014647392
-0.13689141
0.10753926
0.03201038
0.11129124
-0.036009118
-0.07440308
0.010541918
-0.010893992
-0.014188932
0.080281235
0.04724116
0.06477958
0.07440284
0.060428318
-0.0052896277
0.06286358
-0.026567886
-0.067611456
0.0014709039
0.06296631
-0.0077040736
-0.07101887
0.010743877
-0.07180583
0.09832171
-0.03312609
-0.008444393
0.045628637
-0.0106688775
-0.04323033
-0.040387113
-0.028353646
-0.0024955617
0.04070096
0.11342545
-0.042057723
0.15990981
0.021633023
0.0425105
-0.0127089545
-0.03346657
0.05240342
0.010124387
-0.020576315
-0.008459785
0.0052865
-0.030756086
0.118478425
0.0036048247
0.000296799
-0.029234467
-0.019263035
-0.04884908
0.028591283
-0.06615642
-0.015772687
-0.03951568
0.010677622
-0.05778199
-0.012185391
0.048809808
0.032116894
0.011597256
0.05651065
0.012168019
0.008536758
-0.024377832
-0.044265237
0.016890263
0.042502142
0.020565119
-0.033298522
0.06444215
0.03438503
-0.02865286
-0.0058037033
0.024161812
0.040700696
-0.11044087
0.040662795
-0.04118565
0.005495922
-0.07857675
0.040938623
-0.034416787
-0.062194757
0.0647291
-0.04274141
0.029645465
0.010195974
0.01863115
-0.006701495
0.06426652
0.00056010816
0.06573743
0.06097208
0.04528711
-0.06441604
0.039107487
0.016336288
0.0013542301
0.017552126
0.030462256
-0.013394091
0.014863235
0.039331283
0.027858859
0.06173884
0.039644733
0.026046067
-0.02934146
-0.0064290473
-0.065783665
-0.039361283
-0.05017462
-0.028796267
0.0358587
0.08182547
-0.022607416
-0.00019141457
0.07351481
0.029474864
-0.06818467
0.03735638
-0.016603481
-0.04422996
0.038260616
-0.0147425905
-0.016639441
-0.069270484
-0.021094522
0.013714469
-0.019424135
0.039949972
0.045634434
-0.011789136
-0.00051639415
-0.02185755
-0.042766035
0.010385362
-0.051595718
-0.019624362
-0.07322567
-0.01716776
-0.06981293
0.081199035
0.03418397
-0.057100005
-0.0018580111
0.03453114
-0.050500512
-0.019812368
-0.12175428
-0.00256554
0.013379591
-0.051058702
-0.07639887
-0.016101087
-0.028510457
-0.07061962
0.02136047
-0.06251123
-0.03010773
-0.024108127
0.11756088
-0.03429978
0.15052766
-0.032247026
0.047134783
-0.0921207
-0.052183837
-0.05148088
0.04074031
-0.010402284
0.03851686
0.024044875
0.004849565
-0.0359604
-0.002273712
-0.011099461
0.00938331
0.006611479
-0.051862575
0.0011802111
-0.042736024
0.07121091
-0.011380553
-0.016591446
0.006970561
-0.010679787
-0.06178534
-0.05089481
-0.02187849
-0.009235293
0.018734686
0.068890005
0.05205739
0.056601524
-0.041455
-0.0017651565
0.026861079
0.014034303
-0.033866715
-0.023644352
0.05361684
0.005957935
0.12294413
0.017518062
0.017184602
-0.05050083
-0.04038795
0.021721538
0.034010194
-0.001716204
0.00172328
0.062586255
-0.036321156
0.03536805
0.07442575
-0.040763356
-0.022513088
0.031367354
-0.021332214
0.021901695
-0.006868198
-0.0499563
0.022198806
-0.0032566818
0.07323468
-0.028550314
0.00057427277
-0.0017592602
0.02815249
-0.04647061
-0.060090445
0.029520435
-0.009231736
-0.042216476
0.023262488
0.02563758
-0.090100385
0.114961356
0.027379578
-0.020056728
0.010045172
0.0057659224
-0.067598596
-0.045258664
-0.015369766
0.018773824
-0.05907614
0.09402525
-0.058659967
0.0038643307
-0.07411915
0.035321128
0.0695407
0.02519202
-0.048541807
0.015446054
0.006364359
-0.061480206
-0.07757221
0.059395246
0.051267292
0.0070650643
-0.018650169
-0.08655686
-0.04512603
0.07058694
0.00094016624
0.049591973
0.009492827
0.063027784
-0.041092724
0.009935067
-0.008836582
0.040132005
0.01732981
-0.07141048
0.013639277
0.019654948
0.008396694
-0.020657618
-0.08098942
0.034724012
0.0037675288
0.008996571
0.057452142
-0.0014919736
-0.02149343
0.04055572
-0.004813326
0.004565295
-0.03559788
0.028404064
0.053699512
0.009494904
0.039713703
0.085252576
-0.01788984
-0.044400424
0.042028535
0.0042334637
-0.026892684
0.023417033
0.030099694
0.018647742
0.0013072907
-0.07427708
-0.01120523
-0.009548211
0.027319027
-0.010432662
0.00033967613
0.031529583
0.0010206661
0.05530069
-0.027575463
0.003866072
-0.0028810396
-0.058707286
-0.028635735
0.026675489
-0.052432485
-0.065676145
-0.015982019
0.0116005745
-0.0073159803
0.04092568
-0.013131076
-0.0052591027
-0.030223478
-0.02378675
0.041182064
-0.012163502
-0.016486144
0.009186983
-0.011149464
0.0081892805
0.027869318
0.043864567
0.0153911505
0.017261146
0.023672674
-0.013259837
-0.058884628
-0.06689749
-0.011828427
0.0047584795
0.043034036
-0.019673802
-0.014718052
-0.014226481
-0.02864457
0.057288904
-0.02281076
0.056125525
0.08320667
0.090370394
-0.07148612
-0.07662699
0.018453222
0.010324234
0.102829844
-0.024722343
-0.012929899
-0.027214255
-0.052610867
0.011876389
0.075289056
-0.029735167
0.0664487
4.856986e-10
0.016414762
0.0056544053
0.041683003
0.057826016
-0.020600528
0.07519834
0.015477502
0.06906797
0.024117779
0.042065073
0.0063802814
0.029951198
-0.020461828
-0.041056436
0.005913507
-0.02555558
-0.012436854
-0.10510459
-0.0063989847
0.033484064
-0.021286871
0.11697584
0.052273154
0.03358806
0.009095283
0.00048352854
-0.07941329
0.014295366
0.098088
0.024441464
-0.044695716
-0.044126652
-0.056692053
0.0027468298
-0.03369573
-0.0024271698
-0.046604004
0.0032535496
-0.020647041
0.017397111
-0.016556665
0.025702503
-0.05606554
-0.0012582411
0.0033315066
-0.009367408
-0.050711527
0.04511736
-0.03430408
0.036434475
-0.035481893
-0.062580705
-0.042948563
-0.015246242
0.0013442973
-0.098152466
0.0031111594
-0.012896148
-0.0587816
-0.022410814
0.0027626005
0.052848414
0.023888797
-0.016199728
0.080787554
0.08385085
-0.043155726
0.035641667
0.0037088231
0.027555289
-0.02488883
-0.017849388
-0.048262857
0.013005698
-0.057409603
-0.015304383
0.019172596
-0.02781321
0.040102534
0.040805988
-0.08549756
-0.052947402
0.008303103
0.003870985
-0.11579343
0.10128383
0.023349239
-0.033598635
0.03207648
0.0010182727
0.052320395
-0.034375735
-0.017182397
0.022893269
0.022213899
0.010798583
-0.028244212
-0.032993693
0.0052135955
4.991394e-05
-0.053019155
-0.011031955
0.008934798
0.022779865
0.00832459
0.0036064473
0.010257835
-0.038093284
-0.032687437
-0.001481297
0.10205615
-0.03971147
-0.03773848
0.07175601
0.021633072
0.052618857
0.06977631
0.04691797
-0.091199964
-0.13989992
0.038384616
-0.1246215
-0.04238673
-0.015265762
0.06732759
0.076821655
-0.07341942
0.027261306
-0.006782248
-0.07822112
0.07320766
0.031405102
0.047738876
0.03726814
0.031074086
-0.0037997742
0.04907344
0.05981148
0.06537696
-0.0049235066
0.0534215
-0.0017583561
-0.028516537
-0.034777537
0.045564923
0.01825694
0.014256026
-0.0046344646
-0.043601863
-0.0013052148
0.19280827
-0.029109843
0.0349245
0.09406781
-0.016019125
-0.056729674
0.033687823
0.07195381
-0.036507055
0.08725094
0.030755697
-0.076317884
0.027249528
0.075921685
0.0103513375
0.04448167
-0.027774306
-0.03433586
0.03342091
0.12484821
0.018652752
-0.03200473
-0.034095265
0.035970725
-0.015301638
0.005338824
-0.008013087
0.018007167
-0.0070122085
0.0005350991
-0.027016131
-0.04019419
-0.0248211
0.0038832424
0.10303921
0.07095699
0.011906173
-0.016411439
0.018080838
0.029042786
0.029654566
-0.047588546
-0.007911421
0.02020281
-0.02613082
-0.06780064
0.00023801423
-0.004831249
0.043438908
-0.038910545
-0.0413336
0.04315406
0.011893554
-0.06304367
0.021033987
-0.11049105
-0.08064823
-0.024856545
0.022984207
-0.003551516
0.012801734
0.032555062
-0.07481774
0.05316741
0.022080872
0.0009557721
-0.053324997
0.02239779
-0.014570179
-0.005406596
0.024562018
-0.008852655
-0.001375056
-0.03586066
-0.0064011407
0.040359892
0.09005329
0.057032835
-0.051436134
-0.015703252
-0.029208295
-0.03000065
-0.043549493
0.0075574196
0.07831559
-0.026693597
-0.006526833
-0.12376845
0.060426414
0.021611927
0.044835694
-0.029176071
0.0345597
-0.013073946
-0.034767125
-0.024470754
-0.053732637
0.013314332
-0.04175156
0.030972261
0.030948153
-0.00026153406
-0.06465394
-0.039491
0.028130107
-0.022993375
-0.04876426
-0.026001828
0.02232403
-0.02790514
-0.023802178
-0.050355457
-0.081338346
0.022378342
0.04819013
-0.017168235
0.05754066
-0.021627482
-0.02804424
0.05533413
0.032869197
-0.004446652
0.0003794311
0.06146043
0.03935157
0.16277106
0.035923067
0.011659283
0.04238881
0.083001606
-0.079285406
-0.08271274
-0.05850348
-0.012464529
-0.030950235
0.04244623
-0.033120513
0.013919523
0.061915405
-0.047044985
0.030583454
0.0015021289
-0.043244455
0.09561337
-0.005961845
0.054061767
0.047952995
-0.062761664
0.06587243
-0.020501442
-0.0050933384
-0.072244994
-0.020894315
-0.016623566
0.0036065795
0.13104193
0.12411017
-0.07459719
-0.0006332662
-0.0278993
-0.010915568
-0.032232374
0.015019993
-0.07560211
-0.0206548
-0.037969127
0.020499634
-0.0027327347
-0.042819746
0.0114262
0.120618984
-0.004327399
0.0028852564
-0.024283117
0.05973398
0.06360484
0.009079412
-0.014915649
0.0047811638
0.044009227
0.0043184115
0.0012521151
-0.039197434
0.013245746
0.0036595582
-0.019891059
-0.03209415
0.019201422
-0.059015952
-0.07053637
0.1082289
-0.011537405
0.03293404
0.041427158
-0.076118015
0.11841962
-0.079583995
-0.026825352
-0.060271427
0.045484256
0.022658093
0.06493932
0.03658524
-0.03408111
-0.024148908
-0.022070646
-0.02324653
0.027937727
0.031658277
0.045043275
-0.0112704085
-0.13056394
0.0441494
0.029251693
-0.028294733
0.038662057
0.031411193
0.044636704
-0.01889105
0.017357912
-0.047762156
0.08488185
0.01091538
0.02259081
0.05337701
0.009650233
-0.040201694
-0.015917374
-0.03580563
-0.015376617
0.030798966
0.1098463
-0.029910153
-0.006512598
0.08032741
0.007909273
0.021696776
0.044117782
0.027301682
0.045965277
-0.078467585
0.023426123
0.05385812
-0.043883767
0.0242618
-0.12360477
-0.010853343
0.04373043
0.06396184
-0.0133944135
-0.0032001683
-0.012283466
-0.09724686
0.016744085
-0.02939247
-0.013134026
-0.059945896
-0.062584534
-0.03487552
0.0467294
0.06539772
0.028538197
0.030782588
-0.030721419
0.12633163
-0.0037768614
-0.08862182
0.05392577
-0.08040705
0.121839374
0.011880484
0.020958083
-0.03128493
-0.05243703
-0.009862464
0.02496107
-0.07823114
0.00013666939
0.11598389
-0.03811695
0.048648935
0.049578708
-0.015180833
-0.032168396
-0.014735802
-0.06823296
0.012714307
-0.055839613
0.015635112
-0.0821008
-0.0012553945
0.043408442
0.020577809
0.007851754
0.027562996
0.014427344
0.010125387
-0.009006834
0.04564144
-0.0024112905
0.033667464
0.00073486706
-0.0014512145
0.0070240996
0.06463236
-0.06848912
-0.0015474886
-0.03672414
0.0048422837
0.061898477
-0.0051615736
0.02188217
-0.01572036
-0.13979106
0.0010278895
-0.05647297
-0.05527762
0.06259372
0.020017112
-0.024884148
0.014123283
0.016777104
-0.013978149
-0.055598587
0.020014053
-0.0013536065
-0.010724556
-0.06352042
0.00025963175
-0.026011262
-0.0013434557
-0.016224194
0.070174634
-0.043807123
-0.049318478
-0.004991782
0.002732722
0.037303172
0.06700374
-0.016939158
0.022016387
0.07355561
0.017335676
0.002453147
0.008999728
0.049654365
-0.08295878
-0.05931369
0.009018463
-0.018202398
-0.10153188
-0.0198532
-0.031705223
0.08892914
-0.029837424
0.022520468
0.019212684
-0.005323437
-0.02341526
0.028841246
0.027562778
-1.5293835e-09
-0.025528274
-0.022751484
-0.0030943253
0.039993487
0.061587233
0.11870302
0.00716563
-0.09121834
0.015699014
-0.009987632
-0.046292536
0.03138014
-0.034861296
-0.026618704
0.041733455
0.03434994
0.0629348
0.011152272
0.010104697
-0.08834241
-0.03463671
-0.010598987
-0.052422237
0.053518467
0.008824603
-0.017267814
0.006728986
-0.09269078
0.0282829
0.0029029783
0.018555067
0.032077465
-0.0036375432
0.029455274
-0.032001954
-0.026360491
-0.004047967
-0.030061848
0.032072112
-0.015930172
0.047945015
-0.009856419
-0.10252266
0.02105551
0.0151353
0.08058455
0.0020713964
0.07234701
0.026502427
0.043357495
0.10939196
-0.008856947
-0.062290717
-0.08557615
0.00022016674
0.11134378
0.030382158
0.05334321
-0.04303036
-0.059876032
-0.022118926
0.022864938
0.050369743
-0.012166101
0.018145803
0.028436193
0.0009139656
0.03783963
0.054306626
-0.0070994254
0.038889572
-0.0060051954
0.038025655
-0.0018134016
-0.079916805
0.061309785
0.021022996
-0.025535583
0.12946774
-0.032008857
0.01850462
0.045127805
-0.0504694
0.029002387
0.023262309
0.011910829
-0.08189872
0.0059307427
0.010148358
0.0111185545
0.0712517
0.045118984
-0.11448607
-0.0040575303
0.061051585
-0.023097478
-0.021039039
0.017529381
0.009618029
0.033086978
-0.0130046755
-0.067537434
0.011908976
0.11553112
0.031669777
0.094545804
0.048548542
-0.008332586
0.02236167
-0.11188444
-0.08925032
-0.057032194
-0.012438449
0.077880174
0.08711427
-0.014427458
0.07477042
-0.036753763
-0.037256222
-0.03981337
-0.007821171
0.08637827
0.004216804
0.023938617
-0.010498722
0.018402394
-0.02209723
-0.03426862
0.047252867
-0.063371025
0.011768779
0.047036313
-0.05537165
-0.024074819
0.01107286
0.07455629
0.053292025
0.029107004
0.022137074
0.0095565785
0.0032374728
0.019339232
0.009610075
-0.023912324
-0.0054079983
0.047721777
-0.015458201
-0.013372848
0.004310403
0.071135096
0.037346646
0.009363249
-0.055317957
0.0091254525
0.036185667
0.00515896
-0.0133090615
-0.020642316
-0.02781647
0.0013315985
0.010834498
0.007151499
-0.0042619854
-0.044350535
0.007804565
-0.033562187
0.06641934
0.0067748707
0.06786054
-0.036963206
-0.017588692
-0.07923009
-0.02347061
-0.0070511648
0.02916295
0.10982471
0.07583273
-0.0098617505
-0.04006672
0.03309261
-0.0071326154
-0.007052719
-0.084134296
0.01784909
0.045665536
0.07525607
0.0026716301
0.03071149
0.019580336
0.03461401
-0.049184944
-0.052714888
-0.10902194
-0.074509926
0.053980753
0.09411915
-0.016867556
0.057864167
-0.076364055
-0.019671397
-0.03137508
0.017935075
0.009364674
-0.022723567
-0.008941552
0.06214813
0.056232885
-0.041615747
-0.012805296
0.0062576723
-0.011055931
-0.044899482
-0.05539809
0.0102732135
-0.071301416
0.026923902
0.025878573
0.05287917
-0.086169094
-0.015377988
-0.106396824
-0.048545014
0.028659984
-0.01609764
-0.034696527
0.025868455
0.011936573
0.012571689
-0.023288695
-0.007293552
-0.069339976
0.010610692
0.02435839
0.05681418
-0.104757264
-0.02422399
-0.0058049704
-0.086075015
0.019635934
-0.018914701
0.06880315
0.10630492
-0.017735975
0.07122955
-0.031278707
-0.012876196
0.02418897
-0.04875101
0.0641402
-0.014509627
0.06768834
-0.01115959
-0.105599605
0.011131046
0.011333611
-0.07623598
0.0049975775
0.048197396
0.005004087
-0.0031136726
-0.0040520583
0.049099445
-0.04058999
-0.0043854704
-0.05906415
0.042834222
-0.058070116
-0.029011982
0.023283234
-0.04457324
-0.0011908663
-0.009476902
0.0004242708
0.048908908
-0.057288654
0.02108564
0.07167187
-0.023629822
-0.014313529
-0.0020499812
-0.037670825
-0.05710382
0.06744438
-0.032262303
-0.0067941714
-0.0018237326
-0.01994241
-0.017405145
0.00887414
0.0462194
-0.032768026
0.02490258
0.03644501
-0.0051050154
0.04996753
-0.014127388
-0.035732623
0.0055528707
0.023161788
-0.03488274
-0.094351195
-0.003615034
-0.05570538
-0.026139231
0.046977233
-0.060075235
0.055906333
-0.015624433
-0.06571792
0.059437547
0.11448741
0.0963251
-0.019222766
-0.026830988
-0.0105035305
-0.010365005
0.059118606
0.012078583
0.09978981
-0.015438437
-0.043208677
-0.02221958
-0.019054344
-0.05083866
0.04519085
0.007026888
0.07642897
0.029244037
0.06530517
-0.011669415
-0.03807476
0.022234749
-0.029406806
0.06707849
-0.019755326
-0.029177016
0.05814345
0.060349382
0.002512987
-0.075632095
0.01138271
0.024843235
0.06747777
-0.076534875
0.032940675
-0.03073335
-0.0052070916
0.09108585
-0.03814993
-0.005354175
-0.07404588
-0.019466931
0.05304821
-0.023361465
0.09767257
-0.1344923
-0.09968818
0.012085763
-0.0048749717
0.019492297
-0.013811942
-0.039859366
0.11081634
0.010393866
-0.04519225
-0.06872862
0.012205508
0.104678616
0.032731894
0.021741739
-0.013957512
0.040216967
0.027384412
-0.0018978672
-0.015060902
-0.01155009
0.02618877
0.06319166
-0.022851262
-0.01169828
-0.07305391
-0.075241566
0.039867982
0.040837944
0.014411167
0.0014242808
0.0128986575
-0.013761634
-0.0011781555
0.003413972
-0.012921768
-0.017944722
0.0106476
0.05821706
-0.106169306
0.03277332
0.015866684
-0.070184484
0.0240992
-0.034663547
-0.024451658
0.026105845
0.053088956
-0.046108693
0.08414389
0.012610772
0.010032913
-0.03087415
-0.028303182
-0.056130067
-0.025982127
-0.00014731594
0.042829357
-0.016475243
-0.042788222
0.0029314233
-0.006730195
-0.04894754
-0.0676013
0.01052537
0.03043093
0.056026407
-0.09081342
0.00738438
-0.017817205
0.042804543
-0.0256607
0.036469232
0.04387936
-0.092823274
-0.050404157
-0.05226453
-0.027188262
-0.007970623
0.0017973166
-0.0031100854
0.052791968
0.0741819
-0.016740264
-0.017349921
-0.030945832
0.05292544
0.046247836
0.027462266
-0.016925028
0.01060552
-0.09099094
0.11556318
0.00066288176
0.022989169
-0.0015606582
0.019034797
-0.03921773
-0.05004627
-0.07122525
0.03457703
0.04122478
-0.023643903
0.03603843
-0.0056878994
-0.0031573323
0.003357317
0.010403108
0.04765743
0.005563241
-0.032960888
-0.0021033713
-0.035857156
-0.046679147
-0.010418048
0.0014272804
0.05052421
0.033157542
-0.03832672
-0.017057957
-0.014756299
0.021640047
0.06376479
0.008980456
0.007160279
0.07504592
-0.048248623
-0.0085514225
0.02576778
-0.056211986
-0.030757453
-0.119309805
-0.068819605
0.067516334
0.009322637
-0.056233913
-0.07583434
-0.11672187
0.016145332
-0.100788414
0.12235426
0.026716918
-0.10833914
0.18593289
-0.010690439
-0.02476346
-0.04396853
-0.005050136
0.0101654185
0.016817808
0.051962696
0.036823474
0.016823677
-0.04508252
-0.022690061
0.039807532
-6.2927114e-10
-0.05273888
-0.028007645
-0.002351305
-0.039081573
-0.016033115
0.09863618
0.01305471
-0.035912447
0.025314726
-0.0019126491
0.035852235
-0.027712656
-0.035688277
0.0103783505
-0.014561719
0.06023166
0.014667268
0.068980105
-0.019687595
-0.024568172
0.008711387
0.04846667
-0.054944567
0.04152988
0.08943768
-0.028893493
-0.017663652
-0.04234769
0.016045738
0.025188852
0.0816255
0.0091303
-0.039235953
0.025486466
0.053236794
-0.044163167
-0.049274895
0.019126289
0.062612675
-0.014761074
0.115151055
-0.018323014
0.043745518
0.0077253715
-0.029488768
0.0017295126
0.00652745
0.0029129926
0.012521059
-7.381318e-05
0.014647084
0.0067334175
0.023704953
-0.07252331
-0.029809892
-0.0070371754
0.011330021
0.040995438
-0.012607933
-0.0075565916
0.074551016
0.0587027
-0.010158513
-0.018299818
-0.0151296845
0.05015164
-0.05058895
-0.018086154
0.08011607
0.004370179
-0.032734603
0.0613816
-0.00018982554
-0.09161911
0.0077912556
-0.07172696
0.025464395
-0.008677424
0.021013735
0.012145024
0.015868435
0.068909414
0.042762294
0.04150134
-0.07742395
-0.013736789
-0.018585844
-0.050385337
-0.0030428462
0.006551831
0.09925611
-0.12000243
0.024617318
0.11915998
-0.05273841
-0.001369584
-0.025740013
0.053782415
-0.009909673
-0.0360513
0.018039405
-0.020185867
-0.049288716
0.03489436
-0.0568151
0.026821876
-0.038440567
-0.026229406
-0.008417631
-0.041191407
0.013188445
-0.02373822
-0.061585274
0.06363058
0.015783824
0.01957811
0.004238071
0.0054420684
0.039835483
0.018544417
0.0017656554
-0.020408245
-0.033358697
0.06825887
0.050846346
-0.00889681
-0.005569831
0.034593586
0.0495514
-0.109329306
-0.0053865556
-0.03498427
0.053697664
-0.06600243
-0.012864063
-0.012574046
0.08642546
0.04796603
0.07555192
-0.006075207
0.0024609736
0.03315191
-0.012669617
0.04930684
0.008899584
0.12401724
0.015961204
-0.019036451
0.09099962
0.058332223
-0.008441426
-0.010663777
0.022599006
0.046827443
0.006169748
-0.006761079
-0.044580482
0.007914576
0.007967241
-0.0076788794
0.06102622
-0.013749256
0.009280802
-0.01599629
-0.020592008
0.035848398
0.0155495
0.021305714
0.13767898
-0.009408706
0.0112702465
-0.05428875
-0.046806615
0.0010425091
-0.012347625
-0.027987957
0.020841694
-0.04769901
-0.033742793
-0.035336304
-0.066554435
0.064034924
0.047860775
-0.009510925
0.021355938
-0.039465502
-0.020644259
-0.058709312
-0.04826189
-0.10149549
-0.039633326
-0.042174622
0.045250546
0.00114014
-0.016000705
0.11698799
-0.025262358
0.01992534
-0.07330443
0.016209288
0.061052263
-0.024645982
0.029809732
0.06002985
0.07262557
0.08999175
-0.059517827
0.052180056
-0.02044392
-0.012920078
0.023338724
0.0032494513
0.011845394
0.012576313
-0.024683928
-0.01910934
-0.030164894
-0.01031247
0.06221323
0.024453042
-0.11086542
0.13252842
-0.102132
-0.044438053
-0.018201446
-0.0009203467
0.0678689
0.07152197
-0.055341776
0.024122909
-0.043942217
-0.027294287
0.015017534
0.007156648
-0.05976224
-0.017581787
-0.020992234
0.07118254
0.009104462
-0.036018163
0.077678844
-0.0068783187
0.025716333
-0.0022063367
-0.0023696262
-0.115248114
-0.02687833
0.008642834
0.009942375
0.022958841
0.04490152
-0.021021334
0.026968857
-0.095160566
-0.0042021587
0.05835349
0.02110197
0.10182206
-0.035625685
-0.03201873
-0.055986527
0.014917071
-0.09592762
0.052345306
0.014031707
-0.047016338
-0.021075442
0.006428142
-0.018229032
0.027843319
0.04892906
0.049858756
-0.023824913
0.069247015
0.020982582
0.06212465
0.01869856
0.040445756
0.080293976
0.071755104
0.10929063
-0.042890877
-0.051611133
0.0049848445
-0.005204213
-0.024019383
0.00931247
0.027197571
-0.028636528
-0.018333606
0.01960774
-0.0066612344
0.06022817
-0.02014571
0.09014875
-0.0023077005
-0.029469661
0.071977034
-0.033312052
0.015869364
-0.016937919
-0.028967682
0.06929232
-0.05118113
-0.053147964
0.14314431
0.0014338993
0.12127485
0.0077859457
0.016685458
0.008281905
0.06880448
-0.0042964076
0.039968397
-0.07429485
-0.03780142
-0.035845276
-0.010543758
0.046659723
-0.032933366
0.008720894
-0.011560866
0.05716482
-0.011187479
-0.037882976
-0.021519905
-0.043969136
-0.025338372
0.047644243
0.03133211
0.011046888
-0.02888722
0.024580494
-0.021696914
0.024584891
-0.040074665
0.124553934
0.012170878
0.013596674
-0.07743275
-0.030016925
-0.0032415013
0.00088523893
0.03917252
0.00855152
-0.09556466
-0.0025588027
0.065941006
-0.0419537
-0.0014956914
-0.02667391
0.046840973
0.06697519
-0.015330187
0.062760204
-0.06354551
-0.0029223757
-0.0049525886
-0.019882914
0.06936559
-0.05491348
0.030222429
-0.069883615
0.026160197
-0.121021084
0.04566909
0.0769739
0.066323996
-0.04891527
0.019948414
-0.047142304
-0.058744434
-0.0015891615
0.053796317
-0.0017789481
-0.032511223
-0.008603815
-0.07856528
0.0256503
-0.018676607
0.013540242
0.02902226
-0.053076714
-0.011495451
0.08141318
-0.09967471
-0.04295396
0.005268414
0.012764911
0.020336075
-0.047994632
-0.0013950571
0.06090147
-0.011595392
-0.014283883
-0.027193941
-0.058083814
-0.026920231
-0.0029883627
-0.05137099
0.032292396
-0.021937544
0.11058597
-0.08859837
0.02126141
0.04398082
-0.039307367
-0.06821977
0.051528774
-0.03732834
0.039420053
-0.014180207
0.045619115
0.002507182
0.014402258
0.023220481
-0.0226217
-0.053270224
0.018055236
-0.052218135
0.029408233
0.010940029
-0.04580139
-0.044584215
-0.0015286729
-0.060258344
-0.01627807
-0.068196304
0.05413016
-0.006894116
-0.018469408
-0.06485432
0.009202263
-0.03214425
-0.13347246
0.05338117
0.019409044
-0.00017821988
0.01790587
-0.0021718969
0.040311415
-0.0033156052
-0.011876097
-0.029175168
-0.046788633
-0.005072035
-0.022810988
-0.008454001
0.03234148
0.035223436
-0.061101653
-0.014360434
-0.03284732
-0.064341076
-0.017892186
-0.046754926
-0.04734109
0.042433813
-0.017764622
-0.013329156
0.010647419
0.058265965
0.009727392
0.023078771
-0.009395321
-0.046892088
-0.02172248
0.027570678
-0.039732132
-0.025053412
-0.049996473
-0.06254402
0.028102657
-0.030249525
-0.022362906
0.005094219
-0.058990184
-0.028744875
-0.029831272
-0.034410253
-0.043192275
0.021561123
-0.05864996
0.0030532419
0.033838663
-0.042805824
0.018681025
0.015339929
0.011836168
0.00917666
-0.023632664
0.038678013
-0.011727604
-0.034076292
0.013707765
0.015785217
0.03160363
0.035451375
0.065959364
-0.008056639
0.08149128
-0.019570608
-0.07245493
0.00829092
-0.06371538
-0.059275053
-0.049055874
0.020000968
0.019608397
0.008448262
-0.057410914
-3.6956874e-10
0.047818415
-0.08867502
-0.008068304
-0.06202424
-0.0008654364
-0.085435145
0.0024606243
-0.04530711
0.023941526
0.036926217
0.104441464
0.00015259808
0.0147476
0.0031548194
-0.009502455
0.0040117446
-0.07984588
-0.02447771
-0.1070916
0.032843277
0.13420442
-0.021814102
0.04066021
0.0132427765
-0.03886458
-0.018380664
0.013222471
0.06477273
-0.0027555616
-0.070448615
-0.07042226
-0.008766769
-0.013385211
0.009176508
-0.0076092985
0.05912813
0.030091338
-0.00730412
-0.012182153
0.012835748
-0.029880749
0.007861614
0.062878884
0.099406295
0.011051943
-0.0570853
-0.07081827
-0.011102067
0.01763379
-0.026530713
-0.08151622
0.013808538
0.050086036
-0.0044967104
0.05981552
-0.014654348
-0.056983773
0.022584382
-0.0063236984
0.0055992957
0.01205812
-0.039966617
-0.0030766136
-0.07934222
0.10240191
-0.07172973
-0.08971852
0.0679463
-0.045991182
0.037406888
-0.034788765
0.0035853817
-0.022664791
-0.008791236
0.04849252
0.025704527
-0.0010501288
-0.015025337
-0.014941646
0.0033815305
0.034451857
-0.051606894
-0.04248191
-0.006684699
0.009731051
0.014598193
0.022128526
-0.015402531
0.034769252
0.023640752
-0.13047305
-0.034357496
-0.0032008423
-0.05571173
0.07292934
-0.020257326
0.003195401
-0.05164296
-0.01857227
-0.012822149
0.07451042
0.046530053
-0.016379535
0.044342328
0.051334113
-0.05716809
0.03863606
0.013910181
0.022878343
-0.025255898
0.032203346
-0.022216719
-0.032052703
0.10750137
-0.011293403
0.082606085
-0.038823575
-0.027466044
0.005531463
-0.044705242
-0.016780278
-0.0048957197
-0.02361523
0.05208969
-0.040480345
-0.037399746
-0.030553201
-0.017879019
-0.045179147
0.021752926
-0.028310036
0.13018396
-0.017404886
-0.021085538
-0.002414738
0.061795413
-0.015157391
0.008893237
0.0042303805
-0.053958498
0.006295554
0.05464804
0.042666223
0.011496356
0.01708236
-0.043350674
0.013197293
0.00086283556
-0.004585419
0.12697256
0.013486181
0.015134699
0.028320832
-0.057588942
-0.04505923
0.06911048
-0.015771225
-0.12434491
0.0006245197
0.0049785087
0.048978273
0.04758295
0.035637677
-0.045270283
-0.018243186
-0.03546064
0.010465063
-0.015280968
0.038532376
-0.014225375
0.033411972
0.03569904
-0.027653307
-0.018218946
-0.030309513
0.0131724
-0.025163874
-0.03114285
0.030240854
-0.06947863
-0.0008175727
-0.0005438149
-0.032795332
0.0101140505
0.030310439
0.014278777
-0.032947883
0.026535561
0.07833492
-0.03208395
-0.036237232
-0.009806464
-0.06976676
0.0012539708
0.04670653
-0.05366186
-0.038506545
-0.028001763
-0.04144252
0.07378675
0.009707354
-0.0035140635
-0.052402403
0.105804466
-0.07180314
-0.07781051
0.022361044
0.03130664
-0.02302259
0.023735937
0.006357255
-0.032628883
-0.055875167
-0.11518072
-0.018462382
0.001603708
0.011313789
-0.042519264
-0.021806937
-0.010986905
0.031083403
-0.06710542
0.002564765
-0.00785049
0.046930153
-0.061125718
0.060929276
-0.016595764
0.013835616
0.016071256
0.024490988
0.051346283
-0.024299875
-0.00441861
-0.01884487
0.020996772
-0.0037140176
-0.06336553
-0.01930083
-0.037404783
0.010061207
0.03832272
0.011283282
-0.025465168
-0.020774357
-0.017016705
-0.020961592
0.033364583
-0.012219386
0.12607627
-0.051520295
0.016775057
-1.858676e-05
0.06759685
-0.057122096
-0.0046176165
0.0012218562
0.020151129
0.0011785883
-0.07559618
0.035949767
-0.021908758
-0.047135282
0.011443765
-0.065301396
0.01706374
-0.014190942
-0.015775656
-0.025494566
0.04973074
0.0089916475
0.10055004
0.030071888
0.008404259
-0.05972933
-0.035980694
0.13394074
-0.02926745
-0.0214724
0.03494583
0.11579896
-0.031093098
0.11197531
-0.017424041
0.0069540516
-0.009528316
0.017755175
0.056206133
-0.082061276
0.0026376287
-0.018009344
-0.004925856
0.026934316
0.0057386165
-0.057866186
0.01687214
-0.07926267
0.073685564
-0.021476002
0.0024651967
0.021710461
-0.0883393
-0.0022176572
0.01069253
-0.07811793
0.118498996
0.019280668
-0.04644977
-0.018490873
-0.04120897
-0.09680617
0.035541113
-0.021371016
0.003088816
-0.004860629
-0.039049674
0.057140674
-0.005078537
-0.05092205
0.006464293
0.049421694
-0.005300174
-0.017874682
0.035201896
-0.06419503
0.038196366
0.011931027
0.009113525
0.004735983
-0.016589435
-0.041077312
-0.014087783
-0.054864757
-0.030678667
0.070386484
0.005233604
-0.03404124
0.01941158
0.060652483
-0.0022482933
0.014641721
-0.03840524
-0.085400574
-0.042940795
-0.080224805
-0.02060389
0.037340593
0.08555536
0.0030011546
0.0014591338
-0.0028781858
-0.013261316
-0.041934863
0.017704424
0.01574652
-0.023774037
0.038818274
-0.026309347
0.024119511
0.04811674
0.009820826
0.004481352
-0.024934143
0.019511275
0.08449211
-0.05640497
-0.050446253
0.046500735
-0.020283652
0.03099647
0.08706731
0.054241072
-0.02720485
-0.032499336
0.03140158
0.019937655
0.056924216
-0.092641346
0.048488554
-0.02575917
0.030012427
-0.036883045
-0.031854194
0.09458683
-0.026424501
0.034160994
-0.0034434332
0.03986889
0.013875462
0.025170378
-0.063928686
0.011098191
0.021121418
-0.10126653
-0.037083715
-0.045135997
-0.0022049588
-0.012058793
-0.03354295
6.034903e-05
0.013273194
-0.109866306
0.039222714
-0.032490734
0.040930483
-0.0006663296
0.0030410236
-0.064893685
-0.023384674
0.021463865
-0.06627709
0.022417689
-0.034500718
0.004090045
0.07734759
0.011562087
0.050983768
0.093882345
-0.0054649524
0.017677492
-0.0031722125
0.08424457
0.019345287
-0.044696674
-0.041676704
0.011473762
0.020744817
-0.048683662
0.12667939
0.024542797
-0.0059829685
-0.022632156
0.07744925
0.029075598
-0.07128523
-0.027514135
0.049137596
-0.030700512
0.029654725
-0.036485128
0.008652547
0.013411558
-0.046501964
-0.015180457
0.023469921
0.008467997
0.050385036
-0.06593848
-0.0055754622
0.0039205775
-0.018247359
-0.025009718
-0.12389188
-0.11892683
0.008012385
0.004965339
-0.018426402
0.07421444
-0.07334705
-0.021599283
-0.015857195
0.030962499
0.017633218
0.006752252
-0.07023026
-0.07179362
0.003486351
-0.040240247
-0.027567629
-0.10925193
-0.039152272
-0.0035692593
-0.017206231
0.01640839
-0.017930135
0.032724634
0.02064031
-0.04939017
-0.059718
-0.06867321
-0.04268909
-0.042295516
0.095579825
-0.039269302
-0.068185754
0.120308205
0.09812787
-0.03777302
-0.032723803
-0.03800324
-0.017467266
0.0684185
0.002597383
-0.011295194
0.018593673
0.05609187
0.029397253
-0.02663921
0.022409528
-0.067295074
-0.0092632845
-0.028444247
0.005600213
-0.008667178
0.004492049
0.0040927366
0.044187374
0.0297117
0.036443412
0.015216438
0.021125786
1.2563413e-09
-0.03642559
0.028415142
-0.015560148
-0.009949006
-0.0009817833
0.013917585
0.033957433
-0.06972909
0.059477817
0.06739992
0.053965945
0.069285914
0.050497286
-0.057539094
-0.031114697
-0.0011916083
0.06869909
-0.071277246
-0.06483311
0.04107647
0.024566602
0.078807645
-0.079191335
-0.01173752
0.0055037197
-0.009794144
0.007237411
-0.09512968
0.02245239
0.009053836
-0.114351764
-0.026556915
-0.034790095
0.010736492
0.008586928
-0.20720127
-0.055734877
0.019282505
0.0671023
-0.058530133
0.060251202
0.048935484
0.0008447768
0.014303474
-0.035498675
-0.018352175
-0.021722388
-0.046122417
-0.020227775
-0.065601505
-0.07452609
-0.0028407853
0.0024716416
-0.040474623
-0.024832672
0.024729209
0.00020582808
0.15012483
-0.026985865
-0.026630098
-0.0637129
0.05109453
-0.0069898237
-0.08379063
-0.076219164
0.0056776525
-0.02974486
0.13091058
-0.033465333
-0.05859337
0.025252346
-0.09102959
0.027758026
0.041688014
-0.07752405
0.050772585
0.047344677
0.025444023
0.0023997608
-0.0015901824
-0.011964148
-0.012490813
-0.09387951
0.008141414
0.07125172
-0.005996677
-0.02645323
-0.019179601
0.05642908
0.003976028
0.09610906
0.00079314015
-0.036973946
0.062350404
-0.019528657
-0.023131521
0.094812565
0.010784544
-0.02653801
-0.059165537
-0.027063953
0.044823192
0.014359546
0.093513995
0.021259293
-0.07646096
0.02383618
-0.00983097
-0.017945355
0.02662162
0.011974607
-0.009280054
-0.036909454
0.11056377
0.029628284
0.059143875
0.011218161
0.04148272
-0.023717375
-0.028674278
0.016363636
-0.031895753
-0.040302325
0.012311832
0.021177208
-0.010532411
0.06507138
-0.026381016
-0.041179895
-0.009087555
0.004984216
0.038906112
-0.009603079
-0.015936995
-0.0630821
0.0016202455
0.09655803
-0.00093734945
0.04210357
-0.037160058
0.024082476
0.035739917
0.079203255
-0.009359469
0.0070650447
-0.10697906
0.04424987
0.043789506
-0.016124865
0.108010754
0.032136764
0.024131889
0.024324408
0.07473142
0.03646136
0.05334516
-0.028856093
-0.032360625
0.0030701759
-0.007099443
0.04689683
0.07335621
-0.02757979
0.07560197
-0.12135403
0.01588369
-0.00974871
-0.026731363
-0.023807965
0.05360696
-0.034251954
0.114762954
-0.03404396
-0.0066792965
0.0047746403
0.09861125
0.03453256
-0.0155625725
0.009669105
-0.06104349
-0.05337377
-0.020346738
-0.00490713
-0.014254324
0.01619018
0.064754575
-0.059768494
-0.011216355
0.050509024
-0.02136997
-0.09444296
-0.02732306
0.03329278
-0.04889141
0.026839903
0.07976448
-0.003599152
-0.013243962
0.006572742
0.046220243
0.024205042
0.019137412
-0.03095993
-0.086498275
0.054775253
0.028044323
0.06372105
-0.10782701
0.00534896
0.0025066102
0.0024559274
0.03212516
0.02838759
0.0047276984
-0.024266379
0.002691114
0.011023107
-0.0132722845
-0.0811941
0.0025273578
-0.09117304
0.08191798
-0.009972323
-0.04313318
0.019609123
0.039608855
0.046493664
-0.10130564
-0.056934197
0.013071559
-0.05963173
0.007875994
0.08367192
-0.04527817
-0.02360484
-0.062575325
0.003683037
-0.032748636
-0.03676909
-0.017873174
-0.0068439
0.017508239
0.034626175
-0.04890833
0.018282443
-0.038498368
0.017096266
-0.01904943
0.015741332
0.023817588
-0.03859913
-0.00985388
-0.037266936
-0.017991448
0.02317681
-0.039050493
-0.0064628725
-0.081839144
-0.049015343
-0.00020868455
-0.021170244
0.08334339
-0.02777981
0.011082943
0.012053547
0.06067669
-0.029382916
0.009073683
0.038284317
0.01661924
-0.1839731
-0.038189285
0.025779394
-0.073784456
-0.034946885
0.09966534
-0.007520842
-0.027787698
0.029764635
0.04491896
-0.0018558512
0.060896274
0.055970896
-0.0051336978
0.03631608
-0.0010498565
-0.04765812
-0.02442455
0.04756305
-0.006376205
-0.052242264
0.018616915
0.027946392
-0.04660825
-0.0042807055
-0.016694425
-0.086929426
-0.06332813
0.010138614
-0.06969635
0.031648505
-0.08141281
-0.014007877
0.04562698
-0.042054184
-0.08051412
0.016147945
0.04406267
0.04533096
-0.02510069
0.016045311
-0.03008087
-0.032128375
-0.10427422
0.036410455
0.010797754
0.07820169
0.016588034
0.02561251
0.024124227
0.049534768
-0.023642976
0.0015872042
0.011620857
-0.012331226
0.035450123
-0.009429876
-0.02632816
0.026937798
-0.0045021162
-0.03788239
-0.034627065
-0.0117146075
-0.033930548
0.03471564
-0.014633312
-0.025258727
0.0040520355
-0.015642866
-0.04321221
-0.049959913
-0.040945426
-0.032241635
-0.010637548
-0.0059013576
-0.01843181
-0.017766047
-0.03472176
0.0033397463
-0.087839395
0.03475779
-0.041808814
0.021039369
-0.020206047
0.0040702154
0.07157917
-0.008818565
-0.0032396414
0.08768457
0.07948958
0.072412
0.004886854
-0.029206816
0.031489965
-0.058105003
-0.046564933
0.01767519
0.044793516
0.06090002
-0.0072917757
-0.0014033634
-0.08959981
-0.014150105
-0.018027218
-0.020564947
0.010925447
0.045277327
0.01686838
0.08179499
-0.023091055
-0.047378685
0.023109524
-0.022039514
-0.022480594
0.020812068
0.02811816
-0.023995731
0.012417866
0.015849326
0.0052672164
-0.0035078588
-0.0009602506
0.03618681
-0.012226073
0.039861284
0.012489938
0.034217488
-0.06529747
-0.016409505
-0.031936664
-0.037538555
-0.008070446
-0.12156645
-0.05153905
-0.0013331955
0.040221598
-0.0066907345
0.012798891
-0.034031346
-0.026477136
0.0001768591
-0.024072565
0.023875048
-0.11763547
-0.02425824
-0.004193021
-0.017845625
-0.022509433
0.039555505
0.040389713
-0.018559704
-0.005329094
-0.0280755
0.007021941
-0.0013237365
-0.017340852
-0.013125471
0.014682943
-0.024003714
-0.03635855
-0.022354282
-0.016142314
-0.018847235
-0.06614593
0.01444473
0.019888313
0.04097672
0.024483295
0.069726564
-0.07077549
0.006096226
-0.0012253522
-0.003823883
-0.033937532
0.092545405
-0.0026192118
-0.014492942
0.026780445
0.027631173
0.075393654
-0.00776864
-0.026818043
-0.0028992703
0.060557686
0.009193141
-0.024995992
-0.030289799
-0.09970445
-0.02633769
0.032682557
0.047221188
-0.0014710107
0.10440901
0.03586441
-0.054153163
0.07035019
-0.045698214
0.035784077
-0.019337887
-0.13933101
-0.012674633
0.021603052
-0.005345846
-0.020538097
-0.04173724
-0.009479954
-0.024293985
-0.035487246
0.0235299
0.050235316
-0.039985973
-0.009702116
-0.01439328
0.032258406
0.035753623
-0.017690163
0.05288137
-0.04488848
0.03929622
3.2501464e-06
-0.028850004
0.001387915
-0.026074927
0.033294465
-0.08993836
0.04328341
0.11550523
0.010273684
-0.0040602335
-0.01440822
-0.067718945
0.017554745
0.12245234
0.019336205
-0.061631583
-0.032063767
-0.061646264
-6.766871e-06
-0.047809787
0.01744941
0.028041169
-4.1187145e-10
-0.030677585
0.04034525
-0.08250034
-0.058952663
-0.067466006
0.055359326
0.017679852
0.02231658
-0.04112853
-0.044383224
0.024968613
0.0016267215
-0.0061425804
-0.04128307
0.0016306093
-0.017182296
0.035090387
0.0213054
-0.016857414
0.05218168
0.027524415
-0.06069644
0.097120896
0.015810635
0.00027968944
0.032687154
-0.043621533
-0.094144106
0.0668499
0.038377106
0.057824112
-0.0012610967
0.03401977
-0.014426008
0.003907833
-0.018083708
-0.012059349
-0.020351283
-0.0164625
-0.01036813
0.07367889
0.004876815
-0.006221383
0.060744654
0.0020488692
-0.020587048
-0.015981486
-0.05277633
-0.05618118
-0.015734788
-0.013781919
-0.024415238
-0.031877737
-0.02257164
0.033723846
-0.09565472
-0.07185633
0.014552852
-0.02381948
0.13254085
-0.02084125
-0.091951
0.014562557
0.028271195
-0.013300347
0.019161938
-0.10232702
-0.0067178123
-0.042042993
-0.035465356
0.077217184
0.015632533
0.036200337
-0.008501136
0.022857748
0.00035713328
-0.012568419
0.0028689364
0.032432858
-0.04694097
-0.01626161
-0.087178305
-0.00043101946
0.019915884
-0.043167885
0.051655427
-0.0027882964
-0.0132897515
0.092862345
-0.019326735
-0.050563987
-0.019123415
0.036790185
-0.008460205
-0.0021358004
0.0075997356
-0.05981807
-0.0065217167
-0.049522243
-0.013327918
0.022901727
0.013100977
-0.06213952
0.13642856
-0.050200023
-0.051196586
-0.07909242
0.01881313
-0.0081075495
-0.011944562
0.0062528313
0.029130114
-0.028610956
0.08653928
0.046405192
-0.056723237
0.07691766
-0.0035817607
-0.0052335323
0.03816644
0.005542393
-0.05498681
0.043228943
-0.044973962
0.08786721
-0.019761816
-0.03989721
-0.021515487
-0.027190136
-0.031062994
0.058498792
-0.036952775
-0.023794811
0.019613829
-0.012081191
-0.010446407
0.028135115
-0.077750504
-0.004265312
-0.06059757
-0.0206572
0.021268526
-0.027914224
-0.04342263
0.021082122
-0.019036068
-0.016039897
-0.046928696
-0.0144041665
-0.039806996
-0.09198424
-0.005326079
0.03359146
0.059390236
-0.027181445
0.050592672
0.052508585
0.015904503
0.002407412
0.038487498
-0.008322653
-0.0051204036
-0.008219544
0.005402578
0.032109845
-0.06080688
-0.060848862
0.01486911
-0.043151915
0.061440203
0.0856918
-0.013148652
0.02665462
-0.00010122981
-0.0047919927
0.02583512
0.012880057
-0.025139831
0.040721137
0.07342626
0.060480025
-0.0041868426
-0.02877637
-0.008460653
0.025116192
0.014415293
-0.0018915371
0.10026399
0.034947556
-0.0054258257
-0.055337865
0.05083769
0.0030415559
0.04718226
-0.08836757
0.13369659
-0.009920976
-0.06689006
0.051626187
0.03089294
-0.009108536
0.09820658
0.011062445
-0.02136213
0.030217746
0.0083560515
-0.002689702
-0.01846501
0.0274405
-0.06332442
0.056000568
-0.008091966
-0.00820751
-0.08407516
-0.06531185
-0.0019634059
-0.023187162
-0.008233321
-0.020836107
0.012220036
0.030269036
0.039904762
0.11765844
0.023511132
-0.0023522943
-0.0147125395
0.013234738
-0.031663414
-0.024010086
-0.032690477
-0.07211064
-0.021204893
0.05462179
-0.0076045324
0.009822002
0.03866053
0.0081373695
-0.010492526
0.012723423
-0.016353238
-0.07987223
-0.05578638
-0.09398639
-0.007849105
0.04123456
0.06492118
-0.0014009624
-0.06161409
0.06526102
-0.13010386
-0.04647114
-0.09358314
0.006008204
-0.09968584
0.09800021
0.036210492
0.08631886
-0.035436045
-0.084006734
0.005813338
-0.061276726
0.033714827
-0.013193434
-0.014890787
0.06774999
0.07296185
-0.021170849
-0.038251217
-0.036560766
-0.0598275
-0.023968132
0.07754799
-0.0047221887
0.0881176
0.01027518
-0.016707888
-0.02429939
0.040480085
0.031105908
-0.086708084
0.039368495
-0.059292763
0.05696978
-0.009110123
0.015074472
0.014874123
0.003053116
0.12561281
-0.012555577
-0.018934093
0.024617683
-0.0323016
0.06768075
-0.011756635
0.00887204
-0.09160768
-0.044516243
0.076557234
-0.03481976
-0.011511283
-0.04611975
0.008585884
0.04242499
-0.039078806
-0.064197645
0.053059377
0.00535385
-0.009925762
0.0065399786
-0.023022367
-0.08603211
-0.006881651
0.020615293
0.011412125
-0.020584915
0.021088757
-0.0086862035
-0.042505592
-0.023097593
0.0216018
0.046903573
0.025646558
0.050131306
-0.0033453272
-0.05220067
-0.038131513
0.038386185
-0.030414777
-0.03266734
-0.05010664
-0.010390913
-0.024417186
-0.034064673
-0.067693114
-0.0051555084
-0.01621782
0.0010837788
-0.045304958
0.08878631
0.0075717745
0.028426101
-0.009476537
0.051200915
-0.064143434
0.019296058
-0.042607274
-0.024292601
0.10288566
-0.007880895
0.020888103
-0.062003117
-0.036731645
-0.042424977
0.09042575
-0.057850234
0.039991647
0.042525362
-0.07844754
-0.009215464
0.03694091
0.037087344
0.007986875
-0.02683797
0.045097474
-0.034035664
0.017159026
-0.01570274
-0.075202584
-0.05777524
0.009158381
-0.09559387
0.11341642
0.02248216
-0.019056268
0.10087477
-0.0068189544
-0.01984255
0.016752327
-0.0359834
0.040799525
-0.044378065
0.019586312
0.047129706
-0.027407253
-0.0012057627
0.037747964
-0.068374194
0.021522818
-0.04903495
-0.024190577
-0.02021305
-0.016406285
0.030089954
0.016191365
0.021543238
0.0075413557
-0.021583665
-0.021882
0.013200027
0.0050271214
0.027438875
0.027769782
-0.07677861
-0.016760241
-0.12185429
0.019966409
-0.07014455
0.0106491875
0.034738295
0.00937302
-6.195382e-05
0.043083537
-0.00095806696
-0.012144516
-0.16927877
0.01408899
-0.0059670093
0.0073958994
0.07863233
0.007164738
0.012913895
0.013788096
-0.011267266
-0.023174973
-0.031792123
-0.001278245
-0.015810773
0.034226794
0.0015253924
0.022751782
-0.055542212
-0.03756884
0.053234387
-0.011563217
-0.021069542
-0.06881143
0.013075708
0.045547385
-0.02220703
-0.03257308
0.014758818
-0.0019860761
0.03308205
0.03707207
0.013635245
0.035764277
-0.007551708
0.022826327
0.0010182598
0.025134915
0.0027308718
0.015945677
-0.015852036
0.071460426
-0.014373979
-0.004070212
0.04003383
0.026732827
0.015360697
-0.045870785
-0.0016439449
-0.009544453
0.020452384
0.099131554
0.007794222
-0.05368553
-0.0026224232
-0.037214313
0.008764351
-0.13853553
-0.1293859
0.005211034
0.027991597
-0.033200376
0.05007966
0.029004863
0.0071913223
0.083833784
-0.023536516
0.040125046
-0.010193259
0.043867067
0.016542772
-0.015835725
0.07464865
-0.05135192
-0.05853805
-0.022137474
-0.02799315
-0.0058544404
-0.05073653
-0.017824244
-0.040598277
-0.018119873
-0.087379456
0.050030727
0.041122615
-0.013691513
0.025694428
-0.004174281
0.01906477
0.0096682925
0.02536929
0.0051654642
-0.04313904
0.009577662
0.015702548
0.038774073
0.009347053
0.014577407
-0.035276152
-4.220357e-10
0.046496376
0.012292802
0.022406556
-0.058159713
-0.021193272
-0.07443742
-0.012991683
0.036195617
0.011559418
-0.034272123
0.044850625
0.05883896
0.025903793
0.01211187
-0.022942718
0.044816606
-0.023702214
0.052380484
0.014896877
-0.0016711168
0.12530977
-0.02899319
-0.03906002
0.0006048977
-0.020874664
-0.021772219
-0.03574534
0.008378207
0.16141155
-0.013074482
-0.019932214
-0.10141405
0.029342862
-0.016768156
-0.014732996
0.10782202
-0.012057565
-0.033777393
-0.0026490474
-0.045531563
0.038578242
0.0054980777
0.0060391393
-0.060666386
0.011783162
0.03918758
0.05442978
0.03628075
0.03641537
-5.504808e-05
-0.061513957
-0.033453237
-0.0039153546
0.043871313
0.010365256
-0.06692646
-0.11944045
-0.021425545
-0.04089028
0.025549475
0.05423763
0.046497975
0.043463908
-0.014640808
0.03648417
-0.07582939
-0.024368046
0.09651059
0.014844132
0.07390553
0.0071404427
0.048292946
-0.003556053
-0.022098273
0.037802886
0.0014574726
-0.018467207
-0.02867354
0.08504159
0.041382313
-0.027325341
-0.021674784
0.028477283
-0.0858236
-0.040919483
-0.03962051
-0.02948474
-0.052895315
-0.00063110725
-0.00047043132
0.07245286
0.03502008
-0.032838427
0.01711762
0.028955659
0.030894963
0.046204165
0.02940062
0.0021023778
0.06192497
-0.037491444
0.014212838
0.021441717
0.016194493
0.044389166
-0.07970186
0.0025027837
0.050598133
-0.06968861
-0.030012948
-0.03842824
0.022380166
-0.011674813
-0.017247591
-0.04055061
0.038904652
0.0068163374
0.06164877
0.017639244
-0.005216719
0.0056955703
-0.0039633503
0.010508064
-0.02428166
0.03135337
0.017918473
0.014438542
-0.031091161
0.0014442909
0.05153416
-0.018794691
-0.026943749
0.0119673135
0.040476598
-0.0008764696
0.03376569
0.0576018
0.07981311
-0.050047867
0.017676543
6.751702e-05
-0.008953468
-0.061051276
-0.09945882
-0.023529759
-0.03482694
0.016448252
-0.024738131
-0.053807475
-0.09671136
0.021741923
-0.030746954
-0.02485435
0.092734896
0.007989023
0.17205389
-0.0303506
0.017075863
0.0625641
-0.0005758833
0.025859248
0.16862997
-0.024792032
-0.03491419
0.0013739273
-0.05094965
-0.014137519
-0.006330465
0.020601926
-4.1077154e-05
0.030922132
-0.03995725
0.025494505
0.0018156406
0.003688567
0.06436734
-0.019478587
-0.0073006637
0.021677999
-0.016417637
-0.011194629
-0.030519838
0.0061044083
-0.04626798
-0.01730844
-0.057966918
-0.032825343
-0.013963848
-0.061541818
0.070026375
0.010995802
0.078849524
-0.014055096
0.032944735
0.013453244
0.041198287
-0.013808564
0.0034885746
0.055326495
-0.058566604
-4.1185926e-05
0.03988192
0.009394424
-0.09250799
0.040299375
0.043768242
-0.12358928
0.14927411
-0.0048747496
-0.0013274828
-0.0027767615
-0.006392925
0.01968627
-0.061319526
-0.006467138
-0.039503254
0.09191525
-0.018599708
-0.003316353
-0.010716874
0.07619907
-0.028992211
0.015020348
-0.031534865
0.01839942
0.03631269
0.042741094
0.05166914
-0.098045476
-0.021333482
0.005701304
-0.010414524
0.03911287
0.0066794516
0.02650856
0.02333609
0.032472257
-0.117757946
-0.047128405
-0.01585703
-0.099849254
0.05664934
-0.008848603
0.037916042
0.061536208
-0.025205296
-0.00039930394
-0.011185639
-0.025625525
0.02666842
0.020829514
0.03956209
0.028547429
0.043325435
-0.028964093
0.0021317704
-0.027597915
-0.029979426
0.004644206
0.044773903
-0.009345302
0.021618504
-0.044530474
-0.08343906
-0.050680496
0.046912223
-0.0470781
-0.045873273
0.07711127
0.022504691
0.033508018
0.047909304
0.049156163
-0.03805416
-0.021560384
-0.055417348
-0.016167063
0.0111274235
-0.093024164
0.022946732
0.017864244
-0.032939572
-0.017323002
-0.049304586
-0.057253182
-0.006838445
-0.0019520341
0.04034315
0.013078333
0.044295356
-0.039922073
0.034526832
-0.03133008
-0.019288266
0.0068057487
0.05379054
0.035741318
0.03343145
-0.041093227
0.015838442
0.05915968
0.0019560233
0.00037466027
-0.06227532
-0.0014882145
-0.05073917
0.08217672
0.07329507
-0.0025775107
0.03090933
-0.033923857
-0.11371628
