0.007988792
0.019979617
0.004191492
0.016175715
-0.08813637
0.012584925
-0.04128718
-0.020354742
-0.015402034
0.045363314
0.016124466
0.04432944
-0.0053793704
-0.009774326
-0.014085351
-0.0017459117
0.018052956
-0.036674507
0.013655582
0.0057726977
0.13033183
-0.031056184
-0.014763671
0.04087565
-0.0070821713
-0.02552954
0.03302198
0.014043233
-0.013832686
0.014804006
0.039536938
-0.046519753
-0.056521323
-0.035524324
0.0016837174
-0.0012735988
-0.05603813
-0.016528374
0.018032188
0.00010194037
-0.020023262
0.01620379
0.011763737
-0.026023204
-0.0017807343
-0.012420817
0.00089737226
0.048953086
-0.1532712
0.014849612
-0.049129944
0.010670335
-0.046822224
-0.013922425
0.013302746
-0.028279737
0.091280065
0.00037436502
-0.001584244
0.0030234156
-0.16598909
0.012327339
0.023590334
0.021593822
0.0115645
0.033488102
0.09987329
0.013774038
0.022070985
0.029075978
-0.023032991
-0.008001513
-0.010961123
-0.022183446
-0.13988687
-0.029218325
-0.0029811095
-0.010424288
-0.0067057223
-0.0032448436
0.0068239123
-0.029288715
-0.015733592
0.059496403
0.013616577
0.003641717
-0.053694423
0.0041007446
0.017849684
-0.018460432
0.046687458
0.024897365
-0.00086378586
0.011691984
-0.021652613
0.03926454
0.0019568126
0.06430421
0.00901069
0.023536718
0.028174682
0.0125680845
0.024521371
0.01195431
0.025613174
-0.054121647
-0.022315918
-0.026424954
0.022821316
-0.021056265
-0.037019752
0.01396334
0.0040171817
0.042311996
-0.028954417
-0.015910361
0.018688064
0.010969074
0.024765203
-0.001034841
0.002239403
-0.012351268
-0.04315693
0.010522611
-0.005757274
-0.00384179
-0.044824205
-0.050463818
-0.03227997
-0.031950947
-0.008240661
-0.011147104
-0.0015367904
0.0062901326
-0.03729738
-0.017840127
0.011233515
-0.017215239
0.2684355
0.007187493
-0.004580504
-0.013325441
0.05518501
0.010555705
0.0051999902
-0.014340912
-0.015021578
0.027248017
-0.0056100953
0.01826118
-0.069817506
-0.01572652
0.08972466
0.002026724
-0.00056232885
0.10418391
0.0005688456
-0.0317076
0.042705406
-0.024377389
0.006997567
-0.039568473
0.016136484
0.013636299
0.025049776
0.0018491392
0.055363487
0.0018366127
-0.0199701
0.029880144
0.0048578363
-0.016197484
-0.07193789
0.0039364533
-0.030040933
-0.012264201
-0.021246504
0.005312325
0.048174802
-0.00016845494
0.016718633
0.014661243
0.006339753
0.016023768
-0.16937488
0.0017768452
0.014088051
-0.0030942045
0.023937827
-0.040320903
0.0057618157
-0.0116928145
0.02790261
-0.040060837
0.011553293
0.053348303
-0.0034642185
-0.003834293
0.02009484
-0.013382853
-0.024551142
0.01567343
-0.034727767
0.021453787
0.0095458515
0.0015622446
-0.015941618
0.017533364
-0.015614587
0.004348965
0.01297279
-0.010319494
-0.0081399195
0.037229795
0.020643713
-0.022978317
-0.00028670862
-0.00043738517
-0.02676039
0.011076087
-0.024058325
-0.012174564
-0.01702865
-0.004165297
0.040395785
0.0048267283
0.019731864
-0.013040432
-0.017297251
-0.029959155
-0.018776065
-0.026851777
0.02483623
0.05384988
0.017334139
0.008106858
-0.04107978
0.0068457504
0.0015865433
0.0022299297
0.0074076606
0.016882446
0.0018605213
0.02878328
-0.012401866
-0.027120812
0.029420355
-0.0360406
0.011766474
-0.027098432
0.16674724
-0.03636965
0.0051178983
0.014939989
-0.0073055164
-0.03584792
-0.0046385545
0.039185654
-0.018236138
-0.05289282
-0.004898369
0.028566714
0.013543138
0.061825585
0.017654823
-0.010710332
0.030138627
0.031298216
-0.014176453
-0.04585564
-0.05339161
0.0032104452
-0.02176572
0.032745313
0.02638996
0.0044113044
-0.0024764996
-0.027346343
-0.08059728
-0.020239595
-0.034436624
0.012964803
0.030106544
0.07081591
-0.005243916
0.012208259
-0.013977202
-0.00616948
0.0364321
-0.049720652
0.021169307
0.10801111
-0.042674396
0.0317803
-0.03275462
-0.08357676
-0.0408822
0.019595591
-0.001057147
-0.010217986
0.01792551
-0.041752808
0.021492423
0.016975679
-0.043238092
-0.0005444405
-0.016548287
-0.063313335
0.029059647
-0.02113802
0.0053648287
-0.05244093
-0.0060013193
0.011901169
0.0111568
-0.033874672
-0.008645438
0.030919656
-0.029995304
-0.004635908
0.024466319
0.007680115
-0.015061834
0.070173025
-0.009925091
0.005202015
-0.0094746975
0.033932395
0.021807974
0.033350453
-0.01037351
0.043910015
-0.07069284
0.023787975
-0.031458456
0.08002803
0.013447372
-0.013459193
-0.016661031
0.033861794
-0.015446379
0.031248253
0.058139957
0.032533206
0.004729914
0.13262515
0.0071228757
0.03519061
-0.02465905
-0.01678773
-0.085310854
6.930996e-05
-0.10647152
0.036454134
-0.119059354
0.0015988424
-0.003917613
0.012126091
0.010500756
-0.017234312
-0.022831134
9.4615556e-05
-0.113239594
0.0051095425
-0.015949115
-0.028552184
0.04311044
-0.045786966
0.0048155827
-0.048826132
-0.010279438
0.012753836
-0.051162973
-0.0003294866
-0.032792144
-0.00041838482
-0.012655481
-0.078665376
-0.0006586852
0.025060361
5.353725e-05
0.045851875
0.026123445
0.0073440326
0.0051647234
0.040221553
-0.01445391
0.01859031
-0.010937411
-0.11970553
-0.008128827
0.01164058
-0.017975707
0.026397623
0.0165381
-0.014852213
0.015061763
-0.014080363
-0.04618973
0.0080476
0.06903392
-0.08227454
0.01732905
0.09133643
-0.053124756
-0.049758416
-0.05647124
0.040059518
-0.017530818
-0.0150127895
0.0055845743
-0.00194362
-0.06543619
0.034093022
0.016591772
0.057631776
0.004102047
-0.0024134147
-0.035191443
0.08246585
0.0160028
-0.025396066
0.052669074
-0.07197557
-0.059688225
0.006087569
-0.02936542
-0.00037866493
0.054951914
0.02542902
-0.006070257
0.04265859
0.0142184
-0.005250005
0.008074175
-0.012469031
-0.073553525
0.0221679
0.032150663
-0.011024072
0.021547562
-0.035830107
0.012847078
0.004739756
0.010157789
-0.0067865145
-0.050730713
-0.0019915316
0.009619876
0.061782084
0.06424872
0.033906233
0.02350128
-0.006781731
-0.030484602
-0.066517614
-0.005115952
0.037670378
0.0132119935
0.072839044
0.107260115
-0.04119547
-0.07074951
-0.04476741
0.016031021
0.060720444
-0.004761192
0.0728126
0.014676179
0.035793748
-0.02258133
0.02237548
-0.007479541
-0.04858032
0.0007095526
-0.0047243536
-0.041800473
0.000958432
-0.03985259
0.07016538
0.12493164
0.021514706
0.004066236
-0.0019557376
0.17016451
-0.044556007
0.024373885
0.019658366
-0.020706164
0.025900377
-0.01031824
-0.04206236
-0.0156614
0.001275341
0.02227028
0.013628918
0.0927309
-0.114824146
0.03933199
-0.011874989
-0.02072073
0.008263408
-0.006613252
0.009661584
-0.046604116
0.02786162
0.02519418
-0.012280429
-0.011595159
0.086989574
-0.04475694
-0.026823346
0.0040773842
0.006537643
0.02050998
0.032061942
0.055074915
0.0043816455
0.023964299
-0.031096162
-0.044272445
0.015494865
0.003116703
-0.030585792
0.017527971
0.013397528
0.11491357
0.008443086
0.023150979
0.028355835
0.00956079
-0.044869162
0.0035769092
-0.0037027074
0.008126593
-0.00825221
-0.07548099
0.060433127
0.011754601
-0.01809365
0.023164917
0.018337745
-0.04924959
0.016614892
-0.037857898
0.034976527
-0.056889348
-0.09149534
0.060061034
-0.00020271391
-0.012344926
-0.053092424
-0.054426264
-0.020319689
-0.005602566
-0.024404272
0.061855197
0.051168703
0.0034674408
-0.049921155
-0.01071015
-0.026509173
-0.00701954
-0.017108858
-0.014354934
-0.030716216
0.023674825
-0.05564701
0.0057066446
0.0058233747
-0.009511713
-0.057682406
0.0011996896
-0.0018534687
-0.03264642
0.09377558
0.038569942
-0.0039773514
-0.00082473
-0.045726355
-0.02798222
-0.015865082
-0.02579559
-0.050443023
-0.005066876
0.04036117
-0.020209074
-0.032748576
0.022953553
-0.0690372
-0.02793448
0.016916696
0.03880816
0.07363274
-0.031605408
-0.0029796031
-0.11748289
-0.048332404
0.033411477
0.0011228586
-0.0055035483
-0.021822061
0.03531868
0.08583071
-0.005686562
-0.015070566
0.061877113
0.059342135
-0.003926714
-0.029443216
0.22702126
-0.016372474
-0.049539573
0.010228681
-0.037938442
-0.0011597484
-0.015039872
-0.013761696
0.025266023
-0.037142593
-0.01617563
-0.048080184
-0.012760443
-0.043289073
-0.09892724
0.022104608
-0.034891795
-0.003950361
-0.025793083
0.0039020348
0.015409445
-0.045329206
-0.01633703
-0.069832146
0.010319114
0.04200813
-0.027722761
-0.009268882
-0.02889256
-0.02311029
-0.042697974
-0.006420153
0.017058607
-0.0106051415
-0.03130576
-0.079685904
-0.011176269
-0.01165542
0.044700634
0.033465702
-0.028461605
0.013739721
0.009293602
-0.00860451
-0.015364842
-0.031892363
0.11566797
0.04567244
0.03609408
-0.027543934
-0.0019998422
-0.00487701
0.016085237
0.02414064
-0.012668682
-0.03370366
-0.087394565
-0.029678324
0.08855809
0.022146098
0.03858932
-0.015593341
-0.0038399487
-0.010558594
0.062058143
0.014865697
-0.029501904
0.06276499
0.008260479
-0.1206902
-0.034133915
-0.0066683344
0.02299387
0.039256167
-0.072161816
-0.0036122717
-0.031029804
-0.02278936
0.012287994
0.061511673
-0.10328834
0.072392255
-0.18616533
0.0025558001
-0.04870717
-0.07716422
0.02888082
0.0070231864
-0.0957618
-0.030153677
-0.025815703
0.010554746
0.05117837
-0.101794116
0.055577077
0.110308535
-0.0049671615
0.18063176
-0.0064488533
-0.0660989
0.08995926
0.09655688
-0.04234035
-0.020522302
0.031854827
-0.013189066
-0.022433953
-0.007363582
-0.005728199
-0.012377102
-0.008140857
-0.022935372
0.1393562
-0.024414789
-0.028246827
0.012181879
-0.0380661
0.009023928
-0.026824076
-0.015708765
0.0008278906
0.006429759
0.023523588
0.043562748
-0.08626986
-0.027691266
0.03392264
-0.011856323
0.04773358
-0.14763367
0.027201334
-0.14075069
-0.056061793
-0.023138434
0.054407082
0.013978454
0.01748272
-0.06183123
-0.026409876
-0.066601254
-0.0038651957
0.005077579
0.01394119
-0.025143037
-0.028609034
0.044538718
-0.00043446088
-0.030242046
-0.025406284
-0.022618083
0.047298815
-0.0030268917
-0.017548896
-0.11007272
0.023830773
0.0448215
-0.07479632
-0.013524543
-0.021644948
0.04953103
-0.015296803
0.022484113
0.06646279
-0.0023511054
-0.04868618
0.010894112
-0.0068720886
-0.006723847
0.020315316
-0.030926803
-0.0051048137
-0.0122810025
0.035992887
-0.010388081
-0.025556393
-0.03934047
0.026146011
0.020460142
-0.017788665
0.005489566
-0.0054468513
0.11740749
-0.035955902
-0.023122726
0.002682533
0.020685155
0.0055951076
-0.00221073
-0.0050412077
-0.010216826
-0.023821939
-0.055644978
0.009522958
-0.016199572
-0.0915365
-0.06415619
-0.0009895338
-0.013484818
-0.003545828
0.012936248
0.036263254
0.017668094
0.018946858
0.04052841
0.03408305
-0.013004348
-0.0096744355
0.020303313
0.05026737
-0.053583734
0.048859905
-0.036964614
0.0028070777
0.00823387
-0.013105743
-0.027443837
0.011480426
-0.12075137
-0.0279946
0.021404989
-0.01382526
0.016413217
0.0106065385
-0.025240991
-0.047265947
0.022873545
-0.006172836
-0.06785067
-0.055022176
0.042395156
0.0044037155
0.006609514
-0.05841997
0.018625204
0.00065652124
-0.035222925
0.035968587
-0.07144726
0.004202763
0.024337098
0.0025307627
-0.06349154
0.07066086
0.02766317
-0.021285664
0.015537158
0.019790553
0.0019921244
-0.051012643
-0.025419608
0.04740839
0.0325418
0.019661691
-0.008102687
-0.02857676
-0.051880367
0.030994246
-0.0014717476
0.047835212
-0.06497857
0.044361822
0.058889862
-0.035212222
-0.04277727
-0.03144943
-0.048528604
0.040314928
0.040145874
0.017427938
-0.0058028605
0.048912067
0.00056152453
-0.030636206
-0.0043619713
0.043769762
0.026938807
-0.0066765873
0.009878073
-0.03817157
-0.0056504416
-0.03934325
0.06727606
0.015370412
0.00042217606
-0.17055713
-0.11349536
0.16391422
0.046190403
-0.011934015
-0.03891035
0.040454395
-0.003878871
-0.007814007
0.009284758
-0.026205877
0.014245879
-0.033103354
-0.0034407717
0.001808903
-0.06620724
0.018342312
-0.051651645
0.06779372
-0.013698119
-0.047996353
0.017232668
0.024850829
0.029199254
-0.01579876
0.014176604
0.020701742
-0.010862494
-0.032353133
0.024910064
-0.030092925
-0.005383239
-0.029625865
-0.019004567
-0.06792397
0.023885531
0.024978228
0.0044539296
0.02548509
-0.03911458
0.08464658
0.02591534
0.05621162
0.00063568214
0.008562846
-0.054434597
-0.096816555
-0.0026432604
0.008139203
-0.040824432
0.00959623
0.033349156
-0.014480502
-0.057037413
0.037180644
0.087352864
-0.007862935
-0.03676235
0.022159299
0.013436821
0.006348605
-0.013427187
0.056268934
0.025017038
-0.047667198
0.05722281
0.023158222
-0.043014806
-0.21803936
0.0679904
0.072802305
0.024321958
-0.031345926
0.00025272073
-0.020785058
0.005297011
-0.042867497
-0.035417978
-0.07314019
-0.04455515
0.09599399
0.029911442
-0.013313842
0.059413016
-0.012566965
0.02100982
0.005875535
0.01624422
0.01071001
0.018205946
-0.043264665
-0.057810623
0.048274785
0.015783945
0.04362845
-0.025719233
-0.023882013
-0.040337212
-0.025958594
0.0033678366
-0.032288156
0.011826858
-0.074660935
0.017463172
-0.05197503
-0.020794114
0.073150106
0.010100914
0.037303362
0.014055693
0.0062777465
-0.031225124
0.041961584
0.020293612
-0.01903887
0.026375122
0.010897133
0.02785486
-0.06214204
0.004147952
-0.020710336
0.008977215
0.015815558
-0.0638962
0.020919215
-0.015616479
0.075554706
-0.02274995
0.012677314
-0.024325695
-0.012176399
-0.055254605
0.014089253
-0.031674735
0.011200927
-0.094007924
-0.040159903
0.019600878
-0.009392278
0.028079173
0.026861088
0.012446771
-0.025324084
0.025680771
-0.11187886
-0.0029366736
0.09744422
-0.060686678
0.0098450035
-0.0021299617
-0.010480499
0.03753843
0.08151927
-0.013624287
6.388611e-05
0.029026348
-0.003857413
0.09481347
0.021202661
-0.03838116
0.08317187
0.009120142
0.0134903435
-0.047125656
0.002327393
0.07778845
0.04042305
0.02126724
-0.02438267
0.029279983
-0.023315076
-0.089081846
-0.055221133
0.015951961
-0.032969266
0.03453629
-0.010297341
-0.032600086
-0.0060210535
0.035302777
-0.027412506
0.1555402
-0.038397994
-0.04545105
0.00025624066
-0.043481912
0.004634445
-0.05126454
-0.017553637
0.018838642
0.008380866
-0.012137872
0.0006280043
-0.011450016
-0.03192779
-0.019716023
-0.014422371
-0.017610403
0.025456274
0.0060911523
-0.001533655
0.03570073
-0.006436045
0.01695546
-0.03869702
-0.0007796256
-0.040940493
-0.00872742
0.03570961
-0.012253719
-0.0056650857
0.008165394
0.02026428
-0.0014865306
0.030108536
0.012772143
-0.022196868
0.010649457
-0.009251108
0.03897744
-0.04275274
0.0753654
-0.02681939
-0.00974585
-0.012699605
-0.019556034
-0.1074299
0.038368564
-0.050045617
-0.0136521645
0.014916465
0.0030054953
-0.026077002
-0.0031235164
-0.044982996
-0.015865263
-0.0076834657
-0.08743915
-0.04107287
-0.06159033
-0.035200313
-0.047862083
-0.038605165
0.018956546
-0.0355956
0.021064015
-0.031186013
-0.030338598
-0.027079374
-0.08272187
-0.007451545
-0.0597232
-0.012668907
0.036933333
-0.10375011
0.101952806
0.050923504
-0.018939177
0.0053383843
-0.005466971
0.043752603
0.0012507375
0.002785385
-0.06705433
0.051136166
0.016892763
-0.01616674
-0.0076559517
0.00038804975
-0.045970846
-0.021163568
-0.022014659
-0.0062473384
-0.08096542
0.044835806
0.035053276
-0.0082918545
0.05397415
-0.027128352
-0.028921261
-0.03653978
0.038817864
-0.024415916
-0.03383479
-0.031343345
-0.007890271
0.07054595
-0.036719672
-0.04219745
-0.009657605
9.398982e-05
-0.031499546
-0.08392685
0.01068105
0.046893477
-0.008050645
0.0059426893
-0.052055925
-0.017285995
-0.055780917
-0.0056044282
-0.0071753706
0.044555467
0.008076703
-0.0242619
0.018962229
0.066652134
-0.029192684
-0.012476919
-0.05888308
-0.029233867
0.053312767
-0.045174856
-0.02883274
0.0028505737
0.0013556837
-0.049316674
-0.048239905
-0.012327197
-0.011300232
0.061317585
-0.038342215
-0.004604654
-0.017293202
-0.024617476
0.13830951
-0.0032662908
-0.0044660326
0.0132811805
-0.02259849
0.04886415
-0.031657327
-0.018498693
0.015129475
-0.1279208
-0.009658031
0.004527835
0.02017594
0.16164692
0.016500399
-0.089556545
0.042708796
-0.002812046
0.032494504
0.05953277
0.010909065
-0.0010655558
0.0034977265
0.013331468
0.033968367
-0.0020424114
-0.01147456
-0.03964489
-0.0014109865
-0.0052700695
0.030484246
-0.018215725
0.055891726
0.01844917
0.008169172
-0.015684076
-0.01145438
0.04322931
0.04420024
-0.045568995
-0.029093912
0.0037135037
0.019659944
-0.01996883
-0.04692448
-0.013392332
-0.021235058
-0.00070370454
0.016084855
-0.0443369
0.0905736
-0.024822006
0.04073456
0.0077718436
0.0063422457
-0.0064733042
-0.09906655
0.02037378
0.016447006
-0.010244817
-0.024913944
-0.0059921425
0.031024877
-0.046707176
0.057855558
0.047359314
0.0007034853
0.106303036
0.014536553
-0.0022727125
-0.030930752
0.0016092043
0.028171344
-0.024167877
-0.002960923
0.008645211
-0.092829466
-0.0048194313
-0.015310025
0.016368032
0.013813063
0.002853199
-0.026852204
0.026202228
-0.042663977
0.01394821
-0.0066422974
-0.037723284
0.0067286
0.009790243
0.009897565
-0.011802352
0.05400037
0.14400913
-0.05407073
0.015462035
-0.011431843
0.04087369
0.10128691
-0.036752053
-0.00028075156
-0.0055297036
0.017161472
0.030433765
0.043751694
0.03683459
-0.050995525
0.030176898
-0.037258532
-0.1255709
-0.039441437
0.028076148
0.011024507
-0.026012916
0.012118757
-0.01944412
0.120184146
0.042482458
0.0028197768
-0.0346269
0.040572695
-0.14462616
-0.0279848
-0.08823555
0.023474138
0.0016471536
0.0701151
-0.11097408
-0.0049760244
0.012933645
0.021617213
0.0025606905
0.024221264
0.017936714
0.053016845
0.50695145
-0.12285875
0.027333125
0.036485165
0.0147230895
0.009005236
-0.026983663
0.0057910224
0.14893985
0.16491188
0.024342893
-0.00881196
0.012760983
-0.016721716
-0.040400706
0.03222615
-0.007049116
0.0017800308
0.055350743
-0.0019478835
-0.049893327
-0.01784032
-0.006261215
0.020523893
0.030950204
-0.023393953
-0.020859392
-0.07243715
-0.004232846
-0.013201396
0.005810259
0.08331589
-0.038086213
0.047503375
-0.0052585294
-0.1924282
-0.0574324
0.01463909
-0.030893402
-0.060842235
0.01141027
-0.019007154
-0.0051585436
-0.010358868
-0.05476358
-0.0005899447
-0.0049257022
-0.02115677
-0.023529511
0.025348736
-0.018640133
0.021930736
-0.03337362
0.008373762
0.036786914
-0.07070842
-0.009015509
-0.033759966
-0.027817776
0.013555024
-0.03203325
0.25127265
0.027797803
0.0071193846
0.16731678
-0.008162483
-0.003973647
0.010229488
0.09213166
0.0065602846
-0.005210784
0.0063795648
0.0058646305
-0.022889692
-0.02046156
0.018121751
0.084652916
-0.06122169
-0.14045411
-0.0021600265
-0.0037373074
0.0109746745
0.017882165
0.03913138
-0.025839187
-0.02146466
0.015810682
0.0015604016
-0.017764492
0.0012208442
0.060948364
-0.028211849
-0.042051543
-0.06585576
-0.060885396
-0.008046874
-0.02497172
0.044858973
-0.00982046
-0.018747514
0.004733777
-0.079787605
-0.0024952919
-0.02302192
-0.030718748
0.017506933
-0.006187309
0.033957914
-0.0389176
0.08662263
0.080572486
0.0052818083
-0.04228177
-0.034217086
-0.008728609
0.044218734
0.08100839
0.021033963
0.021867866
-0.007363023
0.044803113
0.024486277
-0.05979613
-0.0053723436
-0.012201947
-0.0024894567
-0.01815691
0.0015520691
-0.04692912
-0.0011011207
0.019254753
-0.021476272
0.15035653
-0.01430396
0.0026996017
0.028699746
-0.07978017
-0.013829181
0.022032121
-0.0034250682
0.0036416554
0.00628184
0.14368623
0.031247968
0.038356934
-0.073825
0.046689045
0.020264754
-0.021433456
0.051468328
-0.0073595596
0.0035330374
-0.1633117
-0.010127059
0.004975096
-0.0058772094
-0.019806791
-0.02527484
0.03295653
-0.02807434
0.0056178034
0.06424125
0.0145686185
-0.022243027
0.0068825893
-0.00253577
-0.021237815
-0.007868914
0.019024644
-0.008978924
-0.05602348
-0.026218122
-0.034320194
0.044584204
0.06100563
-0.005596177
-0.04033632
-0.0942774
0.009665944
0.032844204
0.027105046
-0.11780017
-0.0135683445
-0.017165065
-0.0050374414
0.012414631
0.07826627
0.005233537
0.028726296
-0.0131033035
0.027005766
-0.017671201
0.0052129542
-0.00050936505
-0.0385486
-0.0135369245
-0.012991383
0.03212398
-0.029218826
0.079179406
0.05992619
-0.03709005
-0.001594813
0.030009149
0.004730845
-0.013574349
0.008723972
0.010847066
0.018695347
0.013132935
0.023573495
0.0016196137
0.019019937
-0.02815116
0.009274066
0.06634855
0.012334275
0.016135802
0.12471676
-0.07574255
-0.0024204091
-0.042145636
-0.03280656
0.01659332
-0.0039342646
0.0013776692
-0.019626237
0.0065126903
0.008510454
0.024152089
0.2795941
0.0186534
-0.064970315
0.008636569
-0.036611833
0.020074774
0.022450445
0.023879556
0.073416285
0.016901355
-0.045184832
0.018625243
0.08896153
-0.0476723
-0.014766279
0.005069988
0.03944476
0.024851808
0.19778334
-0.001795966
0.06810806
0.025925724
0.015717376
0.0181148
-0.024702435
-0.04498526
-0.047134925
0.023849202
0.050538685
0.05418368
0.015144039
-0.013730415
-0.02111804
-0.023666203
-0.002377373
0.052510507
0.019038988
0.0002905364
-0.013539654
0.0043065585
0.00044188515
0.025760297
-0.037335347
-0.0022661337
-0.008084808
0.0069873417
0.044723492
0.0010811401
0.028681975
-0.028912015
-0.032031674
0.00067554513
-0.016016899
0.0150951855
-0.09011406
0.0131759355
-0.022471998
-0.006099054
0.008682137
0.06897207
0.003083433
0.016045325
0.010749564
-0.026110288
0.0027339135
0.0034861746
-0.012694716
0.014480784
0.00084743334
0.03314354
-0.10163246
0.005009955
-0.017891057
-0.037523426
-0.008872627
0.009092272
0.011379259
0.0030795718
0.019881027
0.014066249
-0.022428848
-0.13463762
0.056193292
-0.06438048
0.029199606
0.021513356
0.01835348
0.1247848
-0.030717043
0.039254062
0.08712518
0.03358415
0.0052714734
0.060151976
-0.0012188439
0.038417935
0.0254576
0.0014202489
0.035172664
0.009595998
-0.027627414
0.048595663
-0.009432258
0.046747737
0.04897143
0.029213686
0.005396322
0.054465946
0.014858325
0.0070638126
-0.0059441878
-0.003205124
0.029879143
-0.034887757
0.018541371
0.020371767
-0.029917972
-0.030102681
-0.02995678
0.0013962508
0.036326185
-0.019981634
0.004777521
-0.019474043
0.015018767
0.010640804
0.008754874
0.013684047
0.041897148
-0.011246502
0.03413954
0.043921396
0.00042167533
-0.0014707746
-0.021601848
-0.0361708
-0.065607965
0.0058122016
-0.02056579
0.0026665588
0.04913522
-0.092420764
0.025711594
0.0051942705
-0.0054825908
-0.02533378
-0.012796041
0.022151371
-0.0010650601
0.00010226459
0.02837066
-0.037014402
0.015206481
-0.016951213
0.013429063
0.01227094
-0.005356043
0.03996551
-0.0038770412
-0.027061949
0.028312298
0.027134517
-0.05080511
-0.0077793635
0.018679162
-0.0031272434
-0.0009952302
0.021242052
-0.015344146
-0.041751266
0.023939608
-0.048382927
0.04458152
0.038449228
0.016292704
-0.009513407
0.012878104
0.00217346
0.051648974
0.0063110413
0.03455113
0.022292053
-0.010995479
-0.012050348
-0.030531967
0.019924896
-0.0049112127
-0.002287385
-0.045753088
0.011299803
-0.017747136
0.003724578
0.034260195
0.020829681
0.011336065
0.05711276
-0.06372688
0.026075194
-0.051166836
-0.04164761
0.022453899
0.009423395
-0.05936324
-0.03660028
-0.015647868
-0.015687939
0.010721604
0.04343332
0.04787748
0.016734373
0.0052741203
0.27702644
-0.011824254
0.006560599
-0.010600484
-0.03599989
-0.015531788
0.07027774
0.021483857
0.017542448
-0.016861707
0.030084187
0.03674115
0.017572975
0.044480722
-0.024805473
0.031549223
0.014941915
-0.0004786622
0.005864746
-0.0052369763
0.027267192
-0.0117057385
-0.010847181
-0.006609954
-0.029139318
-0.012546453
-0.012545172
0.008354626
-0.08697376
-0.0051625166
-0.008776538
0.039936192
-0.020183774
-0.042801566
-0.018614514
0.0071651503
-0.017722948
-0.031035423
-0.06175518
-0.032467756
-0.025325084
0.036779422
0.1322528
0.16780046
-0.028439404
0.017747002
0.014392521
0.064171955
0.018249828
0.00872344
-0.022194434
-0.036952168
-0.008572576
0.0057106367
-0.0009319967
-0.0042796903
-0.01889353
-0.00088837504
0.031878654
0.00044648742
-0.046301775
-0.043562982
-0.013776219
0.017601117
-0.032708723
-0.00029698975
-0.01733132
-0.010527225
0.032679174
0.0028502967
0.00456836
-0.0047252816
-0.010166937
-0.014679632
-0.006873401
-0.016579023
-0.016136387
-0.028209247
0.064644106
-0.0029545364
-0.007218696
-0.21175998
-0.017330922
0.015336805
0.08730166
0.031121546
-0.003790105
0.024230175
0.017761504
-0.010696412
-0.004381696
0.01829993
0.01514541
0.0006921921
0.019986926
0.105289586
-0.005952489
0.03491672
0.008277246
0.03205123
-0.007597309
0.0033312242
-0.014459693
0.04931491
-0.0044242395
-0.00094161264
-0.0048352424
-0.00076361455
-0.027393451
0.006913472
0.00953584
0.010178025
-0.034196585
-0.023555774
-0.0013216971
-0.018811371
0.021194134
0.011366366
-0.043611314
-0.013842991
0.0080350535
0.010000354
0.021807035
-0.029382668
-0.017699692
0.039528307
-0.027938895
0.012040086
0.03555531
-0.0140615525
-0.02014201
-0.01832872
-0.0375295
0.002536399
-0.0030385002
0.0034567465
-0.042874232
0.021009915
0.005081506
-0.028237151
0.026015773
0.26612288
-0.08035753
-0.0095391255
-0.015666885
0.02628524
-0.014625676
0.00067131786
-0.048404325
0.010800361
0.012079595
-0.08874687
0.020951057
0.00060106296
-0.026742762
0.0310443
0.007839021
-0.037984002
-0.0008688632
0.03129695
0.007048286
0.01047367
0.012007037
3.598425e-05
-0.013176948
0.011919162
-0.023702692
0.019459477
-0.018179791
0.012781083
-0.024633812
-0.022002224
0.056888983
-0.034229293
-0.0020229951
-0.021505747
-0.007970276
0.028471664
-0.088667646
-0.0042680935
-0.0038461916
-0.030402726
0.00043084263
0.00082795025
-0.047496796
0.0043037697
-0.0062596737
-0.0059818807
-0.037858736
0.03141018
0.03916809
-0.01114379
0.0124759
0.011477717
-0.005017591
0.019299077
-0.036778886
0.007921504
0.0026137605
-0.011275411
-0.105603665
0.048133314
0.030709084
0.010556798
-0.01324016
-0.025545916
0.021996915
-0.024938293
0.01713717
-0.0029098566
0.0056242263
0.0031103874
0.0011596543
-0.024059815
0.014260567
-0.017436
-0.03590352
-0.000984082
-0.011512992
-0.047323525
0.008780635
0.005376332
0.031329513
0.010595758
0.033125017
0.02510547
0.037913293
0.048794102
0.022978658
0.0017213497
0.035429712
0.036615893
0.0066741477
-0.05155846
-0.001510407
0.018683149
-0.038166676
0.006638867
0.04313018
-0.08145307
0.020517344
-0.01350409
-0.017787896
-0.023096284
0.004499762
0.011608516
-0.017115248
-0.029943379
0.0016118048
0.023638524
0.0073095425
-0.14503027
-0.003459021
0.011171929
0.018939039
-0.0006751825
-0.011741795
0.0034776742
0.013602737
-0.014236628
-0.016022213
0.0032691022
0.038806614
-0.0030054415
-0.045374263
0.008476379
0.0101170875
-0.05195951
-0.011402168
0.090805255
-0.011429331
-0.04574108
-3.6305162e-05
0.018993797
-0.013402598
0.035357926
0.057004437
-0.016594898
0.022478426
0.19748026
0.009614409
0.0317565
-0.019936569
-0.02928956
-0.0034179718
-0.009871285
-0.044334203
0.00064309366
0.024337996
-0.0580512
-0.03169655
0.021128977
-0.026171958
0.00886214
-0.030515967
-0.026583083
-0.008657401
-0.03735769
-0.051727198
-0.004860223
-0.17169136
-0.0029194502
-0.033830322
0.013229191
0.02886753
-0.009119176
-0.0554965
-0.020217614
-0.03901637
0.026133977
-0.015758473
-0.036888644
0.016767725
-0.0048805755
0.04160168
-0.012025768
-0.0088231
-0.022663953
-0.07949904
0.009739762
-0.030042458
-0.0039049839
0.012856169
0.0375668
-0.09806564
-0.015386954
-0.032276794
0.03664909
-0.0046412167
0.008993945
0.012488391
-0.003490974
-0.020425286
0.014255657
-0.00956436
-0.01243083
-0.0021477344
0.042128373
0.015599052
-0.024992486
-0.017487433
0.018020537
-0.0017463012
-0.004968455
0.013135351
-0.035732005
-0.0037397493
0.021829266
0.12810054
-0.012988891
0.0066701616
0.0014521031
0.02344256
-0.04306633
-0.08650803
0.046598945
0.009427654
0.073861785
-0.005609276
0.001306705
-0.013171206
0.02132825
-0.004696894
0.06049683
0.018171135
-0.013665971
0.03718958
0.0016348058
0.03693542
-0.04541936
0.022136575
-0.0043899845
0.03353201
0.0027442882
-0.0009865474
-0.05523793
-0.02474301
-0.019735357
-0.006811176
-0.054876663
0.023495616
0.012453234
-0.035943825
-0.071540445
0.040465597
0.010200524
-0.05283698
-0.0035890338
0.03395916
-0.0024588523
-0.1687946
0.0037335034
-0.0455039
-0.007151243
-0.0342777
-0.005228562
0.06823434
-0.0038673722
0.033723228
-0.008448524
-0.020190312
0.019551167
-0.017672487
-0.028289968
0.0010495702
-0.030967155
-0.0011840031
0.020295545
-0.0045003486
-0.036540423
0.0007878655
0.01597416
0.017814951
0.031276487
0.0069983057
-0.001379542
-0.025195645
0.08006506
-0.0034001612
0.034511637
0.027819028
-8.982173e-05
0.02666176
0.012065549
0.007773432
0.016268697
-0.016055059
0.004665108
-0.00069889385
-0.0070435186
-0.0003142181
-0.016195217
-0.083119415
0.01253043
0.014339874
-0.01812562
0.06043982
0.004328071
0.01072522
-0.0028078759
0.033015426
-0.042908926
0.02992319
-0.036374733
-0.006297127
0.0076157986
0.015527392
0.008209377
0.0037293064
0.040056247
0.013186434
-0.04495409
0.0024978798
-0.0037238437
-0.037549473
0.018652733
-0.021102257
-0.067021266
-0.03450235
-0.05931433
0.003469495
-0.008667822
0.002434693
-0.016837385
0.01490001
-0.01660676
-0.03837825
-0.020706933
-0.03369907
0.01900169
0.013123965
0.010508182
-0.0005792689
-0.0028916446
0.007072952
-0.017939812
-0.014754607
0.038663402
-0.025247123
-0.012108925
0.007084479
-0.0028820601
0.009568852
0.017211504
-0.009327053
-0.022651672
-0.017647872
-0.0049605966
-0.008298551
-0.009123199
-0.03369171
0.011874391
0.013730258
0.032171797
-0.058552288
-0.023825198
-0.005585095
0.03947559
0.018292174
-0.014972918
0.010135416
0.011940996
0.08059716
-0.0014857588
0.006672451
-0.019085899
0.011749866
-0.0445688
-0.014624424
-0.0010877978
0.011396013
0.0269586
-0.043421842
0.06269825
-0.006422779
-0.09167714
-0.004644203
-0.057803895
0.19319181
0.044746384
0.06133921
-0.07536124
-0.0382967
0.026167322
0.0019477574
-0.007132722
-0.12870364
-0.036377363
0.02077889
0.014922991
0.053163666
-0.003003311
0.05837445
0.008251239
0.0008983408
-0.0053520435
-0.027604776
-0.025858086
-0.0136844665
-0.04434796
-0.037810743
-0.027560515
-0.38853854
0.056641474
-0.034633327
-0.10142743
-0.002220351
-0.006413703
0.047960196
-0.035321373
-0.025009425
0.0067515904
0.020589752
-0.008678077
0.12376285
-0.012317257
-0.042939518
0.05811748
0.014783058
-0.0038362343
0.010716081
-0.04346657
0.0010400037
0.015814368
0.020855725
-0.0070496514
0.012428625
0.0013987023
-0.021231437
-0.021108976
0.016278801
-0.020870436
-0.051772363
-0.031542085
0.045894697
-0.05595283
-0.04018532
0.008654983
-0.05731037
0.005162219
-0.12142541
-0.0025160336
0.04997036
-0.0071611353
-0.052609254
-0.0065126847
-0.002419567
0.009587944
0.023109611
0.0067427326
0.03179875
0.028681384
-0.00044861066
0.116455175
-0.030455176
0.105851114
-0.025889127
0.07224116
0.000425664
-0.17297915
0.013874464
0.025363438
0.019738536
-0.021125656
0.022129672
-0.017169403
0.018802753
0.018326946
0.026993012
0.008679807
-0.06646963
0.06834167
0.022422625
-0.010114401
0.00464053
0.0066345125
-0.047624845
-0.019128101
0.053057842
-0.10536858
-0.03756445
0.02530691
-0.009259705
-0.024863075
-0.036531173
0.006601425
-0.034714837
0.007729719
-0.023638781
-0.058473136
-0.02708537
-0.0138225835
-0.006948283
-0.08685297
-0.033005264
-0.02527196
-0.12766843
0.25346884
-0.020236533
-0.013263173
-0.025574632
0.010548905
0.018588716
0.043557223
-0.04648841
0.06256024
0.003601844
-0.07830624
-0.0091333445
-0.0015824945
-0.017438468
0.07851839
-0.0061790077
0.018236455
0.005512581
-0.015732136
-0.044702906
-0.003148842
-0.02833725
-0.073186904
-0.020072281
-0.004386567
-0.019733159
-0.015242753
0.01455194
0.0028488436
0.038238753
0.016482925
0.0047384254
0.021960955
-0.0049022147
0.003088831
-0.0023300857
0.08430204
-0.028030064
0.021552628
-0.068724155
-0.00024363733
-0.00974864
0.0017058704
0.00027844167
0.12424414
-0.005878016
0.01718342
-0.0954105
0.039425626
0.036799036
0.042207386
-0.021835078
0.051782645
0.039173655
0.035666797
-0.12413792
-0.083484314
-0.0072626323
-0.036284946
-0.02736172
-0.016838867
-0.009812009
0.039602082
0.021242067
0.021699833
-0.0020583572
-0.020566268
0.0124816215
0.003963716
-0.010937865
0.0101839295
0.10645117
-0.0009614949
-0.010078659
-0.06533256
-0.011901783
-0.010561234
-0.062461082
0.029231368
-0.012483477
0.01405407
0.062475454
-0.060042746
0.053029273
-0.025241498
0.019588124
0.044114932
-0.010614402
-0.014507005
0.009160773
-0.023271287
-0.029980516
0.036665782
-0.032639783
0.02094395
0.006834142
0.026321102
-0.033319153
-0.033331886
0.012276385
0.002467879
-0.04949414
0.045257337
0.0010042988
-0.00082627864
0.0048645255
0.0057848236
-0.064885765
0.023827923
0.03950827
0.052119337
0.0004948171
0.005383152
0.02200696
0.0033908153
-0.019510295
-0.019850168
0.013445275
-0.04231921
-0.0224895
-0.01722697
0.0102532515
-0.023670398
-0.06476633
0.08078799
-0.007553738
0.018555423
-0.020417186
0.00660805
0.047370303
-0.036238875
-0.022589277
-0.02638042
-0.030081606
0.022793373
0.0255824
0.011677039
0.046871506
0.006709049
0.0557195
0.0044611203
0.022238692
0.0071109803
0.13478018
-0.014141493
-0.021601705
0.23918402
-0.045173936
-0.11704451
0.029618856
-0.0051137563
-0.009288646
0.036933374
0.027699323
-0.0052689193
-0.010478241
0.008431397
-0.008178533
-0.00808882
-0.032453053
0.018546307
0.073796265
0.0011983874
-0.008553821
0.034382
-0.056378845
0.056449432
0.005988935
-0.0014226284
-0.049518194
-0.018920563
0.0011682427
-0.0051363143
0.031665735
-0.018414106
0.0034273637
0.2112067
-0.0046036597
-0.00054948806
-0.0019236191
-0.009296565
-0.019711582
0.0059283376
0.025805067
-0.2337005
-0.0004555313
0.020081813
-0.01955063
-0.13564928
-0.012108573
-0.014386116
-0.015840307
-0.0023072714
-0.017582005
-0.037964344
0.009343194
0.03574421
0.015483734
-0.001525054
0.010813945
-0.022233158
-0.044816725
-0.04215495
-0.05586002
0.0101822615
0.015548129
-0.0006890979
-0.038456887
0.013360898
-0.004292022
-0.0048660636
0.07674999
-0.031418286
0.017665291
0.05405666
-0.0062294975
-0.008013658
0.0024339664
0.00612772
-0.018571462
0.003131109
-0.00976669
0.022199413
0.03520648
-0.016911788
-0.088759
0.01654298
-0.01981004
0.006262119
0.09912264
-0.01747279
0.012194306
-0.013870914
-0.16244636
-0.0035575866
-0.009586017
0.012990465
-0.0653183
-0.016432757
0.003961734
0.004184165
-0.026903242
0.00829525
-0.02360229
0.0094758095
-0.003997661
-0.061575316
-0.0052240007
0.0077536674
0.02441269
-0.015693134
-0.007713882
0.011594673
0.009959816
-0.01524808
0.009574652
-0.009206563
-0.018557843
-0.010186037
-0.005343362
0.0127850985
-0.0024531535
-0.016295617
0.029297737
0.020706035
0.0060685677
-0.030634569
-0.0060700243
-0.0025293154
-0.041671485
0.33229312
0.028724182
-0.0271363
-0.022515554
-0.004899562
-0.026355788
-0.022573818
-0.026767706
-0.0017004213
0.027203238
-0.0041230703
0.011674687
-0.011171864
-0.018537007
-0.0049723447
0.0064367736
-0.017395353
-0.006749628
-0.0027625288
-0.00071934826
-0.005682127
-0.011563587
0.003215655
0.015343013
0.037267953
-0.008059018
0.04829641
-0.018527195
-0.010949387
0.029405905
-0.005369817
0.027438728
0.004250995
0.0046087583
-0.019972604
-0.015135904
-0.010058825
-0.014213001
0.027111875
0.0032869787
0.023123313
-0.027348464
0.113244794
-0.0061783683
-0.011290455
-0.009058291
0.015554973
0.06279786
0.035907783
-0.012035586
-0.0006331336
-0.0027652315
0.01522205
0.012971756
0.08208401
0.016234871
0.017349973
-0.036354262
0.0034779676
-0.014415992
-0.014975167
-0.01649199
0.00034498307
0.04295066
0.039604273
0.022552801
0.016521325
-0.02058975
-0.023623846
0.004017422
-0.014880742
-0.033486392
0.026105378
0.010428037
0.04376826
0.020505426
-0.027639607
0.004405285
-0.27657354
0.016843876
-0.0017780925
-0.013299335
-0.0063305404
0.007481942
0.072334744
-0.025478391
-0.035038553
-0.0072691618
0.009202425
0.04850479
-0.0025868323
-0.00081166177
-0.0052884906
-0.0152263
0.023045873
-0.0047909133
-0.025368318
-0.015180686
-0.0035267407
-0.0016296955
-0.021781797
-0.013521177
0.010441736
0.014426926
-0.000863386
0.002279313
-0.046907693
0.0060743648
-0.11944627
-0.0028159947
-0.035496887
-0.030052206
0.013768075
0.046992864
-0.00065056764
0.035133045
-0.09233364
-0.0150073115
-0.1507065
0.016437823
-0.010885262
0.013278541
-0.027241768
0.019181088
-0.0024538417
0.04261299
0.006948721
0.0054403893
0.021207115
-0.030101914
0.028074525
0.060347382
0.051123478
0.004931636
0.07064541
0.008371503
0.022585785
0.045536395
-0.0016505369
0.010664737
0.003011237
-0.036520224
0.030743996
-0.014098484
0.008279477
-0.03127822
-0.029089814
0.07080256
0.020255804
-0.01313908
-0.047274232
-0.004624457
0.0091153765
0.013456111
-0.0053905114
0.008615018
0.018547514
0.010899232
-0.008453395
-0.0052129175
0.0069427923
-0.027804377
-0.04673481
0.01602927
0.014240989
0.017184565
-0.029581882
-0.0069876416
0.008097174
-0.0067822943
0.029089496
0.003653755
-0.033101987
-0.040428683
0.011226205
0.0062270206
0.042260773
0.003546379
0.009815895
0.028649256
-0.33896315
0.018272731
0.0050882446
-0.006702009
-0.034293942
0.012865219
0.0076821493
-0.011826617
-0.052654512
0.028052084
-0.009425915
-0.018649524
-0.025125463
0.0052265394
-0.0037833503
0.017571725
-0.0043376368
0.06817596
0.067985244
-0.013532091
-0.23120484
-0.0077702715
0.0014627095
0.009289951
-0.0067721424
0.005039479
0.024158658
-0.0015487424
0.0034364457
0.021195097
-0.0027084884
-0.042170625
-0.0052343193
-0.0065443986
0.021450024
0.0033653176
-0.010571079
-0.0017295774
0.0070678173
0.02971837
0.0057577016
-0.003057922
-0.010612462
-0.09656747
0.10154606
-0.0091557875
-0.0040506213
-0.029266626
-0.024227161
0.01033619
-0.021598943
-0.022279397
-0.01567446
-0.017003542
0.01700194
0.017621791
-0.017763836
-0.0003334424
-0.003894596
-0.010425108
-0.023145705
-0.0040322375
-0.043632213
0.010738002
0.001707812
0.029148133
-0.0035990595
-0.0047988854
0.04454158
-0.002271138
-0.018115705
-0.006942315
-0.1554586
0.0125397965
-0.008119599
-0.0042023505
-0.065382354
-0.027369993
0.026559478
-0.024668673
-0.012940675
0.017864883
0.021289965
-0.032275885
-0.015830906
0.021611674
-0.010981931
-0.0033045548
-0.020428121
-0.11729509
-0.005024699
-0.02974645
0.02904971
-0.026223106
-0.017291384
-0.021148553
-0.016475946
-0.04239669
-0.0010585256
0.0135788545
-0.005557663
-0.0057449327
0.011563967
0.0049618203
0.049388967
0.023062719
0.046364117
0.009122235
0.0027790857
-0.013878643
-0.008744096
0.020730913
0.018847803
0.0025133784
-0.008379399
0.04465757
-0.014383662
-0.03842971
0.092028715
-0.0004092599
-0.03379316
-0.0035026844
-0.04041471
-0.13115214
0.07531988
-0.021244597
0.02101366
-0.0035106142
-0.037131496
0.012945234
-0.02751973
0.0007208578
0.0006317711
0.034251466
0.009743875
-0.0042037256
-0.036048543
0.01063953
-0.02792909
-0.02603619
-0.026022697
0.017139738
0.014258
0.0022782786
-0.010214264
-0.017353408
-0.009416831
0.026075354
-0.013285922
-0.011425558
0.029527703
0.0036500148
0.021082142
-0.022055686
-0.0018205342
0.0013689033
-0.008571086
0.020005634
0.051514078
-0.0187898
-0.05324111
0.0047112876
-0.0011601305
-0.07818646
0.013700552
0.0041614044
0.04513006
0.028007163
-0.006569369
-0.027763408
-0.0040978487
-0.026159713
0.0036018812
-0.0048512537
0.0043595387
-0.013288365
-0.019269666
-0.018555077
-0.028958652
-0.0079008145
-0.033355124
0.031879857
0.10620141
0.009209024
-0.06476738
-0.04286598
0.012918214
-0.024342071
-0.008413338
-0.07981973
0.023288896
-0.052478097
0.052713674
0.044314127
0.019458584
-0.066373065
0.10661705
0.05853733
0.023001323
-0.016713366
-0.013171736
0.011178132
-0.13593805
0.05769392
0.014719591
0.008834269
0.03597352
0.10555995
0.024615731
-0.026782872
0.17703633
-0.016202467
0.013063565
-0.035396874
-0.08124606
-0.02388651
-0.014336256
0.022050468
0.004253129
-0.052012507
0.0007741758
0.019846369
0.13737153
0.12717682
-0.0033253622
0.0799999
-0.003044854
-0.024911897
-0.09527056
-0.012785399
-0.023249947
0.02044403
0.045488305
-0.045489587
2.4915167e-05
0.023659775
-0.021180045
-0.012255796
-0.08151953
-0.018063199
-0.05795303
-0.0093315365
-0.12014541
0.053014185
0.082334906
0.034994874
0.054016594
0.015325118
0.030520633
-0.00996507
0.058803253
0.0058951965
0.0046123723
0.018032823
0.042849723
-0.051177915
-0.23190778
-0.014593587
-0.047431756
-0.013983483
0.087778665
-0.03806394
-0.053443015
0.06640635
0.10931845
-0.016940553
0.02985743
0.07040948
-0.035347536
-0.021830514
0.010373006
-0.028870564
-0.08467964
-0.16186155
-0.030041568
-0.010915866
0.034177024
0.027070928
-0.07668375
0.06406254
-0.11140157
-0.08451075
0.10133179
0.03064033
0.002859514
-0.028576387
0.09870814
-0.03757964
0.03585887
-0.035408445
0.12307397
0.0567212
-0.05331309
0.0012560044
0.041786633
0.14620484
0.002058117
0.05370025
-0.021013811
-0.0043254863
0.0018225972
-0.023859791
-0.03594776
-0.09210107
0.02859521
-0.02452478
0.058218084
-0.105164416
-0.029672423
0.07170743
-0.0007479185
0.033877943
-0.013982483
-0.012611717
-0.0063728695
0.043324485
-0.09720689
-0.004306218
-0.078430444
0.0469485
-0.028105685
-0.031130463
-0.11699035
-0.012000204
0.026230881
-0.1649119
-0.017160265
0.03052505
-0.0068462305
0.0057804533
0.02754209
0.008788235
-0.009586689
0.047319025
0.017547507
-0.004891561
-0.049583223
-0.025721928
0.115708806
-0.14500919
0.21749142
0.024958748
0.11047054
0.007072217
0.0063114516
-0.034056682
0.019615343
-0.04948721
-0.06337717
0.011571885
0.09105516
0.058065306
0.020526439
0.032938186
-0.050335266
-0.054397237
-0.012904573
-0.021175565
0.017948816
-0.021086529
-0.030325288
0.043285098
0.056576997
0.014806319
-0.017493367
-0.09906509
-0.006868234
-0.00728505
0.04559543
0.019429669
0.024836455
-0.006678194
0.052552234
0.03727848
0.07069524
0.0031011612
-0.009845192
0.0036193372
-0.0068954774
-0.006605469
0.06355911
-0.011842243
-0.023218308
-0.046010993
-0.048648305
0.11845763
0.024927905
0.01357855
-0.024440877
0.012727733
0.045108035
-0.041708115
0.014493707
0.009136316
-0.014546148
-0.014081026
0.053664763
-0.052525118
-0.0033792693
0.026518112
-0.06269737
0.012603091
0.0137519585
-0.016280305
-0.0024630448
0.06572431
0.021328088
0.02095964
-0.07537573
-0.072903946
-0.015986843
0.027728297
-0.033582065
-0.039092757
-0.010259448
-0.016639939
-0.047183093
0.0009125296
-0.06667319
0.010537301
0.015069627
0.067832194
0.013426671
-0.0032377983
-0.045424633
-0.051622715
0.07979783
0.045348402
0.05170686
0.00917565
0.052473962
0.011498964
0.05208232
-0.072593145
-0.030794898
-0.06357063
0.026461383
-0.038001515
-0.061550114
0.0602169
-0.06484733
-0.0061747115
0.058587343
0.046708982
0.09234814
0.058006767
0.011119812
-0.19284946
0.0313441
-0.025785856
-0.01455547
0.058474742
0.039463118
0.052948594
-0.038264565
0.052444745
0.045627497
-0.009970899
0.013886011
0.03328263
-0.06311748
0.019173102
-0.0655061
-0.03897023
-0.0026031453
0.03744641
0.024108302
-0.012362273
-0.014102064
-0.017831342
0.034540955
0.04110675
0.026567537
-0.03360288
-0.003557745
0.05485163
0.060964942
-0.015840378
0.015311127
-0.009079267
-0.08178539
-0.01076547
-0.012515885
0.031006377
-0.0029773777
-0.055978194
0.012074592
0.069016114
0.06345875
0.030253217
0.03013454
-0.0053086337
0.0019362944
-0.036593366
0.009769246
0.016168965
-0.06584163
-0.049367342
-0.13332698
-0.02958323
0.030837726
-0.020327026
0.0019776565
-0.046914116
-0.019372318
0.00991822
-0.0026239224
-0.03372806
0.04212781
-0.006339324
-0.037129313
0.04349309
-0.030159326
-0.022340296
0.01185372
0.0031989599
-0.036264613
0.044659365
0.04207991
-0.0079756295
-0.025758952
-0.051188562
0.04132842
0.014301717
0.08163913
-0.029507058
-0.05326818
-0.022674134
-0.0075906683
-0.030839115
-0.044356514
-0.013916704
0.019684462
0.055275973
-0.007173132
0.15460092
0.0069649587
0.03922828
0.05714301
0.046494573
0.016720265
0.087779775
-0.14050798
-0.013033024
-0.07257339
0.046440486
0.035499793
0.016037848
0.025283258
0.03163019
0.024869815
-0.0140525885
0.1031472
0.10256482
0.05826708
-0.0073110964
0.05716484
-0.01933852
-0.04003354
0.00024570498
-0.0018777557
0.024273898
-0.074734405
-0.004436973
-0.04612942
0.005870928
-0.0127623
0.07045976
0.06554034
-0.111648165
-0.09272983
-0.039843768
0.018518612
-0.031577375
-0.05431364
-0.010559385
0.006962839
-0.025706343
0.051781286
-0.029090652
0.028554758
-0.010054148
0.013591295
0.046035226
0.046251178
-0.0016273955
0.0654569
-0.028266655
-0.0067009395
-0.10376116
0.046596766
0.090971686
-0.030985171
0.1993475
0.018538041
-0.046082962
-0.010279636
-0.030576922
0.004021567
0.042579733
-0.07984807
-0.023992652
0.12036257
-0.07460267
0.0316128
-0.08049243
0.037597213
-0.0012568875
-0.019579364
-0.033702433
-0.09967998
0.106649965
0.03234268
-0.010157476
0.09509705
0.03461464
0.042196218
0.027974471
0.04137882
-0.0070512732
-0.018238114
0.013548184
-0.03307207
-0.018816616
0.0034465808
-0.007063491
-0.10661547
-0.016996702
0.017553998
0.04382803
-0.033055
0.048753213
-0.068958476
0.031821832
-0.04928823
0.032890495
-0.040571224
0.01577816
0.0066658533
0.044577625
-0.011130225
0.10126764
-0.1060599
0.034484003
0.07009322
-0.09607481
-0.0139023755
0.0064602625
-0.03947857
0.08831573
-0.01775689
0.0058359876
0.06363173
-0.038057916
-0.0501987
-0.05588217
-0.13140312
-0.012617263
-0.05571524
0.0036596998
-0.040812712
-0.01502117
-0.030399404
0.052356467
-0.04021059
-0.01589186
-0.04271936
-0.008114362
-0.058548536
0.08198496
-0.08863646
0.06385751
-0.003447911
0.040338848
0.13648815
0.0010309448
0.039551064
0.09688767
-0.019915486
-0.044829194
0.025765708
-0.025154192
-0.007841556
0.03527245
0.015404118
-0.01749639
-0.0029577068
-0.09360773
0.13195132
0.038249195
-0.000654651
-0.012817395
-0.054590836
0.029584153
0.049836423
0.050935276
-0.011611815
0.035540882
-0.059439596
0.17436336
-0.07227252
-0.04001556
-0.017053377
-0.07520084
0.0053069624
-0.024894504
-0.124011815
0.03370846
0.01594193
0.00096267235
-0.011068474
0.041601848
0.0052541853
0.027580146
0.020503692
-0.021718735
-0.010135196
-0.01767827
0.018456845
0.001133791
-0.018002804
0.038681418
0.018650811
0.004911438
-0.0020833632
-0.16802846
0.023665287
-0.005932902
0.01051019
-0.0052527753
0.0017521317
-0.00563843
0.011784867
0.03213498
-0.012074376
0.21034822
0.0078325085
0.009513416
0.038522154
-0.015826164
-0.016226042
0.026027687
0.013666317
0.008864076
0.039012834
-0.0059711062
0.038367495
0.0022999342
0.024453292
-0.04530346
0.03461054
0.02439544
0.032865435
0.0031848534
-0.0439779
-0.019821221
-0.0028256164
0.017616006
0.012072099
-0.013185285
0.04168562
0.016476953
-0.033310216
0.028503584
-0.008462058
-0.0217437
-0.0024854082
0.017676419
0.07995517
0.0115800835
-9.913275e-06
-0.026642991
0.018658064
0.07462654
0.012685639
-0.0805309
-0.004570415
-0.03030313
-0.021739181
-0.040151175
0.013719181
0.050150942
0.08080196
-0.0028676582
-0.046955675
0.007825647
-0.07076301
-0.0110543
0.14139798
-0.020714978
0.01963197
-0.0075625433
-0.024019452
-0.023020228
-0.025326096
-0.018263793
-0.0020139527
-0.08381836
-0.00781747
0.18041714
0.04662162
0.0057879463
0.0067783203
0.047198866
-0.078095295
0.01644747
-0.014188466
0.002171332
0.025881378
-0.006199964
-0.0039392915
0.046784833
0.035967585
-0.0013470785
0.012942106
0.020789325
-0.01768836
-0.0015096131
-0.003853288
-0.002832201
0.011656442
-0.019060155
0.029494155
0.019537589
0.07312343
-0.0017113752
-0.056297667
-0.007819335
0.10966456
0.014135173
-0.122672334
0.028738037
0.002085192
0.030549344
-0.09036856
-0.0030128136
0.0052421656
-0.007273452
-0.033597343
0.0075611356
-0.013632995
0.003938676
0.00665937
-0.002276949
-0.013613774
-0.04667207
-0.0017103059
-0.007491465
-0.009869815
0.04070024
-0.010960567
-0.014930099
0.023912456
0.0270563
0.023054505
-0.03495956
0.005714057
-0.017141264
-0.00038500607
0.03636988
0.0060931896
-0.0043500564
-0.027070208
0.023416845
-0.012615532
0.018993234
-0.04946142
0.0005024785
-0.34857094
0.010869805
0.013275824
0.0013653279
-0.036203757
0.044362422
-0.011051921
0.0053616115
-0.01106542
0.1101125
-0.023979219
0.02116405
-0.018422255
-0.0040219063
-0.03059402
-0.024745563
-0.06274254
0.009346981
-0.007925294
-0.00076337147
0.009025997
-0.06753026
-0.00077935256
0.012001444
0.053392928
-0.04334408
0.0086471755
-0.00082007603
0.08903036
0.02083016
0.030321999
-0.022747654
-0.0063133915
-0.078231975
0.007013615
-0.036915306
0.017790172
-0.028786978
0.03778128
-0.04919226
-0.06433993
-0.031252764
-0.030514969
0.008860013
-0.024525376
-0.00049693877
0.0077600577
-0.067586735
0.00029538103
-0.04214133
-0.016506128
-0.00423139
-0.020163245
0.0017051629
-0.03490708
0.14042102
-0.009025862
0.011391756
0.07317615
-0.01376227
0.037619617
0.026230646
-0.036419388
-0.02631643
-0.021711651
0.0034690448
-0.011895837
0.0023436116
0.01717681
-0.010734486
0.030772934
0.014615678
0.020753298
-0.020384133
0.018779721
-0.0072086435
0.036462896
0.028826086
0.07323578
-0.031447563
-0.10430709
0.040202916
-0.008557052
-0.025199711
0.008473234
-0.0014069485
0.014570044
-0.013456928
-0.02092911
-0.0002879411
-0.021678558
-0.0078085186
-0.116685525
0.03392715
0.036242932
-0.052114107
-0.026334783
0.08100919
0.0058484436
0.025974594
-0.05190133
0.005450989
0.003066354
0.01530961
-0.05320722
-0.036690053
-0.016910188
-0.008526893
-0.051889107
0.40480232
0.022245022
-0.019628381
-0.040035635
0.015343123
-0.005014342
0.032936893
-0.062609866
0.006848319
-0.013794131
-0.035987977
-0.011071851
0.006325199
-0.03179402
-0.04160699
0.013245386
0.010088149
-0.06616164
0.01466599
0.0023986422
-0.034851927
0.049706146
0.028738346
0.09403676
-0.061129298
-0.095879175
-0.104544446
-0.060322493
-0.007509831
-0.006148644
-0.007356203
0.1177526
0.007863796
0.029677048
-0.039393656
0.13671063
0.064092495
0.025893845
0.012611259
0.0212235
-0.056931924
0.017181797
-0.022179253
0.009351132
0.02023247
0.015536197
-0.0065146824
-0.0033684555
0.0015824022
-0.0050547025
0.095508374
-0.03254182
-0.013565867
-0.027320484
-0.029250283
-0.011299205
0.04974538
0.0068811756
-0.07641301
-0.00463625
-0.10645381
-0.043906875
0.049366888
0.016673045
0.023286762
-0.037011623
0.016994
0.01314765
0.06410917
-0.045944143
-0.0033641458
-0.0049362336
-0.0023833788
0.052455474
0.009684269
-0.010036305
0.003742805
-0.024692494
-0.021741334
-0.050681826
-0.016304674
0.028064545
0.047533277
-0.0582803
-0.0053228745
0.0065217037
-0.010940811
0.08725513
-0.06411467
-0.00061064295
-0.015187963
0.0015224962
0.015295674
-0.07491529
-0.073896095
0.033957202
0.026129248
0.007128877
0.041881725
-0.037552048
-0.007823734
0.008726567
-0.00028819728
-0.0899224
-0.08727641
-0.04053885
0.07136539
-0.010731601
-0.030494478
-0.045957252
-0.115827605
-0.12505338
-0.0073587354
-0.093383946
0.042853
0.013807804
0.009565574
0.107713245
-0.035784837
-0.012618711
-0.016843617
0.009121319
-0.16007307
0.019166248
0.037016056
0.0367397
0.07123636
-0.023505405
0.1311044
-0.19834483
-0.020851636
-0.063691914
0.006902828
0.04674802
0.06339777
0.09772139
0.006216178
0.015851406
-0.09027289
0.03445771
0.019401433
-0.0070506507
0.019812306
0.009106979
0.017873852
0.017303854
0.035196938
0.019093283
0.030871002
0.03222275
0.00072558457
0.00083877123
0.036020663
0.023767162
0.10443004
0.0049107675
-0.025787124
0.024926083
-0.05320536
-0.08442152
0.021387452
-0.017836573
-0.014984374
-0.021044638
-0.08320594
-0.018762132
-0.031640768
-0.0021970859
0.019571928
-0.14249462
0.0114369495
-0.07815779
-0.006249936
0.044769026
0.03622402
0.01638905
0.053581055
-0.1671561
-0.039111502
0.01322099
-0.027868167
-0.02551716
0.0002704961
-0.036350414
0.020938605
0.008884204
-0.021685436
0.024097413
-0.010500286
-0.015690453
-0.053214435
-0.07492073
0.00030746087
0.006282567
-0.038557373
0.015112758
0.0068589635
0.021850511
0.020912806
-0.00694983
0.08391607
-0.020559333
0.039621405
-0.048825797
0.05688118
-0.039391153
0.000377926
0.012681806
0.026226997
0.022626191
0.0008663946
0.023709117
0.13800287
-0.06875138
0.026995823
-0.06852882
-0.3713824
0.09126859
0.024161922
0.043856345
0.022749577
0.14445327
-0.03295153
-0.033893473
-0.055889387
-0.07384486
-0.01956639
-0.10809112
-0.039691415
-0.00023664863
0.050884653
0.022642914
0.021614028
-0.052555524
-0.03412568
-0.05246155
0.029982932
-0.010610641
0.045220893
0.030163959
-0.122090615
-0.010541306
-0.04603166
0.035738092
0.013496642
-0.01950543
-0.004568665
0.008449431
-0.00844673
-0.04935727
-0.028586604
-0.08183497
0.0005160771
-0.03237744
0.007961639
0.037477743
-0.008573293
0.023405902
-0.032952804
-0.0027061354
-0.031398483
-0.001412413
0.02204998
0.007861136
-0.027661154
-0.010346942
0.019970063
-0.10000102
-0.09520815
-0.014635018
-0.0076250625
0.05435091
0.13001832
0.07206227
0.054614905
-0.051635966
-0.054326225
0.029813008
-0.081855394
0.04575827
-0.04155708
-0.0070285928
-0.054691494
-0.036251158
0.048564594
-0.0076382183
-0.04135838
0.015367021
-0.0074856277
0.0054755905
-0.026576085
-0.04201618
0.0048209564
-0.0022664058
0.025428493
-0.00061857776
0.030196324
0.01343963
-0.031295877
0.0028749243
0.03897248
-0.0057621137
0.0067146756
-0.03050452
0.033265684
-0.06272799
-0.005392235
0.024205612
-0.04216548
0.040518396
0.0011715696
0.003962587
0.0118932985
-0.026272418
0.0043640337
-0.03946348
0.008633589
-0.01056504
0.031362597
0.019883947
-0.05078713
0.028725324
-0.027194671
0.0080602765
0.066643536
0.029076101
-0.014311903
0.03768715
0.022858981
0.017632945
-0.012160542
0.0016068266
-0.019992663
-0.12388824
0.034856178
0.033850137
0.08741155
-0.0575042
0.005411564
-0.026737379
-0.018170953
-0.025681717
-0.03312072
-0.010208188
0.007177131
0.022003787
-0.05258531
0.0004373678
-0.057233114
-0.08917966
0.009680612
0.014141544
0.038242448
0.02916951
-0.0072071576
-0.029176602
-0.014754892
-0.02953999
-0.06409847
0.0074900095
-0.010774558
-0.056336373
0.025484245
0.015959483
-0.053443644
-0.09511249
-0.0049177897
-0.033021484
0.035060417
0.017406577
0.115296684
-0.008087413
-0.006454885
0.016060835
0.009071003
0.008122883
0.027618144
0.013464507
0.0014473483
-0.02268833
0.00020740552
0.021699594
-0.039540697
-0.0032666498
0.042874366
-0.0068702763
0.050741646
-0.013855607
0.005978934
0.009235223
0.010442989
0.13288724
0.0210054
-0.11460535
0.000129892
0.0029387346
-0.0058253165
0.02690371
-0.010343157
-0.10116396
-0.027371738
-0.01508493
-0.028948126
0.10130428
0.016515793
-0.09808835
0.042277183
-0.020749038
-0.0012629887
0.03554442
-0.009599482
0.01923983
0.022002853
0.02656882
-0.036238976
-0.01938249
0.0017118872
0.05342791
-0.03892859
-0.011582521
0.00681993
0.012490155
0.0064991866
0.009668361
-0.010370236
-0.0092344545
-0.035311423
-0.025986867
-0.0017685336
-0.0071498747
0.057811253
-0.007165303
-0.01917788
0.02169365
0.060040735
-0.015385015
-0.06319786
-0.0097705955
0.0046229083
0.0370599
0.10001929
0.02957372
-0.054086436
-0.018398399
-0.014053235
0.03094251
-0.008160169
-0.020761926
0.039235942
0.021788888
0.030985268
-0.037120268
0.0057513756
0.016827922
-0.031079065
-0.0068400926
0.03193404
0.004983029
-0.025153562
-0.03760607
-0.010285399
0.046431758
-0.029870225
0.022183225
-0.02526943
0.025138546
0.00534481
0.012699501
0.010450105
0.0012684566
0.11477653
-0.026007311
0.019103326
0.037566405
-0.04972501
-0.033830885
-0.0036887324
0.12943546
-0.031600844
-0.037715603
0.006529701
-0.019913323
0.023749197
0.014690863
-0.03238016
0.0034910592
0.010252768
0.006921235
0.02167993
-0.06813815
0.012671526
-0.0400168
-0.008013769
0.029452587
0.023431918
0.06736951
-0.0517784
-0.09905402
-0.091679014
0.013495642
0.09315058
-0.0013729788
-0.020249896
-0.017253542
0.08343634
-0.15022089
0.0012951106
0.0854635
-0.044819184
0.022943955
0.055044446
-0.0032006453
-0.060700882
0.043842714
0.00995548
0.02527029
0.042726457
0.018614449
-0.006204177
0.029772276
-0.041195642
0.07172876
0.043691445
0.09565594
-0.02063429
-0.005327964
0.044833057
-0.17643653
-0.024968727
-0.02662839
-0.04407677
0.0012840391
-0.17724007
-0.16533516
0.021272754
-0.04787273
-0.017144483
-0.037379958
0.00865796
-0.03561528
-0.056444272
-0.029295934
0.01288968
0.03040118
0.05260745
0.022940239
0.017229563
-0.04774633
0.019735381
-0.037584864
0.0067823688
-0.036255084
0.049279243
0.06979101
-0.027049605
-0.03643358
-0.1908482
-0.018505784
-0.014160095
0.048366554
-0.023912396
-0.09873906
-0.012745376
-0.024650492
0.040363457
0.037447803
-0.044423375
0.016368235
0.032351073
0.062485103
-0.02583958
0.0006193157
-0.007970865
-0.0038411217
-0.15959784
0.05251418
-0.019096168
0.05996975
-0.009963221
0.044603348
0.00806639
-0.083951786
0.062934026
-0.07186083
-0.12263121
-0.000561168
-0.027232679
-0.058800437
0.04974115
0.049640223
-0.06437344
0.08092703
0.022214329
0.06299282
-0.1512135
-0.015137886
0.035203382
-0.039029937
-0.031552516
0.051535696
-0.054130446
-0.0012610039
-0.03268163
-0.03915202
0.03476656
0.005751111
-0.0726895
0.013143847
0.023399113
0.05016314
-0.02670247
-0.0074579716
0.057157036
0.008896308
-0.048793506
-0.021423288
0.023140108
-0.010418657
0.055638008
0.06946902
-0.03557059
0.02998708
-0.025495041
-0.114092715
-0.011284676
-0.1020219
0.088267446
0.024860078
-0.09100907
0.11241461
0.015349637
0.04832923
-0.0018093603
0.03859095
0.03781252
-0.020215703
0.045357216
0.022950068
0.026557628
-0.088381894
-0.08150295
-0.08061415
-0.062054843
-0.015005086
0.0047021713
-0.013283032
0.030174894
0.001286124
0.0018119459
0.1339698
0.03289067
-0.11360873
-0.017910577
-0.024001688
0.03307405
-0.010233737
0.036404945
0.015025723
0.15689892
-0.043250483
-0.0025134014
-0.026344644
0.046667125
0.05767215
0.03248962
-0.053397223
-0.09412166
-0.021671442
0.045150366
0.030827902
-0.025851294
-0.034288485
0.020760793
-0.0015833183
-0.0053491606
0.028310586
-0.03975994
0.07672447
0.043081243
-0.0610044
-0.041808084
0.07598773
0.025156185
-0.048550952
0.040183198
-0.02015997
0.037608713
0.07087198
0.049574364
0.0023157
0.052894033
0.0647268
0.047061183
0.0420251
-0.03972254
0.052284222
0.0017796285
0.080511294
0.025784612
-0.12860118
-0.0039509814
0.001153706
-0.07538346
-0.07660616
0.022969257
0.17357044
0.03507582
0.014679945
0.06176861
-0.10961081
0.051955998
-0.0062956824
0.0059453626
0.039748073
-0.020124324
0.0043035117
-0.10886826
0.09357715
0.034244537
0.043959625
0.021626126
-0.014179154
-0.035374857
-0.10903844
0.024293201
-0.013761379
0.07664555
-0.08060485
-0.10376653
-0.09695253
0.030618979
-0.16648607
-0.16043058
0.06691558
-0.043131478
-0.002360283
-0.09190392
0.036886066
0.011293197
0.095319614
-0.059524953
0.0613213
-0.0058209645
0.058890592
-0.072743565
0.043295495
-0.11330882
-0.047996074
-0.028246632
0.022812486
-0.014892958
0.0119135445
-0.045012675
-0.068294786
0.10368926
0.022646049
0.022918584
0.07949634
0.03283962
-0.018037066
-0.15886171
0.010943102
-0.0027583533
0.0034563546
0.038713176
0.0037630638
0.014577228
0.02095892
-0.0026068464
0.0072306
0.0015380861
-0.046941087
-0.026394803
0.0046555987
0.0075527807
-0.007987443
0.036927048
-0.011171095
-0.0807924
0.008464343
-0.07744876
0.03864562
0.0036142743
-0.0069986037
0.052397102
0.0415926
-0.01122956
-0.0074773496
-0.037701502
0.11926888
0.059847776
-0.0059874477
-0.053368658
-0.018915216
-0.012705696
0.050447866
-0.014467498
0.017608296
-0.0065110354
0.033494174
-0.045625232
0.0028023126
0.011854904
-0.026563667
0.0031656881
0.022549113
0.016005764
0.02604509
0.021117536
-0.031435587
0.033375524
-0.08509585
0.025946882
-0.010626335
-0.007988806
0.024462637
-0.004973754
-0.012339619
-0.025113521
0.017225826
-0.035893176
-0.066084795
0.021245332
0.0035162566
-0.01993175
-0.031306364
0.021886071
0.032428876
-0.004722585
-0.004795843
-0.010702202
-0.020300413
-0.032276243
0.025633851
0.024466136
0.021714065
0.044703256
0.029151615
0.018537872
-0.025489569
-0.050115827
0.0034868203
-0.06559239
0.101565056
0.0097910995
-0.041925535
-0.0016117853
0.029395726
0.016176024
0.019712685
-0.022576494
-0.04718877
0.047305264
-0.05634919
0.016227107
0.057541847
0.017636972
0.07112766
0.07075525
0.010755432
0.017849853
-0.08052258
-0.03714563
0.0014719747
-0.015045688
0.07757871
0.062355302
0.0011498326
-0.084463365
-0.001638004
-0.033127084
0.0042983685
-0.0050742915
-0.053075492
-0.09914651
-0.032011587
0.025124572
0.03141827
-0.02557056
-0.042589925
0.013668498
-0.011794906
-0.03454945
-0.00093788165
0.024982579
-0.0098746065
-0.013357897
-0.0144456
-0.03010814
-0.041673146
0.008311492
0.005671223
0.024815548
-0.037722234
0.0033798988
-0.0039108554
0.086716816
0.018638387
0.035363987
0.021676028
-0.01003073
-0.0132342
0.020179147
0.09304997
-0.009931371
0.017994724
-0.025604432
-0.016528253
-0.02183803
0.016258068
0.09500028
-0.039766137
0.034527835
-0.011657015
0.05082953
0.030726578
-0.0886087
-0.047029104
-0.07844183
-0.00853294
0.011399815
-0.0015260418
-0.020039788
-0.01498155
0.02422284
0.043879583
-0.02186871
0.028992198
0.0131971035
0.002241206
-0.0031404165
-0.0056552733
-0.027701981
0.049111724
0.015445922
-0.0718698
0.019673498
-0.03342256
0.025410593
0.008531032
-0.015721643
-0.0136750005
0.10130667
-0.004547181
0.039318144
0.03180871
0.026915254
0.014405663
-0.1380602
0.045617398
-0.002028013
0.0123412525
0.060856935
0.04125067
-0.0028336125
0.021071129
0.023021068
0.0292451
0.018897545
0.060854156
0.074101925
-0.044100303
-0.027024014
0.021749198
-0.0010812078
0.01310886
0.03450865
-0.01630702
0.054855537
0.003741285
-0.004007447
0.015116811
0.010117394
0.022079088
0.015817598
0.012505724
0.04699321
0.005132946
0.020334344
-0.004621351
-0.02617281
0.019844763
-0.0036509547
0.032689538
0.012748827
0.04057393
-0.050173223
-0.043008678
0.12618928
0.0052329614
-0.038808025
-0.013251307
0.029081022
0.034378536
0.031050999
0.01943774
-0.012143906
0.036872882
0.00076612085
-0.055909406
0.043753635
0.011745313
0.014789103
-0.015459681
0.004984271
-0.0038336248
0.035476714
-0.04092666
-0.01621275
-0.037059147
-0.020608122
-0.038033377
0.011760662
-0.04105711
0.07261406
0.029483702
0.17620078
-0.0020226806
-0.009125783
0.03496987
0.0055243066
-0.062342007
-0.026785424
-0.034639344
0.009813036
0.015296075
-0.004639241
0.04933761
-0.018048631
-0.015990566
-0.0029225764
0.031023461
-0.004707425
-0.054477632
0.12352303
-0.02398519
0.032148227
0.011201704
-0.024105767
0.009442382
-0.11286911
-0.058011882
-0.02951592
-0.16675118
-0.008754208
0.066442855
-0.058812156
0.021597976
-0.03953929
0.012848761
0.038880758
-0.030495845
-0.09198024
0.0100486195
-0.00032744417
-0.035420407
-0.062899746
0.015292191
0.02045579
-0.034992903
-0.0288857
-0.075883515
-0.022471529
0.024556702
-0.008666809
-0.0072925026
-0.007409057
0.050200462
0.02319218
-0.02265519
0.051760167
0.017038524
-0.04568604
0.004758786
0.0071535665
0.034071133
-0.010251678
-0.036625303
-0.014418591
-0.06335729
-0.0123556405
-0.045557365
-0.06285976
-0.02960476
-0.016669666
-0.04250802
0.09622359
0.029902844
0.021064818
0.082104325
-0.023287114
-0.037073217
0.035180368
-0.012373021
0.007345423
0.013218737
-0.021156622
-0.0002950248
0.06576914
0.008012662
0.0141391335
0.021426229
-0.0018033761
0.013732596
0.07183072
-0.0074972706
-0.010475592
0.01409059
-0.039972108
-0.029033529
-0.050976496
0.00032453443
0.014275476
0.040968996
-0.016449101
-0.020232
-0.02624231
0.0024361294
-0.010320541
-0.006434425
-0.04799683
-0.0510644
-0.02340216
0.012297179
-0.036540166
0.066778004
0.0023814638
-0.007989367
-0.014257135
7.7220306e-05
-0.00012153302
0.011891903
-0.05026226
-0.007863466
0.013108742
0.049758665
-0.016509302
0.014990421
0.0045825657
-0.00867331
0.031531263
-0.02303585
0.07107365
-0.057799973
0.009452008
0.0024745488
-0.09590998
0.025489485
0.05536836
-0.05033502
-0.06165918
-0.02840475
0.0018663045
-0.052145366
-0.03985522
-0.08787883
-0.062386867
0.005495691
-0.0120538315
-0.021912618
-0.045114983
-0.05726589
-0.06336156
0.039300587
0.020454714
0.0013393462
-0.01436993
-0.0225271
0.050414447
0.047310192
0.0013315342
-0.008677573
-0.007200298
0.042916566
0.051570993
0.005285118
0.010816463
0.023055492
0.012634629
-0.012746851
0.062036615
-0.074145526
0.0016868956
0.042687953
-0.0016343475
-0.031697143
-0.052597128
0.0025214995
-0.02829663
-0.03870784
0.19942632
0.04843825
0.026549894
-0.014171066
0.021214612
0.038438715
0.015167842
0.01652064
0.015604544
-0.0633498
0.027121514
-0.017906448
0.053976495
0.012505853
-0.025062261
-0.0036314826
0.0069585806
-0.026029306
0.0325069
0.06268847
-0.0031035787
-0.0020434984
0.08385902
-0.021907587
0.07205301
0.05101392
-0.026609438
-0.053996984
-0.014222221
-0.0025789328
0.05337566
-0.023966432
-0.029356893
0.0043727015
-0.110974714
0.051731817
-0.00040352443
-0.010998363
0.0060875765
0.07324958
0.0074779512
0.0006254209
-0.030679872
0.03279327
-0.09554249
0.018705254
-0.022197543
0.056164116
-0.0059386757
0.034008693
-0.026134528
-0.035907563
-0.075288296
0.033025235
0.047442082
0.010747717
-0.06396691
0.006992243
0.029951233
-0.013072817
-0.00941043
-0.030420545
0.025301475
0.0017598356
-0.05094735
-0.023342041
-0.050181188
0.031275164
0.024797361
0.037181962
-0.012219761
-0.029548906
0.0016245651
-0.023064002
-0.0008641123
-0.046052087
0.005933099
0.018023914
0.06295402
-0.013805834
0.028339041
-0.023992838
0.07044368
-0.023611177
-0.027029186
0.097339116
-0.036242403
0.040704638
-0.005532401
0.014044148
0.025038607
0.021263424
-0.014255669
-0.050115183
-0.007871779
0.044674702
0.08496502
0.059198912
0.04431472
-0.006472759
0.0011301222
-0.01187752
0.051381603
-0.041165728
-0.038184162
0.025294458
-0.015095561
0.010602377
-0.018862497
0.05314743
0.012305306
-0.010277637
-0.038452964
-0.0020502254
0.010589943
0.037399784
0.01693044
0.008101306
0.09006232
0.03665227
0.005706967
-0.006290677
0.007482892
-0.030991971
0.020181298
-0.06287395
-0.04054794
0.016695304
0.06823497
-0.04316686
-0.03853666
0.042271674
-0.022382459
-0.01951575
0.05942264
-0.012646742
-0.020474164
-0.010697615
-0.0001999916
-0.026791133
-0.020449419
-0.03730498
-0.042343833
-0.028155731
0.014723655
-0.035526957
0.008491681
-0.0009175578
-0.025510589
-0.008989251
-0.0141474195
0.022037568
-0.05214272
-0.0097662555
-0.013305539
0.011335625
-0.029314848
0.031349503
-0.036408734
-0.009966097
-0.054559402
0.029346319
0.015074583
-0.054909382
0.076692715
0.00054762844
0.021093898
0.007020249
-0.045876823
0.0030640834
-0.109306656
-0.009651678
0.07064499
-0.06474705
0.053640936
0.070754535
0.025563488
-0.050885316
-0.06067635
-0.0018119602
-0.019086475
0.008632105
-0.022239272
-0.06396132
-0.018634573
-0.037118025
0.032052368
-0.052392468
-0.026443725
-0.022399325
0.08273898
-0.006136361
0.020017523
-0.0073189535
-0.044961784
-0.0052222377
-0.04395697
0.017531024
0.055578586
-0.17776188
0.02263812
-0.059878748
0.011129318
-0.0037640624
0.0065671834
-0.010184546
-0.03119678
-0.025479503
-0.05233605
0.023998853
0.023209827
-0.036885694
0.005535632
-0.010587739
0.044416543
0.00031693123
-0.02754923
-0.016521625
-0.03819586
0.04660839
-0.042491477
0.009247856
-0.016734397
-0.024377836
0.0023097387
-0.03151137
-0.0030443165
0.003506024
0.025802692
-0.051791918
-0.030162035
0.041138086
0.017217493
-0.016456148
-0.038116954
-0.017131979
0.01827863
0.010193768
0.023628062
-0.03147075
0.030458245
0.04463372
-0.02956852
-0.0048556235
0.015231299
-0.012288755
-0.01739706
0.0075613805
0.016617466
-0.0666443
-0.103958376
0.0013566747
-0.069787614
-0.12674816
0.057474647
-0.0011750974
-0.052403603
-0.025187533
0.09755435
0.019009132
0.0027734004
-0.014633657
-0.010652178
-0.020687975
0.025001412
-0.031364
-0.0010352494
-0.03290598
0.013380187
0.053392667
0.0035388854
0.039269894
-0.034756556
-0.031389408
-0.024917623
-0.010213659
-0.09503466
-0.006087856
-0.048298128
0.006728276
0.032791965
-0.0031374057
-0.010388118
0.010280838
-0.07591075
-0.026154468
-0.046017278
-0.016391547
-0.026844164
0.061195485
-0.029032947
0.048259407
-0.0009531986
-0.010711027
0.091016866
-0.051287916
-0.012645442
0.03856048
0.03150185
0.0052877143
-0.02802511
-0.014216681
0.057689298
-0.011527992
0.055460237
-0.03190927
0.00036985413
-0.08214329
-0.012451538
-0.022977931
-0.007341584
0.02227636
-0.003462656
0.0056439787
-0.0059315516
0.014628695
-0.028852511
-0.026083617
-0.0047769863
-0.017822882
0.052119736
0.005371326
0.034984216
-0.007474075
0.0018983544
0.014975086
-0.014635521
0.058371067
0.0035049345
-0.012518726
0.048556466
-0.054647937
-0.0010871545
0.047916155
0.013690364
-0.018081985
0.03266194
-0.0144456895
0.003934288
0.055757407
0.030335972
0.0644981
-0.019084215
0.049178757
0.08066197
0.036302183
-0.0022011092
0.003461579
-0.0073035145
-0.0063210553
-0.06751571
0.030775452
0.03056686
-0.091855556
-0.0054856637
0.01989179
-0.019232072
-0.003791003
0.0693352
0.07324854
0.35859492
0.009015964
-0.030303251
0.011806643
-0.040306818
-0.022064384
-0.018964896
-0.025666296
-0.020744773
-0.004000459
-0.011704729
-0.023639806
-0.15682895
-0.0020829774
-0.0033890654
-0.056114987
-0.009475559
-0.052284062
0.019501789
0.016811753
-0.013485537
0.026418634
0.011899643
0.00031667377
0.0010520939
0.018145466
0.03410722
0.077478066
0.021210115
-0.0026137943
0.014837722
0.009530202
-0.0045821485
0.0022454616
0.027435139
-0.01639307
-0.058036644
-0.01987799
-0.018910237
-0.043387175
-0.003626205
0.033853494
0.043729372
-0.03127717
-0.022179013
-0.023326946
0.00483614
0.022320349
-0.017449955
-0.04433243
0.036714945
0.067013286
0.0048922664
-0.10040427
0.002730312
0.014492008
0.02915904
0.00083983154
0.00313707
-0.058752615
-0.00069056405
0.021087224
-0.09907607
0.015357352
0.07511565
-0.0340978
-0.082511455
0.016522046
-0.006738403
-0.047037285
-0.049275417
0.014359214
0.017812235
-0.010151537
0.015164305
-0.057071865
-0.07915221
0.07001589
0.056979667
-0.02182736
0.011527983
0.017731646
-0.016169285
-0.024449836
-0.0007579245
-0.017651463
0.04834157
-0.009814175
-0.0021793689
-0.0109107345
-0.034672085
-0.015550476
-0.011314617
0.07646666
-0.0021897375
-0.19058356
-0.0044136737
-0.03851019
0.03628875
-0.022274401
-0.0207163
0.006223821
-0.012639774
0.0011743712
0.026333103
0.04894571
0.012634026
-0.02114013
-0.020140575
-0.10124954
-0.021341162
-0.0050696484
0.0026210225
-0.009754686
0.051398277
0.008185903
-0.0767717
0.03966955
-0.09429288
0.002983496
0.026123919
0.012356938
-0.05845658
-0.018244399
0.032204613
-0.020067869
0.023268847
0.004391521
-0.0020899987
-0.016202167
0.095209785
-0.11565673
0.040982824
0.040110756
0.0077149672
-0.009608409
0.004444502
-0.036799945
0.09313394
-0.15935338
-0.017658332
-0.0016672236
-0.02177967
-0.018147113
-0.009531549
-0.004862828
-0.028827794
-0.021552116
-0.17704095
0.06293458
0.04905909
0.046762258
-0.0056102443
0.016813522
-0.040096488
-0.006428711
-0.016374266
0.004170147
-0.044194836
0.0022142937
-0.0014356154
0.03515666
-0.073798686
-0.085333996
-0.016180748
-0.026495863
-0.18234691
0.01435314
0.016977172
0.0033074585
-0.0023706101
-0.032624103
0.0050877
-0.06463158
-0.003965518
-0.023562822
-0.027605793
-0.0033891494
-0.0095039625
-0.0034346413
0.050393816
0.011019699
0.0028378898
0.028806033
-0.03481775
0.017044825
-0.056086194
-0.047952786
0.0179256
0.021228697
-0.019892326
-0.028465189
0.00017231873
0.025517128
0.033830058
0.0436445
0.010929956
-0.018261613
0.017309733
3.541891e-05
-0.059194237
-0.03852203
0.006399779
0.014317604
0.03766067
-0.014610707
4.7931706e-05
0.03957156
0.048194807
-0.013875375
0.044409964
0.057513826
-0.011197611
-0.009668059
0.0033191943
-0.016744163
-0.008682121
0.050046477
0.050879963
-0.013193921
0.025377106
-0.01736009
0.030598976
0.05173589
0.012079284
-0.025362046
0.108819306
0.028813677
0.02526293
0.021841189
-0.028331412
0.012319236
0.06555924
-0.027866676
0.029499331
-0.032713827
0.024720984
0.25652927
0.016114853
-0.03844114
-0.07619682
0.0061755893
-0.012420251
-0.027602328
0.01939985
-0.034906827
-0.01527653
-0.015195634
-0.031620726
0.0051218118
-0.02054802
-0.018050319
-0.019333497
0.018823445
0.03736297
-0.01551841
0.0021137272
0.03141897
0.06588869
-0.008287747
-0.03732159
0.015902262
0.014283204
-0.05257631
0.03790722
-0.17954512
0.0102238245
-0.08225891
-0.07938601
-0.022457017
-0.010484194
-0.02605336
0.032228865
-0.020966975
0.008418722
-0.023381948
-0.08391302
-0.006197411
0.021549948
0.017093029
-0.03110207
0.0031919777
-0.036241025
-0.091114655
-0.020591678
-0.032549754
0.031011974
-0.008543499
0.00042727712
0.015614168
0.028523788
-0.0077884267
0.11384671
-0.01695507
-0.014331786
-0.038175613
0.02910547
-0.015340078
-0.008402837
-0.02258733
-0.06857654
-0.038128853
0.05074935
0.04810726
-0.0074629625
0.024294628
-0.011453581
0.19402719
-0.0016112505
-0.009576766
-0.04260619
0.019701319
-0.11341669
0.041741442
0.015882142
-0.05704661
-0.006333058
-0.011097184
0.011329622
0.1414568
-0.04803285
-0.0062863263
-0.030918777
-0.013957265
0.04373107
-0.006421251
-0.021115439
-0.045649644
-0.042237718
-0.020389587
-0.027025402
-0.03284992
-0.010957231
0.0111228265
-0.0064657745
-0.0039324313
0.033523407
-0.031546623
-0.021308243
-0.030679917
0.0071774665
-0.021953754
-0.08107589
-0.020439602
-0.0048056943
0.001673587
0.03917662
-0.0027333328
-0.012962749
0.013380936
-0.032935984
0.0148182595
0.014907007
-0.014716313
-0.042214915
-0.0063803135
0.0030177801
0.026062476
0.021574227
-0.00052870996
-0.0070942054
0.010763736
0.028526003
-0.03346313
-0.0036177335
0.06355695
0.0097989645
0.0019236475
-0.03801457
0.035694126
-0.07848937
-0.019278347
-0.057379965
-0.00088238023
-0.062631145
-0.01720444
0.006114528
0.010829677
0.003872358
0.03799526
-0.0043406445
-0.00865291
-0.023776539
-0.06537397
0.02677829
0.010247689
0.015438182
0.06694144
0.015397658
-0.02832439
0.005905979
0.10689636
-0.026160618
-0.016030867
0.0012222612
-0.016158827
-0.022881277
0.030088997
0.07479369
0.010531359
0.013594056
0.0003084537
0.00391112
-0.043071043
-0.2570319
0.009671377
-0.06806358
0.003263884
-0.04547272
0.04343362
-0.010543938
-0.015540165
-0.002668221
0.034901883
-0.10624422
-0.0012239764
0.029662007
0.005941105
0.024756625
0.021565177
-0.002849295
-0.030823458
-0.14205335
-0.022423873
0.025109218
-0.026924856
-0.00031906733
-0.0046269936
-0.00026492504
0.011504964
0.00269795
0.016033573
0.07339974
-0.0045810635
0.03760673
0.048256855
-0.004792436
-0.008229553
0.046603438
-0.009773766
-0.042263526
-0.026287355
-0.020450743
0.0136370575
0.006250931
-0.038818225
-0.034583993
0.0023649966
0.024430213
-0.00718501
0.012496926
-0.032046
-0.020254485
-0.029527307
-0.03075719
-0.006211164
0.029195925
-0.10669371
-0.042399615
-0.009292827
-0.010285183
0.009593239
0.05128864
0.072841436
-0.034920886
-0.045143522
-0.02078697
0.030555582
0.010164925
-0.035164505
0.04302694
-0.008146672
0.044597726
-0.009317804
0.01299002
0.00040516767
-0.047251474
0.06496088
-0.042960055
-0.0070157447
-0.12999552
0.00979359
-0.072382726
-0.047180157
0.026280465
0.0009204058
0.04628804
0.02389264
0.03854563
0.009182985
-0.007340041
-0.018544007
-0.051400777
-0.071321815
0.01656395
0.02550442
0.0078676
-0.011284411
-0.004195235
-0.03594018
0.028515698
0.004631325
-0.053936373
0.040272593
0.0023705044
-0.004133186
-0.026854584
-0.027259419
-0.0055384715
0.022639621
-0.04870479
-0.014929142
-0.08076376
-0.017460246
0.014330796
-0.040362883
-0.10331119
-0.044421226
-0.0024609058
0.008543773
0.03188709
-0.03479355
0.004003234
-0.0616371
0.0627308
0.03389625
-0.035597835
-0.016992139
0.0072687985
0.08121526
0.0064674625
-0.13311939
0.003974133
0.006200672
-0.036681112
-0.0072879023
0.002347495
-0.0062328437
0.004687088
-0.041521307
0.000736326
0.0042764232
0.0025401614
-0.011050267
-0.0051418697
-0.0147726955
-0.017434373
-0.0073442752
0.042523842
-0.021305282
0.0026638848
0.015514724
-0.11402735
0.007830053
-0.03175003
0.015981678
-0.03083127
0.044399288
0.020031376
-0.021231577
0.011923612
-0.02154151
0.004072073
0.012900965
0.016069373
0.028883465
-0.006740984
0.023210235
0.022411523
-0.0120755285
0.02931248
-0.016065516
0.022129364
-0.001811904
0.12599075
0.00041665105
0.02687717
-0.0038306196
0.0036092896
-0.03560133
-0.10746819
0.009103669
0.01604949
-0.00268741
-0.017147811
-0.00790548
0.047690716
0.0199854
0.05612079
0.048898134
-0.018655475
-0.010083959
0.04836782
0.010963529
-0.00096048845
0.028435314
0.0056208777
-0.0066169007
-0.015033334
-0.03816477
-0.004500952
-0.059948847
-0.023696
0.018171769
0.013151915
-0.08228255
-0.13855165
-0.31662786
0.008947752
-0.0020876273
-0.012079623
0.018878486
0.0053942474
0.012666859
-0.027541636
-0.03468979
0.016167156
0.038255133
0.017827248
0.013692694
-0.051832218
-0.0138190985
-0.00078712247
0.038075496
0.007007504
0.018033473
0.023086062
0.0026782583
0.06297419
0.007173828
-0.03760855
-0.042731903
0.0041223327
0.013221499
-0.025809558
0.010096987
0.011154338
0.013053258
0.030960487
0.007333396
0.006405662
0.043775417
-0.013776234
-0.0027341526
0.074662246
-0.24934153
-0.0018325663
0.024131553
0.00077916053
-0.020502556
0.0016614397
0.041567825
-0.03272262
-0.0036086217
0.07084681
-0.03323545
0.027488574
-0.011035185
-0.033873305
0.0060490984
-0.036854375
-0.006235345
-0.045157783
0.03441686
0.016187722
-0.023471147
-0.0076569314
0.060108803
0.0074168337
0.0040462343
0.0008668034
-0.01393333
0.013852542
0.114399694
-0.04026595
0.02183282
0.0007768451
0.028142046
-0.025307273
0.011986021
0.034049783
0.015775347
0.012848444
-0.020246793
-0.011083035
0.013338608
0.006876612
-0.0075702462
-0.05813779
0.057823364
-0.019040521
-0.008077032
0.044504102
0.01915108
0.034278776
0.009573859
0.29510665
0.029201865
0.040433306
-0.022957776
0.09226289
-0.020586818
-0.030169733
-0.010250463
-0.0313886
-0.008270488
-0.005929616
0.023683809
0.026258005
-0.0004880931
0.026335666
-0.049662154
0.023616675
0.0056961924
-0.010671414
0.0334676
-0.012296192
0.018369935
0.005113056
-0.017866805
0.055993017
-0.00434602
-0.053099472
-0.0352542
-0.02237793
-0.005329647
-0.023389846
-0.02225606
-0.0034231362
0.02470569
0.03331739
-0.12825692
-0.02770196
0.026728487
0.015082028
0.025086557
-0.021140782
0.02522634
-0.011613442
-0.014557233
0.004082672
-0.040033862
0.020975007
0.04106951
-0.055756606
0.09809428
0.05970138
-0.09281612
-0.017094424
-0.065821506
0.014476681
0.104700744
-0.049866
0.013683821
0.039689533
-0.011249667
-0.0589773
-0.0048193075
0.06906651
0.002465989
0.011862149
-0.0041064452
-0.07054133
-0.035579223
-0.012898725
-0.009606465
-0.07025495
-0.040703084
-0.21088107
-0.0029415665
0.0025813954
-0.0705038
0.010470687
0.021340372
0.041994985
0.025230652
-0.012300974
-0.02885771
-0.0009187268
0.043937024
0.104481116
0.050034463
-0.0032696608
0.036213536
0.013282964
-0.020282596
-0.019340023
-0.03151918
-0.0058185607
-0.0137931835
-0.024971308
0.004113914
0.036087997
-0.0030113643
-0.025226062
-0.017989457
-0.04059756
-0.029347887
0.0025544714
0.007956978
0.03487936
-0.0032348305
-0.026991675
0.017397594
-0.0995097
0.0065177428
0.003050016
-0.013346286
0.037148025
0.007128606
-0.038031965
-0.0136937965
0.021668857
0.16920355
0.036842562
-0.026576394
0.02496947
-0.002392903
-0.034646586
0.06152407
0.023597712
0.08822497
-0.055321503
-0.13673025
-0.050651427
0.07982113
0.021507297
0.004898866
-0.0050375047
-0.019223025
0.05729405
-0.020084739
0.04002492
-0.027779544
0.057790678
0.04449883
-0.04004505
0.0039821477
-0.015247407
-0.007485144
0.018516708
0.030360613
-0.004059144
0.0057213167
0.024736663
-0.0127190845
-0.03387182
-0.031650715
-0.0012416971
-0.019966485
-0.013152346
0.008608127
-0.06548359
0.016368337
-0.039446514
0.042892005
0.02133085
-0.03503301
-0.012669923
-0.116159186
0.0020155455
-0.05534117
-0.014891091
0.1250524
-0.02864292
-0.004963542
0.031521324
0.0027449662
0.001973434
-0.0055249413
0.01911848
-0.023600293
0.011986294
-0.034980115
-0.0017996216
0.006975314
0.01948253
0.078719504
-0.06177326
-0.01973137
0.0125277955
-0.015711972
-0.10121205
0.0430293
-0.059255775
-0.033766747
0.05344363
0.047050644
0.0033350638
0.04020972
0.021011576
-0.034598127
0.03150822
0.01929235
0.031384084
0.0034884799
-0.106938384
0.017212773
-0.04113199
0.029643588
-0.034683224
-0.049690474
0.019648902
-0.0014138275
0.005373721
-0.021650834
-0.015937649
0.092079215
0.013488222
-0.03306106
-0.0067096082
-0.0358704
-0.009512817
-0.022281678
0.017934358
0.0021635809
0.083078295
-0.004571314
-0.054194488
-0.02231382
0.0081155775
-0.059705112
0.07103454
0.0024966015
-0.030912215
-0.002437261
0.030730153
-0.04810636
-0.005808688
0.020989995
0.14027835
-0.0073081288
0.002244926
0.05596393
0.10368898
0.06562625
-0.009491399
-0.08808046
-0.048339985
-0.08302402
-0.029912528
0.03153281
-0.019192945
0.037754524
0.011506482
-0.017676115
-0.06967939
-0.048706274
-0.054432962
-0.035482537
-0.0035060572
0.011353839
0.029159969
0.009976663
-0.017282628
0.0070353374
-0.037130017
-0.003404722
0.013742549
0.02269576
-0.030134955
0.029688815
0.022863388
0.011912884
-0.019491205
-0.019892896
0.0042887223
-0.0111219715
0.026511278
0.021820905
-0.043515377
-0.0060555935
0.034768395
-0.0110150045
0.06160986
-0.013034476
-0.0068869195
-0.020382969
-0.035948794
0.008984486
0.02080338
-0.013434062
0.016004398
-0.030285584
0.026345158
-0.03669607
-0.063087896
0.07504661
0.009594251
0.028484372
-0.0047627804
0.03750584
0.06952125
-0.029557455
-0.037866328
-0.018549532
0.029488219
-0.075231366
0.07984962
-0.0146251
-0.0656119
-0.010438517
-0.03937548
0.022184083
-0.00095308904
-0.026638834
-0.016528564
0.016538847
0.032748934
-0.0063550784
-0.010872696
0.021606177
-0.029340325
0.01342283
-0.023327366
0.013302564
-0.018608639
0.02775221
0.011082713
-0.08441044
0.026056714
-0.021156479
-0.004582634
0.074073024
-0.061250214
-0.027319206
-0.0067089736
-0.03032041
-0.030017605
-0.029099261
-0.002391169
-0.018038224
0.0021723488
-0.021319134
0.013118644
-0.018691408
0.0036811153
0.022209847
0.028962135
-0.06568997
0.023330986
0.004920533
0.012013935
0.051528327
-0.018724281
-0.015381879
0.02023318
-0.02486944
-0.036357112
-0.020957239
-0.05635149
0.007938269
-0.023989467
0.010001975
0.014393074
-0.019828934
-0.007863648
0.06966504
-0.01817242
-0.028115528
0.026674395
0.018865682
0.0066994657
0.01586477
-0.06468313
0.0052785184
0.012881356
0.026441986
-0.06058814
0.06520414
-0.073751695
0.007828138
-0.0002236371
-0.03892835
-0.05547583
0.005809019
0.023778353
-0.06281583
-0.006791025
0.016989432
0.014694087
0.019484233
-0.006689819
-0.015758311
0.060435038
0.009457235
-0.051763654
0.026441367
0.011281555
0.028852884
0.013124932
0.0015040189
-0.12958655
-0.0074731125
-0.054342452
0.057442296
-0.00034101552
0.06766166
0.037424374
-0.01125893
-0.0260743
0.040546495
-0.009579057
0.011141274
-0.08013032
-0.11014331
-0.026193887
-0.019242417
-0.04034975
-0.009364
0.0060465927
-0.008063505
0.015371307
0.008220891
-0.05552223
-0.0053266883
0.042476494
0.037691183
-0.03795433
-0.02920153
0.054845147
0.020602848
-0.034609675
0.0038217881
-0.066240326
0.025036748
-0.041529484
0.06257047
0.005959024
-0.008950596
-0.0063052895
0.057077974
0.0023518773
-0.023122285
0.01272622
0.005836911
0.061561443
0.007886433
-0.06652712
-0.013654241
0.12951317
-0.043021865
0.013854317
-0.05030084
0.034835845
-0.005944993
-0.010499585
-0.003411719
-0.021150239
-0.0056687365
-0.03626754
0.007296673
-0.0021241799
-0.0173922
-0.041901935
-0.028864078
-0.0015330351
0.021082291
-0.0033551794
-0.01773201
-0.025654923
-0.028603122
-0.025919518
-0.05473966
0.08535773
0.0069815605
0.00057990424
0.011301458
0.023330882
-0.031404864
-0.032592434
-0.0046071033
-0.021751778
0.25380197
-0.15287189
-0.025182242
0.030426843
-0.011681439
0.030206252
0.058792777
0.025846997
-0.057618886
0.059410706
0.012889725
0.0033768301
-0.027487285
-0.016979447
0.028766965
0.01998052
-0.022716885
-0.020014338
0.05176445
-0.023814032
-0.011457094
0.0020732726
-0.043700088
-0.048808407
0.05659569
-0.010525922
-0.035548102
-0.005102506
0.002234742
-0.0081610195
0.0027262715
0.02595206
0.011725552
0.0528658
0.028893322
-0.014416822
-0.004889987
0.0552718
0.031237895
-0.009117946
-0.030169254
-0.36578822
-0.022952972
0.008092599
-0.021495048
-0.066155486
-0.012104749
0.026801785
-0.042474523
0.051068686
-0.0359104
0.011214705
-0.0057834294
-0.022594592
-0.0390322
-0.0070453845
-0.07880414
-0.032716658
0.0012434723
0.01939057
0.009123794
0.006945962
0.030553427
-0.017995827
-0.26206362
0.2368982
0.06440644
-0.06574425
-0.025718657
0.035620157
-0.025086502
0.015783643
-0.04050609
0.021689538
-0.028736359
-0.07971532
-0.0069499747
-0.022235185
-0.015672531
0.016619598
-0.03643268
0.008806227
0.020841481
0.042901278
-0.015930329
0.12516269
-0.007513026
-0.04179421
0.22008328
-0.0036787759
-0.0013335382
-0.01957596
-0.02791847
-0.022393622
0.0019616592
-0.054817475
-0.011323429
0.01063934
-0.023333965
0.031782318
0.008388978
0.012555048
-0.017677382
0.040972106
-0.01993895
0.023313142
0.0037475382
-0.07085685
-0.050552282
0.020470625
-0.042746317
-0.013202247
-0.035908986
-0.041255932
-0.02788756
0.04417998
0.061159883
0.009091038
0.006168395
0.042087592
-0.028072974
-0.025396803
0.054006338
-0.0029677856
-0.0106595
0.012606817
0.020627068
-0.015061322
0.00484628
0.0023518822
-0.027236054
-0.043347742
0.0014987848
-0.036313776
-0.024094105
-0.0074306093
-0.0031156521
0.036396604
0.021001328
0.024063485
-0.03191272
-0.007440664
-0.016390208
0.00091577857
0.003989951
0.0061811465
0.069053784
-0.032566383
-0.0047794003
-0.014390129
0.020827506
-0.04888039
-0.06066583
-0.00834074
0.06800854
0.033184797
-0.0024111932
0.035852376
0.11760652
-0.029583422
0.029384345
-0.044750065
0.08816475
-0.048341013
0.048452493
-0.021373453
0.037282795
0.03333419
-0.037556488
-0.0034992432
0.062451564
-0.011362419
0.059154604
0.026082197
-0.067129195
-0.026809838
0.010680409
0.02876448
-0.037973773
-0.02469813
0.0389977
-0.0038295998
0.03194192
0.011050065
-0.019069292
0.023388864
-0.007426677
0.010759309
-0.021634564
-0.02732817
-0.025778368
-0.016946148
0.0063609392
0.03195412
0.010886421
-0.009000978
0.00575504
-0.03610013
0.06490591
0.023168594
-0.011211076
-0.03510906
0.07798215
0.0027804482
0.02224812
-0.018219348
-0.018345872
0.024803264
-0.014315751
0.01698956
-0.016077138
0.018978823
-0.025824184
-0.0082227
0.0146361245
-0.062430374
0.004331218
0.09275596
0.0009149491
0.029569628
0.005339602
0.04704624
0.00051762984
-0.014697395
-0.025326367
-0.06773472
-0.03150702
-0.00309763
0.0052185846
-0.021787995
-0.010786464
0.046821147
0.030547986
0.06950644
-0.051973782
-0.00692018
0.0008322552
0.006962295
0.04112939
-0.025202531
0.024610527
0.0060493564
0.06117805
0.05230245
-0.011797891
0.013702028
0.04136664
-0.01826397
0.0012573672
-0.0020775828
-0.011164083
0.008334087
0.0056877853
0.11366754
-0.013971331
-0.08938606
-0.038637385
-0.00016131761
-0.030243497
0.03807879
0.0565297
0.012073422
0.01519062
0.02366276
-0.027722972
0.0023442905
-0.068324104
0.0034176952
-0.02123001
-0.120847225
0.031464715
0.009603869
0.006099764
-0.1089256
0.0732037
-4.6422945e-05
-0.038371176
-0.01059333
0.12067657
-0.06776441
-0.0038273989
0.02417206
0.020952953
-0.0015266715
0.09328859
0.0036108857
0.03291973
0.0069690556
-0.029387932
-0.015683707
-0.03200144
-0.0002915603
-0.0033022503
-0.058678012
-0.0058737136
-0.014579522
-0.037493832
0.04575305
0.04530137
0.0009297766
-0.004553059
-0.051802345
-0.008868544
-0.095279336
0.006180179
0.0063217594
0.031933352
-0.006361161
-0.0005793023
0.004813499
-0.00487103
-0.007934863
-0.06987278
0.031521346
0.07566855
-0.048447642
-0.009407595
0.011877943
1.8266484e-05
-0.010120722
-0.054081544
0.032309763
0.021162925
-0.0221734
-0.008233241
-0.011591005
0.013842099
0.012099126
-0.01602235
0.00090663426
0.0847682
-0.051271096
-0.09199458
0.004504063
-0.02187888
0.026051443
-0.049433995
-0.015751097
-0.00433069
-0.035839144
0.027090438
0.047937527
0.038344778
-0.023937477
0.031683438
0.028230522
-0.015756438
0.07650498
-0.01947431
-0.019761005
0.20326836
-0.007477154
0.02680891
-0.0034801706
-0.007148896
0.03418129
0.008466015
-0.0345856
-0.041975025
-0.004990007
-0.023839409
-0.033472713
0.02312631
0.0050053014
-0.00028695486
-0.04393961
0.041579183
-0.002283001
0.010031079
0.01955282
-0.0036534977
0.018846756
0.030029831
0.023913942
-0.005189182
0.008844471
-0.0112135345
-0.012935194
-0.092610754
0.025220647
0.03702338
0.028611563
-0.014428157
0.018420845
0.026492162
-0.07773365
0.06388107
-0.060791552
0.002918501
0.03472
-0.09088232
0.013241817
-0.013166553
-0.020233216
-0.008956316
-0.058920108
-0.20144512
0.00015365345
-0.011873387
0.024368385
-0.052475046
-0.059132226
0.02659586
0.09373518
-0.2922114
-0.16436756
-0.04685766
0.005531622
-0.008813491
0.022806397
-0.008635132
-0.033246316
-0.113884464
0.15493385
0.029561017
-0.012501035
-0.09945161
0.02645955
-0.008305396
-0.027735233
0.009571774
-0.018076755
-0.009711784
0.0015149624
-0.0011830425
0.06592315
-0.0067005916
0.00837226
0.020404028
-0.012123697
0.024975147
-0.013508029
0.0068832827
-0.013021636
-0.063039206
-0.037306108
-0.012309092
0.005053925
0.0072229835
0.13160427
-0.015351394
-0.017091623
-0.004990554
0.02559083
-0.02086855
-0.004609272
0.01480316
-0.035368834
-0.023108358
0.017887
-0.016858257
-0.008214395
-0.028530942
0.05037957
0.038720183
-0.013241661
0.04118312
-0.031120712
0.029792303
0.022085082
0.0110787535
0.010620911
-0.056347154
-0.034647983
0.018319756
-0.25008115
-0.0493875
0.005872806
-0.027209552
0.0073491796
-0.0139313275
0.020267429
-0.026491988
0.018749256
0.080369495
-0.03656157
0.0809923
-0.03259531
0.06512594
-0.055107504
0.031108523
0.048711203
0.08428991
0.022285104
0.015441572
-0.1379144
-0.018972598
0.010251143
0.036868382
-0.0146138575
0.013918976
0.008066357
-0.023841055
0.00044627363
0.014625413
-0.02413577
0.046283606
-0.017760137
-0.034972217
-0.018027483
0.10308622
0.033935595
0.040047657
-0.020609979
-0.0030513841
-0.039710335
0.023237059
0.010727495
-0.018699082
-0.026852291
0.010269533
0.018372657
-0.011901795
-0.033418022
-0.10897602
0.008997095
-0.049513668
0.010123215
0.032573037
0.12962063
0.02455429
0.020661287
0.0062834146
-0.011365063
0.028189704
0.026531134
0.029796021
0.010062937
0.022313982
-0.018897317
-0.021009047
-0.054360628
-0.024372036
0.040898707
-0.019408895
0.016382474
-0.074997686
-0.020480294
-0.0158359
0.008200009
-0.060468663
0.018572187
0.016222497
-0.014981229
0.017149514
-0.033938788
0.09735698
-0.01820126
-0.04148962
-0.011554466
-0.07452585
-0.016781362
-0.0053006643
-0.019557081
0.04539499
-0.02967648
0.2502239
0.006851325
-0.0036372326
-0.014822847
-0.020570913
0.038333863
-0.042036764
-0.044025704
0.014535001
0.004276967
-0.050170142
0.04602168
-0.0010213794
-0.024179814
-0.046643015
-0.014920856
-0.020839363
-0.04842212
0.005277744
-0.022740416
0.042287048
-0.0024948223
-0.08641166
-0.0008925379
-0.02104483
-0.040226534
0.050447185
-0.016253633
0.023700846
-0.10414842
0.008882169
0.047981184
0.021498095
-0.14297481
0.08228755
-0.06953155
-0.018467344
0.061130997
-0.009695803
0.11320511
0.020594697
0.026648877
-0.026508868
-0.04888745
-0.078068264
-0.019689757
-0.02516809
-0.024969477
0.018376011
0.04091193
-0.019142266
0.003811227
-0.023251053
-0.013609192
-0.007035619
-0.027415082
-0.018767731
0.020772386
0.05137574
-0.034491863
-0.031455148
-0.059116766
-0.026679533
-0.0015953567
-0.016814062
0.12596938
0.055716887
0.04574946
0.0039007019
-0.061491564
-0.043426335
-0.005363467
-0.05701152
-0.040855322
-0.011580477
0.08845113
-0.050382346
-0.0033259252
-0.05399382
-0.014552123
0.036469515
0.008853116
-0.015797256
-0.03631687
0.006171766
-0.031904154
0.018515868
0.021928541
0.00040300866
-0.015609078
0.015182968
0.023286652
-0.027599597
-0.043779768
-0.017076848
0.048139073
-0.023767099
-0.005647493
-0.040007923
-0.044882797
0.017872201
0.041223247
-0.029007046
0.0128363725
-0.0069657452
-0.0012064979
-0.052999794
-0.029677732
-0.004318372
0.035977747
0.016549082
-0.03611206
-0.05234279
0.012941062
0.07137498
-0.0078222295
-0.0046880357
0.032309927
0.0005683664
0.08609621
0.01683515
-0.04536227
0.032860007
-0.021740206
0.029960651
0.027049052
-0.044187937
0.046603236
0.0049664136
0.004775511
-0.024671856
-0.0288845
-0.032495953
0.009252389
-0.015793277
0.04846358
0.03514743
-0.005784766
0.016489796
-0.04750235
-0.012328184
0.039093915
0.0029499317
-0.009698194
-0.010032506
0.036382467
-0.092578575
-0.02169715
0.049404442
-0.03583401
0.019384842
-0.13313176
-0.04053119
-0.020068228
-0.06322271
0.0063505108
0.018407768
-0.017444368
-0.13569486
-0.006394202
0.018622408
0.024165662
0.00997834
0.060965326
0.017274432
-0.011213024
0.027589602
-0.009502905
0.013005635
0.009996083
-0.0414917
0.033901896
-0.04710364
-0.046368234
0.06502618
0.0021089083
-0.018312797
-0.0019060934
0.020034656
0.007880032
0.029891111
-0.045399927
-0.06103364
-0.000118011325
0.09415573
-0.038832653
-0.03555576
0.030793821
0.012646157
-0.020198092
0.014738263
-0.0066458113
-0.00061200844
-0.086115524
-0.0023478272
-0.0027482805
0.12824503
0.017434813
-0.05485763
-0.032352146
-0.070736475
0.033017993
0.015589872
0.043735523
0.010206423
-0.034168273
0.035383113
-0.040521827
0.023981605
-0.0072280155
-0.006041704
-0.10238257
-0.004653297
0.03723881
0.075403914
-0.0065059285
-0.013460401
-0.0146505255
0.015795836
-0.023638217
-0.03431262
-0.05055948
0.0125032095
0.06037526
-0.060853537
0.08047839
-0.015500778
0.03088861
0.002175293
-0.22052234
-0.0027220089
0.0037368631
-0.057122055
0.049833976
0.0050626486
-0.03048034
0.004508567
0.0011101752
0.024325214
0.033952314
-0.08416824
0.035117093
0.054573502
0.017630441
-0.009244914
-0.0059226574
0.0036388233
-0.010359857
0.022403749
-0.052395035
-0.0248217
-0.028664695
-0.002736892
0.053550508
0.0005071821
0.011254623
-0.017498039
0.0013190417
0.024858193
0.0034691007
-0.030978505
0.015797256
0.021137413
-0.002843594
0.0018005647
-5.675996e-05
-0.023612622
0.025067672
-0.009998908
-0.032303456
0.054650083
-0.058246147
-0.04534184
0.00386808
0.0042023235
0.012470233
0.03547833
-0.007897576
0.01175498
0.0014163153
-8.028683e-05
-0.016838558
0.0090395985
0.001960856
-0.037149668
-0.030635817
0.00037740247
0.0019104724
-0.002338404
-0.06848557
-0.04489694
0.019988146
0.019853385
-0.00024013438
-0.038910296
-0.07492819
0.024522465
-0.013570031
-0.0117545845
-0.016323522
-0.09237635
0.0032497447
-0.0073809815
0.0013489275
0.019585239
0.0027492135
0.0012545526
-0.039411847
-0.3363495
-0.006985095
-0.0067624543
0.06348998
-0.028833471
-0.072129644
0.0071122227
0.0005692292
0.06244539
0.06276569
0.030688718
0.0037984378
-0.011267266
-0.022188945
-0.06618283
0.012416914
-0.02095326
0.019082759
-0.061338734
-0.06398615
-0.034122035
0.04661527
0.057140235
-0.12365604
-0.016539516
-0.036195118
-0.014677569
0.03862271
0.001857024
0.06268552
0.008137431
-0.04513327
-0.024167266
-0.01054118
0.03550249
0.010498254
-0.021427916
0.0036161307
-0.0041602417
0.022426944
-0.042670064
-0.001960513
-0.019845065
-0.012854982
0.023225714
-0.052885357
-0.010949754
0.024087247
0.008398971
0.008704339
-0.045226566
-0.009370721
0.0076429136
0.035771992
-0.0010800386
0.04076121
-0.011187048
0.016098669
-0.047082298
-0.052683342
-0.03321142
-0.012732314
-0.13405174
0.057686105
-0.027335761
-0.025329437
0.041233398
0.02940645
-0.01304063
-0.026313622
0.0056176637
-0.011128849
-0.028855981
0.015525158
-0.0039461125
-0.001323984
-0.07528899
-0.036205295
0.037966713
0.008962484
0.018114675
-0.027985623
0.018183239
0.030267656
0.09873583
-0.029758083
-0.0011415866
0.022180328
-0.01705366
0.01063275
-0.017264394
-0.044802245
0.014927971
-0.04207321
0.10210498
0.032508783
0.012711014
-0.00031970692
-0.007940789
0.0060327523
-0.001030084
-0.013049149
-0.0023698774
-0.028843354
0.0039756866
0.019109283
0.011103406
0.00307254
0.048674215
0.040778227
0.027525043
0.030130647
-0.016465409
0.02127938
0.06541538
0.018785996
0.039294578
0.027994368
0.0062376307
-0.020225033
0.0051037166
-0.0036728196
0.10498278
-0.14814477
0.013568642
0.012444487
0.01648902
-0.029558972
-0.007825667
-0.05028153
-0.005607983
-0.017784115
-0.054535646
0.00045624116
0.10763282
0.015153424
0.00077519816
-0.0030961765
-0.016409246
0.04509993
-0.007704769
-0.03488899
0.0016501612
0.02255555
-0.028727528
-0.04191814
-0.015410648
-0.013908291
-0.010843819
-0.011341718
0.019492641
-0.017477674
0.012522957
-0.024810897
0.028613795
-0.053806484
0.020965686
0.04156154
-0.008913198
-0.018944839
-0.0022075651
-0.01674393
0.0090031205
0.0031925135
0.008993269
0.0052957684
0.011333621
0.013858558
0.01157377
-0.037028342
0.07607626
-0.0023793143
-0.0015409093
0.04195468
0.022256281
-0.038858473
0.01193123
0.09461104
-0.10295838
0.019347655
0.02832121
0.034847416
-0.030659622
0.08640579
-0.037396867
0.0067652296
-0.012908417
-0.010317998
0.05059238
-0.04206725
0.0051571587
-0.019305661
-0.030344747
-0.011132352
-0.008629341
0.016186425
0.0044161454
0.06253713
-0.031773545
0.012576942
0.086422496
-0.006227681
-0.008095324
0.029226394
0.011562211
-0.027911264
0.012203796
0.065203644
-0.035132814
0.012512534
-0.011946969
-0.118043356
0.026716936
0.017758572
-0.025774008
0.01770054
-0.07152544
0.015261408
-0.04805966
-0.07133155
-0.04721464
-0.03172871
-0.00653979
0.020603636
-0.0012217604
-0.03880562
0.020147756
-0.025230808
0.019627813
0.008052577
-0.006880427
0.0070226244
-0.019410156
-0.017126601
-0.016610673
0.027104763
-0.014849359
-0.08004527
-0.011497068
0.02538402
0.014939235
-0.0067928005
-0.00812121
0.005087488
0.00059025764
-0.004463009
-0.011234905
0.029749004
0.009639154
0.026371555
0.03005336
0.039282624
-0.018948212
-0.010685063
0.028110638
-0.013495827
0.021017933
-0.05088291
-0.012578074
0.030169083
0.041997418
-0.053814158
0.011246827
-0.012775705
0.006440128
-0.062470894
-0.023548352
-0.03385739
-0.049620505
0.06442201
-0.005105691
0.028848693
-0.03689394
-0.09948408
0.0281038
-0.015411773
-0.0030285597
-0.018470785
-0.0037410983
-0.026159959
-0.013612687
0.049257964
-0.03444315
-0.015447484
0.0067074695
-0.0068668597
-0.028448833
-9.176911e-05
0.051485945
-0.0032408542
0.0025834616
0.0227291
-0.0013030018
0.018419212
0.0015293154
-0.016509298
0.029995617
-0.0077876775
-0.007925998
-0.0029354969
0.017986225
-0.020229837
-0.01860566
-0.017516337
0.036545116
-0.06440837
0.0308549
0.0041163173
0.0032134838
0.0014333037
-0.040167138
0.05071476
0.017663
0.015573103
0.06419184
0.048434578
-0.011039544
0.009249475
-0.025730425
-0.028204901
0.042561557
-0.0059632263
0.007231015
0.06955941
0.034816682
0.034612752
0.032764923
-0.06925516
0.029786777
0.023843275
-0.035425566
0.083141916
-0.00091252825
0.04076988
0.04285453
0.009259685
-0.0014970483
0.042267665
-0.03799592
0.0012910126
-0.0307006
0.017560609
0.013132523
0.0012354006
0.015207888
0.02324759
-0.017007146
0.0016559993
-0.0022321518
0.0033257648
-0.02384304
-0.02874828
0.010035253
-0.0048058243
0.06011514
-0.22187966
0.0053297137
0.0047268993
0.027837694
0.05606734
-0.00262343
-0.011666674
0.030845571
-0.038254924
-0.02707131
-0.006828228
0.0059855
0.053445827
-0.0021337834
0.022007592
0.009110925
-0.024672301
-0.012692845
-0.0025171903
-0.04830054
-0.011329487
-0.034461938
0.04582977
-0.006179364
0.03452348
-0.032147247
0.03247388
-0.014631879
0.020995472
-0.0037649886
0.026429802
-0.021030026
0.015062154
0.054422338
-0.022785878
-0.014043857
0.05207358
0.004943372
0.021268077
0.052050702
-0.030933626
-0.04441452
0.049332596
0.06735326
0.009323208
0.06664553
0.055744
0.008754145
0.0118040275
-0.0054508676
0.0459456
0.020077446
0.0012712224
-0.04802372
0.042084314
0.014321423
0.008198285
-0.03845947
-0.0071673696
-0.024560617
-0.01969928
-0.021315282
0.0014175992
0.013186909
-0.009613233
0.049836848
-0.0060562454
-0.0047319373
0.010237988
-0.048608616
0.018934166
-0.020251634
0.031764317
-0.029175948
0.0039825146
0.005228523
0.043755926
-0.01750488
-0.17904837
-0.02335008
0.030015785
-0.009615089
0.044834062
0.036061008
-0.04142999
-0.038382553
-0.028093304
-0.0033621148
0.03622928
0.024733389
0.015273091
-0.026595695
-0.012031124
-0.0034117757
0.003906361
-0.011333375
-0.04147957
0.021324318
-0.00372493
-0.03811259
0.009631778
-0.04840121
0.013825641
0.027697656
-0.029292244
-0.007517036
-0.0075031132
0.028928136
-0.042000797
0.04931672
-0.026528034
-0.0025776732
0.08499833
0.004746346
0.004733395
-0.041842934
-0.03904818
-0.012320456
0.010582917
0.09820838
-0.06618485
-0.007490867
0.029447362
-0.0062058507
-0.0338232
-0.0049472195
-0.0041070343
0.014252246
-0.0056685912
-0.023303058
-0.028645245
0.034679722
0.03224767
-0.015831828
0.004670282
0.020960571
-0.06248683
0.023049006
0.05197979
0.021027185
0.017787708
-0.017395684
-0.03685523
-0.0024435984
0.02482067
-0.037774585
0.023230143
0.016928138
-0.05645273
0.08592932
0.010922153
-0.02244931
-0.016332678
-0.002582866
0.0003832144
-0.028366212
0.0072428524
0.014567005
-0.05594637
-0.007814799
-0.030742422
0.03459619
0.06311102
-0.013541993
-0.029108562
-0.024583085
0.01324298
-0.07756253
-0.023528505
0.037782826
-0.015723241
-0.047418024
0.008199087
-0.074803695
0.013293787
0.10702587
-0.014985277
0.08869567
-0.014410371
-0.03621125
-0.008111902
-0.018775325
-0.02375239
0.018901968
0.01658354
-0.016158832
0.013484962
-0.025544805
-0.016469767
-0.008956796
0.022996644
-0.0075923163
-0.055413548
0.051915664
-0.060042586
0.031367783
-0.01638404
0.020460974
0.049276855
-0.0046958146
0.027024616
-0.019183513
0.00079850067
0.008239333
-0.031109365
-0.012897681
0.011423728
-0.037232358
-0.042272884
-0.040524807
0.0025931664
-0.05506151
0.065689616
0.04045609
-0.0030791685
0.033140216
0.09261902
0.024337688
-0.038277116
0.054284994
-0.010223907
0.07413568
-0.016858675
0.00024527722
-0.0064016823
0.06287193
0.009339165
0.0017308668
0.04495738
0.009043526
-0.04840822
0.007873834
0.10921436
0.016010698
0.0025539107
-0.007346922
-0.008920626
0.050142597
0.00621635
-0.040691234
-0.0019847036
-0.050736193
-0.00902664
-0.00446556
0.025494635
0.0022055868
0.04241269
0.020054111
0.044195626
0.003922233
0.034554943
0.025649495
0.016156938
0.016954625
-0.05545062
-0.029484848
0.00084415695
0.013103195
-0.007326702
-0.019069655
