-0.44960237
-0.5565619
-0.29833895
-0.674597
-0.8132824
-0.5210373
-0.54725915
-0.70015156
-0.39393696
-0.49935982
-0.6313841
-0.36732998
-0.6684486
-0.8505894
-0.4785938
-0.44856775
-0.6134256
-0.30911317
0.6427809
0.7156601
0.5028125
0.86109304
1.0097808
0.63419425
0.59857684
0.7944208
0.39762017
0.8022106
1.0944451
0.55789995
0.91116655
1.2172062
0.6999249
0.5004142
0.71536654
0.28927594
0.64537036
0.8289837
0.4773589
0.74345183
0.88532597
0.56913245
0.48038343
0.58908457
0.36320114
-0.507645
-0.69729465
-0.34888023
-0.75443137
-0.95418173
-0.54130846
-0.48511577
-0.6315654
-0.35202226
0.8377668
1.1314988
0.545625
0.9899072
1.1048353
0.7845676
0.54192555
0.5991033
0.48039955
0.61946493
0.749444
0.4937793
0.766035
0.90114844
0.5774779
0.44007483
0.6066251
0.323839
-0.84687066
-0.89968
-0.7048594
-0.7716128
-0.81386393
-0.5743104
-0.22108102
-0.39586136
-0.070506945
-0.5870321
-0.7088713
-0.42021593
-0.6671271
-0.73429203
-0.55357575
-0.4732758
-0.54052085
-0.3596934
0.63069177
0.8139674
0.43712705
0.793443
1.0323967
0.64101803
0.49562094
0.6454887
0.38288984
0.6440644
0.85910124
0.50018483
0.8746297
1.1349046
0.7053743
0.57195544
0.74256855
0.40607718
0.5754466
0.7825183
0.43480635
0.8037721
1.1133398
0.68849385
0.54758817
0.79611534
0.4084148
-0.6767386
-0.6188239
-0.513599
-0.6695892
-0.44476065
-0.599163
-0.47538105
-0.57257015
-0.30827308
-0.54930377
-0.7466313
-0.40073383
-0.7257421
-0.98111826
-0.5661678
-0.45522156
-0.61865294
-0.34760126
-0.54525733
-0.7217021
-0.4390734
-0.8021704
-1.0462052
-0.61711895
-0.501501
-0.6964474
-0.36705697
-0.7678464
-0.7912686
-0.45925006
-0.5861279
-0.61007404
-0.41942862
-0.3907097
-0.4800899
-0.13675725
0.90873176
1.0762902
0.49595174
0.65260345
0.7704628
0.5254313
0.3971923
0.41393617
0.27385294
0.59848166
0.7442309
0.42576307
0.8511013
1.0174046
0.62838095
0.5407931
0.71102905
0.40228444
-0.71932155
-0.9060887
-0.48063377
-0.7317101
-0.711914
-0.57398677
-0.39825666
-0.45201027
-0.16982752
0.658674
0.8775542
0.49057016
0.86300105
1.1982156
0.75397766
0.47862318
0.74614555
0.3230265
-0.5321383
-0.68676645
-0.38120404
-0.68566656
-0.84341216
-0.53116137
-0.45830026
-0.545075
-0.31310782
0.5997329
0.8798806
0.557244
0.90346724
1.211649
0.77060485
0.62710226
0.87804085
0.37270743
0.72536814
0.8301496
0.5835873
0.81325704
0.98851097
0.6909567
0.44546768
0.635015
0.33542368
-0.4355399
-0.57227534
-0.3907234
-0.6987794
-0.78737783
-0.4524284
-0.5298746
-0.5999098
-0.37372583
0.76363903
0.98642397
0.6099545
0.9259408
1.1841788
0.68328375
0.54731846
0.76435983
0.36855206
-0.6412392
-0.7275622
-0.461404
-0.58165884
-0.52000225
-0.41157055
-0.4256527
-0.44671997
-0.33411726
0.64612985
0.81189954
0.47343126
0.80585283
1.0057745
0.6160692
0.47008526
0.63246924
0.4039785
0.77425885
0.86050004
0.5954994
0.8880919
0.9607583
0.81550354
0.643588
0.8594902
0.50213605
-1.4197842
-1.4982096
-1.0984327
-0.008744831
0.044153225
0.028074877
1.1878641
1.2360605
0.85650736
0.65537405
0.83854306
0.5348272
0.8265598
1.0075065
0.6987798
0.57886106
0.7133553
0.4278775
-0.5077425
-0.5850623
-0.41472995
-0.7080027
-0.7528742
-0.54705274
-0.50682366
-0.59721786
-0.36058334
-0.53447175
-0.63370216
-0.3667794
-0.7361446
-0.8392842
-0.5403575
-0.598859
-0.6202476
-0.4193528
0.20526372
0.55114305
0.93917334
0.17740828
0.62287456
0.9621836
0.06824514
0.28157732
0.8875239
0.6129289
0.739212
0.44378635
0.85322
0.98189765
0.68474334
0.57782656
0.7566404
0.46158615
-0.6735182
-0.6820006
-0.50038415
-0.7036408
-0.6323325
-0.5772207
-0.48664254
-0.583918
-0.42269886
0.66742724
0.7552551
0.54069775
0.76330966
0.7897084
0.5351903
0.52522963
0.5782606
0.47581336
-0.48242533
-0.58471274
-0.3259568
-0.5819966
-0.70644
-0.41355407
-0.43150428
-0.49152687
-0.30572373
-0.91833955
-1.0118662
-0.64276516
-0.0073079187
0.46719575
-0.021541225
-0.89882714
-0.9828411
-0.6538482
-0.46764076
-0.5268646
-0.34271556
-0.6048435
-0.66406286
-0.4604236
-0.4340821
-0.5584433
-0.35589927
-0.5342022
-0.70857996
-0.40107462
-0.75359523
-0.94067776
-0.5898333
-0.51781523
-0.6245647
-0.38118958
-0.601276
1.3386484
-0.57943714
-1.1156988
0.36353844
-1.0019202
-0.8100115
1.0570294
-0.8363272
-0.7666133
-0.919579
-0.4207613
-0.6694953
-0.7213133
-0.35395056
-0.2754498
-0.3988899
-0.048618507
0.69238114
0.904418
0.5321077
0.9190969
1.120169
0.72475153
0.5523788
0.75388473
0.38121042
-0.8150852
-0.9290333
-0.5133531
-0.5623899
-0.6211409
-0.39468372
-0.37239054
-0.50903636
-0.1811856
0.61148393
0.6980383
0.46824086
0.8197401
1.0043623
0.6591053
0.5700124
0.7177191
0.44049382
0.6409947
0.861723
0.47506008
0.981002
1.3428038
0.76567763
0.623249
0.88829666
0.42537028
0.60265845
0.8219484
0.46894005
0.8900581
1.1216625
0.66536033
0.59173054
0.7521277
0.41924992
-0.4666367
-0.49418443
-0.30567563
-0.5882004
-0.6776796
-0.49088773
-0.5566198
-0.6916291
-0.3301494
-0.8040905
-1.0422024
-0.6287423
0.12457957
0.039235607
0.14391723
1.4029752
1.5924512
1.068315
-0.6060496
-0.73790526
-0.397363
-0.63695663
-0.7000286
-0.46371076
-0.38839278
-0.49943256
-0.26469767
-0.5225218
-0.6581358
-0.41663635
-0.71951133
-0.8663869
-0.55583173
-0.46050063
-0.6404368
-0.33800852
-0.503336
-0.6566373
-0.34595966
-0.6771653
-0.8729706
-0.567774
-0.40636688
-0.52015215
-0.3113832
-0.5260143
-0.6922621
-0.4052838
-0.71385664
-0.86952007
-0.55990297
-0.4427374
-0.57119584
-0.3322722
0.6523435
0.8586356
0.5149157
0.86203986
1.0757935
0.65693533
0.605591
0.7596942
0.4747003
0.6259606
0.7464599
0.47533166
0.76524734
0.8901513
0.614868
0.57682216
0.6673992
0.46844608
-0.5611284
-0.67553973
-0.45104298
-0.692437
-0.75616086
-0.53921956
-0.43432948
-0.57137257
-0.33828533
-0.51486474
-0.61422074
-0.34664506
-0.64635396
-0.72421515
-0.48708358
-0.44860783
-0.55582875
-0.3879098
-0.49889404
-0.62779814
-0.40065032
-0.69532096
-0.84846586
-0.51297677
-0.42593476
-0.579612
-0.3252936
1.1064565
-0.030406367
0.86127555
0.5191831
0.27651894
0.40792882
0.5099849
0.061983194
0.55535734
-0.6590377
-0.7091278
-0.5066307
-0.77833164
-0.50796294
-0.66507924
-0.5520228
-0.6710704
-0.40107056
1.324509
1.4787498
0.9243866
0.6669191
0.5052693
0.5978561
0.15724911
0.08822748
0.11479649
-0.59446234
-0.53384656
-0.35352898
-0.56813234
-0.58010906
-0.45099172
-0.46056283
-0.5048503
-0.2794205
-0.68541527
-0.752476
-0.47825694
-0.6506131
-0.64443076
-0.5543886
-0.5337871
-0.5732612
-0.3425565
-0.62834775
-0.5743737
-0.45309395
-0.5280109
-0.33644602
-0.39458692
-0.5840173
-0.5514701
-0.3920987
-0.61051905
-0.5578007
-0.39223957
-0.55402523
-0.48164454
-0.39221892
-0.42810073
-0.6355569
-0.27001247
0.62210417
0.8233891
0.47825164
0.8245253
1.0162369
0.64288074
0.5133031
0.64922756
0.41827795
0.6123623
0.8263004
0.46626025
0.87139034
1.1409765
0.6616556
0.5871034
0.79590243
0.43648624
0.6801742
0.8322835
0.48436585
0.9457176
1.1921684
0.68883115
0.59760827
0.794559
0.42465144
-0.51566917
-0.602207
-0.40694663
-0.71868384
-0.83463657
-0.5636003
-0.56114745
-0.68074626
-0.42049697
0.6564584
0.7678631
0.5218289
0.8825887
0.9626636
0.6195461
0.589054
0.7228369
0.44166186
0.5886995
0.81044906
0.48497835
0.8208585
1.0760021
0.6730791
0.53535455
0.71822524
0.39478508
0.6386563
0.8089233
0.40628082
0.85512567
1.0739822
0.58998513
0.59959435
0.7235581
0.37772253
0.63073874
0.81650746
0.5232943
0.87472636
1.1173725
0.71543676
0.5447442
0.7331711
0.39925727
-0.5269874
-0.71314883
-0.35240835
-0.7284379
-0.8696345
-0.53264546
-0.5239033
-0.60323536
-0.31539842
-0.6054657
-0.77082187
-0.4735072
-0.76749223
-0.92234117
-0.60054594
-0.48053035
-0.6404258
-0.31949112
-0.5389259
-0.70912606
-0.39028463
-0.74721557
-0.95577925
-0.5519445
-0.5043936
-0.6533344
-0.37209228
-0.54241365
-0.7292488
-0.3880782
-0.7916959
-1.0081098
-0.5929212
-0.5207156
-0.66028017
-0.37662876
0.549939
0.7848047
0.47974476
0.9216835
1.1411989
0.7080127
0.7381211
0.9438247
0.5643411
-0.6720228
-0.846812
-0.47327748
-0.7744825
-0.9563385
-0.4890785
-0.5271123
-0.6353216
-0.38839042
-0.8599027
-0.9461429
-0.47986245
-0.67344517
-0.75353897
-0.4296487
-0.37979558
-0.5401641
-0.1340135
-0.46998575
-0.65841544
-0.34548423
-0.6368246
-0.79606867
-0.51486087
-0.477967
-0.5893221
-0.32302582
0.5961738
0.7332194
0.48023105
0.8337676
0.7989705
0.6604769
0.74358827
0.75970024
0.6679972
0.77646077
0.9120238
0.5646244
0.80741906
1.0146402
0.5799433
0.50449115
0.53680015
0.4231231
-0.833458
-0.7209684
-0.51173764
-0.61108583
-0.48874733
-0.48156253
-0.51248604
-0.6188261
-0.31634068
1.0592749
1.32669
0.8169227
-0.06057636
-0.07901993
-0.043448776
-0.88003284
-1.0513612
-0.70364827
0.6154865
0.7733376
0.47456786
0.7796529
0.9399283
0.6061701
0.57083154
0.6800581
0.3878557
-0.59421307
-0.55757844
-0.4453426
-0.56891394
-0.42833477
-0.39684162
-0.5016347
-0.51564264
-0.35640496
0.14334378
0.17744571
-0.2939291
0.7591563
0.61539894
0.5128352
-0.33073142
-0.6746231
-0.543376
0.7864673
0.9142808
0.5951545
0.8307479
0.9679154
0.6849892
0.4502471
0.5316127
0.36474264
-0.33937272
-0.3806785
-0.2748385
0.35772067
0.37247542
0.32606488
1.1717947
1.2344233
0.7977309
-0.50432724
-0.61780936
-0.3182126
-0.61064905
-0.7108221
-0.4278656
-0.54191303
-0.6611366
-0.34793645
0.50855786
0.6086795
0.41825816
0.76435363
0.85529184
0.5693208
0.5305325
0.6180665
0.4495344
-1.5062158
-1.4997337
-1.0535179
0.0012872014
0.19857995
0.0051034726
0.94711727
1.0698813
0.713231
0.48632684
0.6764367
0.36052173
0.83614147
0.98220074
0.61160094
0.6341732
0.7872999
0.48571667
0.6742388
0.8879821
0.5314071
0.95524764
1.2130332
0.6788901
0.5711515
0.7655876
0.45991313
-0.7236778
-0.78476554
-0.41675898
-0.5905051
-0.63700235
-0.44042403
-0.40382197
-0.5272841
-0.15546213
-0.2183725
-0.3338946
-0.1429816
0.65726143
0.62191427
0.5284929
1.5746585
1.7031124
1.1139282
-1.2872362
-1.4017712
-0.9123992
-0.105409205
-0.13617301
-0.00951847
1.1032178
1.2980587
0.9265734
1.0161566
0.7241414
0.3701714
0.8222147
0.62813765
0.24307978
0.74816585
0.44828504
0.2867018
0.6363441
0.8384869
0.48523167
0.7857722
1.0315696
0.6441462
0.49572676
0.65581816
0.35004058
0.6023653
0.7963389
0.40195516
0.8514565
1.0232942
0.665072
0.56115603
0.7259332
0.4107337
0.64985096
0.78704405
0.51292944
0.8555929
1.0322847
0.716397
0.5175039
0.6491491
0.38593096
-0.56028056
-0.76242006
-0.40613806
-0.7591708
-0.9795128
-0.591777
-0.47435045
-0.6252953
-0.3440007
1.1658642
0.273214
0.33087608
0.76445013
0.34831756
0.37357548
1.2113237
0.5635311
0.4562611
-0.64469653
-0.74878377
-0.44297284
-0.6963353
-0.83011544
-0.4992127
-0.43876037
-0.5626442
-0.24955226
0.6399531
0.83100796
0.52289456
0.7861127
0.95329297
0.58675015
0.4275925
0.55339926
0.30393028
0.6070363
0.76547194
0.38541472
0.8581724
1.0237197
0.6399271
0.5844742
0.66465276
0.5093491
0.5949074
0.760271
0.4852609
0.83425134
1.0336155
0.5969165
0.47564852
0.68698937
0.38941136
-0.5408186
-0.6544645
-0.38993156
-0.70310146
-0.8346373
-0.56698716
-0.4563072
-0.5762242
-0.3969814
0.6768892
0.8288258
0.4134589
0.9096782
1.109377
0.69663745
0.65322185
0.84687674
0.55062956
-0.5037346
-0.5884283
-0.3757615
-0.729741
-0.85488045
-0.5590723
-0.5687247
-0.7277016
-0.4086904
0.826993
1.0561036
0.41791856
0.70127296
0.76371765
0.47393024
0.470746
0.58880347
0.38948095
-0.6481886
-0.40612763
-0.47730392
-0.5368615
-0.17168339
-0.4809753
-0.664513
-0.50616145
-0.53058213
0.8678784
1.073878
0.59011686
0.9154824
0.9389132
0.63477194
0.52660775
0.4898208
0.44024166
0.6623497
0.8551833
0.43779916
0.8164739
0.9818742
0.66950864
0.54152757
0.6462247
0.43551132
-0.5378655
-0.66347116
-0.39913207
-0.661458
-0.8109871
-0.51191247
-0.45489076
-0.58263266
-0.3311162
0.558895
0.68605304
0.41714582
0.770186
0.8506511
0.6138363
0.4864565
0.59506094
0.40064082
0.17670405
-0.46354917
-1.6084641
0.092628844
-0.7197709
-1.5613291
0.27312285
-0.37322655
-1.1701497
-0.5020073
-0.6812681
-0.36601382
-0.72759444
-0.90438277
-0.5375171
-0.46774593
-0.6163973
-0.39342567
0.26209384
0.36218888
0.18495527
-0.80590856
-1.1483142
-0.79568845
0.40437132
0.46210328
0.26474783
-1.4251616
-0.6088387
-1.1335402
-0.60799855
-0.2538127
-0.5255467
-1.1883842
-0.7644578
-0.79447436
-0.5232226
-0.69690293
-0.35299176
-0.6011908
-0.77911097
-0.48531067
-0.34655
-0.43268755
-0.23852484
-0.5769593
-0.6897368
-0.27818468
-0.71182007
-0.99282974
-0.5275632
-0.52356195
-0.687638
-0.25981495
0.65098745
0.86346555
0.5606814
0.8808458
1.0935658
0.66078174
0.5692116
0.75189686
0.42266893
0.5368539
0.725318
0.42274222
0.80715275
1.0342441
0.69024664
0.5237975
0.7520384
0.43793246
0.60345304
0.81656605
0.4201166
0.92640924
1.1008579
0.6729456
0.68411934
0.85757256
0.5455169
0.6547981
0.7742107
0.4845134
0.81981355
0.9391225
0.6442745
0.5062984
0.62855744
0.42548215
0.6272251
0.83739907
0.50793993
0.8508227
1.1326892
0.7198666
0.58715105
0.8042187
0.38319287
-0.5839006
-0.7725553
-0.3947678
-0.6552108
-0.70678127
-0.41768375
-0.44213772
-0.54756474
-0.26076484
-0.5672876
-0.7564821
-0.4016036
-0.7479865
-0.98157954
-0.56773
-0.43218958
-0.635475
-0.33206245
-0.56723535
-0.7519019
-0.46976504
-0.76692504
-0.97738606
-0.57327473
-0.49248877
-0.6459064
-0.34484196
0.5223724
0.64288527
0.42249367
0.8448436
0.80411965
0.56881446
0.779149
0.81695634
0.7014864
-0.7714327
-0.7686981
-0.42651924
-0.69987506
-0.81805587
-0.5107793
-0.42344257
-0.53342384
-0.14655672
-0.8139524
-0.8946149
-0.62824756
-0.90849274
-0.9001268
-0.69169706
-0.6494183
-0.6828178
-0.4369813
0.6004716
0.70356905
0.43911794
0.793348
0.89287543
0.5620067
0.5130552
0.6019065
0.39632025
0.6025116
0.7593606
0.42672133
0.8164416
0.93101996
0.57851285
0.5311572
0.61231816
0.39084423
0.6090309
0.79597986
0.4844183
0.8208367
0.99648064
0.61428
0.5027469
0.65581506
0.3424778
-0.63126975
-0.74698114
-0.48595798
-0.7224626
-0.8723085
-0.5606874
-0.45099983
-0.5861148
-0.31350583
0.53616196
0.5779992
0.3911316
0.7566123
0.85610384
0.5568192
0.67921746
0.881904
0.51789594
-0.59473944
-0.65420276
-0.35156858
-0.5360321
-0.49833602
-0.4026077
-0.4358337
-0.47556514
-0.26448944
-0.6695315
-0.9105668
-0.41684666
-0.92179203
-1.1805724
-0.6048501
-0.539338
-0.7151095
-0.37942842
-0.62968194
-0.7080722
-0.44457215
-0.81974924
-0.7877653
-0.6363262
-0.45034677
-0.5793274
-0.30716202
-0.64450425
-0.83625215
-0.5266357
-0.75632113
-0.9297065
-0.5702522
-0.4120991
-0.5569637
-0.28200018
-0.5509214
-0.6715476
-0.41518348
-0.670025
-0.71424544
-0.5076667
-0.42598733
-0.5075883
-0.31684273
-0.5697947
-0.5244034
-0.41937414
-0.5631436
-0.40480465
-0.42681924
-0.49573275
-0.47598296
-0.32435918
0.67497975
0.7857055
0.50705385
0.88589066
1.1122303
0.6915718
0.5046808
0.7176245
0.38837904
0.6440521
0.7853318
0.41935426
0.8000357
0.8957777
0.6005233
0.55861425
0.6587284
0.45276847
-0.5416008
-0.61578685
-0.43055674
-0.7496726
-0.8153134
-0.6070199
-0.5059898
-0.5990505
-0.37779576
-0.56613106
-0.75027406
-0.43758252
-0.7975669
-1.0067118
-0.5982207
-0.5137469
-0.71162844
-0.3560592
-0.4979014
-0.60565615
-0.35847324
-0.6323364
-0.76291245
-0.49609876
-0.47750053
-0.51980096
-0.29134503
-0.6292134
-0.6164486
-0.4736038
-0.587087
-0.43603668
-0.45937416
-0.46851447
-0.500299
-0.37672284
-0.7346839
-0.8746435
-0.3991124
-0.76418597
-0.77921593
-0.44809106
-0.41592997
-0.5344886
-0.1205634
0.58941525
0.8110976
0.4480168
0.85365033
1.110654
0.61903405
0.53084517
0.6993525
0.39182088
-0.6015017
-0.6840997
-0.34323913
-0.59349114
-0.6568366
-0.44103998
-0.42810273
-0.51198024
-0.23871377
0.6495851
0.88847417
0.45390508
0.8485597
1.0703646
0.64997286
0.6039715
0.8283236
0.41872638
0.61694
0.669703
0.4503385
0.8794617
0.96444887
0.5907145
0.5930643
0.82382065
0.4471268
0.985336
1.0900126
0.6277147
0.5289166
0.7891018
0.46058142
1.0959307
1.0691074
0.8482432
1.0888742
1.0788046
0.8249738
0.9020558
0.7789367
0.6503498
0.32679662
0.20323665
0.337713
0.6100722
0.7599253
0.5014696
0.8568907
1.0026433
0.6009314
0.52520865
0.723428
0.38625047
-0.6869359
-0.84097505
-0.45259243
-0.72752523
-0.7953933
-0.45815372
-0.5294105
-0.6171486
-0.27822283
-0.56329703
-0.59287494
-0.3483128
-0.62997687
-0.62104726
-0.5073168
-0.44342446
-0.5130595
-0.21505706
-0.8648173
-1.0772201
-0.49835646
-0.62386656
-0.5874147
-0.43640065
-0.26850423
-0.44809657
-0.09856833
0.6487726
0.8076456
0.4665003
0.805607
1.0059437
0.6120233
0.43044242
0.62318236
0.32457286
-0.43473127
-0.5499691
-0.32052207
-0.6486531
-0.7391412
-0.5083329
-0.5251186
-0.6424389
-0.3627806
-0.56147844
-0.735544
-0.4192618
-0.7530598
-0.9818867
-0.5773118
-0.46918428
-0.6539947
-0.3166375
-0.6300789
-0.6808352
-0.3319879
-0.6032522
-0.72213405
-0.44831562
-0.48280922
-0.6291429
-0.21870503
0.8226253
1.0014441
0.49406064
0.6939622
0.7877141
0.3499817
0.34511638
0.37100416
0.28251487
0.83229613
0.9246041
0.60851675
0.788455
0.8708865
0.56686586
0.7305345
0.7431326
0.547611
-0.62436104
-0.7089198
-0.46210206
-0.6544295
-0.5465982
-0.52399546
-0.53856826
-0.60262865
-0.36943254
0.6604176
0.885307
0.48962885
0.8860283
1.2334353
0.69022155
0.5289526
0.7748568
0.3637947
0.6853782
0.86045545
0.51752067
0.92317146
1.1837727
0.6884023
0.614439
0.84460616
0.42150462
0.56435424
0.761982
0.4257805
0.83520585
1.0696678
0.63228095
0.60342515
0.7317191
0.42734265
0.7437576
0.80786926
0.5049483
0.7551204
0.707333
0.5710009
0.62388587
0.68228406
0.50374013
-0.03441673
-0.20434473
0.0064512757
0.86509323
0.7817175
0.66866463
-0.3262896
-0.39162484
-0.3171791
-0.5249936
-0.5825223
-0.3767593
-0.6154397
-0.68760103
-0.52957827
-0.36232615
-0.5301106
-0.2754679
0.6566152
0.90097165
0.48128787
0.9412281
1.2050321
0.6815578
0.60565674
0.83740306
0.4497833
-0.106704354
-0.2412314
-0.20556515
0.58011955
0.58870876
0.35850745
-0.6017148
-0.9762806
-0.596671
-0.52915335
-0.65867174
-0.36115742
-0.6984205
-0.8476214
-0.555976
-0.4957129
-0.63328725
-0.37892932
0.6312058
0.848332
0.45192513
0.8255554
1.0556974
0.653496
0.5468152
0.7436699
0.4363224
-0.56193876
-0.55528903
-0.43984994
-0.6766011
-0.6310375
-0.50185686
-0.45959345
-0.59058213
-0.33198097
0.5782522
0.7227613
0.4169537
0.6989107
0.8288926
0.5391253
0.45884165
0.5578001
0.41923237
-0.591401
-0.7253717
-0.45186272
-0.71518743
-0.8523097
-0.54086095
-0.46248585
-0.606545
-0.35500598
-0.5055308
-0.59341997
-0.39386293
-0.72608876
-0.7791673
-0.5423163
-0.57023025
-0.6408374
-0.36873445
0.74843466
0.9879332
0.54411346
0.9822264
1.2415725
0.77680665
0.59443444
0.8315841
0.41517052
-0.5428051
-0.58747375
-0.41601646
-0.52829826
-0.6261974
-0.41863456
-0.38277295
-0.4590063
-0.27421468
-0.5884952
-0.75396776
-0.38810924
-0.6765367
-0.87891585
-0.45723456
-0.37785214
-0.48495805
-0.2756273
0.6701104
0.8105469
0.5524755
0.8784633
0.98361236
0.69427216
0.5507867
0.66835463
0.40977523
1.4389985
1.5221642
1.1310906
0.6407212
0.48144904
0.46671695
-0.39455065
-0.5551456
-0.31323647
0.60876447
0.8043521
0.4719439
0.8312368
1.1215507
0.68200624
0.50946194
0.7250208
0.35266438
0.6457813
0.78698325
0.46903092
0.8548721
1.0283026
0.68167555
0.53397423
0.7375002
0.3807646
0.61879957
0.7732607
0.4409138
0.72512954
0.83098537
0.58127344
0.49173087
0.54772973
0.35563126
0.67665523
0.5983128
0.57461023
0.7155673
0.63349617
0.6775842
0.51786613
0.5108934
0.46776733
-0.7050353
-0.8095943
-0.41526678
-0.8373518
-0.9135344
-0.5560064
-0.4887851
-0.66306984
-0.19499378
-0.5529945
-0.68692017
-0.42631793
-0.77715844
-0.8773018
-0.5792275
-0.56241006
-0.7358026
-0.44761506
-0.53815717
-0.64498514
-0.38506702
-0.76207167
-0.78734523
-0.6115858
-0.46553755
-0.6496132
-0.38127354
0.5894055
0.80310136
0.4814353
0.8126982
1.0562813
0.6886129
0.48126143
0.67883587
0.33414
-0.52067477
-0.661173
-0.34208846
-0.7426347
-0.9668294
-0.5385803
-0.45644215
-0.6316362
-0.32371235
0.60559195
0.729798
0.43061495
0.78216076
0.92042845
0.6121231
0.53065455
0.6546245
0.4012666
0.55239797
0.6821258
0.3841324
0.6778618
0.8900258
0.5686268
0.49700952
0.5883016
0.33826163
-0.5710294
-0.63700855
-0.41517162
-0.62457454
-0.6755085
-0.4926422
-0.48286363
-0.5786432
-0.32709175
-1.2568406
-0.5651092
-1.0628698
-0.62898743
0.37869835
-0.60655165
-1.0227938
-0.6773662
-0.8308041
0.22160476
0.19058686
0.20281456
0.8483758
0.8959719
0.73941237
1.2166842
1.2674661
0.90141815
0.1562769
0.19044681
0.11395174
0.8068181
0.8996753
0.6072622
1.1304935
1.2800691
0.77462476
-0.70082694
-0.65864515
-0.48716292
-0.5780074
-0.5012768
-0.43366975
-0.5047256
-0.5684485
-0.3054725
-0.8112293
-0.880655
-0.574568
-0.6497383
-0.45601603
-0.5110202
-0.433384
-0.5090132
-0.17836757
0.8580251
0.9132956
0.5265106
1.0722317
1.2645147
0.7276119
0.7937835
0.87965924
0.6034833
0.7792987
0.9636232
0.6109453
0.99934226
1.1073186
0.73267937
0.6767341
0.8153709
0.5254498
0.5560336
0.7330948
0.37856245
0.8241746
1.0417286
0.5314347
0.56773895
0.6948141
0.40479714
-0.6180761
-0.8333814
-0.44741642
-0.8122759
-1.0790353
-0.62403077
-0.47244897
-0.6738931
-0.35206777
1.4387765
1.5436829
0.97760975
0.6240796
0.4924058
0.57607394
-0.24549493
-0.45829713
-0.14180344
0.5920515
0.72860485
0.4522837
0.7897572
1.025224
0.60414237
0.52212477
0.7125678
0.36424902
0.6326432
0.81284624
0.4491555
0.81187415
1.0369629
0.60101855
0.56481993
0.68544763
0.4363677
0.584317
0.7358547
0.39860827
0.89507985
1.1119422
0.65708125
0.7394846
0.9518284
0.5565166
0.6664359
0.8644797
0.50166786
0.93247503
1.2002861
0.73158854
0.61562175
0.8671679
0.43485254
-0.52882284
-0.53878546
-0.41084328
-0.7029654
-0.75122803
-0.5428212
-0.46893263
-0.6161409
-0.40945864
0.5229846
0.6077992
0.39225844
0.8108962
0.92867696
0.60154957
0.5821805
0.7803889
0.47908783
-0.5194787
-0.6358976
-0.3183048
-0.6044413
-0.7760306
-0.48867688
-0.46070388
-0.53069264
-0.3087481
0.69162697
0.8984714
0.50928503
0.8849425
1.2107145
0.68684673
0.5540387
0.77041507
0.44260958
-0.585298
-0.7417643
-0.40117943
-0.81705165
-1.0551046
-0.6052025
-0.5521153
-0.7181688
-0.40043437
-0.5285253
-0.5908782
-0.34875232
-0.6304774
-0.6051544
-0.43600288
-0.5708175
-0.6136197
-0.4339396
-0.56714135
-0.73800313
-0.44544625
-0.8047714
-0.9849988
-0.646553
-0.53473085
-0.67596287
-0.40482393
-0.68019235
-0.6899122
-0.4048171
-0.5844562
-0.48200816
-0.4855804
-0.4781277
-0.4765236
-0.2648072
-0.4935093
-0.58224857
-0.35762578
-0.65167964
-0.7967157
-0.5289026
-0.4829742
-0.60568404
-0.3395739
0.7516762
0.9864003
0.5396094
0.7785942
0.95937115
0.4427263
0.36298305
0.34092844
0.1454449
0.64980364
0.7017943
0.43276364
0.7136807
0.7133786
0.49525532
0.41321853
0.52102023
0.35262814
0.8257313
1.0113835
0.49070197
0.8056251
0.93674815
0.5485282
0.60117745
0.583921
0.5308113
-0.59604716
-0.8197104
-0.42326975
-0.81179446
-1.0201546
-0.6536708
-0.5753838
-0.7649133
-0.37646648
-0.67597985
-0.77732664
-0.5405305
-0.7514289
-0.9297355
-0.5281758
-0.4804731
-0.6345071
-0.31843606
-0.62210804
-0.6627497
-0.25399637
-0.70882684
-0.8711602
-0.3595946
-0.29638404
-0.4398787
-0.24674687
-1.3535173
-1.5634786
-1.0170994
-0.36084995
-0.34416753
-0.2398791
0.28606063
0.41440165
0.29161757
-0.68948877
-0.9192148
-0.5278373
-0.97629035
-1.0328733
-0.71545714
-0.57456565
-0.79355496
-0.39783922
-0.56041914
-0.4922079
-0.40435743
-0.60400856
-0.35270035
-0.44945058
-0.5814732
-0.4750516
-0.40945143
-1.425864
-1.5222962
-1.0722629
0.018278934
-0.040315017
0.09631849
1.2689794
1.3454964
0.9212173
-0.48703596
-0.66316074
-0.3398342
-0.7142957
-0.95740086
-0.553691
-0.4815474
-0.6793893
-0.36565617
0.7537036
0.9004826
0.6359894
0.854596
0.9946914
0.6896645
0.4563578
0.61964506
0.30922776
1.3412613
1.4253128
0.9577761
0.17029585
0.06407771
0.16426754
-0.56193936
-0.7247492
-0.44289887
-0.49870965
-0.6056356
-0.37195235
-0.62495685
-0.777483
-0.5190097
-0.52299803
-0.65567374
-0.34757346
-0.6837796
-0.814822
-0.35057497
-0.72803706
-0.89342344
-0.58795244
-0.42056638
-0.5454464
-0.21224855
0.59819865
0.7535888
0.41805008
0.76177263
0.9696816
0.53105086
0.47455573
0.6234507
0.3765107
0.8072509
1.0264195
0.53819376
0.9957757
1.2858683
0.6994311
0.525478
0.76822835
0.4204311
0.121680014
0.50201976
1.1535617
0.5108358
0.65923774
0.9101672
0.014629949
0.38768563
1.0934294
0.7102918
0.9419368
0.505203
0.92297405
1.2298242
0.6910275
0.5685485
0.77666825
0.43972185
0.7186561
0.95938545
0.50876707
0.9001329
1.2037549
0.68190354
0.5208521
0.7229636
0.35740188
-0.48357382
-0.6706097
-0.37526268
-0.71804696
-0.9246567
-0.539251
-0.4756274
-0.6268108
-0.34052
0.63103825
0.86072505
0.49123538
0.83421576
1.0585927
0.69734967
0.59198654
0.782617
0.44720256
-0.7669538
-1.0426108
-0.56046116
-0.910671
-1.2150189
-0.6768158
-0.42835543
-0.586674
-0.2809999
-0.5134332
-0.64933074
-0.35614806
-0.62836045
-0.75196844
-0.49159923
-0.44141957
-0.5243292
-0.33424187
0.6287191
0.7813247
0.47041675
0.6080321
0.69194067
0.49367785
0.5212372
0.5301169
0.41997272
-0.6213937
-0.7719446
-0.4806219
-0.68977
-0.84558266
-0.5630879
-0.45161757
-0.5800315
-0.2577895
0.78237396
0.11008449
-1.1093876
0.99516606
0.3189905
-0.913446
0.54044193
-0.005256142
-0.7958802
0.69509935
0.9096214
0.54979134
0.928814
1.1445769
0.77241486
0.5887407
0.79968196
0.48103255
0.634649
0.7984769
0.4565781
0.79954815
0.99974126
0.6375739
0.5452445
0.73355097
0.41843975
0.6537091
0.85384244
0.4550395
0.9110093
1.1763655
0.6746759
0.5946082
0.80482256
0.46454358
-0.552415
-0.7175434
-0.40626973
-0.7274826
-0.89987904
-0.5546491
-0.44722798
-0.5884592
-0.34626606
-0.84421295
0.007997418
0.8836885
-0.7717042
0.09126346
1.1333705
-0.69106674
-0.094139874
0.8227082
-1.6191826
-0.17572172
0.58691144
-1.7759063
-0.38802454
0.76851565
-1.3607434
-0.17147852
0.48772174
-0.5808071
-0.779786
-0.41937852
-0.79611874
-1.0643921
-0.57620925
-0.49242058
-0.6493685
-0.34189665
0.6057191
0.712282
0.42816117
-0.36842698
-0.26200855
-0.25381806
-1.6846472
-1.8353873
-1.1983703
0.5657867
0.7089905
0.43600667
0.83116853
0.94164425
0.677359
0.59742415
0.7157768
0.43012136
0.5911542
0.7852031
0.43646213
0.85818934
1.0616729
0.6584804
0.5534122
0.7017554
0.42012894
0.67231923
0.76798207
0.45953333
0.82649255
1.0344591
0.51837724
0.47058988
0.6067201
0.37872297
0.6137883
0.811311
0.42507824
0.8373531
1.085853
0.67717975
0.50616807
0.69291574
0.41907892
0.5961924
0.81181294
0.4123806
0.8770027
1.0505756
0.6621072
0.5543896
0.65584385
0.40037745
0.5868285
0.59941053
0.46749657
0.7258593
0.7384773
0.56482124
0.86053264
1.0341253
0.60988396
0.70602113
0.9298074
0.49264714
0.9271641
1.1869098
0.774781
0.5972773
0.8028721
0.47763243
0.72595084
0.9828604
0.5827872
1.0917333
1.4708986
0.87448967
0.6276156
0.8980101
0.45719054
-0.7497375
-0.84076434
-0.48533842
-0.6595387
-0.7513648
-0.48020732
-0.4077314
-0.53692514
-0.22631751
-0.6103285
-0.78095657
-0.39365625
-0.72082436
-0.7968513
-0.5584737
-0.5036348
-0.62545854
-0.36536688
0.67873317
0.838816
0.51445264
0.8824448
1.0876131
0.7386047
0.48385787
0.7017834
0.37182668
0.7520426
0.8641331
0.53755003
0.8848726
1.07523
0.656645
0.52365655
0.7123333
0.35165504
-0.70681685
-0.85283786
-0.34158456
-0.6992365
-0.86705863
-0.48630723
-0.38618585
-0.5367484
-0.15383504
-0.8036877
-0.9146134
-0.33935228
-0.9611258
-1.0556511
-0.4760332
-0.47022566
-0.47105974
-0.17162043
0.62472564
0.81345636
0.49695575
0.8253931
1.0380228
0.68176925
0.5430516
0.7605744
0.41299486
-0.55541563
-0.56546867
-0.30918685
-0.64504266
-0.67503494
-0.51219577
-0.57237756
-0.6683527
-0.29007894
0.79751784
0.78942686
0.5355703
0.70672536
0.65440166
0.53621364
0.59379554
0.75326616
0.38734183
0.6207244
0.8318361
0.538882
0.87543994
1.0709348
0.608892
0.5678848
0.75691926
0.43160436
-0.5861382
-0.7379535
-0.40737075
-0.7960034
-0.999243
-0.6591917
-0.52830416
-0.68849236
-0.40360218
-0.63539255
-0.8078113
-0.47140083
-0.82002944
-1.0064157
-0.61920595
-0.5456118
-0.65227616
-0.35675335
1.345428
1.4235208
0.8872576
0.25374344
0.3520789
0.16054757
0.17056997
0.10732448
0.2749467
-0.44912636
-0.49902368
-0.30424163
-0.6267385
-0.67618525
-0.44880366
-0.5589767
-0.64348984
-0.42531964
-0.5744974
-0.60947037
-0.44185528
-0.6088818
-0.6192771
-0.44061595
-0.36736745
-0.5326289
-0.23458011
-0.51703876
-0.63819915
-0.33272743
-0.6849015
-0.8459303
-0.48307458
-0.47481778
-0.5933084
-0.40048638
-0.58472115
-0.78939486
-0.45131218
-0.7884071
-0.99293864
-0.6132983
-0.49835274
-0.6657055
-0.39704263
0.15034716
0.2251095
0.1878307
-0.5468868
-0.711016
-0.4304596
-1.2535199
-1.3845423
-0.7995557
0.59599936
0.82942843
0.43855992
0.83325064
1.063105
0.6600741
0.49110663
0.65638286
0.38932475
-0.6152954
-0.66857535
-0.4261424
-0.72898877
-0.84435815
-0.5297963
-0.39291102
-0.57358724
-0.29606986
-0.52569765
-0.6867069
-0.39935833
-0.66668695
-0.7697299
-0.5265329
-0.47561756
-0.6118304
-0.345544
-0.77158034
-0.93511206
-0.4884721
-0.6918543
-0.6263463
-0.462298
-0.5486828
-0.6887835
-0.24075927
-0.5285409
-0.67928535
-0.40496737
-0.6940663
-0.81576943
-0.527543
-0.4671891
-0.61438996
-0.35803902
0.834443
0.97740006
0.59630746
0.8485923
0.92318386
0.6186895
0.45716238
0.5672808
0.35759655
0.63240504
0.7527377
0.43327388
0.8325088
1.005077
0.60543615
0.6018829
0.7888867
0.47469434
-0.54408544
-0.47980422
-0.31967825
-0.50683504
-0.41771144
-0.41748878
-0.44699666
-0.5012157
-0.30525693
1.1748322
1.2006271
0.9114986
0.6784829
0.4277659
0.50724655
-0.015234124
-0.15817532
0.0037451598
-1.0448856
-1.1811981
-0.5924328
-0.68110096
-0.6538842
-0.43520823
-0.250238
-0.52845377
0.030000348
0.7472591
0.7688586
0.5428106
0.71902496
0.80623215
0.43016753
0.48809326
0.6278231
0.45498368
0.6348985
0.7452941
0.46652463
0.83749133
1.0181367
0.599285
0.5443654
0.7251252
0.3993236
0.4831971
0.6479244
0.34645325
0.7371843
0.88569665
0.54598564
0.50707674
0.623394
0.39269108
0.65790766
0.86068124
0.5089562
0.88695234
1.0485708
0.72171575
0.53716975
0.69551575
0.40706402
-1.6073302
-1.8051914
-1.097283
-0.29572546
-0.34666562
-0.14941403
0.7153044
0.84716856
0.55444294
0.7495318
0.9924022
0.55089766
0.9093531
1.2118376
0.66191846
0.6032712
0.85369354
0.42805338
0.6443025
0.8523877
0.47628546
0.87922025
1.164179
0.69889385
0.55959755
0.7557228
0.3603448
-0.59931225
-0.7627048
-0.41310468
-0.8356959
-1.1110057
-0.6073943
-0.49887556
-0.70032287
-0.38203454
-0.50003713
-0.60476696
-0.30722022
-0.7521766
-0.74922144
-0.56533664
-0.51649445
-0.5487322
-0.4081611
-1.5490506
-1.7461575
-1.1773155
0.016235944
0.22321627
0.0066935536
0.94395894
1.1129348
0.66916996
-0.22217348
-0.22626655
-0.060444064
-1.000599
-1.3440819
-0.71811754
-0.9304698
-1.0689473
-0.513598
0.576694
0.78585404
0.4722988
0.8572738
1.0784898
0.6156638
0.5653808
0.7606871
0.3828474
0.5830743
0.77346355
0.42816982
0.80973995
0.97851455
0.61055386
0.5170846
0.65334
0.35736185
0.57010955
0.7535818
0.4283893
0.81191206
1.0465534
0.61206883
0.48887363
0.65803117
0.38349116
1.6291037
1.8636659
1.0982786
0.29007044
0.31448042
0.23886268
-0.7077458
-0.9510398
-0.5050763
0.631051
0.8046072
0.45118585
0.8733103
1.127898
0.7038054
0.58083886
0.76929665
0.41647303
0.39575619
0.3608457
0.2689446
0.9268628
0.873453
0.5502997
-0.5755613
-0.42194286
-0.3699151
0.5917407
0.7905647
0.42655408
0.84240556
1.0651593
0.6410801
0.53693616
0.69374025
0.3723343
0.671505
0.75128144
0.54155797
0.8254726
0.96587807
0.6246941
0.5686425
0.81049186
0.38509044
-0.5944523
-0.69243133
-0.47891748
-0.7260188
-0.8264269
-0.58535004
-0.48413026
-0.58344376
-0.3188332
-0.5198053
-0.66949844
-0.35705924
-0.71841496
-0.985699
-0.5708213
-0.49620092
-0.6611777
-0.3421678
-1.4075524
-1.5878546
-0.96693546
-0.08557119
-0.14644606
-0.16103265
0.7461529
0.8491178
0.6687476
-0.70553035
-0.9370445
-0.56365687
-0.87336606
-1.10508
-0.63234574
-0.4330307
-0.6085398
-0.3035847
-0.4907767
-0.6679915
-0.36267585
-0.7429591
-0.94650275
-0.6000082
-0.48556426
-0.66483164
-0.36001104
-0.65373147
-0.58139193
-0.45321983
-0.63403547
-0.4251449
-0.5071527
-0.5747002
-0.6013102
-0.3750443
0.59867805
0.8191996
0.45344138
0.8815392
1.1844252
0.68975085
0.5818061
0.7874082
0.39699027
-0.78436303
-0.8242254
-0.3791648
-0.7293075
-0.8501564
-0.4624019
-0.47483903
-0.72286683
-0.09531957
0.65778524
0.87120104
0.5115279
0.8733846
1.0958068
0.7039014
0.5237462
0.67617524
0.36978906
1.4123515
1.4860389
0.9742408
0.09043317
0.17254676
0.070364945
-1.0181587
-1.287085
-0.7857472
-0.83628213
-0.78440464
-0.77405703
-0.7770433
1.7042419
-0.6209599
-0.7739628
-0.9420141
-0.61196524
0.59313935
0.74222475
0.39618415
0.56298
0.76646405
0.43312892
0.82170564
0.8240835
0.64883333
-0.6065909
-0.72858936
-0.34039095
-0.77123785
-0.89176804
-0.45046481
-0.3705196
-0.5165191
-0.2019999
0.5310017
0.76717407
0.38715217
0.85523874
1.082997
0.6622178
0.5760132
0.7517045
0.4837059
0.6923152
0.83516777
0.5269834
0.7428423
0.832243
0.4867187
0.53572917
0.6752039
0.36195096
-1.2698593
-0.10792984
0.29168817
-1.0509081
0.10746987
0.47321972
-1.3407788
-0.61036813
-0.07098936
0.6709626
0.68603957
0.57080287
0.8596413
0.7516773
0.6174168
0.58116937
0.67891794
0.5347308
-0.6559302
-0.7545369
-0.33626363
-0.85947275
-0.9063026
-0.579155
-0.50046927
-0.6472111
-0.27234823
-0.6033664
-0.84480053
-0.43682262
-0.8243126
-1.1024864
-0.6179835
-0.5273107
-0.6981004
-0.3967921
-0.7389082
-0.9207372
-0.3529445
-0.7911718
-0.8827311
-0.50005877
-0.46393603
-0.627049
-0.16172114
-0.52310747
-0.64783263
-0.36454606
-0.6751124
-0.8239935
-0.4993179
-0.44009778
-0.6025167
-0.3035701
0.6469263
0.86887693
0.48241702
0.8664931
1.0756086
0.6591168
0.50652456
0.69659853
0.39349094
-0.48633248
-0.59218293
-0.38926688
-0.6079182
-0.677273
-0.5104279
-0.5334609
-0.59039694
-0.37931815
0.6174442
0.76880854
0.48495445
0.8277114
1.0715466
0.64698696
0.49470264
0.6970888
0.37702385
-1.4201658
-1.4617325
-1.0129416
-0.4289157
-0.33840415
-0.3776355
0.70285743
0.79520845
0.3639987
-0.56432176
-0.6291444
-0.43155235
-0.61551017
-0.6715392
-0.47708687
-0.3636266
-0.49054503
-0.2659773
0.6849001
0.72860074
0.46022254
0.732807
0.7072215
0.48556772
0.43220505
0.6050055
0.33004785
-0.7294896
-0.66243607
-0.5137632
-0.69808245
-0.26490706
-0.5364776
-0.5747541
-0.640072
-0.39087674
-0.48213172
-0.41663495
-0.35632688
-0.5662106
-0.45372584
-0.46829736
-0.5492048
-0.5850056
-0.36241826
-0.6180198
-0.6763164
-0.38116205
-0.6252894
-0.75162995
-0.47352508
-0.42918417
-0.52174354
-0.26690742
-0.5864908
-0.6728308
-0.4157871
-0.8290357
-0.86530495
-0.6617299
-0.61102873
-0.70868003
-0.41090396
-0.57469696
-0.58526325
-0.38662437
-0.5103761
-0.3666555
-0.3896209
-0.5808578
-0.544388
-0.45135587
-0.70434237
-0.74705005
-0.48133135
-0.60863715
-0.46028683
-0.41915688
-0.41678575
-0.4188238
-0.28145775
0.80970955
-0.13059753
-1.0910604
0.7743406
-0.26479578
-1.4849962
0.40094602
-0.6860485
-1.1343303
0.4067416
0.52964234
0.40373555
1.032771
1.2241374
0.8277522
0.9604604
1.2338259
0.730753
-0.6544791
-0.7932867
-0.4538179
-0.8084206
-1.0402726
-0.6212879
-0.4655896
-0.68523544
-0.36285353
-0.6571158
-0.6380779
-0.37564242
-0.7343924
-0.8808774
-0.4750777
-0.44669935
-0.63108635
-0.1410579
-0.43983376
-0.33958334
-0.32257447
-0.55993193
-0.6216192
-0.46625826
-0.99404836
-1.1849976
-0.6275448
-0.50750875
-0.6878002
-0.39759192
-0.7080242
-0.897848
-0.5494252
-0.46602258
-0.607927
-0.34526157
-0.67930955
-0.86741287
-0.40671784
-0.71450067
-0.77886444
-0.461032
-0.46781075
-0.4929611
-0.30632284
0.65020776
0.7877426
0.50743735
0.8400688
0.9727506
0.68280685
0.4988208
0.7163835
0.43795222
-0.5838682
-0.72439027
-0.3951854
-0.7668398
-0.88801235
-0.5865485
-0.433833
-0.5903104
-0.32121623
0.62182575
0.74117905
0.45351684
0.9021521
1.1269459
0.66711324
0.5092722
0.76094073
0.3727979
0.64115804
0.846516
0.41831985
0.8225718
1.0090305
0.5973941
0.47738975
0.64200157
0.4124166
0.5915537
0.741418
0.47887236
0.7621264
1.030484
0.6034831
0.42156357
0.68994665
0.31496888
-0.47016123
-0.6101384
-0.30407432
-0.66884965
-0.7545242
-0.5098466
-0.4586184
-0.54430443
-0.33636388
0.2535222
0.58089525
0.16040072
-0.4158205
-0.11638831
-0.34576577
-1.6517625
-1.8633487
-1.2802488
-0.5341648
-0.70825744
-0.33991545
-0.59949976
-0.7479712
-0.48845312
-0.4330082
-0.4935092
-0.26016757
0.6121518
0.7999271
0.44759652
0.8617332
1.0433682
0.6514193
0.5394247
0.68750554
0.4181292
-0.95021635
-1.000272
-0.71979004
0.3820591
0.48067737
0.29996514
1.4574579
1.5501661
1.1799737
-0.6984103
-0.6565276
-0.4726906
-0.5769331
-0.37426454
-0.4359509
-0.5113792
-0.54011923
-0.3751269
-0.5288192
-0.64419496
-0.3696809
-0.72114843
-0.7988387
-0.5666374
-0.49870342
-0.59628636
-0.3898579
-0.44643116
-0.5099707
-0.30014053
-0.6399599
-0.75176823
-0.45780224
-0.4872806
-0.5426402
-0.39371037
-0.9534202
-0.042772584
0.9578599
-0.8072282
-0.0116189215
0.63751954
-0.89240086
-0.05244993
0.76872027
0.82304
0.99855864
0.71260244
0.86375844
0.9804797
0.6438531
0.49832174
0.601552
0.37768131
-0.5564869
-0.7343936
-0.3632411
-0.73659444
-0.84624654
-0.55067295
-0.42704678
-0.49988997
-0.3342498
-0.63560057
-0.6873751
-0.42222577
-0.5931814
-0.77129155
-0.43394852
-0.30323064
-0.52947855
-0.15907496
0.693626
0.8264637
0.527697
0.84300935
1.0135891
0.62359804
0.51011664
0.66501755
0.33146042
-0.6852961
-0.8311529
-0.38224807
-0.64819795
-0.80041766
-0.44069207
-0.36582485
-0.47996825
-0.22859643
0.64330035
0.8593703
0.47448796
0.882261
1.1472932
0.70034206
0.53603786
0.7245885
0.39673775
-0.56104887
-0.6746087
-0.339513
-0.68742806
-0.7823551
-0.5163551
-0.43921456
-0.59930134
-0.17943734
0.811981
1.0569949
0.5508609
1.0759228
1.424359
0.73690975
0.6255721
0.7942685
0.35993853
0.6853554
0.8215457
0.50820994
0.9181671
1.0801342
0.6557323
0.52577865
0.6954286
0.38314232
-0.63633275
-0.7014987
-0.41842505
-0.6217637
-0.7102063
-0.43075266
-0.42081028
-0.46662074
-0.21410313
0.6776954
0.85858047
0.5215312
0.84371024
0.97279567
0.62662923
0.4769279
0.67255795
0.34575844
-0.5753665
-0.6936065
-0.4113547
-0.75696313
-0.9202498
-0.5475574
-0.43229842
-0.6204616
-0.333192
0.798814
0.84355325
0.6460322
0.9049114
0.9066756
0.62752926
0.75346047
0.9532215
0.51872534
0.7124527
0.7997795
0.5067203
0.7980699
0.88525087
0.55591124
0.43749973
0.5100562
0.32879308
-0.6432017
-0.8417054
-0.46308866
-0.8026309
-1.0317951
-0.6144851
-0.4234365
-0.60522425
-0.31131542
-0.707781
-0.76355785
-0.4304061
-0.6268032
-0.77555954
-0.50033015
-0.3683961
-0.50006825
-0.1482226
0.5817567
0.74943525
0.42716667
0.78020155
0.92673177
0.6018571
0.5246078
0.67319036
0.40316236
0.5301416
0.71998346
0.3837984
0.7937598
1.0037917
0.59717864
0.55776477
0.6752912
0.417171
-0.23185727
-0.35336316
-0.15814558
-0.72570705
-0.7711025
-0.50512344
-0.8426066
-0.86004907
-0.6419043
1.4276066
1.7131798
0.97030336
0.59189224
0.55422705
0.5110895
-0.12707621
-0.27509764
-0.07820615
0.5775737
0.74263537
0.49956626
0.8425081
0.9573387
0.70674574
0.5124963
0.7032602
0.35149178
-2.180953
-2.2642875
-1.6719463
-0.15974861
0.0089371605
-0.116218865
0.5376702
0.7827419
0.32523742
0.67338705
0.50964594
0.47509745
0.7090741
0.59462655
0.6451645
0.6724518
0.78591186
0.5444725
-1.4389243
-1.4724576
-1.1057664
-0.15157881
-0.06034737
-0.07362882
1.2417244
1.2210857
0.92827725
-0.5709123
-0.71753776
-0.3740879
-0.6776358
-0.84346646
-0.51115507
-0.38321102
-0.52979696
-0.29568198
-0.6384058
-0.75137395
-0.41035077
-0.68041205
-0.7682462
-0.5279304
-0.48032045
-0.5565846
-0.31449953
0.62376124
0.67715347
0.48641738
0.7268065
0.78308934
0.5876162
0.4459295
0.6590651
0.35858938
-0.5161468
-0.6259491
-0.40857425
-0.7064485
-0.8580633
-0.54738915
-0.4247367
-0.6319143
-0.28144568
0.64301556
0.803141
0.49083942
0.8415509
1.0584699
0.73263115
0.529907
0.77792877
0.3996401
0.6738707
0.81234336
0.5991204
0.78523535
0.9145367
0.65334255
0.7597932
0.80777615
0.6210834
-0.5474457
-0.6737737
-0.38376418
-0.667382
-0.79191095
-0.49996188
-0.42683002
-0.59187263
-0.32423064
0.78692085
0.888344
0.5863628
0.94527805
1.1627893
0.69024444
0.52424073
0.7698641
0.38820785
-0.54086643
-0.7121711
-0.41896698
-0.7013691
-0.86170626
-0.5683546
-0.4504744
-0.6180632
-0.35068625
-1.1819248
-1.3091636
-0.89929676
-0.5939826
-0.5152239
-0.40177542
0.060616422
0.14820853
0.03361153
0.50910115
0.7252635
0.3886017
0.7974474
1.0201159
0.5903003
0.5641695
0.75283873
0.43813726
-0.654673
-0.63734704
-0.46762604
-0.63660395
-0.39791423
-0.52312464
-0.5633531
-0.51586986
-0.4007682
-0.7608336
-0.7267797
-0.4980089
-0.57447714
-0.47128338
-0.4287909
-0.41672307
-0.5253368
-0.24530485
-1.3839192
-1.5418321
-0.9702745
0.059086353
0.071233824
0.05046192
1.3924989
1.6353992
0.94615805
0.5836584
0.8057441
0.49505857
0.86814004
1.1270633
0.6629115
0.56133324
0.7572135
0.40869817
0.64901507
0.7499621
0.5216799
0.84692353
1.0245739
0.69259185
0.510302
0.76982933
0.44122103
-0.58467346
-0.4790203
-0.427409
-0.5993772
-0.36398807
-0.42099673
-0.5058756
-0.4589917
-0.38506314
0.7098715
0.92579174
0.52223855
0.9127666
1.1856995
0.6924405
0.5833874
0.8368771
0.45069838
-0.65857476
-0.7160387
-0.3807667
-0.6845926
-0.7921513
-0.48231006
-0.50466967
-0.59002656
-0.2710251
0.7261127
0.92075646
0.54574263
0.8517138
1.054287
0.6822317
0.5236621
0.6755134
0.4133856
-0.47112173
-0.56610847
-0.35962194
-0.71283346
-0.75780016
-0.55577856
-0.5675099
-0.6619233
-0.41363385
-0.50170726
-0.7148077
-0.33987716
-0.6757606
-0.8648289
-0.5288201
-0.48524457
-0.5851347
-0.38194865
-0.17974967
-0.5007857
-0.07960384
1.0673345
0.501561
0.99626243
-0.60948455
-1.7386944
-0.84012485
1.0324025
1.1954799
0.81487167
0.097733624
0.13202944
-0.022792177
-0.9290039
-1.4209949
-0.6219218
-0.5470089
-0.69815725
-0.38806853
-0.75068575
-0.8128891
-0.6393287
-0.50905854
-0.6255308
-0.4340036
-0.48530406
-0.6047441
-0.32844347
-0.66192645
-0.8204836
-0.5035581
-0.46758962
-0.5497241
-0.37543452
-0.57944685
-0.7328594
-0.4518311
-0.6851171
-0.81547874
-0.4825056
-0.49201807
-0.60217375
-0.36656886
-0.6177007
-0.8300087
-0.38515553
0.50020164
0.37208617
0.36765844
1.6006892
1.8415872
1.2858723
-0.62611973
-0.652952
-0.46118027
-0.68183756
-0.52056175
-0.59440356
-0.56640863
-0.58753324
-0.46262547
-0.7117356
-0.7362947
-0.4841985
-0.7369312
-0.74659014
-0.5289613
-0.5592454
-0.7014727
-0.4412419
0.63139707
0.79543763
0.4908774
0.798441
1.039991
0.5689524
0.48681673
0.6881061
0.39701316
-0.9220745
-1.0545324
-0.48537937
-0.67522496
-0.89603215
-0.33097455
-0.40623134
-0.6096548
-0.1619189
-0.58323205
-0.681326
-0.38545206
-0.7227428
-0.83985686
-0.49916193
-0.49579027
-0.640258
-0.2895844
0.5713041
0.7574377
0.4441848
0.78670514
0.939921
0.5985209
0.5206835
0.7326509
0.4288327
0.60488176
0.7035857
0.50059456
0.80368304
0.7647902
0.616071
0.5666424
0.56428516
0.51680243
0.6052869
0.7108043
0.43540502
0.88104457
0.99644315
0.6655757
0.6572714
0.82379806
0.5133158
-0.60832417
-0.59954894
-0.37257758
-0.61627126
-0.3707014
-0.48143739
-0.5037787
-0.50668544
-0.39187878
0.730143
0.86285096
0.5156695
0.8092282
1.0177823
0.563386
0.43151575
0.6064617
0.29892218
-0.5471307
-0.6080451
-0.34062842
-0.68342775
-0.7227887
-0.51849943
-0.48124632
-0.5655194
-0.23569405
-0.48924378
-0.65427107
-0.38592145
-0.7182875
-0.9170601
-0.52492994
-0.44566596
-0.64093816
-0.34003744
-0.70729125
-0.6129077
-0.36905885
-0.5900195
-0.39601752
-0.56892395
-0.74040943
-0.63153726
-0.51798385
0.7377327
0.8291076
0.5405539
0.84826565
0.9972754
0.64577127
0.5188479
0.68100363
0.4091864
-0.8839625
-0.92513555
-0.6113116
-0.3669773
-0.12965402
-0.25449505
-0.5816622
-0.288323
-0.4466397
1.2499797
1.266906
0.837748
0.25451303
0.0954076
0.22470783
-0.46385652
-0.4875434
-0.38431913
0.59326035
0.71745604
0.4433629
0.7643768
0.90282065
0.61517876
0.4194349
0.5903277
0.32739878
0.64140236
0.7099795
0.4744767
0.8421401
0.96096736
0.66738105
0.63267475
0.7973344
0.4772738
-0.7284446
-0.86214334
-0.39637136
-0.77601427
-0.8486495
-0.41024348
-0.45306677
-0.47613615
-0.21149443
-0.47316357
-0.6526517
-0.3608755
-0.698333
-0.8806413
-0.5127307
-0.49963713
-0.63655263
-0.390975
-0.5483035
-0.5176275
-0.41648114
-0.58902866
-0.35199857
-0.5298787
-0.52861214
-0.5950495
-0.37517828
0.6518751
0.840187
0.53107774
0.90717006
1.049743
0.7075872
0.56225073
0.74016386
0.39580122
-0.5436213
-0.6886165
-0.35961026
-0.63387626
-0.76802117
-0.48852766
-0.43334
-0.56127506
-0.3493892
0.57903856
0.78788537
0.4490879
0.93769974
1.2421436
0.68957955
0.602752
0.85511357
0.4817956
0.69678783
0.9097074
0.53050774
0.87456566
1.0942712
0.67552525
0.5258958
0.72916305
0.36107972
0.5640933
0.6246737
0.38318148
0.6070363
0.7154973
0.37951407
0.37867582
0.41208583
0.32050276
-0.5030699
-0.62083036
-0.40165025
-0.67661417
-0.8102905
-0.5330526
-0.41072187
-0.61480016
-0.2882092
0.82137966
0.88027424
0.59761304
0.71551716
0.7121983
0.57995385
0.64105326
0.6988253
0.42219484
0.61195636
0.80431086
0.49873835
0.81465393
0.9432958
0.6401511
0.51232594
0.6159367
0.3703011
0.55527294
0.6969443
0.39012957
0.78167814
1.0219293
0.61544585
0.59232235
0.81251836
0.43110958
0.5863759
0.6502608
0.47280562
0.77271235
0.8754219
0.58514184
0.51006997
0.7129639
0.364984
0.5596232
0.7440856
0.41151428
0.7950235
0.90265083
0.59539884
0.5260113
0.629458
0.45061406
0.7229034
0.9171064
0.59122413
0.992869
1.1884296
0.7141757
0.55458
0.70389795
0.44136697
0.6532671
0.79419094
0.41727275
0.7908401
1.018934
0.54166424
0.50301087
0.614617
0.33346874
-0.53415686
-0.6360283
-0.2959642
-0.507149
-0.5613023
-0.41259426
-0.49473366
-0.5392791
-0.22932947
-0.70538086
-0.8720349
-0.5323026
-0.6945318
-0.8524147
-0.5169466
-0.34595743
-0.43781698
-0.25351
0.6728777
0.8807597
0.5605159
0.91734195
1.1764086
0.7467293
0.53624743
0.76514727
0.3575021
0.6813612
0.8589823
0.4947055
0.84243536
1.0842022
0.6392593
0.52428156
0.6572251
0.37002972
0.57157534
0.7475851
0.44812873
0.7212266
0.95377505
0.58142346
0.45971763
0.58742464
0.30173957
-0.64078367
-0.79326123
-0.49345377
-0.7830073
-0.91161317
-0.5898759
-0.43870777
-0.5887228
-0.33736807
0.65324384
0.77690107
0.5705794
0.8556161
0.86854976
0.58234495
0.5324207
0.6709762
0.47927412
0.7679423
0.9519397
0.4526799
0.7238065
0.7523532
0.5032339
0.79946476
0.85434026
0.63251024
0.82410014
0.8838229
0.5978256
-0.48195946
-0.527445
-0.24221417
-1.7833648
-1.8374842
-1.2989068
-0.7531313
-0.60473365
-0.53608537
-0.6237499
-0.20027243
-0.47226638
-0.6552414
-0.5946525
-0.4652569
0.66126424
0.8889343
0.53528714
0.91987276
1.1196147
0.71528107
0.60789
0.83331794
0.40630096
-0.5803981
-0.72835106
-0.40430823
-0.7709239
-0.8590338
-0.54222316
-0.51972353
-0.5850499
-0.33976966
0.6432789
0.8178126
0.5055853
0.87549615
1.1466244
0.7120356
0.55349106
0.76295763
0.3571389
-0.5248209
-0.6683031
-0.3921948
-0.6687399
-0.83709186
-0.5034354
-0.42348233
-0.4915069
-0.31788364
0.61401415
0.79348546
0.49648607
0.848053
1.0108061
0.6573508
0.56277984
0.7319772
0.3972224
-0.5169846
-0.6226
-0.38114432
-0.70411235
-0.77718484
-0.52123797
-0.44902357
-0.51909846
-0.33547392
0.5779473
0.74958366
0.4139621
0.82885826
0.9489727
0.58607286
0.51060236
0.6380581
0.4064326
-1.0935149
-0.92756945
-0.739323
-0.56275105
-0.44284642
-0.4443887
-0.47153452
-0.50140095
-0.28923333
0.38000536
0.40465093
0.3116916
0.7512028
0.7555916
0.58951277
0.8620737
0.9633425
0.65237606
-0.53459716
-0.6402
-0.3841551
-0.69948715
-0.8566239
-0.5407374
-0.45504773
-0.5596979
-0.34514427
-0.5389322
-0.5456107
-0.430203
-0.7502038
-0.83347553
-0.5649689
-0.47463253
-0.65395236
-0.32808405
-0.5331747
-0.6836501
-0.40291023
-0.62492704
-0.72803646
-0.5035668
-0.45285368
-0.5212704
-0.28970492
0.6939055
0.8424141
0.5544277
0.94105595
1.2338406
0.7288266
0.574693
0.8548984
0.39305556
0.6738156
0.88917255
0.4951462
0.9511556
1.2453136
0.6862997
0.60153544
0.8072165
0.39941758
0.63253
0.7515739
0.46473336
0.8667001
0.97801816
0.60106957
0.6276389
0.78672373
0.51602995
0.68321383
0.8734092
0.6388538
0.8629588
1.0825783
0.66911334
0.5588667
0.7343016
0.48476824
0.6099793
0.8308925
0.47592947
0.9247629
1.197341
0.75247395
0.6399499
0.8732707
0.4896481
-0.6055965
-0.54683495
-0.4571333
-0.57590526
-0.3458887
-0.5357629
-0.5577416
-0.52468073
-0.40165314
-0.46230018
-0.58839715
-0.292442
-0.63173026
-0.7010778
-0.46291277
-0.44610524
-0.5312001
-0.34934002
0.74411166
0.7353609
0.29717466
0.3048527
0.29613665
0.4780061
1.091008
1.3319218
0.72279173
-0.5280607
-0.59804994
-0.34262282
-0.63597697
-0.7226493
-0.49646798
-0.4534522
-0.60295063
-0.32410234
0.7894807
1.0013775
0.55851376
0.8350435
1.0452455
0.56331044
0.34559032
0.5043524
0.22523807
0.6086933
0.831238
0.41991064
0.80922157
1.010196
0.6068954
0.5479192
0.6935988
0.3846235
-0.6524212
-0.60341656
-0.48505172
-0.6779537
-0.38179046
-0.5372806
-0.48340076
-0.606417
-0.38533992
0.95279914
1.1019111
0.71147126
1.0110143
1.0471965
0.6096524
0.5469001
0.6523387
0.51627386
1.1583576
1.3075013
0.80160785
-0.2509127
-0.11455569
-0.22456887
-1.1374825
-1.333083
-0.81059426
0.59540206
0.81940746
0.44134313
0.8390387
1.0422648
0.63241476
0.5325127
0.6553727
0.40763354
-0.5513256
-0.6571562
-0.36173466
-0.5949237
-0.5804501
-0.43880767
-0.4761438
-0.584129
-0.3443708
0.61006916
0.7787472
0.39521277
0.7767834
0.97874117
0.6003027
0.4992301
0.6331351
0.39831877
-0.5948053
-0.7242615
-0.44662422
-0.6697726
-0.7931635
-0.5125351
-0.43434182
-0.5743626
-0.27027553
1.462653
1.7213647
1.0544233
0.42826852
0.24186535
0.4125667
-0.36139044
-0.6021351
-0.27928057
0.56804556
0.7547512
0.4592066
0.82877016
0.9977251
0.6711703
0.59242946
0.7273384
0.45216197
-0.5351674
-0.59794605
-0.4474171
-0.69985557
-0.6959868
-0.5127498
-0.4515421
-0.5666839
-0.32146952
-0.53452206
-0.5833251
-0.3358705
-0.6045164
-0.5633186
-0.49564743
-0.4817117
-0.44852754
-0.38984543
-0.49682415
-0.7511788
-0.38074347
-0.81762975
-1.1584789
-0.5085859
-0.4879445
-0.6424639
-0.33680868
-0.5668676
-0.61463743
-0.4051681
-0.6390282
-0.73041993
-0.40413094
-0.5305075
-0.6679431
-0.3668862
0.65883434
0.84162647
0.49138457
0.8275582
1.0427527
0.6431917
0.54821813
0.7274015
0.3898937
0.7247314
0.9004328
0.4996217
0.90452266
1.0431728
0.65831864
0.5708223
0.63682
0.39656332
0.6857265
0.8779294
0.5198051
0.90855837
1.0812204
0.6902919
0.53559643
0.742159
0.4385397
-0.19523123
0.7962043
-0.71179825
-0.567421
0.62585926
-0.8705706
-0.3274671
0.50164974
-0.6558445
-0.5836729
-0.773815
-0.47141945
-0.7248899
-0.86999524
-0.54675555
-0.4357557
-0.5987228
-0.3245812
0.62363863
0.72981954
0.46861726
0.834597
0.998979
0.638787
0.518057
0.67182606
0.4160457
-0.31123957
-0.2243055
-0.21174015
-0.3400144
-0.27811518
-0.2522296
-1.3300484
-1.6032689
-0.7993227
-0.44981042
-0.58996457
-0.31573862
-0.6848088
-0.8708384
-0.5044784
-0.49575868
-0.6249988
-0.39426404
0.40452754
0.7036218
-0.7905203
0.7878316
1.388038
-0.6521479
0.014452795
0.43821102
-1.2225347
-0.66298074
-0.77929384
-0.4547834
-0.65784067
-0.8447227
-0.46219292
-0.52917796
-0.58363414
-0.28944036
-0.5105368
-0.6135415
-0.38435662
-0.64687854
-0.7381804
-0.5172127
-0.51031417
-0.5911181
-0.38349012
-0.66497976
-0.70301235
-0.46941105
-0.6886192
-0.48359647
-0.5614143
-0.55258775
-0.6299745
-0.4369109
