-0.64677364
-0.38509643
-0.5964921
-0.41702253
-0.2411287
-0.37928432
-0.5104177
-0.3144309
-0.4695165
-0.45237434
-0.3220537
-0.4159333
-0.3951668
-0.25671485
-0.37478375
-0.45296496
-0.3708317
-0.41193256
-0.5918272
-0.3998949
-0.52726203
-0.4392312
-0.22387931
-0.41857806
-0.50353336
-0.35433212
-0.45515117
-0.524495
-0.28868312
-0.48301572
-0.35480985
-0.14013655
-0.32859588
-0.50409365
-0.28569102
-0.46346456
0.6346291
0.43641245
0.58774716
0.44616008
0.27125552
0.42327335
0.50114244
0.32256007
0.46908355
-0.5537729
-0.36283013
-0.4999134
-0.3900938
-0.17394899
-0.3612608
-0.48208082
-0.3096284
-0.45149428
-0.4065081
-0.58999646
-0.38591012
-0.5272442
-0.52475643
-0.53848624
-0.51098937
-0.6161993
-0.4434256
-0.5431057
-0.34460014
-0.5077098
-0.40260386
-0.21525362
-0.38664746
-0.48585746
-0.31689897
-0.46525916
-1.3251511
0.24877064
0.7000193
-0.90527225
0.4460289
0.55635226
-1.327661
0.19598702
0.7099047
0.6458335
0.4219489
0.59830785
0.45289648
0.26781058
0.4354172
0.5282772
0.34073824
0.49965113
-0.52517915
-0.4195452
-0.49682388
-0.4233033
-0.32637566
-0.41252583
-0.4191105
-0.34401187
-0.3870371
-0.55939174
-0.41618982
-0.49728572
-0.41643423
-0.25006804
-0.38837782
-0.52584463
-0.4083285
-0.4612998
0.70722795
0.4092398
0.62844783
0.44594264
0.21771322
0.4109655
0.5473356
0.30421978
0.5027409
-0.55804145
-0.33358347
-0.53441846
-0.40536106
-0.2213858
-0.3871893
-0.49887735
-0.31092948
-0.4765022
-0.6163441
-0.3592642
-0.55586445
-0.4164997
-0.19773968
-0.3679853
-0.52879703
-0.35060242
-0.4892894
0.6113462
0.4101659
0.59320956
0.4458352
0.26126635
0.42230356
0.5795756
0.39059415
0.5708927
0.8486494
0.67501813
0.7990978
0.7737635
0.39499784
0.49979275
-1.2710047
0.6802274
0.48614535
0.4877014
0.30265963
0.4463428
0.4046549
0.23113641
0.39949885
0.52357316
0.34726852
0.4816649
-1.1184802
-0.29135317
-1.014832
-0.6539094
-0.540784
-0.65515745
1.0942193
0.6428254
1.0310367
-0.5586478
-0.4216847
-0.49247867
-0.4233039
-0.21582884
-0.39281136
-0.46325824
-0.41160247
-0.43651426
-0.4983996
-0.4592456
-0.43778428
-0.5378007
-0.40399578
-0.52751905
-0.32888716
-0.48332885
-0.28624666
1.6472813
0.69692767
1.550702
-0.88910353
-0.76102227
-0.9071174
-0.8271604
-0.55346614
-0.72987515
0.8492372
0.7292861
0.74555564
0.6111694
0.3973446
0.7653197
0.61013764
0.7390264
0.31128088
0.54076475
0.34098217
0.50633645
0.43039882
0.25498646
0.41027528
0.50363314
0.3312537
0.46225527
-0.57089007
-0.39939743
-0.51136494
-0.5009947
-0.28643534
-0.46808353
-0.50061685
-0.3266706
-0.46273318
0.4975486
0.3480446
0.46260032
0.4349951
0.26450083
0.40224153
0.56468254
0.39291954
0.52672297
-0.6015623
-0.33166996
-0.5596331
-0.3788332
-0.10663373
-0.33481696
-0.57231355
-0.34561655
-0.538439
0.7590306
0.795354
-0.8747277
0.55890006
0.59213954
0.65424925
0.77880365
0.802294
-1.3658589
0.71642697
0.46523315
0.66766363
0.44757745
0.26303858
0.42660972
0.57521474
0.3388326
0.53564346
0.642185
0.35383973
0.6083521
0.5253843
0.2631447
0.5055728
0.6502003
0.33448997
0.6077665
0.6927042
0.40287155
0.66123724
0.39472556
0.20947722
0.37790087
0.5418696
0.3139368
0.51210225
0.55882406
0.29299483
0.52047104
0.5521803
0.27754623
0.5115253
0.6803403
0.45571655
0.6089917
-0.5420705
-0.35303858
-0.5072311
-0.37960097
-0.19864058
-0.36578968
-0.47062767
-0.30921996
-0.4272103
0.79486305
0.5173756
0.7265915
0.58045167
0.3012338
0.55479145
0.71676403
0.40496585
0.6918655
-0.5296462
-0.3522556
-0.4774964
-0.3395295
-0.20265691
-0.31737533
-0.492575
-0.34648252
-0.45890355
-0.5881014
-0.32921022
-0.5402224
-0.35785252
-0.098002955
-0.34890357
-0.52775574
-0.28302827
-0.48519975
-0.4920054
-0.35445544
-0.46199575
-0.37748262
-0.24231564
-0.35659885
-0.48994845
-0.3364999
-0.4415821
0.5778484
0.7297585
0.47816345
0.666255
0.56009746
0.6515218
0.80597734
0.7674407
0.71396124
-0.5640955
-0.34762284
-0.51840323
-0.37006077
-0.19817896
-0.33821177
-0.46699604
-0.31485072
-0.43604973
0.6067829
0.381142
0.5554006
0.43185556
0.2506678
0.40166003
0.5849217
0.36967576
0.5509957
-1.2916745
-0.7473767
-1.2114867
-0.6067704
-0.39070606
-0.57541984
1.1175176
0.7468684
1.0025123
1.2846043
0.78734666
1.1772279
-0.6569435
-0.27758214
-0.59928405
-1.0442774
-0.5305232
-0.9091198
-1.0746193
0.7727582
-1.3249921
0.6641189
0.59222066
0.6052405
-1.1332238
0.45612615
-1.0938166
0.58127564
0.37583125
0.53133863
0.4850888
0.27631468
0.45896974
0.5616787
0.3942788
0.5385343
0.573653
0.42752814
0.5041823
0.4837186
0.30961913
0.44619253
0.589783
0.4694647
0.52043766
-0.5699227
-0.307377
-0.52158767
-0.45529887
-0.21831381
-0.43321842
-0.59311646
-0.32724485
-0.54310846
-0.9489463
0.08932821
-0.8920258
0.8193426
0.5787511
0.7504149
1.0190268
0.6063502
0.95779866
-0.64170915
-0.41772005
-0.5922377
-0.43409345
-0.22209735
-0.3920868
-0.600368
-0.3908655
-0.566959
-2.4530935
-0.76439375
-2.2675006
0.51306313
0.17131688
0.51082426
0.40782797
0.21114364
0.30356124
0.6487673
0.3757181
0.6060174
0.4801573
0.27909717
0.46639398
0.5336345
0.34214714
0.5103803
0.52909166
0.35714126
0.50117326
0.44376442
0.29219127
0.43110722
0.5080516
0.3573871
0.48143673
-0.50777483
-0.43050292
-0.46767372
-0.5253308
-0.45390603
-0.49774256
-0.40278995
-0.4424243
-0.3639777
-0.542349
-0.39172605
-0.48402628
-0.47020948
-0.1997286
-0.44323504
-0.55546194
-0.40183967
-0.49376124
0.03603266
0.025702674
0.032916352
0.032458145
0.023683762
0.030915696
0.039490867
0.03027027
0.03904389
-0.48117325
-0.44284236
-0.41209456
-0.4805491
-0.29033616
-0.47704983
-0.41100296
-0.4096807
-0.3595731
-0.45813456
-0.28003374
-0.423141
-0.33906338
-0.19631074
-0.32068637
-0.4414464
-0.29577923
-0.41111824
-1.319516
0.026766023
1.2525208
-0.65354085
-0.23035654
0.42186487
-1.4876322
0.25016376
1.1912687
0.569259
0.32228583
0.5186137
0.50538224
0.27103516
0.48210055
0.6091886
0.37998554
0.57255954
0.65567505
-0.47887915
-1.9977971
0.31361294
0.08572264
-0.9496363
0.54707664
0.17951316
-2.035493
-0.5454482
-0.33296472
-0.5002977
-0.35878113
-0.13738072
-0.33429745
-0.4836503
-0.2924935
-0.4509638
-0.64288336
-0.36823386
-0.5786862
-0.36031365
-0.0817575
-0.3259005
-0.51997894
-0.315702
-0.483268
0.657771
0.33111078
0.62683153
0.4869124
0.22239463
0.4576768
0.6649332
0.40111887
0.6375134
-0.5350624
-0.32666636
-0.4896717
-0.3775755
-0.21035351
-0.3691971
-0.46744353
-0.30572054
-0.42717212
0.6352562
0.6328691
0.5899655
0.69593656
0.3313291
0.67319703
0.6441022
0.54844964
0.5952884
-1.6360899
0.26521072
0.29323468
0.30379018
0.21517701
0.26103395
-2.0652435
0.28187397
0.31386745
-0.5266858
-0.3504146
-0.49148524
-0.40363708
-0.24749583
-0.36868206
-0.4395569
-0.31630737
-0.399027
-0.68110734
-0.4644421
-0.6224066
-0.4644859
-0.16049126
-0.43902004
-0.5158728
-0.39928052
-0.4920649
-0.61261743
-0.24625018
-0.5388327
-0.8399666
-0.32550249
-0.79932666
1.2203766
0.7732102
1.1263715
0.6562304
0.52530396
0.58701724
0.49984887
0.48122755
0.46270582
0.46542946
0.48161885
0.420141
-0.5165609
-0.28763536
-0.47621578
-0.37655863
-0.13599543
-0.3547709
-0.54342955
-0.293591
-0.50223833
-0.50785244
-0.35578594
-0.46584693
-0.41704854
-0.29206848
-0.39403316
-0.49793163
-0.38843906
-0.47088838
1.2713203
0.68374217
1.2138957
-0.63510513
-0.38348147
-0.62241447
-1.1675732
-0.4895855
-1.0355734
0.7023251
0.45492262
0.6379631
0.42825374
0.2677129
0.37422585
-2.1943693
0.29264468
0.26531595
0.5329506
0.32473725
0.5055572
0.44223416
0.2445133
0.40446693
0.55022335
0.36143827
0.52437073
-0.5291007
-0.3713694
-0.48781666
-0.41453552
-0.26746613
-0.40185595
-0.48755717
-0.34839806
-0.44061404
-0.8494597
-0.29711857
-0.8073903
0.83311385
0.68605596
0.7829934
-0.3655631
0.17208551
-0.30777436
0.6723507
-1.3331192
0.6832011
0.9311491
-1.0831879
0.9167237
0.6332628
-1.3433839
0.6159963
-0.48983523
-0.37184474
-0.45679334
-0.40973628
-0.2808886
-0.39635482
-0.45110044
-0.33630165
-0.42887077
-0.54866874
-0.41517797
-0.50692016
-0.4365963
-0.32107523
-0.40856135
-0.44118783
-0.3764427
-0.40987444
-0.49267128
-0.33026123
-0.44258085
-0.3438705
-0.17899357
-0.33432397
-0.4957298
-0.35907373
-0.45498618
-1.0279782
-0.3019065
-0.9633974
-0.73349047
-0.3125191
-0.6612808
1.0527171
0.8416616
0.9939467
-1.0495747
-0.36057967
-0.98746693
-0.6467616
-0.46169654
-0.63263303
1.113289
0.78482753
1.0743726
-0.9408168
-0.2989211
-0.8934835
-0.54791486
-0.54064757
-0.52672094
1.0590173
0.5719929
1.0320412
0.939917
0.49582475
0.875373
-0.47027692
-0.16992006
-0.41322577
-1.3891203
-0.68867135
-1.3207111
0.54786
0.41975087
0.5148435
0.45788085
0.32473883
0.44086084
0.5224815
0.3972788
0.49138764
0.59957635
0.36241615
0.5583302
0.5220239
0.24504073
0.50019324
0.46130094
0.19283767
0.4404871
-0.62368786
-0.38586953
-0.5932485
-0.40014115
-0.24631429
-0.3823399
-0.4974874
-0.3238204
-0.44293076
0.5139444
0.3145109
0.48165208
0.4755291
0.25787213
0.44476393
0.5423527
0.38050866
0.49263895
-0.5185645
-0.29304746
-0.48708478
-0.40820926
-0.20915528
-0.39301762
-0.51847917
-0.28913295
-0.48262456
-0.4721319
-0.4594114
-0.39658687
-0.5454715
-0.6260229
-0.5447698
-0.3202207
-0.46277493
-0.31176865
0.60205436
0.4156672
0.54942226
0.46829608
0.28991094
0.4415223
0.57917404
0.4155262
0.5447308
0.58836937
0.39879042
0.56075585
0.45513618
0.26562056
0.4419054
0.51695347
0.35907048
0.4932973
-0.024011245
0.9911554
-0.108529665
0.40486586
1.3619808
0.3441632
0.111181356
1.2186422
0.078930885
0.49890667
0.33602768
0.4666905
0.3993898
0.23866016
0.37320113
0.48887274
0.33273163
0.46545947
-0.48163274
-0.35880572
-0.4381478
-0.40541238
-0.27904165
-0.38465968
-0.448228
-0.35297695
-0.41056427
0.8085391
0.61894166
0.82654214
0.8747529
0.34616607
0.5711217
-0.4077056
0.7338906
0.46582928
0.5737513
0.40141517
0.5241169
0.5142642
0.3185039
0.4752348
0.6319263
0.48189726
0.58534676
0.8464657
0.74624133
0.6134134
0.6966001
0.37910706
0.9131944
0.7467029
0.8792313
-0.19054376
-0.49789637
-0.3471152
-0.4520743
-0.3758187
-0.22683913
-0.36305317
-0.52519524
-0.3462309
-0.48531106
-0.6031005
-0.37766215
-0.551207
-0.41310608
-0.19153437
-0.40533832
-0.57929754
-0.4571582
-0.529987
-0.55750525
-0.37851933
-0.5061732
-0.42632517
-0.27624536
-0.39951614
-0.5134744
-0.35495585
-0.46628165
0.58766353
0.51930577
0.5457232
0.41984394
0.3191917
0.3764217
0.4893212
0.40489566
0.45245072
1.0645063
-0.3654447
-1.2450035
0.71140546
-0.03727697
-0.6351066
1.0462924
-0.3597298
-1.0336043
0.5327286
0.48092297
0.50394404
0.49124742
0.42664716
0.46979183
0.47623727
0.41668218
0.44609123
1.1826911
0.9567667
1.0669687
-0.81298053
-0.3928793
-0.731464
-1.0513127
-0.48791844
-0.9672129
-0.7874461
1.2746903
-1.1124011
-0.42710438
0.70959014
-0.36947525
-0.96125823
1.2667662
-0.9133082
0.9596085
-0.50123644
-1.4289043
0.8075419
-0.32954064
-0.5989368
0.97668666
-0.51035917
-1.260186
-1.1936059
-0.63710505
-1.1239516
-0.4613283
-0.2650895
-0.47160032
1.1953812
0.60277146
1.1281648
-0.55305207
-0.32096204
-0.52036643
-0.35797855
-0.14778832
-0.3339664
-0.49227023
-0.32707942
-0.4408395
-0.47882727
-0.4550316
-0.41474783
-0.43633857
-0.2821755
-0.41549903
-0.40645233
-0.45329654
-0.36143646
-0.48979184
-0.3163909
-0.45445213
-0.40329576
-0.22879592
-0.37710974
-0.44824725
-0.2584211
-0.40861383
0.6791144
0.38550365
0.61879057
0.41397396
0.22614063
0.39093056
0.6663919
0.38983035
0.60679394
-0.5452829
-0.35780272
-0.497015
-0.45066547
-0.2454881
-0.4154053
-0.46571487
-0.28849193
-0.41856438
-0.56076425
-0.3081587
-0.5230184
-0.34845084
-0.069718465
-0.30401775
-0.54829705
-0.30869764
-0.512753
0.6192372
0.45282802
0.5552809
0.45105124
0.29968128
0.435649
0.5559158
0.4202093
0.51089
0.55574363
0.34483868
0.5313923
0.42432493
0.22338293
0.4026107
0.51860005
0.329968
0.49691156
-0.13035789
-0.16962156
-0.045344003
0.42289063
0.043465935
0.3488295
1.4957196
0.7776595
1.3626058
-0.24213584
-0.3618031
-0.16672084
-0.27959362
-0.73980206
-0.28320828
2.5175636
1.0815659
2.3217502
0.60198313
0.42052144
0.5747689
0.5649938
0.36085
0.5462569
0.6547584
0.48510924
0.63166773
-0.6715954
-0.42195106
-0.58018076
-0.41302097
-0.23528235
-0.39542973
-0.5244449
-0.38204315
-0.46302712
-0.4824823
-0.3106885
-0.46489486
-0.35080293
-0.15546983
-0.34149405
-0.52687657
-0.3131193
-0.4919705
-0.63436234
-0.44172415
-0.5524313
-0.39540482
-0.28006607
-0.35932174
-0.46904173
-0.40128812
-0.4290463
1.2285187
0.7632868
1.1717236
-0.3610523
-0.24517998
-0.3497453
-0.8602429
-0.55856794
-0.80045956
-0.5176187
-0.38627353
-0.48711845
-0.40476695
-0.28000802
-0.3633652
-0.5079082
-0.36100042
-0.47771138
-0.60865986
-0.3452653
-0.5407992
-0.37257865
-0.18165559
-0.34382337
-0.5870584
-0.37127772
-0.53023934
-0.8302701
-0.25184363
-0.7501184
-0.85383666
-0.30808306
-0.8000102
1.3871031
0.75918674
1.2870783
-0.48996702
-0.32792294
-0.43347022
-0.47897762
-0.27889764
-0.4216213
-0.5260956
-0.38936988
-0.48633778
-0.55430585
-0.3935991
-0.5077309
-0.41715044
-0.205316
-0.39025465
-0.51513964
-0.3324118
-0.47919798
0.5672357
0.3948513
0.5301909
0.46652344
0.31079885
0.4354243
0.56768566
0.44464922
0.5220891
-0.5796031
-0.33491346
-0.51949376
-0.38208827
-0.16721824
-0.38547558
-0.5355455
-0.3367954
-0.49090248
-1.0169544
-0.7188012
1.138127
-0.42672914
-0.4673783
0.8588655
-0.8801761
-0.67306805
1.0566664
-0.5050867
-0.43911847
-0.44229782
-0.40769887
-0.33963722
-0.39914846
-0.52323055
-0.43463144
-0.47336787
-0.70857453
-0.33406454
-0.66548616
-1.0629917
-0.67188674
-0.97014135
1.352417
0.7580732
1.2513223
-0.5050385
-0.3412338
-0.47213957
-0.4118427
-0.24827349
-0.3737798
-0.51087046
-0.32622617
-0.46034575
-1.0297121
-1.0650177
-0.85893583
-0.77121395
-0.66113716
-0.7012843
1.30352
0.7697562
1.2380687
-0.87885106
0.72713965
0.5392773
0.8778924
0.38868284
0.60166293
0.7568689
0.6962438
0.7464855
-0.51679367
-0.3193628
-0.4805945
-0.35405728
-0.11470649
-0.33834988
-0.53326654
-0.35117418
-0.48449665
-1.3574532
-0.048758857
0.63895744
-0.8042582
0.018040871
0.33115447
-1.3027823
-0.030847458
0.6360562
-0.5951919
-0.42808
-0.5500599
-0.39132434
-0.22468571
-0.37095705
-0.5025814
-0.37767974
-0.4482982
-0.5102376
-0.33718064
-0.45868045
-0.38390929
-0.1983857
-0.36656976
-0.5744578
-0.3645452
-0.53680915
-1.8717813
0.30476785
-1.8888761
0.25999227
-0.06316632
0.36338976
-1.9301399
0.36298808
-1.8516328
0.47600126
0.27697766
0.43687317
0.35067037
0.19460215
0.32719046
0.4870608
0.2816808
0.45543265
0.8975199
1.0479753
-0.43985143
0.8063327
0.51454306
1.1235139
0.90917116
0.9371834
0.5481144
-1.2473954
-0.40794763
0.9680811
-0.8073232
-0.32447714
0.5906515
-1.3126346
-0.6269833
1.0770786
0.92111796
0.6533118
0.8475239
0.7203496
0.3453464
0.6726993
0.7810867
0.46843225
0.71825653
1.1641899
0.83559215
1.088466
-0.78355134
-0.32950047
-0.75213826
-0.7165293
-0.537418
-0.6403352
1.0990057
0.66351086
1.0450678
-0.49658075
-0.132839
-0.47748998
-1.0440395
-0.52899617
-0.93414694
0.5640404
0.36228058
0.51114744
0.4946156
0.31315097
0.47701728
0.6155262
0.45332387
0.5597538
0.84948385
0.48986474
0.80062985
0.6148867
0.25760737
0.5797274
0.59190893
0.29872853
0.5534987
-0.59990245
-0.42298934
-0.56798756
-0.44511342
-0.28226206
-0.40940136
-0.5164074
-0.36665687
-0.48656857
-0.57767975
-0.33119315
-0.5348671
-0.3747594
-0.17393862
-0.34631443
-0.55576885
-0.3160958
-0.5136733
1.5442845
0.9263584
1.4453841
-0.24696364
0.17385316
-0.23312955
-0.93499476
-0.64232737
-0.8661307
-0.96471006
-0.27190158
-0.8654596
-0.5888183
-0.26265237
-0.57447135
0.99381626
0.78152925
0.943694
0.95822734
0.6218634
0.8985687
-0.3923335
0.0055261147
-0.33529758
-1.1461242
-0.37311092
-1.0571423
1.360566
0.8312871
1.2351108
-0.7236964
-0.5455542
-0.663616
-1.2111335
-0.44429928
-1.0576415
0.97214186
-0.49706718
-0.8951833
0.54940945
-0.16118862
-0.36126345
1.0209501
-0.5146419
-0.7327692
0.58149225
0.49161312
0.5292383
0.47772548
0.3736367
0.4526796
0.5101027
0.45862612
0.4644623
-0.570115
-0.34840122
-0.51540196
-0.31874987
-0.14765948
-0.31341767
-0.50603044
-0.31071067
-0.46479
1.8603914
0.61091584
1.7610337
-0.21707533
-0.61202526
-0.15299612
-0.35956383
-1.4130875
-0.41027734
-0.5074894
-0.37279564
-0.47162777
-0.39743423
-0.2733919
-0.38749686
-0.39597717
-0.32717583
-0.36579245
0.6665617
-0.6979172
-1.4256302
0.45260733
-0.28474945
-0.80634415
0.4341497
0.17975836
-1.8871841
-0.578748
-0.42973804
-0.5127094
-0.3774262
-0.20817478
-0.35337722
-0.4830296
-0.32933623
-0.43174675
1.0888726
-0.93267477
-0.43608907
0.71072614
-0.5223591
-0.30956447
0.9830148
-0.89129233
-0.23394977
0.5805053
0.36679408
0.5472599
0.4748842
0.2633956
0.44881037
0.53485316
0.34254333
0.4990086
-0.76636064
-0.31128672
-0.74015737
-1.0492785
-0.5366655
-0.9219007
1.2704421
0.71808743
1.140986
-0.91339284
0.79301715
-1.004502
0.6598607
1.0114617
0.7022708
-0.7912456
0.63144267
-0.8495755
0.5461385
0.43982574
0.515543
0.44438714
0.3211132
0.42577237
0.46083128
0.3552332
0.40514576
-0.5702015
-0.35468262
-0.53780115
-0.35983664
-0.11282335
-0.34667557
-0.5287894
-0.34756318
-0.49788916
-0.553366
-0.4107307
-0.51206243
-0.42451248
-0.2205325
-0.39324275
-0.48428568
-0.39715567
-0.44174513
0.73266
0.30182335
0.77265066
0.38980976
0.3719729
0.43083924
0.6454164
0.5305545
0.6407893
-1.4808435
-0.6872916
-1.3445936
-0.46446583
-0.3182276
-0.42476317
1.0454055
0.59070337
1.0117953
-0.6085682
-0.37375167
-0.5312373
-0.38493723
-0.15416385
-0.35997698
-0.52631384
-0.348815
-0.45860374
-0.53964955
-0.3400359
-0.48877895
-0.38896343
-0.1473301
-0.38446444
-0.53077716
-0.3517575
-0.5039002
-0.5341333
-0.3400755
-0.5041041
-0.37591222
-0.1568098
-0.3578241
-0.48272768
-0.31609482
-0.43914118
-0.94262254
-0.5849052
-0.7060357
0.59933394
0.37703854
0.59118646
0.76279634
0.48624036
0.7293859
-0.57640463
-0.38385376
-0.53533936
-0.41635254
-0.25175714
-0.3977008
-0.47721252
-0.29819953
-0.43977943
-0.56612563
-0.36354747
-0.51726526
-0.3795365
-0.22014785
-0.35698962
-0.47074276
-0.32482752
-0.4247423
0.79688936
0.6335063
0.7494291
0.6119845
0.4242614
0.6181277
0.6514462
0.49639276
0.60743016
-0.6011769
-0.39877346
-0.5427703
-0.41002756
-0.21519677
-0.37493116
-0.51521266
-0.3533348
-0.4746344
-0.89628935
-0.4699362
-0.82041883
-0.5468228
-0.26021582
-0.5394024
1.1162323
0.75515205
1.0779599
0.031235812
0.34051397
0.20108204
0.114773646
0.34224212
0.29144678
-0.34338316
0.30933967
0.13544182
-0.81673986
-0.169546
-0.72084063
-0.49761647
-0.03290381
-0.45849928
1.3429749
0.8093501
1.2731068
-0.53412193
-0.35810512
-0.5091527
-0.39613754
-0.22098644
-0.3842163
-0.4703627
-0.33130416
-0.45291227
-0.51148295
-0.34481224
-0.47823
-0.34823397
-0.1946559
-0.34816864
-0.50335395
-0.31307706
-0.4713519
-0.8705614
-0.45652354
-0.8274884
-0.77975875
-0.79979247
-0.6394627
1.6303529
0.796033
1.5123826
-0.52397466
-0.3511031
-0.47664547
-0.37160176
-0.15030913
-0.35280654
-0.4946501
-0.3359628
-0.4449267
-0.5994357
-0.4498487
-0.5588464
-0.445064
-0.2499215
-0.41907528
-0.5275521
-0.46783286
-0.486567
0.62006027
0.38290602
0.569449
0.490088
0.28756854
0.46227112
0.54107386
0.3383384
0.5013214
-0.8714025
-0.8409759
1.3015643
-0.31372526
-0.37700194
0.90854585
-0.7854718
-0.7719505
1.1591766
-0.6536767
-0.36616418
-0.6343333
-0.41431203
-0.19396584
-0.40569946
-0.54098934
-0.2673477
-0.50592554
-0.56835353
-0.36120456
-0.5128031
-0.383488
-0.17630494
-0.3488252
-0.47220504
-0.31854635
-0.42818287
0.5319386
0.28322074
0.49948525
0.42229474
0.19789201
0.3943233
0.51028764
0.2710218
0.47956178
0.041690167
0.028278802
0.039765228
0.039644044
0.029217135
0.038087565
0.04484581
0.0348091
0.041609414
0.6080995
0.48449507
0.56309754
0.24391064
0.2059447
0.22950554
-1.9782528
0.25136834
-2.053469
1.223431
0.7666993
1.114688
-0.9249036
-0.41286227
-0.85926664
-1.0722834
-0.65835416
-0.9325475
2.293224
0.66287297
2.138245
0.11177939
-0.4126201
0.03237318
-0.2525672
-0.41579756
-0.21148668
-0.6861708
-0.32387906
-0.6542763
-0.40641573
-0.14921199
-0.38814965
-0.56185323
-0.24833237
-0.54300696
-0.5413057
-0.3607963
-0.49373916
-0.39557278
-0.18015519
-0.37462124
-0.47847092
-0.39768815
-0.43300593
0.66022205
0.45096126
0.59699255
0.4471576
0.24640083
0.41653526
0.5480585
0.3546022
0.5049105
0.69755054
0.4133255
0.64201075
0.5280099
0.27886695
0.5020288
0.5569011
0.355069
0.5184013
0.4976223
0.47980598
0.4461123
0.47312036
0.4799951
0.44239107
0.43972
0.4643748
0.41882673
1.2507641
0.62168545
1.1904154
-0.39935568
-0.3865514
-0.3665526
-1.4404006
-0.9279655
-1.27311
-1.5862207
-0.4381828
-1.4444745
-0.86700106
-0.30903438
-0.80532277
1.4039758
0.6467073
1.297418
-0.6150052
-0.32422385
-0.5688982
-0.43199894
-0.20474093
-0.4273614
-0.51942384
-0.28318858
-0.47766826
-0.5374204
-0.33971396
-0.49060422
-0.38534582
-0.21237181
-0.36844552
-0.48178294
-0.3223837
-0.45273092
-0.7726753
-0.8376922
1.1165495
-0.3809809
-0.26903835
0.7714699
-0.8162512
-0.73363745
1.0122366
0.71294504
0.36433405
0.6696127
0.50293976
0.2433862
0.48058167
0.5944447
0.33130932
0.5427916
0.68105006
0.36802807
0.63024175
0.5017197
0.23585086
0.46381223
0.57989526
0.30418763
0.5442452
0.57560986
0.47713256
0.5213133
0.48655498
0.41025206
0.43695426
0.49705526
0.4533821
0.47220182
0.461622
0.47132498
0.4192256
0.49460185
0.5438935
0.4749342
0.4958746
0.5491953
0.46757615
-0.7201578
-0.028106056
-0.63885605
0.99654657
0.7313055
0.9064149
-0.6816676
-0.03200712
-0.61463916
-1.9734778
-0.7282798
-1.9238187
-0.1729535
-0.6565611
-0.15067433
0.8708742
0.8674751
0.79960746
-0.9134548
-0.5349056
-0.80357957
-0.5594203
-0.060671028
-0.5246668
1.1516557
1.019103
1.0868694
0.69805276
0.82846856
-0.6634693
0.6871863
0.44462973
0.8905967
0.90034825
0.66528124
0.7846941
0.7011471
0.44631726
0.66128314
0.49642897
0.28072575
0.4631116
0.54393023
0.313736
0.50251174
0.28323483
0.7235367
0.62464595
0.77032167
0.36328077
0.5019093
-1.5767977
0.5542038
0.47240195
-0.57656205
-0.31942037
-0.5205073
-0.40256548
-0.21917656
-0.3943712
-0.53227454
-0.31370372
-0.5075415
-0.5878398
-0.3312743
-0.5388533
-0.37904602
-0.19273476
-0.38236588
-0.5576264
-0.31384578
-0.5207426
0.6665238
0.37950742
0.6343778
0.43660098
0.2050287
0.4243118
0.5171859
0.26450026
0.4847709
0.58273095
0.38536724
0.5481206
0.47492033
0.32333395
0.45000467
0.5725169
0.4239358
0.54672784
0.49579725
0.33736488
0.46911535
0.4050031
0.2668716
0.37296236
0.50780106
0.33921644
0.4723799
0.5155883
0.39534402
0.46335006
0.42826426
0.30234334
0.39909455
0.4815065
0.3623496
0.45273212
1.0573293
-0.7703433
-0.9360767
0.6547753
-0.43467394
-0.42010626
0.98239774
-0.5309118
-0.9507654
-1.1231065
-0.53928334
-1.0468976
-0.6212842
-0.48929808
-0.5499276
1.2492998
0.5388939
1.165691
0.98439366
-0.6356312
-0.696581
0.6618659
-0.3405909
-0.26934168
0.9604335
-0.6161776
-0.70398414
1.2549608
-0.74717194
1.2912556
0.8084999
0.34024704
0.7871452
1.1507609
-0.4971877
1.1828723
0.7202015
0.4891395
0.67879236
0.6203878
0.39417577
0.580191
0.72601455
0.5331325
0.69370663
0.6814469
0.9218035
-0.8976252
0.8582693
0.5598087
1.0771133
0.9373519
0.90901446
0.69525516
-0.57808197
-0.38929692
-0.5147223
-0.44546732
-0.25213104
-0.41661245
-0.55298144
-0.3797931
-0.48259106
0.7159302
0.6178787
0.5779319
0.5187276
0.37333396
0.5187945
0.65659404
0.55047053
0.58237094
-0.59255797
-0.66214204
0.96772987
-0.42721033
-0.27047324
0.78084135
-0.6908168
-0.53277564
0.91891754
-0.5152323
-0.35927328
-0.47421378
-0.353342
-0.1977464
-0.33043805
-0.49846095
-0.31643754
-0.47507703
0.5377557
0.43606517
0.49735376
0.4471094
0.33887982
0.42441258
0.5019081
0.42441908
0.44868845
0.848233
0.79252607
0.81716216
0.877468
0.39555815
0.7206502
0.6669999
0.6917847
0.6944206
1.2075438
0.65309113
1.1278713
-0.64759696
-0.3347146
-0.60339093
-0.59959155
-0.2812595
-0.5563789
-0.5368733
-0.33801916
-0.50270784
-0.36589095
-0.10887343
-0.32619408
-0.50514543
-0.3692038
-0.46698633
0.29486758
0.8894176
0.7046772
-0.8547073
0.6038493
0.5540022
-0.9578509
0.7200967
0.5889299
-0.513257
-0.35705608
-0.478715
-0.38800785
-0.2487299
-0.37350982
-0.46476737
-0.32743984
-0.43766287
-0.5407648
-0.36612707
-0.48407876
-0.35823083
-0.21166475
-0.3311431
-0.42565137
-0.29842535
-0.38634595
-1.3218108
0.9911617
0.74005574
1.2161672
0.6045521
0.75276035
-0.7036033
1.1067014
0.81301785
-0.66980374
-0.8853385
1.1946532
-1.4939017
-0.6371772
0.62502766
-0.35902688
-0.71269566
1.2992471
-0.59475917
-0.34978312
-0.5580424
-0.39793533
-0.20532916
-0.38792226
-0.52068734
-0.28075704
-0.4894576
0.4480841
0.2776899
0.42073852
0.32529128
0.202494
0.30930018
0.40938962
0.26922697
0.37616473
-0.3534518
-0.53620994
-0.29908922
-0.5343291
-0.50917643
-0.4822339
-0.35350278
-0.5643839
-0.34574276
0.6689824
0.44453034
0.6211443
0.51670706
0.3092456
0.48550674
0.56125075
0.34891424
0.5265062
0.4336359
0.24696958
0.40498957
0.3867472
0.22229691
0.3668483
0.54509324
0.3233182
0.49290887
0.56041455
0.3296744
0.521709
0.4847785
0.29399467
0.46409795
0.51565135
0.3809517
0.46048304
0.7855474
0.5470142
0.70333356
0.39645338
0.22613686
0.3525187
-1.4454879
-0.91331166
-1.4197301
0.79342353
0.5731084
0.75430864
0.52471054
0.39270902
0.66946274
0.5009883
0.5304191
-1.4941195
0.68000853
0.4378451
0.6590842
0.48751503
0.2563823
0.49990648
0.71860945
0.44230068
0.6900787
0.5150783
0.5567809
0.45264137
0.69421405
0.3373588
0.666498
0.7598453
0.29294902
0.70796776
-0.53290373
-0.3526763
-0.49436727
-0.37385303
-0.14649613
-0.3485655
-0.52943003
-0.34313253
-0.4858733
-1.7673541
0.320547
-1.7073756
0.41611063
0.31916675
0.37238187
0.6473666
0.46266544
0.61392415
0.5609177
0.20016621
0.5154754
0.7626541
0.37788332
0.72122675
1.1124957
0.61550623
1.026813
0.515676
0.3078815
0.48353907
0.4167904
0.22460024
0.4026416
0.5308508
0.356648
0.4831775
-0.55034864
-0.35090807
-0.47886515
-0.3892736
-0.2025936
-0.3597731
-0.47555846
-0.30589432
-0.43030742
-0.30414033
-0.23496777
-0.27776772
-0.13778114
-0.21826479
-0.19116202
-0.20860934
-0.16633748
-0.10591912
0.6046124
0.35831928
0.5648025
0.43334842
0.25194335
0.42258802
0.55862623
0.36461473
0.5063583
-0.50858533
-0.2785247
-0.47178376
-0.37253463
-0.18585472
-0.34218046
-0.52250755
-0.28148127
-0.4828499
0.5785871
0.32930312
0.542584
0.45408547
0.25844565
0.431703
0.5672114
0.34931576
0.5321373
-0.5712181
-0.3193831
-0.52388346
-0.38653642
-0.19099751
-0.3564075
-0.5039215
-0.32248652
-0.4613747
0.55803126
0.39568707
0.5195277
0.45299166
0.2993772
0.4259125
0.5101009
0.358031
0.49239188
-0.5487753
-0.35477272
-0.48271802
-0.3844615
-0.176256
-0.3657974
-0.5188848
-0.3481302
-0.4976473
0.8061988
0.5851477
0.762947
0.73682433
0.51588136
0.6542112
-0.89186937
0.55523276
-1.6294622
0.610112
0.33046058
0.56067204
0.46116206
0.23045364
0.4361526
0.5039605
0.2618805
0.4702234
-0.48380014
-0.35781983
-0.4406648
-0.41735154
-0.30206415
-0.38645166
-0.44035497
-0.33942616
-0.40627986
0.5748834
0.3112046
0.54191977
0.46253598
0.26435995
0.43108663
0.54624087
0.34440076
0.49405527
-0.80834275
-0.33959955
-0.73884225
-0.4752172
-0.21318272
-0.44123834
1.1907539
0.8195665
1.1568787
-0.4927145
-0.32237956
-0.46559894
-0.39054012
-0.23163745
-0.3648741
-0.48217273
-0.30581868
-0.45859894
-1.5293912
0.78505284
0.71021587
0.22605686
0.61098444
0.5137967
-1.557662
0.74918425
0.70168495
-0.55839026
-0.37707096
-0.5040457
-0.4159602
-0.2507183
-0.3733972
-0.53198093
-0.32945758
-0.47698858
-0.5016671
-0.42740056
-0.46972084
-0.479449
-0.30164796
-0.4476145
-0.52237326
-0.4661039
-0.5165928
1.0870204
0.5799618
0.9943358
0.7479602
0.31606013
0.6634048
0.59274894
0.5506908
0.5630879
0.5425775
0.41912898
0.5099689
0.495331
0.43035167
0.46179745
0.4671162
0.36333045
0.42374292
-0.7087065
-0.4569288
-0.61505973
-0.9348568
-0.4614157
-0.86015844
1.3204926
0.7838725
1.2432162
0.7120106
0.5286395
0.6499864
0.5421064
0.24114987
0.5487615
0.6429753
0.47678187
0.5900825
0.69178873
0.66431457
0.64106554
0.58522075
0.44575635
0.5533819
0.6454155
0.55022126
0.571219
-0.4962957
-0.33869392
-0.45775145
-0.38489345
-0.23882014
-0.36385354
-0.5088118
-0.3421067
-0.45729944
-0.569062
-0.3325407
-0.5381917
-0.3669621
-0.11334476
-0.3445848
-0.5422701
-0.33259803
-0.501814
0.46470642
0.35405213
0.4382466
0.4530262
0.31444103
0.42885336
0.49299288
0.37861735
0.45071915
-0.68600124
-0.35210282
-0.6239448
-0.42434096
-0.036151137
-0.38760933
-0.5827075
-0.34103724
-0.55226034
-0.8564237
-0.004847198
-0.8405595
0.9803216
1.1673825
0.93685275
-0.7182319
-0.004175949
-0.69476056
-0.69266456
-0.38350293
-0.6128762
-0.48559296
-0.12230873
-0.45015675
-0.6256794
-0.34633934
-0.56050056
-0.5796981
-0.32923123
-0.56905043
-0.38608074
-0.1982385
-0.37135303
-0.4708504
-0.2712095
-0.4467631
-0.5267215
-0.41897163
-0.49651745
-0.44002238
-0.31825364
-0.4162638
-0.51779336
-0.38187343
-0.4931666
-0.57016283
-0.33703983
-0.5377569
-0.4142307
-0.2158005
-0.39463767
-0.5757862
-0.33550444
-0.52509093
-0.5288263
-0.34232852
-0.46352497
-0.3741322
-0.18214422
-0.35443577
-0.4988268
-0.36819887
-0.45752025
-1.0910137
-0.34928542
-0.6740721
0.5937785
0.4642523
0.58718693
1.1865759
0.4799626
1.1376177
0.5442071
0.35172597
0.49598172
0.473492
0.28644848
0.4389394
0.5786991
0.46204782
0.54479986
-1.2241737
-0.6861213
-1.093022
-0.29964083
-0.2031572
-0.28143823
1.065879
0.68306035
0.98954576
1.5097071
1.0667714
1.3463912
-0.7106113
-0.38587213
-0.5987264
-1.3874003
-0.83129036
-1.1870022
0.29824656
0.5332184
-1.3914456
0.3848942
0.7772599
-0.50689566
0.4067623
0.55682933
-1.4585822
0.431864
0.34441787
0.40348718
0.3715646
0.27249622
0.33921435
0.39722484
0.34070987
0.35882297
-0.5120832
-0.31744382
-0.47938627
-0.37512803
-0.23207182
-0.34923992
-0.47928768
-0.29177266
-0.45227066
-0.57944447
-0.4243192
-0.5096462
-0.33290657
-0.34344217
-0.32171178
-0.50853556
-0.42240843
-0.44508255
-0.51049334
-0.3208568
-0.47702616
-0.35141376
-0.16104545
-0.33567077
-0.48416165
-0.35358992
-0.45256117
0.5718308
0.4031276
0.5316174
0.45041516
0.28139782
0.42106298
0.5719062
0.44999832
0.50693756
-0.4534511
-0.33322003
-0.41100362
-0.39505595
-0.26093027
-0.37979198
-0.4668276
-0.30247107
-0.4217384
-0.2950037
-0.05513299
-0.23842679
0.6497261
0.3398618
0.58468586
1.4749393
0.60912246
1.3829954
-1.3151827
-0.6834813
1.0906557
-0.6063333
-0.2789164
0.5489549
-1.2859001
-0.49902365
1.0566622
-0.85524046
-0.4761711
1.1729248
-0.44382605
-0.2581495
1.098969
-0.9486341
-0.5739072
1.2297373
-0.54272336
-0.3371036
-0.50140584
-0.4104427
-0.2450799
-0.39407632
-0.49993336
-0.3556894
-0.47068858
-1.2281725
-0.94769746
0.8558114
-0.763118
-0.3189437
0.5325009
-1.3494855
-0.45748067
0.7742526
-0.51110804
-0.36170897
-0.4557012
-0.38555345
-0.229374
-0.36035293
-0.49841067
-0.3482123
-0.46077806
-0.5379031
-0.3859964
-0.4966986
-0.40889353
-0.27397057
-0.37718424
-0.43320516
-0.31750172
-0.40788987
-0.7752109
-0.6794276
0.94816667
-0.5262095
-0.2829917
0.7299322
-0.7569889
-0.6707666
0.9204169
-0.55170345
-0.41088414
-0.49370253
-0.4047524
-0.27986416
-0.37350318
-0.45679188
-0.357937
-0.41653922
0.8156532
0.49487785
0.75755537
0.792393
0.39626184
0.7365691
0.65813786
0.6031635
0.57722807
-0.62939775
-0.49270973
-0.58149713
-0.38543525
-0.25091007
-0.3565883
-0.4805323
-0.32565588
-0.44251564
1.0128634
-0.70603645
-1.5118053
0.70135355
-0.5384119
-0.57314813
0.89169544
-0.48388913
-1.1127036
-0.60506296
-0.3442733
-0.54999
-0.39935064
-0.1888692
-0.3690163
-0.5143008
-0.27058628
-0.472118
0.48362535
0.31637707
0.44877857
0.42161515
0.24400775
0.3975173
0.52816147
0.33899733
0.47715715
0.5910255
0.34495184
0.55072635
0.4655971
0.2312712
0.44921982
0.5225484
0.29762626
0.49737188
-0.5291607
-0.398995
-0.48552918
-0.4289304
-0.3083905
-0.39838108
-0.47628227
-0.36446917
-0.43318444
1.0795907
0.5804381
1.0167488
-0.39731893
-0.070431374
-0.4157866
-1.1356635
-0.64867955
-0.98417795
-2.198867
0.22035533
0.59177506
-0.9615392
-0.04618575
0.34843665
-1.5084057
-0.8139356
0.7339246
0.76052666
0.591479
0.72367334
0.68815637
0.5029333
0.6427832
0.55832607
0.48610902
0.5055117
-1.1164547
-0.5242403
-0.99673724
-0.49479076
-0.35785335
-0.45844996
1.2204797
0.49860865
1.1567471
-0.56840384
-0.33188045
-0.51576835
-0.4114792
-0.24200942
-0.37968433
-0.47264758
-0.3023817
-0.44027033
0.6130848
0.382977
0.5860719
0.5041339
0.29291156
0.49636436
0.5984072
0.3927168
0.5610194
-0.7452609
-0.38823035
-0.6782475
-0.93584573
-0.5760621
-0.853168
1.2896628
0.6291646
1.1942928
0.5854255
0.3324584
0.5433266
0.47457337
0.24020465
0.44398725
0.60371983
0.36773106
0.5655373
-0.5172251
-0.37615782
-0.48726788
-0.39984062
-0.2617996
-0.3843031
-0.43270877
-0.30700257
-0.40807408
0.7022305
0.3632817
0.6393086
0.6164802
0.27858478
0.5894126
0.77442664
0.53815514
0.72563934
-0.53794855
-0.357924
-0.503133
-0.4149423
-0.25295702
-0.39543706
-0.5218154
-0.34061804
-0.4711536
0.45605406
0.110497
-2.2242467
0.33247226
0.3176843
-0.8488093
0.51920027
0.34538585
-2.0325136
-0.52047193
-0.3361082
-0.4740345
-0.34195423
-0.10297603
-0.32693765
-0.503025
-0.30823135
-0.47888315
-0.51709133
-0.30302608
-0.47243595
-0.3145561
-0.14542581
-0.2947691
-0.43356067
-0.28494713
-0.41139755
0.5678536
0.29703647
0.53011256
0.47686246
0.25362888
0.44883826
0.6266084
0.38335404
0.5736642
-0.28196543
-0.07459521
2.336649
-0.27160904
-1.2268107
-0.118888624
-0.3137719
-0.15905571
2.1462338
-0.5347964
-0.36212748
-0.49009976
-0.38838598
-0.2067078
-0.35857886
-0.49925625
-0.3466459
-0.46863997
0.49150762
0.30528164
0.46336403
0.38296428
0.21617486
0.36825123
0.43744066
0.27594945
0.41728586
2.6993604
0.11913037
2.480229
0.19375856
-0.8736875
0.11086209
-0.3448843
-0.40956908
-0.27000287
0.45501706
0.3027581
0.41785294
0.4277877
0.27966055
0.39179802
0.49008468
0.33349502
0.44976723
-0.5573741
-0.3555714
-0.5108675
-0.42796797
-0.2070284
-0.41104844
-0.5333936
-0.35656604
-0.5029819
-0.54095626
-0.31623363
-0.49102902
-0.39739692
-0.16199471
-0.35006663
-0.5518094
-0.3251933
-0.5059503
-0.5179011
-0.30534694
-0.49500245
-0.36170784
-0.15885293
-0.33858663
-0.51454294
-0.30664846
-0.4848771
0.66474473
0.46202463
0.6024641
0.47800326
0.3014725
0.4517645
0.56672484
0.35072336
0.5179806
0.67255926
0.48594332
0.619122
0.46716034
0.2776406
0.4438181
0.51607645
0.3648021
0.48188683
-0.53656304
-0.45219228
-0.4700196
-0.48523626
-0.33932975
-0.44351545
-0.57635206
-0.4329178
-0.5191328
-0.5351565
-0.37538096
-0.4964496
-0.4664505
-0.29683352
-0.42378792
-0.5596915
-0.402777
-0.5146681
-0.9594323
-0.40712377
1.165211
-0.37791383
-0.26274383
1.05313
-0.8475494
-0.31905898
1.1800613
0.6591777
0.4634732
0.6101277
0.5067087
0.29295677
0.48521096
0.49665588
0.32921046
0.48225635
-0.5306529
-0.31758422
-0.48491225
-0.37363207
-0.20360093
-0.35806614
-0.5109762
-0.3146365
-0.4816251
-1.0177972
-0.16913743
-0.94446707
-0.9413182
-0.5014697
-0.87790793
1.4444027
0.7960181
1.3401909
0.5539731
0.32108295
0.526009
0.43760577
0.23069252
0.4170604
0.5245785
0.33804125
0.48999134
0.53490746
0.34635627
0.5010797
0.47452566
0.28701177
0.44846275
0.64453155
0.41631037
0.6079679
-0.58949393
-0.2948083
-0.5390298
-0.3343813
-0.06083327
-0.3212341
-0.4867602
-0.26329225
-0.4579704
0.669779
0.7589829
-0.80504346
0.6040155
0.36874786
0.9771459
0.6110999
0.7182051
-0.06068734
-0.57730395
-0.3309398
-0.53899455
-0.37867916
-0.11045987
-0.35114354
-0.5997
-0.34531456
-0.55228984
0.9087905
0.36608616
0.8766707
0.49492213
-0.025509624
0.48613328
0.8067798
0.40987027
0.8038172
0.5710529
0.3378973
0.55101764
0.48319438
0.26632518
0.46406448
0.5941442
0.37499756
0.558568
-0.5537014
-0.38050765
-0.5075344
-0.4093615
-0.21554512
-0.3823088
-0.5314327
-0.34173107
-0.503022
0.56980276
0.34880102
0.5273397
0.44003537
0.25793266
0.43200666
0.59832007
0.37166405
0.54172003
-0.52468663
-0.45242387
-0.46750724
-0.4169503
-0.26945505
-0.3818791
-0.46563965
-0.39088473
-0.42834178
0.8931117
0.61581415
0.868174
0.8414383
0.58324593
0.7177178
-0.40896717
0.57022107
0.25377268
0.48700023
0.43089125
0.45802942
0.5016232
0.41275063
0.47446644
0.53139186
0.43297535
0.4857109
-0.5164142
-0.33454663
-0.4637209
-0.38437375
-0.19706555
-0.3465436
-0.49129725
-0.31627905
-0.4356016
-0.6023493
-0.34992078
-0.5394623
-0.40532282
-0.14634159
-0.35940135
-0.5517753
-0.319485
-0.50391006
1.1516846
0.694426
1.0610083
0.8987298
0.5252105
0.9215879
0.5695466
-0.13317092
0.33765766
-0.5246335
-0.42129552
-0.46452248
-0.42723045
-0.28860706
-0.41682824
-0.5897345
-0.4594761
-0.5170713
-0.8796269
-0.6073671
-0.7787971
0.081940904
-0.03585399
0.068953484
1.5568477
0.76890105
1.4027855
1.4100728
0.69504565
1.305462
-0.7352925
-0.44982368
-0.6947003
-0.9583817
-0.3727914
-0.8904027
0.60348475
0.41782078
0.5645454
0.46728456
0.29893076
0.44376883
0.50998104
0.44284996
0.47886994
-0.54093385
-0.35232595
-0.48103502
-0.44217807
-0.16385838
-0.4230244
-0.55570215
-0.3967278
-0.49530116
0.43914425
0.25629672
0.41671592
0.3202031
0.16812703
0.30001402
0.42964134
0.2592807
0.4072279
-0.5462197
-0.3680067
-0.5004852
-0.397786
-0.23668914
-0.38156742
-0.45035666
-0.32168126
-0.417835
1.1401943
0.7486998
1.0816234
-0.5592047
-0.17753628
-0.54527026
-0.8309892
-0.32036725
-0.73322743
-0.5213193
-0.31287286
-0.49111184
-0.38581976
-0.1588491
-0.37072363
-0.52788454
-0.3306276
-0.49432373
0.6518406
0.5007254
0.5863395
0.48338863
0.30214828
0.46217844
0.52208364
0.38034177
0.46749023
-0.5394029
-0.36937994
-0.5058856
-0.3985964
-0.21844906
-0.36775184
-0.4865543
-0.31350178
-0.4420607
0.6635739
0.41782358
0.62262154
0.48459587
0.2503503
0.4527662
0.5715241
0.30351713
0.5337002
-0.4802402
-0.4369955
-0.43489859
-0.4238272
-0.33929256
-0.37527883
-0.49717423
-0.39585662
-0.45139438
2.0810702
0.5274145
1.9006218
0.010485461
-0.46675995
0.026364544
-0.054628655
-0.26547018
-0.059438847
-0.5806229
-0.3842557
-0.523764
-0.44045296
-0.24337783
-0.4058572
-0.4552023
-0.3001702
-0.41049314
0.5980743
0.40487498
0.5609799
0.47247666
0.32816783
0.45017368
0.53671956
0.39531073
0.50088644
-0.6961672
1.2424148
-0.86299145
-0.21301638
0.9942598
-0.2817223
-0.7497426
1.1536996
-0.85375285
-0.5515621
-0.4229222
-0.50336796
-0.45789668
-0.294169
-0.41626173
-0.49825647
-0.45117024
-0.43404976
1.1588067
-0.6852986
-1.1693319
0.96331954
-0.3224593
-0.42315456
1.1187743
-0.5364027
-0.94102705
-0.7117758
0.5213281
0.41488484
-0.9712504
0.35922784
0.281946
-0.74643964
0.56742114
0.33439457
-0.54431444
-0.37819242
-0.52066505
-0.37338498
-0.23194388
-0.3495294
-0.44272333
-0.3180216
-0.41950092
0.38348308
0.5962414
0.404358
0.66398066
0.6146933
0.6020847
0.41569334
0.67363197
0.35610873
-1.3113462
-0.5094643
-1.2103395
-0.66526586
-0.57447463
-0.57865083
1.1077279
0.61721855
1.0656917
0.64063096
0.4152513
0.62616086
0.4367602
0.24348296
0.42169842
0.5371881
0.3454851
0.5039161
-0.49736467
-0.8118712
1.4553301
-0.8949391
-0.56749904
0.7614971
-0.15793696
-0.5931876
1.1189275
-0.5945372
-0.33584842
-0.5383574
-0.40033576
-0.169253
-0.38407212
-0.56525874
-0.32292235
-0.53087425
-1.2469047
-0.55173093
-1.1737266
-0.6574283
-0.5217437
-0.5844272
1.2712404
0.55039215
1.1822869
-0.5526109
-0.38969854
-0.51568687
-0.38646466
-0.23617102
-0.36120313
-0.4880381
-0.33629784
-0.43928862
1.4671241
0.6063001
1.4125205
-0.16068752
-0.5411623
-0.18266414
-0.63749593
-0.35969114
-0.5674702
0.60862494
0.38242364
0.55770165
0.4446445
0.2687566
0.42313117
0.6031289
0.40445134
0.57701373
-0.5595855
-0.335016
-0.52206415
-0.39921638
-0.14980416
-0.36039105
-0.57989234
-0.34879395
-0.5239692
0.73352855
0.8971536
0.53561735
0.8529851
0.6934657
0.9168381
0.29584712
0.9162762
0.22879505
0.6508583
0.4679836
0.59077615
0.51176596
0.3257598
0.48377576
0.6968768
0.48978597
0.65613335
-0.5334139
-0.33674946
-0.4938749
-0.3505601
-0.19689016
-0.32434365
-0.44405642
-0.27815932
-0.41656774
0.5392124
0.3113676
0.48411676
0.5323456
0.2956338
0.4929501
0.62294495
0.4468557
0.5740157
1.2773589
0.69787836
1.1775899
-0.4944107
-0.46265018
-0.48382762
-1.0108765
-0.6271265
-0.8661586
-0.5452826
-0.31646597
-0.51289445
-0.43117055
-0.24635649
-0.40328538
-0.5009091
-0.30019543
-0.46943393
-0.54052633
-0.3068011
-0.50379354
-0.34328985
-0.16069166
-0.3338551
-0.58751726
-0.3533687
-0.5342228
-0.8755482
-0.34927303
-0.8232014
-0.67463034
-0.5261098
-0.6605384
1.326412
0.69571453
1.2549453
-0.5383193
-0.3059211
-0.4961236
-0.32895663
-0.09068361
-0.3037197
-0.5058015
-0.28006223
-0.47990763
1.4082397
0.5539021
1.3589447
0.1716578
0.17887779
0.16291234
-0.6271042
-0.3629681
-0.5224257
-0.5601485
-0.35872
-0.5065387
-0.37382504
-0.19303018
-0.3360468
-0.5099068
-0.33181894
-0.4467905
0.6323099
0.447516
0.595253
0.46130854
0.25574476
0.44465876
0.52000064
0.3723244
0.4884879
1.151466
0.69681597
1.0545675
-0.958478
-0.48112568
-0.9236274
-0.62708855
-0.37833485
-0.54283863
-0.61650336
-0.4366339
-0.5446115
-0.44176528
-0.24326046
-0.39511105
-0.5284232
-0.34523085
-0.49318263
1.183786
0.7565775
1.1276009
-0.7486287
-0.35524878
-0.75308067
-1.1425272
-0.66346985
-0.93843
-0.48685884
-0.34121498
-0.44612697
-0.39990464
-0.26070115
-0.38804865
-0.5298268
-0.3833447
-0.49932688
-0.5547331
-0.3468684
-0.532779
-0.42409638
-0.22701913
-0.4003495
-0.5647605
-0.31684425
-0.54218817
0.5473056
0.36617061
0.5039004
0.48102313
0.27761555
0.45742187
0.5765881
0.3991122
0.5274911
-0.5194337
-0.33957672
-0.4679518
-0.34479463
-0.14829189
-0.30686548
-0.4685858
-0.30082417
-0.4104266
-0.88618696
-0.4815501
-0.7748525
-0.7250667
-0.42302456
-0.66611576
1.1589477
0.7772379
1.0921383
-0.49589586
-0.29069564
-0.4674324
-0.36205932
-0.15072824
-0.34611022
-0.47428486
-0.31743848
-0.45589787
0.60976666
0.40267172
0.5628875
0.4697555
0.2995241
0.44588393
0.5564152
0.38978037
0.51863474
-0.78507346
-0.62628037
1.105146
-0.39503852
-0.34522873
0.8673781
-0.58534133
-0.5154921
1.0275573
0.6256511
0.43588117
0.5809873
0.47165307
0.2770115
0.45067263
0.5677391
0.46343204
0.52047354
1.4188561
0.8599962
1.365921
-0.30500984
-0.36729673
-0.27071688
-0.29180098
-0.68250483
-0.24007411
-1.0612833
-0.8069187
-0.96677256
-0.78470266
-0.27404878
-0.71948576
1.3296098
0.91770273
1.2244931
0.61134243
0.34792143
0.5720178
0.4556337
0.25976923
0.41672042
0.53205776
0.3304156
0.49462214
1.1489035
0.5663232
1.0769075
-0.33174756
-0.3645938
-0.29657656
-1.2343395
-0.7092774
-1.1210474
-0.5258174
-0.30302444
-0.47064143
-0.4710748
-0.24839668
-0.4405014
-0.5960784
-0.3578315
-0.56634086
0.64749104
0.372337
0.5876592
0.47931096
0.33251062
0.46029797
0.7277024
0.48432648
0.68197393
-0.55353016
-0.32486194
-0.4999788
-0.33434215
-0.06875372
-0.31558952
-0.51290333
-0.3250129
-0.49975553
-0.5681336
-0.3861015
-0.5243175
-0.41130322
-0.19710451
-0.38235524
-0.54294443
-0.39089566
-0.5101095
0.9819931
0.60027546
0.9243689
0.6107541
0.40682018
0.58951294
-0.9367929
0.30358765
-1.2001414
0.5280037
0.3831428
0.47434905
0.38287926
0.24953279
0.36255866
0.5096503
0.379402
0.46886602
0.3759908
0.24405049
0.34729707
0.28252423
0.15703937
0.2634349
0.36177012
0.21982418
0.33638954
-0.574715
-0.39522606
-0.5158892
-0.46396306
-0.19958581
-0.44931856
-0.6607775
-0.37978396
-0.6050963
1.2703182
0.8515789
1.1544456
-0.7397552
-0.5290424
-0.65414363
-1.6408819
-0.4981254
-1.5358727
-0.9657371
-0.29188567
-0.8884436
-0.7618532
-0.34662235
-0.7140644
1.0933415
0.699843
1.0227023
-1.4955481
-0.66775274
-1.3302326
0.24929814
0.2719567
0.21020593
0.7760878
0.41824776
0.7058355
-0.56350666
-0.4195724
-0.49816358
-0.34562618
-0.21691166
-0.32444987
-0.4322035
-0.33683252
-0.4108496
-0.60051227
-0.41019592
-0.5535031
-0.41959232
-0.25063172
-0.39000484
-0.5174532
-0.32006449
-0.47553894
-0.81988496
0.8044318
0.5916694
0.75719804
0.35369682
0.50401604
0.6140853
0.48690882
0.63942665
1.2307471
0.72151154
1.0990268
-1.0257651
-0.49890932
-0.93753207
-0.5667065
-0.3132832
-0.5342503
-0.59626436
-0.37943453
-0.5719433
-0.42271972
-0.26597333
-0.4035434
-0.5534543
-0.33569655
-0.5250139
-0.46103412
-0.35951984
-0.40909377
-0.33409947
-0.19400573
-0.3074636
-0.45007184
-0.32368788
-0.39148903
-0.49234796
-0.35968646
-0.4619494
-0.41079092
-0.2106276
-0.39649647
-0.5278129
-0.33398843
-0.4879111
-0.53072935
-0.36397254
-0.48632723
-0.4102868
-0.18846324
-0.38941872
-0.52233654
-0.36937913
-0.45504525
-0.545898
-0.3850696
-0.4864604
-0.42921084
-0.34149665
-0.4239001
-0.49202207
-0.39674667
-0.45043775
0.6323691
0.39409342
0.59532434
0.5242508
0.32166883
0.48265183
0.59962535
0.43135095
0.5756566
0.7395047
0.54802555
0.6357948
0.5617121
0.37825957
0.69976556
0.52797115
0.630751
-1.4578558
-1.0504528
-0.46980065
-0.97667795
-0.7781556
-0.45240638
-0.6714046
1.3708009
0.69959617
1.2448852
-1.2796637
-0.8263781
-1.1588521
-0.5503406
-0.3671986
-0.47245133
1.2746642
0.7335573
1.1712884
-0.5303049
-0.32795724
-0.5047501
-0.3692636
-0.24511434
-0.3466734
-0.5024224
-0.3436255
-0.4386074
0.5143476
0.38799933
0.4699901
0.48369443
0.33299914
0.45395222
0.53192705
0.40988535
0.50781626
-0.5218463
-0.41491035
-0.4800736
-0.3955739
-0.28374213
-0.36981165
-0.43350878
-0.3374438
-0.39735892
1.2404219
-0.754146
-0.98130447
0.85057396
-0.28627753
-0.26288122
1.2587173
-0.8309528
-0.74468327
0.710531
0.5089645
0.638226
0.5992184
0.4130607
0.5531175
0.6261509
0.47701854
0.55794775
0.58045834
0.39461365
0.52431417
0.45863718
0.2948376
0.42811164
0.50538397
0.34131685
0.4591009
1.609873
-0.33585158
-0.99974173
0.599778
-0.2147065
-0.17525722
1.4044908
-0.11807998
-0.83432287
0.4164687
0.7468947
0.5077243
0.76459306
0.3665741
0.65563846
0.8320609
0.61768246
0.8116869
-0.95809233
0.8092938
0.4954545
0.6984219
0.47069973
0.4811432
0.6836894
0.78850496
0.67222077
-0.53735864
-0.3635405
-0.47730875
-0.38531807
-0.22498016
-0.36326447
-0.44476333
-0.32804766
-0.4246595
0.5304842
0.3641762
0.49529257
0.4857985
0.30910662
0.45235988
0.55849063
0.3705939
0.51582986
0.5818986
0.350736
0.54999757
0.47487402
0.25616008
0.45159146
0.57438713
0.34915432
0.53792226
1.1382115
0.61108273
1.0465852
-0.7704471
-0.40982428
-0.7133876
-0.8573601
-0.6438392
-0.77497613
-0.5716959
-0.32266474
-0.53104866
-0.3709743
-0.031323224
-0.34873506
-0.5625915
-0.32835394
-0.5422371
-0.6089482
-0.35258248
-0.5630469
-0.37585253
-0.106580205
-0.34776986
-0.47110045
-0.29664764
-0.4355274
0.43421373
0.35292152
0.37237373
0.42956057
0.46512794
0.3754331
0.5618354
0.4189939
0.5113826
0.26609054
0.19723277
0.25839183
0.23733012
0.17405632
0.22645819
0.25598472
0.22073625
0.23489869
-0.56771135
-0.3698113
-0.5427591
-0.454692
-0.27942532
-0.43787766
-0.50045127
-0.3310132
-0.4475332
1.1304847
0.7380824
1.0442102
-0.4010517
-0.36536118
-0.3795557
-1.478946
-1.0285891
-1.2968765
0.6325797
0.32345712
0.59216887
0.4866495
0.2315389
0.46599555
0.7053919
0.42449275
0.6572223
-0.53149754
-0.28947487
-0.47496572
-0.4576739
-0.22527862
-0.43668735
-0.60807353
-0.36028802
-0.57125795
1.0316293
0.54079247
0.94933534
0.8252108
0.29753613
0.82420427
0.5132582
0.5974365
0.29874384
-0.82396185
1.3298573
-1.0318767
-0.20673983
1.4617332
-0.23150283
-0.7765578
1.1557183
-0.9133286
-0.61618185
-0.36492103
-0.5745429
-0.38860813
-0.16619062
-0.35148582
-0.5903301
-0.3213929
-0.53749806
-0.6850167
-0.40083668
-0.64722955
-0.4335564
-0.22253394
-0.40287834
-0.6032976
-0.3913083
-0.53602123
0.8257074
0.5002895
0.76139486
0.5735952
0.23076719
0.56636196
0.6922856
0.35886014
0.64605725
0.8527117
0.5650448
0.80990195
0.6658756
0.38304263
0.6359793
0.7180376
0.5945624
0.6884434
-0.6262055
-0.5371862
-0.5472828
-0.49430975
-0.31587765
-0.4861679
-0.56018835
-0.48866263
-0.5002462
-0.6627476
0.63863045
0.3919816
0.764841
0.55827016
0.49495602
0.75487846
0.63325685
0.7349964
1.3911427
0.81780624
1.2776574
-1.1136252
-0.51679385
-1.0645108
-0.651243
-0.23332992
-0.55705434
-0.5298014
-0.3085612
-0.49373308
-0.39625955
-0.21473987
-0.36549076
-0.45671865
-0.2879866
-0.41798323
-0.515293
-0.6766129
1.0367868
-0.51781875
-0.13774951
0.82062
-0.4169201
-0.561582
0.97342265
-0.862425
-0.60351473
1.0400751
-0.5098776
-0.24973656
0.69698566
-0.83353156
-0.43408117
0.9474617
-0.564466
-0.33297095
-0.5085477
-0.37737015
-0.097141795
-0.36075678
-0.55436444
-0.31937015
-0.49826336
-1.1171857
0.2973881
-1.3833007
0.34309104
0.28890246
0.2988057
-1.5685074
0.35840195
0.24052759
0.5419602
0.34141853
0.5200453
0.45543995
0.29178187
0.43289843
0.5349148
0.35856307
0.51227605
-1.0307107
-0.4234446
-0.91716063
-0.6393626
-0.30209392
-0.6478447
1.0893618
0.5635832
1.0035994
0.62356657
0.4498975
0.5725036
0.5122497
0.3209561
0.48532727
0.56417125
0.37056094
0.51815486
-0.31253597
-0.8045338
1.1082202
-1.0351151
-0.6212328
0.9927922
-0.18945703
-0.66666746
1.2006809
-0.49394578
-0.31760603
-0.451976
-0.38120392
-0.19563086
-0.36573467
-0.48939613
-0.28801513
-0.4290078
0.5886768
0.40200886
0.5647214
0.48022103
0.30531427
0.48114768
0.6216318
0.43126604
0.6009269
-0.5063667
-0.34414276
-0.48559457
-0.38141045
-0.21493347
-0.35567296
-0.4091077
-0.25588945
-0.37953198
0.5852261
0.43269062
0.53511196
0.49442717
0.35442215
0.44221342
0.4939576
0.3845387
0.45424622
-0.50598025
-0.4481716
-0.45541373
-0.41704908
-0.35692105
-0.3912247
-0.48090234
-0.46841145
-0.44994587
-0.66417146
-0.4553516
-0.6071221
-0.43200567
-0.24247836
-0.40121898
-0.6359347
-0.4646354
-0.59949183
0.49126875
0.49131104
0.46231633
0.45505014
0.38917562
0.4312124
0.45976555
0.4432737
0.42241585
-0.54932964
-0.34315476
-0.5071563
-0.37907583
-0.18567486
-0.35293567
-0.5121997
-0.34545657
-0.46873385
0.6970759
0.46572527
0.6351397
0.54934204
0.29446954
0.51903427
0.6284466
0.38203502
0.5935286
0.49523708
0.3423613
0.4621089
0.4169438
0.30607885
0.4116546
0.5408724
0.40932447
0.52150464
-0.53206986
-0.29184836
-0.49102497
-0.3710854
-0.15251549
-0.35162997
-0.5149223
-0.29310077
-0.46679232
-0.5593873
0.18587723
0.23758353
0.10978662
0.20149602
0.24699396
0.18663076
0.2896324
0.28125522
1.1521143
-0.97463566
-0.4963649
0.6833768
-0.5541816
-0.20281719
1.0059428
-0.9064606
-0.27408907
0.59147984
0.37066334
0.55909526
0.47845644
0.2731875
0.455759
0.62154806
0.40575802
0.58502007
-0.6768939
-0.6339485
-0.6541101
-0.7181407
-0.11547147
-0.67073715
1.2069262
1.1162761
1.1328593
-1.3846532
0.7676228
-1.4354765
0.67617023
1.073348
0.5759564
-1.4944386
0.620377
-1.5227469
-0.4932883
-0.37377247
-0.46757835
-0.3372058
-0.21722817
-0.32368279
-0.48240346
-0.3533176
-0.45505506
1.2649485
1.0297414
1.1942555
-0.83746046
-0.24007519
-0.7669733
-0.5332241
-0.3058954
-0.47267282
-0.46130425
-0.31585523
-0.43608633
-0.38883376
-0.25378644
-0.36947024
-0.4564812
-0.3296859
-0.41924956
0.63989604
0.43158177
0.5944298
0.4890148
0.28660193
0.45332637
0.50194454
0.3086328
0.46488097
0.6242807
0.4179096
0.60408264
0.24737413
0.10256013
0.22306037
-1.8610183
-0.98714435
-2.4129426
2.224519
-0.09244555
-0.15141298
-0.24847507
-1.246965
-0.2475177
2.0556016
-0.10688675
-0.16039172
0.4423626
0.33262473
0.42521536
0.41372702
0.26974064
0.39916292
0.4280256
0.32024795
0.4061749
-0.6822123
-0.6584786
1.0906717
-0.7429733
-0.2228142
0.72922844
-0.38101253
-0.5761088
1.0348676
0.443583
0.3995888
0.38904312
0.4367463
0.39426142
0.41076812
0.51948124
0.41644278
0.4695027
1.0286518
-0.6682465
-1.5522343
0.7264907
-0.51675725
-0.6218817
0.92650604
-0.60780543
-1.3677537
0.6029959
0.3527873
0.56365335
0.50119835
0.24932949
0.47875082
0.64403677
0.4072395
0.59980035
-1.8925519
0.33898833
-1.7584447
0.43393022
0.3193589
0.4103722
0.5791735
0.43340796
0.5520646
0.50201553
0.36653274
0.48040935
0.4568442
0.30727416
0.4369741
0.46855405
0.3483439
0.42710423
0.48787788
0.28749916
0.45193887
0.4111322
0.24093932
0.39676672
0.55842024
0.38303187
0.5143021
0.6795425
0.47074786
0.6539446
0.5283814
0.3379636
0.5016881
0.6154758
0.43005756
0.5665311
0.77724797
0.4897634
0.72646564
0.7177066
0.3785853
0.678158
0.7488658
0.52196425
0.68883485
-0.60203296
-0.36164945
-0.55161166
-0.35075197
-0.121445015
-0.33211875
-0.46967536
-0.31676456
-0.42977297
-0.5457672
-0.4074989
-0.48861784
-0.38992968
-0.19019647
-0.35400495
-0.48754272
-0.38986537
-0.4413326
1.2079756
-0.6175604
-0.6651221
0.8369591
-0.22614901
-0.27839354
1.1848229
-0.5587388
-0.67098194
-0.5519863
-0.3930637
-0.51615846
-0.48549297
-0.3009828
-0.44560778
-0.48395202
-0.35815722
-0.44852585
0.63864267
0.40898314
0.5936766
0.48716602
0.25196484
0.4779941
0.5730037
0.40009442
0.5313882
-0.8164225
-0.6135386
1.2251409
-0.3158363
-0.22481725
1.1167608
-0.56464696
-0.39402857
1.069554
0.54848176
0.3555159
0.5052136
0.43860453
0.26156002
0.4179471
0.53385025
0.375488
0.5191819
-1.2901466
-0.45302662
-1.216273
-0.23169218
-0.11038608
-0.20774457
0.90619195
0.48289752
0.88373166
0.61031765
0.4413042
0.5767511
0.50043786
0.32309082
0.47078857
0.4870411
0.40736306
0.42925933
-0.694866
-0.52185607
-0.6123205
-0.4947609
-0.35636243
-0.46238294
-0.5886844
-0.460753
-0.52160925
-0.5840869
-0.34487838
-0.5363821
-0.4023703
-0.18695201
-0.3795109
-0.46526372
-0.2738085
-0.41437876
-0.49303776
-0.29993355
-0.46431696
-0.4041586
-0.159905
-0.38810146
-0.5617943
-0.32994032
-0.5167129
1.043707
-0.5960809
-1.9240116
0.69580704
-0.5519395
-0.639045
1.0541114
-0.6950147
-1.6943934
0.377834
0.95289695
0.55233717
0.8786369
0.33861685
0.7312903
0.7441614
0.55672115
0.74528843
1.2201824
0.80181825
1.1667132
0.07264258
-0.01886818
0.07012994
-1.0728788
-0.4818246
-0.9107091
-0.5476558
-0.36785492
-0.48783916
-0.42647144
-0.17430855
-0.39762476
-0.50422764
-0.30680323
-0.4524238
-1.3669342
0.4680975
0.3907131
0.4446164
0.30079067
0.37803423
0.4002492
0.28729883
-1.9551369
1.4753746
0.8208005
1.3446771
-0.84864837
-0.6682399
-0.7874492
-1.0464407
-0.5005718
-0.96637833
-0.5400896
-0.43660766
-0.49692306
-0.4153738
-0.3040979
-0.3860018
-0.42691988
-0.36639783
-0.3922834
0.6203219
0.39683202
0.5967953
0.47985834
0.3064703
0.46274295
0.6654059
0.41548556
0.62367046
-0.82218117
1.0158136
-0.8912548
-0.07129352
0.9278973
-0.13192287
-0.78984714
1.0596246
-0.84040457
-0.52347994
-0.29223505
-0.4835117
-0.40155506
-0.20987695
-0.3842354
-0.493366
-0.3223841
-0.44939706
-0.52573735
-0.31385806
-0.48622558
-0.4230971
-0.21178432
-0.4036959
-0.48034972
-0.29846737
-0.44455886
-0.60647625
-0.36345962
-0.5341621
-0.9862339
-0.40153742
-0.94055545
1.3566508
0.931166
1.2678938
-1.0555503
-0.6277049
-0.99593306
-0.48618954
-0.5142226
-0.46744385
1.0136932
0.6003831
0.9376422
0.6520779
0.45524436
0.6080863
0.44155964
0.28265026
0.4162072
0.5404497
0.38929078
0.5176787
-0.4777085
-0.36953324
-0.43773994
-0.39479247
-0.28352702
-0.36669838
-0.45215517
-0.36501062
-0.43047845
-1.2514672
-1.0910969
-1.1665783
0.2429723
0.12628938
0.19772409
1.2268102
0.81802124
1.1620361
-0.5452629
-0.3553128
-0.5101366
-0.3984014
-0.23148715
-0.37064523
-0.48777425
-0.3188867
-0.4537972
0.6484085
0.44324982
0.61114156
0.46248195
0.28058875
0.43716615
0.44410017
0.30392307
0.4135421
-0.78465694
1.1469914
-0.9530749
-0.27165797
0.85825044
-0.34298927
-0.8176053
1.172835
-0.8342015
0.7580262
0.9939439
-0.61360526
0.64112854
0.48022965
1.0883172
0.69380724
0.8979162
-0.8676585
-0.5451512
-0.2942314
-0.49327213
-0.31562802
-0.13399386
-0.30754778
-0.52265257
-0.30902204
-0.47506505
-0.52034926
-0.37252712
-0.497024
-0.42805895
-0.1976886
-0.4077887
-0.4821047
-0.39801303
-0.44036415
-0.52857786
-0.39958888
-0.4905731
-0.46350515
-0.24886973
-0.41977733
-0.57087183
-0.4196285
-0.5042002
0.6417383
0.4142457
0.5952117
0.49826103
0.27278802
0.45774475
0.53452945
0.34860858
0.48773858
1.2094994
0.5508118
1.1522589
-0.33621627
-0.47513223
-0.35248852
-0.98649096
-0.4454627
-0.9681155
0.75973094
0.5549698
0.864409
0.756776
0.16480955
0.51537156
0.48321244
0.61445385
0.6583228
-1.1040972
-0.33737046
-1.0773613
-0.62505174
1.1253579
-0.6205828
-1.2656361
-0.4230366
-1.180924
-0.5808402
-0.32541004
-0.53753525
-0.39183557
-0.18397836
-0.37685022
-0.49119428
-0.2904365
-0.4391054
0.61663556
0.3711036
0.5713337
0.4103721
0.21022403
0.37852183
0.53712946
0.3278045
0.5177278
0.76033586
0.5085723
0.723555
0.59045553
0.33669195
0.57063276
0.6632838
0.41658294
0.6385488
-1.4083996
-0.83255374
-1.368927
-0.13740376
0.24873966
-0.2687888
0.99437326
0.6869387
0.93113047
0.66540724
0.47821963
0.6019806
0.61763966
0.41118613
0.57458603
0.75139695
0.5623707
0.68454415
-0.5771305
-0.3626915
-0.5196059
-0.36986694
-0.19480123
-0.3561701
-0.50515646
-0.3472467
-0.47279036
-0.5784164
-0.36646459
-0.5331139
-0.42344075
-0.1905317
-0.40810597
-0.56241006
-0.3878842
-0.50547516
-1.365062
-0.53368634
-1.1713182
-0.5951582
-0.09086787
-0.6406973
1.1563852
0.72626173
1.0731975
-0.6066481
-0.3365868
-0.5746658
-0.4170551
-0.19496098
-0.38893345
-0.4900445
-0.268063
-0.4565531
1.366427
0.764928
1.2609807
-1.0879327
-0.51558286
-1.0111384
-0.64290744
-0.25618213
-0.55495876
-0.5231541
-0.35019046
-0.49577072
-0.39472815
-0.2448932
-0.37673184
-0.51519024
-0.35304245
-0.4974922
0.5955985
-1.50595
0.52634484
0.17334884
-1.094478
0.21833198
0.6101791
-1.5908841
0.560873
1.6590266
0.80745524
1.5091875
0.41094986
-0.1921347
0.3888021
-0.27165037
-0.10285133
-0.14909816
-0.51477903
-0.44840434
-0.47887906
-0.37518117
-0.2831044
-0.3593698
-0.42022246
-0.36036092
-0.393366
0.5810932
0.34064433
0.5511435
0.41828424
0.20683992
0.38759652
0.5658635
0.31945217
0.5314687
-0.4835767
-0.49302155
-0.4595085
-0.49114376
-0.46389326
-0.49027562
-0.42283574
-0.515374
-0.38343534
0.83989847
0.67076224
0.7346163
0.74727094
0.40255824
0.83698875
0.5705803
0.8612342
0.060860936
-0.55434555
-0.3164478
-0.47456014
-0.3995545
-0.170703
-0.3718939
-0.52809864
-0.30165124
-0.47947675
1.2900099
0.70824224
1.1796764
-0.7560984
-0.43502682
-0.72275203
-1.1375189
-0.53995794
-0.99353206
-0.7733124
-0.66526276
1.125078
-0.3450458
-0.40937448
0.8306349
-0.7333902
-0.47898617
1.1231663
0.7393828
0.48320013
0.6885508
0.44073123
0.24161172
0.43156257
0.63518924
0.44851777
0.60856074
0.4093364
0.2622944
0.39427662
0.3390263
0.20157522
0.3180904
0.44545555
0.29174057
0.41332725
0.5134799
0.32030225
0.48663375
0.4369227
0.2719297
0.40545225
0.5520985
0.38361457
0.5094967
-0.9148888
0.45039496
-0.7853362
0.71064675
0.3949292
0.63743705
0.7993484
0.66311353
0.7391077
-0.5570698
-0.33528686
-0.5007065
-0.39932624
-0.17527471
-0.36198872
-0.52082723
-0.32830128
-0.4844148
1.3351823
0.6385378
1.2324103
-0.99591357
-0.45155138
-0.9067484
-0.80618334
-0.22730702
-0.7434176
0.90722936
0.68895936
0.85771984
0.73011816
0.43341085
0.66331977
-1.0461655
0.79171276
-1.6272367
0.67433643
0.38272867
0.61693156
0.37589794
0.22911482
0.36189258
0.5316269
0.29262084
0.48295093
-0.46921873
-0.30374977
-0.42759395
-0.36864695
-0.23795186
-0.34896457
-0.40993863
-0.27323246
-0.36817238
-1.5935204
-0.36641642
0.9818692
-0.65724003
-0.5304248
0.6557315
-1.4435707
-0.46511203
0.9317064
-0.65470284
-0.2678543
-0.6065638
-0.4816542
0.018801037
-0.4351643
-0.57091576
-0.34772733
-0.5418999
0.55498165
0.3757557
0.52433705
0.44308797
0.29121044
0.42411843
0.47891834
0.32747728
0.4584428
1.2095897
0.78209376
1.1299337
-0.48168215
-0.21745516
-0.41118932
-1.4780289
-0.8512698
-1.299868
-0.4951024
-0.3563149
-0.45381546
-0.41053706
-0.2817526
-0.380494
-0.43865544
-0.3303825
-0.3969682
0.6770399
0.49886027
0.6147872
0.5040578
0.35943004
0.47833964
0.6264691
0.47181132
0.5802008
-0.73089606
-0.35363474
-0.66274863
-0.7577871
-0.42534778
-0.6780826
1.12683
0.6289724
1.0446565
0.6580758
0.43182194
0.5968868
0.507149
0.3277016
0.47654375
0.5173126
0.3642156
0.46635443
0.4920394
0.48908713
0.45371196
0.50730324
0.41858548
0.4888623
0.5428279
0.49970305
0.49837804
0.53525114
0.4705138
0.4807381
0.5583939
0.46519083
0.5046105
0.41954455
0.38434604
0.36585653
0.88577384
0.5993108
0.7969365
0.6905851
0.40728956
0.65698093
0.72529954
0.436935
0.6393009
1.0850734
0.5961611
1.0266362
-0.36983365
-0.025493456
-0.3526657
-1.2382919
-0.74008393
-1.0867698
-0.33805192
-0.95824176
0.50415146
0.6520513
-1.257738
0.58723897
0.4432571
-0.8349624
-0.18970782
1.2383082
0.61878574
1.1333319
-0.54569536
-0.16895652
-0.5072373
-1.0368246
-0.5719805
-0.916975
0.8520815
0.47747326
0.79108185
0.48961928
0.20280422
0.46528724
0.6383197
0.32844833
0.5678464
-0.55933905
-0.3670579
-0.50081915
-0.3925358
-0.19409493
-0.3581222
-0.5505139
-0.39952362
-0.49823093
0.54533947
0.40138465
0.5278336
0.50450146
0.30912778
0.4829354
0.47180903
0.29839283
0.43650955
0.6300556
0.421417
0.6109165
0.5436944
0.2622225
0.5216301
0.6482529
0.36479235
0.603003
0.7508946
0.2738189
0.74373543
0.3981058
0.33753827
0.38716513
0.88795865
0.28482243
0.8496553
-0.85944474
-0.32650656
-0.7876883
-0.7712977
-0.62735
-0.6661425
1.410417
0.5069058
1.2800599
0.80685425
0.4912764
0.7315752
0.60732526
0.3746046
0.6104076
0.7384347
0.5347729
0.67470294
0.48813462
0.33602002
0.4462687
0.39949474
0.24032545
0.38337395
0.5275337
0.3902007
0.49144763
-0.5383298
-0.29511207
-0.49468455
-0.38444832
-0.16164652
-0.36732322
-0.55284655
-0.29630527
-0.4898591
-0.61433727
-0.36568874
-0.57787323
-0.43671808
-0.24391375
-0.4125209
-0.5457198
-0.34655228
-0.5102055
0.6427556
0.40267554
0.5905711
0.44599006
0.22896498
0.42956015
0.48808375
0.25512263
0.44488057
-0.5579779
-0.30413494
-0.52149355
-0.3676427
-0.122866504
-0.33125296
-0.5625409
-0.3275339
-0.510093
1.2847252
0.48873845
1.2286758
-0.35935333
-0.37907326
-0.38789353
-0.7860641
-0.32633626
-0.7539863
0.53818613
0.28279054
0.51520497
0.40894485
0.21274666
0.38416126
0.535577
0.3306355
0.5012585
0.6370202
0.42619395
0.5966243
0.42606795
0.23786047
0.4095516
0.5240956
0.36084285
0.4887844
-0.55288994
-0.40894037
-0.52609116
-0.4547614
-0.2783377
-0.42222342
-0.457525
-0.32509094
-0.4325966
0.5537703
0.43958372
0.50530094
0.4477824
0.31131622
0.43661156
0.4759441
0.336007
0.44749594
0.61805004
0.36033678
0.568811
0.47047246
0.23189466
0.42957568
0.59436804
0.34493396
0.5367084
0.61146384
0.65985394
0.56208944
0.5617445
0.38572624
0.5147424
0.7272955
0.49209782
0.65871817
-0.60352176
-0.36873096
-0.56751347
-0.42245278
-0.2375563
-0.40908358
-0.5387049
-0.34440163
-0.5161673
0.53772134
0.3374594
0.4968143
0.42121625
0.25590697
0.41027856
0.5143626
0.36370006
0.46491662
-0.53044754
-0.3304203
-0.47893357
-0.3550336
-0.1772159
-0.3289697
-0.5211297
-0.32182404
-0.46475217
0.6215393
0.51152694
0.5914657
0.71771157
0.36238834
0.48183244
-0.97677594
0.6169431
0.45714298
0.7070108
0.496027
0.66738623
0.49189192
0.30282658
0.46680203
0.60140955
0.40297467
0.5605211
-0.5277996
-0.40556878
-0.48161304
-0.40841204
-0.25242394
-0.37264654
-0.42987394
-0.30195934
-0.4016888
0.5299607
0.4438632
0.48026964
0.52049696
0.43853298
0.46656507
0.57096946
0.5163758
0.5169062
-0.48287016
-0.4581693
-0.44493043
-0.456639
-0.38250008
-0.42237905
-0.46734574
-0.52195525
-0.44300473
-0.54507583
-0.35002762
-0.49785715
-0.40562606
-0.1896602
-0.36191154
-0.494327
-0.3432989
-0.45475912
0.8681365
0.5132031
0.79965025
0.35434136
0.20485006
0.34852943
-1.787739
-0.45517558
-1.6695843
-0.6729579
-0.4130301
-0.6267937
-0.52211094
-0.29013947
-0.5045664
-0.6162958
-0.41409382
-0.5591994
0.6312306
0.40674177
0.59741443
0.38645944
0.2354027
0.39374864
0.50297344
0.34436083
0.5016799
0.6132977
0.4166307
0.57491356
0.4592705
0.2747551
0.4294812
0.51768976
0.36129043
0.47366494
0.73594636
0.4912687
0.6674895
0.5408417
0.32509315
0.49175498
0.56363934
0.38461637
0.5321697
1.3547393
0.80836207
1.2223831
-0.89346987
-0.37517983
-0.8079462
-0.717328
-0.5409028
-0.64131707
-1.6101695
-0.917263
-1.5412233
0.56426877
0.21032508
0.55568033
0.32182476
0.5277694
0.29148537
0.5519673
0.29935625
0.4976145
0.5109662
0.2718172
0.47607806
0.6586417
0.4148299
0.61767215
0.46706572
0.3162995
0.461205
0.35886782
0.23793048
0.3457345
0.41985336
0.30238068
0.39896908
-0.5089534
-0.3369647
-0.4652405
-0.3920507
-0.24147004
-0.37448758
-0.49762148
-0.34006783
-0.46959087
0.39674488
0.24083301
0.37134832
0.29876122
0.15852228
0.2897307
0.35627827
0.22816905
0.33524045
-0.6250314
-0.48976532
-0.5392038
-0.45990318
-0.2835079
-0.45562238
1.4532853
1.1768643
1.3502197
-0.543065
-0.28942728
-0.48879585
-0.3688046
-0.1263963
-0.3499948
-0.47863087
-0.33477932
-0.4242428
0.5990533
0.41251925
0.5739487
0.5663072
0.33162424
0.5294427
0.6715043
0.49619335
0.6354246
0.47494572
0.6194584
0.38588214
0.44160488
0.6707211
0.39207822
0.3701184
0.54648715
0.29362047
0.71734875
0.33153492
0.6844427
0.60163385
0.25144693
0.5690691
0.7807942
0.45709753
0.7293183
0.626541
0.42412817
0.5940571
0.4578593
0.29885662
0.4501814
0.56926656
0.42173377
0.52254117
1.3012378
0.69473857
1.2293191
-0.29770947
-0.44215983
-0.32127884
-1.270387
-0.830738
-1.134815
-0.622486
-0.33414215
-0.57565624
-0.34743792
-0.08555588
-0.32416034
-0.46657985
-0.26860362
-0.41111183
-0.50075656
-0.35508204
-0.45755705
-0.40934822
-0.2963817
-0.36992735
-0.5178189
-0.36157387
-0.45874035
-1.2706586
-0.70840836
-1.1708446
-0.2202955
-0.24321947
-0.2701729
1.130811
0.9214567
0.9682225
0.599188
0.31408527
0.56253636
0.5030071
0.23517588
0.48081103
0.6651559
0.40400246
0.6217497
-0.5113264
-0.38199505
-0.48194227
-0.3581176
-0.10310663
-0.33823532
-0.56705916
-0.38166597
-0.5187559
-1.145952
-0.5410031
-1.0795034
-0.7991261
-0.4516616
-0.74455434
1.2065232
0.6056906
1.1293389
-0.4734456
-0.3509005
-0.42717826
-0.4217207
-0.24265434
-0.39932472
-0.46549082
-0.32422104
-0.41700754
0.54252535
0.3875002
0.5203814
0.41389182
0.27231413
0.38173124
0.48477122
0.3259603
0.4587748
-0.61432177
-0.396304
-0.5459107
-0.4357862
-0.26426023
-0.39158088
-0.5502362
-0.3500624
-0.5008368
0.56537473
0.38150465
0.51349264
0.4376572
0.28966367
0.42106345
0.52585673
0.41764918
0.4874922
0.5564681
0.41091755
0.52848417
0.43232712
0.28633952
0.41356528
0.5099682
0.36788502
0.4643328
-0.5564603
-0.38574103
-0.51996803
-0.42084214
-0.27609703
-0.39331815
-0.4954778
-0.3573262
-0.4765194
-1.5157443
-0.47256646
0.8458798
-0.83608234
-0.30362245
0.49556467
-1.4319808
-0.45541692
0.74959844
-0.51469815
-0.3041932
-0.48628297
-0.41686618
-0.17795533
-0.3723783
-0.52404135
-0.28876302
-0.4855162
-0.5201466
-0.3643759
-0.46857592
-0.42582434
-0.27667177
-0.38741294
-0.4779315
-0.37002477
-0.44106093
-0.70687854
-0.16099362
-0.63614076
0.9567347
0.8846522
0.8604329
-0.5276772
0.025777306
-0.49497196
1.2113649
0.7320156
1.1429112
-0.7093717
-0.32071984
-0.71064913
-1.3065236
-0.504807
-1.1612396
1.3783946
0.4969624
1.3022699
-0.46129602
-0.9101287
-0.39545593
-0.34991652
-1.7971365
-0.26587635
-0.45196036
-0.4441056
-0.39228287
-0.49894792
-0.4235577
-0.46957216
-0.44858557
-0.45257992
-0.40847117
-0.56892616
-0.36829928
-0.52645487
-0.39013332
-0.21448542
-0.36485866
-0.5040983
-0.321005
-0.46820217
0.5483838
0.672684
0.52474135
0.5582141
0.28726223
0.49132463
0.37087023
0.58944476
0.37155634
1.046573
-0.79976165
-1.0309507
0.6874494
-0.19460195
-0.45562842
0.93749624
-0.7173099
-1.080325
0.9250221
-0.23303363
-1.3424994
0.5967852
-0.48808008
-0.41339827
0.9337668
-0.47368005
-1.2539432
0.6298299
0.38681778
0.5819721
0.52222776
0.28142843
0.5101091
0.6790865
0.44103098
0.6241771
-0.5503072
-0.3520725
-0.49890414
-0.3810907
-0.21413739
-0.3456305
-0.41454756
-0.26822507
-0.36200798
0.6765221
0.49287474
0.6116261
0.5771982
0.39360008
0.555839
0.6278862
0.51864195
0.55641466
1.0041353
-0.48160094
-0.89247966
0.64062065
0.04122804
-0.5003895
0.8437744
-0.4895508
-0.7235136
0.56676227
0.46339145
0.4932326
0.49829966
0.45278624
0.44624877
0.5753445
0.47009027
0.5199033
-1.526449
0.5922388
-1.535915
0.613269
0.4206304
0.58422595
0.81417876
0.59325725
0.79390514
-0.5196265
-0.29352385
-0.46996227
-0.3435439
-0.12467775
-0.31661373
-0.50877494
-0.3076608
-0.48499432
-0.5452052
-0.39163813
-0.5183242
-0.349389
-0.19100122
-0.32539994
-0.52859586
-0.34497476
-0.4924136
-0.5684986
-0.335149
-0.49812436
-0.3935795
-0.15470922
-0.3451675
-0.5468518
-0.35760307
-0.48731095
-0.47575817
-0.35353085
-0.45285833
-0.41033843
-0.27806476
-0.39457628
-0.49828666
-0.3682268
-0.46877053
-0.519835
-0.3649655
-0.4750375
-0.4051015
-0.22822611
-0.3851103
-0.5200662
-0.39513662
-0.46231514
-0.5545172
-0.35208282
-0.503796
-0.40102807
-0.2284663
-0.37878516
-0.49445915
-0.32782623
-0.44678256
-0.582522
-0.2954195
-0.5209322
-0.3979012
-0.077143334
-0.3712549
-0.50690097
-0.3492312
-0.46749663
0.6354786
0.3719912
0.5789382
0.44280636
0.27240282
0.43751773
0.5687691
0.3621203
0.53243124
-1.0616835
-0.7280032
-0.9066655
-0.7659037
-0.47686878
-0.7156797
1.4687017
0.8200079
1.3699421
0.7129661
0.4378321
0.6768857
0.6046989
0.31051558
0.57108283
0.6679312
0.37225127
0.61896574
0.7841133
0.5112921
0.74028265
0.59541893
0.3628307
0.57270217
0.721721
0.47444004
0.67690897
0.45802212
0.33130234
0.43945947
0.37227648
0.24372135
0.36825997
0.4646298
0.35441357
0.44565624
0.5801159
-1.8025745
0.5916728
0.431645
-0.8892413
0.45399454
0.5418964
-1.1958164
0.54544246
-0.5342041
-0.36747897
-0.48632437
-0.36339006
-0.21106412
-0.34158978
-0.4513757
-0.31532633
-0.40450507
-0.55281675
-0.409151
-0.49487698
-0.3768149
-0.24216893
-0.3498848
-0.5232318
-0.37059718
-0.4821378
0.87365735
0.48463446
0.7681829
0.6535171
0.36264163
0.68736
0.75021386
0.63104
0.5975991
-0.5106723
-0.33826882
-0.46587178
-0.41123974
-0.24995595
-0.378413
-0.5401891
-0.38293558
-0.49413818
-0.7556061
-0.08858612
-0.7207736
-0.59372616
-0.12694779
-0.5347645
1.1389818
0.933987
1.0768129
-0.4894059
-0.46878615
-0.45590457
-0.47100842
-0.44294435
-0.44982037
-0.49197978
-0.43301368
-0.4598782
-1.4493182
-0.9758973
-1.4339315
-0.102687106
-0.5996657
0.020470487
0.94667536
0.5016047
0.8257821
0.559581
0.34125635
0.53564095
0.44271508
0.25131842
0.42853943
0.5296717
0.31586245
0.4897856
0.5782653
0.4517071
0.5359107
0.47853112
0.3376291
0.4503069
0.49449214
0.36799103
0.45551538
-0.5594285
-0.35796845
-0.52319527
-0.3935459
-0.21749902
-0.37035906
-0.48276964
-0.28226388
-0.45306557
-0.5174352
-0.3854801
-0.47876123
-0.45948067
-0.29116145
-0.4203204
-0.4785037
-0.33741686
-0.4555059
0.7653282
0.5086213
0.7298878
0.57226545
0.3482719
0.5407557
0.6814805
0.4696708
0.6423596
-0.59184545
-0.3998642
-0.53889304
-0.44300085
-0.21102992
-0.41920084
-0.54512984
-0.3012266
-0.48988503
1.6993148
0.78386426
1.5734726
-0.47098082
-0.70088613
-0.4252026
-0.4479762
-0.25698072
-0.37204072
0.8307204
0.6022939
0.76138645
0.61277884
0.3243076
0.5749717
0.6649744
0.38414332
0.6174922
-0.537122
-0.310041
-0.4926369
-0.4134763
-0.22264059
-0.38689873
-0.46660444
-0.25674024
-0.42807817
-0.60180354
-0.33031654
-0.5412796
-0.30722108
-0.20278054
-0.28953084
-0.50364745
-0.31124693
-0.44388068
0.53914
0.3584299
0.49643075
0.44299313
0.24833456
0.40863445
0.52204186
0.3458705
0.46485487
0.74549985
0.4200807
0.69336563
0.51013577
0.23356365
0.49320883
0.61281604
0.3382413
0.5952279
1.1261618
-0.5307804
-1.4105996
0.555357
-0.34434503
-0.5812513
1.056936
-0.48847035
-1.354236
-0.560523
-0.39611343
-0.54782254
-0.40220934
-0.2550285
-0.38295418
-0.463246
-0.30421862
-0.45210707
0.609584
0.42629966
0.5669263
0.44311997
0.25081253
0.4298107
0.5730599
0.35608378
0.5302442
-0.95316386
-0.77191085
1.1665281
-0.42418635
-0.45530188
1.0121163
-0.83542347
-0.73516583
1.041573
0.5805953
0.35691252
0.531055
0.47230476
0.26559576
0.45555156
0.5299409
0.33206162
0.49443877
0.5248215
0.3757602
0.49825504
0.467055
0.2980963
0.42293826
0.5321926
0.40702358
0.49169284
-0.6097063
-0.3407595
-0.56800884
-0.37728304
-0.09208466
-0.32267436
-0.60853523
-0.3901221
-0.59378093
1.3588685
0.82582194
1.232286
-1.0207123
-0.4631716
-0.93369734
-0.94673395
-0.4233588
-0.87517124
-0.5947864
-0.3501338
-0.5593246
-0.42860982
-0.21734647
-0.43168253
-0.49668258
-0.30501357
-0.4580152
-0.56110084
-0.3543064
-0.5215596
-0.42828485
-0.24069577
-0.39788938
-0.49197242
-0.29081643
-0.4517678
0.5982911
0.42482486
0.56153417
0.4528615
0.30046138
0.457999
0.48294538
0.3258133
0.46603826
-1.813994
-0.44529495
1.0031254
-0.6252691
-0.6989938
0.73751146
-1.760991
-0.62193406
1.0455801
0.6709509
0.38040367
0.61465424
0.5036335
0.28350782
0.48446593
0.6812096
0.481534
0.64981985
-0.48829886
-0.36631006
-0.48094398
-0.36459827
-0.12482766
-0.34939113
-0.52898186
-0.4119045
-0.48636383
-0.5134518
-0.3425467
-0.47800672
-0.34364066
-0.19828704
-0.3164621
-0.47331843
-0.31702626
-0.45730296
-0.5248261
-0.4848526
-0.78195417
0.94708884
0.54869443
0.8706233
-0.7067842
-0.3216722
-0.72180533
0.5841188
0.29489708
0.5384554
0.49854788
0.22640994
0.473467
0.7055561
0.42802903
0.66276175
0.5455826
0.5145116
0.46594453
0.530924
0.44190648
0.50218904
0.49634537
0.5051689
0.43038106
0.60398865
0.29492754
0.5730339
0.5003898
0.2333427
0.47231996
0.71961147
0.39703214
0.67231953
-0.5197785
-0.37797692
-0.48765495
-0.36673844
-0.22377752
-0.34311017
-0.4498136
-0.32427186
-0.41991913
0.66883755
-1.4676319
0.6730859
0.5601804
-1.1166381
0.60125357
0.6154895
-1.3570156
0.63902277
0.5125825
0.43648836
0.4808724
0.49807236
0.4036941
0.47227976
0.5267219
0.411353
0.48907515
-0.58704966
-0.3621893
-0.53295803
-0.33785596
-0.17838314
-0.3185237
-0.52460456
-0.33604467
-0.4924862
-0.603059
-0.38342226
-0.57725
-0.42318642
-0.2427334
-0.3995411
-0.54488164
-0.34853968
-0.5173904
-0.6745019
1.2011466
-0.7713206
-0.25249866
0.94665104
-0.31813633
-0.5808562
1.1335331
-0.6568797
-0.5775797
-0.34515262
-0.54243374
-0.443503
-0.24996904
-0.41526377
-0.5204518
-0.32395175
-0.47952673
-0.52636
-0.32165113
-0.48552325
-0.39848453
-0.18361142
-0.38076267
-0.5685595
-0.35895163
-0.5247836
1.4941511
0.5662422
1.403672
-0.5478849
-0.5572873
-0.54458904
-1.0215032
-0.4904494
-0.8578338
0.63642853
0.4770981
0.5911013
0.5203231
0.3046131
0.49694645
0.60840106
0.45731393
0.57486606
1.1471049
0.8331139
1.0510567
-0.8705353
-0.041726466
-0.80452335
-1.2235943
-0.82282996
-1.1320479
0.55983293
0.3611594
0.5310412
0.4183498
0.2559859
0.40748674
0.55166614
0.35413963
0.5212284
0.6329535
0.48261666
0.58866113
0.48801747
0.30468202
0.47405988
0.61671084
0.41859904
0.5850768
-0.57400036
-0.3772098
-0.5574777
-0.44368136
-0.24780521
-0.43618166
-0.49832723
-0.31544352
-0.47379327
-0.54839754
-0.43050924
-0.5126268
-0.3696193
-0.31606913
-0.3551574
-0.48815343
-0.4131802
-0.4517899
-0.5605618
-0.56599903
-0.50251544
-0.46357566
-0.4468776
-0.4284568
-0.49579668
-0.48787636
-0.4731465
0.64332116
0.5650634
0.59303904
0.43854204
0.34085515
0.40310588
0.57534784
0.51669645
0.52014107
-1.3632979
-0.7671216
-1.3016859
-0.57265705
-0.4334995
-0.48875064
1.1944757
0.73852897
1.1096812
-0.5839106
-0.3134903
-0.54009014
-0.39852384
-0.17456608
-0.3857563
-0.5872793
-0.30539715
-0.54799855
-1.318554
-0.57544464
1.1469104
-0.4163027
-0.3971041
0.6610507
-1.2561184
-0.48415065
1.1010281
-0.51795715
-0.327919
-0.4726319
-0.35561532
-0.2019017
-0.33415893
-0.49938762
-0.294364
-0.4757557
-1.2780917
0.95530856
-0.1581168
0.88987184
0.42497763
0.78711385
0.8678413
0.62858623
0.82651126
-0.58682096
-0.3888459
-0.5380324
-0.40121335
-0.26188034
-0.37412181
-0.49764156
-0.33589807
-0.44907603
-0.5202556
-0.37856582
-0.48232505
-0.37538505
-0.16303058
-0.37574857
-0.47597608
-0.39032528
-0.44681084
-0.6003356
-0.3333177
-0.56032646
-0.36512074
-0.16903365
-0.34504026
-0.50218296
-0.25991607
-0.45892498
0.6417312
0.42556727
0.5870765
0.4405781
0.25700247
0.42663878
0.5051613
0.34900746
0.46967584
1.3017398
-0.85845095
-0.6517058
0.78930384
-0.5166126
-0.5865176
1.0915482
-0.66206366
-0.2935389
-1.9467779
0.28679913
0.34821585
0.24902788
0.20635472
0.27772
-2.2150233
0.2379566
0.3103499
-1.2721841
-0.6854197
1.0271944
-0.62609226
-0.49493
0.7373403
-1.220295
-0.58374935
1.0123805
-0.5411002
-0.3724773
-0.47907758
-0.38371068
-0.21988866
-0.3476565
-0.47938037
-0.31883934
-0.4444058
0.59483516
0.34004384
0.5186644
0.43073115
0.28334352
0.39883715
0.45643046
0.3298216
0.4228872
-1.1019707
-0.01720304
0.63045484
-0.65253574
-0.07264311
0.9016915
-1.0886583
-0.027234977
0.67035574
0.67507696
0.49654248
0.63224864
0.50935817
0.29686472
0.4980442
0.54201007
0.3628675
0.50194275
-0.5996453
-0.35635313
-0.5648447
-0.4371252
-0.23174578
-0.4095986
-0.54145545
-0.35389537
-0.51382476
-0.5213672
-0.36209095
-0.46473786
-0.38931176
-0.14630644
-0.35555422
-0.50727797
-0.37667757
-0.47114605
1.2375764
0.5855247
1.0871189
-1.0323145
-0.44457367
-0.9780839
-0.8573468
-0.41254914
-0.7932082
0.5511397
0.36729023
0.50160545
0.4753803
0.29284692
0.43904567
0.5187507
0.3695773
0.4851227
0.42457718
0.19685641
-2.1558342
0.3062772
0.23148671
-0.036828086
0.40081516
0.248878
-2.3132024
0.6780336
0.39026943
0.64334184
0.47489962
0.24804838
0.43937224
0.5720113
0.36978403
0.5438151
0.5481403
0.29446846
0.5067901
0.47770542
0.22576134
0.45221353
0.60633963
0.39609715
0.5610982
-0.49595356
-0.33930433
-0.4591798
-0.4258236
-0.26500678
-0.40681496
-0.50570005
-0.37560332
-0.46908268
0.6348548
0.37962562
0.5790989
0.5060017
0.26907134
0.46457347
0.5593864
0.33528554
0.52768266
0.5279234
0.34587017
0.485252
0.43256417
0.26556283
0.4115736
0.5646243
0.37069383
0.52350783
0.53789926
0.34478223
0.4857863
0.38253844
0.21974301
0.3531752
0.47943676
0.30521697
0.43837824
0.5933054
0.34142628
0.5735488
0.4492024
0.22918695
0.42934442
0.60948724
0.35292223
0.57745135
-0.64438456
-0.44534653
-0.63707846
-0.3924451
-0.24047354
-0.37812006
-0.5767326
-0.43727845
-0.54103786
0.5908673
0.35250226
0.5362809
0.3957433
0.21262035
0.37483022
0.48799792
0.31520084
0.46441126
-0.5132973
-0.29657206
-0.4749058
-0.37617436
-0.18647109
-0.35800353
-0.5118497
-0.3163596
-0.48265216
1.2797004
0.71329224
1.1974419
-0.8023559
-0.35253027
-0.7353875
-0.73009
-0.23715726
-0.62647945
-0.49739343
-0.34713557
-0.4682874
-0.37400416
-0.24682367
-0.3576519
-0.5008583
-0.34469697
-0.4628712
0.61617064
0.45247966
0.5607842
0.4772995
0.342296
0.454768
0.5225481
0.4097684
0.48940778
-0.36452642
0.6888989
-0.02912833
0.9972282
0.5286137
0.9165081
1.1648414
0.71243787
1.1274576
-0.47197568
-0.2783928
-0.4222028
-0.39670464
-0.18159081
-0.3822676
-0.49456504
-0.32475132
-0.44909683
-0.61544937
-0.37092155
-0.57011837
-0.42808756
-0.2408884
-0.4191035
-0.5885785
-0.35831773
-0.52979046
-0.49730876
-0.356389
-0.45762134
-0.4184193
-0.28048766
-0.39844298
-0.4463593
-0.31698143
-0.4196514
-0.68156195
-0.6655584
1.2445062
-0.16387436
-0.13538511
1.0651708
-0.5962513
-0.5599305
1.1790838
0.53248394
0.38438967
0.5070986
0.48055106
0.34308937
0.45563203
0.5275287
0.35424888
0.4986347
0.6796057
0.36414817
0.63820875
0.4744679
0.20177263
0.45605332
0.5754888
0.28812462
0.5218086
-2.0287738
0.5823493
0.53234595
0.59131944
0.4868979
0.553894
-1.3115016
0.63762677
0.60291165
-0.7184971
-0.32359144
-0.6582124
-0.8005769
-0.49046183
-0.7531831
1.099795
0.71774226
1.0208142
0.7354764
0.4713995
0.6949017
0.5603095
0.31362715
0.5307523
0.7344852
0.46078587
0.6812906
0.82528806
0.59350616
0.785305
0.69852006
0.40406018
0.6569983
0.73016536
0.6244452
0.6751385
-0.67128396
-0.44054168
-0.61780363
-0.41765055
-0.21465154
-0.40791503
-0.499088
-0.40060788
-0.43341646
0.63455284
0.48869604
0.59274536
0.600005
0.3688464
0.57835525
0.70833176
0.48241052
0.6737587
0.5770398
0.3583205
0.54215044
0.4563234
0.23273407
0.4441018
0.5929583
0.35958108
0.5728391
0.60749197
0.39652202
0.5540757
0.49016723
0.29217973
0.46312758
0.6813134
0.49989682
0.6133167
-0.4212882
-0.45911306
-0.37490895
-0.46913838
-0.31378502
-0.44447643
-0.40225527
-0.42928246
-0.37050533
-0.5150856
-0.33712763
-0.4892952
-0.39053342
-0.21180801
-0.36588493
-0.4762064
-0.34918475
-0.45443994
-0.61631083
-0.39166048
-0.5392745
-0.38394135
-0.13142884
-0.36908296
-0.5275145
-0.32829064
-0.48855376
-0.30745852
-0.079929456
-0.28370225
0.56420106
0.37314436
0.5643273
1.4928663
0.6599544
1.4150149
-1.493325
-0.70841855
-1.3562655
-0.30843386
-0.33165738
-0.30325213
1.0374805
0.61951035
0.98992974
-1.5031354
-0.83113396
0.9516739
-0.6384985
-0.45242783
0.7428964
-1.3516504
-0.69252807
0.9463045
1.1619557
-0.65204954
-0.7082541
0.8362664
-0.1603671
-0.67837274
1.1380304
-0.71037763
-0.6150339
0.707562
0.4100232
0.6431033
0.4954013
0.23115961
0.48074877
0.5873358
0.2708843
0.53163975
0.6022309
0.62667656
0.56587166
0.6836106
0.4940242
0.59710956
0.69883335
0.7212025
0.6523784
-0.5889903
-0.4302324
-0.51826715
-0.4578738
-0.29158837
-0.42095354
-0.55335516
-0.39954242
-0.49727935
-0.9486829
-0.2984456
-0.82746774
-0.84345114
-0.563575
-0.7768404
1.2443063
0.7906805
1.1440967
0.5261031
0.38124198
0.47375733
0.40621218
0.2894464
0.3729657
0.5125043
0.3780489
0.46689937
1.259586
0.5647945
1.1760654
-0.6021676
-0.53013
-0.5691662
-1.202099
-0.54131925
-1.0752692
0.57970023
0.3712239
0.54346955
0.44488642
0.23487756
0.42096302
0.5202612
0.30371976
0.47565794
-1.23945
-0.56274897
-1.1218097
-0.79137594
-0.533893
-0.7423287
1.3169425
0.6846063
1.2338481
0.35552558
-0.97518384
-1.6833872
0.44439018
0.34291375
0.25233272
0.7580099
0.47421986
0.7317586
-0.51243794
-0.3773635
-0.46638966
-0.4938589
-0.3336132
-0.46808755
-0.54367065
-0.43556505
-0.4924022
-0.5766197
-0.37613395
-0.52944666
-0.4235732
-0.281586
-0.41114184
-0.523066
-0.35614035
-0.4805136
0.7045737
0.36353353
0.668672
0.5197515
0.2450387
0.50282604
0.7090192
0.4602711
0.6944036
1.0203294
0.5171029
0.9908839
-0.20628113
-0.16895534
-0.1628457
-1.4476097
-0.68848276
-1.3103852
-1.0170518
-0.7161617
-0.9409945
-0.0034888997
-0.5097835
0.050241064
1.2608452
0.71050894
1.1635164
-0.53315306
-0.8128698
1.1463842
-0.31616744
-0.43951893
0.71004486
-0.33147463
-0.737297
1.0159789
-0.52030236
-0.34343526
-0.4745638
-0.3665682
-0.16647029
-0.3442958
-0.4678891
-0.27222344
-0.43900952
0.7523253
0.47378427
0.70400256
0.5671352
0.2948417
0.55303127
0.7019453
0.4029848
0.6428409
-0.49878702
-0.35990345
-0.44509104
-0.39317152
-0.20528185
-0.35924655
-0.4661538
-0.31529716
-0.41660285
0.5095324
0.3048241
0.47064194
0.45058548
0.2716654
0.4316926
0.56374145
0.36590347
0.52671397
-0.6148703
-0.33219755
-0.5561567
-0.38955188
-0.097063534
-0.36154717
-0.5247158
-0.34437445
-0.47759277
0.7265322
0.36183625
0.6918387
0.5863228
0.26676247
0.56832737
0.6280479
0.36754563
0.6048978
-0.5115939
-0.35320246
-0.46021557
-0.41846144
-0.2611381
-0.3588731
-0.49596828
-0.35950077
-0.44497398
-0.61181426
-0.37906563
-0.54696894
-0.45187733
-0.27145535
-0.42409486
-0.51190937
-0.3002431
-0.47436407
-0.48160672
-0.3273065
-0.45082736
-0.3840626
-0.25028324
-0.36476701
-0.46523547
-0.3087226
-0.43017378
-0.4833915
-0.9006297
1.1644027
-0.45297703
-0.26874265
0.6916771
-0.31831324
-0.80795175
0.9961856
1.1434968
-0.99753636
-0.91992277
0.58146334
-0.7447058
-1.0783604
1.16239
-0.6194827
-0.46877566
0.5802235
0.4028069
0.5247355
0.42540622
0.24683696
0.3940488
0.4840512
0.32746106
0.44594073
0.6640122
0.47867164
0.61105376
0.46756423
0.297049
0.4467605
0.53417176
0.34659514
0.4928725
-0.7122707
-0.6270747
-0.69982386
-0.4760564
-0.33375707
-0.43655884
-0.6796438
-0.36867315
-0.63114876
1.4433961
0.6676463
1.354943
-1.127882
-0.3949468
-1.0747664
-0.7178208
-0.19256972
-0.6540475
-0.540252
-0.3281117
-0.50017786
-0.33747238
-0.119809896
-0.31679314
-0.54296786
-0.3212965
-0.5111819
0.77512014
0.5203995
0.7154996
0.5023876
0.29351154
0.46054885
0.56875384
0.36363205
0.54505044
0.92971253
0.6706651
0.86223346
0.9945543
0.48719588
0.94817007
0.31081542
1.2473489
0.099412695
-1.5240668
-0.6498671
1.2246934
-0.635373
-0.47787136
0.71224946
-1.0839217
-0.8073918
1.0308301
1.106578
-0.80293
-1.0490762
0.7977788
-0.32818684
-0.59027743
1.0389057
-0.5866316
-1.0565821
-0.5532962
-0.37261012
-0.5188888
-0.4544052
-0.29187188
-0.41710198
-0.54920065
-0.3670313
-0.5245533
-0.5770449
-0.3364313
-0.5455175
-0.32977375
-0.10500001
-0.3007271
-0.5619283
-0.34394628
-0.51080894
0.6704842
0.43022308
0.6403039
0.45994735
0.2571827
0.42047873
0.5945562
0.36809173
0.55273694
0.63915986
0.45592776
0.5927133
0.5460555
0.36096716
0.5109885
0.5619529
0.4336646
0.52302235
1.198168
0.59503645
1.0748283
-0.90222245
-0.48002738
-0.8588109
-0.8822177
-0.35175517
-0.76703995
0.32299328
0.51043475
0.30950612
0.57560337
0.94873106
0.4954022
0.6802034
0.9599182
0.62396264
-0.596174
-0.43783686
-0.5449775
-0.4475505
-0.287109
-0.40821496
-0.50564355
-0.34684876
-0.46273294
-0.54731184
-0.2883329
-0.5190207
-0.36309168
-0.1414984
-0.34347236
-0.5122892
-0.3335763
-0.4604054
-0.6111027
-0.3174949
-0.56145203
-0.38824517
-0.1448872
-0.37736383
-0.55294967
-0.32812414
-0.5223044
-0.5431073
-0.34929872
-0.48909146
-0.4069653
-0.17107043
-0.37955296
-0.5172789
-0.39323208
-0.4671794
-0.5431614
-0.41518822
-0.50087816
-0.40334576
-0.2539673
-0.36669263
-0.47734272
-0.36906937
-0.43905267
-0.7356291
-0.5803277
-0.62700677
-0.5237448
-0.43020183
-0.4697607
0.9871294
0.4960509
1.0198029
-0.56605107
-0.46781665
-0.4862726
-0.49022818
-0.27648264
-0.4769953
-0.49647996
-0.45512316
-0.45378047
-0.58301187
-0.40461496
-0.508661
-0.41623074
-0.22357418
-0.38511676
-0.5774784
-0.41990754
-0.5280037
-0.53628075
-0.3648175
-0.5009538
-0.35568437
-0.12783101
-0.33185712
-0.51352924
-0.3431598
-0.47550124
0.51886696
0.29413426
0.49130398
0.40673214
0.20903702
0.39864227
0.47171465
0.27505443
0.44764298
0.52779746
0.35872737
0.48072267
0.4172703
0.2467803
0.38413623
0.46639326
0.30724663
0.42278588
0.56557107
0.5778761
0.5026368
0.5092613
0.5229691
0.48157015
0.5448831
0.5806427
0.52636886
0.7021479
0.3954495
0.64871746
0.47176158
0.19236374
0.47850987
0.6873328
0.38034764
0.6266344
-0.5214079
-0.31524864
-0.49160033
-0.36128506
-0.13705382
-0.34022138
-0.5336326
-0.29151607
-0.48644117
-0.6056061
-0.43922588
-0.50297695
-0.8410052
-0.2777154
-0.78012145
1.2487146
0.9699478
1.1250881
-0.6096883
-0.32337907
-0.54283446
-0.3642181
-0.1741318
-0.34682938
-0.47723258
-0.3053357
-0.4488473
-0.56266963
-0.92072105
1.2745486
-0.4493927
-0.46935296
0.9179041
-0.5377814
-0.885735
1.2010303
-0.59166646
-0.35499975
-0.57567835
-0.3355377
-0.15751934
-0.3182321
-0.5692061
-0.3408154
-0.5644701
0.62245095
0.4345486
0.58636236
0.51283675
0.3112499
0.49209353
0.5197307
0.37040675
0.48333955
0.5560795
0.47116598
0.5063277
0.5872831
0.43639156
0.5362655
0.5970052
0.5386817
0.5553455
-0.53055215
-0.34372038
-0.49596387
-0.40818682
-0.23739472
-0.39004958
-0.5056247
-0.32522696
-0.46595353
-1.1050844
-0.51736933
-1.040865
-0.84691423
-0.507898
-0.7549446
1.2339786
0.77026176
1.1486937
0.57919025
0.4867139
0.54151917
0.49471352
0.4547908
0.459681
0.49743012
0.42549324
0.4451266
-0.53186053
-0.3149964
-0.4880742
-0.40398154
-0.22138983
-0.36969963
-0.5066869
-0.32495084
-0.46596122
0.70418686
0.6853992
0.71253824
0.68983454
0.4055358
0.6320264
0.6945849
0.50801235
0.662849
0.5517094
0.9153744
0.41074356
0.8762196
0.49389797
0.8399567
0.8342509
0.6314528
0.7765869
1.1957605
0.5988888
1.1213329
-0.38136223
-0.46936908
-0.4752229
-1.2456157
-0.61665994
-1.0405086
0.5455397
0.43589693
0.49549767
0.49387276
0.33869845
0.460506
0.5441066
0.41208085
0.49318737
0.5354373
0.40001944
0.4928555
0.4299407
0.2973035
0.4002032
0.50800174
0.37970987
0.46563756
-0.55772084
-0.3276166
-0.53691524
-0.4222602
-0.1261427
-0.40955946
-0.60495967
-0.3344379
-0.5520688
0.5464733
0.45198473
0.50254333
0.5319055
0.41245678
0.49909064
0.4742974
0.41047555
0.4317851
-0.46792346
-0.5953865
-0.4107415
-0.58509606
-0.4996572
-0.56728786
-0.4036185
-0.57783616
-0.33449143
0.7902816
0.6493606
0.7116143
0.66785645
0.35571206
0.61862004
0.742669
0.44681895
0.68030506
-0.61819977
-0.3820288
-0.5603488
-0.3576661
-0.14416587
-0.33755887
-0.49595568
-0.30018255
-0.44629568
1.1737151
0.69959754
1.1113269
0.7150259
0.29365924
0.6606927
0.752844
0.5374951
0.72283655
0.6076416
0.4527897
0.562636
0.44172174
0.2705331
0.42528698
0.5663097
0.34952405
0.53142357
0.6392778
0.44192064
0.580043
0.5609128
0.32818088
0.5526974
0.57439756
0.3174248
0.5414684
-1.9318525
0.29325894
0.6312853
-0.70078677
-0.2640859
0.4777904
-1.704952
0.26226977
0.58411986
0.6452548
0.43272606
0.56590307
0.5337349
0.3344258
0.49506938
0.6730367
0.48029262
0.6117065
1.3071458
0.4636107
1.2191669
-0.16071416
-0.3555133
-0.18390353
-1.5667592
-0.92206675
-1.5608401
0.53543437
0.28516352
0.50292236
0.42421204
0.20984536
0.40033883
0.5546944
0.32682538
0.5084428
-1.1467661
-0.84277433
-1.0785246
-0.43306637
-0.05330339
-0.36018282
1.0020267
0.7285056
0.8964157
0.6067545
0.36951753
0.5770236
0.4824656
0.23632005
0.45302433
0.5329925
0.28998145
0.5058182
-0.52042073
-0.3033617
-0.4641042
-0.43577754
-0.22099158
-0.38826162
-0.57279176
-0.33526376
-0.5048387
-0.53492904
0.7164737
0.38332024
0.88677776
0.65360206
0.5697426
0.86992884
0.62252456
0.872063
-0.76485837
-0.6346698
1.2173814
-0.4916027
-0.15610282
0.7156415
-0.70481044
-0.60324645
1.1837474
1.1306629
-0.84240896
-0.2860889
0.8893618
-0.51522154
-0.69998777
1.2110071
-0.73218364
-0.19593011
-0.51138455
-0.48966378
-0.4557326
-0.5325847
-0.37194353
-0.52072275
-0.46895316
-0.4893168
-0.42838424
-0.47996208
-0.31568766
-0.4410052
-0.3810857
-0.21414013
-0.36538664
-0.5128364
-0.3778938
-0.48342294
-0.5331118
-0.41019052
-0.46233466
-0.4117971
-0.2845017
-0.37181953
-0.49875242
-0.38472602
-0.4482014
1.1445054
-0.7974919
-1.036897
0.992229
-0.4573359
-0.41744602
0.94173306
-0.6500657
-0.79412174
-0.5961142
-0.37949437
-0.53144115
-0.39729407
-0.19583054
-0.3650752
-0.5754661
-0.33524865
-0.5167916
-0.5098972
-0.3582596
-0.45057255
-0.4290179
-0.29145828
-0.39451855
-0.4349592
-0.2961002
-0.3797464
-0.58682716
-0.29730403
-0.5507461
-0.40074572
-0.18428457
-0.38264224
-0.5727787
-0.3374081
-0.5329123
-0.64079
-0.44910336
-0.59805256
-0.45746714
-0.22588935
-0.42472047
-0.59221435
-0.39241272
-0.5430428
0.9163704
0.7672279
0.8230981
0.95107895
0.50988007
0.8976058
-0.20863234
1.074287
-0.2696797
0.57383436
0.3728437
0.53880554
0.41192836
0.23733744
0.39707828
0.5203777
0.3380421
0.49344736
-1.3508148
-0.36881426
-1.2368311
-0.7583455
-0.24439
-0.6438528
1.0718004
0.5959762
1.00468
-0.5873068
-0.34520328
-0.5438884
-0.3592855
-0.17047057
-0.35410714
-0.53927445
-0.29934052
-0.49445647
-0.57998604
-0.35426033
-0.5091446
-0.39230916
-0.14047293
-0.35671628
-0.60143614
-0.3594138
-0.531706
1.2783587
0.9105893
1.2439039
0.1596368
0.3288126
0.1398804
-0.48892158
0.02176908
-0.4622725
0.8301518
0.5342262
0.790796
0.6157452
0.30864307
0.57501453
0.7654192
0.44041395
0.7077761
0.43366396
0.2624764
0.40969253
0.3329994
0.189048
0.31945753
0.39769968
0.25590965
0.3696411
1.3051889
0.7614064
1.2333227
1.0276848
0.5971206
0.9817365
-0.9306898
-0.16174626
-0.8365124
-0.50466514
-0.35234764
-0.46416366
-0.38218307
-0.22282326
-0.36133504
-0.53399503
-0.3615752
-0.49024844
0.49342138
0.31611088
0.4557667
0.3523378
0.21679062
0.33861142
0.38721156
0.28612348
0.36510238
0.6959507
0.5821563
0.64023846
0.5509456
0.40532705
0.52264875
0.58563983
0.45641553
0.54706526
-0.7945379
-0.27366465
-0.70551926
-0.82268244
-0.43939763
-0.75588936
1.2579207
0.83181274
1.1809369
-1.0204158
-0.37298188
-0.85535437
0.6984039
0.54336596
0.6466101
1.0854427
0.58241063
0.97459084
-0.8026801
1.2126536
-0.8433056
-0.27841255
0.37797514
-0.49547467
-0.7113336
1.1000669
-0.699877
-0.5868048
-0.32716563
-0.5446602
-0.41398495
-0.15870707
-0.36872646
-0.45804584
-0.22549573
-0.41270822
-0.36722067
-0.8450493
1.0770564
-0.4726356
-0.46732262
0.9667644
-0.29683465
-0.9202327
1.131774
0.6161002
0.4241028
0.5625174
0.5348024
0.36421022
0.5011761
0.4247164
0.32667422
0.37518725
-0.72759414
-0.32950467
-0.64240223
-0.39069754
-0.04872114
-0.37307867
-0.6194184
-0.34120628
-0.5675249
-1.2810544
-0.7619423
1.0516527
-0.5433217
-0.2553699
0.71834415
-1.2361821
-0.6760361
0.92095196
-0.7619774
0.5560116
-0.89526874
0.7311654
1.2985078
0.6537997
-0.40835235
0.5070065
-0.41495234
0.6316578
0.4073476
0.55845714
0.49074936
0.29919457
0.4602836
0.61898375
0.42902103
0.58185863
-0.57034767
-0.3375149
-0.5046781
-0.3451763
-0.11376399
-0.3114312
-0.5389821
-0.30397466
-0.49712953
-0.51468784
-0.36580688
-0.47626695
-0.38041812
-0.20081797
-0.35272166
-0.53522617
-0.3321854
-0.49031845
0.97651005
-0.56654596
-1.4506602
0.63669765
-0.34380135
-0.5826323
0.8988531
-0.5809499
-1.2756798
-0.43548194
0.23536965
-0.40128535
1.2110451
1.12442
1.1751999
-0.40709335
0.21266246
-0.35721487
-0.63298976
-0.33336312
-0.56463647
-0.4020947
-0.4395631
-0.40121135
1.2166506
0.7125296
1.1506746
0.52288854
0.32387587
0.50581586
0.43243283
0.2479698
0.409514
0.5152107
0.31908908
0.49013868
-1.6777729
0.23938434
-1.7466712
0.13691716
0.13731143
0.10871981
0.89880794
0.6568842
0.88189226
1.3317816
0.72331274
1.2271328
-1.059675
-0.43767118
-0.9685872
-0.5368232
-0.25493932
-0.48208597
-1.4102379
-0.87155765
-1.1457067
-0.4204415
-0.38021728
-0.36984175
1.1604452
0.60834867
1.0402848
0.5945172
0.39707425
0.57323736
0.45136023
0.3124438
0.42058396
-1.6782894
0.03329304
-1.5933883
0.8932238
0.588719
0.8041296
0.7954632
0.36673978
0.74901253
0.54513437
0.7329622
0.46593398
0.5673511
0.3701236
0.540842
0.43341073
0.2576014
0.40515694
0.58188146
0.40257192
0.53715295
0.6623466
0.49268997
0.6060283
0.54389966
0.38811997
0.49824083
0.56466633
0.43424293
0.5305535
-0.5702088
-0.39856112
-0.49797383
-0.37955013
-0.23705252
-0.3265823
-0.50849605
-0.32568997
-0.46443114
-0.9854672
-0.32803398
-0.8812995
1.0473838
0.4882923
0.9550868
-0.728247
-0.3379656
-0.66538084
-0.93004775
-0.23148616
-0.8413561
-1.0849199
-0.616203
-1.0227331
1.3691052
0.6680711
1.2592504
0.8810254
0.65824205
0.81960297
0.7509735
0.4158687
0.7053107
0.64182323
0.79785836
0.587274
-0.58825964
0.9397372
0.9256035
-0.35092193
0.6071568
0.5038127
-0.35083863
0.94415015
0.8822398
-0.5667721
-0.33456147
-0.5357838
-0.38653484
-0.14519858
-0.36845088
-0.5273242
-0.3411845
-0.4844245
0.6476235
0.4199951
0.6009659
0.48164374
0.27231234
0.45780316
0.4655165
0.28484342
0.41739124
-1.3273671
0.6078152
0.5085693
0.5140398
0.50431466
0.46567318
0.72461855
0.4644582
0.69261473
0.59821224
0.6346752
-1.7337502
0.5512383
0.3643904
0.6512543
0.6574449
0.5439394
0.6032072
-0.5616774
-0.38833842
-0.52403647
-0.4368247
-0.20906912
-0.4131531
-0.631893
-0.4092855
-0.5662658
-0.6063688
-0.40208402
-0.5591925
-0.41248554
-0.19927463
-0.3809149
-0.5004977
-0.29401273
-0.4475631
0.5786538
0.46625993
0.5230535
0.54553664
0.34572256
0.5089574
0.544614
0.40374973
0.48702204
-0.37079746
-1.1385101
1.1478137
-0.116435
-0.66393536
0.58282024
-0.2870406
-1.0586244
1.0490408
-0.48647803
-0.508171
-0.4270048
-0.5246963
-0.4443771
-0.505
-0.3765074
-0.5326463
-0.32446185
-0.5773654
-0.37480798
-0.52574164
-0.3250513
-0.13041623
-0.30794662
-0.50322247
-0.3265993
-0.45292225
0.75872666
0.4891105
0.71237373
0.47331354
0.23151419
0.45748743
0.59417087
0.34873542
0.5549535
-0.54077196
-0.32047975
-0.4930806
-0.3914104
-0.19486034
-0.36288202
-0.51349086
-0.34374955
-0.46134365
-0.559823
-0.33474323
-0.51428497
-0.37725833
-0.16502382
-0.34283617
-0.50161564
-0.28828257
-0.44087538
-0.578712
-0.33287227
-0.5255707
-0.35495907
-0.17729178
-0.33642033
-0.48232138
-0.288153
-0.44322094
-0.5423322
-0.42353994
-0.49234298
-0.49058735
-0.32053733
-0.4565566
-0.51432157
-0.35708258
-0.47653213
-0.57366925
-0.34512967
-0.5116008
-0.41252974
-0.16709235
-0.38717136
-0.555492
-0.36609763
-0.502362
-0.49915093
-0.34920275
-0.4677356
-0.4519991
-0.28921515
-0.4156997
-0.48786145
-0.352678
-0.4506752
-0.57236844
-0.50809294
-0.48578534
-0.44215697
-0.36810088
-0.40172422
-0.4251624
-0.34795862
-0.38371217
-0.5529136
-0.3573063
-0.5091666
-0.35597166
-0.10911013
-0.3293667
-0.51933366
-0.3135098
-0.5024606
-0.5143173
-0.36821613
-0.47855684
-0.3653642
-0.18130389
-0.34760717
-0.4601787
-0.32169402
-0.41415808
-1.2254835
-0.7196867
-1.0784352
0.03952387
0.11826292
0.04615393
1.0906742
0.67199755
1.0149573
0.5165046
0.35994676
0.4734032
0.49821177
0.3317778
0.47785363
0.5577995
0.38121635
0.5172596
0.53619874
0.30510828
0.48557958
0.4294215
0.23601983
0.39568344
0.59524786
0.38232717
0.5532552
0.59554285
0.72118556
-1.0185326
0.50523955
0.44946733
0.9287899
0.63586736
0.7475616
-1.371933
0.488773
0.3157287
0.44576627
0.36473572
0.22774763
0.32923126
0.45974642
0.2996796
0.41970715
-0.714456
-0.17115076
-0.6865199
-0.72384274
-0.35219586
-0.67887294
1.164129
0.6984111
1.102293
-0.52807593
-0.33716682
-0.47299334
-0.4367118
-0.23700514
-0.38738647
-0.500566
-0.31657672
-0.4452892
-0.39101392
-0.4916122
-0.3330674
-0.44881478
-0.3705934
-0.42427006
-0.43238807
-0.4841919
-0.38645917
0.645941
0.356223
0.60540175
0.4587243
0.23162304
0.45050082
0.5057095
0.2834331
0.47821888
-0.54958105
-0.3478456
-0.5127504
-0.4092607
-0.2546588
-0.3933496
-0.5312793
-0.37301785
-0.5108949
0.9908315
0.47987333
0.9256761
-0.32039607
-0.4930127
-0.31015384
-1.2590307
-0.66562
-1.1103559
-0.5076699
-0.43924478
-0.45608497
-0.4514807
-0.36945948
-0.4269336
-0.46716252
-0.45120776
-0.43838662
-1.2313459
-0.6328614
0.99389
-0.6125419
-0.49190992
0.47310415
-1.3413463
-0.3125757
0.91646075
0.800418
0.5250232
0.77200705
0.69744045
0.30656007
0.65549093
0.7746017
0.40723628
0.73875064
-0.5259157
-0.39637432
-0.49201262
-0.44217905
-0.15007739
-0.42188433
-0.62415993
-0.38673827
-0.56138456
0.6905706
0.51786005
0.6482389
0.5150988
0.3218275
0.5022531
0.58837664
0.3994022
0.56249887
-0.4783581
-0.3243971
-0.42987865
-0.35535708
-0.18715934
-0.3241015
-0.46688387
-0.31587318
-0.42495963
-0.5816504
-0.4058894
-0.54393893
-0.45551175
-0.25201315
-0.43457618
-0.50758886
-0.2733784
-0.46520808
0.68319935
0.43881625
0.6303474
0.47563168
0.2565899
0.4536966
0.5817517
0.3190262
0.54903924
1.1730672
0.64961916
1.0948421
-0.5863741
-0.49736935
-0.5979042
-1.3951463
-0.7546904
-1.1578634
1.29203
0.62280875
1.1664225
-0.70284927
-0.47647122
-0.6268842
-1.4544071
-0.6643862
-1.3369392
1.090637
0.55793667
1.0514039
-0.5422332
-0.27587605
-0.5782122
-1.5001897
-0.4812114
-1.3146964
0.56039673
0.35670543
0.5148658
0.51391697
0.31319365
0.49152756
0.6207571
0.5041007
0.539557
-0.5660007
-0.44101498
-0.5325777
-0.39427182
-0.20459865
-0.37946844
-0.5150223
-0.39913395
-0.47547212
0.57612556
0.32216185
0.53335553
0.4956314
0.24632034
0.4722544
0.6091715
0.3746446
0.5775111
0.7465913
0.53032047
0.6759291
0.5436872
0.3515685
0.5224694
0.6850502
0.50304496
0.63964856
-0.5271913
-0.49619788
-0.47789496
-0.49037308
-0.37001315
-0.47548068
-0.48989353
-0.49724588
-0.42564675
0.5073411
0.35455844
0.46051657
0.4119432
0.28451428
0.39856216
0.50556153
0.39163357
0.47607547
1.9539546
0.14452863
1.9075968
0.11631756
-0.65326303
0.14251062
1.8085985
-0.01192159
1.7482159
-0.7818229
0.32401755
-0.81756955
0.66969347
0.56089556
0.59275067
-0.9223218
0.44893557
-1.0355005
-0.5887758
-0.32262814
-0.53461325
-0.41843614
-0.2170385
-0.41104054
-0.57695067
-0.3328214
-0.52304214
-0.5528269
0.8134117
-0.6596416
0.0062342654
1.0714037
-0.1126693
-0.73554707
0.9121674
-0.8135839
0.5524231
0.34823906
0.5057732
0.3942524
0.2224878
0.38048273
0.4568096
0.28803602
0.4268273
-0.6094652
-0.38499233
-0.5605424
-0.41363037
-0.17394467
-0.36908874
-0.5160238
-0.3387236
-0.4801311
1.2284359
0.5731967
1.1456934
-0.57334596
-0.47546396
-0.6131865
-0.9648532
-0.37886235
-0.8405506
1.1785966
0.54027736
1.108911
-0.6031303
-0.50003904
-0.6284265
-1.5085274
-0.6175197
-1.3422247
0.4810925
0.36352843
0.4440391
0.47830427
0.34249008
0.4534239
0.47787982
0.36443633
0.4478952
1.0893931
-0.6954262
-1.5792093
0.66537374
-0.3513743
-0.8441742
1.0693834
-0.68283105
-1.6045194
-0.49579227
-0.34705594
-0.45993698
-0.41728237
-0.2436807
-0.38963148
-0.45500973
-0.28623128
-0.4075255
-0.5360386
-0.3610395
-0.50612223
-0.4363007
-0.27991918
-0.4157914
-0.4895466
-0.34129432
-0.44648704
-0.4363131
-0.37587047
-0.4020426
-0.35529235
-0.18754607
-0.3426198
-0.4214733
-0.35201567
-0.40024266
1.258586
0.60892063
1.1582756
-0.8115317
-0.51416427
-0.7195504
-1.3054498
-0.46092007
-1.1537678
-0.58879
-0.3252626
-0.5172982
-0.35322192
-0.12172446
-0.32351318
-0.52625275
-0.30394226
-0.48158932
0.6122447
0.41352868
0.5742443
0.47462127
0.3138242
0.44488406
0.53448117
0.3892962
0.49019396
0.5916721
0.45970014
0.5359611
0.44998777
0.34717476
0.4322145
0.5156472
0.3965255
0.48263147
-0.42968297
-0.44824627
-0.38699588
-0.42257956
-0.4675581
-0.43546402
-0.39260915
-0.40204847
-0.35039204
-0.55831146
-0.83075744
1.1427997
-0.32274354
-0.39859906
0.7892765
-0.57893354
-0.7025977
1.0208536
0.5644539
0.44902298
0.5394879
0.46934396
0.30750373
0.44452226
0.46573108
0.30651248
0.43031707
0.30413994
0.91798466
0.06477598
0.815122
0.35201806
0.8055193
1.0026929
0.6750191
0.937946
0.80116487
0.60967135
0.7156539
0.69681895
0.44522917
0.6419408
0.65259796
0.5240692
0.57296497
-0.06335716
-0.25905868
-0.033904195
0.22693317
-0.5751814
0.20807464
1.639648
0.6167498
1.5208541
-1.3051113
-0.52347857
-1.2297238
-0.29897788
-0.93956316
-0.2597419
1.0820551
0.52377445
1.0388422
-0.6354835
-0.39618984
-0.6076443
-0.44091895
-0.17763098
-0.41534597
-0.57280487
-0.36858574
-0.5309752
-1.5560024
-0.73114973
-1.4509412
-0.7746573
-0.2900447
-0.68502396
1.1222425
0.66118276
1.0356144
0.5976956
0.40452677
0.5573322
0.44145864
0.28945437
0.40978178
0.5434938
0.3527827
0.50002676
-0.49305984
-0.34243166
-0.4358905
-0.38975438
-0.2319827
