-0.530943
-0.6713956
-0.44880694
-0.4881144
-0.39146122
-0.42294806
-0.45505252
-0.48719862
-0.37943673
-0.12954114
-0.4720406
1.2893064
-0.5150159
-1.1324741
1.9541689
-0.30774552
-0.0391649
0.49885905
-0.3782709
-1.026702
-0.34777954
-0.6564863
-1.4554137
-0.5396017
0.03929274
-0.4919877
0.059653804
-0.26193
-0.27990627
-0.34797895
0.52169883
1.7031552
0.49410322
0.11936154
1.0988959
0.019820323
0.40424386
1.0380067
0.5735484
-0.2609803
-2.2682056
1.4334978
-0.7363017
-0.39099964
1.022247
0.34921992
-0.36089474
0.41008285
-0.6261688
-0.95779675
-0.7254985
0.057746597
2.4086962
-0.05761282
0.32093394
0.25275216
0.31179523
0.15272102
-3.9570491
0.17827035
0.21157141
0.21691662
0.23907964
0.18998595
-0.34861243
0.25121132
-0.27500707
-1.5606834
-0.19010347
-0.539852
-0.64847404
-0.505652
-0.11048191
-0.64833325
0.35542083
-0.5887718
0.79632545
2.1800096
-0.0903831
-0.44901672
0.23013487
0.005558244
0.050139405
0.07339047
-0.024474218
3.1898885
-0.12779117
-0.010390071
0.062965915
0.02944848
1.130797
0.576142
1.2668564
-0.049692493
-0.3174282
0.18846846
0.071213014
-0.275385
-0.031633474
-0.46074507
-0.5602218
-0.4304792
-0.76618004
-0.5313591
-0.6329976
-0.53893226
-0.46469417
-0.42109647
0.6895978
-0.1322868
0.565634
1.4385903
-0.056427803
1.2790717
0.5572204
-0.3646979
0.56570685
-0.16682129
0.24220644
1.8054218
-0.6786229
-1.336275
0.9265902
-0.23180945
0.14246367
1.3200061
0.3251117
0.19978666
0.23897046
0.21791795
2.0366073
0.20385204
0.23671308
0.38283607
0.19610512
-0.110581875
-1.1801403
0.0018177495
0.0887396
-2.7092044
0.11933967
0.16057044
2.505423
0.1259608
0.42473438
2.12679
0.4790118
-0.2048593
1.2853953
-0.26614603
-0.1345514
-0.69495916
-0.12672183
-0.33480293
0.9260994
-0.41686514
1.1658001
-0.9693562
1.2191058
0.25412938
-3.0480542
0.55663013
0.5285398
1.1646615
0.32940173
0.08511272
1.2954322
-0.26586357
0.55881566
0.40288746
0.7389295
-0.2303797
-0.49430022
-0.17203544
-0.4317174
-1.0750611
-0.26987147
-0.34630564
-0.49368426
-0.33118787
-0.95532686
-0.13647081
1.0404116
-1.1265439
0.091612354
1.7981651
-0.852214
-0.12822542
1.2374774
0.32719642
-0.038696717
0.285319
2.130526
-1.2844594
-0.5775972
1.4126581
-0.56452644
-0.37545443
0.006738417
-1.8119669
0.068707705
0.43362787
-2.6827836
0.5483518
0.8347921
1.093191
0.7444949
0.60411316
0.35741848
0.4959702
-0.17641786
1.228817
-0.10497368
0.49532974
1.1312755
0.41736838
-0.1613671
-0.7628872
-0.17412493
-0.076629505
-0.48991457
-0.084053025
1.244533
1.1623911
1.1149939
0.15708801
-0.76914215
0.22827576
0.711372
-1.482476
0.7259498
0.61253065
1.7353756
0.49682322
-0.44670764
-0.680164
-0.4731352
-0.5296371
0.13278629
-0.49245638
-0.4334542
-0.50274736
-0.37181744
-0.19850624
-0.4749035
-0.20973839
-0.55807126
4.8289833
-0.5742655
-0.18081596
-0.17009062
-0.14617911
0.13747948
-0.29841802
1.0351557
0.84776807
0.703691
0.565371
1.2886373
0.38339323
0.28225708
0.4525371
1.1898925
-3.0178542
0.022876004
0.7007986
1.4446034
-0.63880587
0.28907812
0.5784082
-0.6134343
0.19242294
-0.5316138
0.024457008
-2.1264849
0.6805704
1.4938989
1.2611448
1.1545364
-0.48603448
-0.25784057
-0.40548888
-0.55555737
-0.5083517
-0.5097376
-0.5732219
-0.3751549
-0.5271666
0.53833306
0.77927846
-0.30303904
0.4031701
1.783565
0.55391556
0.32322198
0.46352887
0.29209918
-0.32197407
-0.368386
-0.3894527
-0.45417908
4.440713
-0.4627947
-0.3491705
-0.14906842
-0.3643813
0.8898081
1.2669939
0.8063296
0.620383
-2.4500456
0.7031167
-0.52506655
-1.1632057
-0.45331642
-0.5702605
-0.4915374
-0.5901662
-0.51936924
-0.8579027
-0.41971627
-0.6246266
-0.4054811
-0.612717
-0.3093199
-0.26624396
-0.41093922
-0.4804177
-1.6436293
-0.2822729
-0.251165
-0.51719254
-0.2502765
-0.5921945
-0.7369396
-0.6262953
-0.42613855
4.5841594
-0.5058268
-0.33544344
0.07480245
-0.3420968
-1.0704751
-1.6883364
-1.0820214
-0.7697038
4.0125585
-0.7706968
-0.23782249
0.42622048
-0.29579914
-0.26013225
-0.0068978644
-0.28166935
-0.42886764
4.297419
-0.47405818
-0.03312718
-0.3302464
-0.031063912
-0.42052937
-0.64467746
-0.353649
-0.5432288
-0.6903004
-0.56077796
-0.26489404
-0.35051093
-0.21091235
1.1139162
0.24121358
0.21103254
1.5302112
-1.5941093
-0.87992835
1.0455067
0.09963217
0.21677093
-0.43819305
-0.38868532
-0.5155435
-0.49266082
3.8957574
-0.5480652
-0.4379449
-0.11158085
-0.4161852
0.48888862
0.49098587
0.42755252
0.456752
1.5808883
0.37709776
0.7394715
0.12324068
0.7033926
-0.50946313
-2.1521025
-0.43828002
-0.56323326
-0.2974674
-0.47034058
1.0287209
2.8314924
0.8548259
0.65970296
1.4689856
0.6753554
-0.09565257
1.2324624
-0.20291366
-0.6244698
-0.7374157
-0.6182009
1.1112205
1.5680768
1.0108353
0.24134399
-0.83087295
0.2418974
-1.0617651
-1.0625899
-1.0464431
-0.7487216
-1.4858086
-0.6456003
-0.43730682
0.79667276
-0.4457355
0.11262807
1.9391932
0.13116252
-0.23033307
0.23218374
0.91592574
-0.4781492
0.37529033
1.7329732
-0.060472284
0.5743675
0.8448931
-0.9301392
-0.8847977
-0.8979476
-0.6956598
-0.05278112
-0.65691674
-0.32987082
-0.51320153
-0.26178834
0.7441571
-0.65748566
0.020843621
0.96862155
-0.9140887
-0.20251995
0.60846794
-0.62402296
-0.24589947
0.24123181
-1.1610603
0.21262011
-0.3026143
-0.3508389
-0.42444903
0.8835503
2.0482948
1.0009245
-0.31471473
-0.6600425
-0.3591457
-0.7839568
4.5791683
-0.8500985
-0.18949987
-0.3406339
-0.24671026
-0.03197362
-0.41278732
-0.09447666
0.7203621
-3.2912939
0.8576017
0.87907815
1.8913883
0.7261072
-0.11922376
-2.580254
-0.0056365845
0.19340466
-0.55957204
0.12034903
0.78072333
2.4566038
0.8136935
1.6767223
0.486494
-0.24896055
0.9128605
0.34957704
0.22791742
-0.6946013
-0.9053712
0.43935537
0.85021454
0.4287263
-1.3520883
1.1704203
-0.15360223
-1.6184243
0.65301085
0.31302142
-1.0027654
0.6298948
0.35880855
0.58558637
0.6978179
1.325471
0.44797346
0.62262946
0.46200994
0.6109802
-0.3557521
-0.44705874
-0.30691004
-0.5172287
-0.742458
-0.5535888
-0.41473573
-0.48800662
-0.4031671
0.7208863
0.54626197
0.59147155
0.35410106
2.156347
0.44379202
0.5077748
-0.1542919
0.47465944
0.37063587
1.7437769
0.34116122
-0.10359718
1.4020246
-0.20806207
-0.715346
-3.2625794
-0.6411751
0.953978
-0.7146342
-0.6088866
2.3556588
-0.32343075
-2.0582514
0.47223964
-0.57628876
-0.27945322
0.5572133
0.864655
0.5295943
0.2578248
1.9884347
0.25944594
0.21312709
0.73599505
0.06898654
0.38434434
-1.9239067
0.35375795
-0.45884216
-0.7411951
-0.37017295
0.925911
2.3755138
0.86315215
0.731679
0.393966
0.5774299
0.43890202
1.8968513
0.46299037
-0.07570144
-0.35165182
-0.017715076
1.1918417
0.50405174
-0.28202936
1.2082536
0.9603817
-0.34318757
-1.4004743
0.2210699
-0.0029571983
0.073866986
0.14026035
-0.04594966
0.16745815
2.4738648
0.117428616
-0.05281803
0.41044676
-0.0727334
-1.4401747
-0.5413422
-1.3139228
0.12905422
-1.4730719
0.13443245
1.0900831
0.89009106
1.0559136
0.1318248
-0.10158112
0.060886063
0.116638
2.8980143
0.07228348
0.14703012
0.036108118
0.029876627
-0.1543101
0.6733221
0.81917053
-0.16066723
1.7011908
0.5795538
-0.08648443
-0.50491947
0.27419686
0.076596916
0.028348865
0.050167754
0.14256936
2.7985313
0.026390964
0.17561325
0.22259659
0.16520505
0.06050197
-0.16700947
-0.09682086
-2.5378172
0.49062735
2.1867106
-0.5750569
-0.12538143
0.5609948
-0.48204437
-0.23789069
-0.43506607
-0.402736
-0.63757855
-0.36613914
-0.3172461
-0.5639602
-0.3338748
0.30266127
-0.0005553613
0.16421899
1.354289
-3.6549177
1.9133087
0.4036167
-0.89848536
0.6901488
0.1268327
0.25605255
0.108412534
0.13714488
2.1885104
0.12236582
0.18360977
-0.092142925
0.08852893
0.39673355
2.9098651
0.40422302
-0.057594784
-0.22424538
-0.16859083
-0.3115515
0.15905634
-0.25842616
0.06753859
-0.012900216
0.034903463
-1.6294553
-0.98012155
-1.3916109
-0.19536377
-0.05253815
-0.23735395
-0.29222617
-0.47242022
-0.27369902
0.2904648
0.7871314
0.19818732
0.7323509
2.0054128
0.49008015
0.6295684
0.39054066
0.5599519
1.4874098
0.1684029
1.3706669
0.059259567
-1.2028381
0.08180073
0.6286218
-0.42787132
0.32419196
0.8903128
0.8903276
0.8526896
1.0312709
0.2090239
1.2817526
0.8673218
0.06664452
0.16263491
1.8287938
0.68352675
0.14066634
-0.48631912
-0.37882495
0.11090724
-0.28246674
0.8652986
-0.4672736
0.911076
1.5639912
0.7294151
0.31578875
-0.10972907
0.3651857
1.2628084
1.7470659
1.2398223
0.3298452
-2.7954884
0.41667703
0.24477272
-0.9561721
0.24883755
0.39946595
-0.58339447
-0.11431912
1.966187
-0.5268687
-0.59233606
0.5826477
-0.17249718
-0.022687307
0.2054788
-0.00813587
-0.34062764
-1.6747855
-0.36997792
1.6485288
-1.9845116
0.22924995
2.2479954
0.36904582
1.0887133
0.28148326
0.044432454
0.21870714
0.0073088678
0.3041984
1.5094761
0.23215854
-0.50874966
-1.4455299
-0.45799467
-0.21190862
3.0341477
-0.22000672
-0.09223729
-0.28243843
-0.012214718
-0.0701434
-0.6668093
-0.02432127
-0.53144795
-1.4948939
-0.5023535
-0.050428804
-0.13414773
-0.015019115
0.71104455
2.568084
0.5339789
-0.44082657
-1.1163054
-0.36612785
-0.40882954
-1.4746307
-0.2531654
-0.47387734
-0.30449775
-0.4694599
-0.17823835
3.6632948
-0.34188527
-0.4875455
-0.18968539
-0.48596883
-0.43487012
0.24573652
-0.42605457
-0.40784103
-0.7309794
-0.22774786
-0.7714802
-0.73210764
-0.7496714
-0.06967311
0.72000694
-0.06179982
0.78222674
1.3387218
0.6992238
-0.410965
0.58420885
-0.5289858
0.28815007
0.17901057
0.30382055
0.3616323
1.8402014
0.29192898
0.45724535
-0.33102646
0.45460534
-0.38918436
0.6220606
-0.41069582
0.3126593
1.407683
0.13447963
0.66511816
0.068404526
0.7139438
1.4952036
-0.20330101
0.0957064
1.8788974
-0.25490323
-0.31108874
1.1666462
-0.44848615
-0.08093264
-0.20791975
-1.0100154
0.70869243
-0.8286855
-1.1787407
0.80526465
0.7980723
0.92541826
0.7847276
0.60667706
0.36715823
0.40562168
1.2000002
0.8793044
1.1877245
0.2125863
0.24385057
0.94199055
-0.612711
-0.402712
-0.53187126
-0.18174563
-0.20956731
-0.17902595
-0.65997344
-0.15946704
-0.59276056
-0.32421443
-0.8274889
-0.2571137
-0.686886
-0.7214498
-0.63636845
-0.22810405
-0.69043136
-0.22314702
0.84141093
-2.4127626
0.85656846
0.67461616
1.5998155
0.5670219
0.34618583
0.3215183
0.2970784
-0.12917796
-1.4027983
-0.062121112
0.3450444
-2.7959592
0.41663402
0.793367
1.2041588
0.7456354
0.77379054
1.4818152
0.63793457
-0.025205424
-1.625184
0.026602227
-0.45476475
-0.85396844
-0.3743632
-0.04657513
-0.15085608
-0.11355799
-0.3072718
4.446377
-0.25768897
-0.2515349
-0.59084535
-0.22279537
-0.42801365
-0.6957138
-0.40635866
-0.49866402
-0.6305751
-0.47468632
-0.3890423
-0.38690057
-0.38068786
1.2734905
2.4945998
1.039813
-0.3894947
-1.6819727
-0.23398843
-0.4477991
-0.8395949
-0.3213181
-0.17657262
-0.89692605
-0.18704587
-0.52060235
4.060571
-0.56084824
-0.2030056
-1.0810543
-0.15177451
0.31358486
2.1576328
0.14119653
-0.24481447
0.9074897
-0.26002392
0.23853084
0.2444794
0.24357232
0.708172
0.8783621
0.71933156
0.8640767
-0.72382885
0.82044953
0.34524417
-1.0549656
0.19614577
1.1415237
-0.8262555
1.0475684
1.1090595
0.6047329
1.1257089
-0.24401265
-0.19979835
-0.2794144
0.84310496
1.5105628
0.7960449
0.77720785
-0.97368765
0.63608205
-0.3799128
-0.25778937
-0.37859586
-0.035146154
-0.47704932
-0.00037874168
-0.43048936
-1.298369
-0.36627325
-0.13357852
-0.30758432
-0.11524041
-0.29358116
-0.38484874
-0.26994112
-0.6037168
-0.51922935
-0.45935714
-0.74390477
-0.8494771
-0.7502229
0.94463456
-0.16110827
0.84315306
-0.080523096
1.5066904
-0.28598922
-1.2919188
-1.8641639
-1.1458621
-0.16061525
-1.5770371
-0.2604616
0.7971882
2.4818666
0.7619114
0.4408164
0.20740248
0.33994845
1.0817413
0.92513174
0.2305937
0.67216504
-1.4181491
-0.6303869
1.1435748
-0.4913699
-0.63868344
0.619192
1.1706022
0.62709063
0.4127059
-2.6955504
0.36137426
0.013754541
-0.9867005
0.049086224
0.4912908
0.99588555
-0.31837517
0.6568726
0.84189737
-0.6777131
-0.09848031
-0.6263049
-0.49551776
1.5702878
0.3733262
-0.05308702
1.0926129
-1.7780267
-0.49753368
1.4513582
0.15963998
-0.27582178
0.9937014
1.8634582
0.93986005
0.77100396
-1.2714543
0.7994827
-0.3144519
-0.23789395
-0.33395946
-0.1449091
-0.9238229
-0.13966057
0.7423538
0.6262703
0.6654426
0.5504197
0.9895408
0.49565503
0.52364707
0.9075516
-0.7639321
0.025590962
1.9429393
1.2887894
0.5916028
0.18898554
0.057859376
0.8646782
0.7666626
0.7830541
0.1832381
-0.006534246
0.19361998
0.07208381
-2.3428164
0.081734635
0.48628116
1.4186891
0.49837357
0.5144265
-4.4677234
0.59266925
0.082335286
-0.37593457
0.08193622
1.2445631
0.5799572
-1.1702895
0.5133933
0.61971706
-1.9398023
1.0351678
0.2960907
-0.7919659
-0.12384539
-0.2890112
-0.19508511
0.57763743
2.375561
0.59488183
0.7189193
-0.28341058
0.70606226
-0.44020683
-1.131798
-0.33697408
0.087207586
-1.7138458
0.12765779
0.5459696
2.3705645
0.46848932
0.6302924
-0.89304876
0.62489635
0.7846447
1.1589983
0.7709133
0.58430904
-0.79388005
0.5770651
0.3404105
-0.66982615
0.33163464
0.76306045
-0.6109963
0.7321918
0.43107048
1.8012943
0.4654824
0.5741095
0.42774162
0.51936316
0.86192316
1.0260631
0.8381713
0.331743
-0.999876
0.20156844
-0.07328924
0.09378901
-0.27198827
2.023039
0.43128672
-2.061489
0.7493792
-4.7587113e-05
-1.0323684
0.5904544
0.88069993
0.59802085
1.2052155
-1.7665092
1.1523274
0.79739267
-1.32503
0.80878043
1.2004145
1.037326
0.05847052
0.28393435
0.21931107
-0.13141418
1.0912197
0.7277328
-0.04929119
-0.014256169
0.013119701
0.08449626
0.2163785
3.0020363
0.094951116
0.07764
0.07638557
0.0949233
0.64287776
0.9551793
0.5823092
0.21690768
2.0133076
-0.0112120835
-0.18307157
-0.70378065
-0.20854008
-0.21998444
-0.082376346
-0.18218218
-0.42277035
0.12030939
-0.32224154
-1.0345049
-1.4763232
-0.8394244
0.08093753
0.4354196
0.11394931
0.3377683
1.9583324
0.32851642
0.1004326
0.15903863
0.044638075
0.36849618
-0.81669736
0.39855954
1.1688739
-1.502656
1.2176739
0.18456806
-1.0673461
0.122441135
-0.12762679
0.07484603
-0.059033886
0.2680787
2.2335794
0.13434432
0.028513817
0.18738607
0.059368435
-0.40189236
-0.566706
-0.37179714
-0.7272738
-0.111614384
-0.76033324
-0.564852
-0.40375665
-0.51303536
0.16220032
0.7489819
0.1701902
0.2746647
1.9744055
0.15756917
0.052517127
0.053552415
0.074352115
-0.4939165
-0.5865971
-0.545678
-0.53728056
-0.69209486
-0.4692394
-0.5371827
0.048131153
-0.47780392
0.280625
0.26382852
0.21948487
0.3408316
1.8187104
0.25994214
0.30049306
0.5061464
0.3151318
-2.1520853
0.060945187
0.8371404
-0.7273224
0.43416196
0.29229498
-1.8482617
-0.3633277
0.66450304
0.16487011
0.30802166
0.26569372
0.49411318
1.383711
0.33098328
1.1176993
-0.19866519
1.1157657
-0.07686286
-0.088893875
-0.15703592
0.4544922
2.357783
0.38844165
0.14157811
0.84727144
0.04697463
-0.00424429
0.21922341
-0.05280107
-0.55177313
-1.1073896
-0.43853953
-0.6149682
-0.7047386
-0.5897487
0.8822791
2.0361178
0.7795508
-0.01126486
1.4424487
-0.034569405
-0.16803707
-0.9712138
-0.11013211
-0.026226439
0.16466229
-0.04980082
-0.13578613
2.739174
-0.17919694
-0.43373102
-0.53406096
-0.3795004
-0.11792771
-0.28772315
-0.12155191
-0.75707674
-1.1316806
-0.70992965
-0.14807083
-0.3158686
-0.16734768
-0.27184826
-1.4442517
-0.25286558
-0.2207195
2.930033
-0.33869016
0.1978235
0.8432967
0.17896807
0.43255964
0.91569674
0.41138718
-0.13169421
-0.9164734
-0.16513793
-0.99999815
-1.5676749
-0.9230193
0.024712835
0.022191284
2.4512577
-0.20756644
-0.821684
0.29785505
-0.058701552
-0.35104686
0.647078
0.34896412
0.4795505
0.34227848
0.4002581
-4.5595202
0.4416115
0.1702421
-0.23124057
0.18842973
-0.20675355
-0.53813124
-0.18764876
-0.69522935
0.33316582
-0.6344643
-1.0695493
-0.37610677
-1.1005354
0.41876134
0.5893658
0.43355635
0.747114
1.9866626
0.7262995
-0.51058066
-0.2868577
-0.6568158
-0.60144705
-0.5149903
-0.6501192
-0.3071488
-0.3474132
-0.17911445
-0.6147429
-0.32026425
-0.68933326
-2.8295066
1.1314579
0.39174947
1.4173275
0.60175174
-0.003913924
0.5783627
0.23109335
-0.553462
0.48919284
0.32772315
0.45954
0.67792577
-4.0242605
0.7153046
0.38388038
0.26411238
0.36786717
-1.6980715
0.22858821
0.045368515
-1.6015105
-0.3362499
0.47760773
-1.193081
-0.484238
-0.037916195
0.11944625
-0.98123634
0.21026474
0.45294133
-2.665767
0.48289382
0.4013828
-0.07095933
0.4392441
-0.45485023
0.4308752
0.04177248
-0.8942884
2.9816837
0.25989518
-0.258051
-0.92904645
-0.5264134
-0.31813365
-0.6842092
-0.34366715
0.387972
-2.9237018
0.46805394
1.0534265
1.8011899
1.0681903
0.19809243
-0.88240707
0.19669147
0.15744743
-2.0845907
0.27465618
1.1926292
1.2813213
1.105573
0.44336826
0.92929906
0.33126375
0.42369062
2.364882
0.30817953
-0.4841436
-0.9691469
-0.3719946
0.03056893
-0.023430428
0.082401246
0.55940723
1.9388859
0.28065214
-0.09792964
0.17481759
-0.064528726
-0.47713605
-1.6208608
-0.4504244
0.6315278
-1.5890852
0.76686007
0.23678823
0.7830664
0.25751334
-0.37959802
0.57060105
0.4185912
-0.30491978
1.1967412
1.3005688
-0.37038344
0.08730921
0.18492964
0.14577958
-0.11932023
0.11527586
0.21931805
2.7516694
0.12548466
0.07877567
-0.12697709
0.14894207
0.23386277
0.47225755
0.2095433
0.31329742
1.7296196
0.15219341
0.03305104
0.8219161
0.10551784
-0.4492722
-1.1600763
-0.43245026
-0.7668966
-1.1646601
-0.6649896
0.0349839
1.8210859
0.060824536
-0.4224143
-0.8314503
-0.44069508
-0.84921354
-0.45540562
-0.8008422
-0.5720592
-0.60176086
-0.5078265
0.60877013
-0.6562987
0.6068487
0.80172384
1.539117
0.69540244
0.2749119
-0.18651462
0.3427686
0.06850009
-0.25314355
-0.0042466964
0.013035393
3.0114658
0.041125964
0.038589273
0.2254555
0.067781836
-0.33251026
-0.51732296
-0.2740076
-0.7435374
-0.3014996
-0.7284085
-0.5039235
-0.5026974
-0.40346107
-0.5722754
-2.0185206
-0.5336939
-0.3991678
3.6422677
-0.4273736
-0.3602783
0.14915967
-0.38910654
0.15969497
0.42938977
0.0633257
0.22367577
2.9923737
0.12530883
0.10836724
0.20575212
0.06646465
-0.44223505
-0.4101026
-0.40037072
-0.6495882
-0.22897606
-0.49301326
-0.46830788
-0.64671123
-0.41210136
0.061350457
-0.053347573
0.11055844
-0.31113526
3.3394797
-0.28895113
-0.033892877
-0.09826467
-0.15349069
-0.3054089
-0.7784326
-0.23334982
0.4068408
-2.406739
0.45529285
1.0619036
1.3210391
1.0691074
-0.73944837
-0.7812589
-0.6721953
-0.017562369
-0.44801855
-0.08147012
0.81791335
2.1971297
0.76455426
-0.15265618
-0.74222964
-0.04716859
-0.4463972
-1.2832649
-0.36479148
-0.21935304
-0.72286606
-0.23678198
-0.48466802
-0.86753196
-0.4791454
-0.901549
2.68251
-0.9090237
-0.33598077
-1.422298
-0.3151214
-0.29009166
-0.339266
-0.24279371
-0.36003235
-1.2519131
-0.35052282
-0.017288156
-0.3523901
0.012509352
-0.43859488
-0.2838439
-0.42087874
-0.6237403
-0.77850616
-0.5513772
-0.44884965
-0.42035195
-0.3851551
-0.15641095
-0.31658235
-0.22802667
-0.18739116
3.857715
-0.20427768
-0.13473412
-0.37304088
-0.172983
1.7443393
0.06405362
1.0227404
0.17677076
-0.5848065
-0.07295536
1.2997525
0.25573015
0.87360436
-0.20587885
-0.40566888
-0.122438304
-0.8293245
0.7382539
-0.87822175
-0.043133248
2.786488
-0.09416747
0.4122135
-0.5806071
0.37993065
1.111126
-3.1027083
1.1169057
0.5989848
-0.77662057
0.5907475
0.56674397
1.2415688
0.5198861
0.19767801
1.1836305
0.17418708
0.59576964
-0.8129736
0.668997
2.2271476
-0.66661125
-0.46984035
1.7319579
-0.7716899
-0.61206055
0.40336892
-0.044965323
-0.13036856
-1.0585825
-1.3840803
-0.92678636
-0.048344433
-0.12532242
-0.02865369
-0.061321978
1.2226157
-0.02044249
-0.14352784
0.009771102
-0.21870317
0.26872832
2.1854854
0.14894073
0.1924332
0.54752374
0.08803721
-0.1583479
-0.524256
-0.8193248
-0.6832705
-0.28201693
-0.5455932
-0.7347151
-0.10857583
-0.34810305
-0.13254037
0.7809185
-0.09950012
0.58441323
2.3530958
0.4931179
0.12267384
0.5173681
0.21264774
-0.273318
-1.3576742
-0.23526038
-0.159816
2.330919
-0.17920828
0.4748828
1.5713857
0.44852802
-0.18305197
0.113179564
-0.12886801
-0.9659387
-0.69404054
-0.90247667
-0.49891502
-0.66873807
-0.44612458
0.3534401
-0.7345791
-0.4245236
2.272325
-1.7342521
-0.4469379
0.025511337
-0.35785788
-0.058372438
-0.04093974
-0.54307806
-0.08427731
-0.06390014
3.207817
-0.028998131
0.18276475
0.6847822
0.118325345
-0.50724995
-0.8318323
-0.47463277
-0.56086946
-1.3141617
-0.47908172
-0.011287893
-0.4341542
0.0704448
0.3655063
0.7607317
0.22896454
0.20435943
1.6511139
0.1909478
0.382276
-0.38302168
0.34682927
-0.12871337
-1.1782238
-0.094868265
0.2651117
-2.0291722
0.33011642
1.1571572
0.89051324
1.1086442
0.23178884
0.59093076
0.11786111
0.9839471
-1.0290164
1.1509092
-1.0574454
-1.7082697
-0.99397004
0.5128855
1.9235826
0.46031836
-0.32479915
0.63134265
-0.17782412
0.33211404
0.31386718
0.25986472
-0.098945975
-0.43616065
-0.051881712
-0.37481833
-1.4921203
-0.46369013
-0.04443962
-0.2973049
-0.054676894
2.720976
-0.1816967
-0.8793288
0.5448278
-0.5420215
0.0428197
0.07888226
-0.25082928
0.16866714
-0.5236903
-0.22067754
-0.46393293
-0.38750982
-0.17981853
-0.34965816
-0.7329808
-0.31398028
-0.6826922
0.9258234
-0.19347362
-0.78742945
2.204521
0.50570375
-1.8383157
0.712006
-0.42263225
-0.14650017
0.013586942
-0.65931714
0.014190336
0.6797601
-1.949288
0.66964823
1.0497923
1.4010363
1.0197275
-0.66977066
-0.48805633
-0.61512935
-0.53898185
-0.3892091
-0.482462
-0.6006079
-0.49854767
-0.51620704
-0.04434665
-0.18470888
0.049524136
-0.010298514
1.5258303
-0.15512657
0.51719844
1.4271736
0.54144746
0.383179
0.8810733
0.27324566
-0.22712184
2.318306
-0.2413665
-0.08502384
-0.42421636
-0.100075945
-0.33127293
-0.4824727
-0.38742822
-0.15675023
3.244093
-0.19091149
0.27476254
0.5796118
0.1570073
-0.83729494
-1.1009449
-0.4058668
-0.3042552
-0.1657899
-0.55386996
1.4882144
1.7990315
0.23691133
-0.58392894
-0.50487196
-0.4894606
-0.5249412
-0.41930515
-0.51761496
-0.5438918
-0.45742235
-0.5332106
-0.16993113
-1.5447148
-0.11098621
0.085543215
3.5790281
-0.043188624
-0.05896283
0.12982167
-0.09423007
0.78780055
1.3992373
1.0336412
0.904132
-0.76108444
-0.7691062
0.9464145
-0.8360284
-0.14892726
0.055600513
0.77198714
0.16856126
0.5702682
1.6944908
0.1278938
0.23544328
0.5017113
0.34034047
-1.2430408
-0.07828047
0.4969789
-1.5808221
-0.685315
1.9782403
-0.38923365
0.18342589
-0.28617796
-0.51019573
-0.48666888
-0.4887481
-0.56163996
-0.34000772
-0.5670924
-0.5695235
-0.56366056
-0.62428474
-0.3806831
-0.73582745
-0.32580698
-0.29220846
-1.9786892
-0.25246936
0.027883515
-0.55244106
0.06282656
-0.10076172
-0.026776746
-0.16862527
-0.2849004
-0.43729097
-0.3297944
1.3643552
1.9351662
1.4009984
1.312184
0.68080366
1.2496326
0.19486609
-0.35351664
0.24162368
-0.0519206
-0.7778663
0.71584034
0.2807019
-1.190926
0.25410587
0.61552376
0.26144552
0.65561014
0.44745442
1.8173987
0.28795204
-0.21850619
-0.7885221
-0.27728072
-0.0908277
3.878358
0.044119615
-0.22503734
0.34982902
-0.24352732
-0.3283374
-0.3505068
-0.35225654
-0.51119703
-0.5271999
-0.48872957
-0.40875912
-0.52716154
-0.37110025
0.27448213
2.481392
0.09985026
-0.90148884
0.7700821
-0.7909831
-0.012698903
-0.63348514
0.0014075828
0.53087276
-0.25144193
0.46086165
0.45435145
1.779538
0.455688
0.39300516
-0.49438527
0.4452787
-0.44834813
-0.21695483
-0.42944127
-0.51305217
-0.55534726
-0.4582233
-0.3550982
-0.5991287
-0.29818428
0.52277696
1.0550573
0.6022055
0.77466166
0.48518196
0.5831911
0.15906745
-0.96457696
0.27359104
-0.2839196
-1.2311673
-0.1720627
-0.36239493
-1.8325692
-0.31848276
0.5627599
2.2330382
0.40684322
-0.01958213
-0.92005885
0.04582577
-0.39495775
-1.0941095
-0.23780605
0.0089733405
-0.4037907
-0.011214601
1.1994939
1.845939
1.0287774
-0.3747876
0.35687637
-0.34568274
-0.33921203
-1.0673792
-0.32394034
0.19843225
0.10762573
0.06400989
0.0010063597
2.8031936
0.07144605
0.29314592
0.1161186
0.19571258
-0.6018755
0.66443604
-0.51769024
0.6558067
-3.4718091
0.55726355
-0.248923
0.20181042
-0.14459121
0.9187141
1.8146702
0.89891046
0.5498075
-2.1689384
0.5225894
-0.07731776
-0.7659562
-0.098903805
0.75825566
0.7154384
0.7201441
0.40809962
1.3028723
0.3700791
-0.6947588
0.01851892
-0.71535844
0.3076392
0.49959219
0.1989333
0.16771768
1.7815584
0.21003173
0.3225726
-0.1540254
0.29193607
0.40566206
-0.065333486
0.35698977
-0.08211687
-0.5340865
0.013718276
0.2967944
2.4246476
0.14108987
-0.035404354
-0.20290564
0.041398432
1.8122226
-2.0353484
1.7275003
0.29250312
-0.85324913
0.33035174
0.25840652
1.5825229
-0.41689292
-0.3944169
2.7195187
-1.2248349
-0.6291683
-0.9206081
-0.15823895
0.3951482
0.06238061
0.32136732
0.20749743
2.1959486
0.22981782
0.062531106
0.03705855
0.08976879
-0.24985646
0.24416815
-0.22822587
-0.56910276
3.2406094
-0.59152406
0.031721815
0.020263772
0.12507093
-1.1080911
0.701057
1.2391132
-1.5986975
-1.0930142
1.305883
-0.9819274
-0.17704338
0.37041768
0.20030944
-1.857345
0.0806844
-0.9677924
4.3109083
-0.6886201
0.052000172
0.10801876
0.0823758
0.32655472
-0.14817226
0.1689203
1.6212195
0.3053347
1.6342891
1.0306168
-2.2801473
1.2126753
0.89746654
-0.15308453
1.5492289
0.77768487
-0.3039965
0.77020955
0.90707254
-0.15460345
1.2601845
-0.6108835
-0.37436733
-0.5069164
-0.43514678
-0.21086264
-0.3948852
-0.47269377
-0.4130093
-0.40571275
0.412532
1.5215219
0.36753574
0.21243371
1.1191019
0.06802785
-0.39769453
-0.058165975
-0.36141267
0.09073541
-1.2773792
0.09875199
1.0656084
-1.0477225
1.0844132
0.5639731
1.2010485
0.522487
-0.45150366
-0.34652048
-0.5036501
-0.37802964
-0.32975873
-0.30216256
-0.541474
-0.2814899
-0.5096197
0.56232244
0.7278039
0.48178554
0.510362
1.6791847
0.35584995
-0.19724351
-0.54829127
-0.21725553
-0.49253914
-0.36664382
-0.42906508
-0.5089699
-0.34321946
-0.49296945
-0.5958546
-0.3581827
-0.589667
-0.3741073
-0.42273563
-0.38459122
-0.17461485
-1.5484952
-0.04432546
0.7001352
1.9501979
0.6078269
-0.13417442
0.65268636
-0.15842348
-0.42538482
3.7130127
-0.45730442
-0.29813737
-1.1712095
-0.328294
0.22832362
-2.9464674
0.29580665
-0.5222958
1.1946315
-0.48704237
0.0717342
1.6425683
0.0052493494
-0.49712855
-0.35210052
-0.45785034
-0.23662536
-0.4994305
-0.269528
-0.590366
-0.38564432
-0.5135219
-0.731316
-0.51719594
0.6544202
-1.6703298
-0.5847868
1.9680734
-0.61042094
-0.54720753
0.5141102
0.35592282
-0.3279823
0.23940808
0.95226234
0.87200624
0.99176204
0.5147893
-0.29080975
0.47223094
-0.48637402
2.9816253
-0.52798986
-0.59278095
-1.9233571
-0.3856276
0.17889251
0.21333049
0.2120051
-0.25612956
0.21995395
0.56615955
-1.6585778
-0.049086954
1.6513218
-2.1981952
-0.08460878
2.2488449
0.7211912
1.0686244
0.7030249
0.41268182
1.3131278
0.3065653
-0.7465119
-0.62432325
-0.52091086
-0.020007297
-0.8060213
0.35580495
-1.1291006
-0.8022943
2.9051876
-0.6605619
-0.14753956
-0.10357589
0.17207344
-0.6035165
0.13447103
0.4790296
1.3054899
0.4351232
0.19330065
1.5416013
0.12521128
1.1862493
0.7500128
1.0482647
0.54293746
1.2038794
0.5010386
-0.29273838
-0.75240606
-0.37553412
0.97919303
2.0052798
0.9833073
0.12783135
-2.1139631
0.06153885
-0.19615781
-0.8944895
-0.08058785
0.6467085
1.094271
0.5465568
0.8341213
-1.3526698
0.8721966
0.7477169
0.60836434
0.66718584
-0.18628693
-0.12455075
-0.22086073
-0.34219474
3.7701817
-0.4158118
-0.22934008
-0.33609393
-0.23910043
-0.3375359
-0.5366013
-0.26811412
-0.038070094
2.7339313
-0.14446293
0.34025478
0.44353575
0.38190153
0.23002465
0.6876227
0.09072925
0.5102743
1.6382936
0.48788092
0.16476835
0.30492958
0.12025907
-0.11147469
0.23802565
-0.26590607
0.541814
2.4847083
0.31996375
0.17897378
0.55130595
0.10659317
-0.13333651
-1.1532781
-0.110743046
0.48579836
-1.3567419
0.38977897
0.93137467
1.6862559
0.8649905
-0.04795726
-1.4430264
-0.09683787
0.7280921
-1.979722
0.8856921
0.95893276
1.4142011
0.8888468
-0.20678858
0.38460103
-0.10710677
-0.06626388
3.06124
-0.16798854
-0.4204583
-0.72628796
-0.3069874
-0.15787286
-0.0056030154
-0.13194503
0.52030164
1.8319176
0.3698627
0.6289245
-0.39259145
0.6321287
0.016984673
-0.752606
0.04820408
0.17883149
3.5913255
0.105789125
-0.11760035
0.84278446
-0.11545775
-0.35013765
-0.53665054
-0.5736824
-0.45431033
0.09534766
-0.4033165
-0.7199923
-0.4651992
-0.44206455
0.066388406
0.6322201
-0.022950847
0.5799322
1.8366472
0.36678842
0.50811416
0.61509126
0.42878556
-0.761969
-1.3750612
-0.80273646
-1.3872533
2.27661
-1.3128738
-0.69212633
-1.3754092
-0.6864786
0.13862948
-0.17514797
0.07191339
0.13543843
2.6644452
0.07566864
0.2060987
0.2306656
0.09554897
-0.040791374
1.4670855
-0.20147741
0.5211863
1.613215
0.49501446
0.31407282
-0.799246
0.20081319
0.073008336
-0.17642309
0.070188165
0.6917948
-0.43035945
0.76287955
0.8015534
1.8447171
0.6967366
-0.59032506
-0.24446054
-0.5484252
-0.5824089
-0.7370149
-0.5492156
-0.1386774
-0.57863075
-0.087022185
0.45488942
0.36899355
0.48794594
0.99120873
-0.98318297
0.9227351
0.47250685
0.91437954
0.49988237
0.4665256
2.5641868
0.22603098
-1.005697
0.9314955
-0.9901387
0.15062763
-0.56092215
0.1574719
0.044172086
0.81317675
0.7306686
-0.04977017
1.518349
0.69187963
0.46156627
-0.63775736
-1.0319694
0.16715012
-0.5974552
0.193133
0.57330215
-2.7668743
0.5601196
0.6134597
0.39921325
0.67534834
1.2415729
1.6222745
1.0504379
0.29385567
-1.8551942
0.41583213
-0.19085124
-1.3972963
-0.18955468
-0.67271787
-0.64480835
-0.6450193
-0.371037
-0.28987846
-0.36548278
-0.33592114
0.0020453522
-0.32377177
0.030795416
0.9377145
0.11993847
0.5088437
1.7515577
0.15631215
-0.15862468
0.317988
0.08224754
0.43730262
0.7139749
0.38520658
0.6808849
2.029572
0.41727108
0.24008948
-1.195062
0.44847357
-0.3181121
-0.45342
0.5448287
2.3625429
-0.5925496
-1.5166008
0.9198717
-0.006839054
-0.48868883
-0.98262256
0.006920511
0.74435997
-1.989935
0.36490285
1.4870205
-0.6912144
0.1912471
0.5632045
-0.37265858
-1.2719492
-0.36607856
-0.13283685
-2.0487525
-0.047776166
0.20609589
0.1904191
0.20236617
0.4906022
2.7375007
0.39176372
-0.137843
-0.20020717
-0.08911479
0.06960894
-0.2199242
-0.036774248
-0.23323856
-2.089647
-0.3665974
1.1358012
-0.27206704
-0.98857373
1.3741114
1.243308
0.014623171
-0.38772264
-0.5807413
-0.3456353
-0.83581257
0.092628665
-0.75447977
-0.7569026
-0.78154427
-0.7398091
0.16760853
-0.4375823
0.022894079
0.31045982
1.5298232
0.25815853
0.58439404
1.4219587
0.3676332
0.5240305
-0.7132988
0.5092767
-0.3610027
-2.7529902
-0.2634172
1.0830117
-0.43891877
1.0101564
1.1522405
0.7736919
1.1123825
0.642402
-3.2855117
0.6866384
0.3838375
-0.57062984
0.41260988
0.26706448
1.3205142
0.23663266
0.31843466
1.7626698
0.28975087
-0.090573
-0.3863941
-0.117822185
-0.6204789
0.2025517
1.11144
-0.93699056
-1.3350174
1.0506923
-0.7328349
0.27691466
0.8743806
-0.17620292
-0.73568344
-0.29415962
-0.39657253
4.5307627
-0.5195821
0.040923912
-0.38020578
0.045799788
-0.5236241
-0.5338814
-0.5816702
-0.41044685
5.3141294
-0.4442573
-0.36324573
-0.24275184
-0.36170313
1.096995
-0.15692642
-0.42561677
1.9558215
-1.930997
-0.7461487
-0.48182902
1.525332
0.8493568
0.060164284
0.044552494
0.026582157
-0.25333482
2.8337963
-0.27892068
-0.4501934
-1.4083292
-0.5981448
-0.10564719
-1.0713687
-0.016906183
0.23573169
2.4720225
0.18422917
0.0027830892
0.8780584
-0.0020603472
-0.24519658
0.038688395
-0.13615797
-0.25625932
-2.1852405
-0.2830964
0.0010368981
-0.30540413
0.066367574
-0.35891938
-0.47788423
-0.2833243
-0.63806635
-0.50624627
-0.5915963
-0.35572472
-0.54373246
-0.30308276
0.34583417
0.25458345
0.15492952
0.07847195
2.982041
0.1194817
0.13069873
0.052832842
0.0087796645
0.22630233
0.039789747
0.25577563
0.47226328
0.67251635
0.31353348
0.58522326
1.8235286
0.559659
0.10304291
0.28687048
0.18501773
0.6618243
1.763649
0.44043642
0.117051296
0.36878312
0.2299454
0.18484941
0.23183765
0.08865347
0.35937455
2.049718
0.2885296
0.06344127
0.53455627
0.1516045
0.549417
0.35154378
0.5065383
0.8151884
-4.447322
0.7883045
0.38944164
0.42871848
0.40801668
0.7595817
-0.38471496
-0.59580326
-0.51960576
1.3835301
-1.92969
0.7604218
-0.27882966
-0.85682523
-0.5410989
-0.46789017
-0.52546203
-0.45480117
-0.69661397
-0.483634
-0.3365063
-0.45647907
-0.3067558
-0.27081856
1.0596149
-0.31478292
0.675539
2.334442
0.422154
-0.15340531
0.33755746
-0.15471214
-0.13123232
-0.46795422
-0.1178458
-0.5126825
-0.964778
-0.48041338
-0.45223534
-0.76528114
-0.43593583
2.1957533
-0.10114019
0.29166353
0.091347665
-0.38993573
-0.3247741
0.29897434
-0.24493834
-0.048501827
-0.07386222
-0.814351
-0.03917399
-0.30153966
-1.5045557
-0.2664093
0.9782861
1.8431861
0.926905
0.4660505
0.76906
0.32742137
-0.033914916
2.5239582
-0.02738019
0.024113515
0.5289407
0.43035403
0.17548491
0.28334996
0.1650854
0.2685106
2.1909106
0.20801917
0.2800674
0.23161979
0.27536762
-0.5586364
-0.4441061
-0.5046465
-0.615578
-0.60349303
-0.55890185
-0.33663854
-0.39555433
-0.31111044
-0.27702996
-0.8753639
-0.353156
-0.9286819
4.0828996
-0.887408
-0.38493073
-0.45542306
-0.4127694
0.16785768
-1.5717822
0.09126805
0.16721098
-2.0383527
0.18638095
1.3648354
1.2968901
1.364464
-0.43079805
-1.162088
-0.4295726
-0.63483506
5.4071646
-0.6760838
-0.26856762
-0.21269238
-0.2363065
-0.026686013
0.6019198
0.88574165
-1.0767477
1.5200145
0.2525266
0.16721083
0.559225
-0.9977882
0.5048184
0.6796534
0.06057546
0.5909276
1.5569166
0.54888386
-0.21823066
-0.0067154765
0.075817674
-0.651345
-0.4574022
-0.64530903
-0.52884173
0.1883411
-0.5821981
-0.50348926
-0.14776888
-0.40210766
1.807423
0.11801579
-1.028313
1.7438525
-0.11741201
-1.0138283
-0.20448896
-0.49571264
-0.060126826
0.12929726
1.5185808
0.11416706
0.06468942
2.7376897
0.105386175
-0.23519972
-0.9114065
-0.26871172
-0.08528976
-0.39183894
-0.06919589
-0.3341585
-1.4470959
-0.2646101
-0.08074514
-0.26340476
-0.10881508
2.0865204
0.87420577
1.5826223
-0.39727178
-0.6984936
-0.13646494
-0.067046635
-0.51580894
-0.10707909
0.53165203
0.033272244
-1.8947551
0.40189517
0.44772702
-1.0547954
0.4922429
-0.29828537
-1.7879074
0.16920456
0.38736266
0.121937655
0.68032074
1.9505713
0.5910605
-0.30953234
0.86775124
-0.60243696
0.51862323
-0.36142933
0.61372536
0.7397661
0.49012107
1.3187277
0.55143905
-0.65998393
-0.03920557
0.22387563
1.1049752
0.14456046
0.12497376
1.839619
0.077607214
-0.18096837
0.19054486
-0.12069895
-0.75697887
-0.68335193
1.6319938
0.5634836
-0.010435726
0.7887874
-0.7871973
-0.42912892
1.3962729
0.09633624
0.25684127
0.08298159
-0.14433362
-4.3240967
0.061082713
0.2526907
-0.24829899
0.17354833
0.3181866
-0.014542989
0.3389236
-0.38208508
-1.8577592
-0.3631714
-0.29741684
-0.66734076
-0.2441685
0.5701683
2.1524448
0.3777303
-0.7137607
-1.2533727
-0.5667033
-0.24053031
-1.4459438
-0.12563404
0.3162918
0.5326796
0.19083951
0.43055412
2.4960122
0.31425083
0.072647505
0.40251964
-0.004483304
1.34967
-0.04139398
-0.8165271
1.5992197
-0.20077832
-0.96852326
0.49044785
-0.7877524
-0.53704596
-0.23391692
-0.04549538
0.8600481
-1.6735824
0.11127905
2.1157234
0.14935748
-0.015500287
0.21867347
0.21633126
-0.10942153
0.21994859
-1.3131845
-0.6615583
-1.2671957
-0.29859525
-0.27346525
-0.29956996
0.002688315
0.073665515
-0.080071144
0.09515417
3.364108
0.0992663
-0.08471346
0.081173934
-0.1569892
-0.3209233
-1.349705
-0.20436864
0.72126764
-1.2622733
0.5725852
0.7870398
1.9873276
0.84630454
0.62538785
0.9624706
0.5627831
0.36882082
1.1312306
0.3920788
-0.9398669
-0.9891383
-0.7368487
-0.38392308
-0.73020196
-0.37374187
0.5166397
1.6587048
0.37402883
0.4524597
1.6164469
0.45525318
-0.011571387
0.7377899
0.4349144
0.25632018
2.2308688
0.68714225
-0.0873185
-0.10541682
-0.17250885
-0.1453326
0.1618152
-0.16456205
-0.2209893
3.7723372
-0.27891585
-0.093754165
-1.130234
-0.12219191
0.44724536
0.6002479
-0.17552383
1.6088176
-0.365097
-0.30706173
0.6270981
0.365495
0.2909612
0.012837479
-0.7165466
0.022010587
0.46933123
2.0875015
0.4176246
0.072108984
1.0539654
0.012734094
-0.47503904
2.2864606
-0.47671956
-0.44629708
2.2985666
-0.36721298
0.35993597
-0.8664813
0.2792192
0.3741857
-0.22767705
0.7186335
0.35379964
0.95545197
2.1856418
0.28315023
-0.2953156
-0.1261712
0.262738
0.6361018
0.24107096
0.4809805
-4.3310733
0.5217678
0.2696628
0.08012985
0.29281905
-0.22039215
2.1041052
-0.4103408
-0.41309223
1.1191158
-0.38279277
-0.28060114
1.4205763
-0.43123394
-0.62341946
0.23489916
2.5688446
-0.3684726
-1.1542946
1.5548521
0.052724812
-0.31747892
-0.5563348
-0.34445316
-0.53355473
-0.3450069
-0.29893714
4.0066977
-0.33069658
-0.23640704
-0.14423667
-0.2724048
-0.32448956
-0.6163518
-0.28360394
-0.29500973
-1.0725996
-0.21672633
-0.3416432
-0.8607673
-0.31205958
-0.26450974
-0.7544885
-0.15495816
-0.69933426
4.0970445
-0.9297045
-0.31662822
-0.5955124
-0.24053991
0.56725264
1.8228909
0.66442484
-0.65991646
0.6683566
-0.79726833
0.5432979
0.642389
0.5148171
-0.35716575
-0.20039897
0.8970861
-1.1586554
-1.1919703
1.4576094
-0.34456226
-0.13372067
0.67859316
-0.56700456
-0.4015956
-0.47994086
-0.4605786
-0.31335816
-0.4308195
-0.4104077
-0.28839415
-0.38577023
-1.0869058
-1.4698595
-1.0103456
0.24314271
-0.38350803
0.34468627
0.8985899
1.8049502
0.74176484
-0.94209963
-0.53033346
-0.88202745
-0.22447109
-0.32487148
-0.21463338
-0.31086078
-0.32720846
-0.26888877
0.0511836
0.30831715
-0.0027475804
0.33450252
1.8698125
0.26928115
0.2509456
0.23676349
0.18522078
0.9728319
-0.80529
0.98479146
0.8677127
-2.4015694
0.9293503
0.38638282
-0.688632
0.43253174
-1.223417
-1.3212017
-1.0721846
-0.21707821
-0.38289335
-0.3295521
-0.10322026
0.40429
-0.13238584
1.2633253
0.79810065
1.2605721
0.35191134
-0.087916136
0.3562412
0.67318296
-0.56189203
0.5978326
0.041637387
-0.62366426
0.0249995
0.41423622
2.0060964
0.30867952
0.3263089
0.70273894
0.29408756
0.5260849
0.79701054
0.52210516
-0.095281824
-2.9781213
-0.11669817
0.1359626
-1.0100157
0.15932241
0.89227206
1.4861963
0.67831814
1.0817136
-0.7712259
1.0934885
-0.44743642
-0.9602959
-0.33516458
-0.60897446
0.0012386598
0.7702422
-1.0230956
-0.20297045
1.8279734
-0.79587054
-0.22054295
0.644124
-0.11386726
-0.2968068
-0.013024237
-0.70642763
3.998847
-0.8064386
-0.28895196
-0.60368073
-0.20528033
0.012867516
-0.022922829
-0.15970258
0.22263621
2.9610994
0.24553186
0.20577486
0.29637215
0.14784797
-0.21977238
0.35334116
0.07425437
0.4456173
1.8186526
0.12755032
-0.10696895
1.0453777
0.107814915
-0.49397644
-0.23933923
-0.4413405
-0.57003593
-0.12309614
-0.53269666
-0.6086115
-0.44304806
-0.5683971
-0.49999657
-0.5991816
-0.476508
-0.44647187
-0.36081204
-0.41395694
-0.50775504
-0.58003145
-0.5288372
-0.98883384
-0.040200308
0.82819486
-0.91754
0.21834905
1.6629753
-1.0061764
-0.2978552
0.95065445
-0.41193146
-0.48740166
-0.401412
-0.67147064
-0.29539925
-0.6717682
-0.35780504
-0.59149563
-0.2738139
-0.16091783
0.29021806
-0.19128203
-0.3881066
-0.4719605
-0.18792072
-0.71952087
-0.9322268
-0.7262329
-0.7756798
-0.29963428
-0.749869
0.2084359
-1.4957223
0.29006433
0.8730389
1.5714403
0.8412352
0.55003756
2.2302036
0.3624131
-0.28678104
-0.40146494
-0.2909377
-0.030640747
0.08322829
-0.02286347
-0.81212026
-1.6695461
-0.6645922
-0.20979634
0.1790598
-0.30162644
0.0063648005
1.9752756
-0.021733092
-0.099448614
-0.81202286
-0.08683145
-0.61726516
-1.7446637
-0.41403735
0.043557923
-0.29094127
0.011573068
-2.1259172
0.40230972
1.333066
-2.2971072
0.3349028
2.0496495
-0.4416319
0.19534357
0.3618893
0.2962619
0.5972691
0.35503328
-0.1555015
2.336431
-0.2743505
0.40659672
0.5905794
0.39572448
0.32152
0.5214245
0.3679581
0.36112303
-4.8262362
0.38276196
0.24934602
-0.06878758
0.29856628
-0.0024945962
0.7926863
0.055081535
0.3991343
2.1610568
0.36455426
0.22855774
0.21077064
0.30457526
1.1931919
0.6211118
1.1556128
0.36434188
-1.782577
0.36188072
0.32285267
-0.4521439
0.29396898
-0.12484823
-0.2036299
-0.19623244
-0.4122779
-1.4608246
-0.3300702
-0.4123386
-0.8086062
-0.3577403
1.0999527
-0.43789825
0.17015187
0.8424755
0.6404332
0.65731436
0.28271788
0.46159378
1.0282319
0.2911045
-0.09808018
0.3258957
0.33307815
-3.9263842
0.51670116
0.24532327
0.37709096
0.23206705
0.34269467
-1.2764696
0.27301517
-0.24982142
-2.2141705
-0.14775917
-0.025279243
-0.22253953
-0.0740881
-0.4890989
-0.3979914
-0.41042095
-0.29061633
-0.577474
-0.25829104
-0.63689053
-0.82096845
-0.4166813
1.0002546
2.2971208
1.1107645
0.05268035
-2.1895995
-0.07072762
-0.1914023
-1.5781822
-0.12988825
-0.27012223
-1.7461382
-0.25713816
-0.18159434
-1.1963232
-0.106066816
0.38054952
2.3907468
0.3211844
0.13948627
0.5485835
-0.085562564
0.22765847
1.9383096
0.31684247
0.64692193
0.16624452
0.48262182
-0.5532844
-0.6600631
-0.514796
-0.6638499
-0.93269575
-0.5677427
-0.2685825
-0.3896338
-0.21294539
0.1753239
0.01434941
0.0917156
0.5132755
1.8040222
0.51021796
-0.15711963
0.62756675
-0.30404252
0.18996504
-0.79947174
0.25097787
1.5155984
0.71507424
1.3357666
0.59514254
-0.5073003
0.60319346
-1.3248675
0.50845665
0.08199582
0.5237841
1.3790474
0.25623643
0.659992
0.53767383
0.7174208
-1.4116546
-0.21792728
0.6296681
-1.2367486
-0.74255836
1.7160144
-1.0565763
-0.10717711
0.6816419
-0.035633806
-0.11736784
1.744906
-0.30040285
-0.2170397
1.3879822
-0.19442602
-0.21630433
1.1263556
0.066868566
1.0360986
0.06699795
0.4389044
-3.3201284
0.44452384
0.17942557
0.689062
0.22000466
0.096101075
-0.71938854
0.22508085
-0.5492324
-1.8916208
-0.61579967
0.2650237
-1.1405472
0.33394423
0.6336969
2.6935556
0.5387127
-0.2149386
-0.6902537
-0.3024999
-0.18991975
-1.7721945
-0.13278195
-0.44431645
-1.0942806
-0.47687176
0.08302499
-2.0728784
0.17429191
0.8665547
1.7290974
0.81868577
1.2802292
-0.45467016
-1.3335986
3.1298306
-0.30730006
-2.338734
1.0265831
-0.14145488
-1.0334162
0.2324712
1.1135142
0.18056174
-0.034323055
2.5208719
-0.12909359
-0.47104856
-0.86149055
-0.39083657
0.23659548
0.9628226
1.8557935
-0.94322807
-1.0758425
1.6207504
0.44474757
0.12692912
1.0349708
-0.24551931
-0.1724454
-0.20060264
-0.5941448
-1.1987906
-0.59666705
-0.20779806
-0.5817154
-0.17015502
0.6387465
2.834374
0.55153364
-0.7227788
-1.3930409
-0.6697456
-0.38590685
-0.05166585
-0.32497805
-0.58869123
-0.45662355
-0.59608525
-0.6865869
-0.22826031
-0.63132346
-0.33256656
-0.075403176
-0.29711294
0.12110295
-0.21801871
0.23150475
-0.39890504
4.111019
-0.47599587
-0.12565963
0.3069614
-0.11077293
-0.31578493
-0.63622445
-0.21673648
0.29873815
2.5023122
-0.019379418
0.06473311
0.09369732
0.030724164
0.13957535
-0.65542036
0.13967644
1.4216691
-2.0894022
1.3608469
0.16730341
-0.46987495
0.1924015
0.40752977
0.47018078
-0.68412036
0.6075644
2.385206
0.1111818
0.16169927
0.21983017
-0.35490477
-0.14872977
-0.44977462
-0.24261676
-0.8561348
-1.1923832
-0.8548273
-0.03791776
-0.58367884
-0.017617257
0.7275069
-0.14652362
-1.5417272
1.7845145
0.024628486
-0.7825102
0.1609341
-0.119849205
-0.49637184
-0.08390279
-0.18134414
-0.09676296
0.4443339
1.8072393
0.3108284
0.099893704
0.8784361
0.092013896
0.5287927
-0.34072217
-0.25851986
2.080635
-0.1489634
-1.137302
0.5239313
-0.13202746
-0.16513492
-0.31822014
-0.52756536
-0.3912569
-0.44097337
4.781741
-0.5043285
-0.24735026
-0.17059751
-0.27584934
-0.5961614
-0.45458904
-0.6015238
-0.6299317
-0.22729206
-0.8225973
-0.11123676
-1.5687964
-0.020594787
0.17739257
0.0036725856
0.028648565
0.5708616
2.0395234
0.5438936
0.26463845
0.3992087
0.20218556
0.22996293
-0.17078692
0.68163043
-0.5984857
-1.1401675
2.1724577
-0.44413927
-0.67648983
1.5469586
-0.22851042
-0.95228523
-0.23062758
-0.2164991
2.5751228
-0.26186338
0.36541536
0.44858003
0.2588702
-0.034136165
-0.41929102
-0.045552514
-0.5139223
-1.3907045
-0.3875756
0.17246664
-0.7338122
0.109837875
0.5017698
0.6212696
0.45767727
0.35392332
-4.028764
0.44481078
0.12008538
0.00021725532
0.07739621
0.03239416
-0.056905154
-0.0779015
0.0718269
2.3896227
0.2075153
0.13228567
0.23156974
0.011949818
0.8200771
1.4547867
0.7510318
0.26709965
-2.075376
0.35675818
-0.3360836
-1.3176244
-0.36033243
-0.032490037
0.018901067
0.059003644
0.022130016
-3.4520493
-0.062387932
0.17146334
-0.10196637
0.1480786
0.14738019
-1.2669163
0.14630216
1.3167571
-2.3827918
1.2597996
0.3178411
-0.4095176
0.23599769
-0.47465697
1.6497196
-0.389051
-1.3885684
2.4417322
-1.2342482
-0.36849338
-1.3973137
-0.37446314
0.36595625
-0.19907807
0.6348656
0.78515977
0.7792975
0.9791916
0.7519842
-0.10729018
0.6338484
0.2505058
-1.0278561
0.2119814
0.24592656
1.9603338
0.14726049
0.33268145
0.58257365
0.2828418
0.6738051
-0.035661306
-0.55845386
2.0417495
-0.3412629
-1.23396
0.70689005
-0.17933957
-0.9730101
0.013685749
0.16806829
-0.12288768
0.63321036
1.9507052
0.58681434
0.55456334
0.15076259
0.5122829
-0.97137266
-1.1249858
1.3090717
-1.8405161
0.13330726
1.5830652
0.07030429
-0.8687269
-0.36568502
-0.2573388
-0.91062135
-0.1324862
-0.61271393
-0.004233947
-0.65470564
-0.7107001
-0.03867826
-0.6496782
-0.89218813
0.47209227
0.9545997
-0.9832406
-0.25008374
1.4563327
-0.7402666
-0.51745653
0.58894587
-0.45758826
0.48407316
0.5255525
0.80503625
1.629935
0.30632567
0.29095796
-0.08500213
0.20095932
-0.15582255
3.8464167
-0.034612246
-0.8754575
0.2535366
-0.9003119
-0.1571792
-0.6652905
-0.08294991
1.0980269
1.8679667
1.1495249
0.23515348
-2.3547802
0.19428366
-0.24499379
-0.9732065
-0.203577
0.9410296
-0.92996776
-0.30447423
0.48056412
-0.19164337
-0.92542475
1.6564578
0.66010445
0.6898379
-0.8844947
-1.8220661
-0.8082916
-0.42476398
1.0125344
-0.47091958
0.327743
1.7971648
0.35044885
1.3367834
0.6803999
-0.3198043
1.7573599
-0.14389557
-0.7355025
0.73699284
0.8246665
-0.18561752
0.49239144
1.3859673
0.43924698
0.5109518
1.1887755
0.33153412
-0.12987255
-1.0591853
0.12577334
-0.8394444
-1.0040153
-0.8717329
-0.49639478
-0.89610636
-0.6736906
1.6724782
1.2505411
1.5095911
0.18120857
0.31771067
0.15011474
0.12876226
2.2686167
0.07101024
-0.010749178
0.21267015
0.036151588
0.49396765
0.529864
0.25931624
-0.13829038
2.56864
0.12060426
0.15652831
-0.1727222
-0.07902115
0.6103465
1.6493338
0.514212
0.3586715
-2.9934473
0.38327864
0.121787995
-0.34019077
0.15197247
-0.6302844
0.71619916
-0.66639924
-0.6259206
-2.3103998
-0.6058694
0.2595684
1.5605965
0.16927882
-0.4808278
-0.43042657
-0.44988936
-0.4170977
-0.6412728
-0.33862936
-0.5345877
-0.54370946
-0.4589221
0.6445313
0.68861735
0.53286356
0.13289565
1.850444
0.036077607
0.1361154
-0.7315245
0.10612696
-0.0048000263
-0.10702759
-0.056365557
-0.16658776
4.4291716
-0.13261157
0.2296777
0.1188464
0.15446982
-0.15548684
-0.38307855
-0.19003849
-0.2919818
-0.54780024
-0.26363662
0.8935214
2.3861787
0.8234393
1.3723344
0.42802638
0.52750677
1.8157202
-2.1046798
-0.6207211
0.95489
0.338968
0.30725607
1.2153729
1.1838328
0.6841123
1.4165725
-1.2375164
-1.0951085
-0.4997312
-1.7538015
-0.57282174
-0.14986116
-0.76028115
-0.07866396
-0.6528661
-1.3375946
-0.5542606
-0.58937347
-0.2173004
-0.55501395
-0.024606245
0.40103194
-0.10638064
0.1316165
2.8958547
0.13080052
-0.014434344
0.38384646
-0.055062927
-0.4648153
-0.6641548
-0.34397957
0.50141317
1.04909
0.35825717
0.5219535
1.6113406
0.57748973
0.66243905
-0.9700649
0.7348571
0.6599844
-3.6006548
0.84893084
0.5796388
1.3495989
0.49812093
-0.5119846
-0.2154409
-0.515742
-0.47193986
1.0088348
-0.4134037
-0.69242406
-1.3822626
-0.62196463
-0.038766973
-0.8009891
-0.015252081
-0.6368692
3.0965397
-0.6580392
-0.30721933
-0.813609
-0.31231856
0.444993
1.4069444
0.501493
0.6404901
-3.6373773
0.6299219
0.08076032
0.7086746
0.10811679
0.04919488
0.2517501
0.008725041
-0.28053167
1.2369865
-0.7722469
1.1922597
0.82466143
1.133437
-0.46348572
-0.3658828
-0.5253487
0.3130992
1.3185544
0.4599048
0.9705628
1.0285939
0.8952693
-0.13915601
0.82953435
-0.20805095
-0.50676906
-1.0006661
-0.48786718
-0.5587749
-0.784676
-0.5165945
0.5405624
1.4583662
0.5433382
0.63329434
-2.9915326
0.6365074
-0.06483151
-1.3906786
-0.009017838
-0.7350218
-0.34226212
-0.673179
-0.5460721
-0.7654052
-0.51063913
-0.44691154
-0.5436218
-0.42386714
0.30642176
-0.22363433
0.2423732
0.5280025
1.4888483
0.3937085
-0.049755655
1.3044285
-0.068583116
0.8247824
-0.07609068
0.82774806
0.31712943
-5.1198635
0.37885877
0.81965345
0.16600013
0.77357465
0.5361574
1.4468418
0.5009676
0.20573907
0.9551884
0.0917533
-0.6251179
-0.32054618
-0.4368513
0.5591672
1.0241284
0.44486523
1.5774608
0.4517468
0.17739382
0.3443356
-0.13791959
0.09080946
0.20883533
-0.8951233
0.2239266
0.16446891
2.5909994
0.07622023
0.076300904
1.0037179
-0.015460295
-0.47441584
-0.8526823
-0.44170585
-0.6000161
-0.7929405
-0.46180564
-0.6491503
-0.7877773
-0.5879604
-0.3867291
-0.5058143
-0.4084312
-0.8787386
-1.2879857
-0.9031971
-0.096763976
-0.4606721
-0.072639324
-0.3644606
-0.661361
-0.38208383
-0.317609
4.4480557
-0.4373584
-0.16342443
-0.2521616
-0.21578737
-0.15142913
0.18242478
-0.17351675
0.10068839
-3.2522972
0.14507736
-0.24013138
0.18304397
-0.16225429
0.15844142
0.59049237
1.1320451
-1.1420213
-2.0034962
1.7402141
0.18235078
0.2753714
1.207093
0.03035071
0.5672687
0.10164401
0.15425648
2.565776
-0.09506817
-0.15912564
0.5362038
-0.04757605
-0.26700133
-0.70054805
-0.20272833
-0.5967232
-0.81377953
-0.5590632
-0.18649332
-0.24652185
-0.16466878
0.85742927
2.3446958
0.646227
0.21836291
-0.83680433
0.1808791
-0.06070635
-0.21846767
0.007926767
-0.52822715
-0.4693276
-0.3826593
-0.39530554
-0.5123113
-0.38643658
-0.65946096
-0.590884
-0.6492391
0.65689784
2.4497435
0.57432616
0.316632
-1.6449579
0.28719938
0.4440975
-0.79683656
0.33901766
-0.64385504
-2.0081346
-0.58613026
-0.13366595
2.2572486
-0.14173509
0.19218683
1.9616431
0.22223976
0.9571474
2.007128
0.8672793
-0.60304123
-0.054984823
-0.68878806
-0.12146168
-0.040138125
-0.03580648
-0.5608253
-0.5626219
-0.6002408
-0.16949396
4.410142
-0.3100552
-0.41302377
0.05616809
-0.4306538
-0.68313456
0.24174072
1.4691073
-0.5863568
-0.19718295
1.4313246
-0.11315995
-1.3589292
-0.24163698
-0.39476508
-1.880558
-0.35701567
-0.37166086
3.3692439
-0.48401123
-0.16617769
0.6240714
-0.15501013
-0.18602361
-0.1461003
-0.17070486
-0.004730503
3.3298507
-0.18828411
-0.047232322
0.13927975
-0.07038018
0.99799055
1.2535664
0.832802
-0.5491021
-1.1863979
-0.6326643
0.5256059
0.40611356
0.41205737
-0.27802178
-0.40562016
-0.8739375
0.8331045
1.4220157
-1.8830049
-0.25344083
-0.17014985
-1.254111
0.030214058
-0.38022614
0.029672178
0.5094433
2.4410071
0.39631602
0.4253171
0.68783236
0.46070495
-0.3206937
-0.33582908
-0.3421096
-0.1284713
3.4895897
-0.17148942
-0.19171998
0.17639276
-0.16855091
-0.02782255
0.09017463
-0.050931204
-0.60745746
2.6710458
-0.5740915
-2.0753243
-0.53334314
-2.057527
0.10298296
0.13955514
0.024726398
0.5202387
2.029467
0.461049
0.11858311
0.3379777
0.10463504
-0.14482483
-0.61849254
-0.095270656
-0.8673936
-0.5564452
-0.74778783
-0.449716
-0.08028733
-0.50913423
-0.22885886
1.8353401
-0.24023218
-0.15151876
2.2382903
-0.22526495
-0.3374738
-0.922372
-0.29856086
-0.35752106
-1.1138645
-0.2214472
-0.50938606
-0.40609342
-0.40922678
-0.46555936
-0.09914572
-0.42948774
-0.17044233
1.5244081
-0.12678745
0.33253798
0.5211011
0.2700932
-0.07903888
1.3899673
-0.1474231
-0.26045826
-0.45080042
-0.1923422
-0.560847
-0.6644888
-0.48153114
-0.5644347
-0.70869863
-0.47842425
-0.86947185
-0.2345226
0.96954066
-1.1056079
-0.06094625
1.6706469
-0.6814327
1.0060493
1.2405912
-0.14000647
-0.7046075
0.11896189
2.497195
-1.0637628
-0.72436607
0.19534513
-0.045449268
-0.41621894
1.5058056
-0.38390604
-0.9654866
1.3554878
-0.3121414
-1.0750823
1.6874287
-0.2877348
-0.90204495
-0.2868791
-0.48454195
0.1071819
-0.40932202
-1.9972203
2.5132718
-0.22948173
-0.36614764
0.2748214
0.9494643
0.32665026
0.016650995
0.9174931
-1.757015
-0.20954044
0.65893924
-0.049860813
-0.4714696
0.4024176
1.0546831
0.26383615
-0.032435175
2.6283166
-0.20800683
-0.22696646
-0.7800516
-0.25429872
0.17413564
-0.5495048
0.093214385
0.006532434
2.2162032
-0.010704392
0.3584934
0.76439446
0.27336594
-0.6365259
-0.5687438
-0.489185
-0.4794533
-0.36681953
-0.35915926
-0.6194351
-0.60616297
-0.526858
-0.31302518
-0.3418957
-0.34784004
-0.35366032
4.504353
-0.46918082
-0.2773302
-0.36764884
-0.28408056
