-0.233806
0.0111379
0.000876625
-0.031305
0.278023
-0.0530222
-0.0354665
-0.103253
-0.0483183
-0.358386
0.0608824
0.015698
0.0484448
-0.0300047
0.0774304
0.515341
-0.00467842
-0.0606016
-0.00950499
-0.091381
-0.0101618
0.0259989
0.073578
-0.0905197
-1.12471e-06
-0.488565
0.0774913
0.0169241
0.0127377
-0.0010372
-0.0421181
0.228587
-0.0705857
-0.0158572
0.0545261
0.13654
-0.120083
0.0244429
-0.127051
-0.547934
0.193089
0.0299941
0.0410706
0.0418168
-0.0991887
-0.237982
-0.0204526
0.018275
0.0915698
0.0191314
-0.0554884
-0.0398906
-0.040149
-0.501604
0.0568505
-0.0332347
0.0818472
-9.93128e-15
-0.103498
0.108986
0.0469272
-0.14913
-0.0343911
0.0326612
-0.0338866
0.0859727
0.173825
0.0887757
-0.177953
-0.0145401
0.00377894
0.00764399
0.120954
-0.0265921
0.00761428
0.0226781
0.0221576
0.154946
0.130785
0.0152565
0.0342937
-0.00724119
-0.00310911
0.00159865
-0.0456479
-0.0715648
0.213734
0.145979
6.31677e-07
-0.0256525
0.108636
0.012283
-0.0239197
-5.36476e-05
0.0381457
0.00630831
0.171583
0.112185
-0.000541767
-0.00189823
-0.00335875
0.000645064
-0.0349574
0.0125115
-0.0208944
0.0123817
0.0946731
0.00912913
-0.0253989
0.0129315
0.0118282
-0.312475
0.119062
0.0398268
0.00210253
-0.0529923
-0.0153391
0.0280244
0.00775875
-0.106262
-0.0968166
3.33976e-14
-0.0534471
-0.000187431
-0.0106667
-0.0098747
-0.0479229
0.109839
0.0549113
-0.0579735
-0.0269603
-0.030639
-0.0542044
-0.04747
-0.0193733
0.0845282
0.00265821
-0.0396295
0.115975
-0.154142
-0.0255914
-0.143264
-0.00412906
-0.0357671
0.048139
-0.0136961
-0.0116996
0.0664688
0.0102588
0.176569
0.145815
-0.0163407
-2.58762e-06
0.0844981
-0.0343086
-0.0411014
-0.118234
-0.000572849
0.0403255
0.0810274
0.0171002
0.00517173
0.0691579
-0.0282137
-0.00530303
-0.0617657
-0.398552
0.0694926
-0.0520129
-0.00424492
-0.0657574
-0.0415524
-0.229543
-0.123474
-0.149031
0.0108866
0.00976588
-0.0180883
0.116385
0.0934017
0.0122673
-0.00162034
0.0673999
0.0259159
-0.0546666
-1.24559e-14
-0.158977
0.134816
-0.00998322
0.0463528
-0.183281
-0.0755678
-0.0227703
0.0104819
-0.0100838
0.00805098
-0.0207214
0.070106
0.0131503
0.0345908
-0.0091606
-0.0680213
0.0726129
-0.00397815
-0.128343
0.0229512
-0.0202292
0.0145773
-0.0165994
0.00525016
-0.339356
0.00411889
-0.0219446
-0.00840107
-0.00380715
-0.0389338
1.27525e-05
0.144581
-0.0346829
0.173777
-0.0132943
0.00067621
-0.0182665
0.0935914
-0.0101587
-0.0198689
-0.0375566
0.22745
0.0411645
-0.468648
-0.0389193
0.111895
0.162307
0.12434
0.0149534
-0.710032
0.0547949
0.0697362
0.362407
0.00611018
-0.00101269
0.00879882
0.056771
-0.01213
0.0284822
0.00319517
-0.00642634
-0.0186121
0.00298375
-3.29642e-15
-0.0147631
0.109556
0.0838973
0.109702
-0.0308577
-0.0168838
-0.083544
-0.0347218
-0.0161255
-0.0352221
0.139342
-0.0499919
0.000197233
-0.114774
-0.037879
-0.285657
-0.00304132
-0.0650653
-0.285192
-0.0105771
0.0576538
0.170856
-0.032709
-0.0579874
0.003142
-0.00424439
0.0213988
0.0076682
0.0128863
-0.0487547
-1.63428e-07
0.106113
0.0626634
-0.00257435
-0.0156958
-6.96619e-05
0.0246554
0.289872
-0.0213938
-0.00383252
-0.0309225
0.0608694
-0.118827
0.0120544
0.0490877
-0.142047
-0.0962461
-0.0736432
-0.0273827
0.0278753
-0.00666125
-0.240039
-0.00092131
0.0166161
0.0640339
-0.412139
-0.27064
-0.26532
-0.0549911
-0.0414722
0.0225913
-0.03785
0.0344585
9.54357e-15
-0.0584743
0.0388774
0.0237501
-0.165868
-0.127735
0.0281819
0.0338727
0.0282227
-0.0169976
-0.00340907
-0.00790384
-0.115024
-0.0124684
-0.0533277
-0.00176316
-0.103199
-0.0635964
-0.0273004
-0.319353
-0.0839204
0.0181595
0.00737571
-0.00963091
0.00462662
0.0930362
0.0221332
-0.105862
-0.0422345
-0.0130067
0.0665899
4.85863e-06
0.158734
0.0186772
0.0327256
-0.0782546
-0.000199962
0.159564
0.132588
0.051601
-0.00912064
-0.0233359
-0.184618
0.0630171
-0.0347045
-0.0995669
-0.0352259
-0.139532
-0.00703251
-0.0120362
-0.0611041
-0.0545083
-0.153583
0.0249372
-0.0115849
0.0519328
-0.0583815
0.00742726
0.283746
-0.0935482
0.0781468
0.0751873
0.0793298
-0.0346084
-3.04581e-14
-0.126426
-0.0404134
-0.0126232
0.0831968
-0.0392096
-0.0405703
0.155255
-0.116271
-0.183108
0.0543865
0.00538608
-0.0629859
-0.0109836
0.0268547
0.0379024
-0.039051
0.120514
0.0684717
0.0135282
-0.0845182
0.0312316
0.0393009
0.0141893
0.000495794
-0.0263074
0.0850074
0.170051
-0.179141
-0.0700227
0.0570804
-4.64161e-08
-0.0177709
0.0211922
-0.0287757
-0.210457
4.56254e-05
-0.0230158
-0.042852
0.0951004
0.253089
0.0168943
0.0664545
0.0497709
-0.0275327
0.0549514
0.0784114
-0.0368984
0.0483526
0.040424
-0.025438
0.046315
-0.0319636
-0.0410216
-0.163194
0.0123519
-0.0246468
-0.0131457
-0.0275956
-0.0243156
0.00206215
0.060974
-0.0217271
-0.124771
-1.26349e-14
-0.0915464
0.0146085
-0.00932269
0.0481608
-0.0685604
0.00685066
0.00158501
0.0154725
0.00974471
-0.0274277
-0.0732635
0.051229
0.0298481
-0.00187995
-0.0261586
0.0555865
0.263823
-0.0294474
-0.109629
-0.129902
0.0267995
0.0211383
-0.0120743
-0.0237845
0.133594
-0.0205559
-0.0100644
0.048106
-0.000227415
0.0579574
4.26258e-07
0.156733
0.0238422
0.1143
0.0408619
0.000728676
-0.00740627
-0.318047
-0.0239238
0.0107662
-0.10651
-0.284139
-0.057827
0.083546
0.0468978
-0.352248
-0.0522234
0.00686664
-0.0104886
0.497252
0.0186623
-0.071517
0.458001
0.00888435
0.0121876
0.123715
-0.0243119
-0.0341766
0.0307533
0.0428436
-0.0300246
-0.0164454
-0.0136268
-1.67165e-14
0.0239809
0.246142
-0.0675646
-0.0209823
-0.108785
-0.00550568
0.00152659
-0.0128993
0.00566435
-0.617408
-0.0461202
-0.0209781
-0.00934687
-0.00203298
0.286392
0.00240686
0.00206073
-0.0341159
0.0287103
0.0581336
-0.178934
-0.0295167
0.122667
0.00864114
-0.00742945
-0.107393
0.00355126
-0.010146
0.0290297
-0.0542498
-2.23394e-06
-0.00435912
0.297191
-0.00500174
-0.0122217
0.000598696
-0.0925484
-0.0069066
0.0121009
0.0742638
0.0290084
-0.0161816
0.0158548
0.00290144
-0.081006
-0.00217636
-0.0155489
-0.00552109
-0.0448409
-0.00421273
-0.0212356
0.00885589
-0.0172534
0.0739811
-0.296568
0.0488591
0.103628
-0.0238502
-0.0084488
0.0206753
0.0312815
-0.0403717
-0.138682
9.92998e-16
0.00469675
-0.0022967
0.0306911
0.00999247
-0.020353
0.102391
-0.0709969
-0.100796
-0.0137114
0.108563
0.0113027
0.0928455
-0.0146564
0.108543
0.155934
-0.0467226
0.0160904
0.165722
0.153855
-0.153443
0.0152815
0.0900205
0.08914
0.0305244
-0.0176168
0.160181
-0.0805948
-0.0358834
0.0277792
-0.014755
1.62842e-07
-0.144476
0.0296002
0.0169524
-0.00823962
-0.000303612
0.141366
0.0728644
0.0214095
0.120155
0.0348133
0.0560274
0.0585415
0.0420769
0.064878
-0.128002
-0.0824502
-0.107262
-0.051468
-0.00260308
0.056038
0.131805
0.00470947
-0.0492716
0.0566662
-0.0044215
-0.16055
0.124668
0.0567409
0.105413
-0.295677
0.150863
-0.13059
-4.44799e-15
-0.0460738
0.0181846
-0.0189581
0.0887869
0.0289413
-0.0103443
-0.0189258
-0.0637999
0.0060034
0.0513648
-0.150741
0.0101166
0.0303992
0.0336742
0.0558207
-0.204081
0.022892
0.0380706
0.218303
-0.0345817
0.0602984
0.131915
0.0299557
-0.00517714
-0.0134491
0.260804
-0.061958
-0.0149979
0.0251588
-0.046581
-4.11305e-07
-0.174281
0.0456767
0.0359017
0.0100614
-0.000440419
0.236231
0.204802
-0.0410204
0.103754
-0.0286309
0.0422909
0.0422284
-0.00129493
0.0197755
-0.149613
-0.292061
-0.203592
0.0844024
-0.0184475
-0.0218492
0.184962
-0.0153275
-0.0714622
0.0722401
0.0272868
-0.102818
0.113873
0.024288
0.262898
-0.208785
0.214244
-0.100204
8.93967e-15
-0.00376368
0.0387152
-0.0418474
0.0394603
0.101717
0.0145614
-0.000133276
0.388684
0.539405
-0.0311202
-0.0776194
-0.001915
0.00376099
0.00720012
-0.00993133
-0.0057477
0.0119089
0.0305611
0.0173623
-0.0131565
-0.0181609
0.0035193
-0.00391864
-0.000242266
0.00508973
0.000817918
-0.00763348
-0.0282945
0.10294
0.108735
4.84564e-07
-0.00538127
-0.0310002
0.000169177
0.00508346
-0.000196061
0.0376617
0.00257424
0.134008
-0.183794
-0.000979149
-0.00163411
0.00499589
-0.0124198
-0.0117142
0.0026637
-0.0201941
0.00317337
0.0176602
-0.00823399
0.00144603
-0.000427994
-0.00394431
0.155914
-0.0353017
-0.00112439
-0.0232061
0.00490786
-0.000968691
0.000187858
0.00247893
-0.0767227
-0.528328
3.01501e-14
0.00728345
0.00590332
-0.0222219
-0.00168472
0.00447518
0.0552123
0.0281189
0.0348323
0.114812
-0.0613709
-0.083882
-0.003943
-0.00096207
-0.00268393
0.0704956
-0.0103196
0.0228796
0.0178196
0.0110583
-0.0435126
-0.125483
0.0109404
0.011834
0.00613952
-0.00152433
-0.0534775
0.0113616
0.0624793
-0.0535921
0.0320579
-6.78203e-06
-0.00355802
0.227981
-0.0126427
-0.0126781
4.0231e-07
-0.0428591
-0.00179722
0.0480329
-0.11931
0.0293757
-0.00382795
0.00933932
-0.0068016
-0.134051
0.00534245
-0.00662178
-0.00300334
0.477693
0.0115145
-0.00313986
-0.00149276
0.00212657
0.00497303
-0.324041
0.0298865
0.0393302
-0.00278774
-0.00953152
-0.0117053
-0.0120022
-0.063519
-0.0922895
-4.90176e-15
0.0174499
0.0116369
0.0222443
0.017585
-0.0108203
-0.338043
0.0762183
-0.0535136
-0.0208989
-0.00176721
-0.0873989
0.0379177
0.00627012
-0.0201041
-0.0017748
0.175489
-0.270718
-0.00223283
-0.225233
0.0611744
0.0100803
0.0717133
-0.00644766
0.00312592
-0.430928
0.0120371
0.000303631
-0.0758771
-0.00533323
0.0325078
-1.65338e-06
0.181406
0.017966
0.139841
-0.00214625
7.18367e-05
-0.00622265
-0.0421853
0.0493561
0.0458294
-0.0414115
0.0024463
0.0386226
-0.141592
-0.0134938
-0.339125
-0.0100688
0.0217991
-0.00488567
-0.0808347
-0.0145058
-0.053911
-0.272434
-0.00939548
0.0102169
0.0398139
-0.0792128
-0.0316712
-0.000214199
0.0703676
0.00536654
-0.0125055
-0.0240757
-1.53394e-14
-0.00131242
0.069617
0.0606805
0.0673589
0.009737
0.00122265
-0.0148402
-0.0931692
-0.0160491
0.0225454
-0.0692916
0.000352024
0.00783602
-0.0283943
-0.0431424
-0.0387618
-0.00834853
0.00160364
0.127581
-0.124007
0.0318237
0.0983375
-0.0366078
0.0422097
-0.021752
0.19407
-0.0574312
0.0197467
-0.0708736
-0.0332009
1.35244e-07
-0.10099
0.0801196
-0.00778496
-0.0533511
-0.000230369
0.178825
0.102111
-0.0368349
0.130524
-0.0546486
0.0249876
0.0325225
0.0258853
0.0924928
-0.121762
-0.101178
-0.00582163
-0.08012
0.0239295
0.08976
0.0860836
0.00691928
-0.0400201
0.0480815
-0.11129
-0.00134163
0.175133
-0.0331897
0.131925
0.0601895
0.159662
-0.116935
-2.17906e-14
-0.0394321
0.0351046
-0.0280203
0.0617748
0.198535
0.021438
-0.0641894
-0.0453225
0.0269508
0.0265271
-0.0289971
0.0129607
-0.000902698
0.0786637
0.0469628
0.0296239
-0.016884
-0.235307
-0.0457319
0.0733055
-0.001467
-0.0443255
0.0402586
-0.022122
0.0146936
-0.0175711
-0.0977077
0.0453993
-0.0630275
0.0920082
4.90852e-08
-0.0114357
0.00916935
-0.0305028
-0.0510792
-9.17299e-05
0.0209962
0.02083
0.0729511
0.0511926
0.115424
0.0278055
-0.0298416
-0.0171241
0.0734854
-0.0400384
0.0129367
-0.0674175
-0.0715685
0.0789729
-0.212345
-0.0200243
0.0379032
-0.00372009
-0.0303145
0.204178
-0.376652
0.134382
0.0493138
0.0243031
-0.0339631
0.0469442
-0.0102709
3.09041e-14
0.0856018
-0.0165945
-0.16135
-0.014709
-0.0221251
0.0238582
0.0565764
-0.0090426
-0.0161138
-0.0281106
-0.0121204
-0.165602
-0.0635474
-0.0685478
-0.0325859
-0.0194029
-0.0052867
0.0624168
0.0642959
-0.00145267
0.0112235
-0.046071
-0.0252314
0.0114158
0.00623427
-0.0195948
0.262637
-0.0264677
-0.0295335
-0.016716
-2.21596e-07
-0.0215103
-0.00359244
0.00756534
0.00380049
-0.000125598
-0.0314413
-0.00847071
0.0478235
0.035772
0.407949
0.0164525
0.0175223
0.0036719
-0.00427323
0.0204162
-0.211407
0.324549
0.00968776
-0.00693656
0.126535
-0.160755
-0.0172197
0.00433746
-0.00529296
0.075023
-0.0103568
0.011787
0.21804
0.0262519
0.0604319
-0.0097412
-0.0611493
2.26253e-15
0.00565075
0.0034335
0.00582286
0.029883
-0.0544232
0.0109414
-0.00902962
-0.270036
-0.0487546
0.0110308
0.00124044
0.0262747
0.0177815
-0.0284049
0.0449617
-0.0370669
0.00530252
-0.0577728
0.0142598
0.4093
-0.0420723
0.0438927
-0.00774236
0.0194941
-0.0299273
-0.150748
0.0704055
0.33092
0.144284
0.200361
-2.23151e-05
-0.0578657
-0.0294565
0.0417578
0.103014
0.00028783
0.365183
0.0173836
0.141784
0.180322
0.00880943
0.03877
0.0513767
0.0314032
-0.00297517
0.0291737
-0.0206341
-0.0288633
-0.181007
0.0553424
0.00124941
-0.00850074
-0.0142783
-0.134881
-0.0226803
0.0436552
0.0513888
0.0223766
0.0110621
0.0137136
0.0602659
0.136521
-0.153418
1.33103e-14
-0.00348642
-0.0935341
-0.0197023
0.0908996
-0.0583835
0.042371
-0.0671767
0.00144712
0.00709155
0.00452655
0.0262947
-0.0764517
0.0351941
-0.117984
-0.00461658
0.0703878
0.0728073
-0.0989188
-0.138711
0.0493885
-0.00204644
-0.00659832
-0.016735
-0.0268163
-0.627579
0.00624251
-0.0224452
-0.0534646
-0.0179984
-0.0381474
-1.36644e-05
-0.0167348
-0.0265134
-0.346231
0.0244254
-0.00285395
0.0321536
-0.210219
0.0197483
-0.00983157
-0.101915
0.428117
0.00750881
0.338401
-0.182457
0.255565
-0.0891541
-0.138348
0.00094483
-0.344067
-0.112467
-0.134875
0.216411
-0.00697331
-0.0250512
-0.0362979
0.0167912
0.0412
0.0222022
-0.0219941
-0.0447504
-0.0229779
0.00550544
1.04479e-14
-0.0782037
0.473048
-0.00846896
-0.109776
0.0544914
-0.0132732
0.157236
-0.0486779
-0.0272449
-0.0778457
-0.276369
-0.261055
0.0024283
-0.174775
-0.0902757
-0.348053
0.0299315
-0.22486
0.179086
0.0208435
-0.0625322
0.0728383
-0.121867
-0.190869
-0.00723722
0.14931
-0.0362281
-0.0290279
-0.0558653
-0.0355431
7.57068e-07
-0.347112
-0.0391303
0.0085114
0.129872
-0.00226082
0.0890256
0.607226
0.0259204
0.0450644
0.0150673
0.0742993
-0.192858
-0.0632974
-0.00840562
-0.699178
0.0120596
0.312204
-0.0187206
-0.067816
-0.0535859
-0.109598
0.0294121
-0.0374872
-0.0178582
0.321358
0.287384
-0.222218
-0.272072
-0.032356
0.414992
0.00493097
-0.101036
1.10687e-14
0.0904573
0.123469
-0.0231217
-0.240731
-0.199492
-0.0097119
0.0247691
0.245577
0.175034
0.00890197
0.0770567
-0.0127111
-0.002936
-0.0537317
0.046048
0.00439382
-0.0636033
-0.0592683
-0.0284478
-0.167753
-0.0321355
-0.0119958
-0.097404
0.00557725
0.0694258
0.0281279
-0.00305311
0.074344
-0.229735
0.385473
7.3181e-08
-0.00415929
-0.0502738
0.016012
-0.0553663
-0.000380424
0.199526
-0.0176543
0.314687
-0.0476979
-0.0084519
-0.00895686
0.00883247
-0.0378201
-0.119786
-0.0132608
0.00625133
0.00747017
-0.193889
-0.00756232
-0.000479461
0.00312175
0.00980563
-0.0734745
-0.0767394
0.0160352
-0.048519
0.128454
-0.000190551
-0.00502698
-0.0296693
-0.0422379
-0.0852447
4.30525e-14
-0.0311472
-0.0293977
0.00314751
-0.00240847
-0.0436212
0.121967
-0.191296
-0.00809007
0.025971
0.0197789
0.0811709
0.00709572
0.00927308
-0.0568012
0.0190564
0.0150163
-0.135908
0.00780206
-0.0246688
0.217599
-0.084879
-0.076828
0.0106394
0.00527491
0.00351954
0.0379093
0.0170787
-0.160766
-0.0848477
-0.042173
8.11865e-08
0.0231717
-0.110905
-0.0259207
0.000199082
-0.000404164
-0.0358697
0.020721
0.023673
0.0152214
-0.0216544
0.179968
-0.0379359
0.0144324
-0.0196002
-0.0744435
-0.0124624
-0.0524694
-0.0328157
0.14623
0.00269123
-0.00259832
0.167188
-0.00225164
-0.111671
0.236672
-0.159185
-0.113596
0.00490991
-0.0159542
-0.0829219
-0.000626003
-0.0296892
-1.9483e-15
0.14769
-0.221881
0.0112598
-0.00269805
0.116154
-0.0202704
-1.55194e-14
1.07631e-14
-2.27038e-14
-8.5293e-15
-7.97895e-14
-1.78793e-14
-1.2048e-14
-2.9878e-14
-4.30491e-15
-7.44443e-15
-1.25756e-14
-7.97649e-14
1.14542e-15
-1.05626e-14
-3.98733e-14
-7.91842e-15
1.1859e-14
-1.64524e-14
-4.14124e-15
-3.74249e-15
-2.64621e-15
2.29136e-14
-2.20895e-14
-2.98436e-15
1.32569e-14
1.18433e-14
-1.87192e-14
-3.19663e-14
-1.16346e-15
2.87091e-14
-4.66612e-14
6.72263e-14
-1.26765e-14
-1.09802e-14
-2.98199e-14
9.02346e-14
-6.47734e-14
-6.72263e-14
4.65872e-16
-7.25454e-16
3.28931e-14
-3.23963e-15
2.58279e-14
-1.19466e-14
-9.90002e-14
2.29003e-14
6.36735e-15
2.51143e-14
-3.42948e-14
-2.84594e-15
3.20433e-14
-8.6316e-15
8.6248e-15
-1.49997e-14
-3.30148e-14
-2.50301e-14
1.72041e-14
-2.1623e-14
1.95906e-14
-5.12166e-14
-3.09472e-14
6.24769e-16
1.04548e-14
-2.52802e-14
0.0143877
-0.0256143
-0.0221319
-0.0663538
0.000588299
0.467945
-0.428992
-0.109036
-0.0845399
-0.0257199
0.0208164
-0.0635273
-0.0917557
0.0346688
0.00516339
0.00910581
-0.0561347
-0.0176788
0.000378481
0.0163836
-0.102592
-0.0251302
-0.000206682
-0.0174655
-3.29778e-05
0.0852475
0.0508832
0.00055981
0.0744234
2.95523e-05
0.0489984
-0.0740729
-0.0180683
0.0104068
0.191836
-0.0521489
0.0705969
0.00932032
-0.077054
0.0959085
0.038687
0.0948296
-0.000280651
0.00277057
-0.142363
-0.0103759
0.020063
-0.0190142
0.0678972
0.0213896
-0.067908
0.00246214
0.578898
-0.132162
-0.000225962
-0.0144498
-0.0173334
-3.94394e-15
-0.0150242
-0.0129759
0.0669691
0.114952
0.0194041
-0.022549
-0.00435515
-0.039673
-0.00290085
-0.0421843
-0.0510373
0.0424421
0.0173055
0.0577113
-0.100563
-0.0074797
0.0121905
-0.399777
0.00030545
-0.150865
0.016464
-0.00993434
-0.0793099
-0.0775692
-0.00940777
-0.0251229
0.042482
0.222075
-0.00023276
0.134602
1.00243e-05
-0.0266957
0.0054479
0.00118154
-0.0756986
-0.00013459
0.129532
0.0286737
0.00203561
0.0625439
-0.00404572
0.0263123
-0.00789132
-0.0405563
0.0239839
-0.0570849
0.0785375
0.0635818
-0.0431048
0.0129622
-0.196525
0.00377306
0.0125507
-0.0230699
-0.0308414
0.0766143
-0.205956
0.00341338
0.0464143
-0.0171306
0.00507282
0.121223
-0.101476
3.47102e-14
0.00931904
0.010176
-0.0183262
0.037258
-0.13734
0.01801
-0.212823
-0.0395461
0.0266937
0.0136101
0.136017
-0.0824477
-0.0266312
-0.0265241
0.0352215
-0.315236
0.00440617
-0.0446785
0.168718
0.00595596
0.0380169
0.333636
0.00709998
-0.0810216
-0.0200152
0.0320312
-0.0887507
0.0052806
0.0035465
-0.0159351
8.18324e-07
-0.317689
0.0803839
0.0261463
-0.0315876
-0.00129206
-0.00101295
0.357152
-0.00288109
0.020726
0.078515
0.132716
0.0012794
0.036101
0.0909718
-0.479388
0.0783161
0.246411
-0.0277422
0.022586
0.0120474
-0.0678781
-0.00507654
0.0201203
0.0935679
-0.139022
0.110896
0.0385426
-0.115437
-0.107747
0.316726
-0.00599281
-0.00525867
-2.34783e-14
-0.122077
0.0704045
-0.0416584
-0.0443986
0.184054
-0.0183314
0.193268
0.0634395
-0.0735849
0.0400142
-0.00536231
0.00151802
-0.0162757
0.00183338
0.025772
-0.00874926
0.128644
-0.0113873
0.0230641
-0.264874
-0.173874
0.0293167
0.00235839
-0.0285075
-0.0493101
-0.0564868
0.000324316
-0.166113
0.0727323
-0.0419018
-7.11779e-07
-0.0146002
-0.130147
-0.0308806
0.0710123
0.000346257
0.000771823
-0.0803926
-0.145051
-0.123646
-0.0159448
-0.0685229
-0.0374896
-0.0288192
0.000363302
0.0997526
-0.0210973
-0.0100405
0.186515
-0.0668892
-0.0313681
0.0247978
-0.0940044
0.139927
-0.0663203
0.0234826
0.0550088
0.0167853
0.00252283
0.0328378
-0.013633
-0.102823
0.149542
9.8296e-15
-0.0945717
0.139209
-0.0162775
-0.0126555
-0.216576
-0.0520781
-0.115511
-0.033586
0.027009
0.0169179
-0.0687575
0.00357516
0.00350636
0.0101059
0.0447669
-0.0271382
0.00100992
0.0233069
0.0534391
0.423967
-0.0056039
0.0171391
0.0122604
0.0264781
-0.0161786
0.0680608
0.00975465
0.480494
-0.0572519
0.316075
-5.64591e-07
-0.0397805
-0.0123304
-0.0158828
0.00166894
-0.000373898
0.350819
0.0370053
0.119739
0.055142
-0.029941
-0.00127809
0.0224535
0.0272123
0.0247234
-0.00607848
-0.0171863
-0.0351195
-0.0960634
0.00802133
0.0622713
0.0319701
-0.0131323
0.00503106
0.00175432
0.0613768
-0.0471563
-0.0401371
0.0010472
0.0179452
-0.0164881
0.0801377
-0.037586
-1.94733e-14
0.036665
0.0193521
0.0035102
0.0147775
0.0211541
-0.0107486
0.0616369
-0.0215444
0.00954366
0.00231561
-0.0645254
0.177261
-0.0226806
-0.341757
0.0100311
-0.0541242
0.00348439
-0.0496859
-0.103038
-0.0144287
-0.00360596
0.0174825
-0.0032549
-0.100375
-0.00217685
0.0234638
-0.0171813
0.0780913
0.0504857
-0.0149851
1.19526e-05
0.14736
-0.00338462
0.0323271
0.0547912
0.00193146
0.0117202
0.000307257
0.0339314
0.0381734
0.046005
0.0405218
0.284659
0.0478598
-0.067325
0.0725374
0.142694
0.205558
-0.0302833
0.0354669
-0.386194
0.00577182
0.00861408
0.0250883
-0.0092486
0.0484696
0.105311
-0.0849833
0.168566
0.0515817
0.111519
-0.00268548
-0.00723644
-1.72019e-14
0.0252344
0.0208059
-0.00505573
0.481998
0.0576064
-1.14048e-05
-0.000154722
-0.0442074
0.0608811
-0.0436328
-0.0782692
0.0652276
-0.000364308
0.0537681
-0.00945143
0.0072926
-0.0135357
-0.069157
0.0362681
0.312649
-0.00571921
0.0319709
-0.0166578
-0.00091885
-0.0111602
0.120622
0.14085
0.221066
-0.030225
0.163597
3.28023e-07
-0.0260255
0.0167411
0.000667519
0.119883
0.00042508
0.326045
0.0111267
0.123828
0.0961653
-0.018047
0.0622584
0.0283857
-0.00905273
0.0589598
-0.0500306
0.00796046
-0.0148376
-0.143032
0.00215744
0.0392948
0.0101958
0.0744168
-0.0259494
-0.00895491
-0.0711485
0.0204187
-0.0256308
0.036294
-0.0260508
-0.0205804
0.190681
-0.0656245
-3.36132e-14
-0.0450079
0.0242855
-0.010063
0.038042
0.0527426
0.0337792
-0.0348923
-0.00755174
0.00683973
-0.0339924
-0.0718387
0.0757784
0.00394885
0.0285057
-0.0238143
-0.0557311
0.116171
-0.00766437
-0.222855
0.118873
0.00225877
-0.134174
-0.034788
-0.00446681
0.152544
-0.0483764
-0.0143566
0.00976552
0.0181412
-0.0932991
1.89609e-06
-0.429836
0.0092222
-0.0296072
0.021905
0.000453228
-0.0244219
0.313448
0.0116865
0.00728633
-0.0572335
0.187969
-0.0533547
0.019416
0.147868
0.702276
0.0569982
0.0732448
-0.00521538
-0.0202656
-0.0146457
-0.0129216
-0.108105
0.0360658
0.011004
0.0188276
0.0702759
0.0838366
0.0387147
-0.02367
-0.0292866
-0.00323823
-0.015977
1.07631e-14
0.0492985
-0.196459
-0.0229493
-0.0233262
-0.0805781
0.011248
-0.00351245
-0.0592367
-0.00308112
0.0227919
-0.0730174
0.0559827
-0.00342794
-0.012888
0.010258
0.0068675
-0.0377131
-0.0192361
0.0535736
-0.0461184
0.0048762
0.127896
0.0285497
0.035734
-0.0198531
0.147478
-0.175624
0.00241499
0.0870396
0.00957637
5.3008e-07
-0.0952241
0.0037472
0.0136218
-0.0706279
-0.000282556
0.157923
-0.0242156
0.0526551
0.089662
-0.0318116
0.0357414
-0.00681881
0.0267428
0.0321095
-0.0164901
-0.0709709
-0.0958379
-0.0444968
0.0202358
0.0521315
0.0915778
0.0478671
-0.0179015
0.00368046
-0.291699
-0.21518
0.277909
0.0345502
0.0703388
-0.15855
0.106998
-0.0456509
7.42992e-17
-0.109075
0.0137054
-0.0175329
0.00286149
0.367663
-0.00636285
0.0401677
-0.0593786
0.137002
-0.0257186
-0.0946041
-0.0414025
0.00610531
-0.0197072
-0.374558
-0.0054334
0.0202081
0.00112153
-0.0155794
-0.117386
0.20638
0.0344163
0.800157
-0.00301383
0.00683715
-0.013948
-0.0208763
0.134258
0.155399
0.0150845
-1.82645e-06
-0.0207475
-0.0585899
0.00523604
-0.0061575
-0.000334426
-0.0018737
-0.0232862
0.464422
-0.172111
-0.0257748
0.0203065
0.0177144
0.00617847
-0.00703475
0.0207248
0.00741446
-0.0157057
0.0879423
-0.0228462
0.0425884
0.00738341
-0.00756697
0.062075
-0.294263
0.0515027
-0.0255503
0.0225427
-0.0390199
-0.00988303
0.00579032
0.0187559
0.156144
1.78336e-14
-0.0115913
0.00793228
-0.0208568
-0.00127006
-0.00572547
0.0286394
-0.132523
-0.0123041
0.0276071
0.0315535
0.116193
0.115722
0.0560494
0.0673686
0.0318123
-0.0876812
0.0302098
0.0393374
0.164032
0.0239606
0.0265414
0.12902
0.0832453
0.042477
-0.010056
0.0765978
-0.134368
-0.00267327
-0.0784407
0.0296472
-2.80224e-07
-0.10031
0.0300041
0.01348
0.0230338
0.000181507
0.0430669
0.122005
0.00965171
0.0532908
-0.0241704
0.0581779
0.0799803
0.0136407
0.00369013
-0.0171046
-0.29236
-0.239058
-0.0507517
0.0158077
0.0091129
0.211875
0.00898766
-0.0401299
0.0446042
0.00775998
-0.141613
0.0497625
0.12423
0.28717
-0.252589
-0.0489767
-0.071551
-5.83513e-15
-0.110291
0.0298388
-0.00795832
0.130347
0.0302499
-0.0326412
0.0239975
0.00732459
-0.0276671
-0.00919406
0.0177394
-0.00650397
-0.0635976
0.0183768
-0.00284667
-0.000830221
0.18848
0.0413551
0.0979951
-0.0228036
0.0100208
-0.0894648
0.00381633
0.00248289
-0.410773
0.00369597
0.00902643
0.00191056
0.010102
-0.0189308
5.10943e-07
-0.0497607
-0.00127657
-0.356336
0.015136
-0.000286668
0.010569
-0.0464147
-0.0833568
-0.0175474
0.00457041
-0.0468848
0.00967926
0.246675
0.0767573
0.0167073
-0.0306062
-0.00467398
0.0697394
-0.0397311
0.00927784
-0.00828691
0.172072
-0.00692289
-0.0308427
0.0127735
-0.00822739
0.0275564
-0.00145339
-0.0499741
0.0123909
0.0086005
0.021275
-1.51049e-14
0.058368
0.0302202
0.00873832
-0.0792436
-0.0567763
-0.00753602
0.152301
0.00962522
0.00804818
-0.0180129
-0.0831804
0.0593268
-0.039811
0.02513
-0.00373605
0.364641
0.0358852
0.0535082
-0.135543
0.00391916
0.0131178
-0.55352
-0.0184744
0.0312524
0.0407369
-0.0253829
0.0525821
0.0568098
0.00987595
-0.0429156
5.27148e-06
0.282493
-0.0214565
-0.0446902
0.0381956
0.00132288
-0.00552899
-0.150902
0.00288501
-0.0156841
0.00347913
-0.0753678
-0.0300806
-0.0995426
-0.212446
0.240561
0.0311823
-0.0518563
-0.0145944
-0.0889057
0.00673699
0.0424744
-0.0243782
0.0204309
-0.0512016
0.18004
-0.0860816
0.0165099
0.0513865
-0.011202
-0.124644
-0.0501007
-0.015901
2.70637e-15
0.0797629
-0.135123
0.0621154
-0.00880241
-0.056804
0.0217635
-0.0146979
-0.000378846
-0.00494083
0.015834
-0.0425009
-0.323211
0.116978
0.0461836
-0.0202279
0.148101
0.0185233
0.0143851
-0.0171447
0.00564205
-0.0139342
-0.113605
0.00112346
-0.357
-0.0286008
0.00240094
0.0132564
0.0230609
-0.0119009
0.0114412
-9.87172e-07
-0.0860782
-0.00160286
-0.0523928
-0.0339361
0.000325343
0.012133
-0.140691
-0.0323371
-0.0152444
-0.281137
0.0861461
0.113034
0.03149
-0.0385244
-0.0269391
-0.0918773
-0.0435553
-0.00728971
0.0429841
0.11965
-0.0616937
-0.0334609
-0.0110401
0.013172
0.00718515
-0.060814
-0.0190028
0.0933517
-0.0271284
0.0545194
-0.0272288
-0.00680786
1.43447e-16
0.0213079
-0.0048704
0.310657
-0.139404
-0.104144
-0.00798973
-0.145807
-0.088154
0.0451814
-0.0206554
-0.0231411
-0.0120079
0.0136969
0.054369
0.0171864
0.0278839
-0.0804951
-0.0416003
-0.0352047
0.506409
-0.0249846
-0.0678206
-0.00803285
0.0188273
0.00703508
-0.120649
0.106884
-0.0338844
-0.250028
-0.0186178
-2.9797e-07
0.0239832
-0.0668997
0.00615038
0.206444
-0.000823702
-0.147135
0.0476115
0.00649693
0.0749245
0.0121877
-0.00768561
0.0166188
-0.0181968
0.0918768
-0.0341228
0.0155222
-0.0341428
0.0503446
0.00424888
0.0265067
0.00275536
0.0108824
-0.137872
-0.0638784
0.0596852
-0.00777711
-0.160746
-0.010816
0.00592505
-0.000847496
0.128223
-0.0302124
-1.90206e-14
0.0477198
0.0530787
-0.0518438
0.0653123
0.0527677
-0.0160203
0.121929
-0.0028142
0.0246832
-0.00100903
-0.115784
0.00517047
-0.0065443
-0.0419704
-0.0288192
0.0426525
0.0132925
0.087534
0.0795164
-0.0134134
-0.022126
-0.0282209
-0.0334173
0.0537155
-0.0134059
-0.029181
-0.031724
3.04233e-06
-0.0258982
-0.00455059
-7.82513e-09
0.0329478
-0.0604714
0.0266332
0.160374
-0.000574029
0.0164773
-0.0181175
-0.0128794
-0.022349
0.0155649
-0.0733647
0.0413017
0.0237547
-0.282061
0.0568933
-0.0510295
-0.01831
-0.0330764
-0.0145337
0.00656339
0.0464942
-0.0697704
-0.0158829
-0.0438355
-0.124361
0.29115
0.121088
0.0197228
0.0202051
-0.0245725
0.0249988
-0.029615
4.86837e-15
-0.166095
0.0324058
0.0166787
0.0462633
-0.108108
-0.000606307
-0.00553042
0.41684
0.333844
-0.0092462
-0.0221858
0.0035664
-0.00330384
-0.0109315
0.0494719
-0.0015544
0.00319856
0.0106898
0.0149364
0.287391
0.0495216
-0.00101674
0.0075772
0.00671188
-0.00578017
0.0374523
-0.0350081
-0.230182
0.912061
0.211005
-1.31829e-07
-0.00396631
0.00247565
0.0073203
-0.000336338
0.00197262
0.20547
0.00865766
0.26239
-0.237347
0.00108169
-0.00133106
0.0114704
-0.0161504
-0.0297522
0.00443357
-0.00807683
0.00284802
-0.10564
-0.00079121
-0.00810282
0.0104342
-0.000696192
0.169333
0.0256779
-0.0110873
-0.00959507
0.018347
0.000246391
-0.00350923
-0.0147468
-0.270848
-0.881859
8.07576e-15
0.00409954
-0.00206886
0.00611921
0.00152889
-0.00139482
0.0305376
0.0546825
-0.0576412
0.0603751
0.00589909
-0.0591395
0.0191623
0.000737427
0.0553851
0.0229454
-0.00799575
-0.0255994
0.0242418
0.0431838
0.66149
-0.0305918
0.0303491
-0.00761184
0.0057511
0.0281933
0.0621215
0.0252477
0.666573
-0.113415
0.211883
-3.12343e-07
0.001618
-0.00102666
0.0115528
-0.0529444
0.000715863
0.239474
0.00171511
0.117667
0.0956987
0.0203928
-0.00657141
0.0388828
0.00509794
0.0668756
-0.0364353
-0.0277503
-0.00560337
-0.130093
-0.0373103
0.0394281
0.00977943
0.00369564
-0.0213272
0.00666616
-0.0957014
-0.0305224
0.0416979
0.00905819
0.0377938
-0.046757
0.111488
-0.0641358
1.87024e-14
-0.0799107
0.0257044
-0.0223774
0.0599749
-0.129496
-0.016643
-0.0406736
0.0221358
-0.00365012
-0.000773725
0.0393037
0.1798
-0.0619061
-0.156637
-0.0112229
0.0191157
-0.0097443
-0.0179981
0.0919592
0.00796524
0.00715612
-0.01821
0.00223633
0.00193722
-0.024903
0.00714895
-0.0334848
-0.0256464
-0.0465941
0.0400636
-2.00593e-06
0.239397
-0.0210455
0.0808364
-0.00269212
0.000232142
0.0146718
-0.017326
0.0371111
-0.0042313
-0.16587
-0.0123649
0.811164
0.0802346
0.00688508
0.210837
0.110311
0.0600949
0.000918512
0.0386675
-0.127324
0.00732315
0.0320583
-0.00396288
-0.0246081
-0.0685412
-0.0065368
-0.0892606
-0.294591
-0.182856
0.0173073
-0.00782678
-0.0136482
3.76575e-15
-0.0593112
-0.0689303
-0.0192629
-0.0666712
0.0554765
0.0060628
-0.11156
-0.0526032
-0.0508045
0.108507
-0.170966
0.104209
-0.00459631
0.0352633
0.13981
-0.063511
-0.0106127
0.193884
0.145559
-0.35103
0.119565
0.108718
0.0770677
0.0584366
0.000294915
0.158952
-0.327518
-0.189972
-0.00890261
0.0319651
2.7601e-07
-0.115184
0.135837
-0.00678969
-0.0767431
-3.73188e-05
0.172066
0.126124
0.0236677
0.0842959
-0.0393405
0.0642196
0.0429972
0.0107274
0.110429
-0.0825924
-0.125243
-0.129891
-0.00104681
0.031499
0.100096
0.155311
0.0479874
-0.0803373
0.114935
-0.10341
-0.143877
0.0720699
0.0636407
0.155223
-0.221691
0.187702
-0.128977
3.26621e-15
-0.0361306
0.00460169
-0.0196062
0.0553344
0.0649176
-0.0150771
-0.0101667
-0.0488892
-0.0185983
0.127705
-0.059317
-0.00158248
0.00217148
-0.0158205
-0.395758
-0.00638944
0.00481127
-0.00393804
-0.00803155
-0.00341184
-0.0812964
-0.00120185
0.208567
0.00435839
-0.00847927
-0.0208445
-0.00972387
-0.0637967
0.196944
0.0196748
2.30643e-07
0.00700514
-0.205271
-0.00451298
-0.0196806
-0.000167933
0.0409243
0.00805034
-0.0499069
-0.076996
0.00533029
-0.00708242
-0.00603535
-0.01849
-0.031068
-0.00590107
-0.00531371
0.00599133
0.0312398
0.00826096
0.0135468
-0.0193936
0.00813346
-0.0137749
0.313259
0.00534984
0.0618109
-0.0100808
-0.0094134
0.0074037
0.0223809
-0.0547401
-0.040683
-1.0805e-14
-0.0076887
-0.00908958
-0.0060738
0.00047027
-0.00801114
0.200239
0.0342807
0.0930749
0.104996
-0.0786449
0.127979
-0.0977727
0.0269095
-0.140985
-0.102184
0.0527385
0.0133058
-0.164912
-0.149021
0.145878
-0.0105829
-0.0192056
-0.0766546
-0.0367743
0.0127769
-0.119636
0.214402
-0.0105098
0.0520256
0.0668853
-2.72473e-07
0.0680885
-0.088943
-0.0268571
0.0360932
0.00114629
-0.0942556
-0.0577212
-0.0296596
-0.0460649
0.0206297
-0.0508202
-0.0576329
0.00275172
0.00806556
0.0396602
0.127867
0.101499
0.0715516
-0.0273419
-0.0877531
-0.128376
0.000349537
-0.0556267
-0.0704646
-0.0824737
0.102301
-0.064362
-0.0725315
-0.0965308
0.207954
-0.0921591
-0.0153769
1.85293e-14
0.007608
-0.0343616
0.0349495
-0.0844674
0.0118662
0.0131374
-3.31436e-15
2.24348e-14
-1.18079e-13
-9.51894e-15
-6.50627e-14
-1.21145e-13
-3.03215e-14
-1.17769e-14
-9.66365e-14
4.48254e-14
9.71749e-15
-5.1834e-14
-2.28331e-14
1.02564e-14
-1.63031e-13
-5.32136e-15
1.31051e-14
-4.30525e-14
-3.47714e-14
-4.27913e-14
8.74523e-14
-4.75515e-15
-1.35302e-13
6.0426e-14
-6.14782e-14
-4.5363e-15
6.7523e-16
1.7604e-14
-9.48918e-14
-1.26473e-14
5.22494e-14
2.99366e-13
-1.03976e-14
3.36395e-14
-1.34274e-13
-3.62895e-14
2.04267e-14
-6.95108e-14
2.63563e-14
3.47047e-14
-1.99188e-14
9.7448e-14
-1.35128e-15
-4.63292e-14
5.12966e-14
-5.71185e-14
7.98807e-14
9.86127e-14
-6.79018e-14
1.57982e-14
-4.6405e-15
-2.53903e-14
-4.49012e-14
-1.00238e-13
-1.20327e-13
-5.94011e-14
1.49401e-14
-8.07805e-15
5.76012e-14
-3.88115e-14
3.01249e-14
3.35663e-14
-3.96062e-14
-8.89823e-14
0.0254131
0.191268
0.167623
0.00904715
0.0722685
-0.025291
0.016808
0.0149988
0.0276554
0.0100051
-0.00932079
0.00847296
-0.0318857
0.54215
-0.000790226
-0.0102666
0.00146517
-0.025652
-0.0211002
0.0154363
0.0016221
0.452338
0.37373
0.380224
-3.12583e-07
0.0264129
-0.0206079
0.01326
-0.0758715
0.000505695
0.200637
-0.0227408
0.245457
-0.143176
-0.0023249
-0.0170515
-0.032812
0.0279177
-0.00058176
0.0270787
0.00812925
0.021096
-0.0511222
0.0205
-0.0612882
-0.0105921
-0.0163234
0.049406
0.0286763
0.0180475
0.0409863
0.00639669
0.0016891
-0.0120689
0.0369817
-0.141461
-0.208851
-2.10046e-14
0.00571627
-0.00245392
0.0431774
-0.00773942
0.000301653
0.0207278
0.0937554
-0.0691286
-0.0111322
0.0847589
0.0715361
0.145577
-0.0131991
0.103112
0.129584
0.0448234
-0.0131084
0.148182
-0.151328
0.034262
-0.0805444
-0.228455
0.0907169
0.0477046
-0.0105444
0.0371386
-0.0995366
0.00960318
0.0149729
0.0234289
-4.06775e-07
0.250495
-0.107661
-0.0202072
0.0252097
0.00154453
-0.0271854
-0.0878055
-0.0358718
0.0438123
-0.0224247
-0.160286
0.0218077
-0.029614
-0.0589849
0.255131
-0.225656
-0.273992
-0.0385576
-0.0155854
0.0761914
0.0316023
-0.0402213
-0.0511706
-0.0710744
0.0620296
-0.267999
-0.0969646
0.11519
0.146811
-0.368316
-0.00317104
-0.0169916
1.09964e-14
0.0708239
-0.0987566
0.0113779
0.0504604
-0.326802
0.000706608
0.0113047
0.00406744
0.00437995
0.0147796
-0.149161
0.342053
-0.528559
-0.117299
-0.0340537
0.121131
0.0117135
-0.0562627
-0.0413861
-0.164585
-0.00196426
-0.0667283
-0.0140365
0.24937
-0.0138109
0.0197314
-0.0481832
0.228967
0.0879504
0.00331412
-3.92451e-06
-0.130263
-0.00609835
0.0476517
0.139098
-0.000164665
-0.0231553
-0.123672
0.0292936
0.0344688
-0.286217
0.0437373
-0.130493
-0.0452173
0.115584
-0.00594151
-0.0196888
-0.125728
-0.0377585
0.00598704
-0.379732
-0.101795
0.0262206
0.0607123
-0.0455706
0.0581926
-0.00730387
-0.023806
0.303815
-0.0908127
-0.246178
0.0019906
-0.0445085
4.54714e-15
0.057781
0.016714
-0.242123
-0.101208
-0.18602
0.0411002
-0.146521
-0.0116098
-0.051697
-0.311242
0.11583
-0.2111
-0.0346167
-0.169005
-0.311949
0.0909089
-0.00665856
-0.170471
-0.0709861
0.0158428
0.678258
0.00358408
-0.216388
-0.0774973
0.00941003
-0.0324184
0.0243405
0.0159531
0.0436124
-0.0574692
1.71898e-06
0.14016
0.675691
0.0191765
0.0910278
-5.69591e-05
-0.0443449
-0.122569
-0.0187191
0.0316286
-0.0269846
0.0993065
-0.0601139
0.0423093
0.332177
0.246415
-0.106756
0.0275909
0.0275759
0.0852267
-0.0707443
0.00875077
0.142034
0.0334568
0.598028
-0.264763
0.0122122
-0.054111
-0.145139
0.195999
0.236049
-0.0050122
-0.0377268
-3.07343e-14
-0.0935399
-0.0568328
-0.00466643
-0.117082
0.22642
0.0134113
-0.0133098
0.0297124
0.0494158
0.0199163
0.0707315
-0.0303234
0.0539262
-0.161492
-0.02187
0.107581
-0.0122983
0.339762
0.0583401
0.000418192
-0.061113
0.00842427
0.0334396
-0.0344218
0.0279288
-0.0444391
-0.0347637
0.0937364
0.0845624
-0.111509
-6.90443e-07
-0.11144
-0.00927392
-0.0306728
0.226387
7.82363e-05
-0.0276914
-0.0658496
-0.0825587
-0.0288154
0.0550679
-0.0690717
-0.0076353
-0.00378686
-0.107133
-0.0911395
0.0567733
0.118427
-0.00188611
-0.024267
0.0248997
0.0695589
-0.0414607
0.0816481
-0.018391
-0.24287
0.308068
-0.167863
-0.111713
0.0730806
0.0156041
-0.0470968
0.0818148
-7.52671e-15
-0.113112
0.0518856
-0.0360974
-0.104958
-0.067662
0.0243519
-0.0304443
-0.322364
0.328656
0.0233853
0.0767337
0.00240351
0.0081812
-0.0153121
0.0309564
-0.00764444
0.0081092
-0.0195975
0.0284214
0.0821638
0.00762993
-0.0175721
-0.0399937
0.0156084
0.00420148
0.0131396
0.00930652
-0.101141
0.327025
0.0714278
1.02402e-06
0.015798
-0.0134788
-0.00154617
0.0240779
0.000598714
-0.0612579
0.00792962
0.0905424
0.0841846
-0.0294178
-0.0113639
-0.00365919
-0.0113656
-0.00812427
-0.0298635
0.0045434
-0.00575453
0.264957
-0.00456806
-0.000160428
0.0145876
-0.00793604
-0.266247
0.0440331
0.0165392
0.0107042
-0.0156394
-0.00251852
0.0110978
-0.00335742
0.13302
-0.166591
8.03204e-15
-0.036296
-0.0129008
-0.0066765
0.00152355
-0.0321552
0.0318962
-0.0157899
0.0806633
0.0149198
-0.0149141
-0.0676324
0.0294531
0.00163734
-0.0431937
-0.031619
0.0646937
0.00853511
0.1741
0.0353085
-0.0342763
-0.171878
-0.114466
-0.028205
0.0650922
-0.0483311
0.0220605
-0.0673952
-0.0384583
-0.0366057
0.0646102
6.59762e-07
0.01785
-0.134865
-0.00999564
-0.0708108
1.89063e-06
-0.00218586
-0.140124
-0.00690364
-0.0978981
-0.0742063
-0.0125165
0.0225039
0.0133027
0.170623
0.123281
-0.0969612
-0.0823586
-0.00259768
0.0269095
0.143382
0.0622138
-0.00680845
0.0156333
-0.171158
0.276829
-0.131608
-0.130287
0.0219766
0.0953638
-0.155102
-0.0715464
0.051583
-8.74695e-15
0.0428835
-0.146586
0.00617774
0.00206873
-0.0854265
-0.000298666
-0.00826021
0.0215379
-0.00425128
-0.0226957
-0.00323411
-0.0566775
0.010686
-0.0586997
-0.0114272
0.0262883
-0.308596
0.0597705
0.134317
0.00336624
0.0376914
-0.0453592
-0.00806126
0.00691593
0.216622
0.00531212
0.00634503
-0.0457847
-0.0140654
0.0109865
-3.06164e-06
-0.0738976
0.00991192
0.340325
-0.0197824
-0.000563981
0.000858658
-0.104896
0.0831945
0.0102784
0.0194153
0.32426
0.154054
0.175711
-0.0993844
0.118552
-0.00454521
-0.066882
-0.00922587
-0.44866
0.0163594
-0.0967487
0.0815571
0.0119854
-0.0465233
4.26725e-05
0.00987031
0.0103694
-0.026647
-0.15884
0.0167611
-0.016911
0.0132
2.03041e-14
0.0177798
-0.456558
-0.0477253
0.00738756
-0.0477753
0.0172238
-0.00953646
0.116912
-0.0232238
-0.0482313
-0.0205952
-0.00520345
0.0827642
-0.188343
-0.068939
-0.0317876
-0.041681
0.0103877
-0.0624137
0.0702929
0.0161019
-0.0256312
0.0220579
0.0377513
-0.0223992
0.0263391
-0.0192936
-0.183534
-0.141412
0.110185
4.49067e-07
0.0459663
0.0361679
-0.0131394
0.136405
-1.7788e-05
0.112649
0.0295419
0.0403993
-0.123168
0.026173
0.0261254
0.017352
-0.0568626
-0.180094
-0.0100538
-0.000327454
-0.0543265
-0.106034
0.100698
0.0963823
-0.0917328
0.00270719
0.0378294
0.0527801
-0.168047
0.00229368
-0.0660352
-0.0794138
-0.0702981
-0.0146617
0.0205096
-0.046683
-6.69703e-16
-0.027958
0.00827474
-0.284973
0.0182869
-0.0484348
-0.0139044
-0.0377112
-0.182021
-0.0118864
0.0760641
-0.153877
0.0431422
0.0113421
0.046109
0.0868399
-0.0674625
-0.00234481
0.0692823
0.0659689
0.236756
0.0455005
0.0119484
0.0106319
-0.0243671
0.0181126
0.031256
0.032601
0.481719
-0.19953
0.137954
3.0158e-07
-0.0243426
0.00881705
-0.00296067
0.0658931
0.000883683
0.121983
0.0525284
0.0209786
0.0794025
0.0245888
0.0219623
0.044977
0.0157794
-0.0105138
-0.0751323
-0.0550362
-0.00831006
0.0346796
0.00294212
0.0825104
0.0200853
-0.0122643
0.0869252
-0.0111605
0.000722495
0.0123945
-0.0114987
-0.00667865
0.0555719
-0.0601351
0.0895977
-0.0119405
-2.27501e-14
-0.0100878
0.0711112
0.00727528
0.0353283
0.0410316
-0.0237012
0.0231079
0.0202558
0.000638368
0.0225267
-0.0245336
-0.015613
-0.0176289
0.118666
0.0533453
0.0248336
-0.0215518
-0.00816886
0.0501581
0.0119615
0.0226965
-0.0173541
0.0410992
-0.0983968
0.0171569
0.0169954
-0.0218286
0.00133898
-0.0225953
0.00405426
2.77688e-06
-0.024719
0.0147162
-0.0189151
0.0592006
0.000387822
0.00509573
-0.111823
0.0454964
-0.00897565
-0.0825972
0.00304805
0.0162692
-0.0118399
-0.0606392
0.0659925
0.0911995
0.0952503
0.00180148
-0.0192714
-0.210226
-0.0015298
-0.00500707
-0.00319035
0.0223454
0.104597
0.0106374
0.0755726
0.0601361
-0.0214643
0.0243807
0.0353449
-0.0112114
1.64475e-16
-0.0230472
0.0757937
-0.066868
0.473062
0.072304
-0.0110425
-0.00385159
0.04378
0.0494778
-0.320044
-0.0458604
-0.0197048
-0.0167724
0.0223867
-0.381983
-0.0332097
0.00738961
-0.0978801
0.0214501
0.107899
-0.179862
-0.0185575
-0.248946
-0.0174586
0.00984137
-0.103474
0.0609979
-0.0254144
0.0624349
-0.0675372
4.49288e-06
-0.0262089
-0.274808
-0.0271874
0.00364767
0.000625119
-0.208931
0.0601853
-0.0998751
-0.0515133
0.000229041
-0.0159261
-0.0139925
0.0024201
-0.106235
-0.0291627
-0.0674701
-0.0437389
0.0605183
-0.00572818
-0.112868
0.047813
-0.00125105
0.0494954
-0.296023
0.0130758
0.0376375
-0.129638
0.0152538
0.113181
0.121404
-0.060427
0.106415
-5.8583e-16
-0.00468101
-0.00606405
0.0638144
-0.00100741
-0.0701229
0.0607953
0.00361203
0.0869748
-0.0458405
0.0599244
-0.184867
0.0759506
0.0317073
0.0176749
0.0448009
-0.0234363
-0.0196985
0.130671
0.0418726
-0.498833
0.0511891
0.0396748
-0.00174655
-0.0152118
2.71251e-05
0.180508
-0.0408664
-0.404209
0.311901
-0.0527553
2.65549e-07
-0.0361618
0.0442841
0.00724642
-0.0401586
-0.000743058
0.210473
0.0651186
0.0154339
0.0249112
0.0256783
0.0881163
0.00733124
0.0249754
0.0562069
-0.0418185
-0.0285459
-0.0202118
0.0185775
0.0353028
0.030599
0.0548322
0.0187095
-0.0456157
0.0137888
-0.0618374
0.0150826
-0.0533637
0.0363745
0.0542431
-0.0973531
0.133638
-0.0584551
5.02919e-15
0.0205932
0.0538312
0.0195621
0.0475597
0.0537609
0.0427331
0.0524195
0.464436
0.0745092
0.129174
-0.45446
-0.00417969
-0.000251969
-0.0393222
0.173104
-0.0280568
0.00964739
-0.0157406
-0.0170798
0.267598
0.0586864
-0.0256852
0.103898
0.00182276
0.0121621
0.102738
0.016239
-0.329461
0.506703
0.231971
-2.06078e-06
0.00178918
0.0544789
-0.00305595
0.0322997
0.000194953
0.163684
-0.00204814
0.355331
-0.452047
-0.0213945
-0.0206557
-0.0179672
-0.0159925
-0.0627344
0.0281159
-0.0120239
0.0158014
-0.0697427
-0.0238569
-0.0329165
-0.00027588
-0.014912
0.205406
0.138077
0.121402
0.00633397
-0.00620121
-0.0102214
0.00168729
0.00310277
0.08639
0.680775
2.43421e-14
0.0422252
-0.00655331
0.0019949
-0.0549683
-0.0889225
-0.0167719
0.0642506
0.0323741
-0.031478
-0.0240535
-0.0923159
0.2396
-0.321456
-0.0299173
-0.0101126
0.132738
-0.00319588
0.0801341
-0.113352
0.0105984
0.0250251
0.0151953
-0.0251957
-0.624265
0.0121317
0.0139293
-0.0468132
-0.00616977
-0.0122664
-0.0261919
4.36493e-06
-0.0106129
0.00413965
-0.00413194
-0.0159999
0.000143666
0.0187804
-0.0789185
0.0231374
0.0173299
0.174202
0.0178497
-0.101052
-0.0102853
0.00332656
0.0279269
0.1268
-0.296585
0.0562754
0.00370014
0.15084
0.194855
0.00375928
-0.0137902
0.0240577
0.054997
-0.0411095
0.0436026
-0.0629582
-0.0182964
0.328013
0.00474693
0.0362184
1.88562e-14
0.0473868
0.0194164
0.0637081
-0.0249468
-0.0720678
-0.00632749
0.0273077
0.0371523
-0.0701123
0.0365511
-0.16578
0.0636724
0.00199227
0.0188894
0.0329496
-0.0305899
0.0080046
-0.0156362
0.0531226
-0.241576
0.0164808
0.0314967
0.00448026
0.0133817
0.012524
0.208687
-0.0181712
-0.700084
0.132155
-0.256998
-4.38266e-07
0.000402576
-0.0296174
0.0105537
-0.0624558
-0.000858087
0.0900136
0.0390026
-0.0436739
-0.0658163
0.0276465
0.0313349
0.0181265
0.0115706
-0.00637131
-0.017677
-0.0200788
-0.0244006
0.0987541
-0.00670988
0.0271195
0.0086971
0.00285837
-0.0171384
-0.0218515
-0.0912377
0.00530487
0.0124967
0.0289713
0.0270442
-0.0865368
0.085615
-0.027947
1.49062e-14
-0.107426
-0.0110912
-0.000953126
0.0145561
-0.0171722
0.0120299
-0.0141364
-0.607563
-0.29481
0.179056
0.110635
-0.0204728
-0.0126808
0.0134188
0.00532579
0.0251251
-0.0136906
0.0626122
-0.00567679
0.0453126
0.0837263
-0.00181586
-0.027123
-0.0140009
0.0115088
0.0390199
0.0318464
-0.0337537
-0.212778
-0.0353349
-5.77244e-06
-0.00204576
0.126118
-0.0173462
-0.00749
0.000255386
0.0757585
-0.00758283
0.0276625
0.00768612
0.0732179
-0.0205205
-0.0107344
-0.00163602
0.00293299
-0.0123726
-0.0074643
0.00991712
0.136615
-0.0186476
-0.0630017
0.00771587
-0.00981095
0.0654635
-0.000306633
-0.00756574
0.00189378
0.0202205
0.00619321
0.00453294
-0.00707003
-0.0236645
-0.123922
1.85467e-14
0.027327
0.00661505
0.022969
0.00695994
0.0223838
-0.000666222
0.0344749
0.0437261
-0.0750795
0.00762942
0.0913905
-0.243362
-0.12126
0.00042674
-0.0257533
-0.0252023
0.0024698
0.11519
-0.00724947
-0.12407
-0.029478
-0.00308652
0.015746
0.0167195
0.0231687
-0.00430318
0.0448854
0.107086
0.0853023
-0.0641698
4.70003e-06
0.0386997
-0.0305328
-0.0142837
-0.0467977
0.000575957
0.0263651
-0.11107
0.0154939
-0.00294792
-0.136281
-0.0210255
0.0280898
-0.165328
0.0481686
0.133625
0.0319304
0.0320827
0.0720302
-0.240053
0.0897485
0.0068414
0.0986031
0.0159198
0.0241521
-0.147083
-0.0515257
-0.0624262
0.0570345
-0.0694401
0.144382
0.00588525
0.0529873
-4.47686e-15
-0.0594666
-0.0232692
0.529994
-0.132231
-0.0155287
0.00937427
-0.0140175
-0.328147
0.0756728
-0.0346339
-0.0707566
0.00863462
0.0013323
-0.00788612
0.0200595
-0.00234022
0.00505062
0.0143776
-0.00797033
-0.00431427
0.0263825
0.0131011
0.000256595
-0.00689385
0.00581174
0.0139511
-0.00926329
-0.0879068
0.00759237
0.0741773
-2.00216e-07
-0.00206522
0.0381959
0.00289917
-0.00212522
-2.8698e-05
0.0624216
-0.0178853
0.111531
-0.369129
0.0110968
0.0143419
-0.00336211
-0.00291186
0.00938698
0.0254581
0.00445104
0.0119648
0.40689
-0.00326148
0.0038866
0.00243137
0.0103076
0.470928
-0.0177735
-0.0129746
-0.0129236
-0.00488405
-0.0056976
-0.00470028
-0.0211066
0.0511687
0.214564
1.85533e-14
-0.00853527
-0.00332265
-0.00129238
-0.00287736
0.00214745
-0.0169333
-0.00453568
0.503612
0.290449
-0.014311
0.10441
-0.0203692
-0.00776237
-0.0025291
0.0153248
0.00993548
-0.00264776
-0.010614
-0.00401656
0.144281
0.0172601
-0.0174834
-0.0367179
0.00340459
0.00172104
0.084755
-0.0364414
0.0247527
0.159179
0.301355
-6.08004e-09
0.0022128
0.0135892
-0.00383669
0.0171075
0.000308204
0.203905
-0.0184209
0.348891
-0.307722
0.0146197
-0.0228131
-0.000983846
-0.00336924
-0.0179876
0.0037261
-0.00399735
-0.00834438
0.000341476
-0.00436936
-0.028713
-0.00425206
0.0034277
-0.0183454
0.0356762
0.0296903
0.0144282
0.0222143
-0.0092344
-0.00934514
-0.0294728
-0.0690275
-0.157936
-2.69078e-15
-0.0114196
-0.0157765
0.0146834
-0.0104863
-0.0173141
0.0216942
-0.00188805
0.0654117
-0.0202523
-0.00278699
0.190273
-0.034036
0.0281378
-0.0756623
-0.0590356
0.0383785
0.1033
-0.00801125
-0.0466576
0.0188788
-0.0546259
0.0259446
0.00402483
0.0106948
-0.0801941
0.0727671
-0.0283218
0.00996642
-0.0618155
0.068846
2.47305e-06
-0.0321437
0.0430542
-0.0262203
0.0394017
-0.00023671
-0.102096
-0.0579742
-0.00834929
-0.0429817
0.0437245
0.044777
-0.0198609
0.0572348
0.401795
0.0862148
0.0189841
0.00078615
0.0227924
-0.0765559
-0.0436885
0.0357962
0.154032
0.0917357
0.0350673
0.0462485
-0.0581337
-0.0403052
0.00688508
0.0543189
0.0287375
0.064329
-0.0465024
1.95191e-15
0.122136
0.0509052
0.037068
-0.0206705
0.0813142
0.23018
0.0145673
-0.434588
-0.19933
-0.022084
-0.0211136
0.012335
0.00161557
0.00803514
-0.0680031
-0.00270619
0.00676691
-0.000117798
0.00905447
-0.217204
-0.100802
-0.00643241
-0.0689427
-0.0118333
-0.00134953
-0.115188
0.000495551
0.293134
-0.442003
-0.210968
3.44487e-07
-0.00422041
-0.0646499
-0.00697898
-0.00305839
-0.00151394
-0.223101
0.0185502
-0.291066
0.167254
0.0066266
-0.0058213
0.000789293
-0.00269982
0.00699996
-0.00746532
-0.000352008
-0.00258841
-0.000169267
-0.00745942
0.0358075
0.00198285
0.0151542
0.0982494
-0.0867757
0.00547694
-0.0193335
0.0148164
-0.00715756
0.000823452
-0.0196259
0.0911063
0.21768
2.36312e-14
-0.00510574
0.00489225
-0.0166035
0.0113003
-0.00319215
-0.0219175
-0.0115111
0.292644
0.284401
0.0233035
-0.0732697
-0.000745891
-0.00831718
-0.00479329
0.0536458
-0.00771984
0.0104748
-0.0123733
0.0206288
0.105677
0.0509833
-0.00528084
-0.00248402
0.016185
0.013221
0.0216145
-0.00993981
-0.242535
0.837785
0.172713
-9.61566e-07
-0.00574966
-0.00544968
-0.00361715
0.0201785
6.51275e-06
0.196808
0.00255257
0.212054
-0.233534
0.00341033
-0.0114569
0.017434
-0.0140727
-0.0207411
0.0134531
-0.0129121
0.0107892
0.011276
-0.0121798
0.0270753
0.000569472
0.00797824
0.0940444
0.0219532
-0.00561129
-0.00199238
-0.0118479
-0.00596446
0.000191943
-0.0178211
-0.26017
-0.663454
-3.78923e-15
-0.00498379
-0.0038477
-0.0167554
0.00421381
0.00414108
0.00848182
0.0174007
-0.147555
0.0520934
0.00154678
-0.0778593
-0.0230265
0.0209626
-0.338531
0.00547033
0.0160393
0.0223377
-0.0454175
0.0237393
0.103414
-0.0341228
0.00503949
-0.0909275
0.126371
-0.011505
-0.122502
-0.0321759
0.173012
-0.0505839
-0.0251991
4.52221e-07
-0.0114989
-0.0142604
0.00443976
0.452307
0.000524669
-0.162652
0.00254945
0.00556313
0.117068
0.0476844
-0.0279632
0.0606815
0.00727011
0.0164016
0.0235568
-0.00383996
-0.0931745
-0.184648
0.00480998
0.103934
0.0390116
-0.0137172
-0.154826
-0.0176558
-0.0230229
0.0884188
0.0191828
-0.0366626
-0.000673951
-0.0376888
-0.0739582
-0.0544901
-2.07651e-14
0.0123664
-0.00767968
-0.0520668
0.0144063
0.089266
-0.00117131
0.0701848
-0.0147236
-0.00891452
-0.0686421
-0.0543894
0.0999826
0.789795
0.395843
-0.0670733
0.0604685
0.0397552
-0.0915046
-0.113373
0.0415803
0.0185915
0.0396718
-0.0332257
0.503796
0.0500182
0.0167751
-0.11882
-0.0564139
-0.0374479
0.0161285
-1.48662e-05
0.00284406
0.0521584
-0.0184643
0.0335003
-0.000108113
-0.00227491
-0.0625517
-0.0361455
-0.0125437
-0.0609689
-0.0050445
-0.0149892
-0.0382627
-0.0332694
0.0543967
0.135207
-0.0764906
0.00178504
-0.0263082
0.151184
0.0531464
0.0885096
-0.0305496
0.0771737
0.03573
0.0619252
-0.0843983
0.542249
-0.0963346
-0.0705487
-0.000230465
-0.0413164
6.61395e-15
0.0507804
-0.00983058
0.0228053
-0.189024
-0.0045858
-0.0423563
0.0420181
-0.0483866
-0.0297786
0.182591
0.109397
-0.0208298
0.00266964
0.00483981
0.270053
-0.00505386
-0.0213605
-0.020857
0.0381447
0.0411003
0.162279
0.0168173
-0.744864
-0.0274033
-0.00432497
-0.0471758
-0.0072289
-0.0488956
-0.0307827
0.0003866
2.58254e-05
-0.0169632
0.0124435
-0.0133856
0.0232408
-4.33019e-05
-0.0978398
-0.0186746
-0.0441572
-0.012581
0.0173208
-0.014292
-0.0208199
0.00782507
0.00303243
0.0200772
-0.00432571
0.0253413
0.0299221
0.00392277
-0.063115
0.0533954
0.00872442
-0.0458103
-0.019207
0.0354678
0.0430849
0.00538724
-0.0291345
0.0620117
0.0562583
0.0529098
0.0705607
2.97006e-14
-0.0090505
-0.00123362
0.0129363
-0.0257098
0.012328
-0.400568
0.0526938
-0.0423041
-0.0137011
0.0536027
-0.0316349
0.0634867
0.0125428
-0.104277
0.0290646
0.0280549
-0.021013
0.26615
-0.0135458
0.169089
-0.0549898
-0.0261832
0.0517346
-0.0001825
-0.00169232
0.113561
0.0467416
-0.0677134
0.0600185
-0.162159
-5.46724e-06
0.0286704
-0.0325935
0.0118069
0.331436
0.00104263
0.0498404
-0.0152676
-0.0239444
-0.00363406
0.0746828
-0.0432795
-0.0150094
0.0567886
-0.0270973
0.00741061
0.0362917
0.0743264
-0.0242585
-0.00433388
0.156457
0.0190582
-0.029922
0.0290167
-0.0292613
-0.211151
0.211402
-0.208042
-0.149398
0.0494804
-0.0150245
0.00271425
-0.0252946
9.32704e-16
0.0523
-0.00238038
0.0647942
-0.111618
0.120066
0.00841837
0.000381075
-0.0133023
0.070799
0.0612663
0.0696309
0.104027
0.000266368
-0.0230161
0.0911056
0.00782242
0.0148234
-0.228144
-0.0435086
-0.029497
0.0150732
-0.0251208
0.0664722
0.0697173
-0.000332385
-0.00685047
-0.0618767
0.0955851
-0.0329876
0.0557769
1.70875e-07
0.0318701
-0.0118878
0.0157801
0.088027
0.000558501
-0.0722061
-0.000361068
0.0943741
0.0609609
0.324488
0.0235451
0.0469452
-0.00841509
0.0194426
0.0785757
0.0339134
-0.0488
-0.11892
0.00724851
-0.284281
0.0325313
-0.014745
-0.00744441
-0.0237241
0.144411
-0.265411
0.169362
-0.0170731
0.0408227
0.0829503
-0.0688159
-0.0888227
-1.06103e-14
0.0076304
0.0166669
-0.0523678
0.020475
-0.0996796
0.0113001
0.00825666
-0.0416682
-0.365425
-0.0323091
-0.311686
-0.00110831
-0.00851094
-0.0224994
-0.124578
-0.00383671
0.00168872
0.00185033
-0.0489981
0.0428959
0.190891
-0.00300846
0.215246
-0.000604232
0.0272904
-0.108561
0.00158662
0.0426005
0.12443
-0.114202
1.24276e-06
0.0393919
-0.101804
-0.0140813
0.000488913
3.83393e-05
-0.104722
-0.00623971
0.0124653
-0.058467
0.0135179
-0.0119217
-0.00888364
0.00188855
-0.00407064
0.0325977
0.00818717
0.0245582
-0.285969
-0.0052429
-0.0304959
0.015791
0.0170526
-0.0116746
0.0327222
0.0129464
0.00275177
0.0279907
-0.00735085
-0.000592031
0.0207363
0.0238518
-0.29979
3.88184e-14
-0.00788428
-0.0114124
0.0151335
-0.0302823
0.0147469
-0.358057
0.00599143
0.0104222
-0.0317778
-0.0150787
-0.00106667
-0.0875523
-0.0438429
0.0425053
-0.0252283
-0.0170078
0.0901339
-0.0352697
-0.0246092
-0.0850894
0.00466993
0.0193356
0.0319446
-0.00376381
0.097373
0.00693284
-0.028515
0.0958991
0.0580515
0.0309254
-9.63705e-07
0.00709684
-0.00304269
0.0309
-0.0762173
-8.09868e-05
0.0693754
-0.0269191
0.0379928
0.0467334
0.0510221
-0.140518
-0.000683129
0.102607
0.197807
0.0636453
0.0055099
0.00441997
-0.0143656
-0.136952
-0.167218
-0.0208003
0.177726
0.0428037
-0.0279609
-0.100271
-0.0839419
-0.175829
-0.00519563
-0.0146055
0.0611637
-0.024292
-0.0303211
5.33142e-15
0.0237492
-0.0642699
0.204243
0.0420332
-0.0200315
0.0647105
0.0428312
0.0189746
-0.0107315
-0.0450581
-0.134956
-0.00641131
0.000221548
0.0209609
0.0226584
0.252259
-0.0311916
-0.0504582
0.499827
0.000767054
-0.0300821
-0.112223
-0.0258757
0.038141
-0.0117964
0.00642061
0.0524581
0.00772529
-0.0207768
-0.00163667
6.68232e-07
-0.254236
-0.0406724
0.027722
0.00302894
-0.000413299
0.0480362
-0.16665
0.00326309
-0.0257206
-0.0176811
0.0217139
0.0561987
0.00204378
-0.0408759
-0.0347798
0.177472
0.162033
-0.0147186
0.0142168
-0.0403306
0.332882
0.000132351
0.00737141
-0.0471652
0.267853
0.391295
0.142629
0.0186287
0.147737
0.149514
0.0117591
-0.0336365
-3.59202e-14
0.0232179
-0.000143995
0.0130358
0.0543772
0.199762
-0.0154575
-0.0367603
0.0547963
-0.0362561
0.0307575
-0.00414614
-0.0219195
0.00838437
-0.0186056
0.00208358
0.00764582
-0.00265682
0.0057329
-0.011177
-0.238573
0.0750399
0.0290076
-0.0396033
0.000357389
-0.00292145
-0.175011
-0.0574839
0.0325131
-0.215652
-0.260665
2.10502e-07
-0.00650664
0.152984
0.00220092
-0.0127712
-0.00176191
-0.256851
0.0150769
-0.222777
0.390518
0.0010804
0.0343156
-0.00359247
0.0201288
-0.00739757
0.0168795
-0.000859986
-3.90605e-05
-0.194924
0.0312925
-0.0116772
0.0118238
0.00184268
-0.303489
0.0679893
0.0304124
-0.0441624
0.0231244
-0.0100844
0.0282503
0.0398455
-0.183903
-0.131252
-9.74509e-15
-0.0228887
-0.0078228
-0.00175058
-0.00438045
-0.00199668
0.0207671
0.0365853
-0.0314028
0.0444834
-0.0199528
0.0470602
0.0292953
0.0112405
-0.0792798
-0.0528193
0.0697211
-0.0362977
0.100038
-0.0881954
-0.143985
0.0151856
-0.135186
-0.00992455
0.0284671
-0.0256621
-0.012325
-0.0517575
0.116265
0.0464692
0.144044
-1.64168e-08
0.0222168
-0.0209281
-0.0119025
0.0583538
-0.000583775
-0.0178424
-0.0682077
-0.00729327
0.00154004
-0.077188
-0.0220068
-0.0151202
0.0621513
-0.609212
0.0310037
-0.00396491
-0.00137726
-0.0748758
0.0665385
0.148991
0.056108
-0.0329759
-0.0480708
-0.0132446
-0.13483
0.0412797
0.0483949
0.0104011
0.0396607
-0.106257
-0.00300638
0.0729334
-4.34549e-15
-0.092942
-0.0998639
0.0318804
-0.0634372
-0.076708
0.0335776
0.242648
0.00872082
0.00263368
0.0212614
-0.148961
-0.0265352
0.0320874
-0.0574968
0.0277918
0.0888285
0.0494131
-0.0281555
-0.00546278
-0.0212402
-0.0543203
0.0740847
0.00254797
-0.0454652
0.0192868
-0.00195205
0.0687882
0.0417084
-0.0318824
0.032214
1.56931e-06
0.0401697
-0.0769446
0.0456399
0.124971
-0.00148363
0.00986483
-0.109626
0.0209026
0.00174878
-0.0274835
-0.0967031
-0.0331389
-0.0116886
-0.456737
0.0453602
-0.0200064
0.0504362
0.0174293
-0.0569888
-0.0524262
0.0213816
-0.0983343
-0.0292459
-0.0433576
-0.476215
0.45971
0.461594
0.00506782
0.105285
0.0524392
-0.0193478
0.00925881
1.23342e-15
-0.396575
0.0524793
0.0121127
-0.0452723
-0.421765
0.00215007
0.0445119
0.00907426
0.00322983
0.00400474
-0.186925
0.157528
-0.00200523
0.145305
0.0380438
0.259566
0.0392522
0.155474
0.0296596
-0.0715475
-0.0025741
-0.372309
0.00469848
0.0598374
0.00998734
-0.0770434
-0.122709
0.0703212
0.0354396
-0.00853078
-1.86556e-06
0.123875
-0.0265207
-0.00685251
-0.00585715
0.00296666
0.0187585
-0.316926
0.0467318
0.0422488
-0.0358666
-0.0516493
0.0508834
-0.00537417
-0.00769842
0.203938
0.0589482
-0.0303173
0.00314104
-0.0680936
0.131831
0.07897
-0.102903
0.0287594
-0.0491508
0.248087
-0.0789911
0.224565
0.0661812
-0.0246081
-0.273686
0.0412083
-0.0249103
1.96474e-14
0.0708275
-0.102062
-0.080931
0.066954
-0.0680171
0.0337093
0.0738861
0.00370767
0.0267925
-0.0951621
0.0877957
-0.132336
0.0142512
-0.0768039
-0.0754248
-0.11334
-0.0487545
-0.188006
0.0729435
-0.069031
0.00698439
-0.0436919
-0.0664574
-0.0596974
0.00221731
-0.0180265
-0.366539
0.105006
0.0713296
-0.0515555
2.36126e-06
0.170013
0.0225798
-0.0292379
0.0541965
0.000229467
-0.0208523
-0.013446
-0.0327976
-0.0144049
-0.0996547
-0.0878496
-0.063365
-0.00323317
-0.0202145
0.365219
-0.742528
-0.313832
-0.0234777
0.00707416
-0.100524
0.504891
-0.00129635
0.0409309
-0.0344475
0.251877
0.314421
-0.0668235
-0.146761
0.994361
-0.0718283
-0.0449911
0.0216183
-3.12564e-14
0.0859309
-0.0675675
-0.0202909
-0.0474007
-0.0985821
0.00903539
-1.26433e-12
-3.75314e-13
2.066e-12
1.06542e-12
3.12313e-13
-1.16197e-12
8.82697e-14
-3.84759e-13
1.35958e-12
-4.03639e-13
-6.50932e-13
-1.49217e-12
1.01812e-12
-1.22432e-12
1.21717e-12
-1.12268e-12
2.69844e-13
-2.08383e-13
8.24344e-13
3.11834e-12
-5.00883e-13
3.34134e-13
3.04464e-13
-1.29585e-14
1.0253e-14
-2.12277e-13
1.46559e-12
6.17999e-13
2.18246e-12
6.18913e-15
-4.04085e-13
-6.29263e-13
2.26522e-14
-9.72246e-13
-2.76982e-13
3.86058e-13
7.06211e-13
1.14428e-12
4.0382e-13
2.28856e-12
1.62146e-12
3.75247e-13
1.47744e-12
-2.04782e-12
-1.68523e-12
-3.20448e-12
3.91119e-14
-5.35369e-13
1.33283e-12
-5.92485e-13
3.13177e-13
-1.07562e-12
-8.29301e-13
-6.6935e-13
1.02138e-12
-1.14428e-12
-1.59516e-13
9.02114e-15
-2.73867e-12
2.62599e-13
-4.79183e-13
-6.30564e-13
1.23049e-13
1.47874e-12
-0.0009712
-0.0831055
0.075739
-0.021869
-0.0406277
-0.0203705
-0.0326331
0.0704452
0.0107654
-0.0255999
-0.0250967
-0.0227847
0.0767624
0.51889
0.0179077
0.0195599
0.0173331
0.0300837
-0.00250986
0.111215
-0.0262901
0.43934
-0.198596
0.217637
1.71827e-07
-0.0406204
0.0552453
-0.00639517
-0.0503146
0.000292294
0.257832
0.0722646
0.131547
0.0898546
-0.0289824
0.0331261
0.0320345
0.00390693
0.0694834
-0.0562693
-0.0621409
-0.0509137
-0.167678
0.0121159
-0.0153113
0.0465639
0.00627767
-0.0338848
0.0558471
-0.00751665
-0.0723116
0.0789641
0.030181
0.0684187
0.0324516
0.0699416
-0.0599649
-3.36062e-14
0.0360381
0.0608512
-0.000683215
0.0465725
-0.0238661
-0.0326856
-0.00546081
-0.369862
0.18223
0.00533967
-0.0274262
0.00750802
0.000671765
0.00175162
-0.00355738
-0.00378685
-0.00321233
-0.0164751
-0.000916929
-0.0107932
0.0228702
0.00128985
0.0121699
-0.00398154
0.00328478
0.0120268
-0.0103194
0.00327715
0.120544
0.0676083
7.21752e-08
0.00241516
0.0132412
0.00829905
0.00578044
-7.1824e-06
0.0592708
-0.00807889
0.133638
-0.536318
0.00268445
-0.00853652
0.000664718
0.0040477
0.0126344
0.0169009
-0.0128234
0.00551309
0.528274
-0.000516821
0.0293643
-0.00587547
0.0113188
0.492418
-0.0404464
-0.0215704
-0.0111485
-0.00455498
-0.0112069
-0.0146932
0.000874014
-0.13263
-0.0639484
2.97006e-14
-0.0059037
-0.00194788
-0.0167204
-0.00498592
0.00331295
0.049501
-0.00722919
-0.032232
0.0638955
0.00399058
0.0815251
0.0500361
0.205209
-0.134571
-0.121229
-0.0175685
0.0273624
-0.0242697
0.0463339
0.0623585
0.0347287
0.0302509
-0.0730933
-0.0457488
-0.0668705
-0.0125027
-0.0186804
-0.0852283
-0.0223895
0.0664424
-1.27116e-06
0.0945246
-0.0148193
0.0947212
0.0937027
0.000715535
-0.0423651
-0.0228236
0.000459081
-0.0297488
0.0886728
-0.048737
-0.00512816
0.305317
-0.334527
0.0866149
0.0470737
0.0572079
-0.099493
0.135151
0.155106
-0.0622438
-0.263171
0.0338114
0.0674749
-0.110805
-0.118134
-0.0451729
-0.150784
-0.0512383
-0.0277445
-0.00629459
-0.0638548
-6.09653e-15
-0.0424275
0.135793
0.133577
0.128953
-0.0576464
-0.0433798
-0.00824608
0.0147087
0.0368343
-0.499831
0.327851
0.00565933
0.0105704
-0.0275585
0.207428
0.0155027
-0.0190445
-0.00501753
0.0121257
0.00294898
0.106321
0.00342058
0.199853
-0.00496712
0.00917742
0.0943838
-0.000516776
0.0190034
0.0182788
-0.0291279
2.84292e-06
-0.0248231
-0.172881
0.000770107
0.00836328
-0.000201524
-0.0180254
-0.0190499
-0.000324493
0.0372203
-0.0181968
0.00155636
-0.026717
0.00145514
0.0281127
-4.13298e-05
-0.000753736
-0.0259659
-0.09166
-0.000191839
0.00866067
-0.00436319
0.0126006
0.0326394
0.291655
-0.00379473
-0.0415183
0.0213243
0.0100421
-0.00743523
-0.0214097
0.0388088
-0.0294126
-2.28222e-14
-0.0177636
-0.00610446
0.0119271
-0.0216229
0.0226812
-0.0989551
-0.00733652
0.0256905
-0.0309397
0.00406436
0.0520257
0.00272934
0.00131859
-0.0184741
0.00871713
-0.0100794
0.276118
0.0102379
-0.00669051
0.018415
-0.0262335
-0.0996978
0.00354339
0.0155602
0.160664
-0.00172354
0.00687004
-0.00851707
-0.00324619
0.0196581
-4.93228e-07
0.0261589
-0.00158622
0.192027
0.00885441
5.20253e-05
0.00344622
0.0373629
-0.0452894
-0.0180729
0.0522352
-0.365236
-0.0582684
0.229474
0.0479905
-0.0478524
0.0106029
-0.0273569
0.0203868
-0.189925
-0.0254354
-0.0193814
-0.0594151
-0.000258664
0.036576
0.0166755
0.0304327
-0.00426008
0.0236407
0.00248056
-0.0152184
-0.00128269
0.0420888
6.60082e-15
-0.0238433
0.171841
0.18209
0.0819897
-0.0566651
-0.0209579
-0.039809
-0.00174391
0.0344693
0.00280698
0.0247426
-0.00894836
0.0200663
0.0228439
-0.00516248
-0.0232506
-0.116949
0.0175563
-0.0564451
-0.0524383
-0.0400368
0.0734564
-0.00284695
-0.0292554
0.0737046
0.0121441
0.00460407
0.0403597
0.00125805
0.0298068
1.08195e-08
0.0242374
-0.00913172
-0.113477
-0.0151218
-8.65421e-05
0.0306304
0.0588881
-0.012426
-0.0460825
0.00455225
0.016892
0.0116191
0.201722
-0.267111
-0.0533099
0.00432125
0.000858274
-0.066886
0.332964
-0.0126525
-0.0316749
-0.267559
-0.0159771
0.00524596
0.0018463
-0.026912
-0.00660648
0.0344631
-0.0107045
-0.00968786
0.0255807
-0.025455
1.38509e-15
-0.0326133
-0.138284
-0.17938
-0.0407856
0.0253579
0.0332758
-0.0594449
-0.00449963
-0.0317716
0.019609
-0.140377
0.0619323
0.00513364
0.0134204
0.0251347
0.0358343
-0.00376091
0.165165
0.0440711
0.261898
0.0253279
-0.0166634
-0.00161143
0.0100311
-0.0489137
0.0186322
-0.00995269
-0.224346
-0.0757476
-0.153558
5.71195e-07
0.00845688
0.00609621
-0.0053064
0.130557
0.000164243
0.0903417
-0.0160272
0.0502069
0.0114288
0.0456097
-0.00432939
0.00718363
0.0445175
0.0682546
0.0166672
-0.0145078
-0.0248048
0.0740399
0.0266273
-0.0376691
0.0492976
0.0386829
-0.0563995
-0.00123157
0.115663
0.0336446
-0.154874
0.0440195
0.0325605
-0.0895851
0.0116627
-0.0236968
-4.93386e-15
0.0348634
-0.0098609
0.000382733
0.0432206
0.23375
0.0139045
0.0107125
-0.0768577
-0.0550838
0.0330383
0.080189
-0.0809933
-0.144337
-0.0124351
0.1792
0.0189207
0.000677941
-0.000822182
-0.0445535
-0.228468
0.0357428
-0.0400521
-0.217911
0.125744
0.0125634
-0.036824
0.0588856
0.00251655
-0.0599675
0.127442
-1.17222e-06
0.0171222
-0.00251239
-0.0039479
-0.0584701
3.68993e-05
-0.0380118
-0.00183517
-0.046894
-0.0132415
-0.18744
-0.0252462
0.0450307
0.00947773
0.0144652
0.0150162
-0.0231202
-0.0132485
0.0335653
-0.0177643
0.0400222
-0.0084571
0.0148825
-0.0908492
-0.0251816
0.181893
-0.15371
0.189474
0.108911
-0.0172115
0.0744419
-0.0860232
0.0698534
1.17956e-14
-0.028458
-0.0272312
0.0179675
0.116102
-0.067967
0.00351612
-5.84914e-14
-7.78224e-15
4.32753e-14
-7.86571e-14
3.00032e-14
-1.87476e-13
3.30465e-13
3.98583e-14
-2.5142e-14
-4.80897e-14
-1.64476e-13
-3.85053e-13
2.37339e-13
-1.94896e-13
-7.8202e-14
7.81848e-14
-2.4233e-13
1.43035e-13
-1.45611e-13
3.23755e-13
-1.93258e-13
2.12037e-13
-2.92624e-13
1.37634e-13
3.52544e-14
4.07034e-14
6.46301e-14
1.54039e-13
1.26385e-13
5.44151e-15
-8.97277e-15
-5.71402e-14
-3.20964e-14
2.06895e-13
-2.08496e-13
3.63827e-14
-1.19389e-13
3.33374e-13
1.30947e-13
1.71222e-13
1.72945e-13
-2.2838e-13
-2.01171e-13
-2.02184e-13
-3.23755e-13
-4.64711e-13
8.71413e-14
8.11941e-14
2.3514e-13
-5.12296e-14
2.84542e-13
-2.41586e-14
-1.9189e-13
-9.37559e-14
2.07907e-14
-1.03939e-13
4.43142e-14
3.17847e-15
-3.37592e-13
-1.43545e-13
-2.32327e-14
-2.01513e-13
-1.75231e-13
-3.58973e-14
-0.0720893
-0.00340636
0.0194624
0.035917
0.15542
0.065871
-0.0511364
0.183749
0.0410401
-0.0190784
-0.0229467
-0.453343
-0.0795009
-0.0518936
-0.0828374
-0.130716
0.0987916
0.0827178
0.0284529
0.0103819
-0.066592
0.0320835
0.0883246
-0.0160668
2.12082e-06
0.0657241
-0.0388615
-0.00767088
-0.500553
0.000807286
0.00360633
0.0462287
-0.0277507
-0.0180207
0.106718
-0.0158706
0.0929184
-0.00534835
0.050632
-0.0522508
0.0024284
-0.0114656
-0.016657
-0.0271094
0.0159382
-0.0467907
-0.0279174
0.00845118
-0.0442328
0.158869
-0.43725
0.418628
-0.0228309
0.037672
0.155734
0.000482718
0.0280036
2.5355e-14
0.0569993
-0.0367482
-0.0590327
0.12845
-0.0551713
-0.0346872
0.00792557
0.0210754
-0.0233523
-0.00239558
-0.131761
-0.0251167
0.0306625
-0.0376875
-0.0195494
0.162289
0.130382
0.00787715
0.177408
0.0783771
0.0927305
0.00362046
-0.0316354
-0.0123967
-0.0726052
-0.0190164
-0.00300742
0.024408
-0.00933997
-0.10345
6.80749e-07
-0.167217
0.0633531
-0.00786338
-3.60302e-05
0.000219323
-0.045473
-0.121062
-0.0595406
0.00330557
-0.00449839
-0.13159
-0.0474623
-0.130014
0.190037
0.0348903
0.131899
0.0549097
0.0601191
0.146583
0.00112725
0.00720955
-0.132894
0.0134312
0.0199509
0.0730217
0.0924639
0.0466815
-0.0423411
-0.100339
0.105786
-0.00441699
-0.0286961
-3.75711e-15
0.0123275
0.1224
0.0409716
-0.00869078
0.0141227
0.0629396
0.0179892
-0.0212012
-0.0221122
-0.104692
0.325343
-0.146552
0.0104286
-0.0249226
-0.084692
0.207511
-0.00309066
0.0141388
-0.171276
-0.00826684
-0.0510113
-0.0235345
-0.0663958
0.0123349
0.000485427
-0.0887676
-0.0846847
0.0409645
-0.0274532
0.076282
-4.96557e-07
0.161646
-0.0078763
0.0109541
0.00907333
-0.000669881
-0.124528
-0.331415
-0.0888525
0.00414927
-0.0003353
-0.0322958
-0.034527
-0.0161253
0.0525894
0.253623
0.35049
0.303645
0.0102976
0.0232164
-0.0453373
-0.17698
0.00066139
-0.0528306
-0.00988781
0.0934152
0.222086
0.0488797
-0.0719993
-0.285404
0.306121
0.0679279
0.0446987
2.02347e-14
0.0537653
-0.0451459
-0.0416957
-0.0304025
0.106702
-0.0513498
-0.00416577
0.025743
0.118534
-0.144101
-0.0207446
-0.0167587
-0.00653842
-0.00321622
0.389547
-0.0215334
0.0078467
-0.0716026
-0.0284825
-0.00619637
-0.131442
0.017671
-0.584475
0.0018389
-0.000406907
-0.0363087
-0.017803
-0.0416371
-0.0371479
0.0187489
4.52827e-06
0.0454265
-0.297351
-0.00404889
0.0247078
-0.000489185
-0.0578683
0.0291104
-0.0207063
0.107695
0.0232381
-0.00303424
0.00582381
0.0100737
-0.00288861
0.0242645
-0.0244951
0.00616944
-0.0325754
0.0107945
0.0159206
0.00609287
0.0120629
0.0512463
0.179007
0.00515888
0.0739004
-0.0595873
-0.0236289
0.0489221
0.00647563
0.0319667
-0.0202095
5.74961e-15
-0.0199131
0.00341834
-0.00983929
0.0049988
-0.00952956
0.210788
-0.116298
0.0238218
-0.0769363
0.0898622
0.0305948
0.0247477
0.0233569
-0.0523071
0.114659
-0.000654674
-0.0137806
-0.0452888
0.0139837
-0.64425
0.000815864
-0.0207927
0.0878861
0.0216845
-0.0170842
-0.101259
-0.0539833
-0.609952
0.196317
-0.194649
-8.57255e-07
-0.0178314
0.0220953
-0.00248661
0.120191
0.000176537
-0.0812637
-0.0104791
-0.0346838
-0.0553969
0.0879038
0.0158514
0.0364844
0.00857991
-0.0119119
-0.0344275
0.0387166
-0.00742421
0.0713157
0.00928158
0.0183587
-0.0245504
0.0326347
-0.0257674
0.0528003
0.139709
0.0396521
-0.0261523
0.0147112
-0.0575679
-0.0712341
0.138852
0.0914357
1.57982e-14
0.142853
-0.0541187
-0.0157399
-0.0224432
0.0316561
-0.0343565
-0.0447128
0.0472839
-0.118491
0.0393885
-0.0117126
0.0218968
-0.0397967
0.297071
0.0568748
-0.0266443
0.00471045
-0.00139003
0.047925
-0.141691
0.0256456
0.0118953
0.0107223
-0.0616018
-0.00116716
0.0851994
0.0146767
-0.358229
0.0250554
-0.160002
8.57371e-08
-0.00879135
0.00598314
-0.00677106
-0.374536
-0.00032664
0.0191178
0.0193071
-0.085267
-0.049899
0.0457487
0.0162622
-0.0270686
-0.0122113
-0.0427395
0.00590009
-0.0197236
-0.00731255
0.232272
0.00603952
-0.224689
0.0213473
-0.0140828
-0.02132
0.00156944
0.0159541
-0.0610637
0.0189122
0.0932545
0.0691775
0.0607652
0.0540346
0.0478193
-2.25749e-15
0.00782415
-0.0258798
0.0542483
0.0347123
-0.0372475
-0.0266633
0.0288263
-0.0141929
0.0260012
0.0209533
0.0457248
-0.000914139
0.00177601
-0.131988
0.00832113
-0.326599
-0.00376479
0.00460142
-0.662684
0.0111408
0.0238931
0.0507994
-0.00684637
-0.0662108
0.0258148
-0.0266651
0.00400563
0.0188683
0.011388
0.0022672
8.96436e-06
0.608482
0.013449
-0.0274454
-0.0203565
0.00174362
0.0150109
0.386578
0.0115739
0.00268629
0.00199975
-0.133223
-0.0938019
-0.0323172
0.00733382
0.142024
-0.208224
-0.151821
-0.0291601
-0.0417472
0.00860437
-0.54315
0.0152524
0.0229614
0.0243602
-0.169984
-0.195541
-0.020028
-0.0199511
-0.144368
-0.0911598
-0.0151078
-0.0237079
-8.32966e-15
0.00379239
-0.074426
-0.0113666
-0.23226
-0.0971895
0.0169542
-0.064152
0.0055144
-0.0249325
0.0471618
-0.11948
-0.210558
0.0118695
-0.219126
0.00858897
0.0290708
-0.00906221
-0.0255384
-0.186129
0.0302344
-0.0130421
-0.19472
0.0201958
-0.172732
0.0141359
0.0237741
-0.109084
-0.040768
-0.0622518
-0.00114468
9.1752e-07
0.0846858
-0.0963924
-0.0249353
-0.0104929
0.00115625
0.0898745
-0.0274269
0.0218026
0.0313219
0.00930886
-0.15599
-0.190544
-0.00643935
-0.0538965
0.133261
-0.423615
-0.231258
0.0078259
-0.0631286
-0.0522093
-0.156604
-0.0113909
-0.0431295
-0.0388702
-0.342342
-0.338306
-0.408225
-0.242912
0.309378
0.00426141
0.0585433
-0.0507953
-3.38204e-14
-0.0476777
-0.160376
0.0114215
-0.289534
-0.467006
0.04638
-0.166601
-0.0327061
0.00987143
-0.0114433
0.178372
-0.0836709
-0.102349
-0.0650541
-0.0200476
0.0380792
-0.0574581
-0.0385721
-0.0725132
-0.0883963
-0.0757905
-0.12931
-0.0133674
0.0346492
0.00204431
0.102717
-0.0170822
0.0653947
-0.00634466
-0.00837264
4.96345e-07
0.0385357
-0.12996
-0.014661
-0.171715
5.72549e-07
0.0230607
0.0204981
-0.0527672
0.0382204
-0.106915
0.0885527
0.005567
-0.0306776
0.139614
-0.0546761
-0.00121864
0.0318859
0.0116303
-0.051318
-0.0140029
-0.0123046
0.0882215
0.0102637
-0.061254
0.158644
-0.260379
-0.104386
-0.0144986
-0.0149795
0.120852
0.0233509
-0.00992519
2.15263e-14
0.113394
-0.0661614
0.0629559
-0.00755572
0.0744593
0.0143705
-0.0153052
0.00380183
-0.00938507
-0.012189
-0.0709476
0.0102852
-0.0302166
0.041112
-0.0223782
-0.0300777
0.263701
0.044299
-0.141119
-0.0980605
-0.0113802
0.0806931
0.00369202
0.0535952
0.29937
-0.00269398
-0.0285423
0.0855234
0.0266265
0.042378
9.70823e-06
0.185935
0.00232632
0.178712
0.00959678
0.000642924
0.0039447
0.0825288
-0.0112105
0.0179968
-0.000474988
-0.374148
0.0200367
0.583801
0.022871
-0.0629025
0.162587
0.154159
0.00131584
0.109554
-0.0156867
0.13504
-0.13576
-0.00325055
0.00326651
0.101245
0.0340483
0.024785
0.0786328
-0.0248592
0.0403259
-0.0135785
0.00748249
3.95628e-16
-0.0200091
0.171778
-0.0118945
0.0269983
0.0358531
0.0134801
0.057731
-0.209538
0.0117625
0.030294
-0.0411216
-0.0288938
0.0130091
-0.194136
-0.0178139
-0.0397176
-0.071486
-0.0688169
-0.132394
-0.107817
-0.0581835
-0.0307036
0.0554946
-0.0501549
0.0841133
-0.0286323
-0.0159716
0.254089
0.299312
-0.130764
8.88274e-07
0.0792724
-0.000752833
0.0300879
-0.0500196
-0.00124701
-0.148054
0.0590012
-0.165888
0.155864
0.0246087
0.0111664
0.017401
-0.0160188
-0.0944121
-0.0542786
-0.00957293
-0.00858717
-0.147902
-0.0316045
-0.18219
-0.0756629
0.00307302
-0.0476164
0.0291005
-0.00195498
-0.117762
0.0537038
0.012192
-0.00102051
0.0217085
-0.0261957
0.0195354
8.34882e-16
-0.0419912
-0.0670581
0.0622215
-0.0127022
-0.149046
-0.0613753
-0.10332
-0.0295882
-0.00321897
-0.0304937
-0.0495646
0.0355828
-0.0268131
0.0326785
-0.00456874
-0.223185
-0.00935667
0.00879578
0.280105
0.0695107
-0.0925678
0.155701
-0.02823
0.00060396
0.0396703
-0.00264574
-0.0576039
0.0586444
-0.0386181
-0.0821916
4.69654e-07
-0.273826
-0.0716074
0.0127163
-0.00808888
-0.000959195
0.0226599
0.333775
-0.0613518
0.059922
-0.0592959
0.102441
0.0381538
-0.0224022
-0.0137799
-0.390676
-0.160095
-0.118149
-0.00734887
-0.0192891
0.0143051
0.147306
-0.0149919
-0.0126157
-0.0476508
-0.0220739
-0.0646586
0.0410857
0.0294616
0.137674
-0.129922
-0.000307074
-0.055695
3.00727e-14
0.0181558
0.0806079
-0.0218002
0.0336804
0.0721681
-0.0361063
-0.0626124
0.0212256
0.0139021
0.0370138
-0.139648
-0.378751
0.0765973
-0.479562
0.0184362
0.0676161
0.00667913
-0.0460319
0.0428625
-0.0772211
-0.00255814
0.0554147
-0.0090714
-0.147267
0.00359799
-0.0275685
-0.00567004
0.081368
-0.00982809
0.0570029
-3.4255e-06
-0.0207444
-0.0092674
-0.0264714
0.00686202
-0.00079224
0.00679541
0.0403824
0.0662744
0.000690796
-0.0506031
0.0215281
-0.154986
-0.0368932
0.00826697
-0.083089
0.472794
0.273543
-0.0204514
0.0102735
-0.0226434
-0.134679
0.00120249
0.00531522
-0.0154624
0.014948
0.0406686
0.00605219
-0.261287
-0.359551
0.468202
0.00473819
-0.0296495
1.49291e-14
-0.0421098
0.0142054
0.0374223
-0.26753
0.048255
-0.00400836
-0.0367549
-0.0182161
0.00249427
-0.00143209
-0.113021
-0.0246279
-0.000794096
0.108359
0.0123162
0.45278
0.00180433
0.0625648
0.689235
0.00971231
0.00791047
-0.196697
-0.0125209
0.00522104
0.00191739
0.00139681
-0.225356
0.0154669
0.00182313
-0.0310572
-1.05516e-05
-0.386374
0.0268602
0.000344814
-0.017641
0.000188894
0.0313797
-0.555227
-0.0152366
0.00952296
0.0442963
-0.0381342
0.0889667
-0.013373
0.00730902
0.154416
0.435365
0.502894
-0.00426823
-0.00864433
0.043778
0.617374
-0.0414467
0.00605393
0.0101694
0.0491453
0.118599
0.131829
-0.0575381
0.156382
0.408142
0.00608114
-0.0272938
4.46984e-15
-0.0176033
-0.0172076
-0.0233828
0.129951
0.169793
-0.00549175
0.0725444
0.0426056
-0.00513838
-0.0267213
-0.0767815
-0.25355
0.0133146
-0.0325104
0.00519075
-0.0549213
0.0369014
-0.613391
-0.0364755
-0.0777743
-0.0123698
0.0064536
-0.0566051
-0.0255279
0.00485227
-0.0224199
-0.0173716
0.0694952
0.0244507
-0.0175742
2.13568e-05
-0.0105607
-0.00872789
-0.0408919
-0.74997
0.000377926
0.0157893
0.0708964
-0.0195216
-0.0165934
-0.0635999
-0.0239151
0.026559
-0.100371
-0.0755848
-0.0205349
0.0216417
0.0371495
0.0364796
-0.0272852
-0.383901
0.021701
0.0359845
0.0274045
-0.0327785
0.320016
-0.321282
0.306674
-0.039688
0.0234933
0.300256
0.00911524
-0.0122592
8.40329e-15
-0.0628731
-0.0276233
-0.0425945
0.0185814
-0.283006
0.0167394
-0.0456143
-0.0458025
0.040106
0.0401503
-0.0243599
-0.0462281
-0.020788
-0.0471035
-0.00438214
0.00798432
0.00573285
-0.0593976
0.0113465
0.132343
0.0142481
-0.0300549
0.00680132
-0.00743625
-0.0102565
0.0645053
-0.0165747
-0.0256717
-0.0256557
-0.0337709
-6.39283e-07
0.0835674
-0.0737646
-0.00898694
-0.0239734
0.000368733
-0.0239046
-0.0247483
0.0293183
0.0340222
0.0822784
0.0870395
-0.0344584
-0.244589
0.0791238
0.0604632
0.058412
0.0352455
-0.00339843
0.0781144
-0.13272
-0.023016
0.0581988
-0.000368394
-0.0664972
-0.0446007
-0.0766549
-0.0892861
-0.117979
-0.063632
0.0778144
-0.0358817
-0.0103205
3.02121e-14
0.0115049
-0.126844
-0.689505
-0.0370114
-0.0237455
0.0682427
-0.433052
0.00527802
-0.0118687
0.00201669
-0.0747984
-0.0631699
-0.00331876
-0.00252157
-0.00933102
0.102243
-0.0061537
-0.166359
0.00565958
0.1874
-0.0168691
-0.176039
-0.0357274
-0.0134772
0.0374553
0.0527814
0.0869689
-0.14338
-0.0348857
-0.0870502
1.26543e-06
-0.0986619
-0.0388579
-0.0342995
-0.22246
0.000999793
0.0721931
-0.0955874
-0.00124865
-0.00591873
-0.0194374
0.0351259
0.0116021
-0.0271214
0.133391
0.0129754
0.0474327
0.0415744
-0.0043852
0.0255998
-0.17668
0.111972
0.07117
-0.0028439
-0.102607
0.255829
-0.400625
-0.418979
0.0402718
0.112265
0.19456
-0.00192304
-0.020269
1.79106e-14
0.221423
-0.138471
-0.0468363
-0.0593781
0.394346
0.0246789
-0.0210092
-0.0767653
0.0623281
-0.0914913
-0.114858
-0.2386
-0.0734774
-0.224499
-0.118611
-0.0275287
0.0199665
-0.0783062
0.082644
-0.158766
0.0262681
0.0604229
0.137585
0.0257795
-0.0183734
-0.0320316
-0.002799
0.197739
0.0706762
0.0314479
3.15621e-07
-0.0603396
0.0228634
0.0131366
-0.00469095
-0.000227712
-0.00873271
0.0495595
-0.0190741
-0.00916257
-0.127434
0.0478041
0.0263576
0.00230189
0.0399711
-0.018451
-0.0620943
0.0165766
-0.0762696
0.00669184
-0.217084
0.0277351
0.0172741
-0.00704021
0.014095
0.210228
-0.149035
0.226103
-0.119444
-0.0304963
0.100204
-0.0121756
0.0141217
-3.57587e-14
0.000218223
0.0293699
-0.0552858
0.0480281
-0.058585
0.0105655
6.03555e-05
0.00232129
0.0202056
0.010904
-0.0589994
0.052699
-0.0138366
0.101707
-0.020493
-0.130046
-0.27511
-0.0470427
-0.0954029
-0.0241514
-0.0379474
0.151207
-0.00574151
-0.0150047
0.0153283
0.00015147
-0.0237337
0.0358697
0.0035677
-0.000279082
-6.66032e-06
0.200525
-0.0295111
-0.563995
0.0121501
-0.000717491
-0.00156364
0.120999
0.00242664
0.0145714
-0.0386571
0.239653
0.0159127
-0.185209
-0.0641341
0.135466
0.118148
0.16132
-0.0164885
0.563767
0.0278137
0.045774
-0.0889987
0.00453264
-0.0189898
0.0111374
0.0118371
-0.0296503
0.0511797
-0.00722301
0.0201711
-0.00179924
-0.0134325
-1.9752e-14
-0.0348862
-0.355369
-0.148687
0.00310646
0.0601231
0.0179196
-0.112957
-0.0200373
-0.0524888
0.00517965
0.0633442
0.0172761
-0.00923102
-0.149846
-0.0139223
-0.0210412
-0.0381528
0.150544
-0.057749
0.17804
-0.00346818
0.0202418
-0.0156737
0.0143355
0.0101854
-0.0108657
0.022626
-0.16272
-0.0690665
-0.0821005
1.24182e-07
-0.0117692
0.00133114
0.00220269
0.282409
0.000450662
0.0216672
0.0133603
-0.0749044
-0.0623651
-0.0278971
0.0402024
-0.0381254
0.00323035
0.0995597
-0.0337324
0.0215749
0.00894682
0.065649
0.0337974
0.206375
-0.0213197
0.0303048
0.0298231
-0.0369459
-0.0239307
0.0557376
-0.18952
-0.0359388
-0.00693187
-0.0419805
-0.0111914
0.0151366
-1.11746e-15
0.0948001
-0.020672
0.0146176
-0.107009
0.229738
0.0159936
0.0491666
0.163442
-0.0871332
-0.0800989
-0.155338
0.0634864
0.0103738
-0.0042765
-0.122251
0.0784927
-0.035196
-0.00271964
0.0109008
-0.596664
-0.0175162
-0.0418609
-0.0456167
0.0476962
0.0192533
0.172307
0.0536743
-0.484292
0.0214426
-0.160733
-7.85333e-07
0.0229743
-0.0759087
0.00316295
-0.131039
-0.00108247
0.307412
0.0323763
0.0126505
-0.0628731
0.0506059
0.02553
0.0174404
0.0564565
-0.00942986
-0.00490627
0.0871475
-0.00283378
0.0712955
0.0142983
0.0328759
-0.02255
0.0161127
0.0120084
-0.0660138
-0.23146
-0.0751014
-0.00814945
-0.00859663
-0.0310583
-0.023921
0.20317
-0.0440814
4.84309e-15
-0.112286
-0.0204637
0.0151938
0.0363324
0.0367833
0.0261628
-0.0336471
0.0154033
0.0433543
0.0165157
0.00534502
0.248856
-0.165642
-0.0324425
-0.0084288
0.0616244
-0.0278318
-0.173901
0.0507287
0.0292405
0.0681788
-0.0545848
-0.00984352
0.271336
0.0196576
0.0127687
-0.127684
0.0328259
0.0338046
-0.00797299
5.25788e-07
-0.04367
0.0182437
-0.0127772
0.204928
0.000551895
0.0572953
0.0117284
0.0786183
0.0219547
0.276456
0.044877
-0.0281949
-0.065639
0.0232524
-0.0291755
-0.0392459
-0.141985
-0.049743
-0.0260206
-0.186898
0.0835781
0.082638
0.0107625
0.0216981
0.0217124
-0.101263
0.115256
-0.104389
0.043503
-0.112948
0.0132518
-0.0163208
-1.14501e-14
-0.0352896
-0.00658653
0.00664039
-0.0862231
-0.0667989
0.04254
0.111817
-0.00690455
0.0576687
-0.0714108
0.142198
-0.0680475
-0.00880059
-0.0451312
-0.100129
0.0836356
0.00182934
-0.0856194
-0.173895
0.104427
-0.119341
-0.16275
-0.0656808
-0.0118535
0.00636706
-0.218733
0.223642
0.159589
-0.0940112
-0.0492267
-3.65298e-07
0.163829
-0.160228
-0.0286522
0.072024
0.000157667
-0.22938
-0.155369
-0.0861277
-0.0439645
-0.0299106
-0.139024
-0.0311365
-0.0280144
-0.103266
0.13981
0.14323
0.0844951
0.0349159
-0.0488332
0.0298049
-0.127998
-0.00804167
0.0241305
-0.161433
0.138404
0.104901
-0.0899951
-0.000946137
-0.202363
0.12791
-0.16248
0.102629
-2.6469e-14
0.10823
-0.0807531
0.00244942
-0.0474886
-0.0945708
0.00378148
-0.00236666
-0.149188
-0.114202
0.000148681
0.0918465
-0.0299819
0.0309698
-0.050818
0.0366213
0.00884514
-0.0289373
0.0338691
-0.0267474
0.109749
0.0395627
-0.0252694
0.0345644
-0.0443423
0.0068083
-0.0548977
-0.0740754
0.0783018
0.105178
0.00223446
4.01221e-06
0.0112929
-0.0190074
-0.0177557
0.0232933
-0.000165439
0.214127
-0.00228539
0.123993
-0.0630936
0.107392
-0.0100203
0.0412862
-0.00562995
-0.00541288
-0.010442
0.0271187
-0.000316584
0.253261
0.00741228
-0.0698699
0.0267992
0.0456707
-0.121823
0.00613468
-0.0597298
-0.0337777
0.0296538
-0.0264673
-0.00726691
-0.0307541
-0.102594
-0.226521
-2.62278e-14
0.0226107
-0.0293755
-0.0123439
-0.0186653
0.0331781
0.0109282
-0.068894
-0.129184
0.103549
0.0381868
-0.0265815
0.0666921
0.00482823
-0.0548436
0.0803508
0.0382738
-0.0235704
-0.0221602
0.255456
-0.198817
0.0272738
0.0571712
0.0280106
0.0417639
0.0158326
0.0654008
-0.0301162
0.349286
0.116383
0.170313
-1.98517e-06
-0.193614
0.0484414
0.0309107
-0.00317356
-0.000471795
0.0447829
-0.029037
0.0916452
0.104219
0.0405457
0.100804
0.0105894
-0.00811307
-0.0678258
-0.0985145
0.0174397
0.0492815
-0.164474
0.0187829
0.0125452
0.220022
0.0899023
-0.0385506
0.0300958
0.0630435
0.0599496
0.236913
0.0216859
0.0868651
-0.0485912
0.0489568
-0.0502546
-3.22383e-14
-0.0692958
-0.0512481
0.0568599
0.011405
0.129505
0.0225645
-0.207733
-0.0153747
0.0100289
-0.0333597
0.000297508
-0.0453296
-0.0261251
-0.040328
-0.043117
0.173648
0.0337058
-0.0610775
-0.160395
-0.0455255
-0.0156786
0.139773
-0.0457499
0.0256766
0.450191
0.0236779
0.00214557
0.0816985
0.00147617
0.0475177
-5.94772e-07
0.0860193
-0.0004805
0.492685
-0.00677238
0.000579011
0.015339
-0.164474
-0.00360395
0.00508641
0.0253332
0.481567
-0.0140225
-0.153
-0.104349
0.179947
-0.0606804
-0.142841
-0.0140465
0.544701
-0.0679054
-0.122033
-0.34175
-0.0141775
-0.00451394
-0.0498358
0.00127794
0.000109824
0.00825654
0.0183495
-0.0229119
0.0174986
-0.00368234
2.99191e-14
-0.0979488
0.469971
0.0159058
-0.0758257
0.094012
-0.0205409
-0.00819183
0.206044
0.649318
-0.0524059
0.0611567
-0.00913418
-0.00105877
0.000717134
-0.0698974
0.0122673
0.00535958
0.0144202
0.0232774
0.0445358
-0.0306798
-0.0185786
-0.068198
-0.00160105
-0.0329038
0.0813809
0.0145148
0.0225289
0.438525
0.0289192
-2.43996e-06
-0.0474425
-0.047624
0.00517796
-0.0243635
0.000285091
0.0759449
0.0238404
0.0964521
-0.0954813
0.0182687
0.0012602
0.00115595
-0.00446157
-0.00456422
-0.0486499
0.00283523
-0.002018
0.0285747
0.00407862
0.0297831
-0.00249593
-0.00353868
0.343468
-0.038731
-0.0282653
-0.0388517
0.00155013
-0.000190024
-0.0349287
-0.00525896
-0.156199
-0.0646905
4.84847e-15
-0.03977
-0.00473273
0.0171897
0.020592
0.00937211
0.0650288
-0.2221
0.0205302
-0.0168151
0.0456393
-0.0310181
-0.123112
-0.0121886
-0.125467
0.029153
-0.338001
-0.00641304
0.188067
-0.362671
0.102716
-0.00982597
0.0177554
0.016445
-0.125619
-0.020132
-0.00639148
-0.0853443
-0.0937863
-0.0449225
-0.0401927
3.23142e-06
0.245827
0.011807
-0.0249743
0.102041
0.000293017
-0.00235518
0.223306
0.00438599
-0.0318811
-0.0249498
-0.0123431
-0.195069
0.00646929
0.127304
0.0151611
-0.24783
-0.0678005
0.034733
-0.0282107
0.140506
-0.277834
0.0522214
-0.00492653
-0.0532907
0.130522
0.103367
-0.158346
-0.232464
0.0578981
-0.0153417
0.00488714
0.0169852
-1.86134e-14
0.159443
-0.164947
-0.00691688
-0.289552
0.42378
0.0197342
-0.0485264
0.000220386
0.00764275
-0.0545203
0.0737591
0.24718
0.0681074
0.208133
-0.0185374
-0.174505
-0.000264212
0.0261898
-0.289243
0.0107958
0.0213547
0.0537769
-0.0211385
-0.0941407
0.0269355
0.0216769
-0.165521
0.00958308
-0.0126835
-0.035572
-1.46139e-05
0.377225
0.0244835
-0.0113536
-0.109444
0.0001643
0.0121907
0.080874
-0.02458
0.000481796
0.12664
0.00510829
0.00151594
0.0294315
-0.0360103
0.20883
-0.304917
-0.596693
0.00793263
-0.0286567
0.0555861
-0.587873
-0.0149103
0.00511308
0.00280938
0.0356829
0.117185
0.101131
0.0360338
-0.28592
-0.11507
-0.00498416
-0.00642189
-8.20849e-15
0.0290592
-0.0134733
0.0696541
0.150829
0.0610178
-0.00206456
0.00737826
-0.611037
-0.417992
-0.000857388
0.0020169
0.00720689
-0.00592487
-0.00739969
-0.0315766
-0.00148463
0.00319444
0.00043935
-0.00598255
-0.0521995
0.0383826
-0.00990315
-0.00349763
0.00858586
-0.00682568
0.00590625
-0.00705324
0.0237069
-0.192337
-0.0204878
2.74638e-07
-0.000703827
0.007603
0.00370451
-0.00407254
-0.000367171
0.0422932
0.00143831
0.0423052
-0.619716
-0.000592096
0.0102346
-0.00268765
0.000326601
1.03912e-05
0.0044549
-0.00194406
-0.00526885
0.823846
0.00624348
0.0191513
0.00331565
0.00520964
0.84282
-0.0748781
-0.00471619
-0.00367139
0.00740723
-0.000696394
-0.00827648
-0.00231118
-0.0390453
0.299743
-2.50649e-14
0.000343481
-0.00247915
-0.0141634
-0.00524802
0.0112082
-0.0101351
-0.136065
-0.0368827
0.0384068
-0.0434907
0.11171
-0.0561042
0.00326743
-0.104134
-0.048047
-0.00386494
0.0301957
-0.0251774
-0.0546131
-0.00468933
0.094015
0.241587
-0.0482416
-0.0379307
-0.0058162
-0.00943251
-0.0276971
-0.000620785
0.0492127
-0.0342191
3.28559e-06
-0.109744
0.112301
0.0391517
-0.013943
-0.000427453
-0.0227389
0.0678761
-0.0330746
0.0103864
0.00848379
0.179414
-0.0645327
0.0329104
0.0706616
-0.199037
0.218803
0.22724
-0.0297303
0.0511483
-0.0942227
-0.161317
-0.013099
0.0312682
0.0997241
-0.307342
-0.052259
0.140522
-0.0684416
-0.196771
0.322861
0.10758
-0.0411523
-3.37174e-14
-0.0600009
0.134396
-0.0434417
-0.0788731
0.338304
-0.0166457
-0.000289667
-0.00958104
0.0169229
3.56411e-05
0.0085993
0.00289513
-0.0044981
0.0145086
0.000220139
0.0482591
-0.0626922
-0.00193352
-0.050653
-0.0475756
0.0154445
0.130589
0.00371459
-0.0176076
0.0801847
-0.0187375
-0.000245077
0.0329376
0.0140968
0.0371961
-1.0939e-07
0.120631
0.00654463
-0.192783
-0.0065006
-0.000152803
0.0256626
-0.0969147
0.00866948
0.000599893
0.0104591
-0.00678829
-0.0217652
0.129938
-0.103759
-0.33277
0.0117754
0.00513852
-0.0393039
-0.43503
-0.0152204
0.00212962
-0.0732085
-0.00256944
-0.0149048
0.0235541
-0.0124661
-0.0381172
0.0251863
-0.00887039
0.00129921
-0.0120253
0.0233278
-1.08154e-14
-0.0163517
0.0215015
-0.0687254
-0.0399797
0.0886094
0.0057072
0.0340465
-0.00560134
-0.0122996
-0.0410341
-0.0278687
0.0155655
-0.0150217
0.0105947
-0.0324259
0.253173
-0.44507
0.001237
-0.0216991
0.000467087
0.0805514
0.305914
-0.0283851
0.0237032
-0.0279165
-0.0029964
-0.0195363
0.0194341
-0.00741267
0.033691
-3.98455e-05
0.225549
0.0323857
-0.154239
0.00377489
-0.00190612
0.00152363
-0.190476
-0.0228216
-0.0139215
-0.0565402
0.124095
-0.0328835
0.00921262
-0.183237
-0.34273
0.0357087
-0.0665485
0.0128522
-0.370605
-0.0224987
-0.0152189
-0.372563
-0.0144166
0.00370965
0.0827891
-0.0705632
-0.0824153
0.0210024
0.0832749
-0.0373739
-0.0245837
0.0260275
-3.06692e-14
0.0219895
-0.108702
-0.0304038
-0.0612011
-0.006651
0.0257863
-0.0532759
0.0349737
0.00323223
-0.0338163
0.0760264
-0.372602
-0.0579825
-0.158363
-0.0381352
0.017247
0.000912952
0.227133
-0.0539247
0.133902
0.0188973
0.0324198
0.022029
0.106994
-0.0059966
-0.0243566
-0.0177019
-0.180786
-0.0649045
-0.037919
1.17044e-06
0.0447397
0.0230592
-0.00832351
0.0281832
0.000315276
-0.00607828
-0.0443214
0.0370176
-0.0104996
-0.280306
-0.0503437
0.0168943
-0.0115401
-0.00944809
0.0355985
0.00473073
-0.0888738
0.0159602
-0.0125189
0.427428
0.00667835
-0.0137905
0.0236431
0.00496164
0.0700562
0.0576611
-0.00604178
-0.0692569
0.0127684
0.0921392
0.0561634
-0.0295237
-8.29817e-15
-0.000727264
-0.0263466
0.00182531
0.0632519
-0.017945
-0.025508
0.0990377
0.00614918
0.0278845
-0.0251408
0.0401474
-0.0430938
0.0906465
0.03291
0.0038932
0.0310031
0.098363
-0.0663609
0.106377
0.0843555
0.0443124
0.0302089
0.0119839
-0.0209915
0.129776
-0.0320865
-0.0256902
-0.0595359
-0.0220946
0.135791
9.0564e-07
-0.06819
0.0494268
-0.101213
-0.118378
-0.000807614
-0.0353366
-0.0977495
-0.0321602
0.000329793
0.0277574
-0.298024
0.0866956
-0.302916
-0.0828228
-0.0692485
0.00211562
-0.0239897
0.0072448
0.022592
-0.00186056
-0.0127555
-0.166248
0.0541483
0.0487474
0.0145066
-0.0385467
-0.0187024
-0.00968543
-0.0415088
0.0466709
0.0930129
-0.0117694
-5.68863e-15
-0.0909455
0.167904
-0.013855
0.261534
-0.00234823
-0.0304125
0.0486611
0.166815
-0.0708272
0.00438331
0.0128961
-0.015138
0.0101241
-0.0622024
0.00579949
-0.012305
0.194798
-0.0147353
-0.0382965
-0.254642
0.0145476
-0.0265174
0.00946508
0.0164487
-0.0356554
-0.0380793
-0.0337694
-0.173455
0.155923
-0.275853
-2.07914e-07
0.0325662
0.0053247
-0.00776444
0.00546774
-0.000148926
-0.116083
-0.0188187
-0.0710841
-0.125507
0.0750333
-0.245447
0.00215606
0.0212385
0.217794
0.103981
0.00498039
0.0138381
0.258396
-0.0479974
-0.0312595
-0.0140839
-0.0802652
-0.022809
0.000324211
0.00346217
0.029882
-0.0720513
-0.0174263
0.0118301
0.0155818
-0.0575304
0.0545369
-8.37483e-15
0.0403187
0.0746868
0.0876276
-0.00444578
0.055989
-0.02086
