-0.6208625
1.0530522
-0.4592368
-1.8341061
3.7024608
-0.68940306
-0.049814653
-0.107738286
-0.14755344
0.30084178
1.0299294
-0.26202178
0.9578617
3.1751401
-0.2112869
0.10002859
-0.36732343
0.08436762
-0.78562886
-0.3262938
0.502685
-1.0190932
-1.9850142
-1.1979424
1.023927
0.93241036
-0.0070811133
0.18030156
0.9463794
-0.083270065
-0.43344393
5.0911145
-0.8068528
-0.6216864
-1.2882545
-0.077205226
-1.1296707
-0.98078865
0.5939774
-1.4439639
-1.6499269
-0.13192108
0.51623666
-0.61392295
0.011800003
1.177088
-1.1126184
0.045171987
2.3043954
-2.1736376
-0.18558861
0.37630108
-0.42579255
-0.3021719
-0.568294
-2.021212
0.38458404
0.51513827
3.511116
-1.2848104
1.0301301
0.9140981
-0.46265084
-0.0047025215
0.12476606
-0.093716495
0.20681976
2.3398402
-0.27168408
-0.11641618
-0.5731011
-0.098450474
-0.4701202
-0.9630915
-2.8726258e-06
-1.228931
-1.2123781
0.21606478
-0.47000334
-0.15077156
-0.025172379
-0.80583376
-1.3814083
0.42359534
0.21309292
3.6853004
-0.050909527
0.10430835
-1.1277314
-0.67547
1.358431
-1.3072697
-1.4017657
0.5881607
3.3375854
-1.2070814
-0.8805841
1.0477643
0.45452526
-0.70326936
1.3222427
-0.7994409
-2.118284
3.06547
-0.8953382
-0.303622
-0.06733523
0.20028901
-0.4296656
-1.2792774
-0.20642026
0.7374746
2.382047
-0.79268897
0.95412195
0.7561929
-0.46521154
1.231166
4.2067285
0.0066375267
-1.7661173
-2.2783813
-1.0435252
-0.43582654
-0.6889011
0.11268651
-0.650571
0.08119508
0.53443056
-3.3983414
1.8417684
1.7604144
-0.56392485
-0.69666547
0.87148374
-4.0880804
2.4885814
0.4515329
3.0938737
0.37377092
-1.0505693
-0.14736529
-0.963614
-0.094657585
-0.60811555
1.4818016
-0.024308749
1.2458805
3.412925
-1.3301128
-0.72328734
-2.3049777
-0.5506348
0.8823959
0.5603391
0.42986408
-1.1953577
-3.9947665
0.6726846
1.0313501
1.5920925
0.19799201
0.83867973
-1.3029569
0.31118718
3.7333975
-2.8529193
-0.13145977
-0.12933595
0.28046992
-0.35723597
1.0739945
3.8741949
0.17529556
-1.5677814
-2.3753626
-0.025247516
-0.30747378
-1.1986226
-0.07021995
-0.31100985
-0.8883315
-0.22838369
-0.9382608
-1.8202467
-0.11576225
-0.28134143
-0.11865038
-0.2643027
0.2948896
0.66970104
-0.03456852
0.7960195
3.035461
-0.5317418
-0.21849717
-0.56044453
0.116525896
0.61690944
0.14969292
-0.70471376
2.9365942
-2.4516122
-0.6423284
0.43045962
-0.90996873
-0.18499416
-3.0176804
1.6211638
0.8481221
0.758387
-1.7278347
0.6068798
1.3587626
0.44077888
-1.5548217
-0.15825036
-1.2138168
0.18821472
-1.6237909
-2.9194076
-0.105519235
0.3910571
0.6058656
0.008771747
-1.2649562
0.9975789
-1.4776936
-1.0174078
5.6014132
-1.1322856
-0.61693746
-0.553553
-0.7532122
2.6264796
-0.42598245
-2.634342
-3.4280477
0.02793417
1.0095071
0.80755174
-0.0405953
-0.21031961
1.0192093
0.9468644
0.09755457
0.94781345
1.8744562
-0.197915
0.11809351
-0.08367577
0.41663748
1.3704926
-1.6833812
-0.1411783
3.2477944
-2.16519
-0.36690056
0.39882395
-1.2306255
0.19322276
-1.1039647
-0.37353784
-0.8622401
-0.43975633
-0.58887595
0.10341117
-0.7715196
0.13474211
-0.6624035
1.1398089
-1.008362
-0.2051474
2.2727027
-2.4733315
0.43049628
0.5048804
-0.76083446
-0.35808417
3.2088013
-3.990349
0.36786017
-2.4903314
2.9969776
-1.006175
-0.92134726
1.1511747
0.22669645
-0.9275179
-1.7247854
0.17836556
-2.4680324
-2.0748413
-0.42405257
0.4951336
0.48753116
0.19666247
-0.3863815
-1.2683243
0.75373185
-0.041467205
-2.312017
1.8790244
-0.3464748
-0.8736995
0.20130844
2.3731344
-2.918916
0.29527467
-1.4066932
1.7241484
-0.40960944
-1.2203563
1.4928974
-0.18921888
1.7954625
2.5209224
-0.006395128
-2.223374
-2.1236367
-0.0136672845
-0.047699858
-0.20517217
-0.41299048
-0.07518881
-0.21940543
-0.010530437
0.0024045554
-2.951784
0.48310345
-0.119000226
0.09782681
-0.1318274
-1.4291234
-1.381752
-0.1751866
-0.89929813
-1.0313303
-0.21261996
-0.44709837
-0.07260165
-0.027810471
-0.024085505
0.40609542
-0.20984708
2.279815
2.3394475
0.13476571
-0.30432922
0.14270483
-0.046417832
-0.39375764
-0.9449361
-0.27258366
1.2413431
2.9216945
0.37920028
-0.5528275
-1.4882724
-0.036227945
-1.7521898
0.29482993
2.0658941
-0.093706876
-2.721679
-0.64706975
2.3259864
-0.5890949
-0.38726798
-0.70933384
-1.0631403
-0.22851591
-1.0698174
-1.4770243
-0.47388947
-0.35797983
-0.47424334
-0.14178984
1.6155149
-1.25517
0.10548271
-0.7707597
-3.3358757
0.3667667
-0.22781593
0.026204173
0.94662595
-0.35941234
-1.9875672
0.08457644
3.3296854
-1.7935776
-1.0811186
0.14375804
1.3095571
-0.3939051
1.0117635
-0.72325146
-0.31750283
2.858578
-1.6756359
-1.3132902
0.34886152
-0.30814362
-0.1550525
0.0316136
-1.5177424
0.3325174
-0.81773716
-3.627754
0.24364363
0.28263542
-0.18987213
0.040686592
0.47437367
-0.5168354
-0.88516414
2.4295366
0.958429
-2.3158665
0.48265806
0.30537876
-0.3583689
0.30824724
0.092650265
0.3860415
0.7488496
1.5491436
-0.047672376
-0.18299142
-1.0576427
-0.13490808
0.98996687
2.590868
0.12831816
-2.1752377
-3.7424831
-0.33542886
1.100395
2.2565339
-0.041157246
0.046382688
-0.6356989
0.67162937
0.05444386
-1.8177073
1.8226398
-0.24725923
-0.27043265
0.435696
-0.3638815
-0.7571636
-0.2822862
-1.1165433
-1.8676882
-0.48353526
-0.12375255
-0.78772134
0.16005561
-0.625174
-0.5425312
-0.08905172
-1.0387309
5.352108
0.053420383
-0.014392397
-0.010029896
-0.67496604
1.2587203
2.9383817
0.5331638
0.95155746
1.0000662
-0.07198952
-1.183469
-1.5057753
-0.9477734
0.44881395
-0.3896061
-0.10280494
3.7533793
-3.2699134
-0.094587
-0.2571137
-0.4718814
-0.04248291
-1.5000772
-0.9135615
-0.34830558
-1.1199981
-0.21509427
-1.0733951
-0.15991196
-1.3043212
0.1230311
-1.7673328
1.5348519
-0.32140645
-0.1495548
2.8031857
-1.616834
0.12117113
-0.6230746
-0.082002245
0.052288674
0.87675804
-0.11894155
0.8961295
2.4455981
-0.19489971
-0.36017445
0.114320494
-0.2785752
0.9053352
-0.2956311
0.5672316
1.2510445
-3.0347342
1.6942046
0.42729592
0.8567296
0.14422683
-0.79552716
-4.290694
0.09444996
-0.057290617
2.3160894
-0.44906926
0.7843145
2.1615176
0.41749954
-1.1062547
0.84416825
0.12000448
-1.2870637
4.1872244
-1.0986962
0.23370537
0.3120139
-0.4722627
0.5270204
-0.4277392
0.40916336
-0.3483777
-4.3574314
0.8358433
0.4506463
0.9466142
0.16895284
-0.9450803
-0.40583298
-0.6651564
-0.50806266
1.0779223
-0.52834535
-0.71408373
-0.5427949
-0.44759467
0.72200006
2.4056373
0.90335876
-2.608878
-1.0352368
1.2171568
-0.07237203
-1.6715317
0.2267831
-0.49901915
-1.3330928
0.10179779
-1.8152758
-1.3482467
-0.3049259
0.9453664
2.7726004
0.8957223
0.15717494
0.61284447
-0.10197265
0.9500201
2.480615
-0.24740201
-0.18064782
0.07718278
0.027275257
-0.4206661
-0.99045515
0.98001
-1.4665552
-1.153261
3.045377
-0.09759254
-0.5022507
0.10751471
-0.46662292
-1.8173633
0.3912452
2.4565268
0.3017393
-1.7642461
-0.07238032
1.2359456
0.0050984873
0.17388183
0.8655296
0.07854013
0.8753021
2.3921523
-0.39382482
-0.028565079
-0.51928467
-0.017319093
0.6204743
-1.7111683
0.17751102
-1.3812876
-3.5053403
0.28795177
-0.11467324
0.1874313
0.15051329
0.014530173
-0.8389393
0.19889183
-0.18925504
-2.9464228
0.58382535
-0.11715208
-0.13938075
-0.149656
-0.8083916
-1.8594099
0.122963674
0.9088565
3.6900096
-0.16734344
-0.10678031
-0.665555
-0.024007043
1.0712154
-3.3749044
0.9269653
-1.2198004
3.6361213
-0.24870999
-0.38797906
0.3532518
-0.4417371
1.2974963
-1.1878469
-0.30282554
3.646878
-2.6126802
-1.2102675
0.46966022
-0.6467494
2.2424279e-06
1.8077163
0.117713265
-0.25780523
3.228067
-3.3442347
-0.689047
-0.36568442
-0.574557
-0.1771773
-1.5448998
-2.534506
-0.6062247
1.2215046
2.483736
0.79888326
0.35689047
0.04572686
0.074916996
0.07630626
0.8814461
-0.07361852
1.0063857
3.3581386
-0.4511524
0.07540404
-0.45311305
-0.037544753
0.42829898
-0.6900658
0.278196
-3.9349859
0.9786013
3.0572066
-0.038604047
-0.1702936
0.10110784
-0.4126629
-1.7234824
0.14548518
-1.2262264
4.8293543
-1.0334387
0.1537748
-1.5570762
0.114029735
1.1803548
-0.7091671
0.41995564
4.8164916
-2.722055
-0.5002183
-0.5968988
-0.54782295
-0.10909213
0.10453015
1.1101006
-0.3360023
1.0053585
3.2945995
-0.111787915
0.016003069
-0.602322
0.06229004
0.32192189
1.3568186
-0.20308754
0.9105224
3.8054166
-0.38617787
-0.28895316
0.33239526
0.01933534
-3.071871
2.0982902
1.2893716
1.705309
-2.6559703
-0.3001634
1.6367534
-0.6799794
-0.62283313
-0.2586684
-0.81879354
-0.12838162
-2.0273564
-2.8902323
-0.38761386
-0.07443563
-0.11983384
-0.113618314
-0.8466855
-0.2299065
-0.6880544
-0.7001917
0.1790078
-0.17450507
-0.6953048
-0.5646593
-0.65123093
1.0668405
-0.41709727
-0.78560215
0.44192412
4.036731
-0.14168821
-0.9321353
0.07819379
0.22041379
-0.3874683
-0.32293263
-0.06802879
-0.27812314
6.3499722
-1.7321855
-0.27234435
-1.6835994
0.40381193
-0.49554962
-1.5222471
-0.4196561
0.31193164
3.6113186
-0.12761755
-0.34695622
-0.67925614
-0.26538828
-1.0980762
1.8567966
-0.6891812
-0.9109926
3.7732747
-1.835587
0.73651296
-0.67825
-0.110492036
0.18932962
-2.0752196
0.51511437
-1.830184
-5.0415177
-0.16676445
0.24650805
-0.11629284
0.6570189
0.16473113
-1.6459477
0.5550469
1.5072489
-3.7960472
0.442156
-0.35585502
0.1572731
-0.17825477
0.3735182
-1.2735739
-0.60309094
2.0205696
1.9280759
-1.5608633
-0.08117616
0.93505716
0.00939422
-0.0937966
-0.9658489
0.09578535
-1.2281941
-2.493846
-0.17306331
0.10886633
-0.030082073
0.17563017
0.024444766
-0.679977
0.2233452
-0.8342273
-1.6607116
-0.24003263
0.23912786
-0.3808743
0.22492705
-0.46121895
1.0224814
-0.38922256
-1.4066137
2.7240448
-0.6940066
-0.27209395
0.28991815
-0.12263579
0.8436346
-2.113666
0.9994621
2.8531432
-3.6991458
2.523075
0.30123472
-0.98570734
-0.09560059
3.717928
-2.8409696
-0.7336019
-1.7386771
1.6900256
0.17428365
-1.8459125
1.1581233
0.040164985
0.5362124
1.2487403
-0.21083185
-2.592716
1.6066887
1.162136
-0.03538995
-1.4409294
-0.018072814
-0.03920304
-0.7770294
0.14349003
-0.80744493
-1.3941725
-0.5091508
0.2578056
-0.39067605
0.28630376
0.027565042
0.75843865
-0.3562625
0.6061259
2.3106806
-0.08979869
0.011766216
-0.08578095
-0.072656356
-0.8931133
-1.5459068
-0.39604196
-1.454458
-0.9752234
0.046511155
0.9555498
2.8944619
0.94628304
-0.28114417
1.6159354
-0.59763795
1.7773197
2.8918848
-0.06265767
-0.5221835
0.39587182
-0.638236
2.909651
-1.5009493
-1.0242311
-1.8992116
-2.5338392
0.9929388
-0.76794755
0.9292092
1.2343416
-0.65352225
0.82172734
-0.24783352
-2.245437
4.0378814
-0.89193755
0.3266088
-0.43750802
-0.2634349
-0.6555147
-0.39364955
-0.4734925
-0.31389803
-1.7494011
0.26387218
-0.5235608
0.17355865
-0.26830187
-0.28239286
0.64226526
-0.5420918
-2.711996
4.53034
-1.7451019
-0.045760863
-0.4089918
0.07238437
-0.2333004
-0.10570403
-0.6680627
0.48191044
-2.5193245
0.18938273
-0.8941706
0.11511127
-0.973257
1.067411
-2.4151905
0.5914244
3.0146432
-3.0942733
0.2738521
-0.32983157
-0.2904016
0.043968875
-0.8922057
-1.2141268
-0.55212873
-1.1768563
7.742941
-2.256047
-0.82969475
-2.2862773
-0.46263224
1.6033474
-3.0358667
0.27851543
-2.453699
2.4566233
0.4305935
-0.13573043
0.9062441
-0.33040115
-0.49597523
2.435113
-0.77078474
-2.925149
2.6555746
0.029916404
-0.6104149
-0.637636
0.9591125
1.4195528
0.3041729
-0.873264
-2.6551564
-2.5327601
0.7374235
0.5064711
2.5059693
0.08462377
-0.66893476
1.1520342
0.15941633
0.91913414
3.0641038
-0.48671752
0.57035255
-0.1682387
-0.45275852
-0.5178274
-0.56120664
0.9077627
-2.8158069
3.777949
-1.0852556
-0.37674212
0.6843536
-0.24572287
-1.4626375
-0.4723179
1.3764746
-0.17891113
-2.791423
-0.8621835
1.62929
-0.3608597
-0.8811434
0.28807017
-0.400354
0.19090523
-0.7045582
-4.2770004
0.71640515
0.17926495
0.8307052
-0.35927284
1.1795069
2.3243873
0.31066844
-1.7062262
-2.21374
-0.92198074
-0.005983132
0.1948387
-0.28472716
0.7107981
0.6371627
-0.28127718
0.7044644
2.6942797
-0.35516477
-0.76404446
0.45277473
-0.13532768
-0.14430495
0.7037844
-0.21006602
0.61787117
2.8763385
-0.45977235
-0.45344216
-0.33878025
-0.16568843
-0.22157308
-1.223439
0.86742914
-1.2997347
-5.5549774
-0.081746034
0.48163074
-0.19033256
0.19689806
-2.9669693
0.5200114
1.2562987
1.4977499
1.8917832
-1.3568143
0.90868956
-1.3216069
-0.457874
0.55904496
0.95390797
0.19719154
1.2008814
3.1429365
-0.2990066
-0.08077602
-0.58889836
0.10345606
-0.6783173
1.1570117
-0.70337343
-1.8887198
3.1874976
-1.1103705
-0.6566222
0.4151073
-0.17365721
-0.042314526
-1.3708214
0.21686049
-0.7189282
4.652272
-0.44459608
0.3434929
0.052508082
0.51775885
0.5635015
0.37231576
-0.7584935
0.509317
2.8776104
0.3091557
-0.3194259
-0.26098666
-0.36298776
0.52736086
1.064104
0.06493936
0.4232917
2.5077055
-0.43188897
0.057883613
-0.8131431
0.19109121
-1.2017196
1.4570705
0.47132513
2.5183365
3.5357418
-0.7516785
-0.6294683
-0.04848048
-0.44476318
1.3772901
-1.4997705
-0.46077204
-1.5428165
-1.8310437
0.34567878
-0.5191555
0.027587306
0.5826769
-0.64141434
-0.681841
-0.502051
-0.7262523
-0.37612268
-0.49172544
-0.5125144
-0.5265283
-0.29347038
2.0065985
-1.7691886
-0.092158735
2.7365694
-1.9696983
-0.43412742
-0.20043159
0.0703505
-0.36522985
-2.2510984
0.8942055
1.0945754
-2.3759453
1.3714734
1.6445553
-1.3448061
0.2363148
0.5547968
-0.42579544
-1.8989486
0.47350505
-2.2745519
3.6762373
0.32991531
1.0591466
-0.10928529
-1.2133317
-0.6654872
-2.0631793
0.99434227
-2.9046545
3.5964665
0.6776493
-0.0030396944
1.0422761
-0.53978354
0.2875481
0.16701299
-0.2244384
2.5092564
-2.375307
-0.31952813
-0.44204646
0.4147925
0.17929205
0.3127556
0.22623557
0.115736365
0.906197
2.5941057
0.073488645
-0.1629023
-0.8038755
0.21573494
-0.3669304
0.087391086
-0.22921665
0.34746754
3.9452329
-1.1197003
-0.5149425
-1.1293892
-0.14073452
-0.14492321
1.0620314
-0.46026817
0.8060172
5.2753267
-0.95949805
-0.26035196
-1.1121206
-0.24998999
1.1008297
1.8480527
0.291576
-0.884979
-2.0157878
-0.40902677
-0.0058374074
0.42317942
-0.006444668
0.42733443
1.237987
-0.75021446
0.005851737
3.2467308
-0.35625336
-0.4346025
-0.17095603
-0.039527237
-0.8011765
-0.019721553
-1.0827749
-0.13803658
-0.5270343
-0.06603356
-1.2224116
0.16400523
-1.0084654
-1.061381
-0.36187795
-0.81891936
0.009874118
4.636159
-0.7520821
-0.9874942
-0.07438979
-0.52410483
-0.32419297
1.149483
-0.6700538
0.99532217
3.956294
-0.36706057
-0.6356123
-0.1524911
-0.3989527
0.4172432
-1.4350622
0.33719733
-1.2162095
4.119613
-1.8716183
-0.38527837
-0.29415864
-0.014420464
0.11564959
1.1528568
-0.30302635
1.3082317
2.5626543
0.3347542
-0.3677521
0.21898569
-0.41361213
-0.40269518
1.0889379
0.45918807
-1.8621585
0.420923
1.2533618
-0.6946764
-0.59516066
0.15870047
1.545796
3.113803
0.21779218
-2.203349
-2.5278733
-0.10816528
0.5290874
-0.5794698
-0.08838551
0.44706002
1.6840283
0.1482588
0.82537925
-4.3755116
0.9487741
0.2968325
0.36498573
0.08498501
0.20835032
-1.9767423
0.50692165
-1.6043878
4.6115246
-2.1967487
0.14145337
-2.1801722
0.46142858
-0.6432224
1.0967778
0.18494292
1.0836253
4.7984676
-0.3009354
-0.053250127
0.153544
-0.5821737
-0.7727848
0.14332968
0.36054018
-0.47766876
1.0205529
1.6468766
0.03969457
1.1411542
0.86597794
-0.030356526
-1.0726172
0.030868968
-1.020547
0.85563356
-1.0453331
-0.071601324
-0.92022634
-0.03815157
-1.0537435
-1.4534183
-0.24650371
0.69887453
1.8027308
0.7958582
0.8998598
2.4801774
0.49280727
-1.1183894
0.46685436
0.40725285
-2.9021223
2.826903
0.43141112
-0.42879334
0.532566
-0.12663668
0.5913729
-2.4895701
-0.45120117
1.0584751
2.4610798
0.03423742
0.9371756
0.23601677
0.54598033
0.21170272
0.8947172
0.23626429
1.0528451
1.4081005
0.22233315
0.124660216
0.03547003
0.50840235
-1.5131979
-0.8270454
-0.35544688
-0.4793649
-0.12855141
-0.58144206
-0.5719885
-0.45685363
-0.12483678
1.0888388
0.97654665
-0.79941654
1.404807
-0.09299794
-1.6012621
-0.7108375
-1.5098736
-0.8762466
1.9032141
1.9789298
-0.18931992
0.799332
-1.3063719
-1.2638332
-0.18834104
-1.7515652
-0.06366815
-0.7793667
-0.9100768
-0.37984318
-0.6242611
-1.2344403
0.07407562
-0.5829846
-0.42330986
-0.2794444
-0.71789974
-0.76129496
-0.8002308
-0.781556
0.57335013
-0.7728889
-0.4760784
-0.72940737
-0.3290168
-1.6232778
-0.25206074
-1.4297603
-0.14802966
6.920718
-1.9324453
-1.3188246
-2.3241625
-0.3046004
-0.75874954
-0.7364601
1.4633287
-0.0025487829
-4.357316
2.7001696
0.33351484
-0.82804
-0.35930783
-1.2360862
-0.3549367
0.8386447
-1.835159
-0.7856188
2.251925
-1.0623703
0.16952369
0.3337236
-0.7212324
-0.25607386
-0.22412668
0.16693287
-2.424502
-0.085467085
-0.044661585
0.22346021
-0.3566662
-1.25222
-2.8310187
0.50184083
3.0753813
-0.6895275
-1.0280147
0.41197497
2.1074934
-0.20495538
0.32032472
-0.55965054
0.29476434
-0.67875355
-4.7323594
0.8324052
0.3928505
0.95756763
-0.0067659863
-0.8196933
-0.51003194
-0.40499637
-0.3983159
-2.4147336
-0.18020128
0.31483036
1.2953078
-0.08898032
-0.8012927
-2.081452
0.049099352
-1.1896889
3.4830308
0.22426948
0.11958348
-0.31313768
-0.31880373
0.7484364
-2.0326107
-0.20699975
-0.6433824
-1.3402901
0.46083358
-1.1212615
-0.41408256
0.25919724
0.26855236
1.2235757
-0.38942486
1.8613918
-3.0583189
0.11776888
-1.3427086
0.8671472
0.5561513
-1.2762262
0.5421797
-1.2310703
0.49762854
7.000672
-1.7659141
-1.4028351
-1.6639843
-0.568923
0.0805462
-0.1247108
-0.053868532
2.2740474
-4.64882
0.9215709
-0.30880347
-0.6839735
0.48729035
-0.006073533
1.270052
-0.32335627
0.8492336
2.8195279
-0.09336093
-0.49354932
0.3346763
-0.46503288
-0.288609
1.3017458
-0.63703763
1.0960262
3.0921712
-0.2707113
-0.439233
-0.1396264
-0.51288843
1.2000785
3.3477192
0.4591317
-0.60970694
-1.1140115
-0.49295068
-0.73304975
-2.030324
-0.2034132
0.21802603
0.114976734
0.49716482
-0.30831876
-6.1786113
1.5856876
0.26858804
1.4127517
-0.17889428
-0.24387452
-2.2322762
-0.22077282
0.8802179
-0.5510141
-0.0077165016
1.1015497
2.960777
0.24175814
0.19702695
0.730158
0.10467215
-2.3915322
2.782549
0.1555861
0.4441618
-0.43653983
-0.029456604
-0.24164647
0.3184577
-0.27320626
0.340426
4.0018244
-1.1072614
-0.3401693
-1.1542745
0.030569023
-0.014407929
-1.7845004
-0.15635498
-1.6540633
-1.4306426
0.28688556
1.2132316
3.3174522
0.24974832
0.9003341
1.91774
-0.7315824
0.72192895
2.799866
-0.77716637
0.22099794
-0.28914642
0.23600505
0.050717518
-1.7169287
-0.0277628
4.1927667
-1.5615088
-1.4459476
0.09782419
0.85967875
-0.038249377
-0.4020516
-3.039474
0.12813061
0.54779583
3.2596357
-0.45602742
-0.109328225
0.07843635
-0.023526987
-1.256023
-0.27834126
-0.5228915
-0.9314752
5.6858377
-1.0048066
-0.3035408
-0.8508496
-1.2410277
0.3336805
1.3715743
-0.3091384
1.2191542
3.0285168
-0.0380407
-0.37556675
-0.36810663
-0.23893511
0.11334025
-0.7203186
0.22697432
-1.2713313
-2.9814098
-0.19154452
0.38249344
0.24490498
0.09853086
0.0945946
-1.2387459
0.40137112
-0.8367602
-2.539957
0.05154227
0.3344399
-0.07446524
0.16623123
-0.33436608
0.78843355
-0.426558
1.2043198
4.9339514
-0.62935823
-0.4911832
-0.60691875
-0.0813261
0.18784195
0.73868054
-0.65756226
0.50771457
2.7715268
0.065561496
-0.483111
-0.24061038
-0.061942518
0.3987546
0.7345206
0.018752892
2.6246662
2.6886983
0.43145165
0.0010686037
0.1474237
0.11449961
0.22668456
2.1017938
-0.0983554
-2.210749
2.0510607
1.1528158
-0.7637206
-1.9201009
-0.20989966
-2.012359
0.93954545
0.19952503
0.9239076
2.8989725
-1.7898128
0.38148057
-1.3645655
-0.7521041
-0.08764277
0.6523651
-0.5518791
-0.814245
-2.795062
-0.34058386
-0.65829694
-1.2304132
-0.088459544
-2.4396849
2.5234387
0.5924434
1.9345642
-3.080036
0.13978225
0.5505408
-0.14151374
-0.35957947
1.0426757
1.6087472
0.6955255
-2.4197705
-2.800575
-1.6400288
0.7012967
0.37050852
0.5112675
0.35264024
-0.8589165
0.48525074
-0.90766674
-3.7934263
0.45242873
0.42138454
0.40316126
0.14980567
0.12234375
1.5710182
-0.85424745
1.6505854
4.4391303
0.69500846
-0.5414137
0.4040213
-0.68349075
0.9834114
-0.12782013
2.149843
0.06210746
-3.9600315
0.64787185
1.7296201
0.17512704
0.23530605
-0.17187066
-0.9017017
0.028468732
-0.9628767
-2.323437
0.08273258
-0.004023604
0.36323205
-0.05318371
0.008656852
-1.0940977
0.3563891
-1.2547562
-1.3596518
-0.4436579
0.48509827
-0.6924724
0.4359277
1.1797842
4.33197
-0.23210824
-1.1863245
-2.1457732
-0.22623654
-0.19477625
-1.7367556
0.49120432
0.8646844
-0.5848059
-0.21072528
3.6209464
-2.2953515
-1.3289795
0.46237728
-0.90198064
0.13114643
-0.611171
-0.96293867
-0.1525732
-1.0861017
-0.4868658
-0.95168215
-0.19760677
-0.52206504
0.17223811
-0.18178898
-0.9973481
-0.9704653
-0.8950557
4.530959
-0.97138983
-1.2403705
-0.90419817
-0.24952118
0.13407105
0.35994074
-0.16891293
1.5695647
2.610469
0.065252826
0.13927476
-0.007351781
-0.06828833
0.5442396
1.1005355
-0.11749288
1.0045484
2.2449677
-0.13855346
-0.071458235
-0.29148063
0.09769369
1.3238691
3.173974
-0.56091577
-2.0749943
-4.0818524
0.2749858
0.5302741
1.3873024
-0.3345632
-0.1731031
1.3848332
0.642026
0.05678675
-1.3178256
-2.6736803
-0.8765525
2.822949
0.13435017
-1.7823659
0.06540598
0.804588
-0.024844412
2.3734062
0.5569607
0.43208528
0.8415067
-0.6604222
0.38293248
-1.0999963
0.6062144
-1.2376199
-3.3718956
-0.0010060316
0.75028837
0.12191189
0.3740439
-0.15304352
-0.21180037
-0.024421893
0.7120121
3.8135366
-2.5496957
-0.7981758
-1.0639155
-1.1357039
0.7155076
0.9832313
-0.27175015
0.48521686
2.4739842
-0.45828274
-0.17884709
-0.5576329
-0.122556336
-0.024519345
0.5909224
-0.07824381
-0.13348319
3.930425
-1.0020337
-0.2652403
-0.46005088
0.0063756104
0.9067568
3.292315
-0.2968555
-1.8020802
-3.1569252
-0.049432896
0.08484195
0.020788832
-0.033617403
-0.09229632
5.511734
-0.40425706
-0.8961914
-1.827486
-0.21894072
0.027817968
-0.31270668
0.29471204
0.25259355
0.6208687
0.1042001
0.85139716
3.3615944
-0.71840024
-0.20394365
-0.48228267
0.13291001
-1.0050188
-1.6803943
0.8759223
2.2104633
3.4261348
0.18453084
-0.6028969
-1.3672149
-0.31463468
-1.2639471
-2.2322273
-0.44799486
1.5861168
3.104537
-0.1688326
-0.43775028
-0.34434584
0.087367915
0.049990214
-0.8474425
-0.028298821
-1.1227489
5.2303443
-0.7537002
-0.20518072
0.12687503
0.1619915
1.3108708
2.8257706
0.44774607
-1.960758
-1.6013075
0.085873164
-0.18876487
-0.6518849
-0.22968584
-1.1531954
0.21312366
-1.1722736
0.5943747
4.577118
-0.53083926
-1.2609845
-0.2852368
-0.9447261
-0.341008
1.5846916
-0.39704168
1.4947792
4.4261465
-0.968749
-0.46596196
-1.2018775
0.3612637
2.109549
2.59068
-0.38787448
0.99376684
-3.3645484
-0.6839796
-0.5417728
-0.26489276
0.017422568
1.075644
-2.4853039
1.0038755
0.85780704
-2.977965
0.35784408
0.8723266
-1.7384061
0.50663877
-0.8284387
-0.3866826
-0.58052653
-0.559254
-0.40420645
-0.48146057
-0.5636704
-0.5021557
-0.16444245
0.7409845
1.5334808
0.16169338
-1.5297703
-3.4218433
-0.4780401
0.5186559
1.0503423
0.3004338
-0.38777608
1.2308993
-0.91682976
0.69010556
4.587342
-0.34116524
-0.67271423
-0.6703486
-0.1659701
1.2332368
-0.97900826
-0.31402275
3.1320565
-2.1786253
-0.8523177
0.5910861
-0.464135
-0.16184811
-0.2979202
-1.1022314
0.26591444
-1.3674589
-3.3818734
0.42091158
-0.12105579
0.50124717
-0.27272528
-0.8119489
-2.0223866
-0.10374635
2.2191527
4.5852046
-0.23506199
-1.0803615
-1.3437774
0.5348293
0.39330474
-0.79293853
0.26296356
-0.65239555
-4.099299
0.49537608
0.20144145
0.20011085
-0.11521572
-3.378975
3.7489831
-0.17398971
0.9496761
-1.9249907
-0.32817245
2.4740486
-2.0829692
-0.1538381
1.2126609
-0.64382625
-0.3497397
2.690318
-2.2796206
0.26169434
0.6737726
-0.4383664
-0.011999731
0.8706664
2.2458994
0.13496995
1.2339668
-0.8762876
-1.4915322
-0.36229533
-1.1334033
-0.51284254
1.68009
-0.828839
-0.47245434
-2.8443375
2.5040224
0.6774728
0.5409727
-0.37883434
-0.24870636
0.16299933
1.8497106
-0.90768284
1.5914667
1.9778475
0.95192885
-0.7487631
0.8160738
-1.0940565
-0.37285784
-0.97726244
-1.5036767
-1.2652582
0.72935635
-0.16521329
-0.83113456
-0.35690063
-0.5616469
0.7169812
2.049031
0.14692716
-1.5322939
0.6647951
0.31813055
-0.54216987
-1.8078011
-0.25002277
1.9037533
-3.0145702
-0.14174874
-1.9853592
-0.50168484
1.7605271
-0.46575272
1.7524419
-0.7502399
-2.650893
1.2179074
0.8870999
2.9231892
-1.9331781
-1.8094872
-0.22044761
1.0440292
0.17388913
-0.5108281
0.9240582
-0.64838195
-2.3111827
3.9937496
-2.0678635
-0.6519013
0.9129232
-0.29584792
-0.28827617
0.58635896
-0.6682282
0.6232529
2.3943074
-0.30438992
-0.5404271
0.09640152
-0.11813113
-0.9222899
-0.10032135
-0.7983097
0.0019473871
4.8313565
-1.4911835
-1.1618606
-1.4001205
-0.445492
-0.2506561
-2.8561778
-0.28423312
0.68217796
4.8712163
0.23429842
-0.77872735
-2.2260835
-0.09955613
1.318401
-1.7916952
0.084223814
2.691493
-1.332445
-0.39764714
0.23767507
0.04945137
-0.15015388
1.1003895
-2.4277534
0.6043404
-3.1677983
3.1002314
0.5144799
1.3647332
-0.09643488
-0.10600945
0.99396944
-0.46447307
-0.26997057
1.0695107
2.4476452
-0.038747214
-1.4710145
0.6169412
0.22976074
-0.38218197
-2.2442775
-0.1855204
-1.9260628
1.1388143
0.84432447
0.37424335
2.7044044
0.06281791
0.3486185
-1.7265556
-0.023952711
-1.3825067
5.516112
-0.6773688
-0.06819861
0.34455946
0.58708614
0.22360522
-0.32823673
0.17787775
-0.8842203
-5.0721154
0.23979045
0.27617547
0.70141184
0.1258558
-0.5569421
-0.95920277
-0.28196555
-0.74366534
-1.0656912
-0.5335396
-0.33061054
-0.52196795
-0.066786565
0.76366305
-1.9858823
-0.669038
1.6907403
3.505381
0.11668222
-1.9882985
-1.6755855
0.5542639
-0.36858436
2.0241392
-0.36748713
-2.6303082
1.3488566
1.7812035
-0.6204239
-1.7653593
0.33957896
-0.7354787
-0.15090396
-0.4240742
0.46107915
3.4896047
-0.92622477
-0.6470319
-1.0863503
-0.12231522
-0.4865776
1.1996139
-0.6817883
0.29861456
6.3573136
-1.7072607
-0.5962262
-1.5980653
-0.03377894
-1.3152397
-2.1901572
-0.33710837
-0.96193236
3.384566
0.566628
0.19528711
0.6856453
0.043295182
0.08355335
0.8524247
-0.15590808
1.1929021
2.4280176
-0.19683091
-0.41229457
-0.053643372
-0.07295408
