0.062409043
-0.193419
-0.04472751
-0.6742836
-3.0562341
0.022423789
-0.054542977
-0.12926577
-0.14792079
0.8488915
0.36798915
1.0989599
-0.013555784
-0.06665873
0.13252613
0.6305886
0.16184817
0.8373575
-0.041236408
-0.7078179
0.011443416
-0.68786675
-1.5488014
-0.31686527
0.046644747
-0.4343815
0.042819448
0.13495152
-0.22906914
0.22175738
0.8097692
1.336616
0.39927405
0.4642793
0.9598936
0.138668
-0.6567424
-0.8180972
-0.4057872
-0.8060289
-0.7846739
-0.5033702
-0.29818153
-0.5037532
-0.18142046
-0.93794084
-0.46457478
1.3047549
-1.371257
-0.4580886
1.6556649
-0.097811565
-0.15555216
0.4461578
-0.54249775
-0.58192736
-0.43062592
-0.5108697
-0.24505816
-0.39330825
-0.60476905
-0.51835036
-0.43652064
0.6309485
1.0133528
0.4162085
0.873842
1.750502
-0.00035312257
0.40158895
-0.10465636
0.5181699
0.8362127
0.3670569
0.76062447
0.9004201
0.81936014
0.5563063
0.3155876
0.4446287
0.2793167
-0.34774584
-0.6654432
-0.1644536
-0.7664825
-0.72961545
-0.47814006
-0.532568
-0.64310163
-0.3345699
-0.33113286
-0.27571294
-0.30095467
-0.5864396
-1.1443324
-0.19319758
-0.57287145
-0.6455246
-0.38592646
-0.31914538
-0.64711785
-0.107691735
-0.75283563
-0.49241892
-0.5636264
-0.3427495
-0.44877174
-0.16928789
-0.013288927
0.9700118
-0.08668745
1.0727538
1.4344664
0.010486455
0.30761048
0.36411926
0.4898493
-0.93688375
-0.34962586
-0.7502862
-0.4565823
-0.51061565
-0.2729675
-0.55309695
-0.49919108
-0.3457022
0.6042816
0.8506927
0.3860153
0.74849534
0.98069143
0.5584809
0.6011431
0.44776475
0.34568942
-0.20188542
-1.3507739
0.056155927
-0.40501434
-2.5469728
0.36480075
0.67610365
1.0029123
0.28411013
-0.46912163
-0.9821043
-0.20302464
0.38259426
-0.39994827
0.37465608
1.4469639
2.4420438
0.8110597
0.3059024
-0.5073926
-1.2030514
1.356405
0.17083314
-1.2096437
0.15796892
-0.38959286
-0.9531366
-0.70311964
-0.48402515
-0.5020287
-0.72485125
-0.9350986
-0.42217916
-0.44385222
-0.4600102
-0.3050859
-1.2629654
-0.04868329
0.96343017
-1.493106
-0.35288408
1.6273857
-0.704144
0.5636843
0.4880565
-0.3909324
-0.5864098
-0.23432434
-0.71545076
-1.112462
-0.42012694
-0.56717145
-0.7443107
-0.362123
0.5507506
0.9323188
0.306226
1.0333226
1.0981613
0.5845113
0.49274334
0.4561114
0.4745029
1.2642622
1.0439259
0.86346143
0.814953
1.4623114
0.49079317
-0.16021371
-0.29019222
-0.5486287
-0.26282135
-0.11364521
0.36389515
-1.511064
0.615478
1.8803443
-0.33940673
0.10245081
1.2377502
0.8017746
1.9239395
0.25558728
0.08868486
1.9340318
-0.4455846
-1.1518776
-1.2374752
-0.72863376
0.60608995
0.75189793
0.4611714
0.9454051
1.2488097
0.4268897
0.32933247
0.77807814
0.24435554
-0.69591075
-1.8325636
-0.29177046
0.081572436
-0.8405259
0.2947725
1.6452109
1.5894142
1.0431081
0.8967114
1.1382525
0.5655897
0.75336146
1.1103191
0.35483852
0.25063682
-1.1826096
0.37623
-0.5356889
-0.67759454
-0.3921648
-0.6552956
-0.024617316
-0.58794004
-0.43387437
-0.71506995
-0.30803317
0.918599
0.6153905
0.66654783
0.8084841
0.37901834
0.54683083
0.45833954
0.70901006
0.2865347
-0.32699668
-0.75668716
-0.026052976
0.591459
1.4796426
0.042589873
0.9602726
1.0624902
0.7227721
-1.2209266
1.136708
0.23092388
-1.7714299
0.32163587
-0.6783341
-0.67289466
1.2831088
0.2874863
-0.16235311
-0.17597634
-0.12883343
0.4858301
3.4116545
-0.33591953
0.016991816
-0.06999838
0.12429488
0.033341847
-0.06540774
-0.03517701
-0.30013022
-2.1575024
0.2759682
-0.40212774
-0.34003496
-0.3057906
0.8726154
0.8682084
0.6243012
0.82813644
1.3776071
0.416916
0.71076226
0.40448302
0.58760464
-0.67603904
-0.5587867
-0.4801174
-0.6370137
-0.48959383
-0.4365025
-0.4662104
-0.41895387
-0.2876171
-0.51255727
-1.0832789
-0.12432207
0.7291675
2.415397
0.06880716
0.36638266
1.110885
0.053265475
0.88933706
1.0242475
0.55951554
0.6890147
1.0472604
0.34525666
-0.26163098
-0.46107286
0.039625287
0.35439283
0.4137364
0.3310476
0.5765707
1.7167237
0.03300543
0.40958533
-0.04134424
0.44774148
-0.05173351
0.17530432
0.0020099948
0.29241258
0.28343043
0.20289475
1.4647019
1.6419759
1.0272849
-0.6248793
0.1480697
1.6682179
-0.7607077
-0.40894228
1.7939734
-0.6195246
-0.122504085
0.7150205
0.73976475
0.24881473
0.5380196
0.9578256
0.8191916
0.5965698
0.73223484
0.69039804
0.5728373
-0.65140945
-0.5607391
-0.4147899
-0.6952858
-0.73206735
-0.45620304
-0.5344471
-0.5072462
-0.34260285
0.83334374
0.7119696
0.56023115
0.851653
0.8808415
0.6461314
0.14066337
0.582559
-0.055451106
0.24262948
-0.53423923
0.29044157
0.7626587
0.91841173
0.53019804
0.3902081
1.236528
0.10842548
0.25090602
0.3686328
0.19253108
0.940943
3.0524087
-0.25185797
0.28099847
0.20481303
0.3213956
-0.4942894
-1.0872903
-0.27688056
-1.0063151
-1.4095623
-0.6241715
-0.042715732
-0.35284132
-0.009478165
0.8563323
1.321653
0.6869139
0.7042167
1.1488599
0.059935737
0.40055743
0.771709
0.44086742
1.5924053
1.1468723
1.1860176
0.21163426
-1.317082
0.44469517
-0.0847726
-0.7739221
0.07561214
0.62405866
0.8928523
0.41104516
0.8195447
1.1258879
0.40301475
0.37913263
0.26976225
0.38331664
0.8588685
0.568872
0.7683366
0.39029962
1.3745716
-0.33520615
0.4494219
0.5167771
0.46549767
-0.61910343
-0.37373367
-0.46671346
0.45288628
1.6702772
0.09632345
0.9397301
1.2831774
0.56567997
0.6434043
0.8679967
0.44880623
0.9180159
1.287702
0.4191198
0.51918286
0.43990263
0.43170965
-0.2207099
0.4829369
0.17142783
-1.5020272
-0.898763
1.4471965
-0.5349445
-0.38722134
1.3109288
1.1030523
1.0834345
0.7669639
0.61266756
1.0145782
0.13502997
-0.62669677
-0.119464666
-0.40032488
-0.57575583
-0.856276
-0.39801142
-0.8975877
-1.1937937
-0.40919277
-0.066860616
-0.07366617
-0.08113446
-0.4936413
-0.21617357
-0.32072997
-0.1486213
3.765551
-0.87385404
-0.61587906
-0.39449087
-0.42834482
1.0747142
1.0862459
0.8243336
1.3069905
2.102723
0.5778056
-0.025995584
0.4451446
-0.024239983
-0.7797434
-0.6589663
-0.87518346
-0.92665064
-0.1607225
-0.06316126
-0.45589757
-0.38994178
-0.8909205
0.43117222
0.8192925
0.27426496
0.7766688
1.8953366
0.012676186
0.17415293
-0.027544368
0.2745809
0.8012607
0.95639676
0.5241966
0.71972096
1.4552158
0.33045158
0.6379429
-0.029767673
0.55637854
-1.5850832
-2.3055568
-0.92592716
0.28047752
-0.2388492
0.35775876
0.79677045
1.3764217
0.35960647
0.6178115
0.80682665
0.3491302
0.75627995
1.8664274
0.018642398
0.008638456
-0.18234488
0.16131146
-0.53091383
-0.63108265
-0.38739473
-0.6666718
-0.35408825
-0.4988595
-0.38994634
-0.75197715
-0.24444605
0.5166216
0.77270615
0.34092823
0.7737542
1.8197039
0.20084865
0.21600449
0.10940433
0.22848786
0.3415723
0.8049613
0.2514602
0.48576918
1.4756624
0.12824906
0.38565394
0.5154666
0.2699191
0.71219456
0.9036018
0.43583012
0.8980302
1.3179997
0.48184744
0.27782887
0.280537
0.20822261
0.252915
-0.426636
0.3668995
0.56421983
1.0624707
0.19439015
0.94049174
1.2002943
0.5750113
-0.12024689
-0.6754048
0.005672943
-0.7730262
-1.0590291
-0.32442325
-0.37698722
-0.26753664
-0.33870956
-0.48381922
-0.6143281
-0.29780757
-0.5357333
-0.56722057
-0.26693
-0.51372737
-0.47919223
-0.330178
0.8561409
0.34261277
0.82140476
1.049203
0.78348744
0.67817783
-0.57632107
0.92814595
-0.52934927
-0.86450493
-0.43138388
-0.61817205
-0.30933926
-0.1381273
-0.20868365
-0.7217756
-0.2896234
-0.6168578
-0.16074786
-0.66296124
0.0037593395
-0.49272332
-0.56133413
-0.37772232
-0.75137395
-0.25455847
-0.5891916
0.76119244
1.0260724
0.44180438
0.83117414
1.4360787
0.27977392
0.15132277
0.017659536
0.19619857
0.7125633
1.0258783
0.38734418
0.76361823
1.100719
0.3976275
0.16949837
-0.7757042
0.27824935
-1.1581903
0.29631665
1.3062638
-1.904044
0.2873296
1.4549129
-0.69498557
0.36421782
0.8957035
-0.7142909
-0.5172036
-0.47796375
-0.5681852
-0.31701353
-0.39821735
-0.57988316
-0.35211697
-0.44745672
-1.7135874
-0.026995715
0.92351717
-1.6253613
-0.21126896
1.9177352
-0.7912374
-0.28729412
0.50894654
-0.23676561
-1.0809647
-0.020728577
-0.59079
-0.979348
-0.43000287
-0.40032452
-0.743199
-0.23650578
0.67432386
1.372134
0.18982202
0.74537736
1.4732077
0.30727217
0.14533366
-0.4722509
0.23720548
-0.33171302
-0.05330892
-0.14942406
0.36733255
3.3047888
-0.60287553
0.07115665
-0.18607558
0.24647455
-0.001852434
-0.67111766
0.14521314
-0.54118586
-3.1267493
0.28507388
0.18736242
0.5716308
0.000855245
-0.26974824
0.390894
-0.31825468
0.54565066
0.45429048
0.29924077
1.3938596
0.8568462
1.1796101
0.56020916
1.3939897
0.35705516
-0.2667914
1.4582326
-0.5315862
-1.5270656
-1.5591294
-1.1743749
-0.6488235
-0.39870173
-0.5081618
-0.63831574
-0.55017275
-0.45695812
-0.565474
-0.36902258
-0.41283408
-0.34519863
-0.86545855
-0.23692997
-0.5689228
-0.44859177
-0.44208455
-0.7414326
0.09009398
-0.71666425
-1.5540512
-0.33785638
0.8598201
-1.4859827
1.2587249
1.1957464
-0.84838283
-0.5559904
1.0259657
0.5460316
1.4418285
0.22188008
-0.112499595
-0.32787293
-0.027208798
-1.1692053
-1.9579117
-0.6183685
0.5917108
0.9646484
0.2697312
0.80657285
2.0299706
0.11259619
0.22883227
0.015174258
0.27914646
0.42243358
0.9889392
0.06048016
0.91014504
1.2077264
0.5299751
0.40814817
0.11605105
0.3413274
-0.24873616
0.06817755
-0.1433919
0.8535145
1.4089729
0.35436508
0.8795239
1.292819
0.6084685
0.18083377
0.08808829
0.20224348
-0.14567703
-3.2535222
0.6525594
0.23188983
0.65104425
0.0056126565
-0.6137925
-0.55807406
-0.42604503
-0.6559855
-0.38701302
-0.5085913
-0.45453846
-0.2913456
-0.37943465
0.80853885
1.0942603
0.44265535
-0.09585848
-0.4742598
0.065914184
-1.3108503
-1.4226024
-0.8422599
0.5035119
0.7689528
0.29365462
0.97119814
1.0409253
0.6250844
-0.25766656
0.6790327
-0.3758295
-0.6110213
-1.6510522
-0.0729679
0.52507716
2.238018
-0.18470101
0.6144392
1.2516319
0.28151163
-0.640079
-0.41078448
-0.481728
-0.6238943
-0.6157179
-0.36822224
-0.4852898
-0.5079685
-0.32535282
1.3299824
1.9158626
0.7058505
0.24155106
-0.10869889
0.30668515
-0.4765832
-1.5570991
-0.16345012
-0.63295734
-0.46126354
-0.47010773
-0.74969953
-0.4671032
-0.53304857
-0.51640564
-0.50709003
-0.3117199
0.3270459
-0.27078858
0.38237268
0.8074055
1.402407
0.27913985
0.524503
0.7313376
0.31950292
-0.33077025
-0.4562079
-0.15750836
-0.3969546
-1.2571123
-0.15830083
-0.18370438
-0.3937187
-0.14011735
0.9201946
1.2765979
0.50145495
0.7069016
1.9123658
0.1470744
-0.35972816
-0.9501733
-0.055035327
0.9101844
1.9452537
0.20769304
0.34646264
2.0445087
-0.24939403
-0.5578176
-0.9889118
-0.25753984
-1.0033982
-0.497716
-0.75843024
-0.5073154
-0.15268627
-0.4085673
-0.37362435
-0.36287263
-0.30190155
-0.20765968
-1.1956156
0.14709416
0.006735054
-2.2294648
0.54351914
0.5674306
0.9626397
0.34132877
-0.6292207
-0.5660815
-0.49695557
-0.70538634
-0.55570304
-0.47738984
-0.47242135
-0.53913325
-0.37233266
0.87484616
0.8858986
0.5325626
0.26337528
1.2026472
-0.030181512
0.16283166
-0.65702516
0.2781167
0.13668169
-0.47412908
0.27480483
-0.42753452
-4.1266694
0.6743938
0.47682115
0.964474
0.18366168
0.56405634
0.671189
0.34260812
0.98445827
0.9842373
0.61051077
0.43860108
0.65787345
0.26406497
-0.36751047
-0.4397596
-0.29099214
-0.5404851
-1.6950727
0.007511051
-0.35700658
-0.059105784
-0.35223538
0.1910184
0.38350567
0.2976024
0.96829134
1.8458349
0.098374225
0.58657044
0.5848933
0.5817694
0.9008922
1.2489747
0.20648107
1.0578971
1.5466471
-0.5709885
-0.54940987
-0.49811596
-0.30288404
1.0783195
2.5050256
0.52103996
-0.25129429
-1.1196551
0.036937438
-0.18239792
-0.37340614
-0.07686682
-0.75238377
-0.919786
-0.4653825
-0.62609285
-0.39837795
-0.46473634
-0.2771854
0.03875655
-0.30011123
-0.64753944
-0.6671049
-0.39854726
-0.6679924
-0.83536595
-0.36184165
-0.44797415
-0.34926364
-0.3177361
-0.496612
-0.67903274
-0.26884612
-0.5642875
-0.45095703
-0.38358036
-0.43313172
-0.31938562
-0.28003132
0.7622473
0.8321571
0.5129141
0.74756414
0.9049145
0.40041813
0.7094802
0.023822628
0.64912826
-0.5799489
-0.47980565
-0.36583287
-0.578762
-0.49293482
-0.4763013
-0.50353867
-0.55508155
-0.28185162
-0.570161
-0.37239298
-0.47446752
-0.60425395
-0.63495433
-0.37465483
-0.6175707
-0.6167146
-0.471921
0.057751697
-0.5861034
0.20672219
0.5276032
1.5210986
0.15235741
0.7782066
1.3233738
0.35280165
1.5024304
1.4568499
1.0635425
-0.101115845
-0.5977251
-0.01727539
-0.5600039
-0.96032727
-0.18957204
0.5079059
-0.5795915
0.4836289
0.30649024
-2.0492868
0.650551
0.7222712
0.4123581
0.5511646
0.8651689
-0.5346069
0.82080555
0.4905765
-2.7118092
0.71047604
0.7980525
0.15359934
0.6446252
-0.61139584
-0.5371308
-0.45634606
-0.62990916
-0.82519305
-0.36816055
-0.44280314
-0.5218645
-0.24785633
0.66634077
0.3951382
0.6683746
0.7429278
1.1148038
0.34658492
0.6251034
0.7621565
0.47315302
1.1238259
0.855724
0.7015254
0.43887895
0.55466145
0.2815886
1.5511105
0.35289034
1.3044938
-0.26614192
-1.5521713
0.09033889
0.051199134
-0.88049304
0.109505005
2.0692384
0.7441905
1.7903743
0.28725094
-0.017649155
0.36262697
0.9404724
1.5127773
0.46234316
0.697383
0.92780095
0.3876357
-0.01896337
-0.60468394
-0.043480705
-0.48058316
-3.2023945
0.23476878
0.045567263
0.052049402
-0.080314204
-0.89394367
-0.7975262
-0.542604
-0.18757391
0.4291191
-0.28409734
-0.7256872
-1.0085757
-0.38788506
0.7436113
0.7217032
0.5754929
0.94181734
0.80297256
0.49010047
-0.5873876
0.44028497
-0.7081683
0.7473322
0.922102
0.41254988
0.8576014
1.0282536
0.42899343
-0.5076669
0.23309374
-0.6289784
-0.4788806
-0.35364157
-0.44424728
-0.5490129
-0.7003343
-0.28254437
-0.5960193
-0.3857111
-0.4443189
0.6310318
1.2797381
0.23883614
-0.201401
-2.31895
0.34717122
-0.8124484
-0.9133714
-0.54532474
0.5995474
0.9743309
0.33120105
0.6625716
0.99678934
0.218448
0.47902626
-0.059545822
0.5790504
-0.21809833
-0.81233966
-0.076242164
0.7005236
-0.8377161
0.8531668
1.1986015
1.0441574
0.8796286
-0.73004806
-0.6551197
-0.5993945
-0.45292893
-0.69211704
-0.17341419
-0.755046
-0.2156638
-0.67904806
0.9215779
0.7955627
0.5776606
0.90176094
0.9926848
0.4419697
0.04676332
0.22065426
0.18876548
-0.67090607
-0.5406561
-0.52289283
-0.28107768
-0.37819147
-0.20161949
-0.5083376
-0.22108242
-0.4045323
2.1613226
0.70263404
1.7536476
0.29112437
-1.4393367
0.54535717
-0.56324005
-1.2304286
-0.40562233
0.6905808
2.2913136
0.123557456
-0.4801381
0.18019512
-0.42141414
-0.8488062
-1.2734797
-0.49182802
0.7754909
0.689149
0.65265507
0.92117804
1.0772084
0.4807629
0.5870235
0.40899578
0.4669194
-0.68754566
-2.0456183
-0.21390711
0.37989193
-0.9746535
0.6501013
0.8727397
1.538762
0.3561062
1.6344944
-0.039281044
-0.59466225
2.0447931
-0.70800996
-0.6488107
0.8224617
-0.37044787
-0.5070042
-0.9881097
-0.95780486
-0.6842177
-0.7547418
-0.6055337
-0.46676722
-0.12084605
-0.009140548
-0.13879463
0.058022268
0.3034737
0.14783703
0.6244177
0.7164775
0.30280918
1.0442795
0.6897774
0.8724561
0.73034877
0.8853533
0.58344346
0.7623077
1.4417589
0.13010456
0.2534621
-0.10684232
0.3708631
1.8632029
1.1074553
1.4146192
0.03747906
-2.0377166
0.51702553
-0.48205265
-0.9653831
-0.2683997
0.23764586
-0.20798457
0.27006894
0.7184312
1.0725685
0.42599085
0.67180294
1.267664
0.35081142
1.0548706
1.2413253
0.60380715
0.8749033
0.71232295
0.5491136
-0.07506483
0.050869502
0.0055242837
1.0915649
2.4589336
0.47007024
-0.49074748
0.35729218
-0.46196684
-0.52253515
-1.1016153
-0.24033242
0.9408237
0.5487655
0.85678285
0.678899
1.4890331
0.039549816
-0.081382334
0.046916977
0.016679583
-0.89656395
-0.41916698
-0.6572004
-0.18090472
5.33479
-1.2926596
-1.4021797
-1.3339614
-0.9732329
0.9161613
1.3112527
0.5216831
0.5591578
1.45328
0.25007787
0.06655673
-0.3887637
0.13479556
-0.62944067
-0.5483389
-0.45224744
-0.8414996
-0.5482164
-0.54580206
-0.59120315
-0.4952622
-0.46293634
0.76658225
1.1142642
0.49743855
0.77102476
0.7326888
0.49648422
0.3199838
0.3201438
0.22896563
-1.544429
-0.24409287
1.9649101
-1.4831924
0.32469958
1.1647094
-0.4546585
-0.050193023
0.56088305
0.76192313
0.48065555
0.53192633
0.8461001
1.1948458
0.424992
-0.3296294
0.5120318
-0.3826894
-0.6010112
-0.738046
-0.33396193
-0.85255694
-0.8687561
-0.54269606
-0.23068433
-0.43431485
-0.06129938
-0.43195793
-0.7346106
-0.21935639
-0.79555106
-1.188205
-0.40210608
-0.2613425
-0.32963964
-0.21096893
-0.818836
-0.9213753
-0.5178634
-0.84964764
-0.9660702
-0.5348602
-0.354254
-0.47444907
-0.23453018
2.2332232
0.6209527
0.34328184
0.3788033
-0.8901686
-0.5530826
0.486561
0.21838723
0.13740586
0.43998128
0.35999045
0.3099081
0.6034236
1.2886535
0.22881857
0.6236158
0.5925256
0.36901128
1.246783
0.22112475
1.0900278
1.0650246
-0.3252034
0.95897907
0.97554004
-0.6678534
0.97415555
-0.050767846
-0.037646696
-0.08034921
-0.5353234
-2.9150972
0.35082224
-0.16834928
-0.19485563
-0.17859733
-0.9696032
-1.4520768
-0.49025974
-0.27994263
0.062600434
-0.28989306
1.1174545
1.8793004
0.57360715
-1.1444234
0.27123916
1.686945
-1.3578824
-0.29754686
1.5622395
-0.57359564
0.48331457
0.69215524
0.6523171
0.9647517
0.35779643
0.8146977
1.0226157
0.4260135
0.49066153
-0.87675005
0.5573069
0.2545338
0.28886738
0.12599029
-0.028516252
2.8919995
-0.7992837
-0.69364953
-1.1878997
-0.4668386
-0.32190892
-0.7242295
-0.1330851
-0.62740934
-0.9775914
-0.36739668
-0.2987761
-0.78042084
-0.23305836
-0.6179088
-0.6306096
1.2794721
-1.734249
-0.18300031
1.9718455
-0.043349568
-0.46888933
0.53214014
-0.014629872
-0.5880951
0.13124825
0.88460565
0.23756418
0.70182306
0.6671574
1.2592123
0.29980788
0.58004653
1.0377525
0.33310917
0.7989077
1.1347306
0.35328627
0.2962698
0.19814807
0.29007483
0.80705315
0.5187725
0.60814273
0.8123614
0.0845602
0.72769755
0.3765478
0.7411618
0.24870756
-1.0168198
-0.9988768
-0.69977534
-0.6502028
-1.3911941
-0.1587354
-0.3042767
-0.05879101
-0.3287519
-0.22762983
-0.44560128
-0.14070809
-0.60715145
-0.7774692
-0.4197861
-0.6320087
-0.4299816
-0.48446962
0.44751722
0.8388768
0.25250766
0.7255901
1.3917817
0.2527785
0.6577139
0.42780885
0.50655377
-0.32700568
-1.3363589
-0.015899908
0.2736006
-2.2274191
0.71517384
1.3265218
1.1394534
0.84402543
1.7066379
0.75692177
1.2949841
0.29321694
-0.6242894
0.53204715
-0.7608303
-1.226772
-0.5864759
0.677604
1.0850093
0.37305543
0.99077415
0.065055616
0.8659807
0.31332818
0.7909912
0.010321203
-0.62336063
-0.8619795
-0.4338842
-0.5822217
-1.1313971
-0.2363972
-0.46742663
-0.29522344
-0.37751934
-0.69011635
-0.7129442
-0.47090644
-0.76367307
-0.14727265
-0.6466611
-0.55242175
-0.59892964
-0.39195025
0.6461312
0.85412407
0.5779955
1.3551612
1.1495705
0.3949808
-0.23388888
0.45936638
0.33466098
1.3124132
0.6329129
1.0018048
-0.061130263
-2.231042
0.4391481
0.6027042
-0.45450082
0.5877094
0.082777925
-0.16570206
0.054633047
-0.21963477
-1.5996666
-0.13609768
0.0663948
-0.14224477
0.026282983
0.8030867
1.0913551
0.6592949
1.1280732
0.81077397
0.45029864
-0.18549433
1.1189804
-0.18040787
0.71426374
-0.2349408
-0.74961746
1.044678
-0.69238055
-0.938103
0.97880316
0.050089452
-0.7840493
0.36447874
1.884826
-0.21984468
0.47341767
2.388596
-0.14197803
-0.73331624
-1.2309835
-0.37392354
-0.7675118
-0.67268604
-0.5570364
-0.5015512
-0.31349668
-0.3429561
-0.4233359
-0.54108226
-0.2518023
-0.60279834
-0.39090624
-0.4809465
-0.49520567
-0.4563806
-0.37371287
-0.6895833
-0.47207895
-0.49599254
-0.64845896
-0.86048096
-0.38425794
-0.72436863
-1.0307918
-0.38808644
-0.25902852
-0.3308047
-0.21944483
0.2991567
0.46280408
0.2605034
0.90256923
3.0446157
-0.14180207
0.28869495
0.22875006
0.34418178
1.5143054
0.6009219
1.1877778
0.5412822
0.7258506
0.4379498
0.4895036
0.670331
0.20693587
-0.7751549
-0.7346017
-0.5027829
-0.54515105
-0.5605268
-0.30739397
-0.41646117
-0.26693076
-0.3562493
-0.8307615
-1.3989841
-0.3461096
0.33767667
1.1403491
0.008279156
0.99440515
1.448916
0.59090227
-0.20679717
-0.44844198
-0.002680123
0.7383875
1.2246695
0.33474264
1.0380583
1.3253025
0.6382248
0.9045813
1.4787936
0.44713455
0.4788853
1.20606
0.055315092
0.12538631
0.32983598
0.058923054
-0.23487462
0.18590343
-0.2228811
-0.73987883
-0.37373582
-0.61412597
-1.144457
-1.4466517
-0.68066233
0.45366597
0.1325032
0.4422684
0.530928
2.5961905
-0.087078825
0.4438149
0.552133
0.39518374
-0.38667217
-0.7124628
-0.17408556
-0.8036908
-0.95884717
-0.5031648
-0.42807457
-0.8811752
-0.16616312
0.5186389
1.069899
0.19641896
1.2893233
0.43666473
1.0228807
0.52823174
0.60144234
0.41682523
-0.5306661
-0.63614106
-0.31291142
-0.6988569
-0.6401994
-0.4617606
-0.5373213
-0.3279485
-0.41718736
1.1494209
0.8738073
0.897261
0.5195841
1.5845284
-0.0688559
-0.1386826
0.0024470899
0.02823404
0.9511494
0.6053585
0.7692896
0.47995085
0.85819256
0.13707304
0.7407622
0.26598805
0.68369484
-0.5678433
-0.4046312
-0.40117496
0.2860815
2.5307848
-0.16841042
0.044808317
0.42835546
0.014552087
-0.63018024
-0.48723343
-0.4296924
-0.6746352
-0.32153982
-0.565614
-0.41961882
-0.74031234
-0.21277343
0.6434894
0.73933303
0.36715883
0.83724713
1.7714041
0.12760648
-0.0070787473
0.1036154
0.10251717
-0.23342036
-1.2814615
0.055597797
-0.06308643
-1.5704932
0.48828942
1.3133205
1.3304216
0.91678005
-0.33709508
-0.51086277
-0.17247704
-0.41855523
-0.7805892
-0.14393784
-0.7468611
-0.46452248
-0.55575836
-0.63563395
-0.5940975
-0.5099271
-0.67595935
-0.52614844
-0.45521438
-0.7026528
-0.39562058
-0.48116502
-0.73023325
0.27587205
-0.62733424
-0.5977558
-0.124859944
-0.49707305
-0.7968107
-0.20256771
-0.6738439
0.9707946
1.082674
0.5153931
0.16303517
0.8261195
0.010439049
0.68859226
1.0182455
0.36558712
0.010644465
0.041998945
0.17354135
0.69108826
0.92607313
0.3756711
0.7913745
1.2259929
0.53729737
-0.7463496
-0.76425856
-0.48127696
-0.6370877
-0.6852498
-0.3656003
-0.45814916
-0.25781173
-0.41164124
0.67322767
0.78361446
0.45419818
0.6987789
1.2712779
0.23374334
0.35471356
-0.17173143
0.43547538
-0.028488267
-1.1217089
0.20600788
0.029046696
-1.8175579
0.52079517
1.5794069
1.8312327
0.9022945
0.51274735
1.2946827
0.1394645
0.7083212
2.1733747
-0.013994818
0.25889057
0.022451583
0.34191933
0.29496682
0.2473226
0.3267308
0.659844
1.9853978
-0.0774788
0.46839952
0.242744
0.5049091
-0.5497342
-0.9520528
-0.37960696
-0.8135378
-0.016824912
-0.7083938
-0.24848789
-0.79856265
-0.1659583
-0.7396253
-0.6836393
-0.45519808
-0.73181033
-0.61448157
-0.58526975
-0.78783935
-0.66099215
-0.5096556
0.78775936
0.91818535
0.47349668
0.8232416
0.8221545
0.5233143
0.6974212
0.38795212
0.5922168
1.5834318
2.1410139
0.981805
-0.30939254
0.10249833
-0.24267979
-0.4929637
-0.955987
-0.23559462
-0.59287053
-1.0176462
-0.2986161
-0.44776443
-0.40570647
-0.42614067
-0.48234308
-0.7378171
-0.3101863
0.51749223
0.76499736
0.2534895
0.7647697
1.1974623
0.39818883
0.44596666
0.28925276
0.3470012
-0.6943774
-0.5529041
-0.41888732
-0.6902955
-0.39314422
-0.494936
-0.50252265
-0.4005146
-0.35415182
0.72379935
0.5318494
0.6902996
0.6831513
1.1268599
0.18918392
0.57574797
0.22927627
0.623565
0.7209481
1.406251
-0.4016489
1.1045095
1.3954062
0.06958257
0.27400422
-0.476759
0.10108667
0.25604755
0.7937526
-0.0006730863
-0.30609134
-3.9571
0.71755415
0.25462028
0.44764176
0.06645941
0.33694676
-0.45714647
0.34948528
0.8223023
0.39072394
0.6900421
0.95376235
1.0663751
0.6753046
-0.6413945
-0.5241563
-0.43383986
-0.6600573
-0.5038203
-0.5013892
-0.62909925
-0.4313575
-0.5099357
-0.10449806
-1.0836791
0.17779769
1.2117581
1.8025415
0.6540813
0.14396547
0.462244
0.0386578
0.72642905
0.84757954
0.4018104
0.7676498
0.6974157
0.5599515
0.6783299
0.441174
0.41460404
-0.514033
-0.26036245
-0.36435047
-0.37006003
-0.16321436
-0.3351739
-0.8935515
-0.40306762
-0.68343925
-0.6203261
-0.5223021
-0.4428853
-0.7537176
-0.08000635
-0.65337515
-0.5821741
-0.39989543
-0.38965994
-0.5976775
-0.63582385
-0.40704256
-0.69258904
-0.7820328
-0.49086633
-0.3958634
-0.5826348
-0.23936464
0.37643895
0.9020555
0.19812216
0.9406392
1.7969445
0.017004313
0.12549041
0.35853627
0.11528977
0.90101874
1.6825027
0.46302912
0.9786549
0.77743065
0.6476631
-0.15696442
-0.6859427
0.1001628
-1.9579467
-0.97520614
-0.5405039
-0.63638073
0.22098164
-0.014036598
-0.60567665
-0.3716119
-0.1637197
-0.5902223
-0.81475556
-0.42550662
-0.5854127
-0.23601054
-0.56281936
-0.48648155
-0.6196088
-0.2833604
-0.27802488
-0.31213015
-0.196476
-0.64247155
-0.54759693
-0.68931085
-0.682049
-0.7868195
-0.47100288
0.64560026
1.1435664
0.21828125
0.62270516
1.5227542
0.2205706
0.39521125
-0.30966204
0.443718
-0.07462328
0.33973092
-0.098071545
0.57433534
3.8175871
-0.42241868
-0.2938021
-0.86851656
0.055547968
0.4729904
0.947766
0.27267948
0.9442828
1.9401408
0.21082777
0.014041332
0.22456041
0.1669774
0.5254411
-1.3423371
0.5784823
0.6793762
0.9847438
0.48674718
0.62207484
0.9475046
0.34687114
0.8532007
0.63379973
0.58599573
0.8752955
1.0242239
0.5282326
0.24721792
0.3323505
0.14452077
0.72686905
0.78389806
0.44470936
0.40454015
1.157976
0.19626255
0.5573597
0.17059761
0.4164887
0.90591633
-0.69321114
-1.0196325
1.8115476
0.055824526
-1.146199
0.9059523
-0.3836688
-0.76531
0.33346862
0.2082443
0.37743577
0.7252151
1.4556859
0.2860239
0.6739886
0.7270045
0.42800057
-0.7714999
-0.49180993
-0.58423597
-0.5765275
-0.407975
-0.43736622
-0.3889891
-0.21999028
-0.29950154
-0.6711508
-0.5109489
-0.51153344
-0.64805603
-0.38045382
-0.5054757
-0.48889956
-0.51189613
-0.33817348
-0.4996024
-0.44107422
-0.34736288
-0.60545325
-0.80948013
-0.38959736
-0.65210164
-0.44130856
-0.49113983
1.1187547
1.5591058
0.6163168
0.37566137
-0.85048443
0.49149144
-1.6673703
-1.9832073
-1.0597341
1.1792418
1.1346675
0.8088078
0.6351545
1.4305276
0.14057352
-0.3186616
-0.5064631
-0.18963596
0.89833945
1.3301126
0.6509704
0.4586292
1.3105994
-0.21356219
0.070584245
-0.08734694
0.37093216
0.70000005
0.9549884
0.4517289
1.000235
1.7843015
0.37924424
0.004445854
0.34433305
0.07597185
1.1414431
0.91650856
0.85794777
0.614774
1.6010573
-0.033648316
-0.9930059
-0.028410284
-0.79174775
1.2917137
1.8419294
0.70305324
0.15999526
-2.2538986
0.6519529
0.01543084
-0.99703085
0.19144186
-0.65098757
-0.4897414
-0.44142532
-0.6037242
-0.32180393
-0.46760407
-0.44587138
-0.4378433
-0.3655599
-0.8411265
0.13421582
-0.7519774
-0.59806395
-0.02114638
-0.5368102
-0.4085729
-0.8541874
-0.23703015
0.52893937
1.0108595
0.19275938
0.81914437
1.666607
0.3032692
0.83234113
-0.312228
0.8141875
0.50473845
1.0845042
0.15336664
0.96958876
1.6286764
0.49908224
0.547136
0.31070122
0.4103949
1.07404
0.47779793
0.8568326
0.2324334
1.1143036
0.027442804
0.06564179
0.71912503
-0.1487476
1.506917
0.36033902
-0.42053732
0.80523235
-0.6825015
-0.5544539
1.3046122
-0.2583241
-0.3642604
0.65392256
0.9443855
0.35392442
0.6701385
2.2065792
0.013024208
-0.053969514
-0.2164236
0.082799524
0.8398108
0.8616692
0.68803805
0.57894105
1.7593008
-0.09721513
0.005137786
-0.45832267
0.17747086
-1.9518423
-0.5445114
-1.8907813
-0.40079853
0.96628624
-0.395086
-0.06731526
0.3835332
-0.18614914
0.3572883
1.1195129
0.11635837
0.8628435
1.3924272
0.3854017
0.5061094
-0.7139886
0.5802056
0.9766042
0.13566017
0.797628
0.6932839
1.5887446
0.15960956
0.14225535
0.3476436
0.13416965
1.2366399
0.9716433
1.7428503
-0.48445234
0.07623027
0.38500577
1.3649603
0.5286106
0.48757577
0.6744456
-0.58793414
0.65729904
0.14960666
-3.7080457
0.88777286
1.1426427
1.095241
0.67909306
-0.45380965
-0.66722226
-0.27522367
-0.7143093
-0.55509806
-0.616108
-0.3772953
-0.5042969
-0.25472078
0.73938525
0.894159
0.5140617
0.747395
1.2089099
0.3572733
0.07383343
0.25543582
0.1518362
0.99612284
1.5107098
0.497905
0.82748
0.6333743
0.60731614
0.2882862
0.49081865
0.14889313
0.8323553
1.1707705
0.37357506
0.73322767
1.5230061
0.20151816
-0.021353472
-0.22857462
0.00040083955
-0.5661243
-0.6941243
-0.35958686
-0.7076619
-0.71303636
-0.49682483
-0.45993876
-0.33004573
-0.32405958
1.7339865
1.271831
1.2412466
0.62342095
-1.8373824
0.9594063
0.15775551
-0.8741565
0.2967096
0.9717748
0.36024693
1.1101027
0.793105
0.9553053
0.18636878
0.331737
-0.43434218
0.55078393
-1.204952
0.57986057
0.33389434
-0.7028756
0.6385516
0.6108536
-1.7217724
-0.04516745
0.6840835
0.9883295
1.4676926
0.47307932
-0.18671884
-1.9890991
0.3402684
-0.56049716
-0.89192533
-0.37261748
-0.31628725
-1.1984059
-0.09661794
-0.17411858
-2.911786
0.5808175
0.766251
1.0975718
0.39878985
0.7304961
0.9725151
0.412489
0.60376465
0.8326296
0.25769246
0.48442
0.8383793
0.34090257
1.4711804
1.65451
1.0148826
0.52988094
0.81610584
0.14749818
-0.29136243
-0.30271286
-0.12793426
-0.37451762
-0.6147142
-0.27862525
-0.9265856
-0.9665862
-0.45360896
-0.43815535
-0.49752337
-0.38274163
0.7808755
1.1499063
0.4892731
0.8711414
0.944059
0.5544942
0.40121818
0.78328586
0.18858574
-1.1140519
0.0739076
1.3222864
-1.6703775
0.79731226
1.1681805
-0.7013151
-0.24564904
0.7700606
-0.66110015
-0.7286869
-0.5256065
-0.8424995
-1.2519901
-0.5954174
-0.6590135
-0.8270505
-0.506128
-0.50700235
-0.4370112
-0.36535716
-0.49057612
-0.9043039
-0.29750004
-0.7138523
-0.6023982
-0.51609546
0.5658785
0.7081479
0.36083478
0.9976445
2.0199244
0.1809556
0.25670886
0.13321938
0.25649267
1.0357035
1.7345086
0.49357438
-0.61172086
-1.1308341
-0.23873709
-0.8002936
-1.603175
-0.3708396
-0.07218608
0.54161704
-0.34083748
0.96191335
1.2490197
0.66079843
0.7965066
0.9047307
0.5333947
0.60473645
0.8334163
0.39035007
0.86558825
0.6904474
0.57872665
0.3933428
0.55799085
0.2478462
-1.1960254
-1.725858
-0.6951144
-0.5861824
-0.5444563
-0.3164108
-0.017146923
0.30334124
-0.21722525
0.6166906
2.2240138
0.03245929
-0.29803076
-1.4490407
0.20633523
-1.1233493
-0.60534006
-0.90652275
0.62918305
-0.99951416
0.6973419
0.8016629
1.3150184
0.45754513
0.7829748
0.576804
0.5884119
-0.3130385
-0.12813564
-0.25125706
-0.7107766
-0.7995768
-0.50591207
-0.59130865
-0.54778934
-0.4191541
-1.1270508
-0.9086891
-0.752929
0.09214721
-0.81342006
0.26218483
0.9802952
1.4105577
0.53930926
-0.7429163
-0.60191876
-0.44496438
-0.6852645
-0.4854802
-0.5837711
-0.60427815
-0.6417304
-0.33246508
0.69848055
0.8640988
0.4023863
0.86712456
0.7374563
0.59147626
0.87339395
-0.081469476
0.7962646
0.7206078
0.724405
0.461141
0.9198062
1.3541862
0.39058876
0.6618771
0.39222383
0.4914948
0.86547697
1.104189
0.4861515
0.7717541
0.978956
0.51209503
0.5519189
0.23005575
0.43418628
0.78457624
-0.4005913
-0.60900676
1.4200414
-0.61415
-0.72286606
1.4168283
0.45258874
-0.85983413
0.5461096
-0.34746104
0.5260443
0.2622374
-2.7965734
0.78475577
0.5210191
0.613747
0.27816713
0.62467283
0.8469683
0.469214
0.870034
1.4109539
0.44851795
0.7996716
-0.91360235
0.9089894
-0.2777242
-0.40788957
-0.16608576
-0.76080465
-1.2412405
-0.30701452
-0.6209048
-0.67055005
-0.38942978
-0.7049948
-0.4943589
-0.6702592
-0.6263108
-0.13413276
-0.48326993
-0.41519287
-0.11128655
-0.35992125
1.3449082
0.29582798
1.1269546
1.1925381
0.66400886
0.8068071
-0.88685006
-0.9000969
-0.51150507
0.6016915
-0.9498394
0.6674751
0.10390783
-3.1211894
0.88458866
1.0209857
0.94176716
0.6615039
0.35785228
1.2032553
0.07024246
-0.22481793
-0.051155653
-0.14328559
-1.1296277
-1.3931421
-0.69766426
0.07646817
0.9926888
-0.07313811
-0.65938854
1.068888
-0.7809096
-1.6673766
-1.5820183
-1.2037233
-0.91275364
-1.544045
-0.42253944
-0.555635
-1.2194786
-0.11230888
0.37499264
0.16689335
0.23685266
-1.4240378
-2.4842734
-0.7758123
-0.069342345
0.9889084
-0.33769298
0.18133818
0.5782254
0.121300235
-0.6716496
-0.7698356
-0.4279304
-0.9437411
-0.97448844
-0.64250654
-0.54630184
-0.5847841
-0.42661822
-0.918494
-2.005062
-0.37539253
-0.2513744
-1.2198163
0.02834278
0.94394034
1.0692294
0.49817407
-0.9490134
0.3050031
0.91762537
-1.123553
-1.3255697
1.7027178
-0.6408549
0.56360775
0.93676054
0.76377666
-0.12878905
0.6956199
0.8522944
0.84852725
0.54504526
0.43709865
0.76377785
0.23878372
-0.46297687
-0.78209287
-0.3596639
-0.59668934
-2.6845424
0.22802119
0.01880436
0.30226803
-0.1767972
-0.8551774
-0.9301568
-0.5418108
-0.7675613
-1.0771757
-0.35947794
0.300192
0.711518
0.045049787
-0.76795685
-0.7575865
-0.5069722
-0.7856631
-0.8096803
-0.4793905
-0.32788926
-0.39921013
-0.18789557
-1.6146445
-0.025358796
0.98579735
-1.6587325
0.3538711
2.0220587
-1.2657969
-0.11506299
0.8688983
0.65116435
0.78537554
0.42610642
0.7533483
1.0499132
0.37020475
0.1278356
0.55656105
0.022485271
-1.4468241
-1.494477
-1.0237157
-0.35757056
1.6481042
-0.66908514
-0.17237419
1.1216729
-0.19638161
-0.3399512
-1.6280198
-0.08721306
0.63716424
-2.4053829
0.96877813
0.6385916
1.8001642
0.32271197
1.4885188
0.7569591
-0.9037264
-0.0016939346
0.88358086
0.48049846
1.3818716
0.68967927
-0.6194362
0.6979876
0.6191155
0.5580038
0.94016904
1.8574435
0.36304978
0.6563227
-0.31833124
0.64974344
-0.83727443
-0.8874788
-0.5755207
0.8750361
0.9047422
0.7799935
1.1385697
1.374802
0.6421771
-1.105866
-0.09832139
0.8671459
-1.5172259
0.5717788
1.2779258
-1.0509278
0.14027454
1.0656123
0.9934964
-0.12561592
0.829395
0.82155013
1.1281168
0.52176976
0.47427773
0.55489767
0.2975154
0.39886746
1.0389328
0.10136634
-0.36990416
-0.31215206
-0.23875004
-1.2303827
-0.94230384
-0.8552724
0.6430142
0.55717176
0.3478363
0.36264798
1.4871259
-0.007433223
0.60738957
-0.06886905
0.6006503
0.9636774
1.4673415
0.45535892
0.14583252
-0.98651725
0.3188751
-1.3725504
-1.4637239
-0.9484305
-0.22615549
0.13493644
-0.11988072
0.6447552
1.2004938
0.22047926
0.9269374
0.8480177
0.66603637
-1.3070983
0.18857865
1.0396812
-1.6163203
0.39033297
1.144097
-0.97805864
0.02722039
1.157386
0.31444514
0.4252701
0.1272895
0.19047678
0.9831475
-0.007313599
1.1912246
1.0590436
0.84093153
0.35027683
0.47284704
0.30215868
0.916225
2.1203098
0.2744514
0.38506672
0.36298978
0.3188144
-0.1374334
-0.7087031
-0.11152277
-0.6789979
-1.339884
-0.32272992
-0.2149534
-0.7125515
-0.19557415
0.878201
0.66629654
0.7101064
0.67091125
0.93950504
0.30212536
0.64791715
0.2863717
0.621997
0.58101714
0.8241472
0.43343705
0.21134706
2.1242762
-0.2545372
0.44533616
0.6330442
0.2874988
0.9304851
1.2978399
0.42210704
1.2844731
0.4526548
0.3581973
0.2975571
-0.47129926
0.13013197
-0.7059561
-0.39149383
-0.47768167
-0.56937796
-0.31511775
-0.3596182
-0.388313
-0.5943067
-0.23295026
0.9018509
1.0339648
0.5880185
0.8112042
0.7083619
0.707962
0.798671
-0.20878747
0.64081866
0.29081097
0.9084511
0.032385156
0.66595715
1.2638626
0.24074964
0.36006165
0.4800879
0.3507051
-0.07255617
-0.58866453
0.11936601
0.5841433
2.1158428
-0.11969351
0.7220252
1.0496511
0.46344838
-1.8581856
-1.8402604
-1.4054615
0.59278405
-0.12522402
0.6725549
0.73286676
1.3609113
0.3953722
0.58703274
0.8291724
0.4285591
0.99471194
1.9446725
0.19628209
0.2804715
0.27009767
0.3309339
0.3814983
0.23604234
0.3742838
0.6258385
1.5010083
-0.057598077
0.6110661
0.68276864
0.46833792
0.25043052
0.46927252
0.08009298
-0.30826777
-3.0966048
0.5336756
0.044110272
0.11607055
-0.07282484
-1.6412269
-0.6861403
-1.3170645
0.15513317
2.4891686
-0.19868112
-0.096651286
0.53957105
0.17711222
-2.1557922
0.2219963
-0.60922706
-0.18472573
1.5131228
0.049406335
-1.9123751
-0.2359273
-0.39134538
1.7090901
1.3160021
1.2077183
0.07450425
-1.95139
0.5720661
-0.34255013
-0.87557054
-0.21006556
0.90185773
1.1213926
0.45415255
0.81296337
0.46218345
0.63369787
0.8648956
-0.39356482
0.80255723
0.4855411
0.7500923
0.26162532
0.8936044
0.95447654
0.58730006
0.079536214
0.55547184
-0.070798635
0.35321602
0.63159776
0.2502914
0.6739637
1.3499918
0.006930521
0.2826564
0.26517022
0.3938078
0.65993124
1.1729985
0.21957126
0.7652164
1.5338004
0.12437283
0.16280356
-0.2142454
0.34861225
0.7833727
0.96345836
0.5343366
0.67025566
1.3844583
0.31244734
0.52154154
0.015797852
0.51644623
0.971171
1.3178949
0.49727207
0.9021677
1.4951024
0.31463683
0.7174492
-0.12604438
0.6859866
-0.8558649
-0.18099973
-0.7000335
-0.31919652
0.04190565
-0.24535224
-0.6804585
-0.1854557
-0.54145086
-0.8864573
-0.32977366
-0.5354387
0.5817308
1.3115073
0.08297014
1.1578493
0.63101
0.91893035
0.38825315
0.17729433
0.77020276
0.77984446
1.3252871
-0.17752293
0.8857696
0.39904767
0.96802515
1.1642803
0.5445272
0.9738261
0.36196387
1.4342299
0.037572216
-0.49833205
-0.30292967
-0.39454585
-0.5737008
-1.1129284
-0.20356576
-0.2779013
-2.0451038
0.2742237
0.7635336
0.77934223
0.4850875
1.1671617
0.45574787
1.1413589
0.80944127
1.440086
-0.2050264
0.48556438
0.40877375
0.84981626
0.6551092
0.26506984
0.5015342
0.863247
1.9247293
0.2778987
0.49559897
-0.13005555
0.40931478
0.714507
1.1273831
0.26361263
1.2488931
1.314838
0.77414584
-0.22735068
0.9698256
-0.50208473
0.628993
0.5764031
0.50493634
0.75098103
1.1983131
0.21592778
0.1779704
-0.15213661
0.3196821
-0.074480236
0.5720344
1.7858129
-0.82329404
-0.91024876
0.9838252
-0.32487047
0.061949324
1.2542939
-0.78875446
-0.5867201
-0.56849337
-0.65673745
-0.35850388
-0.5631146
-0.34997568
-0.52218795
-0.21805722
-1.6583501
-2.0987048
-0.9871636
0.41637748
1.0203195
0.13365063
0.93988276
1.2305726
0.60479486
1.4735055
1.7941047
0.82247263
0.4739513
-1.5847316
0.71311224
-0.44455558
-0.5451854
-0.289218
0.5255327
0.7550104
0.36131543
0.62500566
1.2309464
0.036176674
0.4137383
-0.07727407
0.52838373
0.7982063
0.9521324
0.54916006
0.83686304
1.3228959
0.2238624
0.5216318
0.43180898
0.52483803
0.45841905
0.6762418
0.28535882
0.7493812
1.5620544
0.16347852
0.2665967
0.051238123
0.29361185
0.21858515
0.5719263
0.07675673
0.7467653
1.3080391
0.4041299
0.71245813
0.69205856
0.55188847
-0.27410895
-0.17955971
-0.20834066
0.10456818
0.32052228
0.048148695
1.0673715
2.1480982
0.48848954
1.4574268
-0.18947393
-1.40468
1.755955
0.4020279
-0.9222087
0.6962724
-0.52697664
-0.69388366
-0.16450538
-0.26908126
0.08667097
0.7972086
0.5086871
0.6384933
1.0068711
1.4951272
0.6116143
-0.5687265
-0.5018148
-0.40116113
-0.73785794
-0.7741348
-0.4378999
-0.32450292
-0.6420828
-0.18033673
0.6355691
0.84996223
0.28088117
0.8016251
1.2119427
0.43519804
0.60093683
0.70240355
0.2919604
0.8109904
2.013803
0.19297732
0.24078682
2.4716017
-0.40574786
-0.755995
-1.196438
-0.44001302
0.7406057
0.26410148
0.67742336
0.64113426
1.1194545
0.26742738
0.9155692
0.50126594
0.6902239
-0.4045657
-0.7502508
-0.22788604
-0.7743963
-0.99830055
-0.3281446
-0.45070082
-0.48263618
-0.35486948
0.6817185
1.1023527
0.012140339
0.8634974
0.9576523
0.8355998
0.54293793
0.85179484
-0.015530734
-0.603355
-0.85032785
-0.3665408
-0.8139207
-1.1484914
-0.30193537
-0.4985578
-0.3668589
-0.42095068
0.74667567
1.1667416
0.09894456
1.0101005
1.0548192
0.76038915
0.17965178
0.64676005
-0.0854057
-0.52617013
-0.5113028
-0.4065151
-0.49737665
-0.40774095
-0.3969476
-0.53636706
-0.48874032
-0.39008904
0.83047557
1.4159293
0.25090992
1.185819
1.811734
0.41306797
0.08189608
-0.037967473
0.3012632
-0.38308874
0.23164979
-0.6567766
1.2244815
1.1901189
0.90266114
0.58502614
0.80892885
0.43594447
0.8460243
0.24335791
0.6599144
1.0034326
1.0120457
0.62114125
0.62383026
0.53107005
0.3509359
-0.47190908
-0.22948454
-0.3651947
0.98425084
1.5670074
-0.33726877
0.9009353
1.2509251
0.39282715
0.4993015
0.54002404
0.39162678
0.6520842
2.5930274
-0.22173654
0.18878081
-0.036403194
0.25161582
-0.60580707
-1.0338523
-0.34156117
-0.66891193
-1.5736135
-0.0015831322
-0.47289798
-0.81926125
-0.2026986
0.58272046
-1.8327534
0.80415046
0.9549286
0.95714927
0.6451681
0.7217505
0.8658321
0.502548
0.814567
0.37205428
0.6325621
0.66385293
0.92235863
0.44036615
0.646566
0.38265073
0.41855586
0.76940036
0.825326
0.7200661
1.2954109
1.0591017
0.56800896
-0.2512179
0.13370809
0.27323177
0.77683634
0.744288
0.52297413
0.77191293
1.642769
0.29056513
0.5415545
0.40499225
0.36288038
0.56125224
0.70462614
0.3895948
0.49099413
2.0094123
-0.19508749
0.011800504
-0.1604492
0.1315681
-0.5135456
-0.84488565
-0.27124432
-0.37844697
-0.9432656
-0.05948012
-0.24883239
-0.49433702
-0.1900581
0.71059656
0.9898195
0.4349001
0.98919487
1.0680184
0.59650815
-0.46744546
0.40685952
-0.23924394
0.7573496
-0.041927617
0.5946621
0.69556725
0.34311005
0.6906588
0.19709131
0.90479195
-0.12473989
1.0762349
0.6980303
0.8138849
1.0643487
0.26358193
0.78936857
-0.11986247
-0.24998035
0.018083092
0.36218083
1.084505
0.025602326
1.04783
0.14442338
0.88260806
0.22675255
0.74279004
0.06688373
-0.75739783
-0.52114326
-0.63275707
-0.5913589
-0.28228194
-0.54394484
-0.46981496
-0.52370614
-0.35038573
0.033733882
1.1282762
-0.1710429
0.15877123
1.1843123
-0.1706286
-1.8836355
-1.9580486
-1.1389961
0.5106809
0.6159683
0.28192663
-0.25015917
-3.8265746
0.69010323
0.12139967
0.5313846
-0.10187394
0.83628976
-0.037500594
0.7007702
0.8381509
1.936572
0.28224364
0.47846845
0.28175044
0.3636685
-0.29284674
-0.97872007
-0.16763104
-0.73424894
-1.7009574
-0.27682802
0.10524532
0.10359712
-0.00028528733
-0.5239719
-0.82231957
-0.30904025
-0.6959305
-0.50138336
-0.47408864
-0.46182308
-0.6170597
-0.30829236
1.1569008
0.85948116
0.8678357
0.25713962
1.212359
-0.11021525
-0.23857602
-0.41692495
-0.079707235
-0.6776199
0.05130307
-0.55759174
-0.82120687
-0.26448587
-0.668152
-0.6959641
-0.7634063
-0.4058906
-0.6458262
0.032513686
-0.9792539
0.93795735
1.082104
0.6107618
0.67579687
0.60173476
0.49617502
0.9420959
0.20932843
0.83511055
1.0680884
-0.038379647
0.87534386
0.27404934
-0.8713745
0.46796846
0.61107934
0.8646862
0.37341285
0.87481827
1.1698084
0.48276433
0.38250145
-0.38894048
0.4215967
1.3579065
1.0430045
0.8460252
0.8309474
0.9705083
0.56749356
0.09344218
1.2449412
-0.15937053
0.6295721
1.0548509
0.3670178
0.34017503
0.42389137
0.23732631
0.7943644
0.52403176
0.55521274
0.22119908
0.60861677
-0.029715165
-0.5082486
-1.2623683
-0.11997845
-0.9156486
-1.2429088
-0.515955
-0.59415597
-0.50491786
-0.4293479
-0.6559714
-0.50871575
-0.47646356
-0.34623283
-0.5428195
-0.20174493
0.16908471
-0.550786
0.30843732
0.3626969
-0.7051928
0.29227203
2.0315382
0.18057759
1.843107
0.664117
0.6905353
0.50437516
0.6315717
1.5078329
0.16103323
0.31650114
0.26016808
0.2568712
1.6972867
1.7459087
1.1906457
0.26457283
1.0148618
-0.11190509
-1.2326258
-0.8232096
-0.8231099
0.83330154
1.4264082
0.40939662
0.5007638
1.3155168
0.03165286
-0.33363125
-0.892955
-0.042723075
0.6775216
0.6588898
0.4344822
0.74666405
1.2788618
0.36498377
0.14703035
0.13917199
0.17521143
-0.796926
-1.6723413
-0.28049624
-0.35737616
-1.8489101
0.27096426
0.81331813
1.1212587
0.44704002
-0.49333256
-0.5267895
-0.343313
-0.55550474
-0.68607587
-0.34387228
-0.5290685
-0.47819272
-0.40042418
-0.41362602
-0.6019269
-0.27694726
-0.3909655
-1.1468922
-0.050634626
-0.47357973
-0.5521344
-0.33405194
0.92561615
0.86797786
0.6371593
0.56966954
1.4814233
0.21730739
-0.22174735
-0.6755739
-0.0833261
0.5877801
1.4969254
0.14536542
0.60609037
0.7394281
0.33781716
0.4960457
0.34767288
0.40488935
1.0802763
-0.06521085
0.9648199
0.6526278
1.2267641
0.34919372
-0.17091443
0.9260115
-0.3310856
-0.5456225
-0.43531805
-0.45966536
-0.76257735
-0.7345968
-0.4905634
-0.33585238
-0.22502925
-0.26201332
0.7874004
0.7540462
0.61851156
1.0275108
1.0223528
0.66478425
-0.50614846
0.16025124
-0.5897019
1.420655
0.6605389
1.4551619
-1.1797493
-0.7955627
-0.40334105
-0.12941477
0.5385896
-0.18859151
0.83854496
0.88618386
0.45164892
0.7833844
0.80660874
0.66621566
0.64519864
0.5286096
0.36888146
0.67734575
2.1103435
0.14430457
0.80659306
0.12821677
0.7054783
0.010865759
-0.3080461
0.07432588
-0.6331044
-0.7427738
-0.3830381
-0.7558626
-0.59179455
-0.5355163
-0.43963215
-0.64029235
-0.2223488
-0.62440723
-0.04774555
-0.55224043
-0.4720766
-0.65847087
-0.34879375
-0.6539804
-0.86855525
-0.47086602
-0.59955525
-0.53240895
-0.4759617
-0.7114486
-0.5520364
-0.43520033
-0.56277204
-0.488253
-0.39550096
1.323776
1.7474384
0.88395935
0.67084837
0.2524217
0.4984793
-0.16966623
0.3144786
-0.25770378
-0.35450387
-0.92066103
-0.12537883
-1.014502
-0.6839573
-0.77425206
-0.7341034
-0.39290097
-0.6395585
0.9507253
0.71948373
0.7624707
0.5426291
1.2013533
0.0027122723
0.12774113
0.34227565
0.079220414
0.44097838
0.86826026
0.22874497
0.85451376
1.542985
0.32788023
0.4724103
0.47908053
0.35772046
0.7588259
0.21960157
0.6814914
-0.33454102
0.62333375
-0.43874773
-2.1009307
-1.0421495
-1.6939462
0.17073943
1.0709225
-0.13251036
0.86794865
0.8515229
0.5958073
0.65337646
0.38404086
0.5099693
0.45167115
0.7016226
0.14523408
0.63524747
1.5961671
0.14079468
0.34729192
-0.05036571
0.3713216
0.70277745
0.8148045
0.43103734
0.76189524
1.4589742
0.13625076
-0.007625442
-0.27808934
0.19311051
-0.36223856
-2.7518437
0.24198066
0.8731469
1.7095244
0.34814924
0.48700133
1.8723108
-0.021717947
-0.9449737
-0.8376263
-0.60627764
-0.6276441
-0.520647
-0.46764186
-0.29558837
0.1655601
-0.2955523
-0.7710172
-0.5620793
-0.49531928
-0.59092253
-0.2263582
-0.5092855
-0.7576882
-0.67350763
-0.5104214
1.0638318
1.566562
0.5783168
0.24119622
-0.8115851
0.45020738
-0.6946834
-0.7026637
-0.4315581
0.4071509
1.853455
-0.20936006
0.61038095
1.7924641
0.12475064
0.52146983
-0.7833264
0.61342525
0.67778367
0.79288113
0.43977356
0.7818814
1.6076158
0.27920046
0.24044733
-0.16576368
0.3208321
0.7349784
0.41963375
0.5928991
0.826594
1.2876357
0.41341054
0.68801194
0.56832194
0.44790876
0.85440797
-0.34596744
0.8231586
0.5866405
-0.17662442
0.55788964
1.0690483
1.8097982
0.70916116
0.6488602
0.85088044
0.39252916
-0.3916012
-1.5262544
0.0453144
-0.55050015
-1.1649413
-0.25899512
0.7511361
0.40829408
0.6211885
-0.016896812
0.53202987
-0.057352286
-1.6187534
-2.3714724
-1.0293965
0.44579804
0.35978892
0.510014
0.7617898
1.929752
-0.0107212085
0.17348611
0.25651503
0.25427124
0.989442
0.62631357
0.819609
0.34287572
1.2010043
0.04276129
0.78970015
-0.010536288
0.70257443
0.3041945
0.48495743
0.15189245
0.7440787
1.600407
0.17674047
0.31096366
0.32379684
0.2760491
0.95917827
1.0172424
-0.66377896
1.0774829
1.6428118
-1.3128918
0.18678719
0.13854846
-0.3656285
-0.015000723
-0.07325963
2.3399255
-0.5911878
-1.1380965
0.027024651
0.36753112
0.19205673
2.3965473
-0.4047368
-0.16468488
-0.28455165
1.0239123
1.4231658
0.5066592
0.7191782
0.76649606
0.58727294
0.52593267
0.57144094
0.45554027
0.21669114
1.2638465
-0.2663115
0.6207322
0.39257628
0.5786379
0.78287363
0.56877047
0.56151927
0.9871911
1.0400109
0.5639162
-0.058995742
0.7096766
-0.0903931
-0.8386876
-0.8330374
-0.57643306
-0.9454561
-0.95927876
-0.53609467
-0.45736402
-0.56062126
-0.33436677
0.41140592
-2.0822802
0.43934304
0.9125249
0.31965184
0.8365993
0.61530465
1.0600262
0.32279384
-1.5692953
-1.8103597
-1.045081
-0.21688537
1.5412495
-0.57510805
0.10490034
1.7481931
-0.10823119
0.57663625
0.69676864
0.39103472
0.54409814
0.99034107
0.19852172
0.5237739
-0.28894296
0.56108594
-0.5992698
-0.6876061
-0.3452149
-0.7348916
-0.9035892
-0.34843916
-0.10012413
-0.39425424
-0.016638676
1.036705
0.5798281
0.85074806
0.66508543
1.3512815
0.16040584
-0.19079319
0.02900807
-0.08727284
-1.1137354
-0.27909693
-0.98084825
-0.56946355
-0.049336847
-0.3407328
-0.6376386
-0.31580743
-0.47843233
1.313358
1.0602212
0.9702556
0.5430343
-0.59687537
0.62454647
0.3347638
-0.14369518
0.23573178
-0.6203752
-0.7540327
-0.45032337
-0.7235487
-0.55835617
-0.48745227
-0.51844287
-0.41270223
-0.39128
1.346546
0.55249476
0.9953948
0.47481966
1.302879
0.271426
0.108410664
0.6129804
0.0027859327
-0.63302433
-0.92752445
-0.36890802
-0.7856078
-1.5255682
-0.36803758
0.107699536
0.093691766
0.024081914
0.9406692
0.83657205
0.66917026
0.84752786
0.789959
0.5687875
-0.5007135
0.40609312
-0.52979296
-0.65830797
-0.37029052
-0.56120086
-0.45832095
-0.29874972
-0.2977075
-0.5705506
-0.48816878
-0.48379934
0.7391721
1.0804735
0.40866548
0.8092856
0.75441796
0.6099483
0.5560052
-1.3115151
0.61471355
-0.6074246
-1.1890216
-0.2528926
-0.49001813
-1.4225544
-0.15036035
0.084070556
0.04308316
0.089512296
-1.4895252
-1.592377
-0.84355503
-0.13559677
2.486976
-0.74468255
0.32588542
1.4152846
0.15317257
-0.732418
-0.7507206
-0.5314763
-0.80578285
-0.8767983
-0.5386521
0.109906234
-0.6063222
0.16926625
-0.42642745
-0.8844397
-0.15716264
-0.85956323
-0.97941333
-0.4900742
-0.1623604
-0.2976519
-0.09561094
0.83772016
0.14555569
0.5743449
0.6344438
1.2075378
0.46130016
0.7502036
0.9178182
0.30262703
1.0886829
-0.6279411
1.1053919
1.3160423
0.22770226
1.1572988
0.41031998
-0.116848595
0.3672114
0.88691527
-0.4843653
0.7951297
0.19943331
-0.07930846
0.2591257
1.3508698
0.79340583
1.0585961
-1.2922072
0.175301
1.0462737
-0.5557399
0.27401167
1.4334549
-0.8830354
-0.11081914
0.55407476
-0.5902883
-0.7184243
-0.38075343
-0.81138366
-0.80888855
-0.62106144
-0.3288088
-0.5156035
-0.17494945
-0.7557149
-0.500367
-0.51824707
-0.45501253
-0.17453438
-0.37767074
-0.62760687
-0.56075424
-0.46472338
-0.6729434
-0.76744837
-0.38285536
-0.85453314
-0.71418166
-0.6395455
-0.501522
-0.47843823
-0.3318663
0.85778934
0.3917955
0.65661055
0.4046511
1.0157684
0.18128392
0.53670394
0.713288
0.32066602
-0.64208406
-0.689574
-0.39194518
-0.7467326
-0.79584414
-0.41562337
-0.3628455
-0.40393248
-0.23154998
0.8964677
-0.40622488
-0.96456534
1.2126678
-0.30559054
-0.69466853
0.69526744
-0.66624224
-1.5766187
-0.3505676
-1.2160044
-0.08240119
0.18093035
1.5655127
-0.24271996
0.97366124
1.8297169
0.43505776
0.6770054
0.6587017
0.542727
0.76594007
1.3764242
0.25829634
-0.020967502
0.017661782
0.11874215
0.77107483
-0.8344647
-1.0374875
1.4732242
-0.86897606
-0.9932367
0.70153904
-0.36372045
-1.1899253
-0.46034622
-0.01803324
2.048847
-0.832647
-0.79148453
0.87181425
-0.4122814
-0.027654793
1.5268368
0.5691446
0.6035948
0.33572385
0.6939756
1.015103
0.42223313
1.032884
-0.29998824
0.9156603
-1.2968373
-0.89285547
-0.91746277
-0.7101947
-0.23654673
-0.55072504
-0.39789438
-0.020198356
-0.30444032
0.72511685
1.1055272
0.42763624
0.84827214
1.3119464
0.3028559
0.5960264
0.3134599
0.48825186
2.0959494
-0.32131273
-0.08083112
0.65885776
-1.2892942
-0.26007333
1.3380482
-0.3206782
0.0061093336
0.9768271
1.0887494
0.6811508
1.2695252
0.19122674
0.90864724
0.17767878
0.0033956545
0.2205633
0.6154945
0.7460587
0.47636732
0.78772664
1.8130403
0.1212505
0.28340667
-0.07166525
0.4036481
0.68361163
0.9257456
0.41310024
0.74624586
0.26219764
0.6067343
0.4828027
-1.8998725
0.6834564
0.56927115
1.0771557
0.16679111
0.8952151
1.4941878
0.30398542
-0.049680702
0.3637944
-0.03228585
0.46391746
0.8539859
0.2669047
0.6678132
0.922445
0.43507618
0.9974591
-0.58232754
0.9069749
-1.7483921
-1.6721557
-1.2305695
-0.31617093
1.094117
-0.4478772
0.34852752
1.1224868
0.17742376
0.84245783
2.3877828
0.16369823
-0.18861629
0.5014996
-0.29516873
-0.5757192
-1.5755252
-0.1567262
-0.5474867
-0.64828914
-0.36866334
-0.5384671
-0.8356237
-0.22939621
-0.21448275
-0.07974325
-0.18841673
0.9211087
0.42050004
0.8069016
0.7646617
1.3852973
0.36126447
0.45015875
0.74272776
0.2248282
-0.7185479
-0.39510918
-0.5625287
-0.719339
-1.1758144
-0.42713955
-0.41521075
-0.76350284
-0.16602509
-1.5182426
0.13301918
0.41999277
-2.2645984
1.9056321
0.8106417
-0.78214145
-0.22001854
0.33812246
0.32694727
1.2732757
-0.12899014
-0.16141483
-1.2454735
0.15833968
-0.6912702
-1.573552
-0.47389048
-0.74762774
-0.30360904
-0.6465043
-0.44852808
-0.41819632
-0.26116982
-0.4767991
-0.08664017
-0.47879833
0.22383228
-0.13887665
0.7401244
0.31827605
-0.298006
1.0749481
0.14367698
0.016490636
0.3361378
0.1075577
-0.03420261
0.0043234206
-0.5470173
-3.1131089
0.29768354
-0.011245438
0.31741545
-0.16785724
-0.61672044
-0.8707234
-0.42715523
-0.8801839
-1.0847156
-0.4355092
-0.3827377
-0.32306552
-0.31029132
