-0.0068344655
0.04175433
-0.056594387
0.05453907
0.09248111
0.023656435
-0.078541756
-0.0016728325
0.02888331
-0.036509655
0.024582805
-0.008389475
-0.005906408
-0.018829996
0.019314865
0.080144644
-0.013343622
0.013640377
-0.014807055
-0.018346021
-0.087065786
-0.040310416
-0.0011663992
-0.037116226
0.014840486
-0.032408513
-0.001953243
0.009353153
0.0026362515
0.10335038
-0.036950216
-0.050203912
0.015552769
-0.07515719
-0.037757635
-0.03136057
-0.023650197
-0.02939165
-0.027000071
-0.04259932
-0.04350161
-0.0834786
-0.011959415
-0.0029053963
-0.00301472
-0.019233042
0.04318756
0.0021351178
-0.008628974
-0.015070487
-0.11042425
-0.040435802
-0.09177497
0.1329811
-0.017430404
-0.04617715
-0.042667944
-0.039637323
-0.022550302
0.09028479
-0.0456864
0.13912435
-0.044551615
0.011148701
0.014234143
0.005855234
-0.025138203
-0.09273157
-0.10147829
-0.09350428
0.12413627
0.049509004
0.00924261
-0.010823076
-0.050730158
-0.040991433
-0.021572802
-0.00598235
-0.003601598
-0.06792123
-0.08046682
0.10914082
-0.01005342
-0.058656055
-0.014385885
-0.019731415
-0.042534433
0.0055666836
-0.049546815
-0.010496296
-0.040057488
-0.05853458
-0.09941415
-0.019012881
0.010238948
-0.103165165
-0.006083078
-0.08771975
-0.0032038111
-0.070210434
-0.05124915
-0.05134991
0.010359935
-0.07646199
0.08637564
-0.0674281
0.040852983
0.09982921
-0.019701941
-0.014355524
-0.08137363
-0.037496537
-0.020899126
-0.040283903
-0.04517241
0.03160699
-0.053464323
-0.060744207
-0.084390715
0.0010656643
0.07203088
-0.009778286
0.00015035651
-0.001902474
-0.030318942
-0.06461727
-0.058284823
0.02725286
0.057492692
-0.016840667
0.11224762
-0.01509712
0.0028914816
0.09548958
-0.022390645
-0.095196605
-0.05739455
0.03036154
-0.021703077
-0.012543142
-0.01651098
0.058623545
-0.022984294
0.004823078
0.051555082
0.040657997
-0.051416386
-0.016995322
-0.0038944972
-0.056388102
-0.039743472
-0.047273897
0.09925699
-0.022728736
-0.016521107
0.041181616
-0.030116959
-0.20776053
-0.016750311
-0.15500195
-0.009048419
-0.05015926
0.06721514
-0.02903735
-0.09274339
-0.026639236
-0.012613826
0.06667834
-0.0018087499
-0.014527401
0.036586322
0.01537215
-0.069893435
-0.035536043
-0.07930696
-0.072813064
0.030016093
0.0029903038
-0.032961383
-0.16762099
-0.0029098545
0.056174833
0.039754555
0.12723398
-0.04468692
0.0049285237
-0.04242363
-0.078129515
-0.015814593
0.037721533
0.0047498434
-0.045098007
0.016590023
0.015192233
0.043446984
-0.05318087
-0.100232996
-0.116838194
-0.004618646
-0.18169732
-0.048280813
0.026457708
0.06783867
-0.0018717536
0.013925712
-0.010447801
0.06864389
0.010434553
-0.08117339
-0.005680782
0.07467161
0.0875936
0.038074084
-0.0543595
0.03936406
0.016569756
0.05960496
-0.007525276
0.021427771
-0.015131468
-0.105198495
-0.07861511
-0.012317002
-0.114770405
-0.03394454
-0.11951936
0.021984639
0.06522722
-0.0016747698
-0.16944738
-0.09978237
0.0038265607
-0.038693845
-0.019225242
0.028775318
0.13118123
-0.011475891
-0.025626967
0.02140361
0.13340947
-0.02885707
0.121697605
0.07536782
-0.0016927506
-0.006371194
-0.066036835
-0.038123034
-0.03500198
-0.119310826
0.029099211
-0.09126746
-0.010419486
0.0068423054
-0.15030333
0.088538185
-0.0032445649
-0.05262612
0.03578831
-0.049238123
-0.0056433636
-0.11954374
0.16605876
-0.06710393
-0.014693443
-0.044749714
0.04330497
0.09144276
0.07729887
0.034146275
0.031240052
-0.015913008
0.030320391
0.008652333
0.06464505
0.0778123
-0.046487004
0.12199841
-0.092365146
-0.07950317
0.03742372
0.026617117
0.118096195
0.051135942
-0.00960435
-0.06493333
0.12760517
-0.045693573
-0.0020626637
-0.20488921
-0.036522813
0.022081288
-0.0031206885
0.01604118
-0.060219586
0.093603864
0.0522832
-0.0023051319
0.01176559
0.07456867
-0.102475084
-0.016858513
-0.07773252
-0.033449713
0.03455055
0.10125888
-0.008124161
-0.061206937
-0.048895586
0.011271022
-0.030316344
0.05465743
0.011677813
0.05435102
-0.06140427
0.13932061
-0.073207684
-0.0021966412
0.03718062
0.035896584
-0.060469586
-0.0128005985
-0.17542863
0.058605902
0.09619797
-0.06366908
-0.11433631
-0.02429668
0.022759814
0.023240088
-0.05498465
-0.061492063
0.09389418
-0.04382347
0.058137536
-0.02896807
0.1819969
-0.05646107
0.03703546
-0.019375801
0.027666787
-0.020960435
0.061034646
-0.07289059
-0.009130596
-0.06465471
-0.019680128
0.10465652
-0.052182227
0.000832128
0.13796583
-0.018044455
0.025469411
-0.01500155
-0.01583023
-0.017796569
-0.054642126
-0.08819052
0.045693576
-0.056749813
0.08122278
0.05043254
0.16477449
-0.055763263
-0.01699126
0.03871646
-0.05171397
0.07927767
-0.07852926
-0.043163102
-0.070860885
-0.02476266
0.0941264
-0.048345424
0.01958698
-0.01853874
-0.030969754
-0.110193275
0.06804668
-0.05137011
-0.06328059
0.03531651
-0.079669155
-0.083279066
0.05936912
-0.049082424
0.078219354
0.015580982
0.1686527
-0.05497175
0.010714647
0.0012704073
0.09033101
-0.03558158
-0.15363757
0.024795383
0.103617765
-0.15917614
0.0011550166
0.04133926
-0.019715205
-0.049656294
-0.038567524
0.10232504
-0.08382798
0.11329502
0.026162123
0.010733887
0.13899165
0.06837232
0.004427528
-0.027464598
-0.037960026
0.0073254793
-0.1273948
0.047129452
-0.024480784
0.032978248
0.10058392
0.016272778
-0.0489829
-0.028575638
-0.05386181
0.055859894
-0.023208113
0.1173875
0.029592924
-0.0598444
-0.31189117
0.20793979
-0.015420965
-0.038384702
0.11334502
0.011393567
0.016496815
0.09235982
-0.026687194
-0.04912983
0.040984496
-0.009817412
0.02367078
-0.016614398
-0.0043156357
0.07354925
-0.027424242
0.0076262658
0.06074495
0.005870003
-0.08008201
0.03373329
0.11800868
-0.1518648
-0.105820216
-0.017791627
0.14316432
-0.060668617
0.06065645
0.021078974
0.07506675
0.097212516
0.11039469
-0.09528457
-0.042168677
0.004767735
0.06898857
-0.009267489
0.041577607
0.06826253
0.18983199
-0.039710004
0.0654734
0.045121808
-0.010740854
-0.008832165
0.044128295
0.063253276
-0.009933615
0.0442434
-0.035233628
-0.035199404
-0.114000745
-0.039494388
-0.017230818
-0.08403803
-0.3250142
0.0053365626
0.0009360064
-0.049737453
0.12951666
-0.044374887
-0.00888159
-0.010216524
0.08614849
-0.038937602
-0.011224215
0.031941544
0.0997774
0.0070835617
0.04016071
-0.0076706205
-0.048485152
0.04079591
-0.026202185
-0.014970273
-0.075455606
0.015387827
0.065780126
-0.021217475
0.07241592
0.02557699
0.1357771
0.046917748
0.091395505
-0.03403278
-0.03384517
-0.066438854
0.10757176
0.004909942
0.0009169335
-0.12586708
-0.0015715619
-0.0042312797
0.010757906
0.033499002
0.029161574
-0.028573053
-0.045103364
-0.006630352
0.0155096045
0.02802585
-0.0066221687
0.03407136
-0.06529447
-0.06346195
-0.022021772
-0.054194648
0.020993907
-0.039044473
-0.05220833
0.027156167
-0.041084744
-0.015878346
0.08292447
0.05451536
-0.030109584
0.00047216853
0.0087602725
-0.029571332
-0.023167638
0.019567292
-0.021258686
0.051621817
0.0111861555
-0.040081643
-0.08170978
-0.03079495
-0.057242084
-0.01674034
0.07300716
0.06788523
0.008365993
-0.029431237
0.07192145
-0.10716904
-0.06989359
0.005674661
0.061474007
-0.020348113
-0.017201148
0.10420331
0.032491244
-0.04837919
-0.03138839
-0.11954983
-0.016039563
0.024460603
-0.10498067
0.016173359
-0.018387614
0.091569714
0.0028439548
-0.055848084
-0.01923167
0.058645576
0.014362536
-0.09528464
0.0071586715
0.003390724
0.05770822
-0.017398493
-0.033756133
-0.020422619
0.03664733
0.018414063
0.025925446
-0.11803404
-0.08004599
-0.026231155
0.0114386445
0.00023570487
-0.010272737
0.018240942
0.009888319
-0.07051168
-0.05943961
-0.103574686
0.039648175
-0.02390231
-0.0005624166
0.007778255
-0.021199241
-0.0393394
-0.019162223
-0.0028884644
-0.0503324
-0.033767197
-0.04700459
0.04250301
0.018245984
-0.02135157
0.025261918
-0.0062969127
-0.027752174
0.007302289
-0.03399899
-0.02862091
0.05326726
0.023354016
0.0054231
0.011411065
-0.047667727
0.005610547
-0.042456567
-0.025020273
0.020188566
-0.08549951
-0.004214061
-0.11762313
-0.017789824
0.013317035
-0.029424876
-0.017544698
-0.0056343963
0.016842807
-0.05501265
-0.0368988
0.026855256
-0.01661282
-0.060521267
-0.0013797509
0.03128382
0.035210308
0.003993566
-0.0017842253
-0.025009636
-0.036170736
-0.0019410133
0.025323752
0.05437211
-0.01917569
0.020270666
-0.055218574
0.020380028
0.05079741
0.04100853
-0.056730974
-0.061231382
-0.01944615
0.109703615
-0.02265537
-0.047632817
-0.042631276
-0.011884354
-0.039304346
0.08797474
0.0453801
0.013084888
-0.062099334
-0.020093024
0.19966438
-0.008040248
0.0029367553
-0.026300736
0.015313871
0.019806301
-0.0117918085
0.001348634
-0.08399121
-0.034699667
0.06652071
-0.0484111
0.008375284
0.02125435
-0.025354188
0.037661783
0.014886104
-0.0016414978
0.04713537
-0.18576129
0.008078991
-0.04924252
-0.07112207
0.18242942
0.085466415
-0.011863496
-0.0051729884
0.00012746395
-0.02240082
0.08538395
-0.030968603
-0.027118089
0.024404272
-0.011839972
-0.030399987
0.03616563
0.24395832
0.038756564
0.03539348
0.024422238
0.02574028
-0.0012272102
-0.16193098
-0.012659357
-0.14777051
0.02976526
0.045481067
-0.016473886
0.023743229
-0.01027257
0.021705486
0.04340441
0.006144704
0.048223488
-0.034410547
-0.041032407
0.010786222
-0.056822907
-0.10053942
-0.1049151
-0.012808506
-0.08124998
-0.0020052125
-0.062342033
-0.043410636
0.015128004
-0.0008686333
-0.024230815
-0.015272351
0.04242223
-0.04265787
-0.044274163
-0.012445086
0.0308734
-0.03875498
0.0023471962
0.052710544
-0.008926589
0.0048070992
-0.014839927
-0.00022511941
0.22129211
-0.07128799
-0.12211166
0.019877432
-0.023471469
0.027041102
0.004387611
0.053725068
0.010278797
0.0004480758
0.003871912
-0.042830028
-0.0061169188
-0.06396896
0.035153393
-0.063055485
-0.031630937
-0.058446925
-0.0034833564
0.07579451
0.046446666
0.05120416
0.0050914376
-0.025934022
-0.0013037302
-0.044305973
0.024282787
0.07716071
0.036275983
-0.049528904
0.019705841
-0.04087114
0.0074034715
-0.16689098
0.07505333
-0.008225923
-0.07373074
-0.07768823
-0.094300635
0.016868088
0.067004465
0.087816365
0.010434924
-0.008069868
-0.06898979
-0.0007124601
-0.11820017
-0.0578746
-0.019013254
0.03391288
-0.11546933
-0.014285644
0.010649433
-0.072620906
0.23829985
0.079859525
0.020163897
0.017123867
0.032216858
-0.06522344
-0.05711231
0.027593315
-0.019387474
0.07484152
0.0078383535
0.024130618
0.012648576
-0.039384115
0.004433152
0.019110253
0.08978108
-0.03845805
-0.042710863
-0.0068180943
-0.03511601
0.057055414
0.060691096
-0.1110845
-0.03833736
-0.027350256
-0.06357179
0.026932677
-0.05351256
0.03686075
0.001022128
-0.01745743
0.0126477145
-0.13373683
-0.049918853
-0.046505872
-0.0133936955
-0.027881905
-0.0084112855
0.11304366
0.125206
-0.063230895
-0.08289994
0.15768358
0.06339574
0.048903108
-0.016308859
-0.0075269723
-0.009359972
0.035807874
-0.014784033
0.018673724
0.009239435
0.0077233375
-0.009985955
0.14814866
-0.0034634806
-0.06241432
0.015581878
0.06913391
0.028637277
-0.012469677
0.2070088
0.0017094102
0.009271211
0.06959362
-0.03123228
-0.035917655
-0.22842187
-0.001368544
-0.018377032
0.123320825
-0.07041602
-0.09078351
0.013588892
-0.002271023
0.06675275
-0.0035209474
-0.06470715
-0.029655084
0.02367918
0.029357905
0.06570838
-0.01940378
-0.022692418
-0.04622825
-0.04502519
0.020121187
0.011485433
0.016232308
-0.19869508
0.047644563
-0.016052602
-0.025278393
0.010490429
-0.36140853
-0.05706349
-0.036779687
0.07745862
0.06254365
0.035097588
0.11822907
-0.07002634
-0.078809425
-0.01215036
0.026104981
0.0026694234
0.032012545
-0.01222468
-0.098112196
-0.000344874
-0.06614341
-0.018837385
0.38622618
0.049643088
0.053580217
0.04105597
-0.015546293
-0.04923261
0.25183094
0.010100311
-0.005959187
-0.023207834
0.020854432
-0.001970182
-0.033366453
0.18071304
-0.12728411
-0.0075663407
-0.048446175
-0.0413855
0.036510415
-0.004654359
-0.042418603
0.067391776
-0.010276384
0.028946515
0.16708304
-0.16451852
-0.18977356
-0.016034583
-0.3595979
0.1981322
-0.051592823
0.112751
-0.041175533
0.019615693
0.08227106
0.016791228
0.020735739
-0.09505018
-0.09687704
0.053149976
0.06774907
-0.061937667
0.025545828
-0.060877137
0.07130106
-0.015750006
-0.03086822
-0.04740151
0.017003309
-0.03167241
0.024065966
-0.011804285
-0.03650964
0.065553606
0.021845395
-0.11799382
0.08418572
-0.017893307
0.05892869
0.007278849
0.021611128
-0.01975814
0.023478828
-0.09408777
-0.02122774
-0.07547425
-0.008242032
8.686838e-05
0.055410985
0.08034474
-0.091372386
0.035969086
-0.035691287
-0.013502385
-0.029570015
0.023788756
-0.08732392
-0.07842796
0.017112229
-0.039582763
0.06737731
0.089029126
-0.0009329903
-0.040182788
-0.02639914
0.007159246
-0.017031068
0.06625614
-0.0056616305
0.0023864454
0.06620579
-0.021583315
-0.0039263824
0.07363837
0.027094042
0.05184564
0.03323873
0.03776906
-0.03435255
-0.00042034072
-0.056533385
0.15449053
0.04905539
0.06257151
0.013900436
-0.032819968
-0.06836074
-0.010076076
-0.02115708
0.04965294
0.10862667
-0.060015447
-0.016891059
-0.0048313676
-0.06830602
-0.047369987
-0.06355368
0.06741783
-0.075509325
0.038573034
0.072514996
-0.09021086
-0.04547599
0.12618761
-0.005500853
0.17850563
-0.07105516
-0.0418229
0.054999318
0.019104851
-0.12871502
-0.008227654
0.0040764017
-0.005147269
0.0024380446
-0.020735502
0.09486627
0.007465832
-0.017238144
0.058378182
-0.05557448
-0.102901645
-0.07038374
-0.03478521
-0.00543929
0.089631796
0.0336497
0.108444415
-0.028194962
-0.03906862
0.032446362
-0.0682537
-0.04074216
-0.0381976
0.05908331
0.0123030385
-0.074547336
0.050786097
0.071482524
-0.20030412
-0.011724732
-0.055568933
0.046082553
-0.059835274
0.029258132
0.015708616
-0.16200744
-0.037154626
0.006724893
0.0041247346
-0.05085478
-0.028767103
0.056897637
0.020622298
-0.057309557
-0.048003253
-0.045711935
0.02119812
0.116585925
-0.044033702
0.131948
0.12127958
0.053387314
-0.10877086
0.017499393
-0.06744767
-0.014476188
0.014815242
0.048674047
0.13992625
0.074619845
0.066972315
0.044833485
-0.045724463
-0.0231769
0.13649654
-0.03328343
0.009936751
0.12583579
-0.030365013
-0.050028253
0.028585652
-0.03119147
0.35631925
-0.026314503
0.033688616
-0.0694143
-0.059162557
-0.055129245
0.0918743
-0.05042234
0.0043470506
-0.25987974
0.015667427
-0.259819
-0.10850819
-0.05329752
-0.07524712
0.082063526
0.08540009
-0.12946385
-0.16702558
-0.08303494
-0.10225202
-0.016269326
0.03820222
-0.04504086
0.053231675
-0.11423602
-0.020494252
0.10970821
0.013992977
-0.031693675
0.03379776
0.06297641
-0.03972809
-0.060843643
-0.030718768
0.113495946
-0.03887183
0.11156775
0.021273188
-0.019653933
-0.0010030351
-0.09683196
-0.024482388
0.044099174
0.2004454
0.038749333
-0.01888438
0.023368731
-0.033297513
0.16045843
-0.021297662
0.023231216
0.11832454
-0.01335267
-0.13039151
0.020467144
0.08486927
-0.0693709
-0.11178736
0.023961864
0.07206411
0.048282832
-0.009350948
-0.050683662
-0.087500274
-0.039356448
0.005672094
-0.20160367
-0.07899119
0.16513813
-0.059459295
-0.0024957792
0.18010296
-0.024445731
-0.13487095
-0.10898576
-0.055444594
-0.03691258
0.11039274
0.031261545
0.01691299
0.045248717
-0.10876479
0.100060835
-0.0035426063
0.044913277
0.075572856
-0.113604486
0.028235778
0.11385535
0.06161611
-0.073976934
0.104818925
-0.028350314
-0.09701742
0.023442589
-0.1113736
0.17956197
0.13754174
-0.019987432
0.036478113
-0.029632298
-0.085181415
0.086058944
0.019320125
-0.0926137
-0.04309183
0.011670814
0.035836134
-0.110945925
0.016774597
-0.021950813
-0.027942546
-0.06231692
-0.024332678
0.03510464
-0.09515846
-0.020841582
-0.010844825
0.035938445
0.06271004
-0.06359898
0.11720516
0.01736831
0.0032078545
0.0055369
0.08665459
-0.053247992
-0.03927258
0.07766726
0.05689557
-0.028892988
0.019446403
-0.063802175
0.052218337
-0.04481347
-0.101405405
-0.001303931
-0.06007153
-0.06528475
0.073423855
-0.114097334
-0.16840464
-0.015363498
0.19347824
0.003355342
-0.049029347
0.008272312
-0.11533621
-0.08785623
-0.0005466926
0.1438146
0.008283548
0.023322107
-0.0024951284
-0.01685664
0.011080811
-0.0034887576
0.010936659
0.0012452409
-0.005183616
0.019660588
0.03298648
0.007870023
-0.164196
0.02417259
-0.06955491
0.07538945
0.028444206
0.017567948
0.032541264
-0.005783324
-0.025816426
-0.037599012
-0.013079377
-0.009050143
-0.0017146919
0.056354433
0.026063813
0.12240894
-0.03269543
0.062084574
-0.029696615
0.078266874
-0.018358381
0.08008872
-0.08010308
-0.0035846427
0.0013970021
0.05398653
0.062290527
0.041304868
-0.02423731
-0.016647995
-0.0009070279
0.025248956
-0.049384847
0.013258437
0.0115834605
-0.031805877
-0.122915186
-0.02522677
0.035569333
0.0020756153
-0.07627429
0.007700809
0.08035595
-0.021330822
0.039831474
-0.11630684
-0.149802
-0.0034648683
0.0134732155
-0.0033698122
-0.014279924
0.005466088
-0.13713096
0.0453536
-0.030331202
0.010529569
-0.09403117
-0.04034502
0.044980373
0.018808063
0.025050027
0.054572094
-0.022534277
0.16758244
0.042932488
-0.17854251
-0.035195254
0.036195137
-0.13324524
-0.013620455
-0.029316742
0.052767403
0.03893517
-0.05200276
0.021994788
0.123320594
0.03303675
0.016808651
-0.018860176
-0.0009399519
0.01645941
0.036217768
0.0665257
-0.015888128
-0.02278045
-0.0077611245
0.024234265
0.072388865
0.034372795
0.000542095
0.004100632
0.048946608
0.042805634
0.147926
0.036654085
-0.020544564
-0.084293924
0.046918757
-0.039834194
-0.045991022
0.017988008
-0.019416777
-0.018496584
-0.06612248
-0.05950933
-0.11266558
-0.111449204
-0.04701378
-0.029261645
-0.007197735
-0.05831346
0.070849374
0.06897223
0.007102769
-0.07928425
0.07574145
-0.012018202
0.043497007
0.049874652
0.0011542528
-0.037341766
0.039123572
-0.013716771
-0.004459624
0.055878125
-0.030277666
-0.024982082
-0.13773304
-0.06618048
-0.033249706
0.004643282
-0.024924856
-0.04277303
-0.01116242
-0.062179852
-0.00436099
-0.016733648
-0.023766499
0.028636489
0.0046744514
0.037508354
-0.025906675
-0.009109261
0.015729964
-0.038837396
-0.03176848
0.0035553745
-0.032266907
-0.04005076
-0.025793828
-0.044520434
-0.08896866
-0.0015136878
0.009712052
0.058211844
-0.0060748043
0.035040226
-0.04499442
0.024299886
-0.029988742
-0.009042827
-0.015663749
-0.01615865
0.029591853
0.00347641
0.059756517
-0.05354913
-0.1697893
0.010402758
-0.18453443
-0.048477646
-0.012668702
-0.011507236
-0.04326744
-0.059138298
-0.009443356
-0.015376314
0.03474283
-0.045917522
-0.007276223
0.027773086
0.01730281
-0.054818675
-0.048529565
0.04955388
-0.017002223
0.13794445
-0.0023946045
0.030898152
0.020430466
-0.058777697
0.0031258445
-0.023407074
-0.07055062
-0.07818569
0.0012647391
-0.0036224204
-0.028376045
-0.044512052
0.060928635
0.15424293
-0.017004397
0.030706242
0.033125784
0.019279798
0.05602311
0.058531653
0.0229983
0.028068814
-0.008236468
0.006452667
-0.015773213
0.020826332
0.007115475
0.08528075
-0.108063266
-0.036115833
0.063315086
0.0038819567
0.03521369
-0.08622859
-0.059147913
0.06114011
0.034425937
0.12543564
0.01758521
0.04171349
-0.0246218
0.03614056
0.06317794
0.099515826
-0.047053766
0.053088583
-0.03303353
-0.03802175
-0.021559538
0.010399074
0.017428368
-0.024300957
0.013740529
-0.07693466
0.012661553
0.020193381
-0.024540162
0.053148754
-0.026462432
0.089117676
0.10541111
-0.02718161
-0.0024506892
-0.0038228075
-0.002876302
0.020025013
-0.037040755
0.04639324
-0.008626242
0.00058155623
-0.030368004
0.0070511857
0.050785277
0.06708249
0.19047686
0.06710354
-0.053815253
0.054573502
-0.010993431
-0.027680267
0.04655652
-0.03096085
-0.018366395
0.031186396
-0.047834914
0.092913486
-0.031805966
-0.030293344
0.01467325
-0.052768044
-0.007197508
-0.023297576
0.02142333
0.0074885674
-0.023195717
-0.011282117
-0.029245913
-0.015761882
0.042371105
-0.021308012
0.0043914444
0.03933606
0.0048590456
-0.010901882
0.028784437
0.012117892
0.001088062
0.013066386
-0.0149618555
0.039726473
-0.053612977
0.025075462
-0.110363886
0.02408534
-0.012529747
-0.02995031
-0.00031959708
-0.08444429
-0.020817347
-0.100345664
0.044102848
-0.08241432
-0.07025641
-0.028716117
-0.041206416
0.011507997
0.050940122
0.00973314
-0.07543115
-0.055170372
-0.031076303
0.004493887
-0.012372631
0.033472374
0.0029645273
-0.09230915
-0.016803278
0.0056338003
0.0019492006
0.0075741685
-0.03824516
-0.020720586
0.039903916
-0.017193334
0.016180145
0.100003704
-0.019222865
0.006620216
0.005661653
-0.019654293
-0.0012798352
-0.027305309
0.048694607
-0.0789796
-0.0022611385
0.08527097
0.0069747227
-0.022492787
0.0009724393
-0.0188368
0.0354935
0.06318934
0.010756388
-0.046533506
-0.018695667
-0.00750333
0.0044377493
0.0030856887
0.01548241
0.022270942
-0.26567373
0.016584294
-0.018770842
0.008187134
0.0067135
-0.019871201
-0.008907109
-0.028548734
0.04040963
0.0023350555
0.022893632
-0.032861922
-0.015231461
-0.036993977
0.02460876
0.010728538
0.021350242
0.017597426
-0.050759014
-0.03401121
0.017802408
-0.087258086
-0.042489268
0.0722368
-0.05990315
-0.047927216
0.033037964
0.040405154
-0.046377122
0.0018952328
0.030413194
-0.04737629
-0.024220647
-0.036987778
-0.10118966
-0.030338233
-0.0001202618
0.047249164
0.05389201
-0.033301666
-0.045587953
-0.01934358
-0.03355267
0.014006921
-0.05512489
0.029924912
-0.0047784233
0.0677224
0.018892536
0.019018667
0.15696695
-0.077634685
-0.013822818
0.030170102
-0.023930628
0.034565877
0.0024742368
0.03371894
-0.0027808198
0.03673476
0.11470506
-0.103538685
0.04908163
-0.096569054
0.040090613
-0.014637448
0.0057645664
0.033158995
-0.017406747
-0.082580335
0.019818822
-0.0077563426
0.020991411
-0.008548731
-0.05941753
0.17067207
0.0060474183
-0.04533258
0.025898635
-0.011221429
-0.004596642
0.010104225
0.018403202
0.033554774
-0.07568024
-0.017188821
0.2015994
0.006199033
-0.022572456
-0.017211901
-0.017913707
0.027144289
0.02014662
0.0021639843
-0.037141908
0.03830704
0.068701535
0.008717435
0.025360957
-0.0028381816
-0.0150677385
0.009999612
0.096911065
0.026800903
-0.035677586
0.027700506
-0.018944403
-0.032645453
-0.033244435
-0.09745572
0.0073702196
-0.037223194
0.010010557
0.015104088
0.0252284
-0.034751475
-0.02018468
-0.006446892
0.051611397
-0.017153114
-0.037540045
-0.03973948
0.0339746
0.03077607
-0.012051068
-0.021415241
-0.0038848543
0.2008091
0.06413289
-0.045728743
0.02113249
-0.0010517219
0.006967267
-0.071643986
0.020819254
0.019416792
0.019959051
0.08613871
0.021223286
0.025935711
0.18185282
-0.050194316
-0.05980056
0.026116807
0.042148028
0.11008911
0.092332155
0.027005965
0.03996769
0.040172715
0.01750529
-0.0041420637
0.05984197
0.066175304
0.031573396
-0.07133618
-0.042375904
0.11750535
-0.011324308
-0.03187295
0.06322631
-0.0252875
0.0072905873
0.031889874
0.01644667
0.028884336
-0.092081025
0.0035799954
-0.020905385
0.07122641
-0.044746272
0.06496372
0.052277837
-0.017395403
-0.08488785
-0.028396303
-0.019706126
-0.029862328
0.014568775
-0.043737713
-0.077572644
-0.044101674
-0.06687598
-0.06674145
-0.06496972
0.02903474
-0.0008402111
-0.06713101
0.0019588328
-0.034004383
0.02929908
0.068051904
-0.13023123
-0.019082954
0.0018297563
0.05670318
-0.05336984
-0.032055143
-0.07722059
0.005114898
-0.011360243
-0.038810275
-0.016466014
-0.0154593885
-0.042235617
-0.012311558
-0.09101304
-0.03627436
-0.006697979
-0.05746057
-0.09697388
-0.10940273
0.09393451
0.039372228
0.0050234045
-0.04490372
0.046359546
-0.07019954
-0.03818575
0.024856064
-0.027637025
-0.06280092
0.10683182
0.051169477
0.034516945
-0.0849215
0.01749052
-0.05496865
-0.07180455
-0.017497553
-0.082039826
0.07239036
-0.031254213
0.04801599
-0.037815664
-0.01919177
0.015798733
0.02892239
0.0008200323
-0.02764934
0.032677054
0.0052535757
-0.05900204
-0.050357595
0.0009219782
0.009997664
0.10322638
-0.020918006
-0.03527085
-0.10092497
-0.037058227
-0.07674395
0.009221104
-0.036755353
0.025530957
0.04365774
-0.032481756
-0.03838334
-0.05435627
0.00027071175
-0.112556815
0.011066125
-0.13563803
0.043498702
-0.032821905
-0.021821618
-0.10213926
-0.08157294
0.0015362856
0.0191998
0.017875316
-0.014095907
0.05693782
-0.053824298
-0.047033016
0.020312844
0.04803401
-0.05735745
-0.035348784
-0.07312225
-0.039517224
-0.0065840064
-0.076489165
0.042640675
-0.072097346
-0.0013670495
-0.037741274
0.03635178
-0.09010405
-0.05480194
-0.022939108
-0.07339776
-0.0073121754
-0.017709523
0.029217936
0.038686715
0.034855485
0.0112448735
0.039506067
-0.0768493
-0.027385006
0.07435636
-0.030906629
0.020930879
0.031026237
-0.10194825
0.018266013
-0.023644455
0.09688444
0.02318318
0.056179486
-0.034233008
0.03384831
0.05245601
-0.07510904
0.038683843
0.024239479
-0.030819988
0.073030725
-0.07895083
-0.071738064
-0.07140059
-0.007242039
-0.0007079084
0.019761784
0.078405336
-0.048295934
-0.025597366
0.040455997
-0.044887193
0.052204788
0.1088012
-0.00035620382
-0.0693448
0.014018443
-0.014188445
-0.050844666
-0.049564205
-0.023687351
0.046386775
-0.0041092904
-0.035978016
0.04072979
0.075051785
-0.054088324
0.0421742
0.01400011
0.029575616
0.07865297
0.053376604
-0.080919735
-0.026419684
-0.15022217
0.012155869
0.068252385
-0.0699386
0.04020392
-0.022386303
0.023379702
-0.037476048
0.035852473
0.03506257
-0.11897414
-0.06565275
-0.041282486
0.014434508
-0.055438366
-0.049143557
0.017275924
0.08623778
-0.0021579124
-0.043464802
-0.06925049
-0.0016196903
0.04299959
-0.030806897
-0.008804722
0.12961698
0.08597725
0.017853172
-0.0118226
0.05538183
-0.0119281765
0.14953643
0.06613694
-0.054847576
0.0013266205
-0.14075926
-0.06319462
-0.044292897
-0.05190061
-0.039513808
0.03354853
0.0057187635
0.03005897
-0.07158228
0.13126117
5.833327e-06
0.0077932463
0.01899601
0.014914806
0.042813227
0.024122586
0.07010159
0.011320484
-0.0010362102
-0.013619716
0.027502514
-0.01326546
-0.0057559344
0.004917933
0.003336629
0.102509506
-0.023241872
0.0011406232
0.0040652705
0.058439013
0.04532276
-0.049561724
-0.052073117
0.09011807
-0.011591715
-0.04740042
0.007608737
-0.010949457
0.046028923
0.11450325
-0.016133374
0.061623376
0.06613687
-0.0645106
0.048079323
-0.008450283
-0.016479872
0.029922841
-0.04547758
-0.019033141
0.010613673
0.04207367
-0.02159773
0.0022849245
0.073491395
0.16462646
0.05722873
0.034949787
-0.029869748
-0.009741332
-0.022370946
-0.015435942
0.059725232
0.016504223
0.05668405
0.0021832553
0.023006195
-0.025929704
0.020220468
0.025620705
-0.04750936
-0.012500882
-0.009348348
0.044345208
0.008222893
-0.08286016
0.017769262
-0.0030546614
-0.02942834
-0.017573223
-0.010114431
-0.01639963
-0.035112787
0.10116531
0.102123804
-0.020174554
-0.005829502
0.11938981
-0.00432344
-0.021267856
-0.037832756
-0.011054181
0.022470415
0.11654998
-0.03340629
0.010076789
0.011058054
-0.037114173
-0.0074352296
0.015025836
0.103224576
0.014589969
-0.032414634
-0.062634334
0.006980159
0.0099815475
0.03048313
0.0407457
-0.008314504
0.036379717
0.05512
-0.021658568
0.040269874
0.028999427
-0.02400961
0.057205282
-0.0057878853
0.049673747
0.012601556
0.018242342
-0.028756568
-0.0028285896
0.04044104
-0.006188777
0.00060535915
-0.0007075997
0.0050341105
0.0079563875
-0.013877886
0.06217754
-0.006707545
-0.013080849
0.018272785
-0.0069910656
-0.020494351
-0.008841663
0.0067532863
-0.026045682
-0.011229517
0.014734345
0.051319517
0.015228954
0.029696854
0.050372582
-0.022824327
0.004682408
-0.05561578
-0.012674865
0.0067153024
0.013530235
-0.011899502
0.019180765
0.04288292
-0.024019083
0.097336434
0.00063430436
0.0055257655
0.028522165
-0.034979854
0.039862886
-0.008751296
0.018925698
0.030495109
0.022423008
0.0068986877
-0.020240454
-0.016226286
0.03281628
-0.05099564
-0.037124623
-0.018076682
0.044174965
0.028426375
-0.03420052
-0.0007905368
0.07050398
0.024096074
0.007535791
0.026803222
0.01962098
-0.010214178
0.026985524
-0.03098856
0.0052252947
0.035841517
-0.0136822825
-0.0067994064
0.023746477
-0.00066978537
-0.012260228
0.003507321
0.025230393
-0.021626852
-0.011935313
-0.016992768
0.008347302
-0.06476779
-0.02672889
-0.035326738
0.12780833
0.001543317
0.033114262
-0.017788513
0.015374342
-0.02145919
-0.04163731
0.0006994878
-0.020011645
-0.003956325
-0.031725567
0.00054914417
0.10502608
-0.08282486
0.009898686
0.047061607
-0.03253192
-0.0021905657
0.04138128
-0.020934341
-0.024851127
0.002316851
-0.015334439
0.033010148
-0.0067875544
0.0253121
-0.0344015
0.0016107094
-0.019624023
-0.005465328
0.03039211
-0.021599064
-0.01557139
0.04093108
0.06832245
-0.07199225
-0.022731332
0.01716558
0.13767175
-0.0376408
-0.03765937
0.003236015
-0.0011755314
0.03828819
-0.0080089625
0.019021416
-0.012931237
-0.009123298
0.08256472
-0.037928898
-0.012398644
0.011315553
0.012714741
-0.0023805925
0.006005037
0.11340644
-0.0023828575
0.029188175
0.020279177
0.028221225
0.019154267
0.00076069054
-0.02247409
-7.793582e-06
0.014880586
-0.014219606
0.015191253
0.012540724
-0.072890654
0.054984834
-0.027363706
0.055800606
0.012242838
0.0033868265
0.027850138
-0.00300769
0.04004078
0.12663822
-0.0021160701
-0.0065543028
0.0070845657
0.05536957
0.038749333
0.01205398
0.026267491
0.006592036
-0.047175594
0.005758911
0.008395049
0.040984277
0.017881874
0.042469468
0.052081317
0.024209337
-0.017238546
0.0074315607
-0.007068927
0.016868861
-0.014987014
-0.055765253
0.016382447
0.008325228
-0.03937818
0.03009256
0.0036416748
0.026346635
-0.09354574
-0.0038181676
-0.03431683
-0.0331882
-0.03448329
-0.007554749
-0.0075636427
-0.03661377
-0.045044623
-0.033399303
-0.012719119
0.073424436
-0.0074328245
0.04424621
0.008266217
-0.044334862
5.5938817e-05
0.015646495
-0.0005614567
-0.0084115425
0.050112825
-0.027185107
0.020489195
-0.029240893
0.030607158
-0.019882191
-0.0008857497
0.055099785
-0.008983785
0.034088306
-0.021697272
-0.04739125
0.018639216
0.04939978
0.00038861198
0.000322936
-0.021322474
-0.032027815
0.08658924
0.0057041757
-0.048180345
-0.009576798
0.091289625
-0.027940186
-0.05238202
0.005116804
-0.06246802
0.043841023
0.007565072
-0.057158962
-0.011517536
0.008467713
-0.01142155
0.010698809
-0.039833814
0.026386175
-0.05130344
-0.007589012
-0.06617034
0.006887636
-0.019567057
0.012535055
0.042410236
0.009255827
0.05415299
-0.011934143
0.082029566
0.08625898
-0.026995284
0.02509347
0.023778522
0.054671146
0.05217739
0.024445254
0.054862935
0.010139359
0.020677945
0.0008699614
-0.072589524
-0.043296576
-0.014434488
-0.047621418
0.015273668
0.010930251
0.0413277
0.04376145
0.008550245
0.033980116
0.019929672
0.009540315
9.2501024e-05
0.015278116
0.015630731
0.030550886
0.03441281
0.009991371
-0.04595903
-0.022026153
-0.019172622
0.02282215
-0.038102433
-0.02474506
0.016523147
-0.101687364
-0.0052813403
0.020491844
0.013808326
-0.064967744
0.071614675
0.039049048
0.040629297
0.0008639012
0.0179273
0.03827192
-0.014332888
0.016237555
0.043174993
0.008340064
-0.014932225
-0.019853994
0.01378647
0.024913782
-0.0460395
0.02886085
0.0027930215
0.016527124
0.0359814
0.009819429
0.041607197
0.02832909
0.015300139
0.009541971
-0.13022834
-0.069930136
0.012371498
0.073985636
0.030346751
0.013345991
-0.038402755
0.05887912
0.0082766805
-0.007660179
-0.12380106
-0.017656107
-0.10859164
-0.027923072
0.05394284
0.031713177
-0.03090826
-0.042417012
-0.050370842
0.04746325
0.0014101057
-0.0076481504
0.005533703
0.029318858
0.022492925
0.026768522
-0.007259494
-0.0013248851
-0.006830507
0.05737038
0.009672656
0.01401247
0.036228072
-0.067356594
0.00069682725
-0.0142944595
-0.009576682
-0.021168906
-0.01493885
-0.014916418
0.011132971
-0.06289626
-0.021680508
-0.037000038
-0.031637523
-0.03199666
0.045371678
0.013066516
0.04960301
0.0048309728
0.015326465
-0.04508171
-0.027713284
-0.0053795446
-0.035461396
-0.010071626
-0.015700221
-0.0031241206
-0.017994914
-0.030190906
0.030517599
-0.02078476
0.0008355069
0.06444966
-0.021127485
0.10577822
0.02055411
0.02071119
0.015041094
0.11060524
0.005879027
0.011257192
0.058306124
0.017611435
-0.00403047
-0.06436958
0.0115969945
0.012957572
0.031391412
0.018735977
-0.013256096
0.011119368
-0.012171174
-0.026105078
0.00573476
-0.024728406
0.011251676
0.009099488
0.014802795
0.054381724
0.10487906
0.0067450055
-0.042966314
0.009329215
-0.008697797
0.047278777
-0.039725985
0.004546631
0.0069541596
-0.07125553
-0.030921837
-0.008065032
0.03539061
0.044227563
-0.004016624
0.05893819
-0.14901476
0.026578873
-0.018862762
0.00842965
-0.09293614
-0.043551408
-0.009718763
0.034870833
-0.05800159
0.009012726
-0.0036083707
-0.04131921
-0.022987671
0.024123546
-0.010583492
-0.031541225
-0.026808927
0.0043874406
0.03876302
0.008526941
-0.028947428
-0.035147533
-0.007692247
-0.021445764
0.0030562333
0.022565525
0.021894582
0.022958199
0.036679722
0.041831184
-0.0472829
0.022646027
-0.0013682131
-0.04024958
-0.018648116
0.00091595476
-0.033154074
-0.035698034
0.06547755
0.010270421
-0.0060263784
-0.04693861
-0.03479597
-0.016006542
0.022615688
0.02629112
-0.02570647
-0.016347611
-0.021665951
-0.011691872
-0.004733529
-0.0008486903
-0.030507782
0.006372647
0.04558837
-0.054813236
-0.054932445
0.0006165393
-0.02948183
0.03102596
-0.009302031
-0.03195711
-0.023470635
-0.0013845278
-0.007846891
0.055377185
0.050750706
-0.010710378
-0.030012488
-0.004255579
0.002661772
-0.05421252
-0.026954904
-0.007529407
-0.027425347
-0.029744064
0.008331769
0.007656207
0.0053754174
0.058941327
-0.019875145
-0.03415992
0.007079144
0.022289379
0.061971083
0.02745349
-0.029951409
0.064389125
-0.0060090492
-0.017520363
-0.03092864
-0.0525611
0.06798205
0.008369311
-0.059787907
0.0046142978
-0.04143181
0.0077110166
-0.04267251
-0.041080233
-0.010004566
-0.003333523
0.021637637
-0.053247776
0.04804402
-0.067611024
0.008222911
-0.018867152
0.05920611
0.011547882
-0.022479713
0.00073964085
0.019897811
0.060824994
0.010014148
-0.005778673
0.021630215
0.0029763407
0.012376494
-0.011469786
0.003095432
0.014490955
-0.0118195135
-0.02582703
0.053023446
-0.049208093
0.09221634
0.01924286
0.008482501
-0.03789499
0.024807537
0.023250597
-0.00795879
0.056084644
0.005032092
0.021426754
-0.020769026
-0.03656484
-0.031674277
-0.014672897
-0.042543072
0.05744648
-0.04485803
0.07744918
-0.008232828
0.033007175
-0.029683976
0.075719774
-0.0016939831
0.057290033
0.01145697
0.023443628
-0.09239509
0.043499876
-0.05504134
0.015287839
-0.014871731
-0.033840664
0.0629791
0.054377224
-0.02674686
-0.0066568824
-0.00065356627
-0.026307384
-0.013319412
0.019349998
-0.15286155
-0.029753761
-0.0708154
-0.049954038
-0.014665888
0.053517595
0.024818175
-0.0021492916
0.17047277
-0.0514043
0.01515591
-0.012046502
0.014373489
0.030615525
0.00841478
0.04113699
0.04125541
-0.010108474
-0.023338884
-0.0055128783
-0.05563177
-0.0145621095
0.022641225
-0.0391357
0.012690006
0.019283717
0.04819014
-0.010446351
0.0055526993
-0.021531533
0.050389178
-0.010221995
0.058265116
-0.0029250006
0.031874605
0.017872833
0.014754324
0.01667407
0.014227728
-0.06636962
0.018608412
0.034750838
0.006070903
-0.16395912
-0.0014959921
-0.02037543
-0.0067773117
-0.019805519
0.0026051525
-0.007002938
0.03184605
0.025173144
0.008347281
-0.06818524
-0.032329574
0.006999122
0.07704539
-0.035375006
-0.051672604
0.012896616
0.0067257867
0.00690102
-0.037267126
-0.010019086
-0.012547049
-0.008017124
0.0043000258
0.043495946
0.009658134
-0.045061566
-0.016642025
0.016364628
-0.1602179
-0.08296881
0.06975546
-0.034649905
-0.029729325
0.08632002
-0.01695524
0.06743154
-0.070492424
0.059365064
-0.06763422
0.029972933
0.053417746
-0.024564331
-0.033266526
0.011793359
-0.0005762612
-0.2786211
-0.00513416
-0.022891307
0.03264081
0.06729331
-0.029116487
0.1309954
-0.016670067
0.03357061
-0.045170076
0.015675848
0.026299587
-0.06477925
-0.096934
0.013442377
-0.015852433
0.023598168
-0.0024207095
-0.014087916
0.03048419
0.13663916
-0.10968188
-0.013362835
0.06485104
-0.047032304
0.044964038
-0.030230666
0.08428222
-0.14431255
0.036065426
0.02314266
-0.012610933
-0.04424788
-0.2495064
0.017630499
-0.04585619
0.044821512
-0.04821427
-0.02079424
-0.09267583
0.12286585
-0.029385926
-0.04220155
-0.13467659
-0.22180842
0.058707926
0.010803959
-0.094497286
-0.0019443162
-0.04134032
0.023124734
0.0077180066
-0.037349544
0.04633356
-0.032089368
-0.020330654
-0.04991461
0.02162652
0.030963078
-0.010436446
-0.017253287
-0.25357792
-0.06455257
0.11914029
0.056008708
-0.21370026
0.061158918
0.049417317
-0.031634774
0.0365336
0.035132594
-0.08439379
0.07993019
0.042543724
0.045971617
0.029378098
-0.080325045
-0.1402174
0.011929036
-0.0156142255
-0.13738823
0.049182385
0.04006532
-0.045305394
-0.007677283
0.019147726
-0.020905843
0.02240133
0.1053634
-0.051165048
-0.026447728
-0.07328437
0.081300244
0.006273296
-0.06592639
-0.06958962
-0.014278265
-0.06613592
-0.112343155
-0.07921421
-0.03164371
0.020190144
-0.00019370831
0.033200208
0.09588017
-0.014548332
0.024741923
-0.009943822
0.054162752
-0.027594224
0.12245049
-0.024031203
0.089828126
-0.04942817
-0.100373626
-0.01701313
0.00869745
-0.035885043
-0.13225454
0.15877339
0.04384386
0.08574723
0.0023764346
-0.01221641
-0.03285768
0.034671772
0.043130472
0.0077568204
-0.07195617
0.08232098
-0.02898249
-0.17061307
0.082383
-0.13895726
-0.015362359
0.026979957
0.05202824
-0.07728054
0.023709143
-0.09385783
-0.14555335
0.0466519
0.12536202
0.0789073
-0.08336386
-0.008131442
-0.21861972
0.044397056
0.11478781
0.0061154054
0.07930898
-0.008649261
0.065160446
-0.037449647
-0.347558
0.011747838
0.03636909
0.04229341
-0.031433422
-0.23218422
0.11071211
-0.022673031
0.069016784
0.003425425
0.018686665
-0.03519461
0.057483222
0.03949051
0.052331757
0.088263676
-0.136026
0.076077685
-0.25942844
0.0025511233
0.07654301
-0.053255435
0.013277314
0.02794101
0.10911541
0.014164387
-0.047675256
0.078558855
0.004852344
-0.058211662
0.113780215
-0.032589372
0.042023875
0.015903873
0.06776403
0.0032824592
-0.007890745
0.008926807
0.036589324
-0.039427888
-0.09072321
0.0343256
0.023072878
0.12821425
-0.011341999
-0.2725094
0.017774535
-0.044547044
-0.05123246
-0.05831031
-0.020269811
0.0016291052
0.027662585
0.062105183
-0.02158877
0.07435203
-0.022943612
-0.053354673
0.024449537
-0.040888526
-0.013551246
-0.015093855
0.029857302
-0.24880546
0.0038216591
-0.0007712145
0.058432724
-0.014644123
0.09401009
-0.032602366
-0.025839208
-0.045355823
-0.11697134
-0.061262112
-0.06987488
0.058646295
0.025628801
-0.045679487
-0.071550794
-0.03464726
-0.018615281
-0.0096613355
-0.048848573
-0.002616891
0.039600924
0.07309624
-0.123167075
0.06883832
0.06134119
0.014340914
0.007544524
-0.068920396
-0.014984944
0.011472442
-0.06174786
0.04172896
0.037449583
0.01562668
0.06401282
0.08308309
-0.033451974
-0.0073997173
0.14685875
-0.0016040888
-0.14830782
0.11057941
-0.018777728
-0.06303599
0.08519209
-0.027005384
-0.038214434
0.00010060664
0.121566996
0.06986922
-0.0068296823
0.030334175
0.016597988
0.019532707
-0.025762217
0.07481609
0.011958064
0.07274507
-0.008986391
0.19919582
-0.09199856
0.04914484
0.0019355147
0.042021856
0.0024485285
-0.052996323
-0.062479116
-0.048508957
0.09577152
-0.05430822
0.037675425
0.07889383
-0.04639873
-0.026210912
0.0014618672
-0.0087548625
-0.01883538
-0.0361282
-0.09484077
-0.0397532
0.002639755
-0.01079812
0.12548481
-0.13777287
0.07929337
-0.008116861
0.112626046
-0.004946495
-0.07018974
-0.010462464
-0.027013615
0.028442113
-0.022201901
0.0053170365
-0.028785102
-0.033907402
0.042604607
-0.02056682
-0.0020981238
0.07145238
0.0023042369
0.09516659
0.11161635
0.08323131
-0.070787124
-0.096731864
-0.007335034
0.013165841
0.05045367
-0.030902345
0.011502931
-0.025736257
-0.08857532
-0.059840158
-0.027651303
0.05941467
-0.04511498
-0.06468518
0.079636686
-0.01796484
0.18850648
-0.0044494495
-0.035550382
-0.07064282
0.021589646
0.03193927
0.16086324
-0.025783183
-0.014024476
-0.01711774
0.022919271
-0.026188167
0.04746287
-0.02595399
0.058767885
-0.003603473
0.042731334
-0.03663763
-0.05305451
0.0010746032
-0.020782668
-0.13386711
-0.000119141725
-0.008310427
0.034596436
-0.0059838174
-0.02187449
0.035070684
0.033278577
-0.014239517
-0.1026358
-0.013090979
0.13887814
0.00660363
0.018322421
0.009298961
-0.005599324
0.034538634
0.09616826
0.0014976786
-0.0076920236
0.039736852
-0.009925731
0.014140131
-0.1252526
0.3046519
0.07533291
0.116471514
-0.065085195
0.028590197
-0.046446588
0.1707733
-0.014545593
0.009428615
-0.005193637
0.015775012
0.046601284
-0.0044127502
0.039834656
0.006416221
0.0031513895
-0.12672071
0.01614071
-0.05125012
0.023440516
-0.065351784
0.012234581
-0.018585214
0.13618015
-0.029080836
-0.04228065
-0.04729306
-0.019814374
0.017374786
0.034059186
0.0850454
-0.10256116
0.055648047
-0.108648166
-0.018188443
-0.053552814
-0.028801667
-0.06089228
-0.067633055
0.07528771
-0.046575814
-0.014967972
0.041172806
-0.07906123
0.0276488
0.13971736
0.027101733
-0.018812442
-0.023985825
-0.037070565
-0.025553962
-0.008267405
-0.022166777
0.006714132
0.06699431
0.06154385
-0.10728569
0.020803843
-0.27221847
-0.03911883
0.05001521
0.03980123
-0.017729698
-0.006775982
0.07402255
-0.013999537
-0.041115496
0.037238523
-0.0089691235
-0.035867788
0.059744295
0.05139327
0.039515454
-0.08103315
0.0023511746
-0.04477222
-0.0064176307
-0.005911975
-0.007980248
-0.013369503
0.017116128
0.04860361
-0.018985663
-0.04264488
-0.0010639925
-0.004086752
0.122605905
-0.023879567
0.05443312
0.0065841395
-0.047493476
-0.08272169
-0.0077398196
0.024275629
0.004752487
-0.068428375
-0.07602871
0.034494184
-0.0327315
0.053837415
-0.008168931
-0.115600504
-0.02225143
-0.11446673
-0.048185453
-0.026768686
-0.038432643
0.016751785
-0.08977686
-0.021692263
-0.016496012
-0.020225339
-0.05894366
0.04836199
-0.046570837
-0.006731353
-0.013577376
-0.12617405
0.053982805
0.033975087
-0.029286442
0.0016927689
0.009192315
-0.09655915
0.009679686
0.041396342
-0.095812194
0.06371691
-0.0046091285
-0.15837018
0.09457847
0.17510465
-0.014558682
-0.08591738
-0.09300943
0.014996537
-0.0836426
-0.0024298667
-0.021679487
-0.049518652
0.022575349
-0.06623991
0.039759267
0.029073982
-0.054608237
-0.14370045
0.022717401
-0.01712528
0.005319518
-0.06779888
-0.05966786
-0.029566146
-0.02501771
-0.04230917
-0.006290467
-0.10071498
0.011386465
-0.015228112
-0.09459204
0.04658705
-0.0028237111
-0.06043346
-0.05347085
0.0582927
0.043959614
0.030676669
0.015875818
0.033791453
-0.052318227
-0.033331923
-0.112102315
-0.042257488
-0.02716229
0.024773719
-0.03738698
0.014070696
-0.016023776
0.04030756
-0.10568162
-0.020422027
-0.0077038254
-0.0125100305
-0.014983451
0.0028139255
-0.1320356
-0.01371908
0.0017697378
-0.010660196
0.009072945
-0.02388034
-0.028226338
0.038562983
0.038766336
0.045445215
-0.06945954
0.07203377
-0.034104563
-0.06882892
-0.053217884
-0.0033046668
-0.063195765
0.20217337
0.05671841
0.032827448
0.0021980756
-0.11211382
-0.06907642
0.05968806
-0.0076229223
-0.07188078
0.082701154
-0.02715942
-0.04834877
0.022947589
0.02373597
0.07072162
-0.0033169822
-0.032190662
-0.030955786
-0.08098615
0.006057214
-0.005867769
-0.0013882852
-0.067688614
-0.04767142
-0.089564346
-0.036862623
-0.16451211
-0.051921654
-0.012410487
-0.032934252
-0.0004924976
0.0906859
0.02691212
-0.0390121
0.06810897
-0.031823352
0.05406899
-0.01505944
0.084373236
0.048922997
0.026125342
0.022426771
-0.11354086
-0.011270024
0.09519219
-0.122031294
-0.16123727
-0.035006724
-0.019366104
-0.031265214
0.0030254186
0.008388522
0.009833027
-0.13681446
-0.08277786
0.027248574
-0.002124513
0.07795518
-0.013961154
-0.051522013
0.028616153
-0.15402704
0.017095467
-0.02691955
0.025904223
0.027535658
-0.078803785
0.038018715
0.003591487
-0.028951252
0.0473303
-0.029748878
-0.108263
-0.052321542
-0.09324641
-0.02082724
0.025812663
-0.045509797
0.14183728
0.01705571
0.048503872
-0.05242142
-0.035820693
0.038547587
0.05833331
-0.041670065
0.026933221
-0.03688385
0.07582653
-0.014542627
-0.023921413
-0.007911215
0.07332413
-0.027801218
0.04451842
-0.0051462483
0.03535976
0.00911175
-0.13452709
0.043455165
-0.02476379
-0.03655453
-0.09096566
0.017698888
0.0097861225
-0.020361282
0.10937226
0.041975055
-0.041915435
0.02471366
-0.05710148
0.051123846
0.040623043
0.11563993
-0.050142363
0.028136183
-0.003978537
0.054242294
0.023430096
-0.01631427
0.0695568
-0.035030294
-0.18260668
-0.032914497
-0.12415856
-0.15539277
0.0007092802
-0.10652056
-0.02463815
0.053165786
-0.06480018
-0.0190969
0.020841572
-0.10787009
-0.13372506
0.036621463
0.07908605
-0.11611402
0.0174302
-0.06307289
0.0014981605
-0.035468474
-0.06733607
-0.023940349
0.052985225
-0.11313849
-0.046039116
-0.115498565
0.09047084
-0.06973002
0.04501828
0.027967159
0.0020188473
-0.05943895
-0.035853345
-0.038598243
0.031852435
0.06895235
0.023585042
-0.02143747
-0.02369616
0.018341206
0.06794623
-0.06729136
-0.08717402
-0.112688996
0.029863682
-0.09696731
0.09815913
-0.1553292
0.021949658
-0.04442958
-0.07103185
-0.053798754
0.002516543
0.04655061
0.020320272
0.041757334
-0.032823242
0.059218515
0.10274994
0.017424205
0.017660595
0.07013136
-0.029735073
0.09516407
-0.032941703
0.04069265
-0.042746384
0.38275287
0.059048105
0.021873929
0.013577961
-0.061551668
-0.08140194
-0.051614176
0.029638274
0.18662424
-0.048659477
0.045689907
0.00026826852
0.04371325
-0.08004652
0.020221319
-0.07198427
-0.035144623
-0.05129851
0.0021777446
0.03948972
0.10041139
-0.14913702
0.14954022
0.00030624343
-0.07958292
-0.023907905
0.029303368
-0.04715305
-0.10030971
0.066004805
0.044781122
0.007983591
0.0012828686
0.07586054
-0.017941412
-0.0740839
0.018231643
0.026240543
0.0027463874
-0.10302094
0.03607958
-0.047369596
0.009337446
0.062314443
-0.082725205
0.020964826
-0.041330248
-0.020778516
0.0894319
0.0069799367
0.02027987
-0.05479615
0.010524088
0.047377788
-0.0061487313
-0.040752023
-0.058852352
0.057918366
0.15939617
-0.08624115
0.003172326
0.032026146
-0.03450066
-0.018099384
-0.10322228
0.07005896
0.059178043
0.03359835
0.03756077
0.017729422
0.085027054
-0.058235858
0.003022151
-0.064332135
-0.013756534
-0.048356667
-0.06817393
-0.0059415265
-0.118724436
0.06564943
0.053555384
0.11784986
-0.014964679
0.15393357
-0.019265667
-0.049198307
0.0026741906
0.07912949
-0.08608928
-0.085083
0.011075943
-0.102869384
-0.051800463
-0.12237663
-0.14426564
0.036283564
-0.036408402
0.03866663
-0.015012944
0.08789458
0.030579166
0.044736255
-0.06109633
0.11802787
-0.13181095
0.03701228
0.07582053
0.037973598
-0.09008512
-0.08015793
0.0037098206
-0.08200128
-0.04290256
-0.01098499
-0.030605298
0.058595654
-0.010454418
0.001735706
-0.027046436
0.07248764
0.04881019
0.038051616
0.15246251
0.0261656
0.030249607
-0.05768543
-0.021978928
0.032336976
-0.07966112
0.043484785
0.13103227
0.0663892
0.04446375
-0.03602528
0.025071215
-0.034579232
0.080395505
0.1107889
-0.059064943
-0.0618104
-0.02134731
-0.04961148
-0.0016908802
-0.057715528
-0.04445966
0.006726276
-0.061478306
0.21608545
-0.13138372
-0.0044214875
-0.040350065
-0.030450994
0.0657473
-0.02865604
-0.035805456
-0.16480847
0.03684837
0.021484673
-0.08700169
-0.09454761
0.06281925
-0.09705584
0.18569674
0.04388471
0.14044122
0.06889895
0.012904257
0.020917147
-0.0035432659
-0.07192017
-0.08308337
-0.14230166
-0.054440536
-0.08078608
-0.12597279
-0.090497166
0.040774774
0.024285365
0.0800607
0.15400775
-0.02147447
-0.0037201245
-0.02733364
0.02174371
-0.047259346
0.0074282796
-0.028617948
-0.121638395
-0.047265895
-0.17582068
0.0575986
0.048923336
0.063819066
0.042276505
-0.0034632941
0.028794779
-0.03173614
-0.03327003
-0.035291567
-0.06737678
0.04576512
-0.17035155
0.03007277
-0.027213417
0.061526965
-0.0044141766
0.04251741
0.011106608
0.009241095
-0.009974186
-0.05100351
0.027872108
-0.092357524
-0.03412763
-0.018118372
0.011006004
0.014649538
0.05188987
-0.057548374
0.032365307
0.0036438461
-0.03299388
-0.077224106
-0.05263246
0.035124548
0.02473742
0.0023808996
0.023764143
0.03939229
-0.06061278
0.02303225
-0.011096467
-0.016252946
0.045846518
-0.07148292
-0.12042083
-0.0020685473
-0.008742542
0.08154893
0.029227113
0.023010675
0.016346106
0.0005338029
-0.01845266
-0.30309463
-0.02186273
-0.054069985
-0.0010798576
-0.019560533
-0.03229796
-0.04401781
-0.008575332
-0.008821464
-0.009937071
0.021034375
0.0161072
-0.012385856
-0.036373135
0.024000848
-0.01997616
0.014655216
-0.11071682
-0.02683232
-0.0021501442
0.04140242
0.056306604
0.008353678
0.0018611613
-0.067117296
-0.02796257
-0.011846037
0.0061361953
0.03446155
0.023183152
-0.058331825
0.008740576
-0.003513917
0.0075075133
-0.028423635
0.019250156
-0.01398861
-0.023696572
-0.06631476
-0.0030757044
0.14482947
-0.0026214353
-0.0076851044
-0.009265653
-0.15658452
0.03854354
-0.032779004
0.01708343
0.09200798
-0.11821148
0.01504585
0.0071490593
-0.06822322
0.018775513
-0.14572176
-0.023692401
-0.027815253
-0.026988154
0.005620731
0.018081851
0.0078513995
-0.006955478
-0.0198793
0.00716468
0.020969857
0.029689854
0.01746161
0.00026413056
-0.04794155
0.014303369
0.04431972
-0.041619718
0.020245574
-0.11902963
-0.0046670362
-0.009670448
0.0042832294
-0.029230649
0.29729614
0.014353096
-0.089666106
-0.002424507
-0.022708561
0.03208567
-0.081310324
-0.07376127
-0.073205024
-0.014528973
-0.012886329
0.013598467
-0.0038692625
0.0030482395
-0.00021169198
0.024497868
-0.00832946
-0.04138964
-0.032198694
0.011592876
-0.02551068
-0.033357512
-0.0033781847
0.0070076073
0.06686409
-0.0304675
0.0138809215
0.004721118
-0.006236921
-0.019617688
0.019380515
-0.0004404322
-0.08389794
-0.01877101
0.02953527
-0.0037829212
0.0014356292
0.007921792
-0.02951336
-0.02717185
0.03657295
0.16930112
-0.046311177
-0.011614792
-0.042092867
-0.021357061
-0.022831595
-0.0060754623
0.15184446
-0.021555806
-0.026520817
0.0017718506
-0.03302904
-0.012047333
-0.08206631
0.056224562
0.056359258
-0.046252433
-0.017875388
0.09021618
-0.063086614
0.0035196363
-0.044181127
0.005434604
0.01691591
-0.0054375655
-0.0068152724
0.07355614
0.00816452
-0.059900276
-0.028728746
4.916991e-05
0.0018581537
0.024989516
-0.007006885
-0.043668713
-0.15321869
-0.017810961
-0.009070833
0.036791965
0.016175542
-0.024436953
0.019973448
0.02233856
-0.04840227
0.00010120472
0.0029605848
0.011493644
0.025741503
0.013817857
-0.01748229
0.090472646
0.0136846285
0.0054300614
0.0051567336
0.19394177
-0.05442251
0.012247146
0.066069774
-0.078303784
-0.03568109
0.13138343
0.0018033828
0.0017203554
0.009719614
0.0070947777
0.010905063
0.015652303
-0.015029207
-0.011427345
-0.011124134
-0.033247426
0.14930382
0.037229557
-0.106695585
0.01284214
-0.0052673565
-0.014463968
-0.012066634
0.07733094
0.046464313
-0.029621582
-0.010300224
0.011062402
0.039384983
-0.017885173
-0.034269925
0.003476919
0.010847341
-0.0099589685
-0.037377078
0.011819189
-0.00025740537
0.08028563
-0.016279854
-0.06340754
0.0069924966
-0.08771586
-0.014731344
0.011884012
0.018838203
-0.016545953
-0.036911756
0.0064032273
-0.011527645
0.06531415
-0.037763875
-0.015729545
-0.006953915
0.021425478
0.013858604
-0.002679426
-0.03798926
0.010962523
-0.009906318
0.005416043
0.0062449896
0.17709915
0.008995379
-0.012969275
-0.0048668245
0.020948384
0.2230925
-0.04428093
-0.08613909
-0.03470556
0.050653413
0.03522097
-0.021397721
-0.056135755
0.025124272
0.012573324
-0.018262446
-0.011368921
-0.012295673
-0.056235388
-0.019842826
0.006107361
-0.008067831
0.048846535
-0.087688625
0.00024837337
-0.0011424365
-0.04529314
0.023906594
-0.06960589
0.0047523077
0.07482419
-0.1228966
0.020850908
-0.06187339
0.02380125
0.03682448
-0.026070867
-0.0100197075
0.023437973
-0.035346452
-0.011314037
-0.09145662
-0.050784416
-0.017441157
-0.11568686
0.004351252
-0.06744786
0.0032837004
-0.006429995
-0.011350999
0.022545058
0.05499204
-0.06269842
-0.0030471152
0.1322617
-0.031491913
0.04051097
-0.00874703
0.010262408
0.06464976
0.024275616
-0.04128491
-0.012186261
-0.014964903
0.0135135
0.030710818
0.01014374
-0.019479012
0.0451387
-0.02593814
0.02109563
-0.027922956
-0.05605551
0.026683837
0.03882143
-0.025115646
-0.0185797
0.09827076
0.06594013
-0.02561584
0.0142513765
-0.0062260455
0.04916091
-0.03183136
0.0555972
-0.011598633
-0.002529156
-0.029756859
0.049311962
0.0033161195
-0.012265672
-0.07694826
0.016220778
-0.020750659
-0.03998829
0.0068374774
-0.014405375
-0.009753168
0.009111477
-0.03991467
0.0552945
0.013925467
0.018020766
-0.016236765
-0.018922351
0.007244363
0.025110193
-0.043427125
-0.08307598
0.08516334
0.043712813
-0.013969295
0.006197068
-0.0064970306
0.007732239
0.0136246625
-0.00552361
0.026283141
-0.02022407
0.003945478
-0.050530948
-0.032049473
-0.00547617
-0.025690649
-0.029498866
0.07412217
0.011780856
-0.10981613
-0.033717748
0.033544086
-0.004087679
-0.017519053
-0.048921537
0.0041270563
0.0740552
0.07882784
0.027323643
-0.015770545
-0.0015556358
0.008702655
-0.0017472331
-0.004809811
-0.030741759
-0.05515157
0.050928812
-0.03371272
-0.015437093
0.03254399
0.035612416
-0.054793518
-0.018709455
0.05587423
-0.061234623
-0.065018594
0.00013065386
0.0065498957
0.020033771
0.01689104
-0.009754869
-0.030461922
-0.010238335
-0.042306453
0.012981128
0.039134394
-0.063400745
-0.012128357
0.019706855
0.04789946
-0.029970905
0.02755125
-0.02766768
0.104744315
-0.030793454
-0.099700846
-0.04308214
0.00844452
0.01978014
-0.018656889
0.0070697977
0.0078431135
-0.05100654
0.00881628
-0.1009414
0.102464214
0.01559454
0.04056964
-0.0427104
-0.018803217
0.05743162
0.0008226675
-0.020410206
0.009266764
0.04149551
0.052441142
0.05153941
-0.11184141
-0.06401424
-0.092088476
-0.0073379176
-0.040397964
-0.016062867
0.009352161
-0.05156433
0.086757965
-0.052784454
0.005433984
0.024338847
0.064371236
-0.06255605
-0.024237458
0.09855501
-0.051050458
0.01822325
0.00817389
-0.0068125534
-0.032231208
0.01028175
0.058864154
-0.019057332
0.06318755
-0.03555622
0.031447876
0.0083840145
0.012883301
0.07822049
-0.036427896
0.011384743
-0.05804119
0.018193591
-0.030765444
0.068832606
-0.02003237
0.1080008
0.048205595
0.09079756
-0.030057054
0.0061076535
-0.08090792
0.111714244
-0.035829604
0.010925232
0.03706066
-0.0044861264
0.016464153
-0.025357336
-0.07527416
0.027161302
-0.031205341
-0.050498772
0.00976846
-0.05747556
-0.03196494
0.030812051
0.023117645
-0.034173638
0.02810037
0.009594531
-0.040626742
0.021305062
-0.059537694
-0.029738326
-0.015108613
-0.028601596
-0.020657148
0.001161365
0.009332018
-0.07278083
0.027186858
0.26848263
-0.0007854781
0.008266446
-0.01678279
0.015754947
-7.384206e-05
0.005592862
-0.057311095
-0.025260968
0.01616468
-0.013024497
0.039445497
-0.0053076553
0.049437065
0.04894117
0.053206295
-0.086258985
0.003939456
-0.13562672
-0.032894764
0.019152163
0.04511416
-0.086750165
0.025050646
0.041381825
-0.008290595
0.06631584
0.033994786
-0.008449055
-0.017240582
0.07221149
-0.008327275
-0.03787529
0.06597898
-0.012655573
0.024471082
0.032082565
-0.008047447
-0.076293685
0.04532113
0.0018316733
0.041373856
0.016348507
0.016821764
-0.028164268
0.015173506
0.009600906
0.07015177
0.0056542256
0.010210822
0.036023237
-0.033189222
0.008442542
-0.06734248
0.004185386
0.02160163
-0.0108672995
0.041820012
-0.025509171
0.030785378
-0.07611115
-0.047164224
0.003526821
-0.024687322
0.028296214
0.019006917
0.009312177
-0.050211962
0.003859376
-0.04356698
0.011405135
-0.013078797
0.036914796
0.02627596
0.010691191
-0.003030705
0.026303735
-0.004211837
0.018798424
-5.690465e-05
-0.09135931
-0.036623213
-0.30295086
-0.030638937
-0.033900533
0.01111537
0.03140712
-0.0111828
0.019635303
0.0077559566
-0.027186267
-0.00796636
-0.0011712399
0.072423965
-0.016518535
0.15866673
-0.0029626652
0.0031750787
-0.03424351
-0.008950602
-0.09794519
-0.0021591836
0.06456985
0.020862648
0.03558327
0.0038585293
-0.00040084054
0.04078037
-0.05240961
0.036508236
-0.014774739
-0.4526169
0.009193901
0.016297111
0.07511457
0.023909466
-0.036909558
0.039765168
-0.0035362411
0.02436946
0.020706574
-0.008228676
0.026372164
-0.0005841528
0.02978817
-0.013153665
0.06742866
0.018886672
0.008857871
-0.032001942
0.009955404
0.001061058
-0.08786886
-0.050847135
0.034886826
-0.02501131
0.055422343
0.019081835
0.025763815
0.02888226
0.019060593
0.035563182
-0.0693708
-0.10258121
-0.040064737
-0.08249738
0.351216
0.02963106
0.10076107
-0.09733689
-0.057599828
3.6090507e-05
-0.014209353
0.004667196
-0.026186848
-0.011085566
0.021362439
-0.028907482
0.06250753
-0.02177924
0.060871087
0.15844591
0.04940851
-0.041370567
-0.009836985
0.0265543
-0.05889869
0.022433633
0.0521664
0.026017917
0.0764412
-0.08232088
-0.043911684
-0.047659714
-0.084255144
0.071144626
0.025391411
0.007446411
-0.015688442
-0.038168844
0.042821277
0.007807292
-0.01700052
-0.021471163
0.008442689
-0.003248643
0.020381378
0.025675932
0.015051614
0.001726119
0.033055432
0.014851853
0.012314541
0.013697154
0.08348484
0.048875496
-0.00812852
-0.0036062517
0.10247504
0.02801464
0.04819137
0.020852428
-0.03157877
0.03443898
-0.01730327
-0.08226666
0.010144692
-0.102020495
-0.023060601
0.024192084
0.016882103
0.0040115514
-0.022091726
0.029709391
-0.0066472627
0.0701507
-0.050494116
-0.095740646
-0.0010156294
0.011226159
-0.060914084
-0.0059812297
-0.03490054
-0.017688397
0.0039311326
0.008339106
-0.07146441
-0.024657886
0.0027300876
0.07634229
0.04172721
0.015137565
0.004980893
-0.04044297
0.014069236
0.0009406037
-0.08729169
0.048536792
0.013361863
-0.03862654
0.039463423
0.009825776
0.010937915
0.030111346
-0.1360844
0.0034372504
0.029731346
-0.01854776
0.0840289
0.056745872
-0.075077586
0.04502942
-0.017637944
0.004272432
-0.2933793
-0.030994566
-0.24791092
-0.009006032
-0.01998487
0.610066
-0.05464845
-0.009310906
0.0006660009
0.02218761
0.02617489
-0.49551603
-0.028364025
0.014774907
0.017063996
0.0037207892
-0.015644545
0.043881074
-0.04134115
-0.050793447
0.006308569
-0.054063227
0.011872651
0.03131386
-0.040793363
-0.00973733
-0.09101345
-0.020679407
0.08562451
0.01318713
0.00217663
0.020154286
-0.010548238
-0.01963968
-0.013715179
0.011373433
-0.05189807
0.025009912
0.0057512773
0.00019485681
-0.03927834
0.04881873
-0.0063969786
-0.0068198433
0.017938515
-0.06680546
0.0062568635
0.013133105
0.037734576
0.019707773
-0.00918066
-0.059491925
0.010556752
-0.01766629
0.009797335
0.14220981
0.040695455
0.018937785
0.016801264
0.052403133
-0.015843935
0.015361873
-0.045474686
0.058422465
-0.02373471
0.080838665
-0.011778038
0.038360987
-0.025838226
-0.039620474
-0.010303169
0.014098664
0.017867098
-0.12159747
-0.025228065
-0.018572617
0.0026253776
0.001758994
0.016376572
0.12766543
-0.002232388
0.02586352
0.046770975
-0.03423522
-0.09131522
0.021343874
-0.0036957609
0.008446178
-0.0018158726
-0.21888408
0.028918406
0.03325876
-0.02781596
-0.0018217112
-0.024606083
0.04180289
0.016401442
-0.007287565
-0.0036626626
0.032605566
-0.0018362375
-0.03041386
0.039936077
0.04160237
-0.10834554
0.012953149
-0.014708479
0.0063750446
0.0035679396
0.009652218
-0.0010253846
-0.006471954
0.023264484
-0.09635196
0.0063817664
0.00018743979
0.009732671
0.022354893
0.014587852
0.031034263
-0.033452053
-0.06344416
-0.0032543063
-0.0513551
0.015413504
-0.011386719
-0.015271483
-0.023152754
-0.04356034
0.014026826
-0.074404836
0.0029879645
-0.0016447867
-0.16307855
-0.012731509
-0.06441639
0.022626655
-0.046976753
-0.009540636
0.0014005129
-0.017972648
-0.00816268
-0.0070946882
-0.02570508
0.030562727
0.08486945
0.0851381
-0.009229499
-0.07523868
-0.007617609
-0.010296086
0.011199138
-0.00085574423
0.050750274
0.00048758602
0.010873984
-0.02847529
-0.015749918
-0.011566663
-0.0242977
0.0153159015
-0.047346752
0.014699966
0.02608779
0.02684979
0.14339432
-0.009219745
-0.014545651
0.060669344
0.009295938
-0.006624073
0.02462073
0.039055236
-0.009234017
-0.00684444
0.0009810437
0.10372849
0.05789491
0.028936826
-0.021700334
-0.2442442
0.00812571
0.066419214
0.016646897
-0.0015738376
-0.002704119
-0.0042896317
-0.022461059
0.070707306
0.009821693
-0.18207376
-0.020038946
-0.008287247
0.022928154
0.009278535
-0.040117197
0.025356706
-0.024726683
-0.009770712
-0.00084986986
-0.0004084616
0.020200081
0.039192095
-0.00717741
-0.0016532005
0.024131022
0.020480242
0.011685886
0.2205948
-0.18739638
-0.038999952
-0.0015253728
-0.0055236057
0.001339061
-0.014776473
0.042750046
0.16757084
0.0016185523
-0.034428358
0.017247353
-0.0040995697
0.009672797
-0.023732327
-0.0069609797
-0.02897273
0.010456521
0.0077914004
-0.026711924
0.025323896
-0.01888394
0.005329783
0.013307284
0.018127516
0.015723415
0.105021186
0.03560233
-0.0126127
0.012593388
0.0044729174
0.016045319
-0.055501807
0.01503526
0.0064009773
-0.012927562
0.038800023
0.015081085
-0.025028115
0.018727465
0.005675791
-0.02345873
-0.078301996
-0.02563086
0.005607256
-0.022072276
-0.029146934
-0.0155447945
0.022893626
0.03584078
-0.08185214
0.06313815
0.039153736
-0.008949717
0.10555569
0.047976807
-0.010187858
0.014341852
-0.0067162276
0.013230821
-0.0133360345
-0.025019024
0.073783316
-0.05441386
0.05671813
-0.003564774
-0.011357551
-0.026941003
0.35901126
-0.0119956
-0.015012323
-0.08422134
0.01770726
-0.106765464
0.05899145
-0.032722812
0.046689067
0.0074917334
0.007412608
-0.06055162
-0.0739739
-0.03317651
-0.028616086
0.05475462
-0.009342032
0.07716049
-0.033894446
-0.0035270695
0.0135613745
-0.013795499
-0.021970918
-0.029880602
0.00090979715
0.0152739035
-0.09353683
-0.0072332695
0.056203447
-0.104989015
-0.004118931
0.004272464
-0.0077690105
0.04907406
-0.078204855
-0.023213308
0.13229474
-0.03625654
0.0045569018
-0.030433038
-0.03550777
0.021743143
-0.026098957
-0.05946718
-0.034643736
0.010169546
0.027055169
-0.075294055
-0.16615748
-0.029170867
-0.041527502
0.010991681
-0.06601232
0.038809557
-0.014004752
-0.06245113
-0.008359557
-0.060210086
-0.049178526
0.11918567
0.014779435
0.013465593
0.006925391
-0.09715814
0.084904306
0.034075897
-0.07165009
0.095404
-0.010354287
0.006950612
-0.044166755
-0.118884765
0.00075941114
-0.051519386
-0.057542868
0.05084799
-0.11933554
-0.06374503
-0.0060804775
0.020394173
-0.00698452
-0.087324224
-0.026412956
0.05534949
0.043965183
-0.0095209405
0.09967569
0.015126389
-0.025469394
-0.014352321
-0.07312868
-0.006308011
0.003247537
0.019453906
0.043978065
-0.061467938
-0.12386574
0.0787585
-0.023681933
0.1502321
-0.09407621
-0.029360669
-0.11976308
0.024092799
-0.077916585
0.017045803
-0.09675081
-0.032297485
-0.005256199
0.061112076
-0.018932613
0.018582204
-0.044133652
0.004237878
-0.18351334
0.015714629
0.079038404
0.038240645
-0.051820036
0.10295561
0.019508673
0.039594516
-0.01640053
0.00621064
-0.1329988
-0.10760576
0.061561104
0.021745387
0.055877898
0.013580867
0.010491012
0.011439603
-0.04569292
0.01978951
-0.023416651
-0.01637974
0.012630309
0.044917054
-0.13317086
0.0020081885
0.0011043869
0.013849171
0.0045925686
-0.05656525
0.018676056
0.0027990036
-0.043396942
-0.0022170066
0.10166465
-0.039085694
-0.033961397
-0.069312684
0.002470433
0.033661623
-0.05434739
0.012171539
0.12688482
-0.01485409
-0.15878932
-0.03375115
0.012446412
-0.11577638
0.0003073165
0.014710447
-0.02862152
0.039567538
-0.07647367
0.008584923
-0.03249626
0.031475283
0.031979844
-0.017436573
-0.066218644
0.035190243
0.039071325
0.06057237
-0.044345867
-0.04342525
-0.024343101
-0.032747075
-0.18012829
0.035134587
0.118129075
0.12203465
-0.012275742
0.090847075
-0.026002783
0.017855948
-0.029232683
0.017878117
0.031154845
-0.04329099
-0.008565691
0.061567906
-0.024961693
0.0103066275
-0.043001857
-0.10603236
-0.057918277
-0.13338335
0.0012604281
-0.07661192
-0.07111541
-0.01915448
-0.18394399
-0.049486246
-0.013912552
-0.064919665
-0.001959788
-0.05874629
0.018704632
0.07331881
-0.02542162
-0.058174253
0.07621467
0.00757325
0.05312901
0.010223908
-0.02161773
-0.11046263
0.18302709
0.045551345
-0.069369905
-0.016804304
-0.048096176
-0.037465878
0.04229415
-0.15320933
-0.015508563
0.022377929
0.016654426
0.031791873
0.014167213
-0.033857215
0.01062741
-0.02114736
0.053596355
-0.06740583
-0.10338471
0.02014555
-0.0058271834
-0.023633994
-0.05930459
0.022787064
0.0154951
-0.012425192
0.015195141
0.06892632
-0.014268041
-0.028513376
0.030143468
-0.06462855
0.0024258103
0.012184182
-0.09843025
-0.012151755
-0.003667917
-0.06857138
0.012504065
0.010112141
-0.037162475
-0.006922214
0.0070336373
-0.0015606985
0.023621721
0.004595806
-0.024402216
0.016744051
0.0029869343
-0.029317606
-0.01637257
-0.12299623
-0.03428366
-0.03923587
0.0040119947
0.033799626
-0.030539317
0.011946306
0.00029703477
0.017180964
-0.0009579118
0.04022066
0.01724665
0.028698785
0.027787402
-0.038482755
-0.007400651
0.16246332
0.025405377
-0.041511092
0.0039622895
-0.07060209
0.03674913
0.00810389
-0.02094111
-0.06583679
0.0049818284
-0.005835438
-0.030187344
0.07728796
0.0015937218
-0.111566655
-0.029899955
0.010939488
0.03507329
-0.005485623
0.009601348
0.033400193
0.00047637898
-0.102475114
-0.007292418
-0.008209922
-0.006233419
-0.0265966
0.019749252
0.005807511
0.032689206
-0.026618127
-0.12272397
0.013848806
-0.26038226
0.034264404
-0.04646886
-0.0446231
-0.0043602823
0.12554014
0.013388535
-0.06272921
0.0026414604
-0.0342233
0.043373946
0.043236747
-0.031099087
-0.0093836505
0.012517089
-0.014619549
0.028684352
-0.0029199498
-0.11601961
0.029947562
0.10832013
-0.0041826055
-0.016474703
-0.094567165
-0.027124314
0.021251814
-0.032431006
0.004579775
-0.0039363564
-0.1774442
0.027485156
0.0041099456
-0.041942056
-0.032489613
-0.04984078
-0.063536786
-0.014180884
0.035572257
0.020906173
0.18641677
-0.0030898252
-0.0019316749
0.010816282
-0.03637701
0.03889941
0.0025007913
0.15526804
-0.122619055
0.01738214
-0.060134888
-0.061517544
-0.03256212
0.0015175461
0.049167406
0.024798118
-0.029675622
0.013605285
0.021731544
-0.03319758
0.041976042
0.0013726351
-0.07980102
0.004070206
-0.07117195
0.09537574
0.017310962
0.0075515807
-0.04470798
-0.062412042
-0.00014094605
0.016790835
-0.016315525
0.021780208
-0.04617357
0.02635841
-0.019791987
0.058175094
0.037659913
-0.010391318
-0.010189971
-0.038486365
0.07487115
0.0025541647
-0.039153054
0.028074762
0.011169251
-0.016981108
-0.011481916
-0.028945796
-0.09483492
-0.06733523
-0.0014921749
0.06517483
-0.008395241
0.013578376
-0.0070689726
0.09877057
0.012799905
0.060007937
-0.00020673728
-0.030532286
-0.034762744
-0.013922797
-0.08265046
0.06504142
0.03819942
-0.03582498
-0.06410792
0.005150974
0.0076549444
0.0009633936
-0.015593744
-0.0015307991
0.04301185
0.018234175
-0.055719722
-0.054284114
0.24866651
0.004343032
0.04456877
-0.017949736
0.031317882
-0.053314596
0.21360327
-0.020270955
0.13147144
-0.06888238
0.03016296
-0.03301906
-0.001828097
-0.0023190884
0.04603692
0.1760007
-0.005745396
0.0007606404
-0.063400164
-0.010463998
0.029473208
-0.016923724
0.034626227
-0.0018111669
0.014087377
-0.02438831
-0.002347941
0.013109782
-0.030262716
-0.050177082
0.0785346
-0.028208151
0.0024367862
0.06761121
0.060056232
0.009822202
-0.017505044
-0.01596814
-0.015516979
-0.12626266
0.010446807
0.009843633
0.015139687
-0.046835735
0.00090230064
0.30812317
0.019594612
0.08884023
0.037680954
0.14187007
-0.091823034
0.017576009
0.095842384
-0.046838447
-0.013569671
-0.002731568
0.024438648
0.007778217
-0.02762853
-0.0068961945
-0.013974324
-0.06882364
0.0436
0.014721556
0.018792767
0.0069299703
-0.0023961894
-0.038491145
-0.041536022
-0.0051753144
-0.022218993
0.011201335
-0.021026105
0.032174286
0.042501625
0.053481214
-0.151819
-0.018726382
-0.031418215
-0.0045727477
-0.035332363
-0.13667358
-0.047938097
-0.02495345
-0.03925325
-0.043368597
0.03283308
-0.044898078
-0.037507404
0.0466165
-0.031487934
0.023451013
0.052433234
0.019275025
0.0135819595
0.038054954
-0.011286949
0.06059746
-0.09150313
0.046096418
-0.0193909
-0.007491532
-0.0012372261
-0.008909267
0.06291663
0.007112717
0.0021101516
-0.008638109
0.10554165
-0.01797361
0.05398439
-0.011285142
-0.01878583
0.015271395
-0.010025512
0.017242266
0.0048138415
-0.053653497
0.060945928
-0.072474286
-0.010561736
-0.047235347
-0.0811757
-0.01382627
0.000506656
-0.055455066
-0.07270909
-0.0802451
0.0119983815
0.027417777
-0.072808154
-0.04069609
-0.03727685
0.04746773
0.00041866722
0.040496327
-0.10641448
0.068689674
0.0006901518
-0.028437579
0.017425742
-0.03394334
-0.02976952
0.001694157
-0.023364121
0.055211544
0.05353374
-0.016147904
-0.01896095
0.016536327
-0.00042723285
0.06163476
-0.007653764
-0.049616788
-0.045760877
-0.06363441
-0.00071168086
0.042518117
-0.0054697497
-0.021230316
-0.039940294
0.042472508
-0.047016505
0.0067404965
-0.033212613
-0.086513355
-0.051906563
0.0007337205
0.015640067
0.029879408
0.01934116
0.014971857
0.13375804
-0.06054936
0.05726868
-0.022121573
0.028149512
0.034053132
-0.008260027
-0.040840607
-0.015141471
-0.01220694
0.020329798
-0.034749385
-0.03776238
-0.09288985
-0.0026648352
-0.03243549
-0.035179988
0.009753804
0.016343705
0.03172961
0.039326295
-0.00086588267
-0.009307636
0.0099415155
0.06832658
-0.015314962
0.021024456
-0.037742727
-0.040939666
-0.04227875
-0.06158397
-0.0003643766
-0.012377656
-0.050314285
0.039725255
0.0011192457
-0.0439208
-0.024451777
-0.12527487
0.052317575
0.06543782
0.02712844
-0.021819526
-0.037442345
-0.03462243
0.019637767
-0.011020136
-0.019538062
-0.025582058
-0.10313248
-0.030495556
0.04148095
-0.056392077
0.009520005
-0.015075968
-0.019013919
0.07327794
-0.044747416
-0.015104641
0.0016435727
-0.062252782
-0.017947393
0.025152303
0.033147555
-0.0009822123
0.050358284
0.04294009
0.06017007
0.048531152
0.07393583
-0.13741438
0.03822539
-0.07342429
-0.021430183
-0.013316563
0.010350806
0.009212139
0.037834506
0.012291285
0.030617831
0.10959167
0.011235017
-0.08077552
0.056321878
0.013743622
-0.05393759
0.05386653
-0.020834884
0.0390728
-0.030549807
0.061688803
-0.008655008
0.0076635834
-0.009307353
0.05672801
0.011448158
0.046985555
-0.06315567
0.019265968
0.002940708
0.022098418
0.01434196
0.028463777
-0.0734714
-0.041544005
0.09167327
0.05742886
-0.009531411
-0.032637674
0.01888188
0.0019953332
0.044368245
-0.026546396
-0.020093532
-0.04071706
-0.014064217
0.06664851
-0.04185273
-0.01226132
0.0014430492
-0.010059014
-0.04024763
0.013340695
-0.0052077607
0.015444728
0.046177965
-0.06447464
0.033879634
-0.049843024
0.03909664
0.101014435
0.020876078
0.061467182
-0.019704735
-0.016084857
0.011177265
-0.066037744
0.035781592
-0.029011598
-0.030616257
-0.010610413
0.004590992
0.15209503
0.0057013603
0.0018911118
-0.019794278
0.023336224
-0.009557127
0.058477998
-0.030253015
-0.0020815595
-0.053420577
0.008835591
0.032988723
-0.0077983607
0.012532368
0.011755926
0.03935499
0.062164664
0.028172897
0.0026986115
0.08783886
0.03927291
-0.028251521
0.039451305
0.0259859
-0.05633362
-0.019910438
-0.06873307
0.06575118
0.074310645
-0.018872133
0.04145727
-0.018792853
0.011957884
0.07410711
0.031718142
-0.028563444
0.029905537
-0.015129132
-0.04136053
0.18551373
0.027426274
-0.011963525
0.0010820513
0.030255148
-0.033706907
-0.03997373
-0.056117166
-0.055910673
-0.015330253
-0.037394706
0.03417211
-0.030137444
0.009910641
-0.046767954
0.03192059
-0.035109736
-0.025008185
-0.013428569
0.051795147
-0.018641083
-0.0036886353
-0.030884253
0.082570285
0.015846668
-0.04923103
0.107378215
-0.039246596
0.013895777
-0.009394003
-0.066538416
-0.044699457
0.14321104
0.027595736
0.045289155
-0.012562099
-0.0010360904
0.007436257
0.041944336
0.0076714773
-0.0015188847
0.008252213
0.019066654
-0.0112970425
0.015353566
-0.22863545
-0.04044636
0.069978304
-0.017792346
-0.0016515767
-0.031039912
-0.02747053
0.032901503
0.042943373
0.011031087
0.02983027
-0.01718277
-0.01889753
-0.033308774
0.009925672
-0.009697331
0.007989928
-0.02872239
-0.013122848
0.0020082907
0.025616119
0.084398724
-0.023658631
0.029306408
-0.045608893
0.08724132
-0.038151935
-0.024875285
0.123050556
0.0035258105
-0.041180898
0.071449675
0.016507547
-0.051381215
0.060055867
0.049111813
0.014652382
-0.050686426
-0.037968136
0.06450399
-0.009180071
-0.04010306
0.05036055
-0.02015783
-0.046909567
0.0040428676
-0.015738448
0.10862823
-0.033910852
0.04603369
0.057321213
-0.0014196691
0.14940909
0.07357231
-0.013802385
0.022644369
-0.0020274755
-0.013054463
0.07847809
-0.03659973
-0.023472367
0.018138025
-0.043735232
-0.012275915
-0.0016490923
0.02011209
0.018356336
-0.0023946932
-0.003827297
-0.018852599
-0.17488475
-0.0010932018
0.019402558
-0.051808175
-0.02861478
0.05474948
-0.10191084
0.0322152
-0.01435243
-0.04072873
0.014487128
-0.006247822
-0.050063606
-0.010968456
-0.055384237
0.026804652
0.022651844
0.005458492
0.013937767
0.0521242
-0.00048287946
0.051205188
0.07088383
-0.0054663555
0.07604855
0.006870609
0.09795
-0.004924337
0.003362866
0.13234058
0.024385724
0.05823099
-0.010991129
-0.011252359
0.05267495
-0.054253884
-0.010887465
-0.044703055
-0.019948497
-0.023084372
-0.04694435
0.009756923
0.016739352
-0.09363178
0.019368952
-0.05621361
-0.0012761675
0.0037168667
0.012538495
0.007193958
-0.00015739561
-0.0014432679
0.023020428
0.002825307
-0.026465474
0.01346269
-0.01828453
-0.004757751
-0.028349265
-0.0054311436
0.028031565
-0.069879204
0.05611376
-0.053217124
-0.043968115
-0.016489416
0.0022604428
0.037844945
0.002805837
0.024027202
0.103424326
-0.035233974
0.023091728
-0.008780571
0.00095616933
0.07311699
-0.02040688
0.023240078
0.0061360653
0.043079674
0.06891638
-0.01726371
-0.01896297
-0.0048634387
-0.010834321
0.016866995
0.043737147
0.0004386449
-0.04164632
0.0013088209
-0.09904515
-0.0027005586
-0.014085628
0.050065532
-0.0024324898
-0.11489926
-0.011092981
-0.025550364
0.012739767
-0.11861735
-0.027546553
0.021869775
0.025239393
-0.0049676807
0.061458908
0.042238977
0.011175646
0.04532564
-0.016756305
0.00085895305
0.0040919706
0.01587835
-0.0002111872
0.013651923
0.042132754
0.034305844
0.018670246
-0.12534358
-0.23978713
-0.009890865
-0.061002884
-0.01307868
0.05214884
0.049865343
0.016731955
0.14834003
-0.018573435
0.107468575
0.025540292
0.010000589
0.019942679
-0.03083902
-0.0004893594
0.025788447
-0.016031763
-0.09730042
-0.030772222
0.036719702
0.07672127
-0.047595657
0.0058966726
0.020019608
-0.011887005
0.03355918
0.064536296
-0.03805777
-0.043786023
0.06716312
0.052388795
0.0039055846
0.012207587
-0.00460288
-0.033027526
0.038374204
-0.09991455
0.052948706
-0.0179218
-0.015024405
0.080731675
-0.034955002
0.042309675
-0.048748676
-0.07807725
-0.07171035
0.04194318
-0.019069636
0.06101842
-0.10510923
0.025148207
0.013972197
-0.043281052
0.005193357
-0.03126695
-0.0556808
0.029755352
0.024817554
0.031721413
0.20070325
0.06443604
0.025871878
0.03801044
-0.0056099724
-0.06502402
0.0069832117
0.032718256
-0.010271104
-0.036995396
0.02123981
0.018332595
-0.0025373518
-0.0037351258
0.00675901
-0.0035167926
0.038057704
-0.08569627
-0.059416346
0.049917784
0.063451804
-0.07208388
0.085659586
0.0217707
0.05825755
0.051601417
0.14334026
-0.03853927
0.26485106
0.02326397
-0.04190442
-0.052279197
-0.055809684
0.018844165
-0.0018038361
0.04667677
0.0039076456
0.051076546
0.00657508
-0.0723849
0.012664062
0.10981473
-0.010452133
0.2519813
0.0053175054
0.02131062
0.014502912
0.013029776
0.07937989
0.0017071245
-0.041203324
0.052281946
0.028975362
0.004965026
0.013899996
-0.034833133
-0.07637017
0.034086354
0.06641484
0.1815283
-0.0068009687
-0.02118263
0.03600362
-0.01256236
0.017768156
-0.006829894
-0.06279468
0.20919444
0.029227542
-0.06355809
0.059666608
0.054718006
0.040874097
-0.045461398
0.01294674
0.10185532
0.0500617
0.02177336
-0.011931088
-0.085154295
0.049877822
0.0069995527
0.07972644
0.000708684
0.023671417
-0.38923782
0.018453978
0.091439106
-0.048918676
-0.014166248
-0.20157574
0.028240439
-0.07185452
0.015470868
0.037647035
-0.011576196
-0.01957734
0.034013525
-0.065407075
0.11145391
0.026846983
0.0051167477
0.016294459
-0.08290908
0.05167024
0.018498478
-0.081644155
0.090533085
0.011420481
-0.021159789
0.0797415
0.06998349
-0.011646557
0.013242157
0.019691493
-0.076142006
0.004900358
0.01641546
-0.07893332
0.000113615
-0.0018915536
0.024952093
0.08341108
0.0098161455
0.030546755
-0.010261411
0.010347381
-0.0067093233
-0.03573627
-0.031729948
-0.03062183
-0.006162563
-0.06908338
0.040681474
-0.026502956
-0.033277214
0.02927751
-0.019887656
0.07366849
0.09262458
-0.0037905881
-0.066181794
-0.0009022833
0.0078247525
-0.010321444
0.03777908
0.14242849
0.078340694
-0.10408593
0.019145552
-0.16311443
0.001663329
0.015647614
-0.05102795
0.01682295
0.03140137
0.18107162
-0.041946024
0.0027875167
0.003009895
0.0066486825
-0.047940653
-0.018289672
0.044652328
-0.022759803
0.004317398
-0.047912866
0.030625543
-0.12696126
0.04908899
-0.0011915681
-0.0287871
0.0112988055
0.056702945
0.23791033
-0.019671433
-0.017763548
-0.069846615
0.03500614
0.019823069
0.083098434
0.02225975
-0.031333525
0.03135604
-0.04044258
-0.13664466
0.039966095
-0.011780478
0.05011582
-0.028986165
-0.08912611
0.018045072
-0.03310564
0.020228775
0.13640894
0.07757734
0.075147495
-0.025295027
-0.09619863
-0.014810612
-0.0749482
-0.20998973
-0.083546795
0.03885843
-0.039785676
-0.06750741
-0.0051275776
-0.047968186
0.07959538
-0.027750844
-0.04469657
0.091605656
-0.121193625
0.009491425
-0.0047252523
-0.018619698
-0.13422704
0.014514827
-0.01931797
-0.059281547
-0.0842842
0.01920191
-0.08904987
-0.059609685
0.06108724
0.0188567
-0.0089347
-0.09439895
-0.025629811
-0.036542863
-0.01161963
0.1068987
0.040802658
-0.053659353
0.120339304
0.004804488
-0.075194776
-0.008358813
-0.0142789455
0.073146455
0.047975134
-0.12411797
-0.13814555
0.010692089
0.09464577
-0.100111425
-0.07669469
-0.019491602
0.025459478
0.019141747
-0.066543445
0.0010227531
-0.054572735
0.087988354
0.073849216
0.02456844
0.035783
0.06136692
-0.11373105
0.046440285
0.04756453
0.08584114
0.0951422
-0.07360314
0.04038022
-0.2748236
0.07757631
0.0021016456
0.015209406
-0.031077966
-0.008437472
0.020970928
-0.07643108
-0.013406991
-0.033209182
0.029420588
0.006357336
0.012956066
0.035842124
-0.0055367686
0.014900727
0.042472772
-0.0067317123
-0.12901537
0.046749506
-0.0071717724
-0.022078509
0.010296698
0.050980777
-0.033969305
-0.011767628
-0.0047783325
-0.030020643
-0.06618281
0.015681315
-0.25593162
0.012851937
0.14292492
0.013288993
0.010303719
-0.114053
0.030929236
-0.14889352
-0.08205486
-0.16231482
-0.16638273
-0.040865846
0.06947831
0.036419034
-0.074939944
-0.08831164
-0.0055070063
-0.020116674
0.025016725
-0.056601826
0.07055166
-0.14204253
-0.07483147
0.009011752
-0.0671194
-0.06509807
-0.0032198771
-0.16310534
-0.10323319
0.08067211
0.02203802
-0.01566739
0.024865251
-0.0027122274
-0.038328554
-0.041845966
-0.08604902
-0.0029308505
0.016690841
-0.076803155
0.09277504
0.041278668
-0.0317049
-0.0453786
-0.047512326
-0.07906153
0.081444345
0.09646657
0.03112594
0.006869491
-0.004618587
0.06032625
-0.008864204
0.050713897
-0.12864067
0.022767002
-0.024750037
-0.041143708
0.04514633
0.06733383
0.0034215709
-0.058162123
-0.017217334
0.02012778
-0.071485884
0.07746826
-0.19291231
-0.020436076
0.094236195
-0.16628061
-0.0142439315
0.020898355
0.08051462
0.009784724
0.017167091
-0.07000129
-0.05215822
-0.11225491
-0.003183162
0.10748018
-0.03297386
-0.059910648
-0.023791423
-0.039326813
0.06234441
-0.043594226
0.034832206
-0.010460689
-0.14871462
-0.09065277
-0.02840334
0.028194195
0.042170335
0.019113636
-0.032842327
-0.062062908
-0.14527178
-0.033403523
0.059785306
-0.02708308
-0.03489012
-0.065104835
-0.057099897
-0.03287678
-0.040757265
0.071913175
-0.06707404
-0.03382572
-0.01850231
-0.16900194
-0.017926184
-0.014294859
0.100812964
-0.088928506
0.01694039
0.044650525
-0.11665092
0.08600698
0.01028586
0.120288245
0.056550026
-0.10816373
-0.1489948
0.102040224
0.055773053
-0.14905457
-0.024914505
0.08495331
-0.043474916
0.02534512
-0.17586029
-0.005094318
-0.007175962
0.035701927
0.08105658
0.16420513
0.07054197
0.0058396636
-0.03641149
0.0261207
-0.059123613
0.025654603
0.061199076
0.052369386
-0.010640079
-0.033730205
-0.049343448
0.0062870258
-0.033717982
0.0366581
-0.006715018
0.004796064
0.02913659
-0.0742977
0.0048738234
-0.06876052
0.05032751
-0.056018915
-0.023785735
-0.0356542
0.014770155
0.04979404
-0.13070258
-0.061611086
0.009657309
-0.019342862
-0.018365728
0.07881577
0.051994618
0.02012732
-0.07262317
0.08153576
0.005563199
-0.014942878
0.025825597
-0.070675224
-0.03272926
0.007621174
-0.018346816
-0.011774313
-0.050400365
0.06148241
0.06074621
-0.01466259
0.06414139
-0.00469772
-0.0034472554
0.054863337
-0.012678783
-0.059165847
-0.013184505
-0.036573943
-0.039986677
-0.015380923
-0.041610494
-0.0019106477
0.0017131385
-0.01107684
-0.009917752
-0.027720714
0.10845514
0.016848097
-0.011286842
0.00758223
-0.007998473
-0.028744245
-0.06318297
-0.024650685
-0.033035327
0.008991693
0.031550582
0.048423532
-0.043074936
0.018795324
0.04565578
-0.009615519
-0.0017834298
0.006182509
0.008528172
-0.054358006
0.051561225
0.016306471
0.04742573
0.011743486
-0.070841245
-0.061697125
-0.080463566
0.08117687
0.013091403
-0.045284133
-0.089420944
0.049283717
0.068099864
0.038852975
0.02193423
-0.0754872
0.005067288
0.013547509
0.0042622974
-0.016376156
0.00795296
-0.016754089
0.018051134
0.06366977
-0.0866334
-0.0062673017
0.0035791423
0.0008085037
-0.06463482
0.014252573
0.0020958113
0.012799847
0.038774498
-0.047648445
0.0267508
-0.013742928
-0.004759745
-0.014478378
-0.025935238
0.05716911
-0.024072869
-0.021197107
0.006140692
-0.06254676
-0.047491875
0.021640724
0.046838917
0.039823037
-0.018340413
-0.010324534
0.011459427
-0.03526713
0.022542704
-0.044960886
-0.0024312336
-0.04975794
0.049334135
-0.05536525
0.0119215045
0.015005616
-0.06295046
0.067106724
-0.023016188
-0.0031349012
0.06855447
0.0011922527
0.0027162544
0.021441853
0.022989988
0.04191864
-0.019384036
0.032603245
-0.03376913
0.0032136152
-0.016896425
-0.03692563
0.013862868
0.027796783
0.04702661
0.054087613
-0.04025437
0.060690112
0.043022938
0.0145366145
-0.02305083
0.07876022
0.010498728
-0.009870137
0.055933207
-0.074569255
0.014002127
-0.021555014
-0.04337911
0.022311201
-0.04698002
-0.027262868
0.05640421
0.1032707
0.020858597
0.002279617
0.012481894
0.006972634
0.051159292
-0.07115868
-0.08290417
-0.03160012
0.06856998
0.06957283
-0.0020126905
0.005553908
-0.006951003
-0.01885373
-0.0015264766
-0.01163187
0.07675933
-0.008416424
0.06450149
0.0106637245
0.021133503
-0.021218212
0.06462382
0.045042332
0.0007409272
-0.04433317
-0.07794796
-0.016504083
-0.08343619
-0.003182674
-0.023738706
0.011542369
-0.061093807
-0.052514706
-0.02913114
-0.0008867356
-0.019279337
-0.0048851348
0.05891005
-0.007999094
-0.065874025
-0.040042784
0.034271386
-0.03282897
-0.06383312
0.033034764
0.056028903
-0.030858124
0.013521465
-0.049406372
-0.0030398562
-0.014138004
-0.025235666
0.006790471
-0.026579268
0.042380948
0.025612662
-0.047345188
-0.032652795
-0.02515454
-0.009584976
-0.025834503
-0.026088666
0.07329074
-0.052699335
0.013315968
0.04460068
0.0005814975
-0.07541791
-0.016465383
-0.07126641
0.05774533
0.0038916534
-0.016836036
-0.032553766
0.021815917
-0.0050438237
-0.03294443
0.019312352
0.06604989
0.04913744
0.013840986
0.020490302
0.028983708
-0.018667953
0.02802859
-0.024004633
0.030502167
0.04597185
-0.019210806
0.07383928
0.022453515
0.05339542
0.021176709
-0.00072587345
-0.03596942
-0.07524135
0.038416155
0.068023965
-0.024144504
-0.10922477
-0.052640446
-0.027345547
-0.0146933915
0.036524273
-0.014396975
0.03501521
-0.0456421
0.044392068
0.036832366
-0.031875
-0.019645523
0.049976207
-0.017684584
-0.0360569
0.018922672
-0.01948111
-0.13747029
-0.012065456
0.00093459256
0.07321211
0.012875823
0.03326703
0.014707296
-0.004904854
0.026260061
-0.0020422896
-0.020851314
-0.031778783
0.06350745
-0.04388443
0.02088514
-0.028237542
0.040496547
-0.09224014
-2.5221867e-05
-0.0107360855
-0.06780173
-0.030295212
0.0888525
-0.014463992
0.058906574
0.016776549
-0.01069668
-0.028792981
-0.049585283
0.058813956
0.017495217
0.069329225
-0.011912766
-0.035960294
-0.019187136
0.052989513
-0.030243002
0.029191284
0.033001605
-0.024846263
0.017678324
-0.025701564
0.01672873
-0.036012907
0.12806162
-0.0023054476
-0.044991482
0.020533461
-0.02135095
0.00534553
-0.034658164
-0.06954475
0.024479322
0.0272296
-0.013982889
0.022752583
0.014866363
0.018267289
0.012479165
-0.015975874
-0.04221733
0.013562668
-0.013480993
0.04131364
-0.029247154
0.005400871
0.022193559
0.00786538
-0.00028942965
-0.0048222253
-0.014018323
0.036861904
0.01578384
0.04784969
-0.013872551
-0.0228354
-0.022497846
0.027183698
-0.027992558
0.026168276
-0.0073414766
0.12261448
-0.01109221
0.031346925
-0.01462116
-0.009990833
-0.018729655
0.083136916
-0.015124588
0.04230811
0.002866177
0.0072551584
0.025560807
0.0026159594
-0.043947063
0.024666501
0.008032786
-0.009294787
-0.06647202
-0.00055885356
0.0067341374
0.011642753
-0.007926489
-0.011319504
0.002357321
-0.0048027546
-0.05464293
0.0054885102
-0.035401694
0.056554113
-0.008270835
0.038796164
0.015203173
-0.0074049565
0.042989362
-0.008715983
0.008595876
-0.04003541
-0.0062720324
-0.018084848
0.028701302
0.04870643
-0.06668984
0.03320857
0.0014558942
-0.005659866
0.022265263
0.020927615
0.02132272
0.0398521
0.0043230536
-0.048007075
0.024196336
-0.061001923
-0.112973355
0.064159095
0.03245444
0.03913733
0.037411448
-0.004646969
0.03205446
-0.0069316146
0.037967175
-0.03141275
-0.048391216
-0.017480385
-0.038411517
-0.032398824
0.023632556
0.03378276
0.05181047
0.03417235
-0.03513733
0.016487094
0.0036493582
-0.010815718
-0.00753083
0.025991706
-0.027582452
0.09896263
-0.02699804
0.010405344
-0.06342677
0.047707915
-0.008934579
-0.007745358
-0.03809567
-0.0013179923
-0.0011014692
-0.0008093159
0.00080746814
0.03425629
-0.020898724
0.0602472
0.01903539
-0.021185312
0.022793079
0.02739552
0.018063828
-0.047267854
-0.020705178
0.03185824
-0.121811904
0.011400313
0.0015312413
0.13619523
-0.010745748
-0.008202226
-0.1373801
-0.030634688
-0.00991142
0.020995654
-0.021395748
0.004468442
-0.08880168
0.060659494
-0.0009631227
-0.0027346741
-0.020810539
-0.004187797
0.019363524
0.085818335
0.020294363
-0.016227176
-0.03641787
-0.052647166
0.03270171
-0.015528009
-0.038304944
0.01317658
-0.0002372136
0.042673856
0.004871733
0.05874674
-0.029648468
-0.078879334
0.005444387
-0.03494065
0.03488786
-0.0329118
0.036373477
0.014230988
-0.043735504
-0.0075681014
-0.0022144597
-0.029308254
0.009861813
0.013500743
-0.07492242
0.051682957
-0.028993461
-0.0043742354
0.022975761
0.0071119242
0.091748774
-0.043829832
0.023211518
0.01870829
0.09373419
-0.03620051
-0.048325866
-0.00023109619
0.049887806
-0.030723665
-0.050617635
-0.014857551
0.0931096
0.01838245
-0.034839705
0.08128265
0.060951084
-0.006520807
-0.034922823
-0.06316656
-0.00037483868
0.017827014
-0.057323147
-0.07928066
0.2318067
0.013663852
-0.10914973
0.025486337
-0.004278442
0.015174594
-0.040203452
-0.012850777
-0.03001043
0.007574921
-0.012406589
0.004060009
0.014180975
-0.053018894
-0.008422856
0.050026048
-0.042165995
-0.029398972
-0.011221741
0.101899475
0.013270743
-0.068002015
-0.019744493
0.010062247
-0.023738967
-0.07420742
-0.025572345
-0.015699789
-0.016303314
0.032827687
-0.06144043
-0.024390329
-0.03324849
0.06546122
-0.0313829
-0.020506982
-0.032770175
0.063725546
-0.028252333
0.025283096
-0.038323812
0.06537744
0.038169198
0.00955456
-0.039534036
-0.19375776
0.03343027
0.041957468
-0.031407338
-0.052356202
0.007691809
-0.0041586123
-0.03055766
0.06110777
-0.03463829
-0.0011603647
-0.009307748
-0.018533686
0.005793327
-0.04270367
-0.028883554
0.034778584
0.038594328
-0.0075207595
-0.018384203
0.01148147
0.08955906
-0.0649952
-0.027283585
-0.07107679
0.007901978
0.002144769
-0.02590106
-0.0113707185
0.0016031743
0.022317978
0.012138758
0.02188998
0.0053065876
-0.009348281
-0.043547906
0.004954574
-0.010302569
-0.019985901
0.040724367
0.001527436
0.00018984861
-0.04224321
-0.007319892
-0.0015261964
-0.053129815
0.046681292
-0.037266575
0.012428779
-0.014627223
0.019537305
-0.045487724
-0.013396082
0.05836964
-0.020489698
0.09489801
0.049207717
0.017818334
-0.05562129
-0.018232437
-0.035863336
0.015319984
-0.025520805
0.0113616595
0.049056195
-0.03319705
-0.0530385
0.0285923
-0.072620235
-0.03575116
0.018882187
0.05276962
0.0035864292
-0.004948449
-0.042598408
0.13528055
0.02458835
0.0125643015
-0.019062687
-0.01850458
0.016713
-0.013412918
-0.024246693
-0.014395007
-0.033698227
0.056990504
0.014282998
-0.026277011
-0.04005465
0.020277165
0.041363712
0.03902823
0.09731379
0.027032048
0.057343796
0.017591812
-0.029937353
-0.055617567
-0.005476188
0.020362606
0.036151286
0.06944037
-0.025854424
-0.007788231
0.039506212
-0.05850553
-0.003756649
-0.06363027
0.021176873
-0.029259909
-0.02089536
0.059865065
0.034972776
-0.015347121
0.096082225
0.01058363
-0.035011657
-0.013730807
-0.03530859
-0.003141774
-0.027964275
0.0074891704
-0.050243877
-0.0053991275
0.025638761
-0.03192712
-0.012586403
-0.05822309
0.0236234
0.0038492163
0.089947484
-0.08092521
0.046851113
-0.060277153
-0.01274389
-0.025717068
-0.0011865797
0.042030532
0.035933074
-0.056337003
0.06381328
-0.08109981
0.09780205
-0.0009256511
-0.010712565
0.07328952
0.032383513
0.076721355
0.0325746
-0.016696861
0.11519206
0.003320246
-0.0035447478
0.019236272
0.031197429
0.046352435
-0.030913437
0.047694992
7.890729e-07
0.0017275991
-0.021052033
0.012668167
-0.031837393
0.050532535
0.004692855
0.0058534597
-0.020257954
-0.013010534
-0.012547791
-0.015620171
0.03897748
0.17728342
-0.006593453
-0.14401048
-0.05943446
-0.007815242
0.012821953
-0.021654133
-0.031973507
-0.04850023
0.030706054
0.0796275
0.0077939
0.12276765
0.10245937
-0.018406149
0.04440587
0.0077739744
0.0230682
-0.017856661
0.025468506
-0.026193997
-0.047484864
0.058531616
-0.025348026
-0.030671215
0.06839797
-0.06832412
0.012665718
0.02549543
-0.11940356
0.029362025
-0.011338953
-0.0072645093
-0.013613074
0.041779716
0.07494106
0.06049836
0.0047959047
-0.10359482
-0.009321096
0.08773554
-0.015674375
-0.028812675
0.019522373
0.003696469
-0.06866658
0.046114113
0.21668005
-0.006992624
0.019982003
0.015357776
-0.006744614
-0.016455308
-0.06392794
-0.03594388
0.011074425
-0.08345354
0.06804509
0.11390254
0.003221166
0.014799718
-0.15220611
0.07265682
-0.12292496
-0.052463252
0.00910978
-0.05596005
0.06568774
0.0046859933
-0.062372312
-0.045430634
-0.12010248
-0.06976435
-0.024917275
0.0446339
0.016893534
0.028739028
0.030168168
0.1027307
0.074451774
0.08704857
-0.03421187
-0.08583548
-0.08426158
0.004949048
-0.08347608
-0.106170475
-0.051004726
-0.10627518
-0.018607114
-0.066185854
-0.016799226
0.00827362
-0.057189792
-0.079709016
0.02048864
-0.017217686
-0.013231728
0.0029062005
0.025212843
-0.044012617
-0.020031368
0.0042626583
0.040919688
0.100749575
-0.095556274
-0.000803634
0.04267349
-0.029000578
0.022877416
-0.016338522
0.041510537
0.014239524
-0.007816337
-0.033369977
-0.067310825
0.03470976
-0.37132457
0.004063035
0.020535976
-0.106585346
-0.00050936936
-0.06331271
-0.031309508
-0.04311958
0.07064
-0.05285958
-0.016826328
-0.041169796
-0.009935583
0.06515495
0.023819687
-0.022518575
0.006175811
0.037897218
0.017032014
-0.020449331
-0.019482426
0.00826049
0.004204015
-0.01364757
0.101281464
-0.031202761
0.110541806
0.06475587
-0.042766426
0.0059004813
0.03137214
0.068033576
-0.022780687
0.024104107
0.02628659
0.075931594
0.004017369
0.010325782
0.04144413
-0.09372427
-0.074751824
-0.018861573
-0.062014103
-0.024569578
-0.03850398
0.0881104
-0.05968017
-0.019536449
-0.09837707
-0.06752254
0.011312214
-0.026721526
-0.057531845
0.0009354709
0.066767834
-0.031945646
-0.047669385
0.048313845
0.031452402
-0.07594614
-0.0077572926
-0.037906136
0.08957179
0.2980225
-0.012779825
0.042747766
-0.048344944
0.003925684
0.055036765
0.029934833
-0.03678227
0.088189214
-0.06613337
0.040116895
-0.024359709
-0.0031143348
-0.12904274
0.25530082
-0.0211222
-0.04961464
-0.08363495
0.05827267
-0.061502673
0.07953701
-0.045412444
0.035657126
0.088188134
-0.020380767
0.012827705
0.001005204
0.021367162
0.0069954577
-0.06295889
0.05900923
0.08371163
0.025399193
-0.029342568
-0.016528962
0.057270423
0.05929745
-0.008456192
0.043710914
0.038780022
0.07955159
-0.081775345
0.057098858
0.009157938
-0.04992095
0.024397185
-0.07112644
-0.015406312
-0.122960664
-0.017623095
-0.017125107
-0.009691055
0.08722626
-0.052244663
-0.050861537
-0.014495691
0.11861843
-0.03610238
0.0061775455
0.04588912
-0.09902143
0.04139663
-0.046732757
-0.06131054
-0.020963773
-0.003455317
0.032459702
0.05663828
-0.001582335
-0.030080812
-0.05746509
0.12310299
0.041797247
-0.045038227
-0.014917614
0.002387478
0.0071924496
-0.11774287
-0.034032956
0.0013602339
0.07022316
-0.0073944572
-0.0123572815
-0.040520277
-0.030536054
-0.0042820163
-0.00039479512
1.7390314e-05
-0.043103848
0.036308367
-0.017551556
-0.014398337
0.0023423946
-0.007925474
-0.019513085
0.01038656
0.05511864
0.0031028355
-0.013654839
-0.030323507
0.0514827
0.00021194913
0.021438582
-0.022320857
-0.009952073
0.018572433
-0.040080737
-0.011229288
0.06743232
-0.03604712
-0.040612828
0.023436097
0.016375478
0.01840518
-0.048356056
-0.012197929
0.028201316
-0.029946418
-0.0335592
-0.032864537
0.009295946
0.015844885
-0.0077960994
-0.038275916
-0.07148727
-0.001031911
-0.008420729
-0.027670512
-0.05632341
-0.0146193905
-0.0340802
0.088723525
-0.076346084
-0.0004037468
0.008598601
0.07354866
0.011580257
-0.021463186
-0.12196975
-0.016172186
0.03157356
-0.08864602
-0.09131762
0.05796562
-0.015899675
-0.0070766937
-0.12959881
-0.014942113
-0.041259654
0.01249895
-0.006385921
-0.010251997
0.0144138085
0.022794189
-0.0017154746
0.010054675
0.025712753
0.0037712764
0.004730118
0.08673075
-0.019224783
0.03445218
-0.018768247
-0.0021916796
-0.04648441
-0.029789982
-0.027535668
-0.0135363275
-0.046827357
0.066684134
-0.034649566
0.04815027
0.019851947
-0.07487998
-0.016494783
-0.026946243
0.011954219
-0.032952342
0.012085442
-0.018908504
0.016029717
0.017157577
-0.02198212
-0.04390367
-0.010251846
-0.017591493
0.019915251
-0.00065142097
-0.012177083
-0.10486146
-0.011707978
0.0984441
0.00065470097
0.0047202907
-0.038888395
0.04179534
0.06493372
0.020746497
-0.07213856
-0.04617588
0.017376559
-0.110413626
-0.03729621
-0.0105252005
0.0029291837
-0.0071416027
0.03759427
0.035730135
-0.042966485
0.02282278
-0.013702582
0.0018359283
-0.005480898
0.016998276
-0.010662834
-0.020785274
0.043099932
0.054142382
0.015920136
0.017264767
-0.035333157
0.04069362
-0.024069848
-0.00035956837
-0.010948181
0.050389126
-0.018103585
-0.0106931245
0.0029760634
0.03757372
-0.042984158
-0.036642905
0.033572596
-0.01596871
-0.0064563993
-0.044538993
0.116040476
0.028545374
0.04146991
-0.026711466
-0.053629693
-0.004079803
-0.030263746
-0.025158172
-0.004344476
0.0030031358
0.06795541
-0.031577338
0.015500693
-0.010015214
-0.02164662
0.03885879
0.0085892845
0.06327452
-0.011367008
0.0010547445
-0.009740299
-0.07052152
-0.04745643
0.06529157
0.054062303
-0.0042045247
-0.02627511
-0.030866696
0.026905693
0.006877097
0.03631985
-0.014186979
0.033314466
0.067006476
-0.03200228
-0.008980369
0.005845029
0.03268786
0.016407905
0.039669633
-0.020079304
-0.02616348
0.07148172
-0.035078447
-0.010032517
-0.050280355
0.012109439
-0.016115863
0.00015796714
0.004734079
-0.05610489
-0.027282272
-0.00655027
0.0688616
0.022702156
0.043579355
0.016109612
0.08266004
-0.003814531
-0.026307408
-0.054867897
0.044924058
-0.077685505
-0.02481704
-0.07170995
0.06318623
-0.0039906567
0.062086564
0.0003735123
0.031538896
0.045177385
-0.015419879
0.04853271
0.044715922
-0.0017135753
0.10033359
-0.03116445
0.018715562
-0.012766838
0.02550366
-0.073159404
-0.04368525
0.013608912
0.05045564
-0.0064908476
0.051813595
-0.028731657
0.008157774
0.0060668606
0.005306386
0.051073425
-0.0091256425
0.015568768
-0.008364552
-0.025736116
0.03200545
0.02500581
0.07629168
0.027622081
-0.0024091334
-0.0072779637
-0.015209144
-0.078327164
-0.03735667
0.0005234737
-0.021427277
0.045990493
0.0074101365
0.068225995
-0.06820292
-0.014252367
0.027845787
0.047977105
0.027846722
0.014380922
-0.0487802
0.012629706
0.055246454
-0.23350811
0.021961823
0.036624916
-0.016867904
0.038344525
0.036843184
0.03155906
0.014846773
0.03381501
-0.26034522
-0.10879963
-0.017603355
-0.0014913986
0.008457211
0.06289193
0.06480931
-0.012871766
-0.03047824
0.008204502
0.009144379
-0.012707423
-0.016927028
-0.021673191
-0.09647
-0.015025674
-0.015849173
0.0031926902
0.0005547668
0.05518586
0.034266897
0.1492911
-0.026132284
0.055778854
-0.026740914
0.041903462
-0.04740142
-0.0067966306
-0.026808545
0.0026191948
0.012996607
-0.0145362355
-0.039959613
0.0063175573
0.048294634
-0.04133628
-0.024344483
0.11360424
-0.010501942
-0.044281747
-0.009224052
0.031292614
0.03848355
-0.08340805
0.009938892
0.027061619
0.012008003
-0.11783105
-0.012719856
-0.015036973
0.026427323
0.0550308
-0.009573796
0.20123465
0.052287422
0.004968732
-0.025836062
-0.0859584
-0.04894836
0.018252976
0.06085832
0.117294446
-0.04593583
-0.030694311
-0.01144852
-0.030791314
-0.058252465
-0.03473732
0.007327265
-0.022210415
-0.00048849476
-0.030545672
-0.10641864
0.096237205
0.0077292086
-0.10282902
0.0022106462
-0.02599306
0.14228182
-0.048395857
-0.00970807
-0.010068076
-0.034460086
0.05615555
-0.15314865
-0.034622304
0.023525858
0.042826265
-0.013948854
-0.01646797
0.00498206
0.010446202
-0.049003202
0.040728334
-0.09953843
-0.005786001
0.061447
0.035648264
0.012427744
-0.026395319
0.008575173
-0.07997524
-0.025732223
-0.037112277
0.020415183
-0.06037636
0.09924983
-0.09540018
-0.06260306
-0.015708357
-0.0027052616
0.113226786
-0.02689262
-0.017259372
-0.045101114
-0.046211403
-0.00209632
-0.010757317
-0.005995473
-0.0020945629
0.021434685
-0.013041905
0.06543618
-0.05057313
-0.02424434
0.03629131
-0.062597014
0.023677044
-0.027958421
-0.07019625
0.020600256
-0.009523139
-0.02232561
0.095373765
-0.025366096
0.12204099
0.017736262
0.042175923
0.01021676
0.009801686
0.034929633
0.11972628
-0.003286983
-0.01042423
0.013370823
-0.10867368
0.12798586
-0.021423943
-0.056743916
0.0106700845
-0.0962047
-0.032312445
-0.06938444
-0.114700384
-0.022161355
0.017909463
0.04627798
-0.010996668
0.029664405
0.022658153
0.114806995
-0.020618312
0.02004851
0.040951494
-0.0032778175
-0.08148799
0.028135711
0.003180603
0.051464107
0.014933891
0.034106966
-0.11703653
0.017015547
-0.026014846
-0.03488582
-0.009983732
-0.0052006696
-0.05805184
-0.019279588
0.004703993
-0.016271597
-0.047732696
-0.021070192
-0.019310135
-0.055672973
0.036682595
0.047393493
0.01314042
0.05203089
0.014999113
-0.021479975
-0.054263994
-0.033126462
-0.050168313
-0.0068153045
-0.035140328
0.18502977
-0.0062328656
-0.002995986
-0.01341277
-0.04731536
0.09411781
0.009510049
0.092938714
-0.046201162
-0.06891603
0.008882956
-0.023647813
-0.009091148
0.043961413
-0.045607567
0.01200093
0.06842864
0.018910633
-0.08580888
-0.01229485
0.012699012
-0.008155252
0.005716964
-0.025888745
-0.021968741
0.036503933
0.0006240678
-0.0031607875
0.023173928
0.005688808
0.15767206
-0.0075449217
0.006367801
-0.07806177
0.029434491
0.036907528
-0.041885737
0.010820181
0.044276934
-0.18603371
0.04435632
-0.013447551
-0.11365108
0.0037076336
-0.020147068
0.010879284
-0.04201737
0.02710394
-0.019971007
-0.12988056
-0.13798447
0.09383597
0.052150708
0.018825471
-0.0019355252
0.08415528
-0.023393948
-0.049662117
-0.098214254
-0.012428817
-0.044136837
0.087009065
0.023138741
0.07267391
0.056680936
-0.015518479
0.11620636
0.01839408
-0.02385607
-0.060110155
-0.014819618
-0.084449306
0.014060829
-0.0043144547
-0.029383518
-0.04500057
0.04609938
-0.046339046
-0.029597646
-0.021998279
0.07600633
0.034580767
-0.060023885
-0.05903441
0.117744654
0.1711804
0.027483663
-0.017756112
0.055108376
0.11600227
0.03536093
0.0044272793
0.052807733
-0.008676054
-0.121177204
-0.09010358
0.009255227
-8.99893e-05
0.01924426
0.0717946
-0.025093606
-0.04986946
-0.026823273
-0.038724527
0.040580504
0.054503746
0.07940638
-0.094497316
0.02337445
-0.028128862
0.049208876
0.06053221
0.027277773
-0.10914278
-0.14531955
0.0032287538
0.034878712
0.04960723
-0.023477059
0.0066819843
0.02316541
-0.09279643
0.115698874
-0.0072790673
0.021741774
-0.015055947
0.067625225
-0.083556876
-0.05731086
0.037621547
-0.03618424
0.15226872
-0.0036921944
0.07640429
-0.11003792
-0.10100182
-0.08354242
-0.014910326
-0.117698245
-0.026267413
0.058466386
-0.04701136
0.019017538
0.019721689
0.24268915
-0.03557335
0.025277374
0.0538999
0.05256685
0.020927897
-0.005676889
-0.21517724
-0.2058387
0.01845807
-0.108196534
0.0032236814
0.08947444
-0.08798151
-0.04454696
-0.026091073
-0.040285226
-0.18347628
-0.0054297247
-0.031547762
0.09782785
-0.036744535
0.04654278
-0.061148077
0.02846496
0.0690098
0.09550145
0.08880972
0.1464587
0.031458996
-0.021078503
-0.069975846
0.03639642
-0.007917352
0.056997586
-0.019028027
-0.0013461654
0.034112033
0.020544529
-0.014341224
0.056425728
0.023670966
0.092381746
0.026160514
-0.08812554
-0.00796878
-0.0037206053
0.03271904
-0.07246373
-0.055469498
-0.08705627
-0.05062985
0.01002521
-0.12638612
0.08762893
0.05818007
-0.025657106
0.061399832
0.027042331
0.014770973
0.056566406
0.0866713
-0.09774951
0.014459978
0.08715474
-0.039754666
-0.09973945
-0.052241072
-0.06968356
0.16832887
0.013683572
0.039720275
0.010148019
0.017821625
-0.004869564
-0.0460641
-0.013049803
0.022609906
0.01155159
-0.023490475
0.08956655
-7.33524e-05
-0.010490141
0.017829167
0.043340433
0.019449694
0.09086757
0.044161145
0.06672061
-0.10014956
-0.04690449
0.019089656
0.002314758
0.095645614
0.110364184
0.0037932156
-0.025565684
-0.13603008
-0.004757795
0.0055524083
0.14758573
