-0.0120054
0.0519882
0.201811
-0.0420044
-0.0413775
-0.00639967
0.0313121
0.123443
-0.110536
0.0774768
0.0247556
0.00592797
-0.0145191
-0.03561
0.147162
0.00164462
-0.0260056
0.0250761
0.277674
-0.0945361
0.309634
0.139894
6.08775e-15
0.112365
0.00959334
-0.0464788
-0.0035187
0.0382067
-0.0723728
-0.0625586
0.107585
-0.137833
0.0372244
-0.0341258
-0.0118447
0.00226663
0.144183
0.0490868
0.0258277
0.0111523
0.0400567
-0.00462696
-0.0252532
-0.0993526
-0.0230199
7.6791e-15
0.0149931
-0.110605
-0.000190092
-0.109991
-0.00993572
-0.0172393
-0.0253565
0.100883
0.0401738
-0.0459751
0.0973856
0.0213711
-0.0445816
0.0040999
-0.0975967
-0.0190768
-0.00103956
-0.112261
-0.0426039
-0.0208564
0.0835428
0.110572
-0.0117804
-0.0590623
-0.136919
-0.138984
-0.0590436
-0.0782404
-0.0189968
-0.0458844
0.0417715
0.0138096
-0.0254941
-0.00657659
-0.0733333
-0.0542625
-1.27147e-13
-0.0562816
0.0261202
-0.121728
0.181638
-0.0843896
-0.128844
0.101379
-0.0516532
-4.01592e-14
-0.0219891
0.0212275
0.0586878
0.131941
0.0386811
-0.0402336
0.0354726
-0.0643851
0.0676685
0.0300961
0.169391
-0.107434
0.00917259
0.218606
-0.0301926
-0.154242
-0.0202764
-0.0323668
-0.0694303
-0.0082873
0.105921
0.0242265
0.0171663
0.0275669
0.168751
0.261468
0.0721514
-0.0261167
-0.0432885
0.0186165
0.00377602
-0.0450316
-0.0682369
-0.019545
0.222911
0.240269
0.0335101
-0.0244846
-0.0300612
-0.00392327
-0.00873703
-0.00999455
-0.113869
0.0278469
0.152751
-0.0100966
0.036655
0.0770636
-0.053743
-0.00793866
0.013772
0.00213084
0.0228349
0.000811422
0.00968801
-0.0256065
0.00899455
-0.00146412
-2.02347e-14
0.0313413
-0.0436927
-0.0460672
0.0120582
-0.0349761
-0.00846962
-0.0606974
0.0296754
-0.0277276
0.0021074
-0.00199397
-0.017392
-0.0663648
0.00604453
0.054928
-0.0281525
0.00720618
-0.00717223
0.00648282
0.00649287
0.141225
0.0234463
-5.17339e-15
0.00930993
0.0611006
-0.0052742
-0.0479628
-0.0179463
0.0859068
-0.000127788
-0.0207298
0.0329027
0.0560161
-0.00390752
0.0181206
0.00733266
1.55682
0.0281853
-0.0240781
0.0932849
-0.0228655
-0.0175873
0.0891838
-0.00169232
0.128985
-0.0168662
0.0387045
-0.00946824
0.0333956
-0.0493856
-0.0215393
0.0819857
-0.00237683
0.0181051
-0.0998439
-0.0370742
0.0127579
-0.00723352
0.0657314
2.54762e-13
-0.0032748
-0.0735774
-0.00827833
0.151923
-0.00743275
-0.0201141
-0.00334034
-0.0251856
-4.85809e-14
0.0187192
-0.0103882
0.136087
0.100073
0.0355923
-0.0760357
-0.0307812
0.00416917
0.062452
0.00191201
-0.0239416
-0.0543394
-0.0141542
-0.0252273
-0.0471495
-0.00198496
-0.0134415
-0.0171962
0.00322367
-0.0220834
-0.0750458
0.00813418
0.0275634
0.0820034
-0.0491848
-0.00205441
-0.458593
0.0285019
0.0280569
-0.0509989
-0.0152703
-0.00049049
-0.0352636
-0.0275052
-0.0360855
-0.00339546
0.16425
-0.0476704
-0.0983418
0.13433
-0.32668
-6.79032e-05
-0.0791142
-0.0907826
-0.0723665
0.122292
-0.370355
0.00740398
0.0598345
-0.0122405
0.12648
-0.0118207
-0.0107288
-0.173612
-0.0201026
-0.0929564
-0.074
-0.0920583
8.66673e-15
-0.0444986
-0.103092
0.0855214
-0.0664878
0.0626286
0.00623961
0.0723717
-0.0951653
-0.00839377
0.0206734
0.172668
-0.0985061
-0.156798
-0.00198268
-0.0879292
-0.00365042
0.00957725
0.0254116
0.00388726
0.123356
-0.0493455
0.0981483
3.33817e-14
0.00635419
0.346556
-0.120593
0.0103429
0.00995539
0.114163
-0.00519596
-0.0646132
-0.0404612
0.0571038
0.0278618
-0.192995
0.109003
-0.0685729
-0.0547603
0.0566818
0.0268706
-0.00601912
0.000367577
-0.0668742
-0.0901355
-0.0242992
-0.0134447
-0.0520186
-0.09618
-0.0235177
0.0553521
-0.0554374
-0.0570468
-0.049785
0.00715215
0.0209386
-0.0258935
0.031603
-0.146762
-0.109771
-1.32011e-12
0.121605
0.00609966
-0.0498552
-0.0583988
-0.0498453
-0.0225445
-0.0706619
-0.0286058
-1.39665e-13
0.102184
0.0309864
0.605009
-0.0344098
-0.0145022
-0.0301845
-0.243728
0.125885
0.00628401
0.0384331
-0.091734
0.135239
-0.198994
0.138684
0.088086
-0.0488708
-0.00309978
-0.0611561
0.10586
0.0190029
-0.0765712
0.00379698
0.174045
0.0715722
-0.0225754
-0.0749708
-0.0895484
0.0378357
-0.0369843
-0.00111712
-0.160766
0.00483058
0.0635095
-0.0161061
-0.110269
-0.115065
0.217265
0.0334657
-0.0114468
0.158258
-0.167761
0.0409166
-0.0535224
-0.137167
-0.101801
-0.0798176
0.022145
-0.0173887
-0.0614549
0.0173011
0.0842562
-0.00506014
-0.0305256
0.0185072
-0.223945
-0.00482847
0.0313249
-0.173849
3.15964e-14
-0.0671003
-0.0308744
-0.0196261
-0.0134943
-0.0329538
0.0867527
-0.0321952
-0.0665138
0.181781
-0.00741611
0.0935253
-0.0554507
-0.104984
0.029744
0.0122658
-0.0107068
-0.00143259
-0.0455494
-0.0847904
-0.0202851
-0.1037
-0.0170224
-5.27313e-14
-0.00724177
0.0870761
-0.0504915
0.207015
-0.0353157
-0.030783
-0.0608276
-0.0357687
-0.0645585
0.0123293
0.0529313
0.0285277
0.080884
0.00583207
-0.0192644
-0.0201878
0.0075607
-0.158444
-0.0213914
0.0752468
-0.239044
-0.0544981
0.0267131
0.00131688
-0.0200837
-0.111999
0.0140698
-0.00781788
0.036104
-0.0748672
0.125235
0.0125849
-0.0537967
-0.0382255
0.0865792
0.197736
-1.49287e-12
0.0838865
0.0680113
-0.172765
0.0871084
-0.0174669
-0.0323802
0.0224355
0.0264734
-4.07145e-13
0.0362172
-0.028592
0.170933
0.0985002
0.0383203
0.00674235
0.0696853
-0.113436
0.0350083
0.14784
0.0415702
0.170712
0.0261769
0.267856
0.0457907
-0.136993
-0.0379146
-0.00360148
0.161793
0.0362777
0.0333605
0.0326458
0.012223
-0.00577446
0.035056
-0.25422
-0.0421434
0.060731
-0.0316432
0.0244077
-0.022667
-0.0675949
0.129209
-0.0292279
0.0067108
-0.181449
-0.209715
-0.0249253
0.0169996
-0.0453555
-0.0124113
0.0224363
0.0718044
-0.0210404
-0.137137
0.21385
-0.113049
0.0107145
-0.0103583
0.0140709
0.0235353
-4.19405e-05
-0.0730752
-0.00939958
-0.022701
0.174137
0.0811694
-0.0122434
-2.12853e-14
0.109643
-0.0364126
-0.0762409
0.00683355
0.180019
0.0192194
-0.00456066
-0.0192156
-0.0414578
0.0257438
0.122967
0.0265702
0.0869089
-0.0642227
0.0396064
-0.0345324
0.0373675
0.052444
-0.0281038
0.0193339
0.0587671
-0.035285
3.92828e-14
0.0140795
0.183697
-0.195255
-0.350044
-0.0457318
-0.0302596
0.0250564
0.0333047
0.0327491
-0.000770127
0.0494637
-0.0016545
-0.00999947
0.00329029
-0.0999656
0.0848321
-0.032689
0.072392
-0.0189785
-0.139854
-0.0177771
0.167089
-0.0312453
-0.116361
-0.161164
-0.0303498
-0.0580578
-0.139002
0.0384576
0.0505257
-0.0198684
0.218047
0.00561112
0.119576
-0.062682
0.0332508
-1.14184e-13
-0.0726561
-0.0470681
0.0942065
-0.0369348
0.0390791
0.0468207
0.0232634
-0.0630744
-3.44497e-14
-0.129601
0.00428594
-0.0545364
-0.0121
0.10195
-0.158472
-0.138689
-0.0758308
-0.00427887
-0.0829547
0.0753687
-0.0477257
-0.0912428
0.0937252
0.038868
0.0611403
0.134001
-0.102666
-0.0446082
0.00441211
0.0413044
0.0107234
-0.0354972
-0.0122665
0.03656
-0.0112987
-0.0159858
0.0550087
0.111255
0.00501528
0.0676421
0.00633275
0.0142193
-0.0470625
0.0857372
0.0223139
0.0329266
0.202712
-0.0352197
0.00245693
0.0109555
-0.00932972
-0.0089347
0.0102007
-0.166837
-0.0205454
0.0767345
0.0498875
-0.013049
0.0118783
0.0279062
-0.0325451
0.044868
-0.034193
0.0424204
0.0177304
0.00667534
0.00288421
7.24549e-15
0.0125265
-0.0433828
-0.0355412
0.021597
-0.0203825
-0.0265166
0.0634353
0.0225772
-0.0915984
-0.0909435
-0.0223014
-0.0391014
-0.0514132
0.0178732
0.0121675
0.00172843
0.279091
0.0577189
0.00329581
0.0182571
0.253413
0.12963
-1.46635e-15
-0.145229
-0.0320282
0.0237559
0.180598
-0.061921
0.00855148
-0.0109997
-0.0366795
-0.0337138
0.154728
-0.0230487
0.0101234
-0.0590682
0.12392
0.0265499
-0.0432869
-0.0379251
0.015767
-0.140944
-0.0487988
0.129185
-0.393511
-0.146227
0.00972675
-0.00636525
-0.165013
-0.0102284
-0.0426082
0.288633
0.0398167
-0.00210668
-0.0276519
-0.0281611
0.0419822
-0.0463095
0.0167952
3.51223e-13
0.0310501
0.0192466
0.0128689
0.138624
-0.0142964
0.00143367
0.00564172
-0.0113942
9.77024e-14
0.038831
-0.01099
0.121685
0.0504562
0.0847187
-0.0556233
-0.0741958
0.0483955
-0.00231469
-0.0196049
-0.0106168
-0.0796893
0.0189411
0.00323198
-0.00907477
0.0258828
0.0792563
0.0267635
-0.0198602
0.00132668
0.2348
0.00634246
0.064859
-0.00161032
-0.0183681
0.0448385
0.186522
-0.0192925
0.0651135
0.0286915
0.0105633
0.0140509
-0.0169075
0.0194462
-0.0161962
0.0387288
-0.091125
-0.0455339
0.0141629
-0.0286165
0.00632446
0.0236952
0.0354475
0.00602149
-0.1462
0.0925006
0.0608628
0.0154939
0.0506481
0.00142954
0.0121848
-0.00398861
-0.043447
-0.028805
0.0183026
0.195607
0.0784904
0.0256164
-1.99499e-14
0.127424
-0.0302992
-0.155555
0.0190537
0.056791
0.0242158
0.00514099
0.016323
0.0951798
0.00625872
0.138404
0.0198144
-0.0241265
-0.0526498
-0.00176023
-0.050543
0.0240083
0.0192662
-0.01146
0.0695641
-0.0450175
0.0529955
-3.01503e-14
0.0366419
0.161442
-0.160419
-0.157576
-0.0390438
0.0717845
0.121751
0.0264704
0.0166026
0.0115721
0.041504
-0.0669297
0.0133868
-0.0354887
-0.0443734
0.0428119
0.0137941
-0.0813512
-0.051137
-0.128362
-0.00876239
0.0280013
0.0357623
-0.112907
-0.114264
-0.0727612
0.00426737
-0.1524
0.0376202
-0.00473324
0.00409294
0.0427823
-0.0366283
0.0384578
-0.125752
-0.00419327
-5.2897e-13
-0.0503581
0.0434557
-0.0936817
0.0597407
0.0123719
0.00420683
0.0509227
-0.10922
-1.94896e-13
-0.0182778
0.00338771
0.0687838
0.060089
0.0193967
-0.14245
0.0658347
-0.212334
0.00522859
-0.0344534
0.0440946
0.0822559
-0.1644
0.186912
0.0260725
-0.0719843
0.0210917
-0.116145
-0.0146204
-0.00171564
0.0438896
0.0179364
0.0385872
0.0266668
0.00128107
0.0389676
-0.0203933
0.0396538
0.169566
0.0172335
0.000704848
0.0051672
-0.0325017
-0.0741891
0.068232
0.0310014
-0.161819
-0.0185232
-0.00171889
-0.0722468
-0.0572599
-0.031465
0.0165537
0.1082
0.0189613
0.0531111
0.0445317
-0.0190667
0.0451552
0.0463605
-0.0569381
0.00809344
-0.00559088
0.0643202
0.0665972
0.213782
0.0545627
0.151761
-1.2838e-14
0.0536279
-0.0254557
-0.087381
0.0885661
0.052346
-0.0385123
-0.0345763
0.165336
0.0497796
-0.0181819
0.0802072
0.0303581
0.112763
-0.0130689
0.0144172
0.0131939
-0.00271156
-0.0121664
-0.00024141
-0.0545442
0.0285955
0.0264236
1.05706e-13
-0.0072173
0.0954521
-0.0688774
-0.129505
-0.0746073
-0.0229473
-0.0134727
0.012856
-0.0112443
0.0196575
0.00363234
0.0567427
-0.0310868
0.0205841
-0.011005
-0.00390821
-0.0279612
0.00704441
0.0272298
-0.0829079
0.0908658
0.0435275
-0.0172702
-0.0341246
-0.0481743
0.027326
-0.0203959
-0.0715943
0.0413799
-0.0421289
0.00891652
0.0385242
-0.0173027
0.0126154
0.0934443
0.0298421
3.96919e-13
-0.0517414
-0.014538
-0.0253215
0.0107531
0.0260236
0.0156983
-0.0213772
-0.0669555
6.34452e-14
-0.0847421
0.0300153
-0.0295471
0.0134998
0.0403946
-0.0723836
0.0764879
-0.144178
0.0162969
-0.0746635
0.0136172
0.0580104
-0.00976273
-0.0278732
-0.0630646
-0.00421372
0.0740055
-0.0266771
-0.0436937
-0.00441708
0.0630608
0.0211806
-0.00784844
-0.042323
-0.0127371
0.066896
0.0498978
-0.0185658
0.017588
-0.021151
-0.000678331
0.0426153
-0.236057
-0.0215028
0.0375947
0.070483
-0.0979737
0.420594
0.0544886
0.0162137
-0.0205968
-0.0490987
-0.160105
-0.0216232
-0.0457143
-0.0550177
-0.00694723
-0.124341
-0.0575727
-0.00356662
0.00144542
0.0021528
-0.00510632
0.0299171
-0.0600163
-0.0709554
-0.0123303
0.00769954
-9.55245e-15
-0.022072
0.0211063
-0.0136254
0.0290677
-0.0861817
0.00529516
-0.00937366
-0.00313813
0.100777
-0.0222799
-0.0155111
0.00762372
-0.025351
0.00953695
-0.0183391
-0.0179682
0.311351
-0.121999
-0.0246068
0.0187852
-0.110528
0.0713686
-4.26616e-14
-0.0383914
0.0979559
-0.0118381
-0.251474
0.068455
-0.0399642
0.0814101
0.0132466
-0.0675316
-0.0288897
0.00130741
0.0140242
-0.0892694
-0.012968
0.0126235
-0.191524
-0.0139108
0.00260387
0.180736
-0.0284572
-0.131085
0.0861032
-0.0502007
0.0137866
0.0257037
-0.0820061
-0.00291379
0.0016939
-0.232126
-0.0120443
0.0171641
0.302636
0.0184713
-0.125259
0.0167986
0.0496101
-3.41003e-13
0.0185126
0.0526872
0.017963
-0.136978
0.018267
0.0359657
0.0357428
0.0128426
-8.36483e-14
0.0169895
-0.00213213
-0.0351296
-0.0670963
-0.146893
0.00987143
0.0148937
-0.0633348
-0.034848
0.0391707
0.0252076
0.0173342
0.00435653
-0.00690464
0.0717525
0.0033326
-0.125566
-0.0225154
0.0308163
0.0149613
-0.248457
0.0378002
-0.00296515
-0.0110769
-0.010946
-0.0796024
-0.043067
-0.0812047
-0.0431561
-0.0300522
-0.00909047
-0.0120644
0.00863857
0.00248676
0.0482093
-0.0669762
0.0410704
0.0422212
0.0644305
-0.0136785
0.0268097
0.0165695
-0.0235323
-0.0462729
-0.0315513
0.0899599
0.0210023
-0.024706
-0.0585758
0.0122454
0.0426668
0.0335545
-0.0362822
0.0274624
0.0798451
0.141223
-0.0227411
0.439457
3.42971e-14
-0.00707018
-0.0378157
0.117842
0.191505
-0.194918
-0.0280607
-0.0463662
0.0165799
0.0959017
-0.0049697
0.044755
0.0271805
-0.00181972
-0.139171
0.00261624
-0.0844933
-0.0093135
-0.0460017
0.0536064
-0.0650078
-0.0333991
-0.0551589
3.57587e-14
-0.0145156
-0.13609
-0.0361841
0.0574823
0.0278566
0.0127141
-0.0793628
-0.0338587
-0.0906286
-0.0410774
-0.0265037
0.0109759
-0.0467228
-0.0524231
-0.00863487
0.0220591
-0.0193459
0.0728235
-0.0344597
0.00290604
0.341111
0.089521
0.0148348
-0.00180356
-0.0318626
-0.0278205
-0.0161268
-0.00541618
-0.0249043
-0.0344513
-0.0288809
-0.00678952
-0.200063
0.00352738
0.0883591
-0.16929
-4.54585e-14
0.00240084
0.0130617
0.178278
-0.0437413
0.0252211
0.0808629
-0.119074
0.0204659
-4.28055e-14
-0.0396271
0.120504
0.0977717
-0.0195825
0.0138868
-0.107427
0.00908685
0.0180135
-0.0893064
-0.0572743
-0.00397938
-0.313033
0.0419301
0.0353743
-0.0287475
0.0563752
-0.0102309
-0.0360558
-0.106552
-0.0973279
-0.117925
-0.00439268
-0.000378764
-0.00106257
-0.0964803
0.0748706
0.00187508
0.0059174
0.0463821
0.0164906
0.103832
0.0054569
0.0895215
-0.0151384
-0.00748365
0.468907
0.117387
-0.152765
-0.0558851
0.0377785
0.0673847
0.0279039
-0.0278736
-0.0153591
0.081981
-0.157772
-0.0015548
0.00964045
0.0473263
0.0117776
0.118454
-0.0495372
-0.0475449
-0.0684811
-0.0485484
-0.132338
-0.0473784
-0.0612643
1.64608e-14
-0.0184988
-0.00801383
-0.00959936
-0.00717962
-0.136791
0.0305956
0.022642
-0.0312459
0.0780544
0.0301581
-0.0390901
0.00350937
-0.101533
0.0268928
-0.0368507
0.0260448
-0.00453004
-0.0475691
-0.0181354
0.0457301
0.0163029
0.0790662
-2.99318e-14
-0.0142669
0.0533856
0.0381582
0.37937
0.0248615
-0.01517
-0.0155055
0.0400749
-0.00191667
-0.0236457
0.0476101
0.0237148
0.153636
0.0454653
-0.0329629
-0.100704
0.0756037
0.0304209
-0.0395058
0.151989
-0.104858
-0.257217
0.014563
0.0413449
-0.0137473
0.0134068
0.0070936
0.0394029
0.0427897
0.0395117
0.0332475
-0.221956
-0.0298262
-0.0605344
-0.0381326
0.130357
7.79584e-13
0.108624
0.022169
0.0326312
0.0658062
-0.00252139
0.000640477
0.00416818
0.056401
-9.75385e-14
0.0784906
-0.0207866
0.112627
0.025707
-0.011701
0.0801711
-0.0585149
0.0751915
-0.0596366
0.015827
0.00687984
0.120796
0.152684
0.0980825
0.0805488
0.0341862
-0.0285274
0.0335691
0.0317458
0.0340297
-0.0418155
0.0289695
0.0680498
0.0306058
0.0356908
-0.0624261
-0.036651
0.0175314
-0.103159
0.0566909
0.0528624
-0.00375152
0.0903893
0.0637703
0.0239606
-0.185416
0.0769528
-0.0316904
0.194237
-0.0112569
-0.35097
-0.0209063
0.0309911
0.0425139
-0.103059
-0.131822
0.0486223
0.00272619
-0.0753812
0.0411471
0.0660118
-0.129248
0.00875734
-0.0170996
-0.0624345
-0.0893987
-0.0894101
-0.0858708
-6.72695e-16
0.0550178
0.135975
0.0639305
-0.0278803
-0.0134691
0.186176
-0.0533922
0.0389834
0.095547
-0.00582447
-0.0403835
-0.0649339
-0.00762246
-0.0474729
0.014452
0.193392
0.00128783
0.00543264
-0.119016
-0.0316442
-0.0539358
-0.0539178
-3.92033e-14
-0.0181873
0.215624
-0.0860434
0.0458004
-0.100278
-0.0409106
0.0887449
-0.00213011
-0.0959209
-0.0193827
0.0603526
0.0603103
0.0964631
-0.0316643
0.0280365
0.0446632
-0.0277895
-0.0995946
0.0295672
-0.000218837
-0.072049
-0.0694876
0.0245826
-0.184813
-0.0897655
-0.115686
0.0219345
0.0907952
0.0703119
-0.0642674
-0.191554
-0.0291762
0.100123
-0.0601604
-0.0661725
0.0834132
6.8884e-13
0.0108993
-0.0216825
-0.115986
0.143791
0.0301748
0.0061179
0.0499355
0.029394
3.36132e-14
0.00436955
0.0184949
0.280041
0.102832
-0.00560475
0.237732
0.161185
-0.163816
-0.00926598
-0.0881231
0.0127018
-0.00134717
0.0453375
-0.0591489
0.0256547
-0.1215
-0.16479
-0.0986797
0.0176168
-0.352728
-0.108968
0.00688943
0.0978789
-0.0108907
0.159681
-0.0654119
0.0317791
0.0994032
-0.00762309
-0.00798485
0.321123
-0.0329113
-0.047838
0.0512017
0.0379847
-0.106449
-0.121146
-0.0113868
0.0709826
0.0222402
0.383996
-0.00154719
0.00205232
-0.168097
-0.0442671
-0.0513379
-0.226855
0.00914101
0.0127314
-0.0368181
-0.11256
-0.147991
0.0186582
-0.0930661
-0.115802
-0.245125
-0.0264525
-0.066965
2.29003e-14
0.0105792
-0.132483
-0.0312368
-0.168056
0.0872518
0.0640901
0.111921
-0.111402
-0.105854
0.0161061
-0.0282917
-0.122445
-0.026724
-0.0904498
-0.00994134
0.012698
0.00348932
0.108065
-0.00492254
0.0908945
0.00869466
-0.0198784
-2.99123e-15
0.00688461
-0.0351723
-0.0452538
0.0271414
0.00994324
-0.0297714
0.142558
-0.132687
0.0535653
0.0374828
-0.0907095
-0.0336587
-0.0255247
-0.0114114
0.0301068
-0.0371224
0.0310816
-0.0563588
-0.0479681
-0.00689322
-0.103889
0.0221104
0.00686231
0.0087779
-0.033338
-0.0878676
-0.0188788
-0.00829806
-0.00610022
0.329073
-0.154119
0.0277217
0.0221598
-0.105519
-0.405463
0.0656288
-5.18697e-13
-0.0415563
0.0353417
-0.0856803
0.0377192
-0.123295
-0.127317
0.0904163
-0.0607762
7.67505e-14
0.0815215
-0.0552752
0.20445
0.0500335
0.0141622
-0.100531
0.111288
-0.0774943
0.0404349
0.068071
-0.0440232
0.0254926
0.0245066
0.0969806
0.0503522
-0.120141
-0.121626
-0.087836
0.100654
-0.00241364
0.206692
-0.0439209
-0.0228228
0.0454274
0.122734
-0.157091
-0.0135638
0.0467211
0.0407781
0.00828101
-0.149209
-0.106649
0.116432
-0.00422894
-0.155337
-0.257603
0.00275911
-0.00889952
-0.0191683
0.124045
0.129296
-0.0871563
-0.101073
-0.229748
0.0350665
0.0312779
-0.0781651
0.0615855
0.0405605
-0.0537362
0.0650827
-0.164217
-0.152726
0.00677172
-0.091741
0.0343762
-0.0297204
-0.253061
-1.79977e-14
0.0195937
-0.0681213
-0.0398863
-0.0111066
0.0763303
0.113927
-0.00966553
-0.167529
0.237607
0.00381916
-0.0409207
0.279
0.130956
0.164215
0.0315988
0.0539402
0.0234664
-0.0383606
-0.18177
0.0235288
0.0248837
-0.00216357
-5.38156e-15
-0.00171817
-0.121258
-0.193282
-0.0456185
-0.0852715
0.0187309
-0.0861607
0.325816
0.230096
-0.068203
0.163678
0.0100798
0.0175128
-0.0828877
-0.0954335
0.0532572
-0.0052204
0.309581
0.00427515
-0.0395297
-0.146138
-0.0420102
0.0223156
-0.198049
-0.0630752
0.0478601
0.0790675
-0.226452
-0.0219081
-0.0700344
-0.159209
0.0552754
-0.197667
-0.101321
0.0715307
0.0899754
6.00292e-13
0.0618699
-0.00342383
0.206548
0.0106492
0.280454
0.2661
-0.0574869
-0.126533
6.41976e-14
0.0188701
0.0808124
-0.13071
0.0480267
0.0371423
-0.0944495
0.016115
0.0205995
-0.0691602
-0.0106823
0.138567
0.0326765
0.113879
-0.0295241
-0.0771961
0.239293
-0.187639
-0.186986
0.153787
-0.0115041
0.124136
-0.0695499
0.0185709
-0.0177012
-0.0253483
-0.0966363
-0.00525165
-0.0051128
-0.109739
0.0243465
0.0202044
0.0365807
0.204266
-0.140568
0.209052
-0.212769
0.0232588
-0.00490447
0.244567
0.262442
-0.0940139
-0.0427903
-0.0189919
-0.0408732
-0.106151
0.0144206
0.0388166
0.0112529
-0.00653515
-0.0481245
-0.141037
-0.00408997
0.0248738
-0.0144322
0.246145
0.135312
0.0302291
-0.0260823
2.11184e-14
-0.0689179
-0.105891
-0.116568
0.143384
-0.0475407
-0.120972
0.0608098
-0.0610179
0.0538818
-0.0102598
0.141888
0.159168
0.00501949
0.0794458
0.0613144
0.0318268
-0.00771005
-0.141862
0.0641738
0.0496836
-0.0382211
-0.00133715
4.04694e-14
0.0501985
0.196092
-0.034214
-0.0824466
0.103003
-0.00912175
-0.168385
0.15884
-0.0234221
0.0171386
-0.00840319
-0.0215502
-0.0182041
-0.0335189
0.0318469
0.117028
-0.014087
-0.117395
0.04794
-0.104722
0.0402546
0.0244581
-0.002588
-0.0568342
-0.0152923
-0.128528
0.0704724
-0.0904777
0.0435461
0.0206047
-0.19309
0.0435483
-0.168175
-0.0314086
0.15503
0.000417036
-2.11586e-13
0.0841686
-0.00148748
-0.171476
0.102634
-0.0831388
0.0360963
0.293772
-0.0824013
1.06702e-13
-0.0869619
0.0204999
0.308221
0.0961581
0.0804226
-0.137182
0.122748
-0.0561357
0.262522
0.214456
0.00682823
-0.0636679
-0.125058
-0.117808
-0.0249593
-0.127003
0.0329554
-0.054362
0.202832
-0.0868231
0.0160919
0.0176875
-0.0145769
0.0119468
0.138887
0.195543
0.0361251
0.0575176
-0.0779931
-0.0149444
-0.181951
0.0746691
0.108544
-0.0467025
0.178032
0.0931926
0.011576
-0.052071
0.0242129
0.0376151
-0.334224
0.164023
0.0576776
0.0202496
-0.132978
-0.072547
0.106792
0.0206492
-0.0200641
0.0320384
0.0808979
0.116752
0.0366768
-0.0465237
-0.0410755
-0.114125
0.065161
-0.0800814
3.58219e-14
-0.00372742
-0.147564
0.0089452
-0.0330808
0.000818386
0.132737
0.0304753
0.0272459
0.123868
0.0288137
0.00732841
-0.0304629
-0.0118935
-0.0750085
-0.105441
-0.252675
0.00402899
0.00894622
-0.111532
-0.0258428
-0.0311969
-0.00444621
-6.31927e-14
0.0266018
0.224229
-0.150315
0.0321498
0.000939276
-0.0512915
-0.0398419
-0.04634
-0.00706411
-0.0451968
-0.0628901
0.0270272
-0.0339252
-0.0196235
0.0266743
-0.0670856
0.00273232
-0.18422
0.0102112
0.0145491
-0.087707
-0.0575421
0.0177999
0.104736
-0.0660694
-0.1793
0.0291521
-0.145031
0.0949314
-0.0268345
-0.349147
0.0161053
-0.148486
-0.167689
-0.0968823
0.00722385
1.70869e-13
0.0754351
0.0614973
-0.130469
0.160171
-0.0211136
0.00232215
0.155593
0.0793818
1.25512e-14
-0.0195076
0.0494715
0.268597
0.13118
-0.00475081
-0.288171
0.191238
-0.0734475
-0.110543
-0.0318944
0.145021
0.0160319
0.0919203
-0.0673805
0.0094369
-0.114851
-0.160357
0.0470877
-0.0286416
0.333805
-0.0618602
0.00718913
0.0928135
-0.00910902
-0.0609722
-0.127332
-0.0413194
0.158588
-0.00393568
0.0279987
0.18764
-0.00518831
0.0382714
0.020483
0.0377482
-0.122537
0.0467931
-0.0235676
0.0676803
-0.183104
0.040657
-0.0653165
-0.0562585
0.358361
0.0241082
-0.0759531
-0.011273
0.00747552
-0.00416583
0.0211662
-0.0283195
0.00724127
0.0369326
-0.0424166
0.332586
0.109522
-0.0163617
0.0606082
4.19116e-15
-0.0091532
-0.0708599
0.0483728
0.0450691
-0.0302729
-0.0216071
-0.00559021
0.416473
-0.09298
-0.015245
-0.0370212
-0.0294465
0.159683
-0.0221062
-0.0197243
-0.0253003
0.00389083
0.0315303
-0.0208759
-0.0494067
-0.0198569
-0.0655517
-1.68066e-14
0.00626136
0.130929
-0.0666558
0.0700881
0.0289469
0.0420823
-0.0302291
-0.0833162
-0.00909931
0.123997
-0.0399615
0.00312506
-0.0309712
-0.0372258
0.0239301
-0.0422757
-0.0101937
-0.0532735
-0.0274878
-0.0211588
0.0755234
-0.0266723
0.0120551
-0.0651213
-0.036642
0.0192293
0.00342525
-0.0520529
-0.00715842
-0.00214015
0.0931717
-0.0483305
-0.0277335
0.0439433
0.212014
-0.249179
2.05869e-13
-0.0410216
-0.00185643
-0.0536823
0.0158954
-0.0185753
-0.0524697
-0.0819057
0.0270663
4.58006e-14
0.0201998
-0.045819
0.302225
0.00292077
0.0310368
-0.0320239
0.0172127
-0.0199041
0.0151046
-0.103151
-0.0405379
-0.144117
-0.0684741
0.013202
-0.0370776
-0.0691259
0.0437912
-0.0892729
-0.132739
-0.0323423
0.0799105
-0.0306759
0.0339184
0.0387574
-0.044566
0.31079
-0.0142988
0.00601265
-0.106211
0.00518881
-0.233895
-0.0498428
-0.424936
0.0543678
-0.0957528
0.0981547
-0.10226
0.00661479
-0.160925
-0.145099
-0.0749974
-0.0302002
0.0569486
0.0762004
0.268913
0.0181691
0.0216616
0.0258632
0.0342504
-0.0343755
-0.105242
-0.00689744
-0.00255476
0.00287189
0.136959
-0.186128
-0.156778
0.0738388
1.56062e-14
-0.122724
0.0183851
0.108804
-0.00997782
-0.0194668
0.021313
0.0303074
0.0774899
0.0302574
0.00742864
-0.116975
-0.152378
-0.00252118
0.00735576
0.0316689
0.00412922
-0.00636253
0.0464398
-0.00104369
0.0111216
0.154524
0.0453937
1.00266e-15
-0.0414874
-0.111958
0.119131
0.0557437
0.042627
-0.0565312
-0.00197186
-0.178732
0.0665082
-0.0676109
-0.129593
-0.0506929
0.016428
0.010504
0.0159694
-0.01967
0.018172
0.168671
0.135345
0.0689905
0.108906
0.00257809
-0.00182097
0.0861457
0.154293
0.258844
-0.0231801
0.109477
-0.0890325
0.0554563
0.107292
-0.0140179
0.0405876
0.0228979
-0.0695828
-0.0473299
-6.72263e-14
0.0978973
-0.0166405
0.178454
-0.172807
-0.00936091
-0.03068
-0.0576959
0.0758632
-7.87551e-14
0.0580191
0.029601
-0.115723
-0.123178
-0.0413912
0.0403035
-0.0261752
0.0135392
-0.0854484
-0.0702643
-0.261685
0.00580929
-0.0266416
0.0355062
0.0343429
0.142049
0.0751387
0.0864696
-0.131345
-0.0210247
0.0499239
-0.0529107
-0.00508451
0.00351681
-0.176417
0.128383
-0.000825974
-0.0896864
-0.033665
-0.00857789
-0.168706
0.0056969
-0.0705211
0.107855
-0.338668
0.0495062
0.0163046
-0.123077
-0.181909
-0.103527
0.157516
0.0968175
-0.0325888
0.0522036
0.0018645
-0.00702682
0.248176
-0.0214015
-0.00876449
-0.000713521
0.00872805
-0.0796705
0.0389745
0.0554178
0.0162972
-0.0168588
0.0748696
0.0685746
1.78086e-14
0.0892844
0.00552681
0.0702257
-0.0152812
-0.147971
0.0290257
-0.0189868
0.0602989
0.0341333
-0.0368449
-0.0767963
-0.00388342
0.0597238
-0.0210095
0.115526
-0.00651086
0.00159778
-0.0601038
-0.00866358
-0.104646
0.0363985
-0.0353303
2.60138e-14
0.0613216
-0.181789
0.032075
-0.0474757
0.0733505
-0.0504472
0.0938915
0.0056033
0.00620273
0.0519916
0.0105866
-0.0198868
-0.181009
-0.0471075
0.0398959
-0.246403
-0.00889862
-0.0139043
-0.143682
0.0624459
-0.0521201
-0.13666
-0.0465608
0.0834138
-0.0248238
0.0064769
-0.109545
-0.180874
0.0146534
0.0468508
-0.03828
-0.0748059
0.0876923
-0.0512107
-0.0367234
-0.0459473
-1.45467e-12
-0.180595
-0.0890748
0.0424725
0.0828229
-0.0201022
-0.0370779
0.0554006
0.149717
5.40173e-15
-0.189295
-0.0590863
-0.0651346
-0.012797
0.14947
-0.291486
0.0623664
0.0352337
0.0107552
0.00580019
-0.00618434
-0.241255
0.110069
0.0517155
-0.156636
0.127961
0.0109889
0.126562
-0.0625413
0.081308
0.52538
-0.0764762
-0.149416
0.00718872
-0.0680735
0.0880402
-0.00980644
0.0946255
0.0516051
-0.0177811
-0.0135183
0.00320515
-0.0274679
-0.170218
0.0252303
-0.275111
0.0949497
0.0374693
-0.092601
-0.177309
-0.226056
-0.0614203
-0.0137039
-0.0197062
0.0606215
0.0650227
0.0681504
-0.00641556
0.0191586
-0.00765009
-0.063595
-0.104561
0.0157103
-0.057499
-0.109179
0.196734
0.0148239
0.150702
-1.78793e-14
-0.0490497
-0.0368621
-0.0550745
-0.0959218
0.0902474
-0.0435915
0.0894227
-0.0103018
0.113401
-0.0123849
0.136427
-0.0427257
0.114076
0.0234334
-0.0473068
0.211429
0.0103542
0.102633
-0.0354997
-0.0228901
0.0195351
0.0274903
-1.56807e-15
-0.0111353
0.204325
-0.0553919
-0.174615
0.0111741
-0.0594748
0.00607028
-0.0982256
-0.0828029
0.118442
0.0599003
-0.0449877
0.00123721
-0.0363477
0.0216908
-0.0515556
-0.00309835
0.00627669
0.118413
-0.108532
0.0487214
0.126105
-0.0285266
-0.208583
-0.0514114
0.0714816
0.070993
-0.0354346
-0.0147088
-0.0563842
0.26981
0.148616
0.0942254
-5.9162e-05
0.343691
0.030168
-1.06588e-12
-0.107463
-0.0641949
-0.00990224
-0.137256
0.0503136
-0.0249024
0.156281
0.0327358
-4.30525e-14
-0.00299151
0.0210795
0.120379
-0.0766998
0.064283
0.111522
-0.143526
-0.000295611
0.245802
-0.222175
-0.138844
-0.081153
-0.00380922
0.00856353
-0.0691615
-0.00672779
0.1953
-0.0395661
-0.165724
-0.0795647
0.180911
-0.0368686
0.0204049
-0.017243
-0.0551179
-0.0651248
-0.0241073
-0.125779
0.0551801
-0.0377167
-0.203822
-0.0152782
-0.0244846
-0.0997707
-0.155231
-0.176744
0.123152
0.0211924
0.0513691
0.0101523
-0.199058
0.004053
0.0321567
-0.0153487
-0.0286417
-0.0173408
0.0377038
0.0320358
-0.0141003
-0.00500036
0.018091
-0.0309802
0.0456979
0.0508141
-0.000534601
-0.0479095
0.0406505
0.00380388
2.5917e-14
-0.0553479
0.0184206
0.11045
0.0204128
-0.0995881
0.0412843
0.010035
-0.0125864
0.110024
-0.00498186
-0.0436144
-0.0158124
0.0528445
-0.0107255
1.63603e-05
0.0158756
0.00339705
-0.0353474
-0.0666697
0.084746
-0.0104614
0.153898
-1.33186e-14
-0.0208688
0.0621689
0.053995
0.0753623
0.0169221
-0.0894041
-0.0736161
0.00933512
-0.0504015
0.0291
0.0335202
0.12687
-0.0677041
0.0529096
0.0714086
-0.0204769
0.0122161
-0.0337542
-0.0216401
0.0655342
-0.0125908
-0.0260962
0.0443349
0.0839454
0.10477
-0.0423714
0.00537064
0.0739892
0.00983495
-0.00689826
0.0407391
0.0312708
0.0256863
-0.0622818
0.129467
0.0149986
8.20364e-13
-0.016014
0.106171
-0.0287257
0.0157224
-0.00122451
0.000601066
0.0375648
0.102034
8.91055e-14
0.0273127
0.00191877
-0.072165
0.0409375
-0.00773043
0.135068
0.100475
-0.128552
-0.0384004
-0.0222523
0.0505324
0.0365158
0.161806
0.117786
0.0246104
-0.00379889
-0.0861994
0.0637466
-0.00320681
0.0339834
-0.0198663
0.0148824
-0.0557122
-0.0633687
0.0344964
-0.0092115
0.0555202
0.0290919
-0.00621052
0.0205712
0.0683676
0.000335518
0.019102
0.0481597
0.0385913
-0.0647981
0.0371252
-0.0474937
0.200238
-0.0084352
0.320365
-0.0313818
-0.0730764
0.107205
0.00781902
-0.281478
0.242617
-0.0215091
0.00868224
-0.00115829
-0.0524047
0.239936
0.0548303
0.0771031
0.0872659
-0.0553692
-0.0913894
-0.190781
1.62305e-14
0.123336
-0.0308794
-0.08326
0.0992115
-0.118515
0.102338
-0.00188026
0.147232
0.0144135
-0.0367082
0.0440079
0.0328125
0.0551775
0.0108552
-0.0116939
0.0111296
-0.00488604
-0.0610587
0.0358888
-0.102029
0.0798381
-0.103969
-2.06846e-14
0.0377801
-0.286106
0.151667
0.0514426
-0.0193054
0.0321325
-0.0734704
-0.0036618
0.120011
0.0101439
0.0719436
0.0177552
-0.0249049
-0.0634032
0.0900983
-0.0818671
-0.0213119
0.151181
-0.115187
-0.0476045
-0.00838716
-0.0983887
-0.00886532
-0.0744369
0.0936035
-0.0599485
-0.0535975
0.0356048
0.0299786
0.0394675
0.0229614
-0.0304613
-0.173847
0.0925875
-0.125143
0.126069
-1.77519e-13
-0.0703657
-0.0618395
0.219328
0.0463402
-0.024332
0.0305115
0.0831586
-0.11335
3.36132e-14
-0.0296216
-0.0477143
-0.0257994
0.0207187
-0.0637321
0.0951968
0.015008
-0.0598936
-0.0534706
0.00696156
0.0825921
-0.171778
0.142062
-0.0228617
0.0820953
0.0531294
0.067005
-0.0343396
0.00300926
-0.16876
-0.244692
0.0722034
-0.0948484
-0.00630455
0.1521
0.0553239
0.080528
0.0608572
0.00134312
-0.0164244
-0.0345802
0.00238127
-0.119108
-0.0299573
0.051765
0.0314454
0.0663486
-0.00201862
-0.0248557
-0.0802178
-0.00257895
0.0202812
0.0691558
0.0562866
0.0428918
-0.020015
-0.235424
0.0228503
-0.057702
-0.0389139
0.0313883
-0.0151737
-0.0230919
0.123577
0.0419505
0.148767
0.11701
0.0751664
-1.27612e-14
0.0824817
0.0105068
-0.090841
0.033248
-0.0365324
-0.00158835
-0.0616536
0.0754445
0.415761
0.0316069
0.0197796
-0.0317931
-0.0364395
0.0414472
0.0336345
0.000273096
-0.00513004
0.0293546
0.0031735
0.111255
0.0973388
0.0673373
8.6182e-15
0.0162193
0.102951
0.00371468
0.109549
-0.0281049
-0.13912
-0.05959
-0.0543107
-0.00223675
-0.0560975
-0.00128851
0.0302997
-0.0953453
-0.088347
-0.0359416
-0.0404495
0.0506201
0.0341361
0.0293027
0.0459113
0.099008
0.0480158
0.0203923
0.113003
-0.0369848
0.0289946
-0.016344
0.116744
0.0420632
-0.00986798
-0.068089
0.011827
0.00317974
0.0893137
-0.0444781
0.668712
-5.74133e-13
-0.024928
0.0411
0.0526358
0.0921124
-0.038031
-0.0385566
0.0396194
0.0507882
-9.08389e-14
0.0856347
-0.0548087
-0.642616
0.0315682
0.120564
0.0806752
0.216399
-0.121776
-0.114639
0.0174495
0.120422
0.0627543
0.112889
-0.0427945
0.00204857
0.0455822
0.0965949
0.107545
-0.0144345
-0.017792
0.0720699
-0.0182803
0.187231
-0.0452485
0.0723312
0.118312
-0.0371558
-0.0538014
0.0489279
-0.00341743
0.0366206
-0.0728735
-0.0413087
0.00356906
0.110185
0.129171
-0.0866544
0.0634709
-0.0492328
0.0301475
0.105537
0.0397487
0.0357716
0.031481
-0.0279789
-0.125397
0.0583438
0.0254494
0.0030378
-0.0266188
-0.071047
-0.00896544
-0.0349428
0.0944636
0.0229632
-0.423494
0.0159685
0.0573523
-3.20546e-16
0.0961964
-0.0126584
-0.135348
0.00192737
-0.022795
-0.0527723
-0.00844301
0.0612093
-0.0675746
0.0777443
-0.336842
-0.0519389
0.147065
-0.120942
-0.0280623
0.0114141
0.0193847
0.0854801
0.0299177
-0.160425
-0.0368968
-0.10463
7.15174e-14
-0.0199078
-0.0341165
0.00858884
0.0417757
0.108877
0.00530742
-0.0309143
-0.0885129
-0.00113576
-0.0177169
0.00553866
0.176888
-0.117743
-0.0918682
-0.0245357
-0.0895001
-0.0102932
0.0565884
0.0548078
0.0531782
0.0123928
0.0537502
0.0408177
0.0930867
-0.000188076
0.0364338
-0.0538539
0.0835563
-0.0164273
-0.00634273
-0.00617645
0.0855397
0.0228134
0.231088
-0.0569932
-0.118524
-3.65157e-14
0.000789822
0.0980666
-0.0527368
-0.0487305
-0.0495416
-0.0335956
0.051492
-0.0165016
-7.19374e-14
0.28061
-0.078867
-0.206037
0.0318391
-0.0712295
0.0515346
0.0186205
-0.115567
-0.0881079
-0.0051054
0.0643501
-0.192483
0.321348
-0.0834097
0.284025
-0.016825
0.185043
0.0779711
0.0679122
-0.0329094
-0.0182366
-0.0392939
-0.0864752
0.0519872
0.0352021
0.00759789
0.037771
0.176568
0.172654
0.0540273
-0.168423
-0.0636014
-0.028216
0.120439
0.00494765
0.0496543
-0.0151116
-0.0309159
0.0330438
0.156044
-0.0857451
-0.0163312
0.00601743
0.00543743
-0.114165
0.0213958
0.0308581
-0.0104674
-0.0103206
0.0192776
-0.0236989
-0.000488517
-0.0265785
0.0498873
0.0547945
0.0742008
0.0238105
0.0302439
-7.89909e-15
0.0267458
-0.020216
-0.0318019
0.0319251
-0.00872502
-0.064129
-0.0227796
0.0105325
0.0231747
-0.0290814
0.0380391
0.0719139
0.113896
-0.0016033
-0.0211633
0.0177643
0.00458225
-0.0086531
0.0574928
-0.069635
-0.0153989
0.00470448
-3.80412e-14
0.0196141
0.321968
0.00040007
-0.051799
-0.0669203
-0.0341084
-0.0579576
0.0539751
0.00607193
0.0177355
-0.0149961
0.100194
0.00154919
0.0350776
-0.0487722
-0.0327222
-0.0399358
-0.0468354
-0.0484062
-0.0619459
-0.00804248
0.0920844
0.0150893
-0.00744143
-0.0602383
-0.102879
-0.0107293
-0.020974
0.0308163
-0.00945362
0.0103577
0.0573007
0.0106687
0.0172303
0.150659
-0.113614
-6.36821e-13
-0.0263469
0.0824362
-0.0941919
0.03821
0.00377594
0.013143
0.010274
-0.013148
-1.65771e-14
0.0183756
0.0576668
0.029457
0.0438418
0.0353963
-0.0135481
0.180019
-0.0866383
0.00533904
0.168513
0.0271629
-0.0713127
-0.0960079
0.076291
-0.019968
-0.0425223
-0.00956343
-0.0157972
0.141363
0.018423
-0.0192613
-0.0154717
-0.00888581
-0.0446011
0.0443894
0.034071
0.112243
0.00606914
-0.0155025
0.0128745
0.12116
0.0416611
-0.0718134
-0.04892
0.0557969
0.0152096
0.0148028
-0.0219599
0.0031719
0.308188
-0.135355
0.0559221
-0.0608591
-0.087543
-0.137079
0.0269712
0.015379
-0.0279215
0.0168709
-0.0259174
-0.0157453
0.0228769
0.0356099
-0.0773723
0.201949
0.146768
0.130509
0.0967563
-2.1564e-14
-0.0496601
-0.0204842
-0.0865666
-0.0563886
0.112321
-0.0975988
-0.135763
-0.0519273
0.12258
-0.0220573
0.124227
0.0824147
0.0866345
0.0387856
-0.0250635
0.00777474
0.00640611
0.181323
0.0806152
0.0368208
-0.0307612
0.0450374
4.23924e-14
0.0116335
0.194946
-0.017164
-0.175268
-0.186135
-0.0104771
0.17276
0.12913
-0.00563162
0.0866072
-0.0942545
-0.0190824
-0.0127589
-0.0141792
0.00323576
-0.106948
-0.02271
-0.159589
0.00854381
-0.101757
0.0740214
0.0429068
-0.00983266
-0.145417
-0.029698
-0.133253
0.0157816
-0.0655175
0.0400909
-0.0365422
-0.203044
0.0689431
0.186813
0.0835081
0.193933
0.0582339
2.87691e-13
-0.109687
0.00575774
-0.173137
0.102166
-0.0465399
0.0100903
-0.209563
-0.080296
7.1898e-14
0.0446528
0.0587012
0.288959
0.112408
-0.000582869
0.0485473
0.198671
-0.16113
-0.192628
0.241396
0.0650514
-0.0266452
-0.0496882
-0.0627411
-0.0594767
-0.0774144
-0.127085
-0.0234132
0.181648
0.130993
0.0362714
0.0134
-0.00539224
0.00769145
-0.027074
0.206373
-0.0208969
0.110108
-0.1258
0.018401
-0.243656
0.00395111
0.0802711
-0.123837
0.166476
-0.147919
-7.71412e-13
-6.31928e-14
-3.78925e-13
3.6342e-13
2.0539e-12
-2.90818e-13
-5.59305e-13
4.65157e-13
-5.74547e-13
-1.36048e-13
1.83866e-12
-5.94661e-13
-4.77542e-13
5.52656e-13
-8.14229e-14
2.30908e-13
1.22229e-13
7.23932e-13
5.85798e-13
2.66142e-13
-5.54715e-13
-2.68138e-13
8.37451e-15
1.2216e-13
4.20162e-13
-7.32809e-13
-5.23187e-15
-1.19396e-12
3.1824e-13
1.3767e-13
-2.37605e-13
-8.59736e-15
4.81221e-14
1.09145e-12
5.38735e-13
1.67271e-13
5.05542e-13
2.75602e-13
4.60116e-13
4.89887e-13
-7.32027e-13
2.08946e-13
-1.9244e-12
-2.07336e-13
2.5346e-14
2.37605e-13
-7.68391e-13
-5.06342e-14
-3.7877e-13
8.62785e-14
-3.43777e-13
-9.37133e-14
4.23042e-13
5.50793e-13
-3.3602e-13
6.22915e-13
-1.36875e-12
6.81772e-13
-7.09019e-13
-3.13235e-13
-4.79993e-13
3.36008e-13
-6.8884e-13
-8.6105e-14
-1.56754e-13
-7.45489e-13
6.58785e-13
-3.89792e-13
-7.8798e-14
-1.00249e-13
-5.76542e-13
-2.51629e-13
-1.98828e-13
5.11238e-13
-2.79045e-13
1.03522e-14
-5.3149e-13
-2.37605e-13
4.14661e-13
1.32671e-13
6.02299e-14
-2.58643e-14
1.03668e-13
-4.79212e-13
5.84869e-13
3.4442e-13
7.81324e-14
4.83615e-13
5.48406e-13
-3.94315e-13
-2.8622e-13
-9.77492e-14
3.11449e-13
-9.58017e-13
3.64831e-13
-4.87242e-13
1.54735e-14
9.59706e-13
-6.61384e-13
1.00853e-13
-2.03804e-13
4.33702e-15
3.8322e-13
-5.50557e-13
3.69131e-13
3.60417e-13
-7.26939e-13
-6.3501e-13
-1.95789e-13
6.41493e-14
-7.49775e-15
-9.25705e-13
1.58565e-13
3.4442e-13
9.5319e-13
-1.04568e-12
-3.16692e-13
-4.22071e-13
-1.70509e-13
-3.75427e-13
-2.28802e-13
1.83463e-13
-6.72263e-14
-6.54934e-13
-1.86937e-13
1.37768e-12
-5.25293e-13
5.44468e-13
0.0921282
-0.0705095
0.0497315
-0.0136969
0.00104027
0.0297165
-0.0104611
-0.0145783
-0.0207228
0.0105878
0.0465484
-0.0917588
0.0377982
-0.0100178
0.0215435
0.0309388
-0.012803
0.0602193
0.00228903
0.0703989
-0.0387337
-0.0190294
7.71242e-15
0.019506
0.0737809
0.00204238
-0.0367802
0.0451064
-0.0429068
-0.0408042
0.0142221
-0.115107
0.0181829
-0.00424749
0.0206042
0.0211764
-0.019217
-0.0608858
-0.0382415
0.00289106
0.00483126
-0.0199462
-0.0233139
-0.0485721
-0.0409092
-1.03308e-14
-0.259557
0.0358082
-0.0946512
0.0138553
0.163236
-0.0210436
0.00864961
0.0125863
0.0684544
-0.285932
-0.000830577
0.0513055
0.483502
0.0138679
-0.000786348
-0.0949811
-0.0185272
-0.0249521
0.0890488
-0.094567
0.0247354
-0.0198841
0.267828
0.0639528
-0.0411721
0.0633954
0.0652817
-0.049787
-0.0511704
-0.00912475
-0.027601
-0.00731833
0.0368303
-0.0699784
0.0171785
0.0731307
7.56836e-13
-0.460387
0.0750387
-0.0228096
-0.0174173
0.0207723
-0.00580942
0.0281269
-0.0375684
-5.97116e-14
0.161015
0.0108487
0.117442
0.00532119
0.0470732
-0.0993109
-0.0260888
-0.0269279
0.0443775
-0.00958874
0.0140889
0.0105932
0.0111071
-0.0230485
-0.307507
-0.0105913
-0.0420613
-0.0392157
-0.0197819
-0.0063277
0.0363745
0.0124356
-0.122473
-0.0307593
-0.0314459
0.0240508
-0.00380605
0.0115983
0.0148422
0.0657171
-0.037
0.000695523
0.0221491
0.0252321
0.0192668
0.0371227
0.010147
0.00713251
-0.12111
-0.0709416
0.124744
-0.0405335
0.00207896
-0.00709252
0.0291164
-0.0261283
0.0815122
-0.0386259
-0.00454349
0.023672
-0.0269477
-0.0855862
-0.0107437
0.0241598
-0.0800202
0.0104111
0.0194428
0.0331794
7.19058e-14
-0.0652258
-0.057483
-0.149241
-0.0616429
-0.0440092
0.0016835
0.0373096
0.0418973
0.0208363
0.0233637
0.02432
-0.0257401
0.0170811
-0.0424222
0.056251
0.101699
-0.0129699
-0.0302834
-0.119484
0.0496134
-0.00397613
-0.0779757
1.0534e-14
0.0100246
0.094412
-0.342289
-0.0361567
-0.0805165
-0.00114015
-0.0490851
-0.0576
0.100744
0.0753969
0.225205
0.00372724
-0.0608344
-0.0116841
-0.0267578
0.0934398
0.0180259
0.0428316
0.0503204
0.0515633
-0.0688539
-0.0350239
-0.0331286
-0.0982481
0.149302
0.00461418
-0.151221
-0.127309
0.0510116
0.0617375
0.015324
0.0239944
-0.0837485
-0.0637738
-0.159792
0.0139372
1.17961e-12
-0.0149535
-0.0320661
0.0487341
-0.0518241
-0.0187179
-0.0810431
-0.0143696
-0.207211
1.06527e-13
-0.0191495
-0.0486023
0.122518
-0.0376267
0.124788
0.117835
-0.0331038
0.0308841
-0.131723
-0.00324428
0.0825734
-0.0169576
0.00960786
-0.026823
-0.0909066
-0.0337892
0.0186386
0.0803655
-0.0386426
0.0611501
0.0715598
0.50598
0.00960141
-0.0155183
-0.00260989
-0.0801192
-0.0770653
0.00672339
-0.030422
-0.0311759
0.0377135
-0.00285784
-0.00926838
-0.0532502
-0.144978
-0.0429409
0.104634
0.038882
-0.0496872
0.0429679
-0.0532364
-0.0945339
-0.0297147
-0.0614328
0.0464585
-0.0675293
0.322409
-0.000212338
-0.0218281
0.0275643
0.054667
-0.0674703
0.0227
0.0793177
-0.0240699
0.00408845
-0.0485087
0.0255061
-4.08506e-14
-0.0201828
-0.0769938
-0.0503171
-0.00444133
-0.0268416
-0.0577315
-0.185296
0.0387852
0.0580233
-0.00298058
0.0894126
-0.0421272
0.0646904
0.000195341
0.0385633
-0.0681498
0.0280293
0.112151
0.0466465
-0.182988
0.0626196
-0.12527
-2.63813e-14
-0.0564746
0.113382
-0.029297
-0.0324983
-0.0120475
-0.0266238
-0.028996
-0.100349
-0.223387
-0.126051
-0.0028754
0.0520581
-0.0335595
0.0794725
0.00997954
0.103444
-0.0227185
0.112858
0.0246459
-0.0253143
0.0147273
0.0224104
0.00747997
0.0296592
-0.0478892
0.122144
-0.0847288
0.0581491
-0.0301278
-0.0984957
0.215486
0.0141397
-0.130062
0.0268472
0.204903
0.0357579
-8.11998e-13
-0.0618004
-0.0502606
0.0646806
-0.10492
0.00898644
0.125354
0.0788134
0.0596558
-3.04502e-14
0.0360357
0.0152792
0.0914707
-0.14234
-0.0592584
-0.0723161
-0.0952438
-0.021483
-0.0339807
-0.0743064
-0.00941173
-0.000113616
0.06435
5.13522e-05
-0.124444
0.0692194
-0.169511
-0.0345103
0.0196884
0.0108682
0.140128
-0.0737626
-0.00706666
-0.00302243
-0.025484
-0.163835
0.0827124
-0.0541208
0.0821955
-0.0050573
-0.0257988
0.035742
-0.0359373
-0.04407
-0.0595671
0.00205963
-0.00114295
-0.0794814
-0.0142247
-0.0041606
0.157062
0.0143141
0.00248576
-0.0242548
0.109542
-0.100953
-0.0916676
-0.0331965
0.0678141
0.014023
-0.0294872
0.00109139
0.0811203
-0.00707369
-0.0552377
-0.0743446
-0.0388677
0.0167819
1.49405e-14
-0.0500021
0.0211282
0.138413
0.0139898
-0.0648339
0.0549923
-0.0132822
-0.0390253
-0.0425763
-0.0439191
-0.144415
0.0089711
-0.0337383
0.0153393
0.0189872
0.0585599
0.00142642
-0.0644171
-0.0237416
-0.0438888
0.0496828
-0.0667521
8.36174e-14
-0.0785483
-0.0332147
0.099011
0.132713
0.0260301
0.0249435
-0.0441571
-0.00717271
0.00904252
-0.00974026
-0.00421288
0.0748927
0.0273554
-0.0108581
0.0740639
-0.00502865
-0.019554
0.0203997
0.0627351
0.146373
0.0358629
-0.114438
0.0357878
0.100752
0.0936672
0.075541
0.0290286
0.0997885
0.0450295
0.0348825
0.0587393
-0.0869074
-0.0431711
-0.082382
-0.00104327
0.109758
-4.74328e-13
0.106955
0.00742574
0.0465553
0.0276415
0.0397831
0.0292305
0.0161337
0.0821346
-1.26386e-13
-0.0134302
-0.0168075
-0.171877
0.0104385
-0.00434654
0.114584
0.00296335
0.0932613
-0.0428213
-0.0153207
0.00814189
0.0278129
0.157502
-0.00626874
0.0119563
0.0512646
-0.0620669
0.111601
-0.00304869
0.0124595
0.000566788
0.0104024
0.0314731
0.0229168
-0.023931
-0.0369704
0.0120398
-0.0291517
-0.00807319
-0.00797979
0.0892519
0.0183181
0.0407799
0.0346486
-0.0325839
-0.0720881
-0.191207
0.00473046
-0.0582284
-0.0370089
0.232906
0.0135455
-0.0554609
0.060445
0.0303126
-0.0856223
-0.160594
-0.0158477
-0.00778092
0.0396478
0.0691313
-0.0425442
-0.115547
-0.0712102
0.0272819
0.111123
-0.00922485
0.026454
-3.36132e-14
0.121944
-0.11346
0.00163194
0.0115009
0.0329525
-0.0967417
0.0487367
0.052935
0.055899
0.0173035
0.345406
0.048051
0.0458523
-0.0740522
-0.112209
0.0144078
-0.0133348
0.0161357
0.0859715
0.0392403
-0.00617656
0.0361342
-5.87172e-15
0.0258302
-0.203996
-0.103907
0.00186427
-0.0468121
0.0141368
-0.0528135
0.0557804
0.0122266
0.0646357
-0.0145176
-0.0860343
0.0249109
-0.0536266
-0.128258
-0.00544898
0.0226384
-0.123278
-0.00233574
-0.0573615
0.0359081
0.0218068
-0.023475
-0.24446
-0.233258
-0.0185902
0.0955964
-0.228775
0.0129309
0.0457593
0.0552318
0.021397
0.00274176
0.101384
-0.0871114
-0.543599
-1.90206e-14
0.025445
-0.0139266
-0.0950289
0.0542073
0.0307359
-0.00220174
-0.0311203
-0.174729
-1.35814e-13
-0.00695715
-0.0874434
0.482684
0.0169875
-0.00872696
-0.145107
-0.177063
-0.147011
-0.0176009
-0.00167454
-0.0252519
-0.120291
-0.226937
0.0504241
0.0377667
-0.047313
0.00558929
-0.155787
-0.00507215
0.00941795
0.022033
-0.074997
0.101416
0.00456078
-0.00394903
0.0416234
-0.0817834
0.0671404
0.0831696
-0.00351506
-0.318677
0.0245954
-0.0651277
0.00693192
-0.0303561
-0.0101116
0.04101
-0.0318267
-0.0587392
0.0933179
0.0673665
0.083876
0.0132833
0.0793617
0.00696768
-0.155067
-0.110899
-0.0197803
0.0196221
0.0175847
-0.104875
-0.164256
0.0115299
-0.0449986
-0.00332273
0.0167533
0.0240796
0.0364607
3.75007e-15
0.0854485
-0.0616134
-0.111319
-0.0516453
-0.0772854
-0.0627403
0.165386
0.0818149
0.0484323
-0.00808632
0.114236
0.08834
-0.0702369
-0.0135976
-0.14233
0.11935
0.0018129
-0.014617
0.0186774
0.11252
0.118499
-0.00147882
3.16294e-14
0.021056
-0.189416
-0.0515448
0.0439584
0.134216
-0.0649464
-0.138967
0.0559348
0.133623
0.0424558
-0.108656
-0.0466177
-0.118985
-0.0145099
-0.00655761
0.00617637
-0.0163348
0.0397652
-0.0271119
-3.12157e-05
-0.0522606
-0.00299625
0.00426981
-0.0257293
-0.0944403
-0.00243148
0.138969
0.0490422
0.0158361
0.0316554
-0.0421177
2.32678e-05
0.109053
-0.114504
-0.0206694
0.0440039
-4.23339e-13
0.0872942
3.0026e-05
-0.0631426
-0.0269311
-0.10281
-0.0945395
0.122311
0.11896
3.99491e-14
0.107248
-0.0358714
0.347836
-0.0476931
0.101181
-0.308095
0.0886679
-0.00199271
-0.0407913
0.101046
-0.055454
-0.0565694
-0.0775168
0.0352186
0.155108
-0.018568
0.255829
-0.259539
0.187651
-0.0219861
0.0257171
0.245302
0.023641
-0.0214118
-0.0196564
-0.0303299
-0.0513856
-0.0674763
0.234142
-0.0104928
-0.026224
0.0559502
-0.0376898
0.0141211
0.0273189
-0.0426746
0.104378
0.0284202
-0.00244456
0.0127738
0.0852983
0.0656787
-0.00448113
-0.00621021
-0.00310982
-0.00721045
-0.0139979
-0.0244124
-0.0467982
-0.00290028
-0.00473731
0.0751507
-0.0586112
0.0124526
-0.0052247
0.0708102
-0.0567538
0.0291006
1.31563e-14
0.047899
0.0516426
-0.0602534
-0.0684254
0.0157152
0.0353881
-0.0235378
-0.0544
-0.004224
0.0138311
0.0231515
0.0526567
-0.00842733
-0.134238
-0.00242013
-0.124366
0.00371116
0.0692376
0.0426709
0.0244219
0.0480228
-0.123229
-1.63811e-14
0.0152497
-0.0234834
0.216564
-0.0806944
-0.0393928
0.0430719
-0.059004
0.0523801
-0.414329
0.129849
0.0126236
-0.00566064
0.0320453
0.0525748
-0.0555575
0.0440689
0.00502662
0.156616
-0.0231748
-0.0106308
-0.0300279
0.0229328
-0.0240398
0.080566
-0.153394
0.0407988
0.093906
-0.0837982
-0.0320554
0.115298
0.053581
-0.00280927
0.193096
-0.0329421
-0.0388646
-0.0244782
3.82488e-14
-0.0580008
0.0267991
-0.268702
-0.0389267
0.0316995
-0.0895262
-0.100546
-0.00743375
4.2984e-14
0.0299535
-0.0129477
0.167917
-0.036936
-0.0331789
-0.188002
0.00698099
0.0238618
0.245898
0.0477796
-0.0209316
-0.0623126
0.0577983
-0.0217482
0.0632402
0.147728
0.0127157
-0.0479288
-0.0456746
-0.0580173
-0.123773
0.38248
-0.0126009
0.0336196
-0.0642783
0.0198186
-0.014449
0.0527034
0.00223367
-0.0135613
0.0645152
-0.0138532
0.0153681
0.0560858
-0.00595445
-0.0536206
0.0663517
-0.0628527
0.00275995
0.0254882
0.0249241
-0.0332961
0.105887
-0.0128709
0.00722496
-0.0028773
0.0632789
-0.00642265
-0.0896416
0.0065584
-0.106073
0.00591342
-0.0390595
-0.106824
0.0195161
0.0181051
0.0217044
-0.000237698
-2.45391e-15
0.0686814
0.0705137
-0.0166292
-0.0340904
-0.0629245
0.0174216
-0.0329588
-0.0244786
-0.0193199
-0.0724882
-0.0990147
0.00903926
0.00727485
0.0244424
0.0627157
0.0477234
-0.0180604
0.0579766
0.000439856
-0.014267
0.053705
0.00508533
-8.40329e-15
0.278018
-0.0197352
0.0592521
-0.0264562
-0.102836
-0.0731796
-0.0269856
0.00828224
-0.000306059
0.225248
0.0206043
-0.0242128
-0.594873
0.0702799
-0.0125106
0.181276
-0.00773069
-0.00689008
-0.0467612
0.0440658
0.02417
0.000735053
-0.052801
-0.0888446
-0.0191258
-0.00500852
0.136688
-0.0614029
0.0286439
0.0379772
-0.0255195
0.00980687
-0.0268082
-0.0172856
-0.0192849
-0.0463428
-7.38744e-13
0.14724
-0.100202
0.0308336
-0.075652
0.032287
0.0178928
-0.0348281
-0.0485928
-4.76481e-15
-0.162435
0.0353508
0.110834
-0.0441902
-0.0538586
0.205253
-0.0189977
0.0188952
-0.0713565
-0.0131886
-0.0269037
0.00835752
-0.0314501
-0.0206388
0.215174
0.0190197
-0.0667206
-0.0642483
-0.0120168
0.00521636
0.0242572
0.0290114
0.303625
-0.0309177
-0.0023042
0.0243061
-0.0652557
-0.0834242
0.0567907
-0.0728779
0.0202777
-0.00356802
0.0100648
0.0131798
-0.0339304
0.0383558
-0.0240255
0.00637473
0.0161306
0.0287519
0.233725
0.0772667
-0.0777094
0.0230556
0.00503491
-0.0525868
-0.116935
-0.0183331
0.047596
0.0154015
0.0569064
0.118209
-0.0993283
-0.0739702
-0.076134
-0.0204698
0.0696302
0.033534
-1.19098e-15
-0.146401
-0.0738504
-0.119238
-0.0127693
0.0548497
-0.0804302
0.0216701
0.0469534
-0.0298996
-0.0216314
0.104978
-0.0938287
-0.0028941
-0.0350798
-0.14722
-0.145872
0.00844473
0.0386419
0.0798997
-0.113649
-0.0578432
0.0517643
-2.02347e-14
0.0151526
-0.0964309
-0.109239
-0.0322784
0.0321961
0.0205125
0.0431184
-0.0947257
0.0402949
0.00098561
-0.000798169
-0.0485166
-0.172453
-0.0984553
-0.0696693
-0.0495266
0.00279045
-0.00745587
0.0450226
0.100793
0.112079
-0.0778989
-0.00113877
0.0383883
-0.12292
0.00198248
0.197188
0.0108224
-0.105125
-0.0383196
0.127231
-0.0394511
0.021247
0.0478566
-0.095134
0.130373
6.24698e-14
0.0465501
-0.0353604
0.0164839
-0.0291671
0.0193113
0.0575324
-0.397192
0.160194
-3.27264e-14
0.00885127
-0.0899607
0.0645179
-0.0571128
0.0576881
-0.185231
-0.197834
0.053207
0.0593126
-0.0534544
-0.0124731
-0.0244971
-0.019541
-0.267833
0.256747
0.0276838
-0.162368
-0.157696
0.0697551
0.0857566
0.122885
-0.12201
0.0739364
-0.0142667
-0.10892
-0.120402
-0.0497274
-0.0236788
0.126747
-0.0412043
-0.108506
-0.0222509
-0.0476395
0.242411
0.000797099
-0.0240091
-0.0840572
0.0166636
-0.16074
0.113587
0.21715
-0.0656162
-0.0332923
-0.0295855
-0.0865536
-0.0362638
-0.190701
-0.0258736
0.00575864
0.0181772
-0.00200479
0.0125422
-0.0383291
-0.0604064
0.00955775
-0.102546
-0.0348308
-0.00816824
-7.52446e-15
0.0699624
0.0445842
-0.198573
0.00859547
0.0665959
-0.079251
0.0530657
0.0228116
-0.00655323
0.0106087
0.235077
-0.0246083
-0.0537453
-0.0234222
-0.0578535
-0.0677315
-0.00745129
0.0108189
0.0446525
0.0149196
0.00140936
0.0305148
-3.08988e-15
-0.0353296
-0.129738
-0.143869
0.00490296
0.193455
0.0249358
0.000364737
-0.0388036
-0.029721
-0.0561067
-0.00913146
-0.124465
0.1357
-0.0475585
-0.0230394
0.029455
-0.00869122
-0.0242463
-0.0230795
-0.0394773
0.00823991
0.0321386
-0.0349086
0.227442
-0.101752
-0.0149545
-0.312441
-0.294938
0.00861129
0.0500962
0.0407382
-0.000485075
-0.0251091
0.11277
0.00218937
0.0353912
2.61575e-13
0.0418556
-0.00410638
0.0264072
-0.026038
-0.0050629
0.00580478
-0.0158191
-0.159509
1.06244e-14
0.327153
-0.0603108
0.322527
-0.0317705
-0.0492824
0.0779924
0.0372065
-0.0236781
0.0491381
0.0127218
0.0241972
0.0596448
-0.141257
-0.0321014
-0.462157
-0.0996425
-0.313951
-0.0619146
0.0948692
0.0719011
-0.0792998
-0.0242401
0.0447272
0.0103127
0.0137308
-0.031815
-0.0662786
0.193716
0.148607
0.0187099
0.0218345
0.00197705
-0.00310568
-0.0556754
-0.0232891
-0.069974
0.0778163
0.0139696
-0.0173841
-0.0670507
-0.0125033
-0.00468887
0.0202965
0.0980174
0.0335475
-0.0174835
0.062087
-0.020378
-0.0524231
0.0483614
-0.0618996
0.0191369
0.0376247
0.0606199
-0.033063
0.142542
0.12196
-0.148661
1.33363e-15
0.00255309
0.00806166
-0.082111
0.10885
-0.0998208
0.0301018
-0.0703333
0.00862215
-0.0577475
0.0118059
0.0478325
0.0478398
0.149792
0.0356784
0.179564
0.0633936
0.000633573
-0.245205
-0.00777535
-0.0591053
0.0149692
-0.0241458
1.32384e-14
-0.0238603
0.0782084
0.0673759
0.0702465
0.0398354
-0.077179
-0.0751543
0.0139183
0.0233173
-0.0440956
0.0215987
-0.027549
-0.0941909
-0.0379035
0.0333135
-0.323879
0.0150096
0.0207006
-0.0196705
-0.0164835
0.114065
0.0680337
-0.00173514
0.042634
0.0384362
0.00756313
-0.0586405
0.0560302
0.00952215
9.76834e-05
-0.0513924
-0.0115828
0.204697
-0.178653
0.147363
0.0704375
5.78884e-13
0.00566548
0.0376266
0.099048
0.0294699
0.0699389
0.05274
0.117332
0.0578042
-2.22541e-14
0.037763
0.0688668
0.237343
0.00768012
0.0212956
-0.0113422
0.0506967
-0.0495849
-0.0156483
0.0198387
0.0576173
-0.46993
0.0201162
-0.0855202
-0.0842222
0.024332
0.0539199
-0.0134481
0.0071828
0.0256562
0.0119841
0.0118115
0.0119493
-0.0191273
0.000675003
0.099975
-0.003902
-0.129264
-0.0640906
0.020831
-0.0335187
0.070627
0.0267396
-0.000961434
-0.020632
0.172476
0.0574877
0.0269611
-0.0669246
-0.0266134
-0.0786077
-0.0835063
-0.0629195
-0.0175665
0.0544546
-0.0951217
0.397157
-0.0171406
0.0410413
-0.0517857
0.0844886
0.0387842
-0.0198252
0.159761
-0.129969
0.0850744
-0.0330091
0.0767747
4.29892e-14
0.0404084
0.127311
-0.0739344
0.00739691
0.142492
-0.0423623
0.0661934
0.0208302
0.130482
-0.0493504
-0.0199924
0.0218047
0.086339
-0.0392934
0.0401143
0.0951632
0.0225149
-0.0714273
-0.0386162
-0.132135
0.0847686
-0.0679378
-5.84345e-15
-0.0221699
0.0371846
0.010932
-0.0537355
-0.0490383
-0.0357987
-0.110384
-0.0478144
0.0622467
0.104951
0.0231195
0.0505691
-0.152747
-0.0180308
0.00586132
0.00145237
-0.023747
0.0890919
0.015438
0.00799725
0.0722402
-0.0135936
0.0289726
0.00495335
0.053333
0.10166
0.0890919
0.019728
-0.0274561
-0.149271
0.304242
-0.0560346
0.0224342
-0.19393
0.155564
0.0131267
-5.5701e-13
0.0374431
-0.009799
-0.0535028
-0.0736254
0.0276204
0.0253965
0.070244
-0.0185271
3.33213e-14
0.0268152
0.0397571
0.128176
-0.0953749
0.0511682
-0.0148286
-0.0672817
0.0513255
0.232712
-0.0836283
-0.0637711
-0.0184408
0.066507
-0.0149604
0.0700222
0.0501614
0.0321379
-0.0560497
0.0203918
0.0253348
0.052174
0.0261844
-0.0647252
-0.0623543
-0.0472052
-0.0356217
0.089415
-0.0715747
0.079986
-0.0245377
0.0248419
0.0162939
-0.12542
-0.12902
-0.0298403
-0.0495368
-0.140205
-0.062035
-0.0779835
-0.0914635
0.0914792
0.0384554
-0.0083766
0.0324133
0.0324121
-0.151293
-0.0494945
0.0165124
-0.0012696
-0.0592955
0.0831638
0.00696326
-0.285523
0.0203509
0.15481
0.332604
0.0493047
0.028949
4.47566e-14
0.22286
-0.0546399
-0.0377901
-0.00612589
0.0259977
0.03953
0.0708095
0.101751
0.235568
-0.00388131
-0.17761
0.0366455
0.0414019
0.0430506
-0.0322575
-0.0624522
-0.000924197
-0.000774725
-0.00432714
0.0694914
0.0228452
0.0686348
-2.5917e-14
-0.0197861
-0.109903
-0.130463
0.0178549
0.088261
-0.0190518
0.0520661
0.0361507
0.00336023
-0.0320238
0.0821863
0.0271401
0.0467597
0.0209601
-0.338068
0.0176678
-0.00251324
0.0930432
-0.00210407
0.0599287
0.0494334
-0.0331069
0.0155467
0.163019
-0.331475
0.018665
-0.0058583
0.173752
0.0176118
0.018019
0.0925757
-0.0031045
-0.0378985
-0.0610767
-0.00172178
-0.870824
-4.14733e-13
0.086108
0.012443
0.0948812
0.0240839
-0.00465551
0.00344889
0.0441477
0.0799582
-1.41422e-13
0.12188
0.0429481
0.244647
-0.00524718
0.100013
0.14087
-0.065398
-0.130446
-0.0399502
-0.105411
0.0705854
0.116302
-0.309302
0.0695281
0.108032
0.0506406
-0.0504697
0.13005
-0.105975
-0.00621864
0.0507319
0.0878238
0.0675355
0.0395845
0.0271238
0.197574
-0.0266402
-0.0252534
0.103485
-0.00789126
-0.129336
-0.0351941
-0.12633
0.0243412
0.087954
0.036234
0.0955745
0.0213287
0.0195134
-0.048447
0.738785
-0.0566758
0.0162046
0.0642186
-0.00452504
-0.0842191
0.140953
-0.0339449
-0.052565
-0.00919375
-0.105725
0.02671
0.00134691
0.0910939
0.0529521
0.0434991
0.00235977
0.00187005
-3.71257e-15
0.0708616
0.0432098
-0.244021
-0.0113398
-0.0763272
0.0174211
-0.0988707
0.0752795
0.0780602
-0.020917
-0.164982
0.0149775
0.141749
0.00623216
0.0198118
0.0289687
-0.000404713
-0.0255607
0.0125983
-0.149772
0.0282855
-0.0856915
2.68082e-15
0.0332407
-0.698688
0.0477591
-0.03711
-0.0245772
-0.0922535
0.0433754
-0.00054254
0.0684629
0.0127101
-0.0116033
0.0257532
-0.188072
0.0264295
0.0595227
-0.0826538
-0.0114937
0.0508825
-0.044826
0.048609
-0.0186377
0.0154123
-0.0193909
-0.027166
0.0557468
-0.0251362
0.0389999
-0.0237599
0.0129121
0.0510132
-0.0735593
-0.00123776
-0.00469714
-0.0389552
-0.0483102
-0.0340396
4.62311e-13
-0.0867476
-0.0390785
0.0656406
0.0346022
-0.0248701
-0.00965738
0.0453546
0.015375
8.51554e-15
0.0144881
-0.111155
0.0843506
0.00362272
0.094275
-0.0178764
0.0758284
-0.088648
0.0178881
-0.0239098
0.0256969
-0.283688
0.154627
-0.269266
-0.0934577
0.0524761
-0.0459585
0.0178724
-0.0352889
-0.0192886
0.0909754
-0.0082213
-0.116832
-0.048954
0.0290255
0.0627152
0.114783
-0.090642
0.111611
-0.0142442
0.114515
-0.0304342
-0.0851359
-0.0261065
0.0155509
-0.042185
-0.0767719
-0.0244545
0.0564685
0.054097
-0.0412984
0.0187368
-0.00461748
-0.0358476
0.00912417
0.128514
0.106712
-0.0180211
-0.0636662
-0.0338561
-0.118463
-0.00350207
-0.0910666
-0.102542
0.00433889
-0.0128063
-0.0058285
0.0107588
-6.14411e-15
0.040335
-0.00248213
0.124334
0.0422054
-0.14825
0.0198134
0.111179
-0.0659594
0.0714869
-0.0218907
0.00223161
-0.00732331
0.000533641
0.0212865
-0.040167
0.044043
0.00025206
0.123258
-0.0142072
0.366343
-0.0319451
-0.416246
-7.14785e-14
0.0465367
-0.0782144
-0.0448166
0.00563584
0.0919236
-0.101183
0.102428
-0.00225459
0.0138564
-0.109509
0.0206271
-0.0344705
-0.124158
-0.0576269
-0.0901398
-0.11962
-0.0150103
0.0234108
0.127094
-0.014476
-0.00999462
0.0245364
-0.0081943
-0.0343045
-0.0860434
0.060863
0.0551878
-0.0408829
-0.0312587
0.0643819
0.014854
0.0549925
0.0515578
-0.0322038
0.0598779
-0.0151415
-2.91386e-12
-0.205635
-0.0712134
-0.0128508
-0.124345
-0.00932851
-0.0202913
-0.0361177
-0.0167692
-7.30034e-13
-0.0402769
0.0492531
0.146297
-0.0244112
-0.00901724
0.110563
0.0193561
-0.0493406
-0.0346083
0.0517455
-0.0201163
-0.0437891
-0.0366214
-0.0281182
-0.0607026
-0.0268719
-0.117013
0.0560058
-0.00405001
0.0391052
-0.0582972
-0.017896
0.390291
-0.0644683
0.0210551
0.0148002
0.00351621
0.0131038
-0.0387767
-0.039824
-0.0724656
-0.0291331
0.0798555
0.0995154
0.0110769
-0.0398262
0.0183254
-0.0437775
-0.0547114
0.118095
0.139913
-0.00972377
-0.0355807
-0.031646
-0.000178051
0.0199505
-0.138949
0.0238857
-0.0278345
0.0334412
0.117611
0.0426558
0.0476611
-0.0598426
-0.0959209
0.120908
-0.133543
-0.155827
8.40329e-15
0.00390596
0.00606587
-0.0511794
-0.0233644
-0.00375458
0.0430451
-0.0162479
0.0141712
0.0560918
0.0221217
0.00572146
0.0315781
-0.0817238
0.107939
0.0106735
0.0965215
0.00559133
0.094187
0.00424394
-0.021768
0.0383228
-0.0101612
-2.14918e-15
0.0420185
-0.143622
0.112755
0.148524
0.0250529
0.0163105
0.0620511
-0.00771949
0.0551005
0.0788553
0.00963868
-0.112398
-0.00154397
0.0240337
0.0193167
0.186155
0.0199828
0.00355003
-0.0816256
0.00133721
-0.218019
-0.0677869
0.00449301
-0.0324143
0.0859281
0.0213713
0.112676
0.0123635
-0.00647094
0.0989748
0.00307974
-0.00720601
0.0805122
0.44462
-0.0417435
0.128892
-1.82976e-13
0.0141757
-0.0112055
0.0282853
0.0144595
0.0119373
0.0764518
-0.0343019
0.0136909
4.32125e-15
-0.0914212
-0.0152254
0.212214
-0.0186383
0.0784959
-0.0303885
-0.0753518
0.0400668
0.167452
0.00926593
-0.0799963
-0.00929217
-0.0427392
-0.0568
0.0802562
0.0129285
-0.528659
0.0239205
0.126074
-0.0144792
0.174438
0.0280499
0.0115147
0.0292507
-0.0497748
-0.120646
-0.0111039
-0.319957
-0.0332315
0.0049028
0.0642532
0.0345314
0.00694727
-0.0267564
-0.0868209
-0.212235
-0.038995
0.148158
0.0699242
0.062902
-0.044553
-0.0219599
-0.0613316
-0.00941219
0.0111238
-0.0566581
0.000561779
-0.0428475
-0.0679999
0.0112217
-0.025179
-0.0568827
-0.013739
0.00169657
0.00555082
0.0601866
-0.22568
-0.0213464
8.62869e-15
-0.0137631
-0.0403938
-0.0189982
-0.0214065
-0.0940072
0.00447372
-0.00313032
-0.00518809
-0.0256528
0.0329811
-0.018031
-0.0175837
-0.0236834
0.0500445
-0.018006
-0.0185884
-0.309281
0.149408
0.0328783
-0.0345696
-0.116354
0.0291952
-6.43692e-14
0.0296861
-0.0140369
0.0255642
-0.0520657
0.00211538
-0.0425612
0.0650181
0.0223921
-0.0185344
-0.121179
0.0129574
-0.0264017
0.0337614
-0.0278835
-0.0275935
0.0371123
0.0065081
-0.00522288
0.0457994
-0.211
0.261139
0.191722
0.0547268
0.05662
-0.0123353
0.291049
-0.0411786
-0.0862439
0.0477688
0.0581653
0.0394987
-0.0465563
0.0979842
0.110319
0.0237192
0.0524857
5.12321e-13
-0.0968265
-0.0429426
0.00446173
-0.0662931
-0.0307483
-0.0146022
0.0164944
-0.0589815
-7.35727e-14
0.0207383
-0.00319605
0.096616
-0.041559
0.0143805
-0.0277099
0.00608746
0.0153761
0.0285237
0.0115474
0.196486
-0.0570496
0.028012
-0.0180078
-0.0439875
-0.0571072
-0.452281
0.116895
0.00395536
0.0217576
0.0627893
-0.0281103
-0.0758428
-0.105606
-0.0130209
0.00497399
-0.112788
-0.0970744
-0.0351909
-0.0250044
0.0179157
0.00762597
-0.0203036
0.028506
0.0597768
-0.13493
0.0110315
0.0985647
0.0445736
-0.00860797
0.0950576
-0.0661482
-0.00237006
0.0435184
0.0231828
0.0570153
-0.00737972
0.0404585
-0.101831
0.000960857
-0.0465106
-0.0240271
0.0147086
0.102536
0.0227442
0.0166611
-0.0692859
0.0162731
-1.90206e-14
-0.00332387
0.122708
0.0684957
-0.00864792
-0.0197171
0.0193334
0.115575
0.0127041
0.0719811
0.0639279
-0.0945664
0.0315214
0.0360219
-0.0219529
0.101246
-0.153015
0.0118642
0.144202
-0.00861538
-0.00861358
0.0155894
-0.106342
-2.49445e-15
-0.15584
-0.031458
-0.0435791
-0.0209511
0.0024905
-0.0237179
-0.017113
0.0297447
-0.0956188
-0.17124
0.019305
0.0405192
0.0370162
0.248037
0.0117562
0.0494655
-0.0333599
0.0601732
-0.0427277
-0.0117158
-0.00120439
-0.087013
0.0204317
-0.0773372
-0.0463442
-0.0694958
0.0142321
-0.039899
0.00481473
0.00758129
0.0114208
-0.0377139
0.0452193
0.00157864
0.113648
-0.0981127
-2.82816e-13
-0.341064
0.036688
0.0298924
0.0549081
0.0181195
0.016837
0.0438645
-0.0888391
8.95142e-15
0.11117
-0.0199821
0.02149
-0.000357296
0.356494
-0.00783572
0.0718722
0.0134451
-0.0653271
-0.0118697
0.0381061
0.0515253
0.0555351
0.0178133
-0.0382711
0.0119705
0.0279231
0.0407639
-0.0238598
0.00338969
-0.0493199
0.0336747
0.0237397
0.142816
0.123738
0.0164815
-0.13923
-0.0054707
-0.0626567
0.0710951
0.087097
0.00441534
-0.00753853
0.0838007
0.0214615
0.0431143
-0.0440735
-0.00901764
0.0179649
0.160679
0.0851853
-0.111999
0.0227142
-0.0602698
-0.109475
-0.0102569
0.0384744
-0.0118077
-0.0297891
-0.0502766
0.0209928
-0.000689978
-0.00543041
-0.0045434
0.00980114
-0.0194436
0.0654187
-0.0375991
1.45819e-14
-0.0245494
0.0125774
-0.0865536
-0.00387198
-0.0153875
0.294582
0.000269411
-0.117177
-0.0846925
-0.0253096
-0.00953515
0.289704
0.0200863
-0.000789263
-0.00731109
-0.00824961
0.0137495
0.0122627
-0.272173
-0.022721
-0.0352443
-0.0784433
-3.95111e-14
-0.00728696
-0.0761332
-0.118345
0.0260585
0.0417164
-0.0217214
-0.0382047
0.309164
0.0111634
0.0172113
0.317069
0.0229106
-0.0351127
-0.0563539
-0.0186108
0.00451159
-0.0186427
-0.0704003
-0.0352542
0.0247561
-0.0635343
-0.0123348
0.00871468
-0.0185396
0.0550631
-0.0616046
-0.068507
-0.0272973
0.0740791
0.00467258
-0.16536
-0.00808802
-0.0337739
-0.0464937
-0.091487
-0.0300935
-8.28128e-13
-0.0240273
-0.0180864
-0.135049
0.122806
-0.031314
-0.0305297
0.0263943
0.00275521
-4.26893e-14
-0.00490232
0.0942408
0.17012
0.0765477
0.0224536
-0.00964873
0.212467
-0.120013
0.0192169
0.124222
0.334357
-0.0880878
0.0107393
0.160324
-0.0486171
-0.0479565
0.0705452
-0.0327225
0.11603
-0.0191335
0.0118836
0.0997483
-0.0124404
-0.00325963
0.233122
0.0285206
-0.00019371
-0.166051
0.0781779
-0.0153657
-0.0505809
0.0872064
0.0757277
-0.0200012
0.430958
-0.0778181
-0.166259
-0.0347509
-0.0595848
-0.0299879
0.0956744
0.00115915
-0.0297449
0.0264929
-0.0173268
-0.0499261
-0.0715173
0.0259445
0.00839941
-0.00808814
-0.0500452
0.0231409
-0.0309795
-0.0298592
0.0471232
0.0434915
-0.0462131
0.0274448
9.80704e-16
0.0367715
-0.0114607
-0.104913
-0.0183156
0.0380863
-0.0358002
-0.00259482
0.0334251
-0.0237393
-0.0359952
0.0612634
-0.0134489
-0.01577
-0.0258135
0.00132928
-0.0201478
0.00857336
0.0210151
0.0394144
-0.0416731
-0.0116676
-0.113356
9.73878e-15
0.0316205
-0.0960412
-0.0783457
-0.0836307
-0.0116631
0.126288
0.0388255
-0.0239611
0.0371484
0.00709197
-0.0593869
-0.101568
0.105472
-0.0474677
-0.054953
0.0479435
-0.00993014
0.0344163
0.0159035
-0.0255908
0.0383875
0.00894951
-0.0535089
-0.0771171
-0.0831889
0.0468524
-0.00719997
-0.0767261
-0.0436915
0.000330181
-0.0278014
0.013687
-0.0268352
0.0331603
-0.098277
0.0124166
-9.68892e-13
0.000110518
-0.137639
0.0194197
-0.0437692
-0.00576808
-0.0123711
-0.0581608
-0.0899414
-2.02743e-13
-0.0623213
-0.0235159
0.044585
-0.0268026
-0.0196798
-0.155145
-0.0921752
0.119335
0.049114
-0.0378229
-0.050104
-0.0673575
-0.138498
-0.170538
-0.0388419
0.000905724
0.077821
-0.0421364
-0.0331367
-0.0355859
0.00331044
-0.0337522
0.0295311
0.0819854
-0.077309
0.0463161
-0.0823292
-0.0430653
0.100158
-0.0471923
-0.0608903
-0.0198048
-0.0327836
-0.0973633
-0.0546562
0.0478252
0.0012625
-0.0332842
-0.0119467
0.0350874
0.00769397
-0.0152365
-0.0646871
-0.0295206
0.126366
0.0249357
0.0132363
-0.00850346
0.035765
0.000414352
-0.0270913
-0.0427314
-0.0381217
-0.0215647
0.00191611
0.0558768
0.197486
0.0334135
2.81679e-15
-0.0242533
-0.041608
-0.0252031
-0.0358669
-0.0496283
0.00178343
0.0214904
-0.00983986
-0.0211934
0.00623642
-0.00266114
0.0100067
0.0273036
0.0283886
-0.00627006
-0.0633775
0.239533
0.0809609
-0.0118704
-0.148641
0.111072
-0.0577689
1.76329e-14
-0.0828823
-0.015558
-0.0540563
-0.0114995
0.0629016
0.0206872
0.0729132
-0.0046992
-0.0344117
0.0670051
0.00203381
0.0040705
0.0379226
0.0424238
-0.031731
0.023835
-0.00169145
-0.0253787
0.207473
0.0698622
0.033553
-0.366981
-0.191555
0.028982
-0.0195114
-0.536756
-0.129095
-0.0110421
-0.0681506
0.0080096
0.0309643
0.101773
0.058052
0.202715
0.00933994
0.0119747
-4.7428e-14
-0.0372738
0.0303476
-0.0225341
0.00507411
-0.0333963
-0.00760251
-0.00943111
0.0242242
2.42323e-13
0.0427115
-0.0170249
0.00230548
-0.0393598
-0.0260358
-0.0276151
0.0388498
0.0330392
0.121845
-0.00927387
-0.0660705
0.0322736
0.0373781
0.0357555
-0.188811
-0.0425475
-0.412882
-0.0618944
-0.00167407
-0.000451504
0.0890792
-0.021386
-0.0142092
0.075716
-0.00609871
-0.011519
0.0232456
-0.0359707
-0.0358831
-0.000170238
0.00244403
-0.00422024
0.0406543
0.0230951
0.0221333
0.0181637
0.0428455
0.154108
0.0665255
-0.0579972
-0.0349354
0.0537542
0.0152833
0.00718123
-0.0265305
0.0126044
0.0974996
0.0720441
0.0217162
-0.00400574
0.1703
-0.00144296
0.0192961
0.0897649
0.0194603
0.000894113
0.0355023
0.0379385
-1.91598e-14
-0.0141107
0.0555375
0.00762
-0.00343007
-0.113287
0.0396215
-0.00991731
-0.00130814
0.0641499
0.0356056
0.0144506
0.0210509
-0.0402349
-0.0326739
0.0868051
-0.0518573
-0.00778247
0.156463
-0.0290925
0.198314
-0.0217585
-0.126648
-4.8724e-14
-0.0480824
-0.040703
-0.0122027
0.00607228
-0.00608374
0.0557331
0.096521
-0.00553098
0.00148116
0.0530968
0.00541163
0.0681209
0.0694298
0.131744
0.0343496
-0.0810212
-0.00199665
-0.00873369
0.0407857
0.0297711
0.0213788
0.104598
0.00645174
0.0466179
0.0432224
-0.0413122
0.0116776
0.0315886
0.0342252
0.0212228
0.000964821
0.191438
0.0270583
-0.00647647
0.0351842
-0.035652
-1.55917e-12
0.204733
0.0812543
0.018382
0.0766492
-0.00956208
-0.0170143
0.0472156
0.0026414
-3.833e-13
-0.00673249
0.00858911
0.0630532
0.0283491
0.00228426
0.00857623
0.0506743
-0.0683169
-0.0197314
0.0102127
0.0416418
-0.0201635
0.0216302
0.0260829
0.0297339
0.00858633
-0.0182365
0.0462539
-0.0465631
0.0365939
0.00412434
0.00405587
-0.214845
0.0130089
0.0777375
0.0592096
0.0252877
-0.0602673
0.0229444
-0.000761239
0.0151848
-0.0106816
-0.00933193
0.017291
0.0319857
0.0677919
0.0892879
0.00659014
0.018174
-0.0297214
0.107003
-0.0960634
-0.0492626
0.0252097
-0.0551625
0.0236154
-0.0417806
-0.0164158
-0.0210784
0.00851802
0.00967434
0.0186402
0.0725183
-0.0033167
0.00633257
-0.456038
-0.030299
-0.0513892
2.28424e-14
-0.172212
0.00704194
-0.0122243
-0.0151797
-0.0105875
0.206693
-0.00747148
-0.0105819
-0.0212744
-0.0180732
-0.342869
-0.0588507
0.0276717
0.169235
0.00460678
-0.045163
0.00390929
0.0142988
-0.0214052
-0.0795197
-0.0159855
-0.0494832
-6.01048e-14
-0.00794619
-0.137263
0.346308
0.0710676
-0.0647029
-0.00287376
0.0192218
-0.0478769
0.0197899
-0.0349002
0.0108374
0.0832679
-0.0668412
-0.0671941
0.0973304
-0.0612289
-0.00539995
-0.00599224
-0.0119424
0.128106
-0.0471702
-0.0163586
-0.00636666
0.219812
0.328754
-0.0254958
-0.0847169
0.239294
0.0131826
-0.0159597
-0.0774214
-0.0167662
-0.0301345
-0.101982
-0.166047
0.0195761
-5.31041e-13
-0.029877
-0.00128027
-0.0398714
0.0523054
-0.0232007
-0.0364449
-0.0303056
0.185708
-1.97474e-14
0.0546049
0.0349112
0.0194447
-0.00726912
-0.0501043
0.124835
0.0214192
-0.0447933
0.0519446
-0.0341058
0.0207956
-0.0961246
0.251791
-0.0719154
-0.0539263
-0.0394197
-0.0585838
0.215408
-0.0294119
-0.0693441
0.0310012
-0.00891114
-0.0646074
-0.00574265
0.0137209
-0.00523411
0.00667998
-0.135991
-0.0888364
-0.0253161
0.181945
-0.045779
-0.0399343
0.090406
-0.00679921
0.000282045
0.108421
0.0253056
0.000406205
0.0276061
-0.0962373
-0.00816059
0.153549
-0.0498623
-0.0292905
0.0213326
-0.100198
0.0168308
-0.0382469
0.0189756
0.0296814
-0.0254735
0.0546074
0.215622
-0.021325
0.218555
-0.0253977
-0.020076
-1.4867e-14
-0.0191799
0.0887232
0.108488
-0.0360757
-0.0149558
0.0571157
-0.015611
-0.0574107
-0.0545127
-0.0483986
0.0360452
0.0281708
-0.0471879
0.0350082
0.0732769
0.0536321
0.00455224
-0.0436375
-0.00166921
0.0634847
0.0147921
0.0575227
2.28337e-13
-0.0144169
0.0921759
-0.0501313
0.0311105
-0.13504
-0.102312
-0.00359379
0.0106229
0.00346962
-0.0324946
0.0128798
-0.100344
-0.0662234
-0.0824828
0.0165355
-0.0198151
-0.0238315
-1.58426e-06
-0.0352355
-0.00490024
-0.0707361
0.0330236
0.0255111
-0.0514597
0.0161174
0.0155858
-0.082026
-0.00674969
0.00267936
-0.00794726
-0.093104
-0.0142741
0.0228551
-0.0757296
-0.100223
-0.0522643
2.83447e-13
-0.0327462
-0.0086502
-0.075179
0.0210336
0.0177461
-0.0289033
-0.0383539
-0.0301008
-1.15673e-13
-0.236781
-0.00357513
0.118279
-0.0367373
0.0476875
-0.146557
-0.0635612
0.0537606
0.00441786
0.0122596
-0.107259
0.00767727
-0.0738914
-0.0567688
-0.229631
0.0154039
-0.0304977
-0.0135371
0.0188008
0.0352334
0.153936
-0.036961
0.0318655
-0.0392116
-0.199435
-0.0581857
0.270884
-0.215067
0.153803
-0.00116507
-0.103454
0.0362227
0.0537135
-0.0247406
-0.0479861
-0.0911486
-0.0487982
0.0368745
-0.0232696
-0.012599
-0.0263178
0.0349983
0.0110899
0.0100569
0.0400793
0.155428
0.0973572
0.0203928
0.0876951
0.0208176
0.0380138
-0.073912
-0.0400636
-0.0445305
-0.0346323
0.152917
0.0222941
0.286812
1.05735e-14
0.0407942
0.0312297
0.130317
-0.0658072
0.176509
-0.0222387
-0.0239773
-0.0593874
-0.0359213
-0.0220177
0.0320561
-0.0355766
0.0628519
-0.0531069
-0.0323915
0.195848
0.0249164
0.223853
0.0635294
-0.108578
-0.000708341
-0.0736745
-1.32752e-14
-0.0128968
-0.100321
-0.0370333
0.0354078
-0.0518908
-0.0292313
0.184002
-0.0196056
0.0832931
0.0416671
-0.0864101
0.0241843
0.0400393
-0.0420548
0.0126542
-0.198455
0.0184075
0.0333518
0.0138578
-0.0291376
0.245272
0.174749
0.0247575
-0.0846708
-0.0426176
0.0453435
0.035518
-0.029505
-0.037957
0.0400574
0.0629601
-0.0431901
0.316607
0.0484411
0.0412126
-0.119022
5.14871e-13
-0.00286789
-0.00919623
0.0603768
-0.0523061
0.0298789
-0.0151581
0.0226511
-0.0484371
7.8725e-14
-0.020829
0.0643304
0.00090074
-0.0468678
-0.132923
0.036004
-0.0140219
0.0110558
-0.0749653
-0.035062
0.0212034
-0.209804
0.0311761
0.0924829
-0.0299815
0.0617351
0.0677871
-0.0408275
-0.00740763
0.0849555
0.0978511
-0.00922483
0.0608952
-0.0324351
-0.0179817
-0.0242593
0.0388912
0.0639751
-0.0130912
-0.00876422
0.152216
0.0110472
0.000466395
0.0418713
0.0544511
0.130392
-0.113027
0.0132396
0.0362054
-0.00217724
0.0898975
-0.0185579
0.0125317
0.00489356
-0.0204168
0.0278206
-0.100655
0.00883008
-0.0137795
-0.000296252
0.0132538
-0.00405461
0.0420653
0.0213839
0.0515903
0.0149144
-0.0426532
-0.00196383
1.02404e-14
-0.0246939
-0.0510234
-0.111465
0.00514244
0.0903168
-0.0476794
-0.0898089
0.00308558
0.112579
0.0158086
0.186599
-0.0427651
0.00267822
-0.0492993
-0.010238
-0.0473989
0.0066576
0.0682968
0.052913
0.0105673
-0.0361117
-0.00320407
-3.33848e-14
-0.0494049
-0.0883277
-0.137314
-0.0458365
-0.203807
0.056813
0.0668011
-0.00999165
-0.029845
0.149775
0.00661559
-0.0857159
0.0721293
-0.0462777
-0.0383781
0.0285354
0.00219874
-0.0826641
0.0020072
-0.124088
0.0414123
0.0569632
-0.00477893
-0.260359
-0.148145
0.00470708
0.17095
-0.0175583
0.00903391
0.00657687
0.0359545
0.0681936
-0.077603
-0.163398
-0.0766184
0.0789439
-1.99324e-12
0.0984691
-0.0105297
-0.144939
-0.0140112
0.0349468
-0.0134245
0.0763557
-0.188049
-1.29194e-13
-0.101939
-0.00799338
0.306037
-0.0150847
-0.0494294
-0.00597781
-0.0123385
0.0450435
-0.0536681
0.00817657
-0.00319825
-0.0480972
-0.0877231
-0.013561
0.761423
-0.0465837
0.0788177
-0.0969748
-0.0240678
-0.0231668
-0.101512
-0.0447435
0.0661618
0.0374569
-0.0661987
0.053882
0.00282209
-0.357471
0.0545549
-0.00951674
0.008771
-0.00271527
-0.0363397
-0.151846
-0.0689806
-0.0432518
-0.286433
0.0182374
-0.0898299
-0.148804
-0.140015
0.0424972
0.0144634
0.0540735
0.0140189
0.155235
-0.0549122
0.00186858
0.040305
0.0457096
-0.110867
-0.0144104
0.146821
-0.0885812
0.0900969
-0.415305
0.00662369
-0.0532588
1.2577e-14
-0.363748
-0.0320477
-0.139746
-0.0493865
0.124665
0.0387098
0.0426167
0.00739847
0.182117
-0.0414222
0.0810638
0.12466
-0.117603
0.0245601
-0.0918685
0.0192202
0.002105
0.0168338
-0.130423
0.0603715
-0.00716209
0.147137
5.75336e-14
0.0325961
0.0433589
0.192093
-0.0189968
-0.0850094
0.0613703
0.0123808
0.126675
0.0391116
0.0733798
0.0133042
-0.11585
0.0871452
-0.017357
0.153624
0.0461756
-0.0622614
-0.10857
0.0547801
0.0429165
-0.0157815
0.0625304
0.0133794
-0.158845
0.471069
0.0220305
0.0581718
-0.0455072
0.0508376
-0.0788689
0.0681312
0.0977769
-0.125013
0.0330099
0.0812789
-0.425101
1.01108e-12
0.0850131
0.0153419
-0.150562
0.0483181
0.160964
0.152824
-0.0641228
0.0722211
-3.30915e-15
-0.0937644
0.0876134
-0.16876
0.0537398
0.0341715
-0.0707394
-0.24014
-0.133378
0.0928338
-0.165269
-0.144709
0.0211678
-0.113288
-0.0103222
-0.0823604
-0.0330605
-0.0894649
-0.120116
-0.120021
-0.0661006
-0.0953119
-0.125896
0.047693
0.0264428
-0.176429
0.113409
0.00992092
0.0102967
-0.186
-0.00992171
0.166565
0.051082
-0.0883602
-0.0431136
-0.0493963
-0.101325
0.116106
-0.055779
-0.130431
-0.0123585
0.112086
-0.0706556
-0.0160571
-0.0220477
-0.0262217
8.00186e-05
0.0134086
-0.0026729
0.0264229
0.0104606
0.027218
-0.0385134
0.0153732
0.0128203
-0.0433207
0.0604081
-0.0930998
-0.0602918
-6.0905e-15
-0.0131876
-0.00705149
-0.0114206
-0.0643044
0.247898
0.0395885
-0.0810219
0.0285878
0.0352342
0.0183839
0.0455263
0.016787
-0.0617591
0.0784021
0.0455081
-0.00399687
-0.00179679
-0.648786
-0.00807276
0.123261
0.0341463
0.0239006
-9.10472e-14
-0.0105481
0.00331937
0.0601632
0.0675632
-0.0730779
0.0259236
-0.0702842
0.00808361
0.0251607
0.00760972
0.00612055
-0.052233
-0.0577408
0.037629
0.0166907
-0.591715
0.00573881
-0.025215
-0.0406994
-0.00163132
-0.0379664
-0.127599
4.35492e-05
-0.0286439
0.0643057
-0.0237127
0.0669292
-0.0295254
0.0107285
0.00932273
0.00545628
-0.0371043
-0.126275
-0.295182
-0.0275077
0.0264417
-2.15124e-12
0.0296106
-0.0211869
-0.0305162
-0.00611517
0.0454752
0.00552564
0.0431549
0.00738563
-1.8251e-13
-0.0624957
-0.0102372
0.125791
-0.0330012
-0.246606
-0.0271254
-0.035298
0.0113452
-0.0250328
0.00902022
-0.0130864
-0.0659224
-0.0460636
-0.0034166
-0.135213
0.00144125
0.282356
-0.0245362
0.0240726
0.0639968
-0.0853489
-0.00410413
0.0310699
0.00943664
-0.0165318
-0.0863096
-0.0421842
0.118265
-0.00178264
0.0143929
-0.0375279
0.0394602
0.00178164
-0.0151703
-0.00256066
0.000320472
-0.163108
-0.0168823
-0.0225889
0.0657749
-0.23181
-0.00380111
-0.0152129
-0.084486
-0.0550783
0.117456
0.029343
-0.00558029
0.00541442
0.0339507
-0.0586224
-0.00528335
-0.13468
-0.00910394
-0.036413
0.398317
0.0330366
0.0294003
6.30612e-15
0.241913
0.0323781
-0.107497
0.0155569
0.113689
-0.165473
-0.0237316
-0.0203932
0.171885
0.00524729
0.129391
0.0181619
-0.0514932
-0.0787103
-0.013146
-0.0256368
0.00889337
0.0545662
0.0519969
0.00591197
-0.00549877
-0.0172416
-1.06494e-13
0.0359361
0.361951
-0.279508
-0.209425
-0.0349558
0.00232672
-0.00453966
0.0148307
-0.0168101
0.123787
-0.0375543
-0.0608897
0.0227213
0.0394696
-0.0683736
0.0931389
-0.0386716
-0.0451008
0.0481609
-0.206885
0.0514487
0.0771713
-0.0200327
-0.199761
-0.275042
0.015013
-0.0104123
-0.194052
0.025465
-0.0281901
0.0223942
0.0980423
-0.00106486
0.0794576
-0.000826343
-0.172461
-2.57394e-12
-0.00327245
0.0149297
-0.0426598
-0.0339
0.0552644
0.0520253
0.0199164
-0.18464
-3.30494e-13
-0.0212355
0.0283689
0.483786
-0.0186782
0.134811
-0.249902
-0.0593081
-0.0493018
-0.00502114
0.017361
-0.0297581
0.0988411
-0.113699
-0.0786196
-0.0305805
-0.0596572
0.0604631
-0.187142
0.0335028
0.0187272
0.0550228
0.0121647
0.0397738
-0.0204847
-0.0482744
-0.0352973
-0.0584886
0.0152027
0.251025
-0.00361957
0.127329
0.0720058
0.0129976
-0.175334
-0.0401499
0.0278209
0.233665
0.00370494
0.10199
0.0718276
-0.145484
-0.0232505
-0.0529619
-0.0838333
-0.101431
-0.0837813
0.069174
0.00379601
-0.0109634
-0.0100712
0.0587874
0.0298886
-0.0101605
0.00995707
-0.119572
0.0825763
0.0225691
-0.107979
-9.84979e-15
0.00442318
-0.0475676
0.00939695
-0.0171531
0.0640881
0.0861069
-0.0376006
-0.00608114
0.236672
-0.01604
-0.00320396
-0.0453094
-0.0324854
-0.0453165
-0.0367334
-0.0389306
-0.00205227
0.0325998
-0.123115
-0.0105567
-0.0781567
0.0423452
-1.98576e-14
-0.0169957
0.0137504
-0.13909
0.00875562
-0.0394004
-0.0139756
0.00245675
-0.0384614
-0.016102
-0.0485958
0.0546091
0.0488826
-0.0172688
0.0106535
-0.0162383
0.0058904
-0.00273487
-0.165739
0.0429506
0.0166902
-0.0836481
0.0168526
0.0033279
2.99478e-05
-0.0605421
-0.110175
0.0525435
-0.0206794
0.0105923
-0.0639233
0.0408145
0.00354875
-0.0874147
-0.0474061
0.0127225
0.110408
-8.29345e-13
0.0201489
-0.00307508
-0.155542
0.0644979
-0.00863544
-0.0189732
-0.000969542
0.0314958
-1.63992e-13
0.10617
0.0111449
0.350322
0.0707285
0.0015641
-0.00828976
0.221204
-0.23272
0.0746749
0.0631426
0.0739902
0.0242072
-0.0228749
0.222758
0.0648113
-0.195264
-0.122735
-0.0220227
0.0621059
-0.00616045
-0.0384311
0.0448727
0.0569638
-0.030502
0.0230514
-0.139607
-0.016072
0.089351
0.0352706
-0.00719414
0.0925319
-0.0410138
0.0668057
-0.0195404
-0.0121445
-0.0875333
0.116967
-0.00734404
-0.00855778
0.0717788
0.0765945
0.0112885
0.00365044
-0.09347
-0.0267819
-0.0595941
-0.0343174
0.055715
-0.0214555
-0.0161521
0.0268939
-0.0140228
0.00883193
-0.0465436
-0.0796451
-0.132142
-0.0742415
-0.162653
-5.38156e-15
-0.0520904
-0.0084332
0.0658909
-0.0824316
-0.0360851
0.0338977
0.0347076
-0.121485
0.0668138
0.0684731
-0.0879876
-0.029769
-0.118486
0.0187091
-0.0428557
-0.0478881
-0.00133005
-0.00803277
-0.00889088
0.0709352
-0.0166927
-0.00854904
-3.34196e-14
0.0144935
-0.0282108
0.0928479
0.183658
0.00659604
-0.00511724
0.0167914
-0.0320824
0.0119228
-0.0622817
-0.00684477
-0.0915936
0.0519637
0.0316036
0.00920708
-0.0419857
0.0429986
-0.0158317
-0.0987234
0.0829114
-0.101355
-0.0795537
0.0302859
0.0258044
0.0404166
-0.0441508
-0.00763789
0.0721807
-0.008766
0.035288
0.00820253
-0.0464014
0.00268282
-0.0345454
-0.0790513
0.0194457
-8.48437e-13
0.104214
0.0155625
0.00580314
0.01573
-0.0206682
-0.0299568
-0.00566864
0.0560885
-4.34725e-14
0.0943336
-0.0217271
0.108606
-0.0107745
-0.0477041
0.0972089
-0.0639321
0.136638
0.00761504
0.0930546
-0.032029
-0.0215065
0.0191811
0.0793441
0.0310258
-0.0122613
-0.060957
0.0475733
0.0567614
0.0141356
-0.0214742
-0.012389
-0.0127025
0.0485253
0.00621416
-0.0712569
-0.0642345
0.0114172
0.0335121
0.0367134
0.0315641
-0.0311574
0.164119
0.0138122
-0.0570407
-0.115675
0.06123
-0.105049
0.00706016
-0.0824956
0.138873
-0.0200731
-0.125608
0.18557
-0.258367
-0.0167001
-0.102348
-0.018937
0.0155597
-0.0776377
-0.141292
0.0056683
0.0804473
-0.0322818
0.334204
0.054875
-3.62904e-05
0.0766075
2.5917e-14
-0.0240118
-0.0864008
-0.103815
0.0120852
0.0765522
0.102601
0.0329614
0.108623
0.380883
0.0106638
0.0948575
-0.16525
-0.103825
0.0677816
-0.0275239
-0.0396256
0.0122706
0.0197344
-0.0740613
-0.000119926
-0.0760034
-0.00547494
-9.93005e-15
0.0149402
-0.0046031
-0.0991852
-0.203091
-0.0430574
0.045282
0.00987831
-0.112577
0.0280149
0.0791828
0.0468731
-0.0843123
0.0484751
-0.0398967
0.128248
0.0285347
0.0141409
-0.0331854
0.0395515
-0.221313
0.126782
0.0632602
-0.0472836
-0.0902369
0.0626142
-0.14854
0.0827079
-0.143211
-0.112761
-0.0334692
0.114739
0.137061
-0.0333672
0.0148296
-0.0390122
0.564142
7.13568e-13
0.0922113
0.0181676
-0.00887049
-0.2378
-0.135344
-0.174971
-0.115373
-0.093932
8.47657e-14
0.0234833
-0.0322808
0.339075
-0.133324
0.05663
-0.109747
0.0562468
-0.00748963
0.054596
-0.051547
-0.0428848
0.0507727
0.110367
0.0908268
-0.154131
-0.019249
-0.0652461
-0.0765974
-0.103666
-0.0179987
0.0191187
0.0158984
0.0227275
-0.0602663
-0.121966
0.286793
-0.166095
-0.0136515
-0.0621221
-5.94183e-06
-0.098709
-0.15561
-0.162937
-0.090279
-0.172168
0.131033
0.00894797
-0.0201857
0.228069
-0.0178126
0.154621
0.00339019
0.0266384
0.00387101
-0.00111072
0.00735374
0.037593
-0.0269968
-0.0281057
-0.00656549
-0.0324597
0.0641023
0.0134397
0.119832
0.0596563
0.00718303
-0.0112035
-0.00193702
4.8724e-14
0.0273679
0.136001
0.0152334
0.0101947
-0.157242
0.0275908
-0.358274
0.029492
0.207728
0.0072516
-0.113631
0.0289621
0.0207186
-0.0219233
0.194305
-0.00544077
0.00450289
-0.0910886
0.0110358
-0.116672
0.0284003
-0.0934351
1.39708e-13
0.0186906
-0.163008
0.0856091
-0.0205219
-0.0121584
-0.0218444
-0.0114483
-0.00638058
0.0463629
-0.00157447
-0.0282798
0.0470465
-0.0814838
0.015928
0.00561454
-0.00771594
0.0184579
0.0402642
-0.0406886
-0.0101575
0.0104889
-0.0464118
-0.0161145
-0.108739
0.0130656
-0.0107922
-0.0391996
0.0547371
-0.0055654
-0.0443512
-0.00349349
-0.0232664
-0.0399136
-0.0482609
-0.0998511
-0.0409806
1.67218e-12
-0.270278
-0.0156251
0.125631
0.00998653
-0.00965879
-0.0101908
0.043994
0.0384775
1.83314e-13
-0.107273
-0.0739878
0.105387
0.0327655
0.13731
0.0693854
-0.0366733
0.0327423
0.0149065
0.0198063
0.0846265
-0.140495
0.00776162
0.0452425
-0.151461
0.0172485
0.00470146
0.0384323
0.0261927
-0.0209966
-0.00847616
-0.0191299
-0.0384959
-0.0104377
0.026362
0.0200173
0.0933292
0.0385165
0.0657232
0.0184535
-0.0836062
0.0137721
-0.00448001
0.184288
0.0780478
0.0844292
-0.0168877
0.0211499
-0.0205741
-0.0102077
-0.0224321
-0.0153649
-0.0346871
0.00848985
0.0192328
-0.0107665
0.0103442
-0.0138387
0.0261147
-0.0122181
-0.0146304
0.0416083
-0.0219839
-0.0131183
-0.00894149
0.0432279
0.0100072
0.0155387
8.61328e-15
-0.01703
-0.015572
0.00212427
-0.015059
-0.393961
0.0295526
-0.0144849
-0.0248304
-0.00103853
-0.0284937
-0.0304554
-0.0246053
-0.00146099
-0.0264759
-0.00422358
-0.0499067
-0.00583393
0.589504
-0.0174568
-0.0544067
-0.0526555
0.114929
-9.30476e-15
-0.0444017
0.0224938
-0.0290717
-0.0803354
0.0527692
0.00332058
-0.00424001
-0.0396386
0.0301271
-0.148941
-0.00676166
0.0112637
0.0315499
-0.0261762
-0.00597379
0.442698
0.0167898
-0.0318721
-0.0122304
0.0220222
-0.0450275
0.0691169
-0.00744081
-0.00852655
-0.01663
-0.00623825
0.0240087
-0.00671226
-0.053236
0.0398178
-0.0144614
0.00849528
0.0609441
-0.0689924
-0.0720196
-0.0143347
-1.33097e-12
-0.0364338
-0.0593754
0.0134985
0.00661231
-0.0126855
-0.0328459
0.049842
0.0106487
-1.33432e-13
-0.0451055
-0.0175947
0.0463507
-0.00667566
0.116104
-0.000333305
0.0138577
0.0303517
-0.0256671
0.013974
-0.0187172
-0.00592013
0.0396273
-0.00427742
0.0284105
-0.0321549
-0.0949382
-0.0219625
-0.00758699
-0.0259794
0.0544
-0.0225556
-0.0261052
0.0222359
0.0444524
0.010805
0.015769
-0.0465238
-0.0170043
-0.00849398
0.0474998
-0.00696361
0.0232157
0.0143102
0.00964921
-0.0256352
0.0449434
-0.0148527
-0.00737148
0.0523127
0.0919617
0.0979482
-0.0646042
0.00834156
-0.0368917
0.0562157
-0.0908824
0.0177719
0.00514291
0.0408135
-0.0618607
-0.0692185
0.294587
-0.0340255
0.00665101
0.0731345
0.00963155
-0.0105378
1.49489e-14
-0.0281108
0.0184638
-0.0509835
0.014661
-0.00794353
-0.0482528
0.0433119
0.0554904
0.0836597
-0.0234373
0.100182
-0.121329
0.0640283
0.023927
-0.079949
-0.0296236
-0.00139262
0.00815726
-0.00690928
-0.0242443
-0.0462217
-0.00709197
-1.28844e-14
-0.00684755
-0.0355659
-0.124694
-0.0278771
0.00408883
0.0187942
-0.0108974
-0.0724192
0.0238821
-0.0118438
0.0574705
0.0237612
-0.0117172
0.0123235
0.209383
0.00587655
-0.0148359
0.0106578
-0.0181829
-0.0317314
-0.0270909
-0.0481149
0.0136266
-0.0111955
0.0396949
0.0316305
-0.0685747
-0.0404885
-0.0171564
0.0153836
0.166651
-0.0223284
0.0196909
0.0772198
-0.0935308
0.702048
-3.89792e-13
0.0392936
-0.0110002
-0.0150771
-0.0103793
-0.0129132
-0.0796898
0.0077076
-0.0333903
1.94806e-14
-0.0984631
0.00315458
-0.26884
0.0184816
-0.0217983
-0.0738493
0.172957
0.187095
0.0129244
-0.0126302
0.0287731
0.0933407
0.134829
-0.159775
0.0270231
-0.0258774
0.00546724
-0.0859679
0.0311947
-0.00957228
-0.0391933
-0.0753908
0.0115439
-0.031934
-0.0358947
-0.0271616
-0.0119014
0.145915
0.216663
-0.00998911
-0.153792
0.0527856
-0.0130946
-0.0222146
-0.0966868
0.0353547
0.0753157
0.0442441
-0.0148388
-0.0554512
-0.12888
-0.0560362
-0.0253528
-0.0507281
0.112789
0.0349682
0.0121253
-0.0188227
0.0266215
0.0026393
-0.12852
-0.0157368
-0.0834599
-0.0228005
-0.0905729
0.0840314
-0.0817949
-0.0300458
-8.19469e-16
0.0878712
-0.0197244
-0.0361236
-0.0153734
0.0166937
-0.0248135
0.0384198
-0.047603
0.0529349
-0.00906344
-0.0724754
-0.0231032
0.0298103
0.0405174
-0.0313584
-0.0188722
0.00735847
0.0156467
0.0509647
0.000337684
0.0424326
-0.0393308
-5.2287e-14
0.0076476
0.136681
-0.0213772
-0.0459703
0.0609252
-0.103048
0.0348237
-0.0572903
-0.0511805
0.0037861
-0.0353727
0.0304509
0.0581362
0.00625265
-0.0412797
-0.022553
0.0184339
0.104738
0.0750823
-0.0112369
-0.00839447
0.048382
0.0198619
-0.0200228
-0.0889311
0.116262
-0.00594584
-0.0240412
-0.0269304
-0.0106613
0.0605866
0.0993011
0.0599283
-0.00895128
-0.00724268
-0.0234507
9.17392e-13
0.06572
0.0640126
0.117763
-0.127822
0.0433359
0.0426813
0.0136174
0.00139505
1.23438e-13
0.0184841
-0.00194421
0.238462
-0.108666
0.0350732
0.0423859
-0.0598084
0.136765
-0.0884901
-0.0729999
-0.0543816
-0.0834541
-0.0154668
-0.271243
0.0105315
0.0951099
0.0894233
-0.0240899
-0.0502467
0.00449556
0.0872558
0.0342299
0.056864
-0.0344505
0.0196665
-0.0826807
0.020806
-0.0298745
-0.151211
0.0144884
0.0501635
-0.00937993
0.0679425
0.00199361
-0.088636
0.0125598
0.00630854
-0.136489
-0.0628187
0.00961138
-0.063077
-0.0239256
-0.11429
-0.0681094
-0.0476348
-0.130931
0.0353294
-0.00414443
0.0581613
-0.0185909
-0.0727774
0.0250387
-0.0169311
0.0139048
0.0101452
-0.0338202
-0.00316777
-0.0440465
-1.12014e-14
0.00680248
-0.0660704
0.0386415
0.0119663
0.133329
-0.0527645
0.171059
-0.067456
-0.000257081
0.0401037
-0.0579637
-0.0208845
-0.00783947
-0.0011429
-0.0733051
-0.0800346
-0.00849206
-0.280749
-0.0152492
-0.187356
0.00621422
0.169527
1.4942e-14
-0.00079939
-0.00381267
-0.0527316
-0.0667965
0.102788
-0.0146914
-0.0681158
0.00151687
0.018919
-0.333949
0.00839686
-0.0134946
-0.143605
-0.0500416
-0.00176284
-0.00209486
0.0217775
-0.0210398
-0.0756802
-0.00877856
0.0227761
-0.065944
-0.0136706
0.0452947
-0.0217008
-0.0604541
0.047034
-0.053599
-0.00352418
0.0114164
-0.0452425
-0.090942
-0.0218639
-0.0164783
-0.0170375
-0.0785229
-1.28102e-12
-0.405791
-0.00346873
-0.0277057
-0.029481
0.0105212
0.024115
0.0155345
-0.0165271
-1.20331e-13
0.0392914
0.0343291
0.0556423
-0.0251651
-0.0454808
-0.0234489
0.0358039
-0.0290383
0.00897859
-0.00101113
-0.0221985
-0.0497425
0.0258488
-0.0262109
-0.184833
0.0321146
0.0030882
0.0203262
0.022537
0.061687
0.0253068
0.0156938
0.397423
-0.0321439
-0.0808535
0.00203592
-0.0523811
0.0849044
0.0179082
0.0508161
0.0825883
0.0144628
0.0347373
0.0435699
-0.0112227
-0.0397916
0.0106582
-0.0264095
-0.00251567
0.0327709
0.0391538
0.00569744
-0.0183656
-0.0196766
0.00484087
0.290524
0.0144743
-0.0112631
0.0229858
-0.00714548
-0.140956
0.00572039
-0.0251417
-0.0342874
-0.059124
0.0151137
0.0173331
0.0299963
2.4834e-15
0.0327221
-0.0354038
0.0460109
-0.00204431
0.21606
0.0146048
-0.0315096
-0.0420474
-0.101411
-0.0282718
-0.00328681
-0.0234112
-0.0550826
0.046394
-0.095703
0.05836
0.00149946
-0.313331
-0.0271205
-0.544081
0.000296252
0.320153
-5.1342e-14
-0.00571556
0.000877582
0.0240797
-0.0378324
-0.0094206
-0.0188736
-0.0894538
0.00523425
-0.00419977
0.0782294
0.0331429
0.0532978
0.035506
-0.0250471
-0.0103088
0.355859
-0.0438163
-0.0340167
-0.0100686
-0.0543169
0.00488033
-0.036
0.00551571
0.0111118
-0.00652582
-0.0242416
-0.013147
-0.0163079
-0.0174193
-0.00376521
-0.011517
-0.134919
-0.0194813
-0.133178
0.0690154
-0.0615681
-1.58402e-13
-0.0635528
-0.000156838
-0.0168694
0.000275781
-0.0109248
0.0129501
0.0245979
-0.0307966
-1.43501e-13
0.0228737
-0.0181045
-0.0067094
-0.0207898
0.00660969
-0.0419049
0.00729208
-0.0051637
-0.0351766
0.0193041
0.0010617
0.127746
-0.0636679
-0.0316748
0.0188421
0.0305325
-0.067147
0.00606324
0.0457375
0.0268325
-0.120014
0.00316068
0.0173717
-0.000373143
-0.0129923
-0.0362684
0.0116344
-0.0635228
-0.0340213
0.00467012
0.0477719
-0.00867871
0.0184924
-0.0130796
-0.034126
-0.0319207
-0.284235
0.00885208
0.0847893
-0.0484677
0.0169723
-0.0145502
0.0117454
0.145824
-0.0296233
0.0702027
0.0357451
-0.00321306
0.0177742
0.00411811
0.0477396
-0.000456458
-0.0187932
0.069823
0.253525
0.151084
0.15425
0.15473
-1.18999e-14
0.0612847
-0.0565062
0.0101356
0.0324899
0.0319262
-0.034057
0.049442
0.14458
-0.0325363
-0.00398067
-0.0456572
0.0239269
0.0930583
0.0158014
0.0328288
-0.0610638
0.0122567
0.0516462
0.000400986
0.0069054
-0.0351645
0.0545175
-5.8348e-17
0.0126909
-0.0132282
0.00316128
-0.125701
0.0171033
0.0368954
0.0584095
0.0434952
-0.0016129
0.0533137
0.0204169
-0.0131915
-0.0306505
-0.0181424
0.000910528
0.0726521
0.0129176
-0.050549
-0.0134817
-0.0285005
0.153007
0.124623
-0.0206427
-0.00697755
-0.0220923
-0.017909
0.0115585
-0.0115162
-0.00551441
-0.0308128
-0.0258964
0.069833
-0.00997822
-0.00589023
-0.00946707
-0.205009
1.10767e-12
-0.0387082
-0.0231167
-0.0629698
0.0423159
-0.0241101
-0.0489824
0.0123906
-0.0278049
3.05913e-14
-0.0300917
0.0476246
-0.0641726
0.0480105
-0.0653239
0.0033008
0.0816552
-0.175914
-0.0107098
-0.0308977
0.0204688
-0.0344493
-0.0489511
0.0563759
0.0439049
-0.0564454
-0.0334375
0.0110662
-0.0937112
-0.0109378
0.0766582
-0.00119508
-0.0111375
0.0127626
-0.0124806
0.246523
0.0249321
0.02025
0.0794297
-0.00378072
-0.100335
0.0218625
-0.185429
0.0291045
0.0668899
0.219071
-0.0690859
-0.0129959
0.096508
0.0606831
0.333785
0.0533817
-0.108844
-0.0093832
-0.0326467
-0.0629447
-0.472505
0.0426124
0.0389011
-0.0187264
0.0696468
0.196326
-0.0248395
-0.195537
-0.0776513
-0.156897
-0.0905309
-0.108619
1.0859e-14
0.172075
0.00603409
-0.0606986
0.0365832
-0.00328185
-0.00733746
0.0143378
-0.0428242
-0.0759209
0.0365146
0.0934987
-0.0546697
-0.11304
-0.032577
-0.0347518
0.0339231
0.0101058
-0.0085905
-0.0197781
0.0343311
-0.00519383
-0.0101147
-1.90206e-14
0.00726418
-0.230191
-0.0795528
0.0491332
-0.0519341
0.100628
-0.106724
0.00968593
0.173769
0.0393352
0.0689938
-0.0546254
0.124797
-0.0693709
-0.0474187
0.0863314
-0.0147699
-0.0600724
0.0277829
-0.0808266
-0.0824099
-0.117139
-0.00366696
-0.28786
-0.114032
-0.045902
-0.168296
0.0339458
-0.0114773
0.0439916
-0.00320036
0.0365307
-0.202904
0.0747402
-0.166251
0.0243085
-5.08617e-13
-0.082433
0.0259618
0.0243924
-0.00743448
-0.0736855
-0.0194373
0.111972
-0.0664548
-6.16852e-15
0.0449243
-0.15852
0.360317
0.00500727
0.0468744
0.071012
-0.07872
-0.00122763
-0.126444
0.115784
-0.0997665
0.170842
-0.121592
-0.127542
0.0489306
-0.00718316
0.15183
-0.000654009
0.00789759
-0.25887
-0.249145
0.044969
0.0768085
0.100931
-0.030658
-0.024856
0.0567583
0.0196219
0.113587
-0.000826878
-0.0942661
-0.0248208
0.046833
-0.229947
-0.106563
-0.0407456
0.0372932
-0.0631724
-0.127793
-0.0642977
0.0495716
-0.0943302
-0.0331463
-0.257435
-0.00270262
0.000110501
-0.0263335
-0.0101401
-0.00058746
-0.157623
-0.0304291
0.0957042
-0.122936
-0.0406342
-0.0749342
-0.137105
-0.0561679
-0.0327719
-1.06192e-14
-0.00578154
0.0348602
-0.0835645
-0.0232665
-0.019975
0.15804
0.0271233
-0.417153
-0.0796878
-0.0235621
-0.0419231
0.178244
0.0282881
-0.0374221
-0.00389585
-0.0309452
-0.0105689
-0.0056537
-0.140334
-0.0071226
-0.0296155
0.0604105
-1.55671e-14
0.0273009
0.153997
-0.0880964
-0.0405191
0.0682767
-0.0087985
0.0442913
0.131323
-0.0496734
-0.0122806
0.0178761
-0.0718626
-0.0419459
0.0795334
-0.108167
-0.0436327
-0.00529771
0.0512704
-0.0174086
0.0236221
-0.00938489
-0.0529557
-0.00896175
0.000749673
0.0199961
-0.00869869
0.0444388
0.00121116
0.124603
0.00349298
-0.0726491
-0.0265436
0.0213779
0.0796294
0.00381745
0.235715
-4.87261e-13
-0.0492146
-0.0100194
0.104784
0.0214583
0.112301
0.147606
-0.0771987
0.0229399
7.67547e-16
-0.007112
0.0759606
-0.0724562
0.0257493
-0.116866
-0.10753
0.279819
-0.203064
0.019966
-0.000135521
-0.12488
-0.102778
-0.00511897
0.730593
-0.0437709
0.0732576
0.0537918
-0.0482283
-0.0245428
-0.0498268
0.00952641
0.0100039
-0.0189096
-0.0156863
-0.0780813
-0.00227983
0.00656799
-0.229477
0.18835
-0.0206126
-0.110718
-0.0437705
0.326155
-0.0247783
0.0674692
0.00945402
0.0572776
0.0624358
-0.214009
0.0789464
0.2209
-0.0242893
0.0337268
-0.0573509
-0.00361173
0.0236433
-0.0822079
0.0261887
0.0336381
-0.0154994
0.191832
-0.00841692
-0.00629224
-0.141891
-0.0971977
-0.116356
0.0572759
-0.106062
-1.08532e-14
0.0429974
-0.0447451
-0.033867
-0.15416
0.0388573
-0.0235898
0.0474685
-0.0311665
-0.0619999
0.0153953
-0.0645627
-0.0384279
-0.0334012
0.0415784
-0.0781386
0.0177199
0.00491545
0.234066
0.0174889
0.000679032
-0.0173066
-0.0028465
-8.18552e-14
0.01583
-0.206053
0.113618
-0.0878763
-0.024599
0.0301047
0.178808
0.0135321
0.0311679
0.116444
-0.0210122
-0.0508822
-0.114531
-0.0706954
0.0166291
-0.136969
0.00925878
0.00462064
-0.00910917
0.0117886
-0.156392
0.0662783
0.00806161
0.00872552
0.0856045
0.00373
-0.0292878
0.00864541
-0.0749691
0.0334432
0.0672503
0.149079
-0.00220066
-0.0829683
-0.0815286
0.1366
-2.34214e-12
-0.082023
0.0111071
-0.00456351
-0.0163152
-0.0382182
-0.0052947
-0.0789029
-0.0318013
-2.91516e-13
0.0933982
0.0132665
0.164015
0.0330276
-0.0776854
0.0288823
-0.128815
0.0606126
-0.000217535
0.113311
-0.119017
-0.00187373
0.0241906
-0.177643
-0.0334264
0.0168931
0.143561
0.0223435
-0.0224221
0.0609692
0.0825821
-0.0187539
-0.0495416
0.00811958
-0.0738592
-0.108027
-0.0704441
-0.011521
0.0152
0.018857
0.0519713
0.0142951
0.0287178
0.0446918
-0.0929096
-0.141192
-0.126584
-0.0292469
0.0418026
-0.0316386
0.0279641
-0.00464324
0.0108179
0.0601426
-0.031779
0.0791079
-0.0126902
0.0167728
0.0453642
-0.0060031
0.0464768
0.0212262
-0.00209737
0.0293244
0.0205526
-0.0455273
0.0633336
0.01788
1.07135e-14
0.00756628
0.0841579
0.0283685
0.0306158
-0.119159
-0.0315773
0.120552
0.0402706
-0.120966
0.0181681
-0.0339948
0.0131746
0.0100658
-0.00546116
-0.0234287
0.0238702
-0.00265753
-0.137555
-0.0228147
0.017299
-0.0647734
-0.0445423
-1.63152e-15
-0.0567822
-0.0163049
-0.0784041
-0.0311992
0.0150515
0.0653708
-0.120274
0.0331582
0.00121325
0.0999553
0.0154545
-0.018088
-0.0288654
-0.0657815
-0.0163378
0.062281
-0.0259842
0.00102248
-0.0380516
-0.0107081
-0.0156568
-0.0932991
0.00196989
-0.0667831
-0.0449707
0.0532008
0.00622278
0.0314171
-0.0418653
0.0254172
0.0615244
-0.0429926
-0.0206398
0.057439
0.0514216
0.0336325
-1.0581e-13
-0.175266
-0.00714366
-0.00725219
-0.0554673
0.00625709
0.00554139
-0.0373444
0.0524888
-3.36132e-14
0.130902
-0.0416097
-0.136188
-0.041696
-1.14025
0.0397151
-0.0703185
0.0390869
0.0382935
-0.0505215
-0.0418683
0.0219375
0.00862963
-0.0477602
0.0196861
-0.0389284
-0.107848
-0.0319022
-0.0328359
0.0708119
0.602716
-0.00637876
-0.028062
-0.00969111
-0.0136097
0.0140968
-0.0179313
-0.0318212
0.0100259
-0.00108733
-0.0458994
-0.00774055
-0.0389235
-0.0462889
-0.0143228
0.0539622
0.0073309
-0.0167607
0.00221198
-0.0955147
0.0741882
0.0774309
0.00328536
-0.159072
0.0713599
0.0513544
0.142604
0.013059
-0.01486
0.00610082
0.00861611
0.0105612
-0.17458
0.0361153
-0.149844
0.324095
-0.0356911
-3.41957e-05
5.12934e-16
-0.0302216
-0.00701954
0.0295416
0.0109086
-0.0233734
-0.030736
0.00487062
-0.269887
0.131186
-0.00666895
-0.049338
-0.127897
0.0665915
0.0106982
0.0270347
-0.00287684
0.00437223
-0.0126423
0.103346
-0.0580077
0.0866216
-0.0312973
3.98365e-14
0.00534617
-0.123954
-0.0509784
-0.028704
-0.00156479
-0.00509572
0.00794975
-0.17861
-0.00531854
0.0103324
-0.00352878
-0.0135545
-0.0108814
-0.0154691
-0.263576
-0.0133234
-0.00158372
0.0733664
0.00703366
-0.00813862
-0.00640736
0.0431977
0.012837
0.00826801
-0.121793
0.0670356
0.0149781
0.00502827
-0.0134385
-0.047928
0.630918
0.0225458
0.0123635
0.0579451
0.088255
0.195901
8.4484e-13
0.0321313
-0.0128638
0.0954613
-0.12012
0.0909404
0.0470637
-0.0129469
-0.0189482
6.97507e-14
-0.01077
0.0257958
-0.0783189
-0.0706471
0.0155652
0.0198935
-0.459773
0.129962
0.0150141
-0.128247
-0.11328
-0.1193
0.00653414
-0.506636
0.0651984
0.0854574
-0.0328429
-0.0222067
-0.174256
0.00773712
0.00312959
-0.0161246
0.00125109
-0.0412944
-0.00832489
-0.130089
0.031031
0.243393
-0.239245
-0.00688368
0.10425
-0.0505168
0.205692
0.039819
-0.229269
-0.0150043
0.0483503
0.0478746
0.0455473
-0.0707928
-0.0574768
0.0156773
0.029524
0.114487
0.022247
-0.0803363
0.114134
0.0344549
0.0199204
-0.0059095
-0.0431045
-0.0178268
0.118383
0.00645322
0.142773
-0.214402
0.0182039
0.0875972
7.30838e-15
-0.169554
0.0332147
0.223819
0.0264481
-0.00357336
0.0199893
0.0297436
0.103717
0.0267949
0.00737993
-0.08233
-0.0984814
-0.0293525
0.019057
0.00163066
0.0253429
0.00844472
0.0117348
-0.0123188
0.0121736
-0.0589941
0.0126177
2.17608e-14
0.00168714
-0.0705425
0.172484
0.123326
-0.0122378
0.0328849
-0.00858662
-0.0918386
-0.0117034
0.00388223
-0.0504332
0.0518046
0.0790155
-0.0234876
0.149063
0.0109635
-0.0134556
-0.101378
0.0344814
0.107853
0.0863217
0.0167443
0.0053328
0.055546
0.220089
0.0143797
0.0330897
0.0859763
-0.0480173
-0.0415188
0.0405508
0.00820024
-0.0362843
-0.0371807
0.0215259
-0.157054
1.02139e-13
0.0425017
0.0310021
-0.0765967
-0.0226917
-0.0543317
-0.097515
-0.080991
0.111353
-6.10945e-14
-0.00893894
0.039418
0.0736864
-0.0155301
-0.096735
0.0938992
0.0200391
-0.0399688
0.0371286
-0.00596391
-0.0879672
0.00139763
0.0135617
-0.0549427
-0.0589151
-0.0796634
-0.0529927
0.125063
-0.0579716
-0.0292349
-0.00641638
-0.0510469
0.0359385
-0.00214433
-0.102792
0.138337
-0.0105342
5.72945e-05
-0.110382
0.0143263
0.00776949
-0.0442278
-0.14789
0.0618011
-0.124588
0.0716131
-0.0830996
0.0168298
-0.0811948
0.111432
-0.0890457
-0.0210147
0.0091543
-0.0495417
0.164914
-0.0760051
0.106949
-0.00993719
0.0338987
0.0305904
-0.00874098
-0.174383
-0.0392526
-0.0473951
-0.00167606
-0.102003
-0.164573
-0.11418
-3.11307e-14
-0.0134299
-0.160126
0.0388684
-0.0129818
-0.0422394
-0.150679
0.103104
-0.0110906
0.200687
0.00241079
0.0164897
-0.0926431
0.0111527
0.114611
-0.0329685
-0.0365223
0.000551709
-0.10706
-0.00256355
0.0257624
0.031872
0.01818
-1.50022e-14
-0.00911992
0.327836
0.0685176
-0.00554357
0.128871
-0.0612507
0.027481
-0.0192653
-0.0751453
-0.0652854
0.0271039
0.0113359
0.00255152
-0.032442
-0.0670839
0.0445554
0.045001
0.0510065
0.0670486
0.0799625
-0.0895078
-0.0793252
0.0207416
0.109779
-0.0487958
0.165278
-0.0279968
-0.0856036
-0.053974
-0.022111
0.401179
0.0409788
0.0789139
-0.0454232
-0.0407082
-0.0209409
3.72123e-14
0.141905
0.0408469
0.0688898
-0.147734
0.00167139
-0.0252424
-0.00430919
0.0931071
1.04357e-13
-0.0317077
0.0910794
0.0323972
-0.147931
0.0698416
-0.218769
-0.143084
0.216991
0.136971
0.0480415
-0.124278
-0.0193703
0.165331
0.0371911
-0.0275816
0.0745213
0.0770609
0.126902
0.10116
-0.220543
0.0921855
0.00246458
0.0185932
-0.0881585
-0.0455129
-0.061689
-0.0457436
-0.121659
0.109856
-0.00095287
0.301131
0.0119136
0.068823
0.0358416
-0.0760256
-0.0804252
-0.10378
0.114818
-0.0103505
-0.174452
-0.114192
-0.037643
-0.0297257
0.0368719
0.07012
0.126685
0.0612952
-0.0314258
0.0341121
0.018544
-0.0960825
-0.00337094
-0.0248602
0.024381
0.0160647
0.201308
-0.0130279
0.0850563
2.53493e-14
0.0236149
0.0123581
-0.0201494
0.0267116
0.0852958
0.00174496
-0.00382381
0.0565418
0.182408
0.0129403
0.00246544
-0.0536192
0.0741164
-0.0261146
0.026136
-0.0185718
0.00293708
0.061188
-0.00470962
-0.01888
0.032292
-0.0271127
8.75601e-15
-0.0166906
0.142996
-0.0970335
-0.175829
-0.0264309
-0.0438946
-0.0566104
-0.0679226
-0.00381061
-0.00645839
-0.0160066
0.0199508
0.0185107
-0.00475425
-0.0189026
0.0365643
-0.0467296
0.0555595
0.0971808
-0.0559339
0.100583
0.118138
-0.00496298
-0.054925
-0.0662169
0.0771139
-0.0147407
-0.0291156
-0.0360612
0.0299135
0.0572786
0.10591
0.0502918
0.0488656
0.0623821
-0.0823324
-1.32055e-13
0.0541199
-0.0331072
0.0645565
-0.0942112
0.0691139
0.0431144
-0.0372625
-0.0342337
-1.77633e-13
-0.0440693
-0.0546585
0.0538277
-0.0886143
0.0664518
-0.0879804
-0.0962101
0.00850213
-0.0447087
-0.206548
-0.0610566
-0.0378834
-0.0206768
-0.191434
-0.0325619
0.0478374
0.111183
-0.0445887
-0.163994
-0.00756591
0.0701079
-0.00785759
0.0482867
-0.0317587
-0.0700495
0.0236103
0.0896084
-0.0347015
-0.060742
-0.0160627
0.0442877
-0.0283408
-0.055195
-0.0581533
-0.123702
0.120122
-0.0328875
0.0834935
-0.00784216
0.0181519
-0.0033756
-0.000375159
-0.0635313
-0.0188591
-0.0985674
-0.0218617
-0.0387574
-0.151073
-0.0627546
0.00178293
0.0280276
0.00433864
-0.0152747
0.0216625
0.0172331
0.0159376
0.0943139
-0.00615034
-9.85729e-15
-0.00272201
0.00858248
8.29549e-06
-0.00616905
-0.0320143
0.00196289
-0.0371549
-0.0114265
0.0489176
0.0044123
0.0526981
0.00435145
-0.0181213
0.0332395
-0.0749568
-0.0192665
0.119737
-0.000988129
-0.000848585
-0.0259561
-0.0790657
-0.00941135
5.31343e-16
0.184863
0.0120318
-0.0411952
0.0221522
0.0188692
-0.0401586
0.0207815
0.0174367
0.0132021
-0.0942558
-0.00506427
-0.0102224
0.001237
-0.177386
-0.0277422
0.0397701
0.00165313
0.0238681
-0.0233209
0.0883979
-0.0316189
-0.0972022
0.152381
-0.0487435
-0.0137437
0.0525879
0.099439
-0.0303128
-0.217994
-0.000729521
0.0296533
0.198576
0.0206973
