0.468498
-0.256942
-0.657915
-0.838041
-2.35057
-1.70592
-0.943652
-1.58355
-0.56597
0.600467
1.19899
0.786382
1.25591
2.55696
1.62196
0.867333
1.59571
0.855686
-1.14273
-1.43388
-0.566385
-1.52041
-1.96617
-0.897797
-0.684689
-0.969295
-0.399355
0.807553
-0.0517558
-0.855972
2.53605
2.12645
0.235851
1.67092
1.714
0.678165
-1.59898
-2.22824
-1.41434
-1.03779
-1.25565
-0.555159
0.209415
0.376798
0.160581
-1.20463
-1.85663
-1.13465
-1.58592
-2.10134
-1.15526
-0.732508
-0.833565
-0.263594
-0.0993782
-1.37315
-1.17472
2.3587
1.34163
-0.201805
2.12544
1.40775
-0.100721
0.716775
-1.48699
0.355466
1.85124
-2.345
-0.172961
1.51517
-0.988439
-0.557857
0.621816
1.38788
1.19109
1.08141
1.96807
1.39229
0.508136
0.675711
0.412683
-0.947434
-1.37831
-0.793202
-1.19803
-1.72066
-1.26486
-0.511132
-0.879134
-0.534846
0.653862
-0.392081
-1.48133
1.15291
-1.112
-2.37342
0.616502
-1.0125
-1.42997
1.22684
1.51485
0.465631
1.46371
2.34439
1.12846
0.62875
1.13667
0.548313
0.767591
1.4438
0.878169
1.30153
1.93496
0.977294
0.804931
0.985457
0.26691
1.12438
1.64278
0.687951
1.9465
2.88126
1.28169
1.01803
1.49027
0.607794
0.867134
1.59562
0.894505
1.69906
2.45945
1.22403
1.04082
1.21985
0.420192
1.1152
1.48599
0.630599
1.33462
2.28828
1.19858
0.527743
1.08601
0.524403
-1.00326
-1.37437
-0.866108
-1.17113
-1.61581
-1.08614
-0.483952
-0.933739
-0.516332
-1.21733
-1.28835
0.105221
-1.00598
-2.29124
-1.23472
0.0887023
-1.14857
-1.52028
1.09034
1.68734
0.941183
1.68717
2.50556
1.32301
0.778411
1.14478
0.587577
0.85788
1.43346
0.78569
1.33527
2.09609
1.06547
0.687846
1.13458
0.557707
-1.2376
-2.2801
-0.953446
1.9853
1.37459
-0.762497
-0.93
0.292777
1.20985
0.966026
1.5428
0.709518
1.48851
2.23129
1.02975
0.741557
0.992603
0.415039
0.975742
1.52797
0.765406
1.3834
2.23599
0.90597
0.519426
0.945423
0.244391
0.913185
1.27678
0.549583
1.21672
1.85954
0.917905
0.560181
0.93468
0.419217
1.92234
-1.29346
-0.490582
1.43279
0.979258
-1.22544
-0.367783
1.60448
-0.444558
-0.815329
-1.58696
-0.866294
-1.41259
-2.13801
-1.07352
-0.785811
-0.981777
-0.378205
0.573226
0.758433
0.0997387
0.924494
1.00756
0.190267
0.601483
0.702398
0.281476
-0.88589
-1.26298
-0.371189
-1.38282
-1.89844
-0.546787
-1.04465
-1.41753
-0.50377
0.986016
1.42984
0.629331
1.37564
2.47848
1.46095
0.577898
1.30269
0.936087
0.0788529
1.405
1.37112
1.26357
2.07912
1.24822
1.12743
1.0088
-0.318452
0.233761
0.907268
-1.38462
0.157669
2.02178
-2.22307
-0.163082
1.47356
-1.30935
0.829863
1.27544
0.676088
1.52199
2.11135
0.856222
0.788651
1.12682
0.491289
-0.534308
-1.20502
-0.759587
-1.25211
-1.97552
-1.07176
-0.782617
-1.04073
-0.44589
-0.727291
-1.13654
-0.566435
-1.1138
-1.85113
-0.949751
-0.587966
-1.07624
-0.56516
1.26102
1.36122
0.457763
1.62062
1.76289
0.422715
0.667586
0.746219
0.162542
0.982168
1.14279
0.329836
1.45523
2.10978
1.05281
0.686334
1.23099
0.732454
0.871997
1.39088
0.677664
1.46291
2.17669
0.990848
0.802179
1.1056
0.45233
1.04206
1.51774
0.809978
1.23083
1.97763
1.18506
0.470586
0.869621
0.573988
0.361105
1.46047
1.12246
1.29929
2.09681
1.10623
1.04094
1.10135
0.194526
0.844581
1.58252
0.846423
1.38519
2.62758
1.42403
0.855562
1.35301
0.727616
1.16271
1.6728
0.895702
1.55567
2.16218
1.31703
0.859772
1.17685
0.647751
0.688465
1.53192
0.995359
1.36503
2.23684
1.25839
0.900958
1.1326
0.430118
-0.991015
-1.40683
-0.716806
-1.35136
-1.95509
-1.13468
-0.575162
-0.870664
-0.536136
-0.882262
-1.33965
-0.81604
-1.16373
-2.02589
-1.34836
-0.513455
-1.139
-0.847424
1.49297
1.84593
0.688212
1.47003
1.61102
0.399214
0.339862
0.213801
-0.019827
-1.15255
-1.68369
-0.79601
-1.67375
-2.22429
-1.19919
-0.748598
-1.1104
-0.520105
1.45841
-0.138522
-1.1994
0.627741
2.04451
1.33311
-1.70623
-1.13982
0.637564
-0.84257
-1.25314
-0.697445
-1.25055
-1.96647
-1.10667
-0.681301
-1.16181
-0.618363
-0.087093
-1.73872
-1.77199
2.12635
0.474125
-1.1853
1.69625
1.00861
-0.0401582
-0.837512
-1.40938
-0.732697
-1.28692
-2.26704
-1.10514
-0.793761
-1.0832
-0.436133
0.995001
1.20892
0.608342
1.21447
1.36641
0.734109
0.562285
0.704202
0.447884
-0.77623
-1.19738
-0.758178
-1.29929
-1.85239
-1.23248
-0.660774
-0.999595
-0.611114
1.06736
1.64916
0.794967
1.44282
2.11282
0.952407
0.693523
0.907911
0.401502
-1.25747
-1.53012
-0.680107
-1.76837
-2.30706
-1.00433
-0.855038
-1.09904
-0.496915
1.16728
1.61197
0.857062
1.69685
2.10348
1.07493
0.765923
0.875417
0.454735
1.86266
2.36666
0.972917
1.74924
1.8575
0.702538
0.45935
0.429629
0.263251
0.530854
2.03807
2.06588
-0.397734
1.30822
1.51848
-0.630063
-0.639018
-0.235397
0.678497
-1.27347
0.825667
0.6643
-2.14198
1.73612
0.0865599
-1.16948
1.2442
-0.988604
-1.48485
-0.746368
-1.56725
-2.23612
-0.973148
-0.797428
-0.985295
-0.419153
-1.55319
-0.619581
0.771879
0.574608
1.48539
1.46203
0.959839
1.82984
1.26659
-0.607474
-1.24262
-0.947534
-0.743326
-1.61801
-1.42337
-0.397917
-0.692738
-0.544323
-1.03619
-1.28332
-0.544855
-1.3449
-1.68849
-0.820635
-0.596533
-0.86603
-0.585498
2.73758
0.988909
-1.40321
1.36535
-0.806515
-0.610642
-0.501921
-1.08639
0.378888
0.879949
1.54072
0.741981
1.37453
2.1766
1.12017
0.725507
1.12884
0.63996
-1.20009
-1.45468
-0.677433
-1.44695
-1.83892
-0.8738
-0.68841
-0.833613
-0.476053
2.67766
2.51288
0.179786
1.37631
0.178672
-1.57635
-0.407216
-1.33192
-0.966975
-0.932256
-1.45979
-0.675398
-1.49336
-2.33947
-1.11161
-0.746417
-1.18792
-0.522763
-0.958244
-1.49172
-0.595753
-1.4714
-2.47007
-1.14401
-0.719897
-1.16197
-0.614343
1.2137
0.956454
-0.0624574
1.78086
1.9978
0.469551
1.01401
1.52111
0.680034
-0.650277
-1.43651
-0.728237
-1.00344
-2.14902
-1.24267
-0.362832
-0.84584
-0.596132
1.08093
1.53063
0.647683
1.36057
2.32302
1.12015
0.537553
1.17763
0.649631
1.82442
0.79295
-0.0191305
1.27819
-1.13411
-1.80429
0.336938
-1.54819
-1.07666
-0.922533
-1.67433
-0.90874
-1.55602
-2.52266
-1.26636
-0.851776
-1.25024
-0.569268
0.325437
1.90166
1.95893
-1.92947
-1.03454
0.538653
-1.77712
-1.63073
-0.304039
1.20814
1.83647
0.985798
0.00691116
1.23225
1.14864
-1.32376
-1.284
-0.236484
0.875045
1.34186
0.485432
1.24227
1.95538
0.717733
0.84497
1.13297
0.453019
1.14492
1.76322
1.00157
1.2318
2.11818
1.22603
0.487173
0.853884
0.447773
-1.30065
-0.200465
1.72936
-0.721787
-2.30346
1.60827
0.0203627
-1.7742
0.0879895
0.703491
1.65028
0.952067
1.56714
2.56413
1.20685
1.0358
1.2878
0.437508
-0.7505
-1.63362
-1.11578
-1.43105
-2.15408
-1.12793
-0.784522
-1.10116
-0.366974
0.977806
1.11607
0.438552
1.43129
1.66751
0.710332
0.903822
1.09561
0.479745
-0.888516
-1.48089
-0.75104
-1.39151
-2.34289
-1.19727
-0.652833
-1.14284
-0.617299
1.03723
1.26518
0.404504
1.55483
1.93196
0.815686
1.03486
1.69959
0.695961
1.32627
1.5844
0.647545
1.71188
2.21721
1.09414
0.843929
1.22691
0.547884
0.969581
1.32734
0.768471
1.34929
1.88665
1.11332
0.735362
1.26303
0.687223
0.942014
1.52761
0.623361
1.46657
1.70783
0.498144
0.675155
0.6374
0.220115
0.765324
1.35826
0.753955
1.38482
2.23924
1.23661
0.687176
1.138
0.640301
-0.709901
-1.37235
-0.813602
-1.03777
-1.73321
-0.841428
-0.931291
-0.831233
-0.261493
-0.599689
-1.41977
-0.912517
-1.3614
-2.26193
-1.10726
-0.861219
-1.09924
-0.399671
1.25785
1.61609
0.541176
2.13472
2.37975
0.635739
1.69659
1.73798
0.561778
1.09637
1.42548
0.70743
1.50925
1.93483
0.933731
1.32676
1.75202
0.827096
-0.580486
2.21533
-1.56348
-1.94938
1.58034
0.25486
-1.07303
-0.789852
1.76194
-0.86463
-1.33321
-0.742448
-1.40179
-2.05518
-1.02475
-0.781712
-1.08689
-0.471712
0.728679
1.22566
0.591597
1.48505
1.7879
0.59278
0.992757
1.23547
0.421266
1.37235
1.8866
0.857116
1.68474
2.63879
1.33967
0.858503
0.981899
0.274937
-0.848249
-1.15096
-0.499079
-1.18106
-1.70352
-0.912591
-0.619157
-1.15138
-0.651349
1.01517
1.3878
0.705868
1.26463
1.75491
0.952336
0.472942
0.726048
0.488665
-1.04219
-1.49695
-0.728166
-1.25513
-1.97235
-1.23946
-0.479815
-0.991502
-0.764124
1.32551
1.8374
0.77094
1.76428
2.15215
0.994379
0.773955
0.999029
0.451085
-1.05786
1.41937
-0.0576876
-2.11003
2.32554
0.66234
-1.41724
1.0
0.547669
-0.853463
-1.55892
-1.03616
-1.32439
-1.96772
-1.24095
-0.613987
-0.957176
-0.506457
-1.21411
-1.53383
-0.658846
-1.54339
-2.16901
-1.02011
-0.646166
-0.943499
-0.531699
-0.905083
-1.35405
-0.666271
-1.32225
-1.9332
-0.927489
-0.706865
-1.04913
-0.515068
1.22671
1.80685
0.806395
1.77698
2.42807
1.26593
0.846009
1.21769
0.600441
-0.256733
1.79714
1.82275
-1.85494
-0.345123
0.837866
-1.62849
-1.48888
-0.289894
0.993192
1.50104
0.687816
1.50723
2.14019
0.995417
0.718268
1.03458
0.523007
-0.898144
-1.40344
-0.525393
-1.44317
-2.26598
-0.761128
-0.627723
-0.791898
-0.239813
-0.913367
-1.4939
-0.688038
-1.12078
-1.78556
-0.929595
-0.738262
-1.33638
-0.652523
0.680037
1.54913
0.981647
1.49986
2.49541
1.31482
1.01271
1.32784
0.528039
1.15877
1.36163
0.506451
1.45018
1.66774
0.678049
0.545689
0.587241
0.322173
0.215278
-0.592241
-0.481403
-0.941814
-1.94069
-1.02951
-1.02576
-1.9481
-0.879032
1.29613
1.81304
0.760789
1.75037
2.6448
1.22724
0.846063
1.27518
0.629184
-1.17597
-1.44498
-0.632444
-1.44099
-2.12251
-1.16908
-0.665753
-1.19291
-0.684998
0.948305
1.52304
0.786111
1.50309
2.17116
1.08657
0.784559
1.1224
0.518991
1.20814
1.39979
0.568098
1.38476
2.14008
1.33029
0.486293
1.12445
0.809164
-1.30145
-1.27432
-0.22808
-1.30648
-1.63879
-0.74206
-0.399049
-0.868354
-0.64298
0.825512
1.19047
0.692113
1.14624
1.69676
0.947873
0.594149
0.847763
0.425465
1.70403
1.4229
0.00300683
1.5558
-0.249128
-1.73453
0.0915684
-1.39202
-1.70592
-0.594206
-1.12544
-0.887909
-1.15086
-1.69657
-1.09884
-0.792006
-1.09176
-0.523387
1.50052
1.43458
0.230999
1.67476
-0.163152
-1.70161
0.666332
-1.40774
-2.03097
-1.00007
-1.49566
-0.580472
-1.47386
-2.10496
-0.806254
-0.664822
-0.914809
-0.335237
-0.500492
-0.904001
-0.759951
-1.15924
-1.84198
-1.02127
-0.723465
-0.838949
-0.538403
-0.74765
-1.24353
-0.690046
-1.12856
-1.83652
-0.883999
-0.625675
-0.908076
-0.398447
0.821559
1.5768
1.05861
1.57592
2.395
1.12505
0.869824
1.15043
0.368329
0.996229
1.54693
0.797116
1.43204
2.23644
1.09762
0.644785
0.904033
0.299751
1.15099
1.38066
0.546677
1.44026
2.0891
1.11438
0.53504
0.924971
0.518019
0.63751
1.22818
0.777009
1.20648
2.01111
1.07158
0.778957
1.13469
0.478041
0.998969
1.09626
0.551914
1.11347
1.31859
0.588804
0.643431
0.537214
0.577302
